nuncenba temperature 0.3333333
ni'u temperature 0.3333333
nilgla temperature 0.3333333
cmama'a top 0.1428571
pano top 0.1428571
mokca top 0.1428571
traji top 0.1428571
gapru top 0.1428571
NULL top 0.1428571
jipno top 0.1428571
snage'a Phonology 1.0000000
pu ate 0.3793103
selcti ate 0.0172414
NULL ate 0.0172414
citka ate 0.5862069
NULL white 0.0344828
blabi white 0.8620690
ke'a white 0.0344828
poi white 0.0344828
tsaprpiperi white 0.0344828
se sons 0.2857143
da sons 0.2857143
bersa sons 0.4285714
sampla Computer 0.3333333
skami Computer 0.3333333
samske Computer 0.3333333
makau crashed 0.2000000
vinji crashed 0.2000000
NULL crashed 0.2000000
cu crashed 0.2000000
janli crashed 0.2000000
fasnu crime 0.2500000
pu crime 0.2500000
zekri crime 0.5000000
fernandos Ferdinand 0.3333333
me Ferdinand 0.3333333
remoi Ferdinand 0.3333333
stizu seat 0.1666667
se seat 0.3333333
zutse seat 0.5000000
nai maggot 0.5000000
ga'i maggot 0.5000000
la Islamabad 0.5000000
islAmabad Islamabad 0.5000000
rom Even 0.2000000
noi Even 0.2000000
la Even 0.2000000
ji'a Even 0.2000000
tcadu Even 0.2000000
nicygau straightening 0.5000000
sipku'a straightening 0.5000000
piso'uroi watches 0.5000000
catlu watches 0.5000000
le congress 0.5000000
sorgu'etru congress 0.5000000
zasti reality 0.3333333
se reality 0.3333333
na reality 0.3333333
ei This 0.0029940
slabu This 0.0029940
lo This 0.1197605
banli This 0.0029940
i'unai This 0.0029940
paroi This 0.0029940
nandu This 0.0029940
selgu'a This 0.0029940
la'ede'u This 0.0029940
traji This 0.0119760
dei This 0.0389222
u'inai This 0.0029940
mradi'u This 0.0029940
selpla This 0.0029940
be'u This 0.0029940
vi This 0.1377246
fe'o This 0.0029940
ba'a This 0.0059880
mi'e This 0.0149701
cinri This 0.0029940
nei This 0.0059880
poi This 0.0029940
si'au This 0.0059880
ie This 0.0029940
le This 0.0568862
vitci This 0.0029940
a'u This 0.0029940
jeftu This 0.0029940
pare'u This 0.0029940
racli This 0.0029940
milxe This 0.0029940
ui.uenai This 0.0029940
je'unai This 0.0029940
me This 0.0119760
drata This 0.0059880
nolnau This 0.0029940
zdizma This 0.0029940
la'e This 0.0179641
selsmu This 0.0029940
ti This 0.4071856
NULL This 0.0329341
du This 0.0209581
za'adai This 0.0029940
za'o This 0.0029940
bi'unai This 0.0089820
tolcu'i This 0.0029940
ki'u This 0.0029940
cizra This 0.0029940
la outlined 0.3333333
ky outlined 0.3333333
rais outlined 0.3333333
cmari'e stream 0.2857143
pe'a stream 0.1428571
flecu stream 0.1428571
gau stream 0.1428571
benji stream 0.1428571
jai stream 0.1428571
norji'a Tiebreaker 1.0000000
tirna listen 0.2000000
NULL listen 0.2000000
le listen 0.1000000
za'umei listen 0.1000000
tinju'i listen 0.3000000
zgatirna listen 0.1000000
sumji sum 0.5000000
simsumji sum 0.5000000
fi ντ 1.0000000
xriso Christianity 0.3333333
xi'ojda Christianity 0.3333333
du'o Christianity 0.3333333
firca flirted 0.5000000
pu flirted 0.5000000
litru traveler 1.0000000
pinsi pencil 0.8000000
zo'u pencil 0.1000000
ku pencil 0.1000000
je'e complicated 0.2500000
pluja complicated 0.7500000
ka conviction 0.3333333
krici conviction 0.3333333
bitmu'i conviction 0.3333333
kutytu'a Sahara 0.5000000
sa'aras.zei Sahara 0.5000000
clite general 0.5000000
su'a general 0.5000000
asun Asun 1.0000000
e Plato 0.0714286
la Plato 0.3571429
platon Plato 0.3571429
mi Plato 0.0714286
ku Plato 0.0714286
dirba Plato 0.0714286
madjan Mahjong 1.0000000
tolyfadni special 0.2500000
steci special 0.2500000
xu special 0.2500000
te'irselstati special 0.2500000
lonu mail 1.0000000
naja death 0.0769231
mrobi'o death 0.1538462
ko'e death 0.0769231
mi death 0.0769231
pu death 0.0769231
nunmro death 0.0769231
namsnada death 0.0769231
nu death 0.2307692
pi'e death 0.0769231
lidvilti'a death 0.0769231
piso'o enterprise 0.5000000
li enterprise 0.5000000
le fogey 0.3333333
nu fogey 0.3333333
tolci'o fogey 0.3333333
pe'a literally 0.5000000
nai literally 0.5000000
bisyladru ice 0.2857143
bisli ice 0.5714286
jenai ice 0.1428571
NULL So 0.0625000
ue So 0.0625000
isemu'ibo So 0.0625000
o'o So 0.0625000
ge'e So 0.0625000
ja'o So 0.1875000
ni'i So 0.0625000
cu'i So 0.1250000
sai So 0.0625000
fanza So 0.0625000
iseki'ubo So 0.1250000
tatpi So 0.0625000
zasti legend 0.3333333
ranmi legend 0.3333333
baskervil legend 0.3333333
spusku Answer 0.1000000
li'u Answer 0.4000000
preti Answer 0.4000000
ko Answer 0.1000000
tu'a pass 0.0526316
benji pass 0.0526316
pa'u pass 0.0526316
loi pass 0.0526316
fi pass 0.0526316
eksameno pass 0.0526316
snada pass 0.1578947
selzdifri pass 0.1052632
dunda pass 0.1578947
ly pass 0.0526316
ve pass 0.0526316
nagi'a pass 0.0526316
pagre pass 0.1052632
vulfygan.amade,us.motsart Mozart 1.0000000
lo phonetic 0.5000000
banvoksle phonetic 0.5000000
pe'a bees 0.2500000
bifce bees 0.2500000
simsa bees 0.2500000
fi'o bees 0.2500000
selsenva express 0.5000000
di'e express 0.5000000
carmi twinkling 0.3333333
bu'u twinkling 0.3333333
desku twinkling 0.3333333
ginske Genetics 1.0000000
ko'a himself 0.1428571
du'u himself 0.0714286
nei himself 0.0714286
smadi himself 0.0714286
ba himself 0.0714286
vacysai himself 0.0714286
sezycatra himself 0.1428571
zukcfu himself 0.0714286
du himself 0.0714286
NULL himself 0.0714286
ma'urcu'e himself 0.0714286
zabna himself 0.0714286
akenatyn Akhenaten 1.0000000
ta'e classical 0.2500000
klasika classical 0.2500000
nolzgi classical 0.5000000
cikna awake 1.0000000
cimei brothers 0.0769231
bruna brothers 0.6923077
ke brothers 0.0769231
da brothers 0.0769231
ba'o brothers 0.0769231
muclai spoonful 1.0000000
xamsi within 1.0000000
limna swimmers 0.3333333
prenu swimmers 0.3333333
jivna swimmers 0.3333333
fi refused 0.3333333
fapro refused 0.3333333
cu refused 0.3333333
lo listening 0.0833333
ca'o listening 0.0833333
depyjdari listening 0.0833333
tirna listening 0.3333333
tinju'i listening 0.4166667
ciska spelled 0.3333333
jy spelled 0.3333333
drani spelled 0.3333333
samske science 0.1111111
cumymu'efi'a science 0.3333333
selpliske science 0.1111111
ka'oske science 0.1111111
saske science 0.1111111
rarske science 0.1111111
tedyske science 0.1111111
perus Peru 1.0000000
jatna president 0.9285714
gugja'a president 0.0714286
lo Baseball 0.5000000
ga'arboiterjvi Baseball 0.5000000
pujeca solved 0.2500000
na solved 0.2500000
se solved 0.2500000
namsnada solved 0.2500000
mataios Matthew 1.0000000
jinmrplati Platinum 1.0000000
NULL squares 0.5000000
dijypanka squares 0.2500000
pe squares 0.2500000
kilto thousands 0.3333333
za'u thousands 0.3333333
be thousands 0.3333333
tubnu pipe 1.0000000
cinjukus Shinjuku 0.5000000
la Shinjuku 0.5000000
cu zombies 0.5000000
cnifusra zombies 0.5000000
doi Climb 1.0000000
nai Jane 0.0769231
jein Jane 0.0769231
cy Jane 0.0769231
djein Jane 0.3076923
la.djein Jane 0.0769231
la Jane 0.3076923
mi'u Jane 0.0769231
pigazanos Pigazzano 1.0000000
fa labor 0.2000000
jalge labor 0.2000000
nonprali labor 0.2000000
nungu'a labor 0.2000000
ba'a labor 0.2000000
zukte organisation 1.0000000
patfu His 0.0952381
sidbo His 0.0158730
lo His 0.2857143
le His 0.0793651
smaji His 0.0317460
ranji His 0.0158730
runkre His 0.0158730
djaberuakis His 0.0158730
culno His 0.0158730
stati His 0.0158730
smoka His 0.0158730
speni His 0.0158730
seldau His 0.0158730
ne'a His 0.0158730
ra His 0.1269841
mamtu His 0.0158730
bruni His 0.0158730
seltra His 0.0158730
ko'a His 0.1269841
mensi His 0.0317460
fetsi His 0.0158730
rapli increased 0.2500000
zilzena increased 0.2500000
sicpi increased 0.2500000
ce'u increased 0.2500000
NULL slightly 0.3333333
ka slightly 0.3333333
bilma slightly 0.3333333
flapro rebellious 0.5000000
fapro rebellious 0.5000000
ganse Flying 0.3333333
vau Flying 0.3333333
la Flying 0.3333333
nu upside 0.2500000
gapnitfa'egau upside 0.2500000
ja'e upside 0.2500000
gapnitfa'e upside 0.2500000
da'arsi'u Men 0.5000000
da Men 0.5000000
carmi brightened 1.0000000
se topic 0.5000000
datni topic 0.5000000
nuncasnu one 0.0048780
se one 0.0487805
bramau one 0.0048780
moklu one 0.0048780
do'a one 0.0048780
blanu one 0.0146341
remoi one 0.0048780
klesi one 0.0048780
ca'a one 0.0048780
melbi one 0.0048780
parpika one 0.0048780
lazni one 0.0097561
tu one 0.0048780
kevin one 0.0048780
xajmi one 0.0048780
tolfesru'e one 0.0048780
sanmi one 0.0048780
djan one 0.0048780
datpre one 0.0146341
pendo one 0.0048780
du one 0.0146341
NULL one 0.0731707
zu'u one 0.0097561
mi'u one 0.0048780
nagoi,ias one 0.0048780
ropamoi one 0.0097561
no one 0.0878049
ricfu one 0.0048780
po'o one 0.0048780
te'a one 0.0097561
panpi one 0.0048780
si'au one 0.0048780
zdadi'u one 0.0048780
ropa one 0.0195122
ca'aku one 0.0048780
noi one 0.0048780
mlemau one 0.0048780
ci'i one 0.0048780
pamei one 0.0048780
de'i one 0.0048780
junla one 0.0048780
sutra one 0.0097561
meris one 0.0048780
nafselte'i one 0.0097561
ze'i one 0.0048780
pixra one 0.0048780
prenu one 0.0390244
i'unai one 0.0048780
xunre one 0.0048780
jalra one 0.0097561
su'epa one 0.0097561
kurosa,uan one 0.0048780
be one 0.0536585
su'o one 0.0097561
ta one 0.0048780
ti one 0.0292683
fesli'a one 0.0048780
troci one 0.0048780
da one 0.0975610
ja'a one 0.0048780
pa one 0.1853659
da'a one 0.0048780
co'e one 0.0097561
selctukansa one 0.0097561
ji'a one 0.0048780
terjbe one 0.0048780
a one 0.0048780
poi platform 0.5000000
tsina platform 0.5000000
nu memories 0.5000000
morji memories 0.5000000
nilsutra Speed 0.5000000
snanilsutra Speed 0.5000000
pu tasted 0.3333333
smaka tasted 0.3333333
za'umei tasted 0.3333333
facebook Facebook 0.1000000
NULL Facebook 0.1000000
faisybuk Facebook 0.1000000
gy Facebook 0.2000000
cu'u Facebook 0.1000000
account Facebook 0.1000000
la'o Facebook 0.1000000
pe Facebook 0.1000000
la Facebook 0.1000000
ji'i 50 0.5000000
muno 50 0.5000000
mansa satisfied 0.4444444
da satisfied 0.1111111
se satisfied 0.3333333
selmansa satisfied 0.1111111
larcu Art 1.0000000
jdice yet 0.0714286
xance yet 0.0357143
tolcando yet 0.0357143
zukte yet 0.0714286
cnita yet 0.0357143
NULL yet 0.0714286
do yet 0.0357143
pu'o yet 0.2142857
pinka yet 0.0357143
klama yet 0.0357143
ba'o yet 0.0357143
lifri yet 0.0357143
toljitro yet 0.0357143
tecu'u yet 0.0357143
kavbu yet 0.0357143
morsi yet 0.0357143
danfu yet 0.0357143
ka yet 0.0357143
ba'oxuku yet 0.0357143
pyd yet 0.0357143
a'ucai fascinating 1.0000000
tolvifne stale 1.0000000
mi'e loving 0.1250000
prami loving 0.5000000
ka loving 0.1250000
se loving 0.1250000
pedypa'i loving 0.1250000
zernalfu'e innocence 1.0000000
ci'i Infinity 1.0000000
ganlo closed 0.8000000
ga'orgau closed 0.2000000
janta bill 0.6666667
dunda bill 0.3333333
rinkyra'a cancer 0.2000000
kenra cancer 0.4000000
se cancer 0.2000000
djaruntyrango cancer 0.2000000
jinci scissors 0.5000000
ji scissors 0.5000000
bolci round 0.1000000
je'i round 0.2000000
carna round 0.1000000
xruti round 0.1000000
remei round 0.5000000
va'ucmo sigh 1.0000000
du'e expensive 0.1250000
kargu expensive 0.7083333
ni expensive 0.0416667
le expensive 0.0416667
jdima expensive 0.0416667
kargyrai expensive 0.0416667
pa 17 0.2500000
li 17 0.2500000
mrena'u 17 0.2500000
ze 17 0.2500000
cu failed 0.2500000
pu failed 0.0833333
fliba failed 0.5000000
ke'a failed 0.1666667
se concept 0.2500000
da concept 0.2500000
smuni concept 0.2500000
si'o concept 0.2500000
se attracted 0.5000000
cinmle attracted 0.5000000
kampidjip Point 1.0000000
ctuske Pedagogy 1.0000000
u'usai truly 0.5000000
je'u truly 0.5000000
vu gunshot 0.2500000
nu gunshot 0.2500000
se gunshot 0.2500000
celxa'igau gunshot 0.2500000
la sailed 1.0000000
mortimer pulled 0.2500000
to'o pulled 0.2500000
pu pulled 0.2500000
lacpu pulled 0.2500000
pa'e unbiased 1.0000000
na'e non-A 1.0000000
be assistant 0.2000000
sidju assistant 0.4000000
kansa assistant 0.2000000
mi assistant 0.2000000
NULL Seen 0.6666667
lo Seen 0.3333333
tubnu tunnel 1.0000000
cadzu strolled 0.3333333
gunja'a strolled 0.3333333
pu strolled 0.3333333
mabla Pessimists 0.3333333
lo Pessimists 0.3333333
kanpe Pessimists 0.3333333
nunbrari'a zoom 1.0000000
lo Apples 0.2000000
lo'e Apples 0.3000000
plise Apples 0.5000000
cu ambassador 0.5000000
gugyka'i ambassador 0.5000000
caca'o love 0.0062112
pamsi'u love 0.0124224
gi love 0.0124224
pamcni love 0.0062112
pambi'o love 0.0124224
iu love 0.0496894
puktce love 0.0062112
se love 0.0186335
nelci love 0.1118012
lepu'u love 0.0062112
ko'i love 0.0062112
tubypa'i love 0.0062112
nunprami love 0.0062112
pirlarfi'i love 0.0062112
da love 0.0062112
NULL love 0.0372671
ci'irpa'i love 0.0062112
go'ira'o love 0.0062112
campa'i love 0.0062112
zu'ai love 0.0062112
lindas love 0.0062112
prami love 0.6521739
djulIEt love 0.0062112
selkei playthings 0.1666667
caprai playthings 0.1666667
co playthings 0.1666667
ku playthings 0.1666667
noi playthings 0.1666667
jai playthings 0.1666667
stizu Blue 0.5000000
blanu Blue 0.5000000
frili easily 0.5000000
tolse'itro easily 0.2500000
ruble easily 0.2500000
sambau Machine 1.0000000
me'i Less 1.0000000
my tells 0.2500000
cusku tells 0.2500000
roi tells 0.2500000
minde tells 0.2500000
xo price 0.1818182
NULL price 0.0909091
li price 0.1818182
jdima price 0.3636364
rupnu price 0.1818182
ziptu'a Antarctica 1.0000000
zirkliru Iodine 1.0000000
si'au seem 0.1428571
ka seem 0.1428571
simlu seem 0.7142857
pastu dress 0.6153846
blabu dress 0.0769231
taxfu dress 0.0769231
pasyskaci dress 0.0769231
dasni dress 0.0769231
noi dress 0.0769231
zo n 0.2500000
to'a n 0.2500000
ny n 0.2500000
la'e n 0.2500000
sackycmu Phosphorus 1.0000000
budjo shrine 0.3333333
malsi shrine 0.3333333
i shrine 0.3333333
pare'u sold 0.5000000
selja'o sold 0.5000000
gugja'a body 0.1428571
mroxadni body 0.1428571
jadyke'a body 0.1428571
morsi body 0.1428571
cmima body 0.1428571
mivyxadni body 0.1428571
klesi body 0.1428571
xu Red 0.1666667
lo Red 0.1666667
xunre Red 0.5000000
la Red 0.1666667
camgusmis Camgusmis 0.5000000
cu Camgusmis 0.5000000
na'e interrupting 0.2000000
raktu interrupting 0.2000000
a'o interrupting 0.2000000
do interrupting 0.2000000
ro'a interrupting 0.2000000
voikla planes 0.3333333
lei planes 0.3333333
vinji planes 0.3333333
tenfa blackboard 1.0000000
jdazei sin 1.0000000
velmicyspa herb 1.0000000
ma monkeys 0.3333333
smani monkeys 0.6666667
nikodimys Nicodemus 0.3333333
retsku Nicodemus 0.3333333
la Nicodemus 0.3333333
brilugi gyre 1.0000000
livga damages 1.0000000
djudyt Judith 1.0000000
vacysai Dinner 0.5000000
lo Dinner 0.5000000
miraris.uos Vos 1.0000000
cino product 0.5000000
pilji product 0.5000000
lusifEravampirElas Vampirella 1.0000000
certu Since 0.2500000
romas Since 0.2500000
mu'i Since 0.2500000
iseki'ubo Since 0.2500000
xandegda'i drumming 0.3333333
nu drumming 0.3333333
ko'a drumming 0.3333333
farlygau vase 0.3333333
kabri vase 0.3333333
vasru vase 0.3333333
xu Am 1.0000000
mutce cried 0.0833333
piro cried 0.0833333
klaku cried 0.4166667
NULL cried 0.0833333
ze'a cried 0.0833333
pu cried 0.2500000
cu pin 0.5000000
pijne pin 0.5000000
dinvau purse 1.0000000
i experimental 0.2000000
ma experimental 0.2000000
te experimental 0.2000000
ciplanli experimental 0.2000000
stura experimental 0.2000000
pu crossposted 0.3333333
ze'o crossposted 0.3333333
benji crossposted 0.3333333
ta aboard 1.0000000
frica reader 1.0000000
nu decisions 0.3333333
jdice decisions 0.3333333
plajva decisions 0.3333333
lo Fertile 0.5000000
ferti Fertile 0.5000000
gugyfrica ladies 0.5000000
ninmu ladies 0.5000000
airland Republic 0.2000000
gubyseltru Republic 0.2000000
zei.kongos Republic 0.2000000
tce'exygu'e Republic 0.2000000
kongos Republic 0.2000000
Kittens Kittens 0.5000000
gy.US Kittens 0.5000000
ro Math 0.3333333
cmaci Math 0.3333333
lo Math 0.3333333
ca fifteenth 0.5000000
pamumoi fifteenth 0.5000000
ze'i journey 0.5000000
litru journey 0.5000000
xanri minds 1.0000000
daplrxometepe Ometepe 1.0000000
lo'i other 0.0147059
simsysi'u other 0.0441176
lu'o other 0.0147059
simpengau other 0.0147059
za other 0.0147059
ckini other 0.0147059
slabu other 0.0294118
simxu other 0.1323529
tavysi'u other 0.0147059
jivna other 0.0147059
do other 0.0294118
fa'u other 0.0294118
zu'ai other 0.0147059
na'e other 0.0147059
pa other 0.0147059
pamsi'u other 0.0294118
vei other 0.0147059
drata other 0.1617647
bei other 0.0147059
ka other 0.0735294
ficysi'u other 0.0147059
cmana other 0.0147059
su'ai other 0.0147059
va'i other 0.0588235
tolzdisi'u other 0.0294118
re other 0.0294118
kruca other 0.0147059
zu'u other 0.0294118
xi other 0.0294118
NULL other 0.0147059
prami other 0.0294118
e other 0.0147059
jai stronger 0.1250000
rinka stronger 0.1250000
mi'ai stronger 0.1250000
tsali stronger 0.3750000
nu stronger 0.1250000
zenba stronger 0.1250000
y frogs 0.5000000
ro frogs 0.5000000
gy.Pinocchio.gy Pinocchio 0.2500000
pinocchio Pinocchio 0.2500000
la'o Pinocchio 0.2500000
la'oi Pinocchio 0.2500000
nai translates 0.5000000
ga translates 0.5000000
secau effort 0.2000000
gunka effort 0.2000000
cikybi'o effort 0.2000000
ka effort 0.2000000
nandu effort 0.2000000
gy.Abraham Abraham 0.3333333
la'o Abraham 0.3333333
Lincoln.gy Abraham 0.3333333
la.umemuran Mr 0.0833333
kimuras Mr 0.0833333
braun Mr 0.0833333
la.uan Mr 0.0833333
me Mr 0.1666667
la Mr 0.4166667
deivis Mr 0.0833333
la Sauron 0.3333333
sauron Sauron 0.3333333
da Sauron 0.3333333
zdile amusing 1.0000000
sai Hahaha 0.5000000
u'i Hahaha 0.5000000
loi flock 1.0000000
lo'e Things 0.3333333
jalge Things 0.3333333
fasnu Things 0.3333333
selgugycmi citizenship 1.0000000
gombesa coelacanth 0.5000000
ku coelacanth 0.5000000
mei 50,000 0.3333333
munoki'o 50,000 0.3333333
me'i 50,000 0.3333333
xadykelci'e sports 0.2000000
xadgu'a sports 0.2000000
ke sports 0.1000000
esporte sports 0.5000000
gu'i drink 0.0163934
xalpinxe drink 0.0327869
selbapselfu drink 0.0163934
ta'e drink 0.0327869
selpinxe drink 0.0163934
pinxe drink 0.8852459
ke'a smarter 0.3333333
ka smarter 0.3333333
mencremau smarter 0.3333333
mi coworkers 0.1666667
xu coworkers 0.1666667
gunkansa coworkers 0.3333333
pe coworkers 0.3333333
toldji refuses 1.0000000
relxilma'e sheds 0.1666667
zi'o sheds 0.1666667
loi sheds 0.1666667
bei sheds 0.1666667
pudydi'u sheds 0.1666667
be sheds 0.1666667
no useless 0.2500000
kosmu useless 0.2500000
da useless 0.2500000
tolplixau useless 0.2500000
gy.Mrs greeted 0.1666667
misiz.parkyr greeted 0.1666667
rinsa greeted 0.6666667
cticinza afraid 0.0303030
iinai afraid 0.0303030
ba'a afraid 0.0303030
tu'a afraid 0.0303030
NULL afraid 0.0909091
seldi'e afraid 0.0303030
terpa afraid 0.7272727
u'u afraid 0.0303030
djica desire 0.1666667
panpi desire 0.1666667
fagri desire 0.1666667
truci'e desire 0.1666667
erve desire 0.1666667
ro desire 0.1666667
tordu Short 0.5000000
lo Short 0.5000000
sovda egg 0.4000000
NULL egg 0.2000000
tarbi egg 0.2000000
jipci egg 0.2000000
ta'u exemplifies 1.0000000
gento Argentinian 0.6666667
xy Argentinian 0.3333333
ralju principal 1.0000000
derdembi peanuts 1.0000000
ci'arselpapri notebook 0.2500000
srana notebook 0.2500000
se notebook 0.2500000
va notebook 0.2500000
ku squatting 0.2000000
fo squatting 0.2000000
demtse squatting 0.2000000
poi squatting 0.2000000
smimlu squatting 0.2000000
kalifornias California 1.0000000
morgu'e Morocco 1.0000000
ke'o pardon 1.0000000
tsuku comes 0.1052632
selfuzme comes 0.1578947
kris comes 0.0526316
gi'o comes 0.0526316
ti comes 0.0526316
NULL comes 0.0526316
tu'a comes 0.0526316
kamfu'e comes 0.1052632
kei comes 0.0526316
klama comes 0.3157895
fi ripped 0.3333333
zerle'a ripped 0.3333333
pu ripped 0.3333333
be misunderstood 0.1666667
pe'i misunderstood 0.1666667
pu misunderstood 0.1666667
jmisre misunderstood 0.1666667
fi misunderstood 0.1666667
selsku misunderstood 0.1666667
bargu'e country 0.0294118
cmima country 0.0588235
nurma country 0.0294118
lo'e country 0.0588235
tergu'e country 0.0294118
se country 0.0588235
gugde country 0.6764706
poi country 0.0588235
ubuntus operating 1.0000000
betka beet 0.2500000
ciblu beet 0.2500000
ti beet 0.2500000
naje beet 0.2500000
NULL kitchen 0.1666667
jupku'a kitchen 0.8333333
ckana beds 1.0000000
tolfapro Agreements 1.0000000
remoi zeroth 1.0000000
jo'a yes 0.1000000
drani yes 0.1000000
go'i yes 0.1000000
zo yes 0.2000000
ku'o yes 0.1000000
ie yes 0.1000000
ri'e yes 0.1000000
uicai yes 0.1000000
iesai yes 0.1000000
ke greasy 0.2500000
ckaji greasy 0.2500000
grasu greasy 0.2500000
milxe greasy 0.2500000
ractyrectu rabbit 0.5000000
cicyractu rabbit 0.5000000
di'i comics 0.2500000
fi comics 0.2500000
loi comics 0.2500000
lisxracku comics 0.2500000
selku'e gap 1.0000000
porc Porsche 0.5000000
la Porsche 0.5000000
dat.seventiz.cous 70s 1.0000000
nikolas Nicholas 0.5000000
la Nicholas 0.5000000
to'e dislike 0.4000000
nelci dislike 0.4000000
tolnelci dislike 0.2000000
sanmi meat 0.0769231
rectu meat 0.5384615
geryrectu meat 0.0769231
ractyrectu meat 0.0769231
smacyrectu meat 0.0769231
be meat 0.0769231
smani meat 0.0769231
jinmrberbi Erbium 1.0000000
ti washing 0.2222222
ei washing 0.1111111
be'u washing 0.1111111
lumci washing 0.5555556
le if 0.0114943
inaja if 0.0459770
na.u if 0.0114943
na.a if 0.0114943
ka if 0.0114943
gi'enai if 0.0114943
mabla if 0.0114943
simlu if 0.0114943
gu if 0.0114943
nolnau if 0.0114943
jei if 0.0229885
NULL if 0.1034483
caksova if 0.0114943
jo if 0.0114943
retpei if 0.0114943
senpi if 0.0229885
spoja if 0.0114943
iacai if 0.0114943
lo if 0.1149425
ijo if 0.0459770
xukau if 0.0459770
ju'o if 0.0114943
lodu'u if 0.0114943
ijanai if 0.0114943
oipeida'i if 0.0114943
ganai if 0.0229885
nu if 0.1149425
santa if 0.0114943
birti if 0.0114943
gijanai if 0.0114943
ranxi if 0.0114943
rinsi'o if 0.0114943
va'o if 0.0574713
u if 0.0114943
anai if 0.0114943
fau if 0.0229885
giju if 0.0114943
vobi if 0.0114943
da'i if 0.0344828
se.unai if 0.0114943
o if 0.0229885
te turned 0.1052632
cargau turned 0.0526316
pezli turned 0.1052632
na'aktigau turned 0.0526316
co'i turned 0.0526316
labybi'o turned 0.0526316
pu turned 0.1578947
karlos turned 0.0526316
fi turned 0.0526316
NULL turned 0.1052632
facki turned 0.1578947
gapnitfa'egau turned 0.0526316
te upon 0.2000000
NULL upon 0.2000000
se upon 0.2000000
da upon 0.2000000
lacri upon 0.2000000
doris ! 0.0018519
alis ! 0.0018519
melbi ! 0.0074074
tirxu ! 0.0055556
birje ! 0.0018519
ле ! 0.0018519
fei ! 0.0018519
oisai ! 0.0018519
sipna ! 0.0037037
uidai ! 0.0074074
zutse ! 0.0018519
a'ucai ! 0.0018519
uacai ! 0.0055556
jinga ! 0.0018519
le'o ! 0.0166667
karce ! 0.0018519
fe'o ! 0.0037037
renro ! 0.0037037
datygugvi'e ! 0.0018519
zabna ! 0.0018519
a'unaicai ! 0.0018519
e'u ! 0.0018519
ge'e ! 0.0018519
ki'ai ! 0.0037037
bilma ! 0.0018519
mimis ! 0.0037037
sai ! 0.0314815
ge'orge ! 0.0018519
u'ucai ! 0.0037037
i ! 0.0592593
pavdei ! 0.0018519
a'e ! 0.0037037
cukta ! 0.0037037
go'e ! 0.0018519
ki'asku ! 0.0018519
i'ecai ! 0.0037037
ui ! 0.0148148
cizra ! 0.0018519
NULL ! 0.3111111
uesai ! 0.0018519
u'anai ! 0.0037037
tedycte ! 0.0037037
je'ugo'i ! 0.0018519
zo'onai ! 0.0018519
ninyna'a ! 0.0018519
li'a ! 0.0018519
ju'i ! 0.0037037
ca'erbi'e ! 0.0018519
si ! 0.0018519
ue ! 0.0037037
banli ! 0.0037037
du'o ! 0.0018519
puzu ! 0.0018519
iicai ! 0.0129630
ki'e ! 0.0074074
kargu ! 0.0055556
taiku ! 0.0018519
stagau ! 0.0018519
dormijysai ! 0.0018519
jaspu ! 0.0018519
ro'u ! 0.0018519
pesku'i ! 0.0037037
sam ! 0.0018519
za'a ! 0.0018519
selsnatci ! 0.0018519
cecla ! 0.0018519
xarnu ! 0.0018519
o'i ! 0.0074074
ckafi ! 0.0018519
tedvanci ! 0.0037037
oi ! 0.0166667
tolcu'i ! 0.0018519
ii ! 0.0055556
i'e ! 0.0018519
la.aleks ! 0.0018519
rau ! 0.0018519
ionai ! 0.0037037
coi ! 0.0407407
kalci ! 0.0018519
u'e ! 0.0259259
doi ! 0.0018519
malcrexalbo ! 0.0018519
cnidu'e ! 0.0018519
fi'i ! 0.0018519
co'o ! 0.0185185
cai ! 0.0129630
carmi ! 0.0018519
o'o ! 0.0018519
funca ! 0.0018519
bansupu'a ! 0.0018519
zo'o ! 0.0018519
ki'ecai ! 0.0018519
i'i ! 0.0018519
xagji ! 0.0018519
be'u ! 0.0018519
xendo ! 0.0018519
saksruseibo'i ! 0.0018519
a'i ! 0.0018519
ua ! 0.0074074
ki'esai ! 0.0018519
ui.uenai ! 0.0018519
uu ! 0.0037037
krefu ! 0.0018519
kukte ! 0.0055556
snada ! 0.0018519
ko ! 0.0611111
iecai ! 0.0018519
bi'a ! 0.0018519
fenki ! 0.0037037
tcelaldo ! 0.0018519
go'i ! 0.0018519
bajra ! 0.0018519
bazi ! 0.0018519
uecai.ianai ! 0.0018519
ne'aunai ! 0.0018519
la.muiriel ! 0.0037037
dzitumbau ! 0.0018519
zgikrxumpa ! 0.0018519
uo ! 0.0018519
la.linuks ! 0.0018519
salci ! 0.0018519
ianaicai ! 0.0018519
patsti ! 0.0018519
fazgau ! 0.0018519
bebzu'e ! 0.0018519
gunta ! 0.0018519
pau ! 0.0018519
sisti ! 0.0018519
nalra'u ! 0.0018519
uecai ! 0.0018519
u'u ! 0.0037037
kelis ! 0.0018519
zukte ! 0.0018519
nonon ! 0.0018519
a'onai ! 0.0018519
cakcurnu ! 0.0018519
vindu ! 0.0018519
tolsi'a ! 0.0018519
malsorgle ! 0.0018519
a'o ! 0.0018519
uanaicai ! 0.0018519
iesai ! 0.0018519
vukrygugde ! 0.0018519
uisai ! 0.0018519
pa'irmu'i ! 0.0018519
banzu ! 0.0018519
pritu ! 0.0018519
dansu ! 0.0018519
sidbo ! 0.0037037
zo'e ! 0.0018519
ie ! 0.0018519
rejyjveprigau ! 0.0018519
uicai ! 0.0018519
nik ! 0.0018519
du'e ! 0.0018519
di'ai ! 0.0222222
u'o ! 0.0018519
tcati ! 0.0018519
kosta sweater 0.2000000
mu'i sweater 0.2000000
sisti sweater 0.2000000
dasni sweater 0.2000000
nivycreka sweater 0.2000000
caxmati Chess 1.0000000
zei Caribbean 0.5000000
karibes Caribbean 0.5000000
jacke'o zero 0.6666667
be zero 0.3333333
cicricfoi jungle 1.0000000
sonci soldiers 0.6000000
za'u soldiers 0.2000000
ca soldiers 0.2000000
ni due 0.5000000
tedydesku due 0.5000000
canti gastrointestinal 1.0000000
zmadu easier 0.5000000
postskript easier 0.5000000
spati Plant 1.0000000
cmala'u pond 0.5000000
lalxu pond 0.5000000
jaurvasmro drowned 1.0000000
gramin Grameen 1.0000000
da'inai matter 0.0555556
tcini matter 0.0555556
bi'unai matter 0.0555556
u matter 0.0555556
vajni matter 0.0555556
za'i matter 0.0555556
nalvai matter 0.0555556
NULL matter 0.1666667
preti matter 0.0555556
se.unai matter 0.0555556
ctununta'a matter 0.0555556
nalvajni matter 0.0555556
mo matter 0.0555556
na.u matter 0.0555556
fa matter 0.0555556
pu matter 0.0555556
zifsnada nearly 0.2500000
pu nearly 0.2500000
naru'e nearly 0.5000000
so'o b 1.0000000
cisma smiling 0.4285714
sega'a smiling 0.1428571
ka smiling 0.1428571
ca smiling 0.1428571
fa'a smiling 0.1428571
by.cimoi B3 0.5000000
mivytcuxu'i B3 0.5000000
fagystigau blow 0.5000000
loi blow 0.5000000
porto Portuguese 1.0000000
mencremau disciples 1.0000000
cu time-wasting 0.2500000
sidbo time-wasting 0.2500000
se time-wasting 0.2500000
temselfesti time-wasting 0.2500000
zoi NNC 0.5000000
nynycy NNC 0.2500000
la'o NNC 0.2500000
NULL island 0.5000000
daplu island 0.5000000
kajde warn 0.5000000
jai warn 0.5000000
fasybau French 0.2537313
tu'a French 0.0149254
fo French 0.0447761
lo French 0.2388060
fy French 0.0149254
le French 0.0149254
bau French 0.0149254
frasybangu French 0.0298507
frasybau French 0.0597015
fraso French 0.2686567
la French 0.0149254
ce'u French 0.0149254
stati French 0.0149254
cu resumed 0.5000000
skot resumed 0.5000000
cagyske Agriculture 1.0000000
rom wasn 0.0400000
NULL wasn 0.0400000
tom wasn 0.0400000
le wasn 0.0400000
na'e wasn 0.0400000
remlabno wasn 0.0400000
bruna wasn 0.0400000
jundi wasn 0.0400000
la.rom wasn 0.0400000
to'e wasn 0.0400000
tepygau wasn 0.0400000
pu wasn 0.4400000
noda wasn 0.0400000
1920 wasn 0.0400000
nu wasn 0.0400000
lo Her 0.2051282
le Her 0.1025641
skapi Her 0.0256410
patfu Her 0.0256410
lutsiferas Her 0.0256410
mamta Her 0.0256410
oidai Her 0.0256410
nunspe Her 0.0256410
smaji Her 0.0512821
ra Her 0.1538462
gy.Lucifera.gy Her 0.0256410
ctununta'a Her 0.0256410
mensi Her 0.0256410
clani Her 0.0256410
mamtu Her 0.0256410
ko'a Her 0.1538462
la Her 0.0256410
moklu Her 0.0256410
metxani methane 1.0000000
onai living 0.0588235
ca'o living 0.0588235
jmive living 0.1176471
befi living 0.1176471
tu'a living 0.0588235
selzda living 0.0588235
cmatca living 0.0588235
co'a living 0.0588235
za living 0.0588235
narge living 0.0588235
xabju living 0.0588235
pavysei living 0.0588235
gasnu living 0.0588235
civla living 0.1176471
po boss 0.1250000
gunja'a boss 0.1250000
do boss 0.1250000
jatna boss 0.6250000
zmadu harder 0.2142857
ka harder 0.2142857
carmi harder 0.2142857
saske harder 0.0714286
nadmau harder 0.1428571
fi harder 0.0714286
tai harder 0.0714286
be feeds 0.1250000
jai feeds 0.1250000
gau feeds 0.1250000
ctigau feeds 0.1250000
vo'a feeds 0.1250000
cu feeds 0.1250000
sabji feeds 0.1250000
fi feeds 0.1250000
ka heroes 0.5000000
balpre heroes 0.5000000
se audiencely-beautiful 0.3333333
melbi audiencely-beautiful 0.3333333
tavla audiencely-beautiful 0.3333333
narselrirni orphan 1.0000000
la Chris 0.4000000
cuxna Chris 0.2000000
kris Chris 0.4000000
da cares 0.1111111
se cares 0.3333333
cinri cares 0.1111111
mu'i cares 0.1111111
kurji cares 0.1111111
soi cares 0.1111111
vajni cares 0.1111111
fintce prolific 1.0000000
pol Bunyan 0.3333333
la Bunyan 0.3333333
banian Bunyan 0.3333333
tcatypatxu teapot 1.0000000
poi traditionally 1.0000000
do discovering 0.3333333
facki discovering 0.3333333
nu discovering 0.3333333
mo'u got 0.0133333
cnemu got 0.0133333
bu'o got 0.0133333
a'enai got 0.0133333
spebi'o got 0.0133333
Alis got 0.0133333
pu got 0.1200000
fengu got 0.0133333
cpacu got 0.0533333
birje got 0.0133333
co'i got 0.0133333
bevri got 0.0133333
ralte got 0.0133333
catra got 0.0133333
co'a got 0.1200000
zifsnada got 0.0133333
cinmo got 0.0133333
se got 0.0133333
clira got 0.0133333
je'asai got 0.0133333
pilno got 0.0133333
vudypai got 0.0133333
puki got 0.0133333
bab got 0.0133333
tsuku got 0.0133333
selsau got 0.0133333
nitcu got 0.0666667
nalju'o got 0.0133333
panzi got 0.0133333
jadykevri'a got 0.0933333
fonjudri got 0.0133333
danti got 0.0133333
rivbi got 0.0133333
renytcana got 0.0133333
da got 0.0133333
NULL got 0.0533333
pampe'o got 0.0133333
cimce'oranbi'o got 0.0133333
trobi'o got 0.0133333
datni got 0.0266667
zo'u got 0.0133333
puzisai got 0.0133333
se Where 0.0044843
fatci Where 0.0044843
gusta Where 0.0044843
zvati Where 0.1659193
jim Where 0.0044843
ma Where 0.5695067
nerkalri Where 0.0044843
stuzi Where 0.0044843
jbirai Where 0.0089686
bu'u Where 0.0224215
lo Where 0.0538117
karcyckiku Where 0.0134529
vama Where 0.0044843
NULL Where 0.1165919
vi Where 0.0179372
jbubu'u tablecloth 0.5000000
noi tablecloth 0.5000000
da married 0.0270270
spesi'u married 0.0270270
co'a married 0.0270270
spebi'o married 0.1891892
spebi'osi'u married 0.0270270
se married 0.0540541
speni married 0.5945946
nunspe married 0.0270270
pu married 0.0270270
xe messenger 0.5000000
benji messenger 0.5000000
zvati Over 0.5000000
mu'o Over 0.5000000
paso seven 0.1000000
li seven 0.4000000
ze seven 0.5000000
aisak.niuton Newton 0.3333333
la Newton 0.3333333
niut,n Newton 0.3333333
ne'i clocks 0.3333333
NULL clocks 0.3333333
junla clocks 0.3333333
seri'anai stop 0.0333333
raijibni stop 0.0333333
sorprekarce stop 0.0333333
NULL stop 0.0333333
tu'a stop 0.0333333
peidzu stop 0.0333333
tcana stop 0.0666667
de'a stop 0.0333333
nu stop 0.1000000
du'u stop 0.0666667
nunde'a stop 0.0666667
sisti stop 0.3666667
sorprekarcytcana stop 0.0666667
damva'u stop 0.0333333
fenki nuts 0.3333333
ba'e nuts 0.3333333
xabju nuts 0.3333333
pe'a cold-hearted 0.2500000
risna cold-hearted 0.2500000
ke cold-hearted 0.2500000
lenku cold-hearted 0.2500000
gy password 0.2857143
zoi password 0.1428571
fa password 0.1428571
Muiriel password 0.1428571
japyvla password 0.2857143
ko Select 0.3333333
be Select 0.3333333
selzu'e Select 0.3333333
NULL holiday 0.3333333
velsla holiday 0.3333333
velsladei holiday 0.3333333
festi pile 1.0000000
nu Drinking 0.2222222
do Drinking 0.1111111
lo Drinking 0.4444444
pinxe Drinking 0.2222222
gymbis Gumby 1.0000000
kukte appetite 0.2500000
se appetite 0.2500000
djica appetite 0.2500000
xagji appetite 0.2500000
loi grass 0.1666667
srasu grass 0.8333333
xendo fair 0.2000000
re'e fair 0.2000000
pairnu'i fair 0.2000000
io fair 0.2000000
pa'enai fair 0.2000000
tcadrjenevu Geneva 1.0000000
retsku question 0.1000000
kambebna question 0.0333333
preti question 0.5666667
be question 0.0666667
jdice question 0.0333333
di'u question 0.0333333
la'e question 0.0333333
smuni question 0.0333333
cinri question 0.0333333
se question 0.0666667
po businessperson 0.2000000
cu'upre businessperson 0.6000000
do businessperson 0.2000000
tcimpazi Chimpanzee 1.0000000
somalias Somalia 1.0000000
sanga singer 0.6000000
sorselnelci singer 0.1000000
sa'apre singer 0.1000000
prenu singer 0.2000000
lojysreju'a logical 0.1666667
logji logical 0.3333333
ka logical 0.3333333
racli logical 0.1666667
civla fleas 1.0000000
cu'i Eh 0.2500000
ko Eh 0.2500000
a'a Eh 0.2500000
denpa Eh 0.2500000
la.liz this 0.0027100
ra this 0.0027100
ci'erkei this 0.0027100
rupnu this 0.0054201
cabycerni this 0.0027100
vreji this 0.0054201
ti this 0.3658537
bi'unai this 0.0135501
djica this 0.0027100
meti this 0.0027100
vajni this 0.0054201
jimca this 0.0027100
muzga this 0.0027100
tcidu this 0.0027100
kau this 0.0027100
broda this 0.0027100
ce'u this 0.0027100
lecydo'i this 0.0135501
ko'a this 0.0027100
cerni this 0.0027100
le this 0.0487805
vlacku this 0.0027100
cimoi this 0.0108401
ju'ocu'i this 0.0027100
flulimna this 0.0054201
certu this 0.0027100
xismalsi this 0.0027100
co'e this 0.0135501
ranji this 0.0027100
nitcu this 0.0027100
bu'u this 0.0027100
maik this 0.0027100
cabna'a this 0.0027100
kargu this 0.0027100
ki'e this 0.0027100
zukte this 0.0054201
ro'o this 0.0054201
toldjica this 0.0027100
xenru this 0.0081301
ju'oru'e this 0.0027100
ctuci'e this 0.0027100
djedi this 0.0027100
si'unai this 0.0027100
ciksi this 0.0027100
lisri this 0.0027100
dei this 0.0487805
birti this 0.0027100
NULL this 0.0487805
mojgau this 0.0027100
ckilu this 0.0027100
gasnu this 0.0027100
keltci this 0.0027100
cpare this 0.0027100
bi'ucu'i this 0.0081301
zi this 0.0027100
tolpo'ugau this 0.0027100
renvi this 0.0027100
nuzba this 0.0027100
jeftu this 0.0054201
liz this 0.0027100
savru this 0.0027100
jdima this 0.0027100
sapselga'e this 0.0027100
ciroi this 0.0027100
la'edo'i this 0.0027100
zgana this 0.0027100
vi this 0.1924119
rapli this 0.0027100
puziku this 0.0027100
bislunsa this 0.0027100
ja'e this 0.0027100
smuni this 0.0054201
uanai this 0.0027100
jibri this 0.0027100
ce'i this 0.0027100
reftadni this 0.0027100
xebni this 0.0027100
tavla this 0.0027100
senva this 0.0027100
u'e this 0.0027100
viska this 0.0027100
xe this 0.0027100
coi this 0.0027100
la'ede'u this 0.0027100
tercli this 0.0054201
cabvanci this 0.0027100
jbibi'o approached 1.0000000
Machines.gy Amsterdam 0.5000000
gugdenulu Amsterdam 0.5000000
fetsi admitted 0.0769231
nakni admitted 0.0769231
lodu'u admitted 0.0769231
radji'i admitted 0.0769231
radytu'i admitted 0.3076923
pu admitted 0.3846154
prenu person 0.8181818
mispre person 0.0181818
zu'a person 0.0181818
gugdejupu person 0.0181818
NULL person 0.0363636
sa'e person 0.0181818
po'o person 0.0181818
lo'e person 0.0181818
lamji person 0.0181818
noi person 0.0181818
ze'a built 0.0454545
se built 0.1363636
ba'o built 0.0909091
zbasu built 0.5454545
zi built 0.0454545
pu built 0.0454545
ke'a built 0.0909091
co try 0.0250000
ka try 0.0250000
troci try 0.7750000
nu try 0.1250000
broda try 0.0250000
fukpi try 0.0250000
ku Nature 0.2500000
rarna Nature 0.2500000
munje Nature 0.2500000
lo Nature 0.2500000
kagni company 0.8333333
be company 0.1666667
jai allowed 0.1333333
se allowed 0.2000000
ckuzda allowed 0.0666667
NULL allowed 0.0666667
surmi allowed 0.0666667
ka allowed 0.1333333
curmi allowed 0.1333333
fai allowed 0.2000000
timnoi weather 0.1428571
tcima weather 0.8571429
Democratic influential 1.0000000
tcikaizu'e practical 0.5000000
certu practical 0.5000000
vau studs 0.2500000
xausorgle studs 0.2500000
gi'e studs 0.2500000
sorgle studs 0.2500000
mu'ima motivation 1.0000000
cmaci confusing 1.0000000
balvi advance 0.2727273
ckire advance 0.3636364
ka advance 0.0909091
fi advance 0.2727273
gau Turn 0.2173913
jai Turn 0.0434783
fi Turn 0.0434783
akti Turn 0.0869565
ta Turn 0.0434783
ko Turn 0.2608696
gapci Turn 0.0869565
gusni Turn 0.0434783
na Turn 0.0434783
naly'aktygau Turn 0.0434783
carna Turn 0.0434783
fai Turn 0.0434783
vo'a yawning 0.3333333
ru'i yawning 0.3333333
moltenva'u yawning 0.3333333
oise'i eff 0.2500000
drani eff 0.2500000
na eff 0.2500000
vau eff 0.2500000
xorxes.luis.borxes Borges 1.0000000
la Yang 0.5000000
ian Yang 0.5000000
zasti Thames 0.2500000
temsas Thames 0.2500000
cu Thames 0.2500000
poi Thames 0.2500000
sfasa punishment 0.5000000
na punishment 0.5000000
marna Cannabis 0.5000000
snexu'i Cannabis 0.5000000
se compelled 0.3333333
bapli compelled 0.3333333
fai compelled 0.3333333
pluka pleased 0.3333333
uisai pleased 0.1666667
ui pleased 0.1666667
se pleased 0.1666667
oinai pleased 0.1666667
cfari classes 0.1666667
ctuca classes 0.1666667
ti'e classes 0.1666667
lenu classes 0.1666667
klesi classes 0.1666667
purlamdei classes 0.1666667
uanai unbroken 1.0000000
meljo Malaysian 1.0000000
reno &apos;clock 0.0833333
so &apos;clock 0.1666667
mu &apos;clock 0.0833333
tcika &apos;clock 0.1666667
rere &apos;clock 0.1666667
uedai &apos;clock 0.0833333
pano &apos;clock 0.1666667
cabytcika &apos;clock 0.0833333
ka sciences 0.2000000
saske sciences 0.6000000
pluja sciences 0.2000000
kacma photos 0.1666667
za'u photos 0.1666667
me photos 0.1666667
co photos 0.1666667
ti photos 0.1666667
pixra photos 0.1666667
li'u Fifty-six 0.5000000
muxa Fifty-six 0.5000000
to'e doesn 0.0101010
se doesn 0.0101010
fetsi doesn 0.0202020
rapli doesn 0.0101010
poi doesn 0.0303030
zukybajra doesn 0.0101010
anas doesn 0.0101010
gugdejupu doesn 0.0202020
palku doesn 0.0101010
bradi doesn 0.0101010
roroinai doesn 0.0101010
lankyboi doesn 0.0101010
nu doesn 0.0101010
cu doesn 0.1212121
na doesn 0.4646465
kevin doesn 0.0101010
nalgleki doesn 0.0101010
fange doesn 0.0101010
xekri doesn 0.0101010
NULL doesn 0.0505051
uan doesn 0.0101010
na.e doesn 0.0101010
enai doesn 0.0101010
goi doesn 0.0101010
ba'o doesn 0.0202020
panpi doesn 0.0101010
no doesn 0.0101010
so'u doesn 0.0101010
selsmu doesn 0.0101010
nai doesn 0.0303030
na.u doesn 0.0101010
seri'anai doesn 0.0101010
kauntyr Counter-Strike 0.5000000
straik Counter-Strike 0.5000000
i Yes 0.0277778
ijebo Yes 0.0277778
do'u Yes 0.0277778
ie Yes 0.2500000
cai Yes 0.0277778
go'i Yes 0.4166667
je'u Yes 0.1111111
va'i Yes 0.0277778
i'u Yes 0.0277778
re'i Yes 0.0555556
xebni hated 0.5000000
tepri'apre hated 0.5000000
na bull-headed 0.5000000
xarnu bull-headed 0.5000000
0xyxyxymoi 1st 0.5000000
cmaci 1st 0.5000000
NULL scale 0.5000000
ckilu scale 0.5000000
cange Farm 1.0000000
la.pitr Peter 0.1111111
pitr Peter 0.2222222
xu Peter 0.1111111
petr Peter 0.1111111
la Peter 0.3333333
pitr.djeksyn Peter 0.1111111
sumji its 0.0526316
gidva its 0.0526316
jgalu its 0.0526316
le its 0.1052632
NULL its 0.1052632
ravysirji its 0.1052632
be its 0.1578947
kycy its 0.1052632
nilvifme'abi'o its 0.0526316
tolgleki its 0.1578947
sekai its 0.0526316
pu dropped 0.4000000
ritcardniksyn dropped 0.2000000
falcru dropped 0.2000000
falgau dropped 0.2000000
maik Mike 0.5000000
NULL Mike 0.0833333
la Mike 0.1666667
poi Mike 0.0833333
mi'e Mike 0.0833333
la.maik Mike 0.0833333
li earn 0.3333333
jerna earn 0.3333333
xo earn 0.3333333
friko African 1.0000000
bajra jog 0.3333333
ro jog 0.1666667
se jog 0.1666667
ne jog 0.1666667
mau jog 0.1666667
ka Autism 0.3333333
sezga'o Autism 0.6666667
ty toes 0.5000000
jmadegji toes 0.5000000
nanfi'ogu'e Africa 0.2000000
fi'ortu'a Africa 0.2000000
la Africa 0.2000000
friko Africa 0.2000000
frikytu'a Africa 0.2000000
giju rains 0.2500000
carvi rains 0.5000000
ti'u rains 0.2500000
selstu India 0.2500000
la India 0.2500000
xingu'e India 0.2500000
indias India 0.2500000
ba'o ends 0.2500000
za ends 0.2500000
catra ends 0.2500000
py ends 0.2500000
jdima cost 0.1500000
nononono cost 0.0500000
se cost 0.2000000
ma cost 0.2500000
fo cost 0.1000000
seldi'a cost 0.0500000
vecnu cost 0.1000000
ri cost 0.0500000
jdini cost 0.0500000
se latter 0.3333333
lidne latter 0.3333333
la'e latter 0.3333333
jimpe lecture 0.1428571
je'u lecture 0.1428571
be lecture 0.1428571
ctununta'a lecture 0.2857143
cu lecture 0.1428571
na lecture 0.1428571
catni avoided 0.0833333
rivbi avoided 0.3333333
nu avoided 0.1666667
cu avoided 0.1666667
fa avoided 0.1666667
cnitce avoided 0.0833333
ralte bicycle 0.0714286
pe bicycle 0.0714286
ka bicycle 0.0714286
fa bicycle 0.0714286
relxilma'e bicycle 0.7142857
je watching 0.0588235
zgana watching 0.4705882
nu watching 0.1764706
catlu watching 0.1176471
mencti watching 0.0588235
sanli watching 0.1176471
skami computers 0.4285714
sampli computers 0.1428571
kantu computers 0.1428571
lo computers 0.2857143
troiaxirmalsamtci horse 0.0555556
pe horse 0.1111111
xirma horse 0.7777778
pu'i horse 0.0555556
lurcmu Selenium 1.0000000
tu'a blocked 0.1111111
bu'u blocked 0.1111111
ai blocked 0.1111111
fircku blocked 0.1111111
i blocked 0.1111111
ja'e blocked 0.1111111
fanta blocked 0.1111111
bo blocked 0.1111111
la blocked 0.1111111
toltaske quenched 1.0000000
antimoni Antimony 1.0000000
lo'e distinct 0.2500000
ficysi'u distinct 0.2500000
lu'i distinct 0.2500000
prenu distinct 0.2500000
creka T-shirt 0.2500000
le T-shirt 0.2500000
cu T-shirt 0.2500000
lumci T-shirt 0.2500000
sfasa punished 0.6000000
se punished 0.4000000
vijytcana airport 0.8333333
NULL airport 0.1666667
lijda religion 0.6666667
vudus religion 0.3333333
pu resulted 0.2500000
mi'ai resulted 0.2500000
se resulted 0.2500000
jalge resulted 0.2500000
narviska'e clearly 0.2000000
klina clearly 0.2000000
jalge clearly 0.2000000
nu clearly 0.2000000
ko'a clearly 0.2000000
cu wound 0.3333333
romoi wound 0.3333333
xrani wound 0.3333333
merbau American 0.0454545
ce'i American 0.0454545
Steve American 0.0454545
merko American 0.6818182
glico American 0.0454545
mergu'e American 0.0454545
meryru'u American 0.0909091
cu apples. 1.0000000
zgirjazu Jazz 1.0000000
roltrusi'o Democratic 0.5000000
Party Democratic 0.5000000
bau d 0.5000000
di,orsais d 0.5000000
tinbe do 0.0058824
po'o do 0.0029412
cu'i do 0.0029412
po'onai do 0.0029412
selska do 0.0029412
xu do 0.0058824
kanro do 0.0088235
tolpli do 0.0029412
tunba do 0.0029412
go'e do 0.0029412
setmima do 0.0058824
go'i do 0.0117647
NULL do 0.1470588
ke'a do 0.0058824
xanka do 0.0029412
gasnu do 0.0147059
tolnelci do 0.0029412
pu'e do 0.0029412
sa'e do 0.0058824
vau do 0.0029412
je'a do 0.0029412
cu'e do 0.0029412
krasi do 0.0029412
na do 0.0558824
ei do 0.0029412
ai do 0.0029412
vecnu do 0.0058824
mensi do 0.0029412
uanai do 0.0029412
to'e do 0.0058824
va'e do 0.0058824
zacterve'u do 0.0029412
jibri do 0.0088235
ro'i do 0.0029412
do do 0.0029412
koreias do 0.0029412
fi do 0.0117647
jo'a do 0.0029412
seltadni do 0.0029412
e'ese'a do 0.0029412
selcu'u do 0.0029412
fo do 0.0382353
xanri do 0.0058824
na'e do 0.0029412
no'a do 0.0029412
banzu do 0.0029412
co'e do 0.0470588
cfaga'e do 0.0029412
bangu do 0.0088235
snuji do 0.0029412
ka do 0.0058824
mumdei do 0.0029412
naja do 0.0029412
vama do 0.0029412
va'u do 0.0029412
fanva do 0.0029412
mo do 0.0441176
go'a do 0.0029412
narcertu do 0.0058824
mapku do 0.0029412
fanta do 0.0029412
broda do 0.0058824
pluta do 0.0235294
sei do 0.0029412
srana do 0.0029412
ja'a do 0.0088235
mu'a do 0.0029412
xuku do 0.0029412
kakne do 0.0235294
panra do 0.0029412
jerna do 0.0058824
ma do 0.1205882
fa do 0.0029412
ai.e'e do 0.0029412
le'e do 0.0029412
ju'i do 0.0029412
pe'ipei do 0.0058824
zukte do 0.1558824
ledu'u do 0.0029412
ienaisai do 0.0029412
pau do 0.0029412
selcme do 0.0029412
zgiterca'a do 0.0029412
tadji do 0.0117647
gi'u do 0.0029412
Astn do 0.0029412
xo do 0.0117647
ba'oi do 0.0029412
no'oi which 0.0250000
tarti which 0.0250000
fu'i which 0.0250000
seltcu which 0.0250000
selcilre which 0.0250000
node which 0.0250000
ca'a which 0.0250000
ju'onai which 0.0250000
jufra which 0.0250000
juxre which 0.0250000
korbi which 0.0250000
NULL which 0.1000000
pu'o which 0.0250000
flecu which 0.0250000
seri'a which 0.0250000
ke'a which 0.0500000
noi which 0.0750000
sokrates which 0.0250000
ui which 0.0250000
xamtidamtis which 0.0500000
cfatadni which 0.0500000
dai which 0.0250000
poi which 0.1500000
py which 0.0500000
bramau which 0.0250000
barda which 0.0250000
presidento campaign 0.5000000
co campaign 0.5000000
basna ba 1.0000000
beidjin Beijing 0.1428571
la Beijing 0.4285714
peitcin Beijing 0.2857143
beijin Beijing 0.1428571
ka importance 0.3333333
te importance 0.3333333
vajni importance 0.3333333
loni parents 0.0263158
rirni parents 0.6578947
be parents 0.2368421
ny parents 0.0263158
cu parents 0.0526316
mapti valid 1.0000000
tezu'e Come 0.0277778
lonu Come 0.0277778
e'u Come 0.0277778
do Come 0.0277778
ko Come 0.4166667
sutyze'a Come 0.0277778
mi'o Come 0.0277778
NULL Come 0.0277778
xrukla Come 0.0277778
a'ei Come 0.0277778
moi'o Come 0.0277778
i'i Come 0.0277778
klama Come 0.2777778
NULL / 0.1764706
a / 0.0588235
tsaprpiperi / 0.0588235
mo / 0.0588235
tavla / 0.1764706
bob.djonson / 0.0588235
bob / 0.0588235
mi / 0.0588235
gy.http://tatoeba.org/.gy / 0.1764706
djan / 0.0588235
meris / 0.0588235
oradeas Oradea 1.0000000
donri midday 0.3333333
ca midday 0.3333333
midju midday 0.3333333
nan.oza,uas Ozawa 0.5000000
cu Ozawa 0.5000000
nu guess 0.1428571
pe'i guess 0.1428571
ja'o guess 0.1428571
smadi guess 0.2857143
fa guess 0.1428571
ru'a guess 0.1428571
damba &apos;all 1.0000000
prali gain 1.0000000
poi own 0.0487805
cmene own 0.0243902
jimpe own 0.0243902
ralte own 0.1219512
xabju own 0.0243902
tolnu'a own 0.0243902
moi own 0.0487805
mi'o own 0.0487805
ponse own 0.2195122
boi own 0.0243902
NULL own 0.0243902
pamei own 0.0243902
bangu own 0.0243902
so'u own 0.0243902
tolgleki own 0.0487805
sekai own 0.0243902
vo'a own 0.0243902
ri own 0.0243902
finti own 0.0487805
le own 0.0243902
funca own 0.0243902
selnunji'e own 0.0243902
jisygau own 0.0243902
cuxna own 0.0243902
re Two 0.3529412
mei Two 0.0588235
li Two 0.2352941
e'o Two 0.0588235
bisyladru Two 0.0588235
su'i Two 0.1176471
mo'u Two 0.0588235
NULL Two 0.0588235
dansu Dance 1.0000000
tu'a Nagoya 0.1666667
nagoias Nagoya 0.1666667
la Nagoya 0.3333333
mu'i Nagoya 0.1666667
nagoi,ias Nagoya 0.1666667
gacri lid 1.0000000
tinju'i carefully 0.3333333
jundi carefully 0.3333333
NULL carefully 0.3333333
zei Baikal 0.5000000
baikal Baikal 0.5000000
ka worker 0.2000000
gunka worker 0.4000000
tolylazni worker 0.2000000
pe worker 0.2000000
damba grappling 1.0000000
cliva flew 0.1666667
vofli flew 0.1666667
fi flew 0.1666667
bifce flew 0.1666667
pu flew 0.1666667
voikla flew 0.1666667
ckana going 0.0151515
nerkla going 0.0151515
sipybi'o going 0.0075758
minsk going 0.0075758
ainai going 0.0075758
klama going 0.2500000
vamtu going 0.0151515
fasnu going 0.0075758
si'erskiji going 0.0075758
ba'a going 0.0227273
ckakla going 0.0075758
ba going 0.1893939
cliva going 0.0075758
co'a going 0.0151515
cmoni going 0.0151515
ba'i going 0.0075758
surla going 0.0075758
xrukla going 0.0075758
ca going 0.0075758
kargu going 0.0075758
go'a going 0.0151515
a'e going 0.0303030
aidji going 0.0075758
mumdei going 0.0075758
cadzu going 0.0075758
platu going 0.0075758
farlu going 0.0075758
uitki going 0.0075758
ui.uenai going 0.0075758
ge'orge going 0.0075758
ca'o going 0.0378788
za'o going 0.0075758
uikis going 0.0075758
ke'a going 0.0075758
mukti going 0.0075758
NULL going 0.0909091
pu'o going 0.0151515
bazi going 0.0075758
stali going 0.0075758
xlabi'o going 0.0075758
lecydo'i going 0.0151515
veltivyvidni going 0.0075758
baze'e going 0.0075758
fanta going 0.0075758
termu'i going 0.0303030
toltinsa flexible 1.0000000
tomas likes 0.0192308
nelci likes 0.7115385
golf likes 0.0192308
kalte likes 0.0192308
ny likes 0.0192308
cu likes 0.1730769
si'a likes 0.0192308
cumymu'efi'a likes 0.0192308
noda Nothing 0.1875000
no Nothing 0.4375000
da Nothing 0.3125000
NULL Nothing 0.0625000
mu'ei husband 0.1250000
simxu husband 0.1250000
be husband 0.1250000
cu husband 0.2500000
misis husband 0.1250000
speni husband 0.2500000
pe'ipei we 0.0088496
jmive we 0.0088496
pedysi'u we 0.0088496
u'u we 0.0088496
mi we 0.0265487
fanta we 0.0088496
ma'a we 0.0796460
za'u we 0.0088496
selgei we 0.0088496
selstidi we 0.0088496
pendo we 0.0088496
mi'o we 0.3185841
tolcru we 0.0088496
ta'u we 0.0088496
jdikygau we 0.0088496
NULL we 0.0530973
semu'igi we 0.0088496
mi'ai we 0.1238938
fonpli we 0.0088496
nalju'o we 0.0088496
nunspe we 0.0088496
mi'a we 0.1858407
ni we 0.0088496
zu'e we 0.0088496
mi'oi we 0.0088496
tirna we 0.0088496
tezu'e we 0.0088496
zifre we 0.0088496
nu'o we 0.0176991
dasni dressed 0.3333333
nobli dressed 0.3333333
da dressed 0.3333333
uuxan Wuhan 1.0000000
nundugri logarithms 0.5000000
ei logarithms 0.5000000
fe Zhuangzi 0.2000000
"lu Zhuangzi 0.2000000
djuanzis Zhuangzi 0.2000000
fau Zhuangzi 0.2000000
da'inai Zhuangzi 0.2000000
tikpa kicked 0.3333333
pu kicked 0.3333333
livbai kicked 0.3333333
turni prevail 1.0000000
bislunsa frost 0.5000000
bisli frost 0.5000000
i'e &apos;a 1.0000000
brogovzi borogoves 1.0000000
vo 4 0.1250000
NULL 4 0.2500000
ji'ipaxa 4 0.1250000
li 4 0.2500000
ti'u 4 0.1250000
renonoxa 4 0.1250000
nolnau gentleman 1.0000000
profesoro professor 0.0714286
ctuca professor 0.5714286
tolzdisi'u professor 0.1428571
balkulctu professor 0.0714286
su'epa professor 0.1428571
ctuca teacher 0.8787879
ponbau teacher 0.0303030
patfa teacher 0.0303030
tcidu teacher 0.0303030
brogu'e teacher 0.0303030
je course 0.0666667
reftadni course 0.0666667
tercli course 0.1333333
vau course 0.0666667
termenvoks course 0.0666667
pa'e course 0.0666667
te course 0.0666667
li'a course 0.3333333
cfatadni course 0.1333333
zunle ear 0.2000000
pritu ear 0.2000000
kerlo ear 0.6000000
favmapti biology 0.2500000
saske biology 0.2500000
jmive biology 0.2500000
ji'esle biology 0.2500000
klama departed 0.4000000
puza departed 0.2000000
co'a departed 0.4000000
vamji worth 0.6470588
fa worth 0.2941176
u'anai worth 0.0588235
pe goal 0.3333333
terzu'e goal 0.6666667
zu'u gripping 0.3333333
cu'i gripping 0.3333333
fau gripping 0.3333333
brife wind 0.8571429
galfi wind 0.1428571
Link Link 1.0000000
prulamkemyzeldei Sunday 0.1250000
zeldei Sunday 0.1250000
ca Sunday 0.2500000
nondei Sunday 0.3750000
le Sunday 0.1250000
glazenca'a device 0.2500000
me'u device 0.2500000
cabra device 0.2500000
gy.Android.gy device 0.2500000
lo Blind 1.0000000
mu'eske Cosmology 1.0000000
be kilos 0.5000000
ki'ogra kilos 0.5000000
selctukansa classmate 0.5000000
pa classmate 0.5000000
cukcartu showing 1.0000000
cirvai historic 1.0000000
akti idle 0.2500000
na idle 0.2500000
cando idle 0.5000000
grisazri collaborative 0.5000000
se collaborative 0.5000000
jonsi'u U.N. 0.2500000
la U.N. 0.2500000
gugde U.N. 0.2500000
cmima U.N. 0.2500000
cecla shot 0.1666667
ke'a shot 0.5000000
jyfykys shot 0.1666667
renro shot 0.1666667
dugri natural 0.1250000
jinzi natural 0.1250000
ke natural 0.1250000
kacna'u natural 0.1250000
NULL natural 0.2500000
na'o natural 0.1250000
munje natural 0.1250000
carvi precipitation 0.5000000
la'asai precipitation 0.5000000
vau right 0.0317460
terzi'e right 0.0158730
vudzu'e right 0.0158730
canlu right 0.0158730
a'ucu'i right 0.0158730
smadi right 0.0158730
jinvi right 0.0158730
jetxu'a right 0.0158730
cibyselmla right 0.0317460
soi right 0.0158730
pritu right 0.1111111
uu.oipei right 0.0158730
ka right 0.0158730
drani right 0.3809524
zarci right 0.0158730
baza right 0.0158730
je'upei right 0.0476190
jo'a right 0.0158730
zicai right 0.0158730
dembi right 0.0158730
NULL right 0.1269841
je'e right 0.0317460
y Broadly 1.0000000
ciksi explains 1.0000000
cpacu retrieving 1.0000000
la.djim hasn 0.2500000
pu'o hasn 0.5000000
sisti hasn 0.2500000
cmene Ishmael 0.2500000
zo Ishmael 0.2500000
icmail Ishmael 0.2500000
te Ishmael 0.2500000
po'u Zoe 0.3333333
la Zoe 0.3333333
zo,is Zoe 0.3333333
zdigau entertained 0.5000000
pu entertained 0.5000000
lo Father 0.2500000
paf Father 0.2500000
patfu Father 0.2500000
la Father 0.2500000
cu apparently 0.3333333
NULL apparently 0.3333333
li'a apparently 0.3333333
cartu map 1.0000000
re holes 0.2500000
vau holes 0.2500000
kevna holes 0.2500000
sei holes 0.2500000
liste Symbol 0.5000000
selratni Symbol 0.5000000
setmima set 0.0833333
seka'a set 0.1666667
bazi set 0.0833333
co'a set 0.0833333
NULL set 0.1666667
cliva set 0.2500000
pamei set 0.0833333
lu'i set 0.0833333
ra novel 0.0666667
fi novel 0.1333333
NULL novel 0.0666667
lisycku novel 0.0666667
be novel 0.2000000
brafi'a novel 0.4000000
cuktrnovela novel 0.0666667
melbi ordinary-looking 0.5000000
no'e ordinary-looking 0.5000000
go'i response 0.3333333
na response 0.3333333
danfu response 0.3333333
lindas Linda 0.2500000
la Linda 0.2500000
cu Linda 0.2500000
bixpa'i Linda 0.2500000
xrabo Arab 0.5000000
cu Arab 0.5000000
kongos Congo 0.5000000
zei.kongos Congo 0.5000000
barja pubs 0.3333333
selmipri pubs 0.3333333
ca pubs 0.3333333
su'o mopped 1.0000000
naun Mr. 0.1666667
la.uan Mr. 0.1666667
zo'u Mr. 0.1666667
la Mr. 0.1666667
smit Mr. 0.1666667
gugde'usu Mr. 0.1666667
zukte aim 1.0000000
alybamas Alabama 1.0000000
ka helping 0.2500000
sidju helping 0.7500000
puzu Fucking 1.0000000
mi'e Lin 0.5000000
lin Lin 0.5000000
se plot 1.0000000
bo phenomenon 0.5000000
ja'e phenomenon 0.5000000
ibo occur 0.1666667
di'inai occur 0.0833333
zo'e occur 0.0833333
srera occur 0.3333333
NULL occur 0.0833333
co'a occur 0.0833333
baza occur 0.0833333
je'i occur 0.0833333
ta room 0.0200000
kumfa room 0.9200000
po room 0.0200000
nilce room 0.0200000
nicygau room 0.0200000
terjbera borrower 1.0000000
ficybi'o often 0.0454545
goi often 0.0454545
ta'e often 0.0454545
cafne often 0.1363636
ca often 0.0909091
nafse'i often 0.0454545
so'i often 0.0909091
roi often 0.0909091
pi often 0.0454545
ro often 0.0454545
dapma often 0.0454545
NULL often 0.0909091
piso'i often 0.0909091
bavycu'i often 0.0454545
fau often 0.0454545
lo Meat 0.5000000
rectu Meat 0.5000000
djedi daily 0.5000000
ro daily 0.5000000
critu autumn 1.0000000
sueriges Sweden 0.0909091
sferies Sweden 0.1818182
le Sweden 0.2727273
sfero Sweden 0.2727273
la Sweden 0.1818182
loi Copper 0.5000000
tunka Copper 0.5000000
cipra exam 0.6666667
kamjunmre exam 0.1111111
eksameno exam 0.1111111
poi exam 0.1111111
cu main 0.5000000
nunspesti main 0.5000000
dekart Descartes 0.5000000
la Descartes 0.5000000
li degrees 0.5000000
jacke'o degrees 0.2500000
ji'i degrees 0.2500000
ca bath 0.2000000
nu bath 0.2000000
lumci bath 0.1000000
jirlu'i bath 0.2000000
so'a bath 0.1000000
jirsezlu'i bath 0.2000000
co'a liberated 1.0000000
brafi'a novels 0.3333333
ko'a novels 0.3333333
imu'ibo novels 0.3333333
ninynavni Neon 1.0000000
cnisa Lead 1.0000000
la Delphi 0.3333333
delfis Delphi 0.3333333
bei Delphi 0.3333333
bredi prepared 0.6000000
ro prepared 0.4000000
jarco showed 0.5000000
tu'a showed 0.2500000
visygau showed 0.1250000
le showed 0.1250000
pavysei lives 0.0277778
xabju lives 0.4444444
tolnu'a lives 0.0277778
lodu'u lives 0.0555556
cu lives 0.1944444
ji'efri lives 0.0277778
zdani lives 0.0833333
se lives 0.1388889
tai Thus 0.3333333
ku Thus 0.3333333
transite Thus 0.3333333
nu Love 0.1111111
ganai Love 0.0555556
prami Love 0.3888889
iu Love 0.1111111
loni Love 0.0555556
lonu Love 0.0555556
lo Love 0.0555556
le Love 0.0555556
ko Love 0.1111111
pa hook 0.5000000
genxu hook 0.5000000
loi observing 0.2500000
ga'a observing 0.2500000
brilu observing 0.2500000
se observing 0.2500000
kardyckiku keycard 1.0000000
zgana seeing 0.1428571
ka seeing 0.0714286
ro seeing 0.0714286
cy seeing 0.0714286
nu seeing 0.2142857
se seeing 0.0714286
viska seeing 0.2857143
tasmi seeing 0.0714286
cnitcini mood 0.2500000
selcni mood 0.2500000
se mood 0.2500000
gleki mood 0.2500000
cionmau panda 0.6666667
latcribe panda 0.3333333
natmi Nations 1.0000000
fi relevant 0.2500000
di'u relevant 0.2500000
ma relevant 0.2500000
vajni relevant 0.2500000
la Araucanía 0.2500000
joi Araucanía 0.2500000
araukanias Araucanía 0.2500000
patagonias Araucanía 0.2500000
ro — 0.1111111
cu — 0.2222222
NULL — 0.1111111
lidvilti'a — 0.1111111
nafse'i — 0.2222222
si — 0.2222222
cusku read 0.0140845
ke'a read 0.0563380
fi read 0.0985915
za'i read 0.0140845
pu read 0.0140845
tcidu read 0.6901408
skucaujmi read 0.0140845
dei read 0.0422535
linkon read 0.0140845
cajapu read 0.0140845
naje read 0.0140845
ve read 0.0140845
bangitu'a Italian 0.5000000
lo Italian 0.5000000
ponse houses 0.0625000
va houses 0.1875000
dinju houses 0.3125000
jelca houses 0.0625000
blaci houses 0.0625000
nu houses 0.0625000
zdani houses 0.1875000
do'o houses 0.0625000
noltruti'u princess 1.0000000
pu'i demonstrated 0.3333333
flulimna demonstrated 0.6666667
mrobi'o died 0.2727273
morsi died 0.1818182
cu died 0.0681818
bu'u died 0.0227273
co'a died 0.1818182
pu died 0.2045455
co'u died 0.0227273
jmive died 0.0227273
snucanci died 0.0227273
balcu'e Plymouth 0.5000000
plimyt Plymouth 0.5000000
fi'o singing 0.1428571
ca'o singing 0.1428571
sanga singing 0.7142857
be shed 0.1666667
pudydi'u shed 0.3333333
tutci shed 0.1666667
loi shed 0.1666667
klaku shed 0.1666667
ko'a presently 0.5000000
se presently 0.5000000
i'i Yay 0.1428571
ui Yay 0.5714286
selplicru Yay 0.1428571
dai Yay 0.1428571
plini Planet 1.0000000
mo What 0.2033426
selska What 0.0027855
ganse What 0.0027855
le What 0.0055710
caca'o What 0.0055710
uanaicai What 0.0027855
a'unai What 0.0055710
o'onai What 0.0027855
do'u What 0.0055710
skepre What 0.0027855
tu'a What 0.0083565
ti What 0.0111421
NULL What 0.0891365
uesai What 0.0027855
rupnu What 0.0055710
merbau What 0.0027855
djusku What 0.0027855
mu'ima What 0.0027855
oi What 0.0083565
vukrygu'e What 0.0027855
mirli What 0.0027855
mo'u What 0.0222841
ge'esai What 0.0027855
smani What 0.0027855
vedli What 0.0027855
arxokuna What 0.0027855
kambebna What 0.0027855
cai What 0.0027855
lo What 0.0473538
ue What 0.0027855
uecai.ianai What 0.0027855
ma What 0.4596100
u'e What 0.0250696
u'ecai What 0.0027855
fema What 0.0027855
tolsi'a What 0.0027855
rikardos What 0.0027855
draci What 0.0027855
sinxa What 0.0027855
nonselsmu What 0.0027855
fi What 0.0027855
tolzdi What 0.0027855
poi What 0.0027855
uecai What 0.0027855
pau What 0.0027855
fe What 0.0111421
pu demanded 0.4000000
mi'ecpe demanded 0.2000000
camcpe demanded 0.2000000
gugyka'i demanded 0.2000000
ke'a dreaming 0.1428571
ca'o dreaming 0.4285714
senva dreaming 0.4285714
ki'uma Really 0.1538462
xu Really 0.2307692
jetnu Really 0.0769231
go'i Really 0.0769231
uesai Really 0.1538462
ge'e Really 0.0769231
peije'u Really 0.1538462
je'upei Really 0.0769231
ko Remove 0.5000000
vimcu Remove 0.5000000
kreka'astu barbershop 1.0000000
cartu diagram 1.0000000
selmikce Patient 1.0000000
pledi'i cash 1.0000000
jufra Sentences 0.3333333
lo Sentences 0.5000000
i Sentences 0.1666667
te meant 0.2000000
fi meant 0.1000000
NULL meant 0.1000000
smuni meant 0.4000000
makau meant 0.2000000
viska invisible 0.5000000
NULL invisible 0.5000000
skina video 0.2500000
pacruxydinj video 0.2500000
samyzilkeikei video 0.5000000
fi handed 0.1666667
te handed 0.1666667
xance handed 0.1666667
dunda handed 0.1666667
pu handed 0.1666667
cpacu handed 0.1666667
cisma smiled 0.4166667
sega'a smiled 0.2500000
cu smiled 0.1666667
pu smiled 0.1666667
a'enai ski 0.3333333
i ski 0.3333333
skiji ski 0.3333333
ge'e Well 0.2000000
sa'u Well 0.2000000
i Well 0.2000000
mu'i Well 0.2000000
skatygug Well 0.2000000
ku teeth 0.2222222
loi teeth 0.1111111
denci teeth 0.3333333
ke teeth 0.1111111
be teeth 0.2222222
samplabau Programming 1.0000000
le monitor 0.2500000
vidni monitor 0.2500000
pe monitor 0.2500000
lerfu monitor 0.2500000
fi yelled 0.3333333
mi yelled 0.3333333
ki'asku yelled 0.3333333
klirlxastati Astatine 1.0000000
ka gotta 0.3333333
nitcu gotta 0.3333333
rodo gotta 0.3333333
crejibri profession 0.5000000
traji profession 0.5000000
klama &apos;ll 0.0270270
kei &apos;ll 0.0067568
a'ocai &apos;ll 0.0067568
ginai &apos;ll 0.0067568
snime &apos;ll 0.0067568
klacpe &apos;ll 0.0067568
volve &apos;ll 0.0067568
e'e &apos;ll 0.0135135
kalvi'u &apos;ll 0.0067568
reftadni &apos;ll 0.0067568
ai.e'e &apos;ll 0.0067568
selsaubi'o &apos;ll 0.0067568
dunda &apos;ll 0.0135135
soi &apos;ll 0.0067568
ai &apos;ll 0.0202703
bazisai &apos;ll 0.0067568
cinbi'abi'o &apos;ll 0.0067568
te &apos;ll 0.0135135
fe'e &apos;ll 0.0067568
kansa &apos;ll 0.0067568
rupne'uru &apos;ll 0.0135135
selzdifri &apos;ll 0.0270270
a'i &apos;ll 0.0067568
do &apos;ll 0.0067568
diklo &apos;ll 0.0067568
ba &apos;ll 0.5337838
lebna &apos;ll 0.0067568
drata &apos;ll 0.0067568
sidju &apos;ll 0.0135135
denpa &apos;ll 0.0337838
renvi &apos;ll 0.0067568
cadzu &apos;ll 0.0067568
pugi &apos;ll 0.0067568
dansu &apos;ll 0.0067568
va'u &apos;ll 0.0067568
selzda &apos;ll 0.0067568
NULL &apos;ll 0.0675676
troci &apos;ll 0.0202703
xelklasabji &apos;ll 0.0067568
bazi &apos;ll 0.0067568
o'e &apos;ll 0.0067568
bevbe'i &apos;ll 0.0067568
mamymamta Grandma 0.5000000
lo Grandma 0.5000000
ka distant 0.2000000
darno distant 0.6000000
pe'a distant 0.2000000
bylgAri,as Bulgaria 1.0000000
spamatne margarine 0.2000000
pilno margarine 0.2000000
ba'i margarine 0.2000000
gi margarine 0.4000000
denmi sharply 1.0000000
kukte yum 1.0000000
joi Anyi 0.2500000
la Anyi 0.5000000
an,iis Anyi 0.2500000
esporte sport 0.3076923
xadgu'a sport 0.0769231
seti'u sport 0.0769231
terai sport 0.0769231
fa sport 0.0769231
NULL sport 0.0769231
xadykelci'e sport 0.1538462
lozu'o sport 0.1538462
nikolaus.kopernikus Copernicus 1.0000000
danmo smoker 1.0000000
Willis formidable 1.0000000
saturn Saturn 1.0000000
krati behalf 1.0000000
tolmo'i who 0.0080000
cladakyxa'i who 0.0080000
cu'u who 0.0080000
nicygau who 0.0080000
mispre who 0.0080000
zerxe'u who 0.0080000
crida who 0.0080000
po'o who 0.0160000
romeon who 0.0080000
panpi who 0.0080000
gi'o who 0.0160000
NULL who 0.0560000
morji who 0.0080000
sinma who 0.0480000
merko who 0.0080000
no'u who 0.0080000
prami who 0.0160000
ke'a who 0.0320000
cfatadni who 0.0160000
blaci who 0.0160000
fange who 0.0080000
bu who 0.0080000
jetyja'o who 0.0080000
cu who 0.0080000
sanmi who 0.0080000
lo who 0.0080000
flacre who 0.0080000
slabu who 0.0080000
ju'oi who 0.0080000
daspo who 0.0160000
tavla who 0.0080000
gidva who 0.0080000
selkei who 0.0080000
coi who 0.0080000
xalpinxe who 0.0080000
smadi who 0.0240000
bradi who 0.0080000
truci'e who 0.0080000
fuzme who 0.0160000
nu who 0.0320000
melbi who 0.0080000
makau who 0.0800000
mi'afra who 0.0080000
fa'u who 0.0080000
xanri who 0.0080000
nei who 0.0080000
noi who 0.0400000
nagi'a who 0.0160000
nabzai who 0.0080000
poi who 0.2880000
li'orkliru Fluorine 1.0000000
likydekpu Five 0.1428571
mu Five 0.4285714
li Five 0.1428571
lo Five 0.1428571
se Five 0.1428571
jibni nigh 1.0000000
la.geter.ianis Getter 1.0000000
sfe'ero Swedish 1.0000000
vo'a cannibal 0.1666667
ka'e cannibal 0.1666667
be cannibal 0.1666667
citka cannibal 0.1666667
se cannibal 0.1666667
jutsi cannibal 0.1666667
la.siskos Sysko 1.0000000
frigau rough 1.0000000
te point 0.1111111
nu point 0.2222222
canci point 0.1111111
febvi point 0.1111111
ta'onai point 0.1111111
NULL point 0.1111111
da point 0.1111111
selrunme point 0.1111111
co'e ; 0.0250000
kosmycau ; 0.0250000
cirvai ; 0.0250000
vitke ; 0.0250000
ba'e ; 0.0250000
genai ; 0.0250000
blixa ; 0.0250000
i ; 0.3750000
kapcikna ; 0.0250000
mi'erselcatra ; 0.0250000
braplu ; 0.0250000
zo'o ; 0.0250000
bu'onai ; 0.0250000
ta'onai ; 0.0250000
gy.Steins;Gate.gy ; 0.0250000
penbi ; 0.0250000
darca ; 0.0250000
ja'e ; 0.0250000
natfe ; 0.0250000
ije ; 0.0750000
smacu ; 0.0250000
tcati ; 0.0250000
NULL ; 0.0500000
ma'a Our 0.1111111
ta'e Our 0.1111111
mi'a Our 0.2222222
lo Our 0.2222222
mi Our 0.1111111
le Our 0.2222222
balni balcony 1.0000000
ai knock 0.3333333
xrani knock 0.3333333
darxi knock 0.3333333
belgium Belgium 0.1428571
ralju Belgium 0.1428571
la Belgium 0.1428571
makau Belgium 0.1428571
du'u Belgium 0.1428571
tcadu Belgium 0.1428571
beldjym Belgium 0.1428571
sanli silently 0.5000000
smaji silently 0.5000000
najnimre oranges 0.4285714
lo oranges 0.4285714
nai oranges 0.1428571
NULL late 0.0175439
A late 0.0175439
jai late 0.2105263
lerci late 0.6666667
fai late 0.0877193
kumfa toilet 0.2000000
vimku'a toilet 0.6000000
vikmi toilet 0.2000000
krokodilo crocodile 0.6666667
mo'u crocodile 0.3333333
velcradi radios 1.0000000
selpo'e cat 0.0106383
my cat 0.0319149
NULL cat 0.0212766
pa cat 0.0531915
mlatu cat 0.8510638
iri'abo cat 0.0106383
i cat 0.0212766
drani properly 0.5000000
gunka properly 0.5000000
rinsa greet 1.0000000
tirxu tiger 1.0000000
zo'e how 0.0170940
renvi how 0.0085470
so'i how 0.0085470
nalju'o how 0.0085470
du'u how 0.1025641
pixokau how 0.0085470
retsku how 0.0085470
ka'erbi'o how 0.0085470
bi'unai how 0.0170940
ti how 0.0085470
NULL how 0.0683761
be how 0.0256410
ta'i how 0.1367521
kau how 0.0769231
sazri how 0.0085470
fitytu'i how 0.0085470
li how 0.0085470
ctebi how 0.0085470
nanca how 0.0256410
fa how 0.0085470
ma how 0.0940171
cu'e how 0.0170940
makau how 0.0341880
coi how 0.0256410
xo how 0.0085470
tadji how 0.0598291
jukpa how 0.0085470
fi how 0.0683761
zo'ei how 0.0085470
cilre how 0.0256410
vobi how 0.0085470
uanai how 0.0256410
kargu how 0.0085470
pei how 0.0341880
fe'emo'u ) 0.0136986
musyselcru ) 0.0136986
lujvo ) 0.0136986
lerfu ) 0.0136986
broselcru ) 0.0136986
monopolis ) 0.0136986
NULL ) 0.1780822
200xymoi ) 0.0136986
ji'esle ) 0.0136986
geryrectu ) 0.0136986
lerf,r,djamo ) 0.0136986
selpe'o ) 0.0273973
fancu ) 0.0136986
silna ) 0.0136986
snexu'i ) 0.0136986
cidjrkacera ) 0.0136986
ractyrectu ) 0.0136986
cirl,r,bri ) 0.0136986
pacruxydinj ) 0.0136986
tric,r,xaceru ) 0.0136986
gismu ) 0.0136986
paiton ) 0.0136986
nicygau ) 0.0136986
selratni ) 0.0136986
fa'a ) 0.0273973
tsaprpiperi ) 0.0136986
ta'e ) 0.0136986
kanadas ) 0.0136986
jaurbei ) 0.0136986
zo'o ) 0.0136986
rafske ) 0.0136986
cidjrxalalu ) 0.0136986
favmapti ) 0.0136986
jo'a ) 0.0136986
stagi ) 0.0136986
u ) 0.0136986
pluka ) 0.0273973
xy ) 0.0136986
selmikce ) 0.0136986
gos ) 0.0136986
recycau ) 0.0136986
ubuntus ) 0.0136986
prunyplipe ) 0.0136986
le'u ) 0.0136986
fla,ui,us.klaudius.io,ui,anus ) 0.0136986
ladru ) 0.0136986
merkurios ) 0.0136986
tergu'i ) 0.0136986
Alis ) 0.0136986
smacyrectu ) 0.0136986
margu ) 0.0136986
vecnu ) 0.0136986
toi ) 0.0547945
te'o ) 0.0136986
auskalerik ) 0.0136986
ca anytime 0.1666667
djica anytime 0.1666667
be anytime 0.1666667
jorne anytime 0.1666667
do anytime 0.1666667
se anytime 0.1666667
pensi considering 0.5000000
to'unai considering 0.5000000
andis Andy 1.0000000
veldetri calendar 1.0000000
blaci Those 0.0689655
nei Those 0.0344828
se Those 0.0344828
noda Those 0.0344828
vu Those 0.0344828
be Those 0.1034483
za'u Those 0.2068966
pe'a Those 0.0344828
ku Those 0.0689655
lo Those 0.2068966
slabu Those 0.0344828
ta Those 0.0344828
va Those 0.1034483
a'unai Stop 0.0416667
sisti Stop 0.2916667
o'onai Stop 0.0833333
ka Stop 0.0833333
klasti Stop 0.0416667
ko Stop 0.4583333
cfipu puzzled 0.5000000
se puzzled 0.5000000
nu peace 0.3333333
surla peace 0.0833333
panpi peace 0.5833333
nelci exciting 0.2500000
se exciting 0.2500000
loka exciting 0.2500000
cnijicla exciting 0.2500000
fe knife 0.1000000
dakfu knife 0.8000000
dakfa knife 0.1000000
ui Glad 1.0000000
kosta feathers 0.5000000
pimlu feathers 0.5000000
nakni average 0.4000000
sazri average 0.2000000
klani average 0.2000000
cnano average 0.2000000
sodva soda 0.5000000
gy.Fanta.gy soda 0.5000000
pruxi ghost 0.6666667
zgana ghost 0.3333333
софъбакни hungry 0.0370370
xagji hungry 0.8888889
tcexagji hungry 0.0370370
fa hungry 0.0370370
bercribe Polar 1.0000000
kelvrfarenxaito 32 0.5000000
be 32 0.5000000
iseni'inai animals 0.0714286
poi animals 0.0714286
bo animals 0.0714286
danlu animals 0.7857143
nakspe place 0.0294118
pe place 0.0294118
stuzi place 0.2058824
zu'i place 0.0294118
lo'i place 0.0294118
zmadu place 0.0294118
bancu place 0.0294118
jeftu place 0.0294118
45 place 0.0294118
ga'inde place 0.0294118
ku place 0.0588235
zo'ei place 0.0294118
zvati place 0.0588235
be place 0.0294118
basti place 0.0294118
mapti place 0.0588235
tolzdi place 0.0294118
lumbu'u place 0.0294118
foldi place 0.0294118
NULL place 0.0882353
tivni place 0.0294118
ci'arse'u place 0.0588235
palta dishes 0.5000000
jacysabji dishes 0.2500000
iki'ubo dishes 0.2500000
dunda bу 0.3333333
se bу 0.3333333
jbesla bу 0.3333333
banli extraordinary 1.0000000
timske Meteorology 1.0000000
lenu concert 0.1428571
zvati concert 0.1428571
nu concert 0.1428571
zgitigni concert 0.1428571
zgike concert 0.1428571
tigni concert 0.1428571
tigzgi concert 0.1428571
ko Boil 0.5000000
febgau Boil 0.5000000
cliva reluctant 0.5000000
toldji reluctant 0.5000000
sance Sound 1.0000000
stati capable 0.1250000
sazri capable 0.1250000
kakne capable 0.3750000
ka'e capable 0.2500000
kujmikce capable 0.1250000
papibici 1.83 1.0000000
lo Fall 0.3333333
pamoi Fall 0.3333333
critu Fall 0.3333333
iecuax True 1.0000000
cerman Sherman 1.0000000
xacimotos Hashimoto 0.5000000
mi'e Hashimoto 0.5000000
forca fork 1.0000000
co happy 0.0094340
NULL happy 0.0283019
gleki happy 0.8018868
bu'o happy 0.0094340
xamgu happy 0.0094340
ri happy 0.0188679
kei happy 0.0094340
uidaisai happy 0.0094340
ui happy 0.0660377
kau happy 0.0094340
la.rosi,os happy 0.0094340
i'epei happy 0.0094340
selgei happy 0.0094340
finti write 0.0625000
nu write 0.0625000
ciska write 0.7500000
zoi.Eyjafjallajökull.zoi write 0.0625000
Eyjafjallajökull write 0.0625000
le homework 0.1666667
tu'a homework 0.1666667
zdakemkulgu'a homework 0.1666667
mulgau homework 0.1666667
barkulselgu'a homework 0.1666667
ri homework 0.1666667
ka'e flammable 0.5000000
jelca flammable 0.5000000
bevma'e backed 0.3333333
ti'a backed 0.3333333
muvdu backed 0.3333333
troneim Trondheim 1.0000000
kurki bitter 1.0000000
DeVito DeVito 0.3333333
zoi DeVito 0.6666667
vofli Spaghetti 0.3333333
cidjrspageti Spaghetti 0.3333333
ke Spaghetti 0.3333333
mi hurts 0.0952381
se hurts 0.1428571
zargu hurts 0.0476190
cortu hurts 0.4285714
be hurts 0.0476190
cu hurts 0.0952381
NULL hurts 0.0476190
bekpi hurts 0.0476190
stedu hurts 0.0476190
fo paid 0.0769231
pleji paid 0.4615385
terve'u paid 0.0769231
fi paid 0.1538462
pu paid 0.1538462
jundi paid 0.0769231
la.pitr accompany 0.2500000
kansa accompany 0.5000000
ba accompany 0.2500000
NULL Once 1.0000000
xersku stepping 0.5000000
mu'i stepping 0.5000000
te bed 0.0434783
sipybi'o bed 0.0434783
co bed 0.0434783
sipna bed 0.1739130
ckana bed 0.5217391
ckakla bed 0.1739130
naru'e shocking 0.5000000
jenca shocking 0.5000000
prami loves 0.6666667
cu loves 0.0416667
veronik loves 0.0416667
mutce loves 0.0416667
je loves 0.0416667
rode loves 0.0416667
nelci loves 0.0833333
se loves 0.0416667
ra memory 0.1428571
valsi memory 0.1428571
cu memory 0.1428571
ranji memory 0.1428571
nu memory 0.2857143
morji memory 0.1428571
ka'e Grandpa 1.0000000
vi'o Sure 0.5000000
go'i Sure 0.5000000
la Australia 0.1428571
sralygu'e Australia 0.4285714
Australias Australia 0.1428571
tu'i Australia 0.2857143
la Tam 1.0000000
seljukpa roast 0.3333333
toknu roast 0.3333333
bo roast 0.3333333
brode logically 0.3333333
ni'inai logically 0.3333333
ni'i logically 0.3333333
bidgu'e Indonesia 1.0000000
bancuvysi'o Linguistic 1.0000000
nictu helmet 0.2000000
mapku helmet 0.2000000
po'o helmet 0.2000000
calku helmet 0.2000000
stedu helmet 0.2000000
do home 0.0086957
NULL home 0.0086957
klingon home 0.0086957
rapli home 0.0086957
zvati home 0.0260870
xruti home 0.0086957
be home 0.0608696
le home 0.1217391
lo home 0.0347826
kufra home 0.0086957
vo'a home 0.0173913
ri home 0.0173913
lazyzda home 0.0086957
klama home 0.0347826
vau home 0.0086957
zdani home 0.5913043
xrubei home 0.0086957
zdazva home 0.0173913
bregau lay 0.2857143
gugja'a lay 0.1428571
pu lay 0.1428571
vreta lay 0.1428571
cu lay 0.2857143
bartu away 0.0303030
ze'uvu away 0.0303030
ri away 0.0303030
vimcu away 0.0303030
jetfu away 0.0303030
nalzvati away 0.0303030
nai away 0.0303030
ve'u away 0.0303030
vu away 0.0606061
darno away 0.0303030
ru away 0.0303030
litru away 0.0606061
to'o away 0.1212121
mi'ai away 0.0303030
bevri away 0.0303030
snucanci away 0.0303030
lutnilcla away 0.0303030
zicai away 0.0303030
NULL away 0.0909091
ma'urcu'e away 0.0303030
zvati away 0.0606061
zifsnada away 0.0303030
le'o away 0.0303030
i'i away 0.0303030
to'e away 0.0303030
fange He 0.0016835
plipe He 0.0033670
ko'a He 0.3552189
tsali He 0.0016835
la'orxi'o He 0.0016835
vasxu He 0.0016835
jatna He 0.0016835
cticinza He 0.0016835
cimei He 0.0016835
sedyta'u He 0.0016835
NULL He 0.0269360
balcu'e He 0.0016835
ra He 0.3771044
ta He 0.0151515
po'o He 0.0016835
tolmakcu He 0.0016835
fo'a He 0.0016835
lozu'o He 0.0016835
cintolvu'e He 0.0016835
ca'o He 0.0016835
ri He 0.0084175
gugde'aru He 0.0016835
piso'aroi He 0.0016835
nakni He 0.0370370
pifygau He 0.0016835
le He 0.0336700
fliba He 0.0033670
suksa He 0.0016835
ka'e He 0.0016835
nelci He 0.0050505
ta'e He 0.0050505
ralte He 0.0016835
tilju He 0.0016835
mencre He 0.0016835
fepni He 0.0016835
pu'i He 0.0016835
xendo He 0.0016835
puziki He 0.0016835
tordu He 0.0016835
pu He 0.0286195
tolvu'e He 0.0016835
canci He 0.0016835
xalpinxe He 0.0016835
cikna He 0.0033670
pambi'o He 0.0016835
citri He 0.0016835
finti He 0.0016835
malcrexalbo He 0.0016835
cinmle He 0.0016835
cusku He 0.0016835
kurfa He 0.0016835
fadni He 0.0016835
so'iroi He 0.0033670
jajgau He 0.0016835
zasti He 0.0016835
lo He 0.0168350
xalbebna He 0.0033670
mutce He 0.0016835
lubybi'o He 0.0016835
vobmipri He 0.0016835
u'i Yawn 0.5000000
nai Yawn 0.5000000
savru about 0.0056497
gleki about 0.0112994
na.a about 0.0169492
tolmo'i about 0.0056497
casnu about 0.0225989
simta'a about 0.0056497
darlu about 0.0056497
ui about 0.0056497
saske about 0.0056497
norman.finkelctain about 0.0056497
brito about 0.0056497
do'u about 0.0056497
iepei about 0.0056497
ceikspir about 0.0056497
xanka about 0.0112994
NULL about 0.1016949
bajra about 0.0056497
ti'u about 0.0056497
nu about 0.0169492
loglan about 0.0056497
ru about 0.0056497
senva about 0.0112994
cfipu about 0.0056497
e'i about 0.0056497
tavla about 0.1638418
ji'i about 0.0621469
snuti about 0.0056497
lo about 0.0112994
zvati about 0.0056497
zo'ei about 0.0169492
nalmorji about 0.0056497
uinai about 0.0112994
ingland about 0.0056497
trene about 0.0056497
gugdejupu about 0.0056497
fasnu about 0.0056497
e'oga'inai about 0.0056497
lu'omi'a about 0.0056497
iumis about 0.0056497
de about 0.0169492
la'edo'i about 0.0056497
fi about 0.0734463
skina about 0.0056497
pe about 0.0282486
nicte about 0.0056497
mo about 0.0056497
zo'e about 0.0282486
be about 0.0056497
jecra'a about 0.0056497
osakas about 0.0056497
blari'o about 0.0056497
xanla about 0.0056497
srana about 0.0225989
jalge about 0.0112994
roda about 0.0056497
pu'o about 0.0056497
seka'a about 0.0112994
pensi about 0.0677966
lisri about 0.0112994
djaspa about 0.0056497
pol about 0.0056497
ji'ixa about 0.0056497
dapma about 0.0056497
selsanga about 0.0056497
gungunma about 0.0112994
tolji'a about 0.0056497
toldjica about 0.0056497
zukte about 0.0056497
bangrmalti Maltese 1.0000000
ije divine 0.1052632
lo'e divine 0.0526316
lo'i divine 0.0526316
cesyvu'e divine 0.2105263
jinzi divine 0.0526316
ka divine 0.0526316
srera divine 0.1052632
cu divine 0.2631579
NULL divine 0.0526316
kairpau divine 0.0526316
nu murders 1.0000000
balnema similar 0.4000000
simsa similar 0.6000000
xriso Christian 0.6666667
banli Christian 0.3333333
mi account 0.2000000
facebook account 0.2000000
tu'a account 0.4000000
pensi account 0.2000000
nu air 0.0909091
vacri air 0.2727273
se air 0.0909091
vifne air 0.0909091
lo air 0.0909091
le air 0.0909091
vinji air 0.0909091
selvoi air 0.0909091
djacu air 0.0909091
zdifri fun 0.0370370
ke'arboiterjvi fun 0.0370370
xamgau fun 0.0370370
selzdifri fun 0.1481481
zdile fun 0.3703704
tu'a fun 0.0370370
xajmi fun 0.1111111
zdizma fun 0.1851852
ca'o fun 0.0370370
kinrxanime Gate 0.3333333
gy.Steins;Gate.gy Gate 0.3333333
gi'e Gate 0.3333333
datni data 1.0000000
ga'i P 0.2000000
broda P 0.8000000
ku inch 0.1428571
ku'o inch 0.1428571
noi inch 0.1428571
fo inch 0.1428571
be'o inch 0.1428571
gutci inch 0.2857143
vasxu Breathe 0.5000000
ko Breathe 0.5000000
ri'a saved 0.2000000
rejyjveprigau saved 0.2000000
pu saved 0.2000000
nurxru saved 0.2000000
snura saved 0.2000000
zdile amused 0.3333333
se amused 0.6666667
ca Cthulhu 0.5000000
NULL Cthulhu 0.5000000
sanmi dish 0.5000000
se dish 0.5000000
ian Ian 1.0000000
ue'ipei Are 0.0178571
uu.oipei Are 0.0089286
fi'a Are 0.0089286
cabyfau Are 0.0089286
o'onai Are 0.0089286
peizo'onai Are 0.0089286
i'epei Are 0.0089286
NULL Are 0.0535714
ta Are 0.0089286
aipei Are 0.0089286
o'onaipei Are 0.0089286
ju'opei Are 0.0089286
pedysi'u Are 0.0089286
pei Are 0.0446429
xu Are 0.7767857
be'e Are 0.0089286
se cntrational 0.3333333
gy.cntrational.gy cntrational 0.1666667
la'o cntrational 0.1666667
cntrational cntrational 0.1666667
la'oi cntrational 0.1666667
le'u : 0.0238095
vau : 0.0238095
20 : 0.0238095
lu : 0.0714286
gi'enai : 0.0238095
danfu : 0.0476190
i : 0.0952381
pinocchio : 0.0238095
2 : 0.0238095
li'u : 0.0476190
li'o : 0.0238095
pi'e : 0.0476190
File:Windows98.png : 0.0238095
zo'o : 0.0238095
tu'e : 0.0238095
tcika : 0.0476190
gy.Pinocchio.gy : 0.0238095
gugdeburu : 0.0238095
gy.http://tatoeba.org/.gy : 0.0238095
nagi'o : 0.0238095
djuanzis : 0.0238095
de'i : 0.0238095
NULL : 0.1428571
kukis : 0.0952381
cifnu : 0.0238095
clani Too 0.1666667
kei Too 0.1666667
ka Too 0.1666667
du'e Too 0.1666667
dukse Too 0.3333333
lanzu resemble 0.2500000
simsysi'u resemble 0.7500000
paroi only 0.0111111
Principia only 0.0222222
ijo only 0.0222222
za only 0.0111111
kevin only 0.0111111
pavo only 0.0111111
mei only 0.0222222
balpre only 0.0222222
purci only 0.0111111
nauku only 0.0111111
va'o only 0.0111111
mokca only 0.0111111
namcrprimu only 0.0111111
nagi'a only 0.0111111
o only 0.0111111
fliba only 0.0111111
ra'unai only 0.0111111
ropa only 0.1111111
se only 0.0555556
iakob only 0.0222222
po'onai only 0.0111111
punaijeba only 0.0111111
galfi only 0.0111111
steci only 0.0333333
djeikyb only 0.0111111
inaja only 0.0444444
na.a only 0.0111111
po'o only 0.2111111
mo'a only 0.0111111
xelvetik only 0.0111111
gy.Principia only 0.0111111
merko only 0.0222222
gi'o only 0.0111111
NULL only 0.1333333
selte'i only 0.0333333
se leak 1.0000000
nu correctly 0.2500000
japyvla correctly 0.2500000
NULL correctly 0.2500000
jy correctly 0.2500000
palbi'o abilities 1.0000000
betmyn Batman 0.1000000
jo'u Batman 0.2000000
batman Batman 0.2000000
la Batman 0.5000000
i'epei ? 0.0005643
vi'opei ? 0.0011287
skusno ? 0.0005643
a'u ? 0.0005643
na'ipei ? 0.0005643
i ? 0.0016930
aupei ? 0.0005643
xu ? 0.0462754
Lojban?.gy ? 0.0005643
ki'a ? 0.0016930
".i ? 0.0005643
mu'ima ? 0.0022573
iacu'i ? 0.0005643
oipei ? 0.0005643
li'u ? 0.0056433
NULL ? 0.5389391
iepei ? 0.0016930
farna ? 0.0016930
xuru'e ? 0.0005643
je'epei ? 0.0011287
eipei ? 0.0011287
lo ? 0.0965011
kambebna ? 0.0005643
ga'inai ? 0.0005643
fe ? 0.0005643
se ? 0.0084650
audaipei ? 0.0005643
nu'epei ? 0.0005643
zvati ? 0.0011287
tolcanci ? 0.0005643
do ? 0.0056433
e'u ? 0.0011287
lu'omi'a ? 0.0005643
nonselsmu ? 0.0005643
ju'opei ? 0.0011287
je'i ? 0.0039503
e'apei ? 0.0005643
peizo'onai ? 0.0005643
gi'i ? 0.0033860
xrakarni ? 0.0005643
li'u" ? 0.0005643
ba'oxuku ? 0.0005643
ue'ipei ? 0.0005643
mo ? 0.0513544
fatci ? 0.0005643
ju'oipei ? 0.0005643
ratni ? 0.0005643
laurzengau ? 0.0005643
vi'o ? 0.0005643
e'o ? 0.0016930
ji ? 0.0011287
xuku ? 0.0005643
ke'o ? 0.0016930
mu'opei ? 0.0005643
uecai.ianai ? 0.0005643
ma ? 0.1602709
uu.oipei ? 0.0005643
cu ? 0.0005643
ba'anaipei ? 0.0005643
respa ? 0.0005643
pevysmacu ? 0.0005643
pei ? 0.0203160
be'e ? 0.0022573
pau ? 0.0005643
ki'uma ? 0.0022573
3 ? 0.0005643
je'upei ? 0.0050790
loi ? 0.0005643
o'onaipei ? 0.0005643
selpluka ? 0.0005643
xo ? 0.0056433
oi Stupid 1.0000000
bostyn Boston 0.0277778
la.bastn Boston 0.0555556
bastn Boston 0.0833333
la Boston 0.4722222
bastyn Boston 0.0277778
NULL Boston 0.0277778
boston Boston 0.3055556
aupo'o Health 0.3333333
kanro Health 0.6666667
selbancu limit 0.5000000
sutra limit 0.5000000
truralju Minister 1.0000000
zasti God 0.0142857
le God 0.0571429
lo God 0.1428571
cevni God 0.3714286
smugau God 0.0142857
cev God 0.0142857
pa God 0.0142857
a'ocai God 0.0142857
cevna God 0.0142857
doi God 0.0285714
jegvo God 0.0142857
NULL God 0.0285714
tu'a God 0.0428571
da God 0.0142857
la.cev God 0.0285714
uo.oinai God 0.0142857
bandu God 0.0142857
malsi God 0.0142857
e'enai God 0.0142857
re'enai God 0.0142857
la God 0.1142857
tunta painful 0.5000000
crori'a painful 0.5000000
selxai injured 0.5000000
poi injured 0.5000000
rinsa Remember 0.3333333
du'u Remember 0.3333333
ko Remember 0.3333333
zdosible'u characters 1.0000000
roksodna Lithium 1.0000000
le software 1.0000000
tolmorji forgetting 0.2000000
roi forgetting 0.2000000
tolmo'i forgetting 0.4000000
romni forgetting 0.2000000
prucitri Prehistory 1.0000000
nu'o didn 0.0099010
na didn 0.3960396
u'unai didn 0.0099010
nai didn 0.0198020
co'e didn 0.0099010
na’e didn 0.0099010
pu didn 0.4059406
paroinai didn 0.0099010
nalzasti didn 0.0099010
djica didn 0.0099010
takeutcis didn 0.0198020
NULL didn 0.0495050
djucpe didn 0.0099010
nalgundei didn 0.0099010
u'u didn 0.0099010
punai didn 0.0099010
vrude basically 1.0000000
sipydji sleepy 0.1111111
sipna sleepy 0.3333333
siptcu sleepy 0.1111111
au sleepy 0.2222222
tatpi sleepy 0.1111111
sipta'i sleepy 0.1111111
du equal 0.3636364
li equal 0.2727273
dunli equal 0.1818182
drata equal 0.0909091
ba'e equal 0.0909091
di'i sporadically 0.5000000
di'inai sporadically 0.2500000
je'i sporadically 0.2500000
salci celebrating 0.5000000
ma celebrating 0.5000000
cilre study 0.0952381
ko'e study 0.0238095
nundugri study 0.0238095
ki'u study 0.0238095
li'u study 0.0238095
tu'a study 0.0476190
ko study 0.0238095
selsau study 0.0238095
le study 0.0238095
lu study 0.0238095
za'uva'e study 0.0238095
bantadni study 0.0238095
tadni study 0.6190476
tinbe line 0.5000000
linji line 0.5000000
tuks Tux 0.5000000
la Tux 0.5000000
janli hit 0.2000000
darxi hit 0.5500000
darsi hit 0.0500000
cinju'i hit 0.0500000
ratyjbama hit 0.0500000
pu hit 0.1000000
fusra rot 1.0000000
da Lojbanistan 1.0000000
skiji skis 1.0000000
noda Ann 0.1111111
la Ann 0.4444444
an Ann 0.4444444
tamkai Form 1.0000000
robinson Robinson 0.5000000
penmi Robinson 0.5000000
cmaci math 0.6666667
isemu'inai math 0.3333333
citka eater 1.0000000
kalte hunters 0.5000000
loi hunters 0.5000000
ekuador Ecuador 1.0000000
tolci'orai eldest 1.0000000
selvi'a meets 1.0000000
anas Anna 1.0000000
tu'a MP3 0.3333333
selsnatci MP3 0.3333333
mypyci MP3 0.3333333
dicmakseldi'e radiation 0.5000000
seldi'e radiation 0.5000000
selfu service 1.0000000
pesxu goo 1.0000000
gendra grammatically 1.0000000
murmura pussycat 0.3333333
co pussycat 0.3333333
ko pussycat 0.3333333
vajni cared 0.3333333
nu cared 0.3333333
ca cared 0.3333333
fi texted 0.2500000
fonxa texted 0.2500000
cu texted 0.2500000
notci texted 0.2500000
sutra fast-talker 0.5000000
tavla fast-talker 0.5000000
la'o Noelia 0.5000000
gy.Noelia.gy Noelia 0.5000000
tigbe'e circus 1.0000000
fange foreign 0.8333333
gugyfrica foreign 0.1666667
koknoc &apos;noS 0.5000000
terdi &apos;noS 0.5000000
datni info 0.3333333
co'e info 0.3333333
be info 0.3333333
kulcitsi semester 1.0000000
spenu'e engagement 1.0000000
selspe being 0.0212766
sau being 0.0212766
nu being 0.1914894
piso'u being 0.0212766
xabni being 0.0212766
laldo being 0.0212766
seri'anai being 0.0212766
gunma being 0.0212766
finti being 0.0212766
badri being 0.0212766
lonu being 0.0212766
ranti being 0.0212766
ka being 0.1063830
cuxykamvli being 0.0212766
iku'i being 0.0212766
xarnu being 0.0212766
damba being 0.0212766
zanru being 0.0638298
lafti being 0.0212766
termu'i being 0.0212766
cnitce being 0.0212766
bebna being 0.0212766
NULL being 0.1702128
julne being 0.0212766
cazi being 0.0212766
stuvi'e being 0.0212766
nobli aristocrat 1.0000000
tcutca France 0.0833333
stuzi France 0.0833333
fraso France 0.0833333
la France 0.0833333
paRIS France 0.0833333
frasygugde France 0.0833333
ku France 0.0833333
fasygu'e France 0.4166667
de solutions 0.3333333
se solutions 0.3333333
danfu solutions 0.3333333
mo'u knees 1.0000000
fanva translation 0.4285714
nunfanva translation 0.0714286
xe translation 0.2857143
NULL translation 0.0714286
bansuve'a translation 0.1428571
mapti becomes 0.3333333
NULL becomes 0.3333333
cu becomes 0.3333333
seltivni program 1.0000000
la Alice 0.4864865
alis Alice 0.4324324
ie Alice 0.0270270
NULL Alice 0.0540541
spedji suitors 1.0000000
pavyseljirna caught 0.1818182
mo'u caught 0.0909091
pu caught 0.1818182
marce caught 0.0909091
kavbu caught 0.4545455
xu Aren 0.2000000
gleki Aren 0.2000000
naipei Aren 0.2000000
tatpi Aren 0.4000000
farsis proficient 1.0000000
pe'a Thermos 0.3333333
saksruseibo'i Thermos 0.6666667
renro Nice 0.0833333
oinai Nice 0.1666667
cecla Nice 0.0833333
pastu Nice 0.0833333
uidai Nice 0.0833333
mi Nice 0.1666667
certu Nice 0.1666667
ui Nice 0.1666667
boxna Wave 1.0000000
roldei rice 0.1333333
cu rice 0.0666667
na'o rice 0.0666667
lo rice 0.0666667
de'i rice 0.0666667
ne rice 0.0666667
semau rice 0.0666667
rismi rice 0.4666667
nolraitruni'u Queen 0.3333333
nolraitru Queen 0.1666667
gligu'e Queen 0.1666667
ropa Queen 0.3333333
cabdei mustn 0.5000000
ei mustn 0.5000000
Livgyterbilma hepatitis 0.5000000
by hepatitis 0.5000000
je'u Truly 1.0000000
catra been 0.0131579
co'a been 0.0131579
pujeca been 0.0131579
do been 0.0131579
la.osakan been 0.0131579
kansa been 0.0131579
noroi been 0.0131579
zvati been 0.0921053
bastn been 0.0131579
zerle'a been 0.0131579
ja'osai been 0.0131579
kajde been 0.0131579
zu been 0.0131579
cuxna been 0.0131579
snuti been 0.0131579
xauaiis been 0.0131579
pu been 0.2236842
lo'u been 0.0131579
selda'i been 0.0131579
la.xokaidon been 0.0131579
naras been 0.0131579
pu'o been 0.0131579
mark been 0.0131579
cumki been 0.0131579
NULL been 0.1184211
iecai been 0.0131579
caba'o been 0.0131579
ctipla been 0.0131579
mexygu'e been 0.0131579
mintu been 0.0131579
nuzba been 0.0131579
ga'inde been 0.0131579
terzba been 0.0131579
gusydi'e been 0.0131579
rejyjveprigau been 0.0131579
la.okinauan been 0.0131579
patpei been 0.0131579
ca'o been 0.0394737
la.mark been 0.0131579
ba'o been 0.0657895
sai ” 0.2000000
cmene ” 0.2000000
NULL ” 0.2000000
li'u ” 0.4000000
spusku reason 0.0476190
krinu reason 0.3333333
nu reason 0.0476190
makau reason 0.0476190
du'u reason 0.0952381
nomoi reason 0.0476190
NULL reason 0.1904762
nai reason 0.0476190
da reason 0.0476190
za'i reason 0.0476190
zi'o reason 0.0476190
xamgu leaders 0.2000000
zanfri leaders 0.2000000
na leaders 0.2000000
turni leaders 0.2000000
truci'e leaders 0.2000000
rirni Parent 1.0000000
di'inai error 0.0588235
NULL error 0.1176471
srera error 0.4117647
se error 0.3529412
ra error 0.0588235
ja touching 1.0000000
selpau things 0.0172414
drata things 0.0172414
mipri things 0.0172414
so'i things 0.1551724
jmina things 0.0172414
u'e things 0.0517241
ju things 0.0172414
ckaji things 0.0172414
tarti things 0.0172414
mrobi'o things 0.0172414
badri things 0.0172414
tolmo'i things 0.0172414
zo'e things 0.0344828
selzu'e things 0.0172414
be things 0.0517241
ganzu things 0.0172414
se things 0.1034483
srana things 0.0344828
fasnu things 0.0172414
za'o things 0.0172414
glare things 0.0172414
masno things 0.0172414
NULL things 0.0862069
selcu'u things 0.0172414
da things 0.1896552
ri leaped 0.5000000
pi'egre leaped 0.5000000
clite polite 1.0000000
tolsnuti deliberate 0.5000000
se deliberate 0.5000000
pe word 0.0357143
rafsi word 0.0357143
nu'e word 0.0357143
no'a word 0.0357143
ki'a word 0.0357143
valsi word 0.4285714
cmavo word 0.0357143
marji word 0.0357143
cidjrpitsa word 0.0357143
fi word 0.0357143
maris word 0.0357143
le word 0.0357143
fu'ivla word 0.0357143
NULL word 0.1428571
NULL connected 0.3333333
jongau connected 0.3333333
pu connected 0.3333333
ticysku lies 0.3333333
ca lies 0.1111111
NULL lies 0.1111111
da lies 0.1111111
jitfa lies 0.3333333
lozu'o guitar 0.0833333
tu'a guitar 0.0833333
jgita guitar 0.5000000
zgizu'e guitar 0.0833333
pilno guitar 0.0833333
poi guitar 0.0833333
srana guitar 0.0833333
alna sprigs 0.3333333
galtu sprigs 0.3333333
jimca sprigs 0.3333333
lerfu symbols 0.5000000
banvoksle symbols 0.5000000
py killing 1.0000000
pe Gundam 0.2500000
no'u Gundam 0.2500000
selkei Gundam 0.2500000
gandam Gundam 0.2500000
su'e villains 0.3333333
da villains 0.3333333
pacpre villains 0.3333333
ko purposes 0.2500000
e'a purposes 0.2500000
ja'o purposes 0.2500000
nunli'u purposes 0.2500000
curmi Beer 0.1666667
se Beer 0.1666667
to'e Beer 0.1666667
ku Beer 0.1666667
birje Beer 0.3333333
ke'a grandfather 0.0833333
ri grandfather 0.0833333
pafpa'u grandfather 0.0833333
mampa'u grandfather 0.1666667
rirpa'u grandfather 0.2500000
mamtypatfu grandfather 0.0833333
be grandfather 0.0833333
mamta grandfather 0.0833333
noi grandfather 0.0833333
vau OK 0.1111111
kurji OK 0.1111111
zo'onai OK 0.1111111
o'o OK 0.1111111
vi'opei OK 0.2222222
ko OK 0.1111111
zabna OK 0.1111111
fasnu OK 0.1111111
jbera borrow 0.7142857
ve borrow 0.2857143
jimca branches 1.0000000
pu before 0.3965517
nu before 0.1206897
la.xokaidon before 0.0172414
vorme before 0.0172414
no'a before 0.0172414
tokios before 0.0344828
lonu before 0.0172414
toi before 0.0172414
nunglecau before 0.0172414
ku before 0.0172414
pruprulamdei before 0.0172414
zu before 0.0172414
nunvacysai before 0.0172414
be before 0.0862069
ka'enai before 0.0172414
la'edi'u before 0.0172414
veltivyvidni before 0.0172414
noroi before 0.0172414
jemna before 0.0172414
VFD before 0.0172414
su'oroi before 0.0172414
purci before 0.0172414
NULL before 0.0172414
pu'o before 0.0172414
fa'u before 0.0172414
NULL creative 1.0000000
doi Kid 0.3333333
ko Kid 0.3333333
verba Kid 0.3333333
pu hedge-pig 0.2500000
cmoni hedge-pig 0.2500000
ernace hedge-pig 0.2500000
citno hedge-pig 0.2500000
litru trips 0.2500000
lo trips 0.5000000
nu trips 0.2500000
lo Skateboarding 0.2500000
se Skateboarding 0.2500000
nu Skateboarding 0.2500000
tumskiji Skateboarding 0.2500000
rinju tied 0.5000000
co'u tied 0.5000000
ca trying 0.0714286
a'i trying 0.0714286
ku trying 0.0714286
ca'o trying 0.1428571
cinju'i trying 0.0714286
troci trying 0.5714286
na'e friendship 0.2000000
binxo friendship 0.2000000
nunpe'o friendship 0.4000000
ro friendship 0.2000000
la'ede'u true 0.0312500
selgungunma true 0.0312500
nei true 0.0312500
jetnu true 0.4375000
nalje'u true 0.0312500
je'a true 0.0312500
na.a true 0.0937500
nonydjuno true 0.0312500
NULL true 0.0937500
go'i true 0.0312500
fa true 0.0625000
ie true 0.0312500
lonu true 0.0312500
boljinterjvi true 0.0312500
ganlygau Close 0.1428571
do Close 0.1428571
ko Close 0.2857143
ga'orgau Close 0.2857143
kanla Close 0.1428571
mamnunsla Mother 0.5000000
la.mam Mother 0.5000000
na pacing 0.1666667
ko pacing 0.1666667
gi'e pacing 0.1666667
ze'i pacing 0.1666667
peidzu pacing 0.1666667
pe'u pacing 0.1666667
u solicit 1.0000000
u'e beautifully 1.0000000
rikteropu Aardvark 1.0000000
lo'e aimed 0.1666667
le'e aimed 0.1666667
fo aimed 0.3333333
karni aimed 0.3333333
poi nearest 0.1250000
raijibni nearest 0.1250000
jbirai nearest 0.3750000
traji nearest 0.1250000
jibni nearest 0.1250000
ku'o nearest 0.1250000
solri Sun 1.0000000
gy.Tatoeba.gy URL 1.0000000
zo hi 0.5000000
coi hi 0.5000000
baupli Shintaro 0.2000000
cintaros Shintaro 0.2000000
cu Shintaro 0.2000000
la Shintaro 0.2000000
xamgu Shintaro 0.2000000
la'aru'e thoughts 0.3333333
fau thoughts 0.3333333
moi thoughts 0.3333333
cu boys 0.0666667
nanla boys 0.5333333
platu boys 0.0666667
ma boys 0.0666667
za'u boys 0.1333333
pu boys 0.0666667
kau boys 0.0666667
nilxa'ugri Auckland 0.3333333
gy.Auckland.gy Auckland 0.3333333
la'o Auckland 0.3333333
pano o 0.0952381
li o 0.2857143
se o 0.1428571
uedai o 0.0476190
rere o 0.0476190
tcika o 0.0952381
mu o 0.0476190
be o 0.0952381
so o 0.0952381
reno o 0.0476190
gapci gases 1.0000000
ju'o geez 0.3333333
ii geez 0.3333333
cu'i geez 0.3333333
ka as 0.0208333
toljisyzma as 0.0416667
malfu'a as 0.0104167
kimuras as 0.0104167
na'o as 0.0104167
jeku'i as 0.0104167
lonu as 0.0312500
loni as 0.0208333
naldamtanko as 0.0104167
zifre as 0.0208333
tcomolunmas as 0.0104167
simsa as 0.0312500
dunli as 0.0833333
simlu as 0.0104167
selpraci'e as 0.0104167
labno as 0.0104167
sau as 0.0104167
ci'arse'u as 0.0208333
vreji as 0.0104167
NULL as 0.1875000
jalge as 0.0104167
nurma as 0.0104167
ja'a as 0.0104167
du'i as 0.0416667
be as 0.0104167
prije as 0.0312500
pendo as 0.0104167
fange as 0.0104167
cu as 0.0416667
olimpiks as 0.0104167
slabu as 0.0208333
creka as 0.0104167
claselxadni as 0.0208333
mupli as 0.0104167
livla as 0.0104167
ninmu as 0.0208333
ponse as 0.0104167
jecabo as 0.0104167
banzuxe'o as 0.0104167
nunka'e as 0.0208333
robin as 0.0104167
purci as 0.0104167
tai as 0.0208333
pumo'u as 0.0104167
du'iru'e as 0.0208333
jibri as 0.0104167
prane as 0.0104167
jexygu'e Algeria 1.0000000
salvador.dalis Dalí 0.3333333
la Dalí 0.3333333
gi Dalí 0.3333333
la.akiran Akira 0.3333333
ri Akira 0.3333333
be Akira 0.3333333
slabu aware 0.0625000
da aware 0.0625000
nei aware 0.0625000
sanji aware 0.8125000
tasta salty 1.0000000
panje sponge 1.0000000
lebna steals 1.0000000
po'o paint 0.3333333
cintypu'i paint 0.3333333
cinta paint 0.3333333
terdyske geologist 0.3333333
gunka geologist 0.3333333
markos geologist 0.3333333
Russell Russell 0.2500000
la'o Russell 0.2500000
gy.Russell.gy Russell 0.1250000
la'oi Russell 0.1250000
zoi Russell 0.2500000
tuple legs 0.5000000
be legs 0.0555556
se legs 0.1666667
da legs 0.2222222
clani legs 0.0555556
cu interests 0.5000000
cinri interests 0.5000000
voksa Slow 0.5000000
lo Slow 0.5000000
nononono 10,000 1.0000000
xrani wounded 0.3333333
se wounded 0.3333333
pu wounded 0.3333333
tu'a iPad 0.1250000
vo iPad 0.1250000
ipad iPad 0.1250000
ipadminis iPad 0.1250000
la iPad 0.2500000
me iPad 0.2500000
crejibri oldest 0.2000000
koris oldest 0.4000000
ro oldest 0.4000000
ckaji helpful 0.5000000
sidju helpful 0.5000000
fi Follow 0.3333333
ko Follow 0.3333333
tinbe Follow 0.3333333
cikybi'o Waking 0.5000000
lenu Waking 0.5000000
lunra Mankind 1.0000000
cecla shoot 0.1666667
ce'u shoot 0.1666667
selcelmrogau shoot 0.1666667
celgunta shoot 0.5000000
blari'o blue-green 1.0000000
ku exists 0.1111111
kei exists 0.0555556
zasti exists 0.3888889
cu exists 0.4444444
tolprali loss 0.2500000
kecti loss 0.2500000
cirko loss 0.2500000
lonu loss 0.2500000
lindi strike 0.3333333
ce'u strike 0.3333333
jibypante strike 0.3333333
gidva ways 0.2500000
cu ways 0.2500000
a'o ways 0.2500000
nobli ways 0.2500000
i .11 0.6250000
ci .11 0.1250000
vo .11 0.1250000
incipe .11 0.1250000
xagji Hungry 0.4000000
xu Hungry 0.4000000
do Hungry 0.2000000
iptsa pepperoni 1.0000000
sormemkarce bus 0.0810811
sorpeka bus 0.0810811
sorprekarcytcana bus 0.0810811
sorprekarce bus 0.3243243
basfa bus 0.1351351
poi bus 0.1081081
aftobuso bus 0.1891892
pensi otherwise 0.3333333
natfe otherwise 0.3333333
drata otherwise 0.3333333
xribirje beer 0.1481481
poi beer 0.0370370
birje beer 0.7407407
loi beer 0.0370370
klesi beer 0.0370370
raktu bugging 0.5000000
nu bugging 0.5000000
carvi heavily 0.5000000
carmi heavily 0.5000000
le flowers 0.0454545
fi'o flowers 0.0454545
NULL flowers 0.0454545
loi flowers 0.0454545
bi'unai flowers 0.0454545
dunda flowers 0.0454545
xrula flowers 0.6363636
flora flowers 0.0909091
fi slut 0.0909091
simlu slut 0.0909091
malsorgle slut 0.4545455
loka slut 0.0909091
seri'a slut 0.0909091
za'e slut 0.0909091
lonu slut 0.0909091
djicni forward 0.3333333
bakni forward 0.3333333
renono forward 0.3333333
cu accommodates 0.5000000
vaska'e accommodates 0.5000000
pagre through 0.1818182
pa'o through 0.0909091
sipna through 0.0909091
pi'egre through 0.0909091
pi through 0.0909091
ze'a through 0.0909091
ro'e through 0.0909091
ze'i through 0.0909091
ve'e through 0.0909091
NULL through 0.0909091
19xyxymoi 20th 1.0000000
ko Buy 0.5000000
erve Buy 0.5000000
bel invented 0.2000000
finti invented 0.6000000
pu invented 0.2000000
kensa virus 0.5000000
vidru virus 0.5000000
smusku lied 0.1250000
fi lied 0.2500000
pu lied 0.3750000
ticysku lied 0.2500000
vecnu customer 0.5000000
po'o customer 0.5000000
prami cherish 0.5000000
mau cherish 0.5000000
matma mother 0.0098039
mamta mother 0.5588235
me mother 0.0098039
mamtu mother 0.0196078
baca'o mother 0.0098039
be mother 0.2745098
le mother 0.0490196
cu mother 0.0196078
loka mother 0.0098039
verclibau mother 0.0098039
dIsniland mother 0.0098039
rirni mother 0.0098039
bangitu'a mother 0.0098039
mujyku'e universal 0.5000000
ka universal 0.5000000
xanjairinsa shook 0.2500000
da shook 0.2500000
cu shook 0.2500000
desygau shook 0.2500000
lumci sweep 0.3333333
gi'e sweep 0.3333333
tergu'i sweep 0.3333333
ka excitement 1.0000000
ve'e travels 0.2500000
litru travels 0.2500000
ze'e travels 0.2500000
cu travels 0.2500000
dansu dancer 1.0000000
derxi garbage 0.5000000
festi garbage 0.5000000
remske Anthropology 1.0000000
penmi everywhere 0.2000000
fe'eroroi everywhere 0.4000000
ku everywhere 0.2000000
se everywhere 0.2000000
cu causes 0.5000000
rinka causes 0.5000000
pampe'o ex-girlfriend 1.0000000
ce'i % 0.3333333
nilyla'e % 0.3333333
pinonopa % 0.3333333
lo'e invention 0.2000000
by invention 0.2000000
finti invention 0.4000000
nu invention 0.2000000
la theremin 0.5000000
pilno theremin 0.5000000
tavla possible 0.0555556
nunka'e possible 0.0555556
sarcu possible 0.0555556
ba possible 0.0555556
lakne possible 0.0555556
NULL possible 0.1111111
cumki possible 0.1666667
falonu possible 0.0555556
cumfri possible 0.0555556
makau possible 0.0555556
ca possible 0.1111111
nu possible 0.0555556
jai possible 0.0555556
pare'u possible 0.0555556
kalabrian.xesybau dialect 1.0000000
kelci played 0.6666667
NULL played 0.1666667
rubnstain played 0.1666667
fepri Lung 1.0000000
ko enter 0.0833333
nenri enter 0.3333333
co'a enter 0.0833333
co'i enter 0.0833333
klama enter 0.1666667
tarti enter 0.0833333
nerkla enter 0.1666667
pu kissed 0.2222222
cinba kissed 0.4444444
ma'urni'u kissed 0.1111111
cu kissed 0.1111111
ro kissed 0.1111111
jdice decision 0.5714286
da decision 0.1428571
ka decision 0.1428571
pajni decision 0.1428571
carna slithy 1.0000000
bangrklingo Klingon 0.6000000
bantuluxe Klingon 0.2000000
inajanai Klingon 0.2000000
lobjan Lobjan 0.2500000
zo Lobjan 0.2500000
ru'e Lobjan 0.2500000
u'i Lobjan 0.2500000
bogjinme Calcium 1.0000000
nu preventing 1.0000000
nunpenmi meating 0.3333333
se meating 0.3333333
zau meating 0.3333333
ko Act 0.2500000
zukte Act 0.2500000
sutra Act 0.2500000
zmadu Act 0.2500000
ca up 0.0400000
so'uroi up 0.0100000
ra'i up 0.0300000
sisti up 0.0100000
tcini up 0.0200000
makcu up 0.0300000
jgari up 0.0300000
xanri up 0.0100000
do up 0.0200000
sezu'e up 0.0100000
co'u up 0.0400000
ionai up 0.0100000
sutra up 0.0100000
cikna up 0.1800000
sa'irbi'o up 0.0200000
radycru up 0.0300000
co'i up 0.0100000
culno up 0.0100000
lumci up 0.0100000
kalri up 0.0100000
gei up 0.0100000
jdica up 0.0100000
seltra up 0.0100000
lafti up 0.0300000
nalgundei up 0.0100000
tokion up 0.0100000
gekygau up 0.0100000
mo'i up 0.0100000
cpare up 0.0100000
sanli up 0.0300000
NULL up 0.1000000
gi'o up 0.0100000
cikybi'o up 0.0700000
srera up 0.0100000
ba'e up 0.0100000
mabla up 0.0100000
nicygau up 0.0200000
mo up 0.0500000
platu up 0.0100000
cladakyxa'i up 0.0100000
rinju up 0.0100000
jisygau up 0.0100000
xrisrbiblia Three 0.1428571
forca Three 0.1428571
li Three 0.1428571
ci Three 0.5714286
vomoi April 0.2500000
prilio April 0.2500000
lo April 0.5000000
sevzi oneself 0.1666667
di oneself 0.1666667
da oneself 0.1666667
tu'a oneself 0.0833333
NULL oneself 0.0833333
tolfekybi'o oneself 0.0833333
fi oneself 0.0833333
nu oneself 0.0833333
vo'e oneself 0.0833333
kristian.anasn tale 0.2500000
me'e tale 0.2500000
zi'e tale 0.2500000
pe tale 0.2500000
dikni channel 0.2500000
irci channel 0.2500000
zo'ei channel 0.2500000
dei channel 0.2500000
lu along 0.1250000
ko along 0.1250000
jo'u along 0.1250000
ne'a along 0.1250000
sy along 0.1250000
jarki along 0.1250000
mo'i along 0.1250000
goi along 0.1250000
jinmlreni Rhenium 1.0000000
baxydinkarda debit 1.0000000
la.pit Pete 1.0000000
tsakura blossoms 1.0000000
ta'i method 0.5000000
olimpiks method 0.1666667
tadji method 0.3333333
sezyselfu at 0.0037594
fe'eca'o at 0.0037594
a'u at 0.0037594
fa'a at 0.0037594
nabo at 0.0037594
zdadi'u at 0.0037594
rocki at 0.0037594
xalka at 0.0037594
dunli at 0.0037594
ckusro at 0.0037594
korbi at 0.0037594
