jinmrtali Thallium 1.0000000
jinzi natural 0.1538462
dugri natural 0.1538462
na'o natural 0.0769231
lunra natural 0.0769231
ke natural 0.0769231
kacna'u natural 0.0769231
saske natural 0.0769231
rarna natural 0.0769231
se natural 0.2307692
tarti understanding 0.1250000
sa'e understanding 0.1250000
fi understanding 0.3750000
jimpe understanding 0.3750000
Aachen Aachen 0.2500000
dy.Aachen.gy Aachen 0.1250000
fo Aachen 0.3750000
la Aachen 0.2500000
fanta prevented 0.2500000
rinju prevented 0.1250000
bumru prevented 0.1250000
pu prevented 0.1250000
nu prevented 0.3750000
gleve'u hooker 1.0000000
xantamji handspring 0.2000000
nu handspring 0.2000000
plipe handspring 0.2000000
ca handspring 0.2000000
xance handspring 0.2000000
cu vomited 0.5000000
vamtu vomited 0.5000000
bebna idiot 1.0000000
zu'ai royale 0.2000000
pu royale 0.2000000
la royale 0.2000000
damba royale 0.2000000
alis royale 0.2000000
mamtu mother 0.0153846
me mother 0.0076923
gutra mother 0.0076923
vo'a mother 0.0076923
krasi mother 0.0076923
cu mother 0.0384615
dIsniland mother 0.0076923
NULL mother 0.0076923
le mother 0.0384615
bangitu'a mother 0.0076923
be mother 0.2692308
mamta mother 0.5769231
loka mother 0.0076923
sarkozis defended 1.0000000
diklo Within 0.5000000
stuna Within 0.5000000
banxe'ebu Hebrew 1.0000000
te secretary 0.1666667
NULL secretary 0.1666667
fi'o secretary 0.0833333
briju secretary 0.1666667
ko'a secretary 0.1666667
ci'arse'u secretary 0.2500000
la Tam 1.0000000
buc W. 0.5000000
ualker W. 0.5000000
balcu'e Plymouth 0.5000000
plimyt Plymouth 0.5000000
zdimi'a him 0.0061728
jungau him 0.0061728
poi him 0.0061728
talsa him 0.0061728
bitygau him 0.0061728
ko'e him 0.0679012
tersa'a him 0.0061728
ko'oi him 0.0061728
ta him 0.0123457
ra him 0.1913580
NULL him 0.0185185
xebni him 0.0061728
ko'a him 0.3086420
rupsra him 0.0061728
tinbe him 0.0061728
selyli'i him 0.0061728
junra him 0.0061728
patpei him 0.0061728
da'apa him 0.0123457
ri him 0.0185185
moltenva'u him 0.0061728
su'oroi him 0.0061728
pambi'o him 0.0061728
bapli him 0.0123457
xobit him 0.0061728
curmi him 0.0185185
le him 0.0432099
zvati him 0.0061728
cpedu him 0.0123457
gungunma him 0.0123457
vo'a him 0.0123457
ty him 0.0061728
zy him 0.0061728
tercarvi him 0.0061728
cabvanci him 0.0061728
jei him 0.0061728
pongu'e him 0.0061728
tefengu him 0.0061728
micyxu'i him 0.0061728
nakni him 0.0679012
bargu him 0.0061728
tolrinsa him 0.0061728
ije'u him 0.0061728
py him 0.0061728
selcelmrogau him 0.0061728
panpi peaceful 1.0000000
jmive biology 0.2500000
saske biology 0.2500000
favmapti biology 0.2500000
ji'esle biology 0.2500000
sance flute 0.2000000
be flute 0.2000000
flani flute 0.6000000
cai have 0.0021598
xankycfu have 0.0021598
jitro have 0.0021598
se'o have 0.0021598
fo have 0.0021598
pyd have 0.0021598
cortu have 0.0107991
noroi have 0.0021598
tivni have 0.0021598
rirni have 0.0021598
kakne have 0.0021598
mi'o have 0.0021598
bilga have 0.0345572
cersai have 0.0021598
tolpo'ugau have 0.0021598
eisai have 0.0021598
zi have 0.0043197
ke have 0.0064795
tunba have 0.0043197
pinxe have 0.0021598
je'u have 0.0086393
terse'u have 0.0021598
su'oroi have 0.0021598
ba'o have 0.0237581
ui have 0.0021598
jicmu have 0.0021598
kafke have 0.0021598
raltefe have 0.0021598
ponse have 0.0323974
da have 0.0280778
nerkla have 0.0021598
ze'u have 0.0064795
pilno have 0.0021598
nabypalne have 0.0021598
cando have 0.0043197
mavji have 0.0021598
badri have 0.0021598
latmo have 0.0043197
pampendo have 0.0021598
kanla have 0.0064795
blacykabri have 0.0021598
jvinu have 0.0021598
tolnurcni have 0.0021598
reroi have 0.0021598
no'e have 0.0021598
na'o have 0.0021598
mulgau have 0.0021598
mintu have 0.0021598
u'e have 0.0021598
pamei have 0.0021598
kapcikna have 0.0021598
o'anai have 0.0021598
punli have 0.0021598
paroi have 0.0021598
iocai have 0.0021598
e'i have 0.0259179
me'au have 0.0021598
ralte have 0.1144708
se have 0.1079914
natfe have 0.0021598
dai have 0.0021598
tcemalcne have 0.0021598
jeftu have 0.0021598
cirko have 0.0043197
makintoc have 0.0043197
tezu'e have 0.0021598
ja'o have 0.0043197
vaxybi'a have 0.0043197
metxani have 0.0021598
puzi have 0.0021598
jinga have 0.0021598
cmene have 0.0043197
dormijysai have 0.0064795
glabi'a have 0.0043197
sidbo have 0.0043197
dalpe'o have 0.0021598
ckafrspreso have 0.0021598
snada have 0.0021598
fonjudri have 0.0021598
besna have 0.0021598
na'e have 0.0021598
selda'i have 0.0021598
iecai have 0.0021598
sajysne have 0.0021598
dukse have 0.0021598
ca'o have 0.0021598
la.kioton have 0.0021598
nabmi have 0.0043197
nitcu have 0.0064795
eipei have 0.0043197
NULL have 0.0907127
pendo have 0.0021598
nunjmaji have 0.0021598
co'i have 0.0064795
da'i have 0.0021598
gusydi'e have 0.0021598
nova'e have 0.0021598
balnema have 0.0021598
mo'icli have 0.0021598
famti have 0.0021598
kerfa have 0.0043197
roi have 0.0064795
nicygau have 0.0021598
bradi have 0.0043197
pu have 0.0043197
zo'ei have 0.0021598
ruble have 0.0021598
reftadni have 0.0021598
xalka have 0.0043197
cumki have 0.0021598
vacysai have 0.0021598
pitsa have 0.0021598
a'enai have 0.0021598
fai have 0.0021598
ei have 0.0604752
jinvi have 0.0064795
ma'a have 0.0021598
to'e have 0.0021598
terzba have 0.0021598
rozgu have 0.0021598
le'ai have 0.0021598
mo'u have 0.0194384
mulno have 0.0021598
puba'o have 0.0021598
la.okinauan have 0.0021598
krokodilo have 0.0021598
proletari have 0.0021598
ze'epu have 0.0021598
spuda have 0.0021598
ckaji have 0.0043197
pinka have 0.0021598
mulci have 0.0021598
titla have 0.0021598
senva have 0.0021598
ju'o have 0.0043197
ditcu have 0.0043197
zutse have 0.0021598
janta have 0.0021598
mango have 0.0021598
e'anmo have 0.0021598
nu'o have 0.0043197
banzu have 0.0043197
za'i have 0.0021598
da'inai have 0.0021598
toltatpi have 0.0021598
taksi have 0.0021598
selcu'u have 0.0021598
claxu have 0.0043197
tcaci have 0.0021598
gletu have 0.0064795
naijgi have 0.0021598
tu'a have 0.0064795
biorka have 0.0021598
xelso have 0.0021598
mi have 0.0043197
klama have 0.0043197
jbira'e have 0.0021598
ctesai have 0.0043197
sai have 0.0021598
jdica have 0.0021598
runtyrango have 0.0021598
ternupcpe have 0.0021598
ijeku'i have 0.0021598
ckiku have 0.0021598
VFD have 0.0021598
retsku have 0.0021598
nazbi have 0.0043197
selpe'o have 0.0064795
nimre Citrus 1.0000000
fi'ortu'a dwell 1.0000000
renro cast 1.0000000
NULL chef 1.0000000
sutra bajra 1.0000000
ticysku liar 0.5000000
ionai liar 0.5000000
strelka arrow 0.5000000
cu arrow 0.5000000
plicme username 1.0000000
cu'upre businessperson 1.0000000
klaku cry 0.6666667
krixa cry 0.0666667
NULL cry 0.0666667
sei cry 0.0666667
djudji cry 0.0666667
mu'i cry 0.0666667
flaume plum 0.8000000
zirsmela plum 0.2000000
ka'e edible 0.1428571
citka edible 0.1428571
po'e edible 0.1428571
NULL edible 0.1428571
le edible 0.1428571
se edible 0.1428571
djaspa edible 0.1428571
turni Ring 1.0000000
be'o inch 0.1111111
ku inch 0.1111111
noi inch 0.1111111
fo inch 0.1111111
gutci inch 0.2222222
ku'o inch 0.1111111
li inch 0.1111111
be inch 0.1111111
tcini station 0.0270270
tcana station 0.5405405
sorprekarcytcana station 0.0270270
trenytcana station 0.0270270
renytcana station 0.3783784
gynus GNU 1.0000000
kamerun Cameroon 1.0000000
iunkoda 01 1.0000000
sairfa'o satsuma 0.5000000
zo'u satsuma 0.5000000
faunai knowing 0.1250000
zy knowing 0.1250000
noi knowing 0.1250000
djuno knowing 0.2500000
te knowing 0.2500000
soi knowing 0.1250000
rocki rocks 0.3333333
NULL rocks 0.3333333
clika rocks 0.3333333
la waves 0.2000000
pe waves 0.2000000
lei waves 0.2000000
boxna waves 0.4000000
sfofa comfort 1.0000000
cifnu sale 1.0000000
py ends 1.0000000
pikci begging 0.5000000
e'ocai begging 0.5000000
bevri receivers 1.0000000
turni manager 0.3333333
jitro manager 0.3333333
jatna manager 0.3333333
troias Trojan 0.2500000
troiaxirmalsamtci Trojan 0.2500000
ija'ebo Trojan 0.2500000
malsamtci Trojan 0.2500000
fangynavni Xenon 1.0000000
ci pm 0.2222222
de'i pm 0.1111111
tcika pm 0.1111111
cy pm 0.2222222
NULL pm 0.1111111
pa pm 0.2222222
seljibri quit 0.0666667
ienai quit 0.0666667
sisti quit 0.0666667
keit quit 0.0666667
pu quit 0.0666667
bavla'ima'i quit 0.0666667
slugu'a quit 0.0666667
damva'u quit 0.0666667
cliva quit 0.1333333
du'e quit 0.0666667
co'u quit 0.2666667
Bruce chasing 1.0000000
jmive forever 0.2000000
zo'e forever 0.2000000
ro forever 0.2000000
ranji forever 0.2000000
roroi forever 0.2000000
nanca Quotes 0.1666667
zo'u Quotes 0.1666667
tersitna Quotes 0.1666667
li Quotes 0.1666667
skina Quotes 0.1666667
panono Quotes 0.1666667
NULL war 0.0625000
nunjamna war 0.1250000
nu war 0.3125000
jamna war 0.5000000
la'orxi'o Catholic 1.0000000
alybamas Alabama 1.0000000
paso quarter 0.4000000
su'i quarter 0.2000000
fi'u quarter 0.2000000
pi'e quarter 0.2000000
gurni Cereal 1.0000000
te press 0.1111111
ko press 0.2222222
danre press 0.1111111
da'ergau press 0.1111111
NULL press 0.1111111
zu'e press 0.1111111
gi press 0.1111111
zulselpevysmacu press 0.1111111
ju'ocu'i Maybe 0.0833333
nakni Maybe 0.0833333
ku Maybe 0.0833333
lo Maybe 0.0833333
cumki Maybe 0.0833333
la'aru'e Maybe 0.0833333
ju'o Maybe 0.0833333
ie.iacu'i Maybe 0.0833333
la'a Maybe 0.1666667
le Maybe 0.0833333
cu'i Maybe 0.0833333
kau conduct 0.2500000
ma conduct 0.2500000
vau conduct 0.2500000
tarti conduct 0.2500000
lakne likelihood 1.0000000
17xyxymoi century 0.2000000
ctona'a century 0.2000000
20xyxymoi century 0.2000000
19xyxymoi century 0.2000000
18xyxymoi century 0.2000000
ke'a examples 0.2500000
mupli examples 0.5000000
be examples 0.2500000
poi streetlight 0.3333333
ta streetlight 0.3333333
lajdictergu'i streetlight 0.3333333
kabri vase 0.3333333
vasru vase 0.3333333
farlygau vase 0.3333333
vifne fresh 0.9230769
norvifne fresh 0.0769231
cu Amsterdam 0.5000000
gugdenulu Amsterdam 0.5000000
cu occupies 1.0000000
poi rubber 0.3333333
bolci rubber 0.3333333
ckabu rubber 0.3333333
jarbu suburbs 1.0000000
fo aimed 0.3333333
le'e aimed 0.1666667
lo'e aimed 0.1666667
karni aimed 0.3333333
nix.grin Miss 0.5000000
la Miss 0.5000000
ui ugh 0.3333333
selplicru ugh 0.3333333
oi ugh 0.3333333
cu stones 0.2857143
rokci stones 0.7142857
se messages 0.4000000
mrilu messages 0.2000000
notci messages 0.4000000
Mathematica.gy Mathematica 0.1000000
zoi Mathematica 0.4000000
Mathematica Mathematica 0.2000000
gy.Principia Mathematica 0.1000000
Principia Mathematica 0.2000000
klesi types 1.0000000
nancyprali annual 1.0000000
ca buys 0.1111111
vecnu buys 0.2222222
arco buys 0.1111111
cu buys 0.1111111
te buys 0.1111111
pa buys 0.2222222
terve'u buys 0.1111111
bargu banished 1.0000000
nanbrxuafla waffle 1.0000000
sidartas.gautamas Gautama 1.0000000
ji'a Even 0.2000000
la Even 0.2000000
rom Even 0.2000000
noi Even 0.2000000
tcadu Even 0.2000000
stodi gloves 0.2000000
fai gloves 0.2000000
gau gloves 0.2000000
gluta gloves 0.2000000
jai gloves 0.2000000
taxfu pack 0.2500000
bakfu pack 0.2500000
bei pack 0.2500000
be pack 0.2500000
i chalk 0.3333333
ki'u chalk 0.1666667
bo chalk 0.1666667
bakri chalk 0.3333333
VFD seen 0.0526316
penmi seen 0.0526316
lifri seen 0.0526316
zgana seen 0.1578947
NULL seen 0.0526316
viska seen 0.6315789
lujvo Compound 1.0000000
sufti hoofs 1.0000000
nobli lord 1.0000000
ji'i intensity 0.3333333
delno intensity 0.3333333
li intensity 0.3333333
ba'a Ha-ha-ha 0.2500000
nai Ha-ha-ha 0.2500000
be'u Ha-ha-ha 0.2500000
u'i Ha-ha-ha 0.2500000
lamji ankles 0.2500000
tornozelo ankles 0.2500000
ra ankles 0.2500000
be ankles 0.2500000
banzu somehow 0.5000000
clira somehow 0.5000000
nai owed 0.3333333
ponse owed 0.3333333
je'u owed 0.3333333
ctrant well-known 0.5000000
javni well-known 0.5000000
de'u German 0.0384615
bandu'e'u German 0.1153846
dotco German 0.2692308
la German 0.0384615
doitc German 0.0384615
dotybau German 0.4230769
fanva German 0.0384615
bangu German 0.0384615
pluka pleases 0.6250000
di'u pleases 0.1250000
cu pleases 0.2500000
catlu opposite 0.2000000
ka opposite 0.2000000
dukti opposite 0.2000000
lenu opposite 0.2000000
crane opposite 0.2000000
poi city 0.0161290
noi city 0.0161290
jarbu city 0.0161290
tcadu city 0.9354839
amsterdam city 0.0161290
u'i Ha-ha 1.0000000
pofygau broke 0.0833333
jai broke 0.0416667
zunti broke 0.0833333
cu broke 0.1666667
pu broke 0.2500000
porpi broke 0.2916667
gau broke 0.0416667
pofybi'o broke 0.0416667
mo'u promoted 0.3333333
palbi'o promoted 0.3333333
ki'u promoted 0.3333333
xi other 0.0222222
frica other 0.0111111
simxu other 0.1333333
simsysi'u other 0.0333333
NULL other 0.0666667
xekri other 0.0222222
ka other 0.0666667
tavysi'u other 0.0111111
tolzdisi'u other 0.0222222
bilga other 0.0111111
su'ai other 0.0111111
lo'i other 0.0111111
se other 0.0111111
simpengau other 0.0111111
zu'u other 0.0333333
drata other 0.1777778
pamsi'u other 0.0222222
jivna other 0.0111111
re other 0.0222222
sarxe other 0.0111111
ficysi'u other 0.0111111
za other 0.0111111
vei other 0.0111111
cmana other 0.0111111
bei other 0.0111111
na'e other 0.0111111
va'i other 0.1111111
e other 0.0111111
zu'ai other 0.0555556
pa other 0.0111111
kruca other 0.0111111
titla other 0.0111111
brunete blondes 0.5000000
ku blondes 0.5000000
rigni disgusting 0.7500000
a'unaicai disgusting 0.2500000
xendo welcomed 0.5000000
rinsa welcomed 0.5000000
spofu shutter 1.0000000
lo Females 0.5000000
fetsi Females 0.5000000
vacysai Dinner 0.5000000
lo Dinner 0.5000000
vi jacket 0.2000000
kosta jacket 0.8000000
sevzi self 1.0000000
pe movement 0.3333333
tunlo movement 0.3333333
NULL movement 0.3333333
kakne unable 0.3333333
profesoro unable 0.3333333
na unable 0.3333333
se behind 0.2105263
fesli'a behind 0.1578947
ti'a behind 0.2631579
trixygau behind 0.0526316
trixe behind 0.2105263
fi behind 0.0526316
gasnu behind 0.0526316
sorgu'etru plans 1.0000000
lo'e Bread 0.0666667
nanba Bread 0.5333333
la Bread 0.0666667
lo Bread 0.3333333
nalterlejgu'a volunteer 1.0000000
xa zeptomole 1.0000000
ka imply 0.5000000
nibli imply 0.5000000
jbesla bу 0.5000000
se bу 0.2500000
zi bу 0.2500000
tcadu Kiev 0.1250000
jecta Kiev 0.1250000
ralju Kiev 0.1250000
lo'i Kiev 0.1250000
la Kiev 0.1250000
fi Kiev 0.1250000
be Kiev 0.1250000
ukra'inas Kiev 0.1250000
lo Humans 1.0000000
kelvo 273 1.0000000
zoi привет 0.2500000
bangu привет 0.2500000
ry.привет.ry привет 0.2500000
se привет 0.2500000
va'e rather 0.0833333
ba'i rather 0.1666667
rau rather 0.0833333
e'anmo rather 0.0833333
NULL rather 0.1666667
mligla rather 0.0833333
se rather 0.1666667
stali rather 0.0833333
cfipu rather 0.0833333
le Yesterday 0.0555556
prulamdei Yesterday 0.7222222
mo'u Yesterday 0.0555556
purlamdei Yesterday 0.0555556
ca Yesterday 0.1111111
dapma cursed 1.0000000
karibes Caribbean 0.5000000
zei Caribbean 0.5000000
kajde warn 0.5000000
jai warn 0.5000000
pikta certificates 0.5000000
cteki certificates 0.5000000
nikolaus.lobatceskis Nikolai 1.0000000
xaksu spend 0.3333333
ai spend 0.6666667
sarcu available 0.3333333
selcru available 0.3333333
cabra available 0.3333333
catra murderer 0.4000000
makau murderer 0.2000000
jetyja'o murderer 0.2000000
du'u murderer 0.2000000
nu glad 0.3181818
ui glad 0.3181818
gleki glad 0.3636364
cancmu Silicon 1.0000000
gasnu organizing 1.0000000
sen.micel St. 1.0000000
du'e heavy 0.0769231
tcima heavy 0.0769231
li heavy 0.0769231
tilju heavy 0.6923077
denmi heavy 0.0769231
terdi Earth 0.7826087
tedyske Earth 0.0434783
la Earth 0.1304348
le Earth 0.0434783
danlu veterinarian 1.0000000
cu fascinated 0.5000000
cinri fascinated 0.5000000
NULL retains 1.0000000
poi honest 0.0526316
jetnu honest 0.0526316
ckaji honest 0.0526316
da'i honest 0.0526316
ku honest 0.0526316
na honest 0.0526316
roda honest 0.0526316
ka honest 0.1052632
iasai honest 0.0526316
stace honest 0.4736842
gau leader 0.1666667
do leader 0.1666667
bende leader 0.1666667
bedja'a leader 0.3333333
ralju leader 0.1666667
se heavier 0.1250000
tilju heavier 0.5000000
zenba heavier 0.1250000
ne heavier 0.1250000
ka heavier 0.1250000
kokakolas Coke 0.1000000
me Coke 0.2000000
gy.Coke.gy Coke 0.1000000
loi Coke 0.2000000
la'o Coke 0.1000000
la Coke 0.1000000
Coke Coke 0.1000000
la'oi Coke 0.1000000
babo Judith 0.3333333
la Judith 0.3333333
djudyt Judith 0.3333333
la'aru'e intense 0.1428571
mutce intense 0.1428571
jelca intense 0.1428571
ke intense 0.1428571
carmi intense 0.2857143
denmi intense 0.1428571
ka micrometers 0.5000000
mikri micrometers 0.5000000
ro warnings 0.5000000
jdenoi warnings 0.5000000
la boulevard 1.0000000
pu camped 0.3333333
ginka camped 0.3333333
se camped 0.3333333
denmi dense 1.0000000
xance hands 0.6315789
be hands 0.2631579
lei hands 0.0526316
xanjairinsa hands 0.0526316
soliaris Solaris 0.2500000
cuktrnovela Solaris 0.2500000
to Solaris 0.2500000
toi Solaris 0.2500000
catni priest 0.5000000
jdaca'i priest 0.5000000
re 123 0.2500000
pa 123 0.2500000
ci 123 0.2500000
me'o 123 0.2500000
pendo pals 0.5000000
si'au pals 0.5000000
prenu Allegedly 0.2500000
ia Allegedly 0.2500000
cu'i Allegedly 0.2500000
le Allegedly 0.2500000
krixa screaming 1.0000000
sei flippers 1.0000000
e'u Find 0.3333333
ko Find 0.3333333
bo Find 0.3333333
demtse figure 0.2500000
poi figure 0.2500000
djuno figure 0.2500000
jimpe figure 0.2500000
le pencils 0.1428571
flora pencils 0.1428571
purdi pencils 0.1428571
pinsi pencils 0.1428571
zvati pencils 0.1428571
bi pencils 0.1428571
ca pencils 0.1428571
vreji should 0.0119048
javni should 0.0119048
cu should 0.0238095
bilga should 0.0238095
dai should 0.0119048
e'unai should 0.0119048
fa should 0.0119048
terbi'e should 0.0119048
za'u should 0.0119048
eidai should 0.0119048
stidi should 0.0119048
selxau should 0.0119048
ly should 0.0119048
barkla should 0.0119048
jdikygau should 0.0119048
NULL should 0.0952381
tolpli should 0.0119048
ei should 0.4880952
kaurselju'o should 0.0119048
la.tatoebas should 0.0119048
flalu should 0.0119048
ju'a should 0.0119048
ue should 0.0119048
madystace should 0.0119048
a'i should 0.0119048
nu should 0.0238095
ga'orgau should 0.0119048
le'ai should 0.0119048
gidva should 0.0119048
e'u should 0.0476190
klama should 0.0119048
Eimis Eimi 0.3333333
la Eimi 0.3333333
doi Eimi 0.3333333
jaurvasmro drowned 1.0000000
pu bought 0.2736842
xau bought 0.0105263
NULL bought 0.0315789
terve'u bought 0.0842105
selve'u bought 0.0105263
te bought 0.2842105
metu bought 0.0105263
nilnalci'o bought 0.0105263
vecnu bought 0.2842105
senva sweat 0.2500000
li'i sweat 0.2500000
xasne sweat 0.5000000
von von 0.5000000
klausevits von 0.5000000
fi'a giver 1.0000000
la Sweden 0.1818182
le Sweden 0.2727273
sueriges Sweden 0.0909091
sfero Sweden 0.2727273
sferies Sweden 0.1818182
se legs 0.2173913
tuple legs 0.4782609
da legs 0.2173913
ka legs 0.0434783
clani legs 0.0434783
ie ’ 0.0666667
ba ’ 0.0666667
e'enai ’ 0.0666667
djonz ’ 0.0666667
pelmeni ’ 0.0666667
natmrxanguke ’ 0.0666667
na’e ’ 0.0666667
lifri ’ 0.1333333
djan ’ 0.0666667
cu ’ 0.0666667
NULL ’ 0.2000000
bangepu'o ’ 0.0666667
rigni obnoxious 1.0000000
lo Bananas 0.5000000
badna Bananas 0.5000000
nu joy 0.2000000
mu'i joy 0.2000000
cnidu'e joy 0.2000000
gleki joy 0.2000000
plipe joy 0.2000000
jikca social 1.0000000
jinmrdubni Dubnium 1.0000000
so Shops 1.0000000
kansa &apos;ll 0.0063694
xelklasabji &apos;ll 0.0063694
ba &apos;ll 0.5350318
ginai &apos;ll 0.0063694
a'ocai &apos;ll 0.0063694
selsaubi'o &apos;ll 0.0063694
bazi &apos;ll 0.0063694
rupne'uru &apos;ll 0.0127389
NULL &apos;ll 0.0955414
selzda &apos;ll 0.0063694
cinbi'abi'o &apos;ll 0.0063694
drata &apos;ll 0.0063694
lebna &apos;ll 0.0063694
ai.e'e &apos;ll 0.0063694
reftadni &apos;ll 0.0063694
snime &apos;ll 0.0063694
ai &apos;ll 0.0063694
mi'o &apos;ll 0.0254777
kalvi'u &apos;ll 0.0063694
e'e &apos;ll 0.0254777
pugi &apos;ll 0.0063694
nupre &apos;ll 0.0063694
xrani &apos;ll 0.0063694
sidju &apos;ll 0.0127389
klama &apos;ll 0.0063694
bazisai &apos;ll 0.0063694
o'e &apos;ll 0.0127389
kei &apos;ll 0.0063694
do'a &apos;ll 0.0063694
troci &apos;ll 0.0127389
diklo &apos;ll 0.0063694
bevbe'i &apos;ll 0.0063694
denpa &apos;ll 0.0318471
cikybi'o &apos;ll 0.0063694
te &apos;ll 0.0127389
va'u &apos;ll 0.0063694
klacpe &apos;ll 0.0063694
volve &apos;ll 0.0063694
mulgau &apos;ll 0.0063694
soi &apos;ll 0.0063694
cadzu &apos;ll 0.0063694
do &apos;ll 0.0063694
renvi &apos;ll 0.0063694
dunda &apos;ll 0.0127389
lumci Wash 0.5000000
ko Wash 0.5000000
tatoebas Tatoeba 0.0750000
mupli Tatoeba 0.0250000
tato'ebas Tatoeba 0.1000000
la'o Tatoeba 0.0500000
py.Tatoeba.py Tatoeba 0.0250000
la.tatoebas Tatoeba 0.2000000
zoi Tatoeba 0.0750000
la Tatoeba 0.2000000
zo.tatoebas Tatoeba 0.0250000
la'oi Tatoeba 0.0250000
tato,ebas Tatoeba 0.0500000
Tatoeba Tatoeba 0.1000000
gy.Tatoeba.gy Tatoeba 0.0500000
ki away 0.0444444
zifsnada away 0.0222222
ka'a away 0.0222222
fi'i away 0.0222222
fo away 0.0222222
fi away 0.0222222
vau away 0.0222222
NULL away 0.0666667
snucanci away 0.0222222
to'e away 0.0222222
litru away 0.0444444
bartu away 0.0222222
ru away 0.0222222
vu away 0.0666667
jetfu away 0.0222222
lutnilcla away 0.0222222
ve'u away 0.0222222
ma'urcu'e away 0.0222222
cliva away 0.0222222
zo'u away 0.0222222
to'o away 0.1111111
zicai away 0.0222222
zvati away 0.0444444
ze'uvu away 0.0222222
i'i away 0.0222222
nalzvati away 0.0222222
darno away 0.1111111
ri away 0.0222222
mi'ai away 0.0222222
vimcu away 0.0222222
finti create 1.0000000
drani time 0.0149254
le time 0.0522388
se time 0.0820896
nagoi,ias time 0.0074627
krefu time 0.0149254
jetsku time 0.0149254
vacysai time 0.0074627
zukte time 0.0074627
cabna time 0.0074627
nunpe'i time 0.0074627
drata time 0.0074627
lanxe time 0.0074627
gugde'itu time 0.0074627
ra time 0.0074627
NULL time 0.1343284
paroi time 0.0074627
trene time 0.0149254
re'u time 0.0074627
klaku time 0.0074627
vi'e time 0.0074627
morji time 0.0074627
draci time 0.0074627
ku time 0.0074627
ze'i time 0.0074627
ru'i time 0.0074627
loka time 0.0074627
ve'e time 0.0074627
tcika time 0.0970149
ditcu time 0.0074627
zu time 0.0074627
platu time 0.0074627
islant time 0.0074627
tigni time 0.0074627
klark time 0.0074627
i time 0.0074627
temci time 0.0895522
ze'u time 0.0522388
ca time 0.1268657
seti'u time 0.0074627
cando time 0.0149254
nu time 0.0298507
ti'u time 0.0149254
klama time 0.0074627
dormijysai time 0.0074627
tu'u time 0.0074627
[pu time 0.0074627
clira time 0.0074627
ba turns 0.1666667
xamgu turns 0.1666667
me turns 0.1666667
latna turns 0.1666667
a'ucu'i turns 0.1666667
cu turns 0.1666667
NULL 6 0.1111111
i 6 0.2222222
xa 6 0.6666667
da possibilities 0.2222222
cuxna possibilities 0.2222222
te possibilities 0.2222222
fi possibilities 0.1111111
ci'i possibilities 0.2222222
gusni shiny 0.3333333
minra shiny 0.3333333
co'a shiny 0.3333333
temsas River 0.1428571
ob River 0.1428571
rirxe River 0.5714286
amazonas River 0.1428571
rafsi verb 0.0909091
selbri verb 0.0909091
cau verb 0.0909091
bridi verb 0.1818182
tanru verb 0.0909091
vau verb 0.0909091
gismu verb 0.0909091
NULL verb 0.1818182
fasnyvla verb 0.0909091
co'i Amazingly 1.0000000
dunda insisting 0.3333333
e'a insisting 0.3333333
te insisting 0.3333333
mu Five 0.4285714
li Five 0.1428571
se Five 0.1428571
likydekpu Five 0.1428571
lo Five 0.1428571
i'i Come 0.0256410
NULL Come 0.0256410
tezu'e Come 0.0256410
lonu Come 0.0256410
mi'o Come 0.0256410
do Come 0.0256410
xrukla Come 0.0256410
ko Come 0.4615385
a'ei Come 0.0256410
clira Come 0.0256410
klama Come 0.2564103
e'u Come 0.0256410
moi'o Come 0.0256410
da'ai diet 0.1666667
te diet 0.3333333
i diet 0.1666667
ctipla diet 0.3333333
cpacu responsibility 0.0588235
mutce responsibility 0.2941176
kamfu'e responsibility 0.1176471
binxo responsibility 0.1176471
selfuzme responsibility 0.1764706
te responsibility 0.1176471
ja'e responsibility 0.0588235
kansa responsibility 0.0588235
dinvau supermarket 1.0000000
fanva translated 0.1250000
gy.hello!.gy translated 0.1250000
traduki translated 0.2500000
pu translated 0.2500000
zoi translated 0.1250000
turnianskis translated 0.1250000
re half 0.3750000
xadba half 0.1250000
jai half 0.0625000
NULL half 0.1250000
fe'i half 0.1250000
pa half 0.0625000
pimu half 0.0625000
fe'ireva'e half 0.0625000
la.linuks Linux 0.5000000
linuks Linux 0.5000000
fi vice 0.2500000
simxu vice 0.2500000
vipsi vice 0.2500000
fe vice 0.2500000
cu arriving 0.1250000
zvati arriving 0.1250000
tolyli'a arriving 0.1250000
makau arriving 0.1250000
noda arriving 0.1250000
ti'u arriving 0.1250000
nu arriving 0.1250000
cusku arriving 0.1250000
tanzva sky 0.0263158
tsani sky 0.9736842
ve'o x 0.2727273
pi'i x 0.1818182
(x+15 x 0.0909091
pilji x 0.0909091
NULL x 0.2727273
su'i x 0.0909091
krasi origin 1.0000000
barna stain 0.5000000
fai stain 0.5000000
vitke see 0.0137931
NULL see 0.0551724
xi see 0.0068966
porsi see 0.0068966
fange see 0.0068966
za'a see 0.0206897
penmi see 0.0758621
nalviska see 0.0068966
sol see 0.0068966
mikce see 0.0206897
ganse see 0.0068966
co see 0.0068966
zgana see 0.0413793
meris see 0.0068966
li'anai see 0.0068966
jikca see 0.0068966
narviska'e see 0.0068966
je'e see 0.0068966
lanli see 0.0068966
visysanji see 0.0068966
kindi'u see 0.0137931
ningau see 0.0068966
pendji see 0.0068966
viska see 0.6344828
se'ixru see 0.0068966
rapli see 0.0068966
kelvo degrees 0.3333333
re degrees 0.0833333
kelvrfarenxaito degrees 0.0833333
ji'i degrees 0.0833333
jacke'o degrees 0.1666667
li degrees 0.2500000
certu multitasking 0.3333333
sorzu'e multitasking 0.3333333
nu multitasking 0.3333333
petso Petameters 1.0000000
claxu lacked 0.3333333
cu lacked 0.3333333
pu lacked 0.3333333
salvador.dalis Salvador 0.5000000
salbador Salvador 0.5000000
nalterlejgu'a Others 0.5000000
lo Others 0.5000000
djica desire 0.4285714
fagri desire 0.1428571
truci'e desire 0.1428571
panpi desire 0.1428571
ka desire 0.1428571
jdika approaches 1.0000000
spenu'e engagement 1.0000000
nai worthless 0.3333333
sai worthless 0.3333333
ga'i worthless 0.3333333
makcu grow 0.4285714
na grow 0.1428571
banro grow 0.2857143
ka grow 0.1428571
za'u searching 0.1250000
tu'a searching 0.2500000
sisku searching 0.5000000
mitysisku searching 0.1250000
za'u Agreements 0.3333333
tolfapro Agreements 0.3333333
te Agreements 0.3333333
munje Universe 0.6666667
tolcmu Universe 0.3333333
jalgau alcohol 0.2500000
xalka alcohol 0.7500000
pabi 18th 0.4000000
17xyxymoi 18th 0.2000000
li 18th 0.2000000
i 18th 0.2000000
karli bestows 0.5000000
rinka bestows 0.5000000
befsri buckle 0.5000000
stela buckle 0.5000000
te supposed 0.0769231
tolckape supposed 0.0769231
curmi supposed 0.0769231
se supposed 0.0769231
fai supposed 0.1538462
bilga supposed 0.2307692
sruma supposed 0.0769231
jai supposed 0.1538462
kanpe supposed 0.0769231
selfla law 0.0909091
fi law 0.0909091
zekri law 0.0909091
flalu law 0.7272727
la'o Noelia 0.5000000
gy.Noelia.gy Noelia 0.5000000
NULL &apos;e 0.5000000
i'e &apos;e 0.1250000
lidne &apos;e 0.1250000
se &apos;e 0.2500000
se mended 0.2500000
creka mended 0.2500000
cu mended 0.2500000
cikre mended 0.2500000
kevna small 0.0816327
NULL small 0.0612245
ve'i small 0.0408163
cmalu small 0.8163265
sarji supports 1.0000000
itiopias Ethiopia 1.0000000
pi'i Six 0.3333333
xa Six 0.3333333
li Six 0.3333333
ferti fertile 0.7500000
ka fertile 0.2500000
jaugacbloti steamboat 1.0000000
kulcitsi semester 1.0000000
lei planes 0.5000000
voikla planes 0.5000000
rirni warned 0.2500000
kajde warned 0.5000000
pu warned 0.2500000
a'e going 0.0287356
baze'e going 0.0057471
cliva going 0.0057471
stali going 0.0057471
ai going 0.1264368
ke'a going 0.0057471
farlu going 0.0057471
mumdei going 0.0057471
lecydo'i going 0.0114943
co'a going 0.0114943
vamtu going 0.0114943
xlabi'o going 0.0057471
si'erskiji going 0.0057471
ge'orge going 0.0057471
NULL going 0.0747126
cai going 0.0057471
ba'a going 0.0114943
ui.uenai going 0.0057471
go'a going 0.0114943
bazi going 0.0057471
salci going 0.0057471
ba going 0.1551724
ba'i going 0.0057471
termu'i going 0.0229885
ckakla going 0.0114943
cadzu going 0.0057471
fasnu going 0.0057471
te going 0.0287356
xrukla going 0.0057471
mukti going 0.0287356
platu going 0.0057471
ca'o going 0.0229885
fenki going 0.0057471
surla going 0.0057471
nerkla going 0.0114943
co'e going 0.0114943
madrid going 0.0057471
ca going 0.0057471
ainai going 0.0057471
sipybi'o going 0.0057471
bu'o going 0.0057471
aidji going 0.0114943
klama going 0.2356322
ckana going 0.0172414
pu'o going 0.0114943
mi'e Nancy 0.1111111
makau Nancy 0.1111111
nansin Nancy 0.1111111
nansis Nancy 0.3333333
la Nancy 0.3333333
notci note 0.3333333
ra note 0.3333333
za'u note 0.3333333
selba'e Fred 0.1666667
la Fred 0.5000000
Fred Fred 0.3333333
xasyjukni crab 1.0000000
djeims James 0.2000000
zo James 0.2000000
djeimyz James 0.4000000
djeims.kuk.braun James 0.2000000
u'usai offended 0.3333333
xrani offended 0.3333333
cinmo offended 0.3333333
speni relationship 0.2500000
te relationship 0.2500000
ckini relationship 0.2500000
ka relationship 0.2500000
ranmi mythical 1.0000000
Minh Minh 1.0000000
vijytcana airport 0.7142857
vinji airport 0.1428571
tcana airport 0.1428571
stuna west 0.2500000
stici west 0.7500000
lo Time 0.3750000
ditcu Time 0.1250000
vacycti Time 0.1250000
jai Time 0.1250000
temci Time 0.2500000
cnebo necks 0.5000000
be necks 0.5000000
lacpu upstairs 0.5000000
re'o upstairs 0.5000000
curmi tolerate 0.5000000
ka'e tolerate 0.5000000
sutra fast-talker 0.5000000
tavla fast-talker 0.5000000
braun Brown 0.1666667
djeims.kuk.braun Brown 0.1666667
selponse Brown 0.1666667
la Brown 0.1666667
la.braun Brown 0.1666667
ra Brown 0.1666667
arseniko Arsenic 1.0000000
xu Celsius 0.1666667
jacke'o Celsius 0.3333333
no Celsius 0.1666667
kelvo Celsius 0.3333333
sa'u Well 0.1111111
i'e Well 0.1111111
ni'o Well 0.1111111
i'a Well 0.1111111
ue Well 0.1111111
ge'e Well 0.2222222
cu'i Well 0.1111111
NULL Well 0.1111111
kijytcini Oxidation 1.0000000
rikteropu Aardvark 1.0000000
prosa counts 0.3333333
ko'a counts 0.3333333
le'i counts 0.3333333
jinmrplutoni Plutonium 1.0000000
jai probably 0.0303030
NULL probably 0.0303030
cu probably 0.1515152
fa probably 0.0606061
la'a probably 0.4242424
nu probably 0.0909091
plise probably 0.0303030
lakne probably 0.1818182
mrori'i was 0.0016694
kai was 0.0016694
ijanai was 0.0016694
cpana was 0.0016694
cusku) was 0.0016694
prulamcte was 0.0016694
sanmi was 0.0033389
djaks,n was 0.0016694
virnu was 0.0050083
oipei was 0.0016694
cikna was 0.0033389
djedi was 0.0016694
smacu was 0.0016694
ze'e was 0.0033389
moltenva'u was 0.0016694
zeno was 0.0016694
tolji'a was 0.0016694
zerlebna was 0.0016694
ca was 0.0016694
sanji was 0.0016694
celxa'igau was 0.0016694
fagri was 0.0033389
jitfa was 0.0016694
mucibi was 0.0016694
mulis was 0.0016694
fipkalte was 0.0016694
vo'a was 0.0016694
puzavi was 0.0016694
gekygau was 0.0016694
pi'e was 0.0016694
cu was 0.0918197
jemna was 0.0016694
pemci'a was 0.0016694
carvi was 0.0016694
namsnada was 0.0016694
cinjikca was 0.0016694
milxe was 0.0016694
pinta was 0.0016694
NULL was 0.0617696
mokau was 0.0016694
jgira was 0.0016694
ru'e was 0.0050083
sokrates was 0.0016694
bilma was 0.0016694
la.tonis was 0.0016694
terpa was 0.0033389
nalprali was 0.0016694
pu was 0.5258765
mairas was 0.0016694
manku was 0.0050083
profesoro was 0.0016694
sfasa was 0.0016694
nunbebna was 0.0016694
ja'a was 0.0050083
xalbebna was 0.0033389
frili was 0.0033389
bazigi was 0.0016694
so was 0.0016694
uo was 0.0016694
romeon was 0.0016694
rob was 0.0016694
kain was 0.0033389
tcebilma was 0.0016694
zerfuzyxu'a was 0.0016694
cuntu was 0.0016694
lerci was 0.0083472
pu'i was 0.0033389
zernalfu'e was 0.0016694
lenku was 0.0033389
ricfu was 0.0016694
selba'e was 0.0016694
flecu was 0.0016694
selcri was 0.0016694
o'u was 0.0016694
lakne was 0.0016694
narselrirni was 0.0016694
xrani was 0.0016694
se was 0.0267112
tatoebas was 0.0016694
randa was 0.0016694
du'u was 0.0033389
jbena was 0.0100167
co'a was 0.0033389
jmive was 0.0016694
nandu was 0.0016694
selxarkei was 0.0016694
pirlarfi'i was 0.0016694
nu was 0.0016694
Bear was 0.0016694
litru was 0.0016694
jibmatygau was 0.0016694
mledi was 0.0016694
mamta was 0.0016694
funca was 0.0016694
tolxajmi was 0.0016694
fudzi was 0.0016694
tcegei was 0.0016694
fu'i was 0.0016694
ca'o was 0.0066778
puku was 0.0016694
xanka was 0.0016694
alfred was 0.0016694
sipna was 0.0033389
nilnalci'o was 0.0016694
ma'urcu'e was 0.0016694
ganlo was 0.0016694
drani was 0.0050083
xarnu was 0.0016694
zvati was 0.0133556
baze'e was 0.0016694
makfa was 0.0016694
zo'u was 0.0033389
jundi was 0.0033389
nunpe'i was 0.0016694
cnijicla was 0.0016694
sepo'i was 0.0016694
pifygau was 0.0016694
puki was 0.0016694
za'ubi was 0.0016694
verba was 0.0033389
kacmyterxra was 0.0016694
pindi was 0.0033389
klamu'o was 0.0016694
cidjrsuci was 0.0016694
nalje'u was 0.0016694
nanla was 0.0016694
xrvatsk was 0.0016694
boltipyjvi was 0.0016694
slugu'a was 0.0016694
losedu'u was 0.0066778
pruxa'u was 0.0016694
fraxu mercies 1.0000000
cirvai historic 1.0000000
noi Elizabeth 0.3333333
vo'a Elizabeth 0.3333333
la.yLIzabet Elizabeth 0.3333333
kumfa bathroom 0.2727273
lumku'a bathroom 0.0909091
djacu bathroom 0.1818182
vimku'a bathroom 0.1818182
stuzi bathroom 0.1818182
lumci bathroom 0.0909091
pe solar 0.3333333
tarci'e solar 0.3333333
la solar 0.3333333
be theory 0.1818182
sidbo theory 0.1818182
fi theory 0.3636364
ra theory 0.1818182
nacycmaci theory 0.0909091
pensi reflect 1.0000000
uindoz.metalaif vulnerability 0.5000000
la vulnerability 0.5000000
bisli frost 0.5000000
lunsa frost 0.2500000
bislunsa frost 0.2500000
bajra runner 1.0000000
se loves 0.1111111
nelci loves 0.0740741
veronik loves 0.0370370
prami loves 0.6296296
je loves 0.0370370
cu loves 0.0370370
rode loves 0.0370370
mutce loves 0.0370370
pilno bacteria 1.0000000
ze'a spending 1.0000000
pu drank 0.2857143
pinxe drank 0.6428571
nakni drank 0.0357143
xalpinxe drank 0.0357143
to'o runs 0.0526316
ne'i runs 0.0526316
traji runs 0.1052632
bajra runs 0.2631579
fo runs 0.1052632
kei runs 0.1052632
lu'i runs 0.0526316
glazenca'a runs 0.0526316
sutra runs 0.1052632
ka runs 0.1052632
tergu'i lamp 0.5000000
gi'e lamp 0.5000000
barjyse'u Bartender 0.5000000
doi Bartender 0.5000000
ze timezone 1.0000000
pensi mind 0.0454545
ko mind 0.0454545
po'o mind 0.0454545
stace mind 0.0454545
se mind 0.0909091
be mind 0.0454545
si'u mind 0.0454545
cordri mind 0.0454545
ku mind 0.0454545
jdica mind 0.0454545
xankycfu mind 0.0454545
naku mind 0.0454545
jinvi mind 0.0454545
oipeida'i mind 0.0454545
pante mind 0.0454545
menli mind 0.2272727
preti mind 0.0454545
bramlatu Big 0.2500000
barda Big 0.5000000
la Big 0.2500000
vitke guest 1.0000000
gunka overworked 0.2500000
dusygu'a overworked 0.5000000
ka overworked 0.2500000
fi threaten 0.5000000
capti'i threaten 0.5000000
cnemu kindness 1.0000000
nilyla'e probability 0.3750000
piso'u probability 0.2500000
li probability 0.3750000
i'a solution 0.3333333
danfu solution 0.6666667
lo Bronze 0.3333333
ransu Bronze 0.6666667
NULL influential 1.0000000
budjo Buddhist 1.0000000
se.unai matter 0.0588235
nalvai matter 0.0588235
tcini matter 0.0588235
NULL matter 0.1176471
da'inai matter 0.0588235
preti matter 0.0588235
fa matter 0.0588235
na.u matter 0.0588235
vajni matter 0.1176471
nalvajni matter 0.0588235
za'i matter 0.0588235
u matter 0.0588235
bi'unai matter 0.0588235
ctununta'a matter 0.0588235
se.u matter 0.0588235
poi liter 0.1666667
litce liter 0.5000000
ve'u liter 0.1666667
pa liter 0.1666667
cenba transformed 1.0000000
lo Portugal 0.3333333
potygu'e Portugal 0.6666667
mamnunsla Day 0.5000000
coi Day 0.5000000
clika moss 1.0000000
pavyseljirna unicorns 1.0000000
kosmycau vanities 1.0000000
se radio 0.1666667
vi radio 0.1666667
cradi radio 0.6666667
bo roast 0.3333333
seljukpa roast 0.3333333
toknu roast 0.3333333
kobli cabbage 1.0000000
amazonas Amazon 0.5000000
zei Amazon 0.5000000
loi blow 0.5000000
fagystigau blow 0.5000000
tasta taste 0.3333333
NULL taste 0.0555556
be taste 0.0555556
se taste 0.0555556
kukte taste 0.0555556
py taste 0.0555556
ficysi'u taste 0.0555556
vrusi taste 0.1666667
smaka taste 0.1111111
ctebi taste 0.0555556
te thy 0.1428571
e thy 0.1428571
tarti thy 0.2857143
poi thy 0.2857143
de thy 0.1428571
se circumference 0.3333333
cukla circumference 0.3333333
mitre circumference 0.3333333
NULL repeat 0.0769231
jai repeat 0.0769231
re'u repeat 0.1538462
za'u repeat 0.1538462
fai repeat 0.0769231
rapli repeat 0.0769231
reftadni repeat 0.0769231
ke'u repeat 0.0769231
e'unaire'e repeat 0.0769231
cusku repeat 0.1538462
NULL authority 0.2000000
catni authority 0.2000000
co'a authority 0.2000000
mi authority 0.2000000
ca'i authority 0.2000000
mongolo Mongolia 1.0000000
ginske Genetics 1.0000000
fadni am 0.0039683
kanro am 0.0039683
uinai am 0.0079365
prityxanpre am 0.0039683
drani am 0.0039683
du'i am 0.0119048
zvati am 0.0158730
zifre'a am 0.0039683
dunli am 0.0079365
lecydo'i am 0.0039683
snanu am 0.0039683
lardai am 0.0039683
xanka am 0.0079365
birti am 0.0119048
ckire am 0.0039683
pluka am 0.0079365
tadni am 0.0079365
zasti am 0.0079365
bazi am 0.0039683
taske am 0.0158730
traji am 0.0039683
18 am 0.0079365
bredi am 0.0198413
krevi'u am 0.0039683
mutce am 0.0238095
renvi am 0.0039683
pabi am 0.0039683
mo am 0.0079365
seja'e am 0.0039683
pasobire am 0.0039683
ui am 0.0119048
iku'i am 0.0039683
seki'i am 0.0039683
zifre am 0.0079365
doi am 0.0039683
ca'a am 0.0039683
ai am 0.0158730
se am 0.0238095
cfipu am 0.0039683
jibni am 0.0039683
prenu am 0.0039683
o'unai.ui am 0.0039683
go'i am 0.0039683
sanli am 0.0039683
lin am 0.0039683
ma am 0.0039683
fi am 0.0039683
tolxagji am 0.0039683
mi'e am 0.0039683
kansa am 0.0039683
banli am 0.0039683
e'a am 0.0039683
kucli am 0.0079365
nalre'ucti am 0.0039683
nobli am 0.0039683
stici am 0.0039683
ca'o am 0.0436508
denpa am 0.0039683
tcaudjo'us am 0.0039683
merko am 0.0079365
gleki am 0.0238095
cinri am 0.0119048
loni am 0.0039683
stagycti am 0.0039683
u'ucai am 0.0039683
cliva am 0.0039683
dejni am 0.0079365
ze'oi am 0.0039683
dikni am 0.0039683
bilma am 0.0079365
jgira am 0.0079365
mokau am 0.0039683
NULL am 0.1150794
adam am 0.0039683
bai am 0.0039683
spesti am 0.0039683
tolcando am 0.0079365
jinsa am 0.0039683
ninmu am 0.0039683
laryrakpra am 0.0039683
sisku am 0.0039683
fanvypre am 0.0039683
paris am 0.0039683
lenku am 0.0039683
srera am 0.0079365
mukti am 0.0079365
lazni am 0.0039683
ju'o am 0.0039683
te am 0.0039683
farcri am 0.0039683
ji'ini'u am 0.0039683
lobypli am 0.0039683
no'oi am 0.0039683
melbi am 0.0039683
entuzi am 0.0039683
xy am 0.0079365
aidji am 0.0039683
xriso am 0.0079365
sralytu'a am 0.0039683
la.aksfrd am 0.0039683
mo'u am 0.0039683
mei am 0.0039683
zo'onai am 0.0039683
kanadas am 0.0039683
luk am 0.0039683
nincu'upre am 0.0039683
nei am 0.0079365
seri'anai am 0.0039683
tcidu am 0.0079365
flalu am 0.0039683
cpana am 0.0039683
natmrxanguke am 0.0039683
toltaske am 0.0079365
muspre am 0.0039683
cu'upre am 0.0039683
nanmu am 0.0079365
nenri am 0.0079365
tatpi am 0.0039683
caucni am 0.0039683
nanca am 0.0039683
sedjica am 0.0039683
troiaxirmalsamtci am 0.0039683
fraso am 0.0039683
selbapselfu am 0.0039683
sepide am 0.0039683
sralygu'a am 0.0039683
kadno am 0.0039683
belo am 0.0039683
cnino am 0.0039683
mencti am 0.0039683
ca am 0.0277778
xagji am 0.0238095
sanji am 0.0039683
roroi am 0.0039683
cmima am 0.0119048
tsali am 0.0039683
klama am 0.0079365
ru'a am 0.0079365
stomaxu am 0.0039683
mixre materials 0.5000000
co'a materials 0.5000000
dijyselpla Blueprint 1.0000000
cimni infinitely 0.5000000
ka infinitely 0.5000000
vi'i gaining 1.0000000
selgi'a follow 0.1000000
jersi follow 0.1000000
morna follow 0.1000000
ni'inai follow 0.1000000
loza'i follow 0.1000000
bo follow 0.1000000
ko follow 0.1000000
zukte follow 0.1000000
le'o follow 0.1000000
ni'i follow 0.1000000
zumri Maize 1.0000000
klani rating 0.5000000
certu rating 0.5000000
gaxygle sex 0.2222222
mu'i sex 0.1111111
gletu sex 0.5555556
ra sex 0.1111111
ne chocolate 0.0500000
mutce chocolate 0.0500000
nai chocolate 0.0500000
loi chocolate 0.0500000
cakla chocolate 0.6000000
iuru'enai chocolate 0.0500000
iunai chocolate 0.0500000
mau chocolate 0.0500000
iu chocolate 0.0500000
a'o Gah 0.5000000
nai Gah 0.5000000
xagji Hungry 0.4000000
do Hungry 0.2000000
xu Hungry 0.4000000
jinmrluteti Lutetium 1.0000000
xy − 1.0000000
jicmrpoloni Polonium 1.0000000
jinga Checkmate 1.0000000
i Sentences 0.2500000
jufra Sentences 0.2500000
lo Sentences 0.5000000
parikuTIN Parícutin 1.0000000
sinma honor 0.2500000
ni honor 0.2500000
jarco honor 0.2500000
poi honor 0.2500000
xarpi Harpier 1.0000000
pu argued 0.3333333
darlu argued 0.3333333
enge argued 0.3333333
fai program 0.1666667
proga program 0.5000000
seltivni program 0.1666667
farvi program 0.1666667
munono hour 0.0384615
pa hour 0.1538462
cacra hour 0.3846154
me'i hour 0.0384615
be hour 0.1538462
li hour 0.1923077
ze'a hour 0.0384615
makfa miracle 1.0000000
i Doris 0.0526316
cliva Doris 0.1052632
doris Doris 0.3157895
NULL Doris 0.1052632
la Doris 0.3157895
pu Doris 0.1052632
te'o ln 1.0000000
noi jug 0.5000000
patxu jug 0.5000000
kuspe scope 1.0000000
vudus Voodoo 0.5000000
poi Voodoo 0.5000000
gunse geese 0.5000000
ca'o geese 0.5000000
kalte stalked 1.0000000
su'a general 0.3333333
lo'e general 0.3333333
clite general 0.3333333
uetersen Uetersen 1.0000000
xabju resided 0.5000000
pemfi'i resided 0.5000000
saitus Saitou 1.0000000
iakob Jacob 0.2222222
djeikyb Jacob 0.1111111
panzi Jacob 0.2222222
la Jacob 0.3333333
bersa Jacob 0.1111111
se additional 0.5000000
jmina additional 0.5000000
fi putting 0.1428571
pu'u putting 0.1428571
zbasu putting 0.1428571
punji putting 0.2857143
kombitu putting 0.1428571
ro'e putting 0.1428571
dadjo Taoist 1.0000000
tanru tanru 1.0000000
bylgAri,as Bulgaria 1.0000000
sicni coins 1.0000000
se gift 0.3333333
vamveile'ikarda gift 0.0833333
dasri gift 0.0833333
seldu'a gift 0.0833333
dunda gift 0.4166667
buenosaires Buenos 1.0000000
ke popsicle 1.0000000
uruguais Uruguay 1.0000000
go'o true 0.0277778
fa true 0.0555556
go'i true 0.0277778
lonu true 0.0277778
nei true 0.0277778
NULL true 0.0833333
nonydjuno true 0.0277778
la'ede'u true 0.0277778
nalje'u true 0.0277778
na.a true 0.0833333
ie true 0.0277778
je'a true 0.0555556
jetnu true 0.4166667
ku true 0.0555556
selgungunma true 0.0277778
sanji knew 0.0357143
du'u knew 0.0714286
lodu'u knew 0.0357143
pu knew 0.3214286
tsuku knew 0.0714286
djuno knew 0.3214286
NULL knew 0.0714286
ty knew 0.0357143
da'i knew 0.0357143
daurju'a fallacy 0.3333333
nagi'e fallacy 0.3333333
lojysreju'a fallacy 0.3333333
le ache 0.4000000
betfu ache 0.4000000
galxe ache 0.2000000
Livgyterbilma non-A 1.0000000
kordobas Kordobas 1.0000000
sedjica different 0.0384615
vrici different 0.1538462
datsi'u different 0.0384615
frica different 0.2692308
NULL different 0.0769231
da different 0.0384615
drata different 0.2692308
poi different 0.0384615
xasli different 0.0384615
na different 0.0384615
pare'u excited 0.1666667
ue'ipei excited 0.3333333
fizbu excited 0.3333333
stuvi'e excited 0.1666667
dasri bundle 1.0000000
y umm 1.0000000
cu sell 0.1250000
jdima sell 0.1250000
vecnu sell 0.6875000
meti sell 0.0625000
arnold Arnold 1.0000000
snada successful 0.5000000
te successful 0.2500000
cu successful 0.2500000
NULL Seeing 0.1428571
viska Seeing 0.2857143
nu Seeing 0.2857143
lo'e Seeing 0.2857143
caxmati Chess 1.0000000
ze'a slept 0.1363636
sipna slept 0.5000000
NULL slept 0.0454545
pu slept 0.3181818
klama stepped 0.1428571
ka'a stepped 0.0714286
se stepped 0.0714286
le stepped 0.1428571
stapa stepped 0.2142857
pu stepped 0.3571429
ni faithful 0.5000000
me faithful 0.5000000
ni'i lojbanic 1.0000000
jacre'o splashed 1.0000000
kavbu capture 1.0000000
go'i response 0.3333333
danfu response 0.3333333
na response 0.3333333
gaxygle anal 1.0000000
kafke coughed 0.3333333
pu coughed 0.3333333
paroi coughed 0.3333333
cu fails 0.1666667
po'o fails 0.1666667
fliba fails 0.6666667
tu'a reassuring 0.5000000
zmadu reassuring 0.5000000
braplu Continent 1.0000000
loi linguists 0.5000000
banskepre linguists 0.5000000
cikre repairs 0.5000000
cu repairs 0.5000000
spusku answers 0.5000000
naljetnu answers 0.5000000
cu stores 0.5000000
terto stores 0.5000000
y uh 1.0000000
lo his 0.3663664
narzutse his 0.0030030
anka his 0.0030030
palbi'o his 0.0030030
lakne his 0.0030030
ga'inde his 0.0030030
ci'irgau his 0.0030030
ra his 0.0630631
e'anmo his 0.0030030
cinse his 0.0030030
rajyclazma his 0.0030030
ta his 0.0030030
degji his 0.0030030
cagna his 0.0030030
tcaci his 0.0030030
zargu his 0.0030030
marvele his 0.0030030
selgi'a his 0.0030030
cirko his 0.0030030
le his 0.0300300
romni his 0.0030030
penbi his 0.0030030
nalcni his 0.0030030
ga'orgau his 0.0030030
jdica his 0.0030030
daski his 0.0030030
ckupra his 0.0060060
vo'a his 0.0480480
muclai his 0.0030030
trobi'o his 0.0030030
tixnu his 0.0030030
kanydzu his 0.0030030
lety his 0.0030030
cmene his 0.0030030
zukti'i his 0.0030030
jikfanza his 0.0030030
la.yLIzabet his 0.0030030
flira his 0.0030030
elis his 0.0030030
pecybi'o his 0.0030030
xance his 0.0030030
selpla his 0.0030030
jgalu his 0.0030030
jadykevri'a his 0.0060060
be his 0.0480480
piso'o his 0.0030030
fanza his 0.0030030
papri his 0.0030030
me his 0.0090090
xankycfu his 0.0030030
canre his 0.0030030
NULL his 0.0210210
ky his 0.0030030
my his 0.0060060
ko'a his 0.1111111
raxire his 0.0030030
do'e his 0.0030030
rirpa'u his 0.0030030
jursa his 0.0030030
ri his 0.0300300
cutyti'e his 0.0030030
kakpa his 0.0030030
cutne his 0.0060060
brest his 0.0030030
xusra his 0.0030030
mivmu'i his 0.0030030
xarnu his 0.0030030
citmau his 0.0030030
ny his 0.0030030
kain his 0.0060060
cikre his 0.0030030
selpo'e his 0.0090090
ty his 0.0150150
ctununta'a his 0.0030030
lubybi'o his 0.0030030
xruti his 0.0030030
betfu his 0.0030030
sedycaugau his 0.0030030
nerpu'i his 0.0060060
daspo his 0.0030030
selstidi his 0.0030030
micyxu'i his 0.0030030
selsku his 0.0030030
ctebi his 0.0030030
birjanco his 0.0030030
seksi his 0.0030030
jecabo his 0.0030030
nakpinji his 0.0030030
pifli'a escaped 0.3333333
rivbi escaped 0.3333333
pu escaped 0.3333333
slabu Old 0.1428571
lo'e Old 0.1428571
laldo Old 0.2857143
ro Old 0.1428571
lo Old 0.2857143
bi 8 0.4375000
nilnalci'o 8 0.0312500
frinu 8 0.0312500
sumji 8 0.0312500
za'ubi 8 0.0312500
de'i 8 0.0625000
li 8 0.3125000
cy 8 0.0625000
frederik Frédéric 1.0000000
ge'i GA 1.0000000
se surrounded 0.2500000
sruri surrounded 0.5000000
pu surrounded 0.2500000
ei forgot 0.0312500
fi forgot 0.0937500
pu forgot 0.0937500
NULL forgot 0.0312500
de'a forgot 0.0937500
morji forgot 0.2187500
tu'a forgot 0.0937500
tolmo'i forgot 0.1562500
co'u forgot 0.1250000
mulno forgot 0.0312500
nalmorji forgot 0.0312500
nai keep 0.0434783
NULL keep 0.1304348
nupre keep 0.0869565
fanta keep 0.0434783
za'o keep 0.0434783
flalu keep 0.0434783
ni keep 0.0434783
ralte keep 0.1739130
be keep 0.1304348
se keep 0.0434783
kakpa keep 0.0434783
mipri keep 0.0434783
pensi keep 0.0434783
lo keep 0.0869565
clabajykla marathon 1.0000000
ji'a However 0.0714286
NULL However 0.0714286
i However 0.1428571
fa However 0.0714286
ku'i However 0.6428571
jibni drunk 0.0666667
pinxe drunk 0.2000000
ko'e drunk 0.0666667
mo'u drunk 0.1333333
xalbebna drunk 0.3333333
NULL drunk 0.0666667
ca drunk 0.0666667
nalruble drunk 0.0666667
tolfekybi'o oneself 0.0625000
da oneself 0.1875000
fi oneself 0.0625000
tu'a oneself 0.1250000
ke'a oneself 0.3750000
vo'e oneself 0.0625000
sevzi oneself 0.1250000
da shook 0.3333333
xanjairinsa shook 0.3333333
desygau shook 0.3333333
IBM IBM 0.2857143
la'o IBM 0.1428571
ibubymys IBM 0.1428571
la'oi IBM 0.1428571
la IBM 0.1428571
gy.IBM.gy IBM 0.1428571
terselmlu relatively 0.5000000
ka relatively 0.5000000
forca Forks 1.0000000
kuarizmis al-Khwārizmī 1.0000000
mi'o Our 0.0714286
ni Our 0.0714286
le Our 0.1428571
mi Our 0.0714286
gidva Our 0.0714286
ma'a Our 0.0714286
mi'a Our 0.1428571
ta'e Our 0.0714286
lo Our 0.2857143
zo Bob 0.0454545
bob Bob 0.2727273
la Bob 0.4090909
bob.djonson Bob 0.0454545
jo'u Bob 0.0909091
bab Bob 0.1363636
cukla round 0.1666667
bolci round 0.0833333
remei round 0.4166667
je'i round 0.0833333
xruti round 0.0833333
carna round 0.1666667
la Tok 0.5000000
tokpisin Tok 0.5000000
zei ray 0.5000000
kantu ray 0.5000000
la rude 0.5000000
tolclite rude 0.5000000
nu Had 0.3333333
ro Had 0.3333333
cu'o Had 0.3333333
kalmebykre eyebrows 0.3333333
loi eyebrows 0.3333333
pe eyebrows 0.3333333
mypyci MP3 0.3333333
selsnatci MP3 0.3333333
tu'a MP3 0.3333333
saclu decimal 0.5000000
li decimal 0.2500000
mu decimal 0.2500000
pendo bro 1.0000000
cutci shoe 1.0000000
nu hereby 0.2000000
nalzi'e hereby 0.2000000
mulno hereby 0.4000000
ca'e hereby 0.2000000
be sentences 0.1111111
fi sentences 0.1111111
jufra sentences 0.7777778
ke'o pardon 1.0000000
skalduna Basque 0.5000000
auskalerik Basque 0.5000000
non-profit.gy dedicated 1.0000000
vau 5 0.0333333
mu 5 0.6000000
do 5 0.0333333
li 5 0.1000000
cliva 5 0.0333333
xokau 5 0.0333333
sumji 5 0.0333333
kurfa 5 0.0333333
gugdeburu 5 0.0333333
na 5 0.0333333
gei 5 0.0333333
be actor 0.3333333
tigni actor 0.3333333
rairnei actor 0.3333333
mu'i warmly 0.2000000
bo warmly 0.2000000
i warmly 0.2000000
rinsa warmly 0.2000000
se warmly 0.2000000
le'e Teenage 0.5000000
verntineidja Teenage 0.5000000
poi persons 0.2500000
fi'u persons 0.2500000
mei persons 0.2500000
prenu persons 0.2500000
cliva left 0.3478261
stali left 0.0434783
zunle left 0.0760870
cu left 0.1086957
pu left 0.1521739
pe left 0.0108696
ckiku left 0.0108696
vimcu left 0.0108696
sepli left 0.0108696
zu'a left 0.0217391
kani left 0.0108696
ve left 0.0108696
NULL left 0.0217391
karcru left 0.0108696
bazigi left 0.0108696
tolkansa left 0.0108696
fesli'a left 0.0326087
xe left 0.0108696
kamcnici left 0.0108696
nonseka left 0.0108696
silna left 0.0108696
mo'u left 0.0434783
ku left 0.0108696
fi goat 0.1250000
lo goat 0.2500000
kanba goat 0.3750000
be goat 0.2500000
mymbais Mumbai 1.0000000
ricfu rich 0.9200000
NULL rich 0.0400000
ji'e rich 0.0400000
NULL US 0.4000000
fi US 0.2000000
mergu'e US 0.2000000
jungau US 0.2000000
di'u Phew 0.2000000
uo Phew 0.2000000
ba'o Phew 0.2000000
o'u Phew 0.4000000
klama Leaving 0.5000000
cu Leaving 0.5000000
si'e Half 0.1428571
pi Half 0.1428571
mu Half 0.1428571
fi'ure Half 0.1428571
fi'u Half 0.1428571
re Half 0.1428571
lo Half 0.1428571
dargu box 0.0370370
noi box 0.0740741
tanxe box 0.8888889
pu connected 0.3333333
jongau connected 0.3333333
jorne connected 0.3333333
ve'i puddle 0.5000000
lalxu puddle 0.5000000
tolsti begin 0.1111111
tigni begin 0.1111111
draci begin 0.1111111
ku begin 0.1111111
ti'u begin 0.1111111
co'a begin 0.1111111
e'apei begin 0.1111111
cfari begin 0.2222222
cmana necessarily 0.1666667
naka'enai necessarily 0.1666667
rinka necessarily 0.1666667
NULL necessarily 0.1666667
cu necessarily 0.1666667
crino necessarily 0.1666667
simxu mutual 0.3333333
ce'u mutual 0.6666667
jmadegji toes 0.5000000
ty toes 0.5000000
cimni infinite 0.2000000
ci'i infinite 0.4000000
ci infinite 0.2000000
ci'imei infinite 0.2000000
za'u Those 0.2222222
be Those 0.0740741
natmrxanguke Those 0.0370370
ta Those 0.0370370
se Those 0.0370370
noda Those 0.0370370
nei Those 0.0370370
blaci Those 0.0370370
ku'a Those 0.0370370
slabu Those 0.0370370
va Those 0.1481481
ku Those 0.1111111
lo Those 0.1481481
tcidu seriously 0.2000000
tcebilma seriously 0.2000000
i seriously 0.2000000
junri seriously 0.2000000
cpedu seriously 0.2000000
nalreldilcymu'o odd 0.5000000
cizra odd 0.5000000
xu Peter 0.1111111
pitr.djeksyn Peter 0.1111111
pitr Peter 0.2222222
la Peter 0.3333333
petr Peter 0.1111111
la.pitr Peter 0.1111111
no'e medium 0.3333333
cmalu medium 0.3333333
creka medium 0.3333333
la'oi Jiro 0.1666667
la Jiro 0.1666667
my.Jiro.gy Jiro 0.1666667
la'o Jiro 0.1666667
Jiro Jiro 0.1666667
jiros Jiro 0.1666667
zvati pebbles 0.5000000
bidju pebbles 0.5000000
uan.laos.dzis Ji 1.0000000
nu Marcus 0.3333333
markus Marcus 0.3333333
la Marcus 0.3333333
jbobau problems 0.1000000
fa problems 0.1000000
nabmi problems 0.6000000
i'i problems 0.1000000
NULL problems 0.1000000
ckini totally 1.0000000
go'o preceding 0.5000000
i preceding 0.5000000
pe'a Necessity 0.1666667
lo'e Necessity 0.1666667
nu Necessity 0.3333333
nitcu Necessity 0.3333333
no'u model 0.1111111
jarco model 0.1111111
selve'u model 0.1111111
cu model 0.1111111
la model 0.1111111
nunba'o model 0.1111111
poi model 0.1111111
gandam model 0.1111111
xagrai model 0.1111111
kurji cares 0.0769231
mu'i cares 0.0769231
soi cares 0.0769231
se cares 0.3076923
vajni cares 0.0769231
da cares 0.0769231
kau cares 0.0769231
ma cares 0.0769231
cinri cares 0.1538462
arte debates 1.0000000
NULL betting 1.0000000
i ski 0.1428571
be ski 0.1428571
skiji ski 0.4285714
a'enai ski 0.1428571
marce ski 0.1428571
befi Church 0.2000000
iecuax Church 0.2000000
lijda Church 0.2000000
NULL Church 0.2000000
la Church 0.2000000
se valuables 0.2500000
tolyle'a valuables 0.2500000
ponse valuables 0.2500000
kargu valuables 0.2500000
ga'arboiterjvi Baseball 0.5000000
lo Baseball 0.5000000
cu performed 0.5000000
makfa performed 0.2500000
canci performed 0.2500000
jinmrmanga Manganese 1.0000000
plana cheeks 1.0000000
doi oh 0.6666667
o'odai oh 0.3333333
za'o end 0.0370370
jipno end 0.0370370
fanmo end 0.1481481
co'e end 0.0370370
NULL end 0.1481481
bazi end 0.0370370
mulno end 0.0370370
cu end 0.1481481
selti'i end 0.0370370
cimoi end 0.0370370
tolcfari end 0.0370370
terdi end 0.0370370
cimni end 0.0370370
trixe end 0.0370370
mujyfa'o end 0.0370370
suksa end 0.0370370
nitcu end 0.0370370
nungu'a end 0.0370370
junzenri'a knowledgeable 0.3333333
litru knowledgeable 0.3333333
ka knowledgeable 0.3333333
janta Check 0.3333333
ko Check 0.3333333
pe'u Check 0.3333333
fanva Put 0.0666667
punji Put 0.2666667
kosta Put 0.0666667
gau Put 0.0666667
sipgau Put 0.0666667
ko Put 0.4666667
ka awareness 0.3333333
cau awareness 0.3333333
sanji awareness 0.3333333
jatna charge 0.5000000
catni charge 0.5000000
Teddy Bear 0.3333333
la'o Bear 0.3333333
cribe Bear 0.3333333
xagri oboe 1.0000000
vimcu Remove 0.5000000
ko Remove 0.5000000
fepni every 0.0120482
cisti every 0.0120482
jeftu every 0.0120482
ridrxobi every 0.0120482
cu every 0.0120482
me'iro every 0.0240964
vulko every 0.0481928
relxilma every 0.0120482
gugde every 0.0240964
dragau every 0.0120482
sauron every 0.0120482
cfatadni every 0.0240964
lo every 0.0120482
so'a every 0.0240964
nafselte'i every 0.0120482
roldei every 0.0240964
di every 0.0240964
ro every 0.6265060
rolo every 0.0120482
xadykelci'e every 0.0240964
klaku every 0.0120482
snidu every 0.0120482
c C 0.2500000
cy.moi C 0.2500000
poi C 0.2500000
e'e C 0.2500000
la Yerevan 0.5000000
ierevAn Yerevan 0.5000000
tu'u same 0.0294118
poi same 0.0294118
ka same 0.0294118
kampu same 0.0294118
du same 0.1176471
mi'u same 0.0588235
di'ai same 0.0294118
NULL same 0.0588235
ra same 0.0294118
creka same 0.0294118
patfu same 0.0588235
cabna same 0.0294118
di'i same 0.0294118
pa same 0.0588235
boljinterjvi same 0.0294118
mintu same 0.2352941
mamta same 0.0294118
se same 0.0882353
spisa fragments 1.0000000
retsku asking 0.3076923
ca'o asking 0.0769231
cpedu asking 0.2307692
pau asking 0.0769231
nu asking 0.2307692
NULL asking 0.0769231
jmive Living 0.2500000
ko'a Living 0.2500000
loi Living 0.5000000
tu'a adjusts 0.2000000
tikygau adjusts 0.2000000
lo'e adjusts 0.2000000
mivyxadni adjusts 0.2000000
ku adjusts 0.2000000
mripre postman 0.5000000
la'asai postman 0.5000000
bei governor 0.2000000
turni governor 0.6000000
doi governor 0.2000000
manci amazing 1.0000000
fai dropped 0.1000000
jai dropped 0.1000000
pu dropped 0.3000000
falgau dropped 0.1000000
gau dropped 0.1000000
ritcardniksyn dropped 0.1000000
falcru dropped 0.1000000
farlu dropped 0.1000000
la.li,in Ying 1.0000000
petr expression 0.1428571
la expression 0.1428571
po expression 0.1428571
c expression 0.1428571
nu'a expression 0.1428571
jursa expression 0.1428571
mekso expression 0.1428571
mo'ine'i pushed 0.1111111
catke pushed 0.3333333
catka pushed 0.2222222
pu pushed 0.3333333
manri frame 0.5000000
greku frame 0.5000000
skicu describe 0.1666667
fo describe 0.1666667
zo'e describe 0.1666667
ko'a describe 0.1666667
uanai describe 0.1666667
ca'i describe 0.1666667
za'e whore 0.2500000
selglejibri whore 0.5000000
be'o whore 0.2500000
ji'a wow 0.5000000
mau'i wow 0.5000000
cnisa Lead 1.0000000
darlu artwork 0.1428571
arte artwork 0.1428571
rinka artwork 0.1428571
jai artwork 0.1428571
nu artwork 0.1428571
pu artwork 0.1428571
so'i artwork 0.1428571
xo numbers 0.2000000
namcu numbers 0.4000000
nalreldilcymu'o numbers 0.2000000
selska numbers 0.2000000
fa'a waved 0.5000000
slilygau waved 0.5000000
pabi eighteen 0.2500000
ca eighteen 0.1250000
pi eighteen 0.1250000
xo'e eighteen 0.1250000
ji'ini'u eighteen 0.1250000
18 eighteen 0.2500000
bemro lands 0.5000000
tumla lands 0.5000000
ve Watching 0.5000000
lonu Watching 0.5000000
be efforts 0.1666667
troci efforts 0.3333333
tolsurla efforts 0.1666667
pu efforts 0.1666667
co'unai efforts 0.1666667
bratu hailstorm 1.0000000
jimca branches 1.0000000
panra parallels 1.0000000
mlana her 0.0077519
seksi her 0.0038760
jecabo her 0.0038760
kanla her 0.0038760
skot her 0.0077519
cfila her 0.0038760
juxre her 0.0038760
tanbo her 0.0038760
mintu her 0.0038760
na'o her 0.0038760
selma'e her 0.0038760
selci'i her 0.0038760
rumgau her 0.0038760
prami her 0.0038760
lubybi'o her 0.0038760
drijdikygau her 0.0038760
fetsi her 0.0620155
zo'ei her 0.0038760
derni'agau her 0.0038760
taibo her 0.0038760
xarnu her 0.0038760
xanri her 0.0038760
tolse'itro her 0.0038760
barkulselgu'a her 0.0038760
selnunji'e her 0.0038760
tarti her 0.0038760
ci'a her 0.0038760
sipku'a her 0.0038760
cerda her 0.0038760
ri her 0.0697674
ko'a her 0.1860465
NULL her 0.0387597
seldu'a her 0.0038760
me her 0.0077519
selfi'i her 0.0038760
cunso her 0.0038760
be her 0.0077519
xance her 0.0038760
abu her 0.0038760
spali her 0.0038760
janli her 0.0038760
cnemu her 0.0038760
nalseljmi her 0.0038760
xersku her 0.0038760
jinga her 0.0038760
zdakemkulgu'a her 0.0077519
bavla'ima'i her 0.0038760
cintura her 0.0038760
vo'a her 0.0348837
tolkanpe her 0.0038760
camcpe her 0.0038760
tatyji'o her 0.0038760
nu her 0.0193798
keltci her 0.0038760
pampe'o her 0.0038760
alis her 0.0116279
le her 0.0658915
fanta her 0.0038760
gletu her 0.0077519
meiris her 0.0038760
tornozelo her 0.0038760
pambi'o her 0.0038760
sufti her 0.0038760
punaijeba her 0.0038760
ra her 0.1201550
befsfeke'a her 0.0077519
tolzdisi'u her 0.0077519
ko'e her 0.0232558
lo her 0.1124031
soirsai rations 1.0000000
tarti behavior 0.5000000
ka behavior 0.5000000
fe'e line 0.2000000
ku'i line 0.2000000
tinbe line 0.2000000
linji line 0.4000000
jai acid 0.1666667
slami acid 0.1666667
pu acid 0.1666667
rasyslami acid 0.3333333
rinka acid 0.1666667
platu planning 0.6000000
NULL planning 0.2000000
ai planning 0.2000000
e Copper 0.2000000
loi Copper 0.4000000
tunka Copper 0.4000000
de identical 0.5000000
su'o identical 0.5000000
sodna soda 0.2000000
be soda 0.2000000
kruji soda 0.2000000
sodva soda 0.2000000
jilka soda 0.2000000
petso Pm 1.0000000
li fifth 1.0000000
ko'a patiently 1.0000000
virnu courage 0.5000000
vau courage 0.2500000
ka courage 0.2500000
ionai deer 0.1666667
mirli deer 0.8333333
se chewing 0.5000000
zalvi chewing 0.5000000
tigni circuses 0.5000000
se circuses 0.5000000
de'a cleanser 1.0000000
sarxe interacting 0.5000000
jikca interacting 0.5000000
pagbu exploded 0.3333333
pu exploded 0.3333333
spoja exploded 0.3333333
pifygau He 0.0015083
fo'a He 0.0015083
canci He 0.0015083
jajgau He 0.0015083
nelci He 0.0045249
tolvu'e He 0.0015083
lubybi'o He 0.0015083
tsali He 0.0015083
cusku He 0.0015083
plipe He 0.0030166
sakci He 0.0015083
finti He 0.0015083
pu'i He 0.0015083
jecabo He 0.0015083
mutce He 0.0015083
ca'o He 0.0015083
tordu He 0.0015083
nakni He 0.0558069
ta'e He 0.0045249
lozu'o He 0.0015083
cimei He 0.0015083
ta He 0.0135747
la'orxi'o He 0.0015083
citri He 0.0015083
ko'a He 0.3182504
piso'aroi He 0.0015083
NULL He 0.0331825
ra He 0.3861237
malcrexalbo He 0.0015083
cinmle He 0.0015083
ka'e He 0.0015083
sedyta'u He 0.0015083
lakne He 0.0015083
zasti He 0.0015083
puziki He 0.0015083
nanmu He 0.0015083
ko'e He 0.0015083
lo He 0.0075415
cintolvu'e He 0.0015083
mencre He 0.0015083
fadni He 0.0015083
so'iroi He 0.0030166
ralte He 0.0030166
gugde'aru He 0.0015083
le He 0.0618401
fliba He 0.0015083
xendo He 0.0015083
balcu'e He 0.0015083
pu He 0.0241327
jatna He 0.0015083
tisna He 0.0015083
cikna He 0.0030166
xalbebna He 0.0030166
tilju He 0.0015083
tolmakcu He 0.0015083
suksa He 0.0015083
vobmipri He 0.0015083
fepni He 0.0015083
ba'o He 0.0015083
pambi'o He 0.0015083
ri He 0.0075415
la Jeremy 0.5000000
djerymis Jeremy 0.5000000
la.siskos Sysko 1.0000000
giju rains 0.1250000
ci'erkei rains 0.1250000
vau rains 0.1250000
citsi rains 0.1250000
carvi rains 0.2500000
ti'u rains 0.1250000
nu rains 0.1250000
du'u knows 0.0392157
selsau knows 0.0392157
se knows 0.0196078
djuno knows 0.4901961
NULL knows 0.0196078
cu knows 0.2352941
fi knows 0.0784314
jatna knows 0.0392157
slabu knows 0.0196078
paunai knows 0.0196078
binjimkle Transition 1.0000000
loi Butter 0.5000000
matne Butter 0.5000000
prenu repairman 0.5000000
cikre repairman 0.5000000
si'u found 0.0250000
tu'a found 0.0250000
du'u found 0.0250000
pu found 0.3000000
jai found 0.0250000
jinvi found 0.0250000
zvafa'i found 0.0250000
facki found 0.2750000
tolcri found 0.2250000
fe'eroroi found 0.0250000
te found 0.0250000
sekai stomach 0.1000000
be stomach 0.1000000
djaruntyrango stomach 0.2000000
betfu stomach 0.4000000
po'e stomach 0.1000000
runtyrango stomach 0.1000000
claxu lack 0.6666667
fu'inai lack 0.1666667
noda lack 0.1666667
NULL Brian 0.2000000
la Brian 0.4000000
brai,n Brian 0.2000000
braiyn Brian 0.2000000
софъбакни Soviet 0.1000000
sofybakni Soviet 0.1000000
ле Soviet 0.1000000
sofygu'e Soviet 0.1000000
о'и Soviet 0.1000000
пурди Soviet 0.1000000
шу Soviet 0.1000000
му Soviet 0.1000000
звати Soviet 0.1000000
хагжи Soviet 0.1000000
ma'a our 0.0508475
mi'a our 0.1694915
bavycu'i our 0.0169492
lo our 0.2033898
cumla our 0.0169492
bangu our 0.0169492
pluton our 0.0169492
vau our 0.0338983
NULL our 0.0169492
cazi our 0.0169492
du'edji our 0.0169492
serai our 0.0169492
zen our 0.0169492
rai our 0.0169492
tankyva'u our 0.0169492
mi'ai our 0.1186441
be our 0.0338983
jbixa'u our 0.0169492
se our 0.1355932
darlu our 0.0169492
mi'o our 0.0169492
kerlo our 0.0169492
zo'e someone 0.0131579
mi'afra someone 0.0131579
NULL someone 0.0921053
ka'e someone 0.0131579
da someone 0.2500000
ce'u someone 0.0657895
spenybi'o someone 0.0131579
nelci someone 0.0131579
ca someone 0.0394737
nu someone 0.0131579
di someone 0.0394737
ka someone 0.0789474
ce someone 0.0131579
ba'e someone 0.0263158
de someone 0.0131579
mipyzga someone 0.0131579
poi someone 0.0526316
ki'asku someone 0.0131579
le someone 0.0657895
sinma someone 0.0657895
nitcu someone 0.0263158
jmive someone 0.0394737
pecybi'o someone 0.0131579
ta'a someone 0.0131579
minde commanding 0.2000000
soi commanding 0.2000000
ko commanding 0.2000000
si'o commanding 0.2000000
mo commanding 0.2000000
nu advance 0.0833333
balvi advance 0.3333333
fi advance 0.3333333
ckire advance 0.2500000
na'e irony 0.2000000
te irony 0.2000000
ranxi irony 0.4000000
nu irony 0.2000000
ransu bronze 0.3333333
pixra bronze 0.3333333
cu bronze 0.3333333
janli whipped 0.2000000
ta'i whipped 0.2000000
pu whipped 0.2000000
bikla whipped 0.2000000
ka whipped 0.2000000
lalxu lake 1.0000000
le rabbit 0.0769231
NULL rabbit 0.0769231
cicyractu rabbit 0.0769231
bo rabbit 0.0769231
ractyrectu rabbit 0.0769231
na'i rabbit 0.0769231
ractu rabbit 0.4615385
i rabbit 0.0769231
pagbu incorporated 0.5000000
mo'u incorporated 0.5000000
aisak.niuton Newton 0.3333333
niut,n Newton 0.3333333
la Newton 0.3333333
glibau indirectly 1.0000000
jai defend 0.2500000
fi defend 0.2500000
badgau defend 0.2500000
bandu defend 0.2500000
termosygau rub 0.5000000
noroi rub 0.5000000
slilu beating 0.3333333
cu beating 0.3333333
rinsa beating 0.3333333
tolpo'u functional 1.0000000
ba'e interesting 0.0370370
a'ucu'i interesting 0.0740741
NULL interesting 0.0370370
cinri interesting 0.8518519
cu boil 0.5000000
febvi boil 0.5000000
fapro rebellious 0.5000000
flapro rebellious 0.5000000
relma'i February 1.0000000
biork Björk 1.0000000
ko'a Everybody 0.0555556
le'o Everybody 0.1111111
ro Everybody 0.5000000
da Everybody 0.3333333
ractu prettily 0.5000000
melbi prettily 0.5000000
korka cork 1.0000000
ctuca disciples 1.0000000
mu'amad.djunus Muhammad 1.0000000
cilta wires 1.0000000
ca'o paying 0.1000000
pleji paying 0.2000000
fo paying 0.1000000
kau paying 0.1000000
NULL paying 0.1000000
ma paying 0.1000000
jundi paying 0.3000000
ku rang 0.2500000
cu rang 0.2500000
selsance rang 0.2500000
janbe rang 0.2500000
jai comfortable 0.0909091
ka comfortable 0.0909091
o'u comfortable 0.0909091
kufra comfortable 0.4545455
vau comfortable 0.0909091
se comfortable 0.1818182
ja soot 0.5000000
tarla soot 0.5000000
zdaraxa raths 1.0000000
marks Marx 1.0000000
brife blew 1.0000000
ckaji stone 0.0588235
tolfesru'e stone 0.0588235
ka stone 0.0588235
rokci stone 0.8235294
marvele marvelous 0.5000000
sol marvelous 0.5000000
lo'e Carbon 0.2500000
tabno Carbon 0.5000000
tabrelkijno Carbon 0.2500000
zgitci instrument 0.1666667
tabra instrument 0.3333333
xagri instrument 0.1666667
zo instrument 0.3333333
nerpu'i money 0.0227273
mo'a money 0.0227273
jdini money 0.6818182
du money 0.0113636
rupnu money 0.0227273
ponse money 0.0113636
e'uropas money 0.0113636
poi money 0.0113636
rupructcica money 0.0113636
nalju'o money 0.0113636
posyze'a money 0.0113636
ekstra money 0.0113636
loi money 0.0795455
pe money 0.0227273
vecnu money 0.0113636
jdima money 0.0113636
po money 0.0340909
co'a becomes 0.1666667
NULL becomes 0.1666667
mapti becomes 0.1666667
cu becomes 0.1666667
magneti becomes 0.1666667
brife becomes 0.1666667
verba kids 0.3000000
panzi kids 0.2000000
za'u kids 0.1000000
ke kids 0.1000000
fa kids 0.1000000
gy.hello, kids 0.1000000
gau kids 0.1000000
cilmo humid 1.0000000
forca fork 0.4545455
i fork 0.0909091
pe fork 0.0909091
pi'o fork 0.0909091
kuspe fork 0.0909091
mi fork 0.0909091
va fork 0.0909091
la Nicodemus 0.5000000
nikodimys Nicodemus 0.5000000
cliva ex-girlfriend 0.3333333
cu ex-girlfriend 0.3333333
pampe'o ex-girlfriend 0.3333333
kla affix 1.0000000
favygau developed 0.5000000
pu developed 0.5000000
cu reflects 0.3333333
blaci reflects 0.3333333
minra reflects 0.3333333
doi folks 0.3333333
rodo folks 0.3333333
je'ugo'i folks 0.3333333
ri'a skiing 0.1111111
co skiing 0.1111111
si'erskiji skiing 0.1111111
skiji skiing 0.2222222
ko'a skiing 0.1111111
sakli skiing 0.1111111
lonu skiing 0.1111111
tu'a skiing 0.1111111
lo Knowing 1.0000000
fe liberty 0.1666667
loka liberty 0.1666667
banru'usu liberty 0.1666667
lonu liberty 0.1666667
zifre liberty 0.1666667
zukte liberty 0.1666667
stodi views 1.0000000
gugrtcosanykobli kimchee 1.0000000
si Five--I 0.5000000
mu Five--I 0.5000000
sonci 13th 0.3333333
la 13th 0.3333333
jaumoi 13th 0.3333333
titnanba cookies 1.0000000
do Welcome 0.1578947
vitke Welcome 0.0526316
zanvi'e Welcome 0.1578947
be Welcome 0.0526316
fi'i Welcome 0.4210526
fi Welcome 0.1578947
desku twinkling 0.3333333
bu'u twinkling 0.3333333
carmi twinkling 0.3333333
NULL caviar 1.0000000
fasyjinme Gallium 1.0000000
nunselpluka done 0.0166667
pu done 0.0166667
jeftu done 0.0166667
zo'ei done 0.0166667
kakne done 0.0166667
gasnu done 0.0333333
mulgau done 0.0166667
nunbebna done 0.0166667
zukte done 0.0833333
ba'o done 0.0666667
mo done 0.1333333
barkulselgu'a done 0.0166667
ti done 0.0166667
nuncizra done 0.0166667
nunselnandu done 0.0166667
NULL done 0.0666667
cai done 0.0166667
cabdei done 0.0333333
selfi'i done 0.0166667
mo'u done 0.2500000
mulno done 0.0500000
co'i done 0.0333333
noroi done 0.0166667
gunka done 0.0166667
milxe somewhat 0.3333333
ko somewhat 0.3333333
no'e somewhat 0.3333333
muicerangas Muixeranga 1.0000000
genai evil 0.0769231
gi evil 0.0769231
nunpalci evil 0.0769231
xlali evil 0.0769231
ko'a evil 0.0769231
palci evil 0.6153846
cecla shoot 0.1666667
celgunta shoot 0.5000000
ce'u shoot 0.1666667
selcelmrogau shoot 0.1666667
le Inuktitut 0.3333333
fo Inuktitut 0.3333333
bangrxinuktituti Inuktitut 0.3333333
stogau culturally 0.5000000
nutli culturally 0.5000000
ka highly 0.4000000
mutce highly 0.4000000
vitci highly 0.2000000
dilnu clouds 1.0000000
li enterprise 0.5000000
piso'o enterprise 0.5000000
se feelings 0.3750000
cinmo feelings 0.2500000
la'aru'e feelings 0.1250000
kei feelings 0.2500000
ta pocket 0.1428571
daski pocket 0.5714286
me pocket 0.1428571
fo pocket 0.1428571
nai … 0.2500000
re'i … 0.2500000
i … 0.2500000
li'u … 0.2500000
NULL shouldn 0.0909091
ra shouldn 0.0909091
za'umoi shouldn 0.0909091
ei shouldn 0.4545455
ba'a shouldn 0.1818182
ziljmina shouldn 0.0909091
loi flock 1.0000000
li'orkliru Fluorine 1.0000000
toldra obviously 0.3333333
jai obviously 0.3333333
li'asai obviously 0.3333333
gungunma needs 0.0243902
lumci needs 0.0487805
nitcu needs 0.4146341
nu needs 0.0243902
ku needs 0.0487805
tu'a needs 0.0487805
se needs 0.1463415
za'u needs 0.0487805
purdi needs 0.0243902
NULL needs 0.0243902
ei needs 0.0487805
cu needs 0.0975610
zgikrxumpa Play 1.0000000
casnu discuss 0.4285714
bavycu'i discuss 0.0714286
cu discuss 0.4285714
u discuss 0.0714286
za'a loud 0.1538462
cladu loud 0.7692308
bacru loud 0.0769231
lo Centimeter 0.3333333
centi Centimeter 0.3333333
be Centimeter 0.3333333
jgalu biting 1.0000000
te'ai square 0.0833333
fe'a square 0.0833333
ki'o square 0.0833333
li square 0.0833333
re square 0.2500000
kramu square 0.0833333
sezypi'i square 0.1666667
bei square 0.0833333
xedja square 0.0833333
pluka beautiful 0.0084034
balnoltru beautiful 0.0084034
melbi beautiful 0.9747899
melselsa'a beautiful 0.0084034
co'u quarrel 0.3333333
simda'a quarrel 0.3333333
noi quarrel 0.3333333
makau invented 0.1428571
du'u invented 0.1428571
pu invented 0.1428571
finti invented 0.4285714
bel invented 0.1428571
za'u Slavic 0.5000000
slovo Slavic 0.5000000
kelci dolls 0.2000000
prenu dolls 0.2000000
le dolls 0.2000000
bambola dolls 0.4000000
minli shore 0.1666667
korbi shore 0.3333333
xaskoi shore 0.1666667
pa shore 0.1666667
ji'i shore 0.1666667
lei Children 0.0555556
lo'e Children 0.1111111
verba Children 0.4444444
lo Children 0.3888889
be bothering 0.5000000
patpei bothering 0.5000000
cu goblins 0.5000000
crida goblins 0.5000000
sutra melbi 1.0000000
jai collecting 0.3333333
estampa collecting 0.3333333
selci'i collecting 0.3333333
se powered 0.5000000
livla powered 0.5000000
djosef.smit Joseph 1.0000000
zetro zettalitres 1.0000000
cu UT 0.2500000
la UT 0.2500000
ubuty UT 0.2500000
xabju UT 0.2500000
jalna starch 1.0000000
cu Green 0.5000000
nix.grin Green 0.5000000
sisku seek 1.0000000
bavlamdei holiday 0.3333333
NULL holiday 0.3333333
velsladei holiday 0.3333333
klama run 0.0370370
nabmi run 0.0370370
co run 0.0370370
xinmo run 0.0370370
bajra run 0.7407407
NULL run 0.1111111
ka smarter 0.3333333
mencremau smarter 0.3333333
ke'a smarter 0.3333333
abo cement 0.2000000
cidja cement 0.2000000
ka'irtrusi'o cement 0.2000000
enai cement 0.2000000
xumrkonkreto cement 0.2000000
pacna hoping 1.0000000
djan ” 0.1666667
tasta ” 0.3333333
cmene ” 0.1666667
li'u ” 0.3333333
NULL market 0.1093750
zarci market 0.8750000
jikni market 0.0156250
cu parade 0.3333333
dzupoi parade 0.3333333
snucanci parade 0.3333333
senci sneeze 1.0000000
le chart 0.2000000
cukcartu chart 0.2000000
cartu chart 0.2000000
noi chart 0.2000000
jarco chart 0.2000000
cu junkie 0.2500000
la junkie 0.2500000
nakni junkie 0.2500000
tcubi'a junkie 0.2500000
zi return 0.0370370
fetsi return 0.0370370
se'ixru return 0.0370370
xrukla return 0.0370370
ka return 0.0740741
volve return 0.0370370
bazisai return 0.0370370
za return 0.0740741
xrugau return 0.1111111
xruti return 0.0740741
volta return 0.3703704
ro return 0.0370370
vau return 0.0370370
narslutroka'e paralyzed 0.5000000
ro paralyzed 0.5000000
cu disappeared 0.1666667
pu disappeared 0.1666667
canci disappeared 0.6666667
prosa after 0.0238095
ca after 0.0238095
cfari after 0.0238095
gi after 0.0238095
o'o after 0.0238095
tcini after 0.0238095
NULL after 0.0238095
bagi after 0.0238095
sinti'e after 0.0238095
bajeri'a after 0.0238095
kurji after 0.0238095
ba after 0.3571429
ba'o after 0.0714286
nu after 0.2857143
tivnuzba after 0.0238095
gusni Turn 0.0263158
ko Turn 0.2894737
mo'u Turn 0.0263158
na Turn 0.0263158
gau Turn 0.1842105
akti Turn 0.0526316
gapci Turn 0.0526316
jai Turn 0.0263158
fi Turn 0.0526316
carna Turn 0.1315789
di'anzi Turn 0.0263158
naly'aktygau Turn 0.0263158
ta Turn 0.0526316
fe'e Turn 0.0263158
zenba widened 0.2500000
be widened 0.2500000
ganra widened 0.2500000
mo'u widened 0.2500000
pe worker 0.1428571
gunka worker 0.8571429
lo Using 0.5000000
ka Using 0.2500000
pilno Using 0.2500000
fange strangers 1.0000000
koknoc &apos;noS 0.5000000
terdi &apos;noS 0.5000000
oisai Darn 0.2500000
oi Darn 0.2500000
ki'ai Darn 0.2500000
mabla Darn 0.2500000
ma'urcu'e University 0.2000000
la.aksfrd University 0.2000000
la University 0.4000000
be University 0.2000000
esporte practice 0.2500000
xadgu'a practice 0.5000000
se practice 0.2500000
vimcu remove 1.0000000
bliku blocks 0.5000000
le blocks 0.2500000
cu blocks 0.2500000
lo Understanding 0.3333333
jimpe Understanding 0.3333333
nu Understanding 0.3333333
salvador.dalis Dalí 0.3333333
gi Dalí 0.3333333
la Dalí 0.3333333
gaxygle receiving 1.0000000
pelji record 1.0000000
cumki possible 0.2916667
nu possible 0.1666667
cumfri possible 0.0416667
lakne possible 0.0416667
sarcu possible 0.0416667
bu possible 0.0416667
jai possible 0.0416667
NULL possible 0.0833333
nunka'e possible 0.0416667
makau possible 0.0416667
ca possible 0.0416667
go'i possible 0.0416667
falonu possible 0.0416667
fa possible 0.0416667
litru brief 0.5000000
ze'i brief 0.5000000
derdembi peanuts 1.0000000
tarbi conception 0.3333333
ka conception 0.3333333
se conception 0.3333333
zanru approve 1.0000000
pu inhaled 0.3333333
prenu inhaled 0.3333333
sakci inhaled 0.3333333
xruti home 0.0068027
xrubei home 0.0068027
NULL home 0.0204082
le home 0.1156463
vau home 0.0136054
zvati home 0.0204082
be home 0.0748299
zdazva home 0.0136054
kufra home 0.0068027
rapli home 0.0068027
zdani home 0.6666667
ri home 0.0136054
vo'a home 0.0204082
klingon home 0.0068027
lazyzda home 0.0068027
paiton Python 1.0000000
te help 0.0373832
sisku help 0.0093458
sidju help 0.6822430
djudji help 0.0093458
seldjudji help 0.0093458
si'u help 0.0186916
fukucimas help 0.0093458
ka help 0.0654206
nu help 0.0186916
vau help 0.0186916
lonu help 0.0093458
sadyka'e help 0.0093458
fi help 0.0186916
NULL help 0.0186916
mi help 0.0467290
djucpe help 0.0093458
bebna help 0.0093458
zutse seated 1.0000000
pu'arpanci the 0.0003092
gy the 0.0012369
sefta the 0.0006184
tolci'orai the 0.0003092
brafi'a the 0.0003092
cau the 0.0003092
le the 0.1988250
bloja'a the 0.0009276
jatna the 0.0021645
dai the 0.0003092
nail the 0.0003092
berti the 0.0006184
loldi the 0.0009276
sance the 0.0003092
tanxe the 0.0003092
zaisle the 0.0003092
tarci'e the 0.0006184
temsas the 0.0003092
mi'u the 0.0003092
seltcu the 0.0003092
ta'o the 0.0043290
gau the 0.0003092
xaskoi the 0.0012369
salci the 0.0018553
tanjo the 0.0003092
o'u the 0.0006184
draci the 0.0003092
fonjudri the 0.0006184
pa the 0.0006184
zu'a the 0.0006184
centero the 0.0009276
ly.Schlumbergera the 0.0003092
dyjy the 0.0003092
li the 0.0006184
tisygau the 0.0003092
cmene the 0.0003092
terzu'e the 0.0003092
sefabo the 0.0003092
uikis the 0.0003092
klingon the 0.0003092
tu'u the 0.0003092
fla,ui,us.klaudius.iulianus the 0.0003092
mripre the 0.0003092
nu the 0.0003092
sluji the 0.0006184
terdi the 0.0009276
pagbu the 0.0006184
ji'u the 0.0009276
po'o the 0.0015461
ropamoi the 0.0012369
ningau the 0.0003092
prali the 0.0006184
bu'u the 0.0003092
di'i the 0.0003092
tolna'e the 0.0003092
jdima the 0.0018553
ka'argau the 0.0012369
terse'u the 0.0003092
pilji the 0.0006184
snanu the 0.0012369
o'onai the 0.0003092
selbri the 0.0006184
alfred the 0.0003092
selyli'i the 0.0003092
pluka the 0.0003092
loza'i the 0.0009276
selmacygu'e the 0.0003092
brife the 0.0003092
a'unai the 0.0003092
marji the 0.0003092
cladakyxa'i the 0.0006184
tigbe'e the 0.0003092
stuna the 0.0003092
nuzba the 0.0015461
traji the 0.0061843
nago'i the 0.0003092
xiptenuse the 0.0006184
jimte the 0.0003092
u'ecai the 0.0003092
jvinu the 0.0003092
me'ai the 0.0003092
pritu the 0.0018553
muvdu the 0.0003092
klaji the 0.0006184
vijytcana the 0.0006184
ja the 0.0003092
jicmu the 0.0009276
re the 0.0003092
jetyja'o the 0.0003092
zgicu'a the 0.0003092
baskervil the 0.0003092
cimoi the 0.0003092
banru'usu the 0.0003092
lebna the 0.0003092
crepu the 0.0003092
pamoi the 0.0021645
ra'a the 0.0003092
tolmipri the 0.0003092
cladu the 0.0006184
re'o the 0.0009276
sen the 0.0003092
dakli the 0.0003092
gy.Austin the 0.0006184
sumji the 0.0003092
gloria the 0.0003092
loi the 0.0105133
pi'e the 0.0003092
sau the 0.0003092
lenu the 0.0006184
jiclygau the 0.0003092
Russell the 0.0003092
ciroiku the 0.0003092
fepri the 0.0003092
ckusro the 0.0012369
CIA the 0.0006184
sicpi the 0.0003092
dukti the 0.0003092
limla'u the 0.0003092
canko the 0.0015461
naijgi the 0.0003092
purci the 0.0003092
kongos the 0.0003092
turni the 0.0009276
nynycy the 0.0003092
brogovzi the 0.0003092
raltca the 0.0027829
zu'i the 0.0015461
krinu the 0.0021645
muzga the 0.0006184
krasi the 0.0006184
tansi the 0.0003092
precise the 0.0003092
bisli the 0.0006184
tilju the 0.0003092
internet the 0.0006184
cy'ibu'abus the 0.0003092
jetsku the 0.0012369
dekpu the 0.0006184
ve the 0.0009276
nunjmaji the 0.0003092
vudzu'e the 0.0003092
NULL the 0.0355597
influ'enza the 0.0003092
livga the 0.0003092
bandu the 0.0003092
pasifik the 0.0003092
bedja'a the 0.0006184
stuzi the 0.0024737
saclu the 0.0009276
zgitigni the 0.0003092
lodu'u the 0.0003092
diklo the 0.0009276
reldei the 0.0003092
klark the 0.0003092
kla the 0.0003092
tigni the 0.0003092
olimpiks the 0.0003092
mipri the 0.0003092
zbani the 0.0003092
pe'a the 0.0003092
jicla the 0.0003092
vitke the 0.0006184
rinka the 0.0006184
snomau the 0.0003092
ce'u the 0.0003092
fairgau the 0.0003092
brodo the 0.0003092
lu'i the 0.0003092
ri'u the 0.0003092
sa'e the 0.0006184
jalge the 0.0009276
cmama'a the 0.0006184
nerkalri the 0.0009276
ci'arse'u the 0.0006184
se the 0.0015461
ekra the 0.0006184
kumfa the 0.0003092
bitmu the 0.0003092
bazu the 0.0003092
burj the 0.0003092
barkla the 0.0003092
midju the 0.0015461
slabu the 0.0003092
danfu the 0.0012369
lolnitre'e the 0.0003092
nu,iork the 0.0003092
zu'u the 0.0021645
toldra the 0.0003092
clabajykla the 0.0003092
ultime the 0.0006184
aftobuso the 0.0003092
di'ai the 0.0003092
xekri the 0.0006184
re'u the 0.0003092
trene the 0.0012369
gekrai the 0.0003092
ralju the 0.0024737
xamsi the 0.0003092
gaxygle the 0.0006184
tcana the 0.0003092
gi'o the 0.0003092
ca'i the 0.0003092
borg the 0.0006184
fi'a the 0.0003092
dilcu the 0.0003092
vimku'a the 0.0006184
korbi the 0.0009276
stici the 0.0015461
rafsi the 0.0003092
djabeini'u the 0.0003092
zei.kongos the 0.0003092
kampu the 0.0003092
pofygau the 0.0006184
du the 0.0040198
fi'o the 0.0009276
tric,r,xaceru the 0.0003092
sanga the 0.0003092
crejibri the 0.0003092
jarbu the 0.0003092
pinca the 0.0006184
catra the 0.0003092
za the 0.0006184
lacni the 0.0003092
influ,enzas the 0.0003092
la the 0.0006184
selbancu the 0.0003092
gy.Tatoeba.gy the 0.0003092
gusni the 0.0009276
mebri the 0.0003092
jonsi'u the 0.0006184
munje the 0.0003092
te,odoros the 0.0003092
cimde the 0.0006184
cai the 0.0003092
judrypli the 0.0003092
te'a the 0.0006184
canre the 0.0003092
lorxu the 0.0003092
ganzu the 0.0003092
piso'o the 0.0003092
Mathematica.gy the 0.0003092
ta'onai the 0.0003092
loka the 0.0003092
skucaujmi the 0.0003092
mlana the 0.0003092
nunbrari'a the 0.0003092
kajna the 0.0003092
li'enrafsi the 0.0003092
sezypi'i the 0.0012369
gy.precise.gy the 0.0003092
jbirai the 0.0003092
nagi'a the 0.0003092
mintu the 0.0015461
mulgau the 0.0003092
zmarai the 0.0006184
vidni the 0.0006184
vi'i the 0.0006184
bende the 0.0003092
zarci the 0.0027829
sinso the 0.0003092
seldi'e the 0.0003092
ki'ogra the 0.0003092
cmana the 0.0012369
vu the 0.0003092
zekri the 0.0003092
zdani the 0.0003092
farvi the 0.0009276
smudu'a the 0.0006184
culnygau the 0.0003092
nunpalci the 0.0003092
ci'e the 0.0006184
selte'i the 0.0009276
minra the 0.0003092
selku'e the 0.0003092
nanstici the 0.0003092
panka the 0.0003092
incipe the 0.0006184
dugri the 0.0006184
xagrai the 0.0018553
tcaci the 0.0006184
vomoi the 0.0003092
tcikycartu the 0.0003092
flalu the 0.0006184
ibo the 0.0009276
cpana the 0.0003092
rupnu the 0.0006184
janta the 0.0003092
tolmi'u the 0.0003092
selja'e the 0.0003092
jadni the 0.0006184
skari the 0.0003092
boxna the 0.0006184
lo the 0.5367965
ni'a the 0.0003092
ne'i the 0.0012369
pemci'a the 0.0003092
tarla the 0.0003092
zunle the 0.0003092
ronru'u the 0.0006184
selti'i the 0.0009276
пурди the 0.0003092
kulnu the 0.0006184
ne'a the 0.0003092
ragve the 0.0003092
nunsla the 0.0009276
nu'i the 0.0003092
zgizu'e the 0.0003092
teodoros the 0.0003092
pastu the 0.0003092
nolraitru the 0.0006184
jipno the 0.0003092
lanci the 0.0009276
mrobixsla the 0.0003092
renytcana the 0.0018553
zo'a the 0.0006184
solri the 0.0003092
clarai the 0.0009276
zgikrxumpa the 0.0003092
grusi the 0.0003092
smuni the 0.0024737
patfa the 0.0003092
jaigau the 0.0006184
lunra the 0.0009276
krili the 0.0003092
noltrunau the 0.0006184
reftadni the 0.0003092
sepli the 0.0003092
li'o the 0.0003092
naly'aktygau the 0.0003092
preti the 0.0006184
fe'a the 0.0003092
je'erjinto the 0.0003092
mumplin the 0.0003092
linto the 0.0003092
xi the 0.0003092
kargau the 0.0006184
tenfa the 0.0006184
matci the 0.0003092
di'u the 0.0009276
poi the 0.0021645
lei the 0.0018553
binsaicti the 0.0003092
ruxse'i the 0.0003092
djan the 0.0003092
lanli the 0.0006184
jetnu the 0.0006184
vo'e the 0.0003092
pi the 0.0009276
mabla the 0.0003092
mrodimna the 0.0003092
crisa the 0.0003092
srera the 0.0003092
jilra the 0.0006184
te the 0.0009276
ije'u the 0.0003092
di'inai the 0.0003092
liste the 0.0003092
seti'u the 0.0003092
sorpeka the 0.0003092
fanmo the 0.0003092
zgipli the 0.0003092
taj,ma'al the 0.0003092
fi'ure the 0.0003092
nu'a the 0.0006184
kamcnici the 0.0006184
mulno the 0.0003092
bevri the 0.0006184
sabnu the 0.0003092
tsina the 0.0003092
tanzva the 0.0003092
parbi the 0.0009276
spatrmeliace Meliaceae 1.0000000
zo'u George 0.0666667
djordj George 0.3333333
co'oi George 0.0666667
inaja George 0.1333333
la George 0.3333333
ge'orge George 0.0666667
sinma respected 0.4193548
se respected 0.4193548
vau respected 0.0322581
naku respected 0.1290323
xagji starving 0.5000000
sai starving 0.5000000
la'e AFI 1.0000000
pu became 0.2962963
kenra became 0.0370370
co'a became 0.2962963
pumo'u became 0.0370370
co'arsau became 0.0370370
binxo became 0.2962963
ponjo earthquake 0.2500000
tedydesku earthquake 0.2500000
ri'a earthquake 0.2500000
bu'u earthquake 0.2500000
vrici access 1.0000000
mlatu Cat 1.0000000
fi interpretation 0.5000000
smuni interpretation 0.5000000
tumla parcel 1.0000000
xalbo serious 0.0769231
ckape serious 0.0769231
peizo'onai serious 0.0769231
ka'e serious 0.0769231
zo'onai serious 0.0769231
junri serious 0.6153846
nipon someday 0.3333333
ca someday 0.3333333
da someday 0.3333333
minli miles 0.1428571
zmaile miles 0.1428571
pi'ai miles 0.1428571
li miles 0.1428571
ji'i miles 0.1428571
cu miles 0.1428571
xoi miles 0.1428571
zo zgana 1.0000000
bilga hang 0.5000000
jo hang 0.5000000
lastu Brass 0.5000000
tabra Brass 0.2500000
lo Brass 0.2500000
iu mommy 0.2500000
be mommy 0.2500000
mamta mommy 0.2500000
le mommy 0.2500000
ka helping 0.3333333
sidju helping 0.6666667
se pose 0.4000000
co'a pose 0.2000000
asna pose 0.4000000
xukmi chemistry 0.2500000
silna chemistry 0.2500000
saske chemistry 0.2500000
tu'a chemistry 0.2500000
mi powers 0.1666667
NULL powers 0.1666667
bancu powers 0.1666667
kakne powers 0.1666667
se powers 0.1666667
be powers 0.1666667
ka'enai undetectable 0.5000000
se undetectable 0.5000000
lanme fleece 0.5000000
sunla fleece 0.5000000
salta salad 1.0000000
banlu'atu Latin 0.1666667
xispo Latin 0.1666667
latmo Latin 0.1666667
la'ortu'a Latin 0.1666667
lo Latin 0.3333333
plekarni newspaper 0.3333333
nuzykarni newspaper 0.6666667
gapci Gas 1.0000000
xlamau worse 0.3333333
nilxau worse 0.3333333
xlabi'o worse 0.3333333
ra'oi rafsi 1.0000000
pu attempted 0.3333333
zerpre attempted 0.3333333
troci attempted 0.3333333
jivna swimmers 1.0000000
meg talks 0.0833333
tavla talks 0.5000000
cu talks 0.2500000
simlu talks 0.0833333
xi talks 0.0833333
finpe Fish 0.6666667
lo Fish 0.3333333
jdima enough 0.0208333
djica enough 0.0208333
rau enough 0.1041667
banzu enough 0.4791667
me'i enough 0.0208333
le enough 0.0625000
NULL enough 0.0208333
be'u enough 0.0208333
li enough 0.0416667
u'ibe'u enough 0.0208333
mo'a enough 0.0416667
be enough 0.0625000
rupnu enough 0.0416667
bredi enough 0.0208333
go'i enough 0.0208333
io &apos;am 1.0000000
velsladei Tomorrow 0.1250000
velsla Tomorrow 0.1250000
ka'u Tomorrow 0.1250000
ca Tomorrow 0.2500000
a'ocai Tomorrow 0.1250000
bavlamdei Tomorrow 0.2500000
jbari dissolved 1.0000000
krinu justified 0.4000000
jai justified 0.2000000
se justified 0.4000000
pai × 0.2222222
ve'o × 0.2222222
pi'i × 0.5555556
fi prepare 0.1250000
mi prepare 0.1250000
zi'o prepare 0.1250000
bregau prepare 0.3750000
bredi prepare 0.2500000
ma'a exhausted 0.1666667
klamu'o exhausted 0.1666667
a'enai exhausted 0.3333333
ka exhausted 0.1666667
tatpi exhausted 0.1666667
se enjoy 0.2222222
pluka enjoy 0.2222222
nelci enjoy 0.3333333
nunsla enjoy 0.1111111
li'u" enjoy 0.1111111
cicna turquoise 1.0000000
atlete athlete 1.0000000
certu practical 0.5000000
tcikaizu'e practical 0.5000000
midju midday 0.3333333
ca midday 0.3333333
donri midday 0.3333333
cizra strange 0.9473684
la'ede'u strange 0.0526316
se large 0.0952381
la'u large 0.0476190
barda large 0.6666667
dusbarda large 0.0476190
canlu large 0.0476190
NULL large 0.0952381
de native 0.2500000
djaspa native 0.2500000
simsa native 0.2500000
mamta native 0.2500000
cikna awake 1.0000000
condi bed 0.1034483
ckana bed 0.5172414
sipybi'o bed 0.0344828
sipna bed 0.1379310
ckakla bed 0.1379310
co bed 0.0344828
ctile bed 0.0344828
du Forty-eight 0.2000000
vobi Forty-eight 0.2000000
lo Forty-eight 0.4000000
cacra Forty-eight 0.2000000
NULL properties 1.0000000
malsorgle local 0.2500000
plinici'u local 0.2500000
diklo local 0.2500000
dizlo local 0.2500000
tcica tricked 1.0000000
citka eater 1.0000000
volapuk Volapük 1.0000000
tu'a proud 0.4210526
jgira proud 0.5789474
zutse sank 1.0000000
kajde Beware 0.3333333
o'i Beware 0.3333333
fi Beware 0.3333333
be those 0.0384615
cpacu those 0.0384615
taiku those 0.0384615
nagi'o those 0.0384615
ti those 0.0384615
va those 0.0769231
mintu those 0.0384615
daspo those 0.0769231
girzu those 0.0384615
da those 0.0384615
smani those 0.0384615
ruxyzau those 0.0384615
ra those 0.0384615
NULL those 0.2307692
tricu those 0.0384615
skari those 0.0384615
leva those 0.0384615
vu those 0.0384615
cladakyxa'i those 0.0384615
rozgu roses 1.0000000
bei led 0.3333333
fi'e led 0.3333333
te led 0.3333333
fe Zhuangzi 0.2000000
"lu Zhuangzi 0.2000000
djuanzis Zhuangzi 0.2000000
da'inai Zhuangzi 0.2000000
fau Zhuangzi 0.2000000
seljibri employees 0.5000000
po'o employees 0.5000000
dukti directions 0.2500000
kau directions 0.2500000
ma directions 0.2500000
vi'u directions 0.2500000
troneim Trondheim 1.0000000
cteki levied 1.0000000
xruti Round 0.2000000
NULL Round 0.4000000
je Round 0.2000000
klama Round 0.2000000
go'i strengthens 1.0000000
nu Shopping 0.1666667
ku Shopping 0.1666667
te Shopping 0.1666667
lo Shopping 0.1666667
vecnu Shopping 0.1666667
se Shopping 0.1666667
kei resorting 1.0000000
xilckabu tire 0.6666667
pe tire 0.3333333
likydekpu gallons 0.5000000
se gallons 0.5000000
volratcu Bats 0.5000000
lo Bats 0.5000000
casnu subject 0.0769231
nelrai subject 0.0769231
nunfusra subject 0.0769231
seltadni subject 0.0769231
nunfa'o subject 0.0769231
ro subject 0.1538462
NULL subject 0.1538462
tercu'e subject 0.0769231
moi subject 0.0769231
lo'i subject 0.1538462
dunda granted 0.3333333
vo'u granted 0.3333333
tivni granted 0.3333333
li'anzi chain 1.0000000
te poem 0.1666667
cu'u poem 0.1666667
le poem 0.1666667
mutce poem 0.0833333
xamgu poem 0.0833333
ti poem 0.0833333
pemci poem 0.2500000
ti'u When 0.0294118
nu When 0.0490196
cunso When 0.0098039
mrobixsla When 0.0098039
ma When 0.3529412
NULL When 0.0490196
facki When 0.0098039
zo'e When 0.0098039
puku When 0.0098039
nikol When 0.0098039
go'a When 0.0196078
ca When 0.4411765
NULL mildly 0.1250000
ba'u mildly 0.2500000
nai mildly 0.2500000
se mildly 0.1250000
ru'i mildly 0.1250000
milxe mildly 0.1250000
re'u occasions 1.0000000
cinju'i trying 0.0666667
troci trying 0.6666667
ca'o trying 0.0666667
ku trying 0.0666667
a'i trying 0.1333333
liste log 1.0000000
gunkansa coworkers 0.5000000
pe coworkers 0.5000000
berti outside 0.0476190
bartu outside 0.6190476
barkla outside 0.0952381
bu'u outside 0.1904762
stapa outside 0.0476190
VNC ssh 0.1250000
ssh ssh 0.1250000
gy ssh 0.5000000
la'o ssh 0.1250000
ce'o ssh 0.1250000
la sunlight 0.2000000
fi sunlight 0.2000000
gusni sunlight 0.2000000
sol sunlight 0.2000000
be sunlight 0.2000000
nai sic 0.5000000
le'ai sic 0.5000000
cumla expectations 0.2000000
la expectations 0.2000000
vi expectations 0.2000000
frans expectations 0.2000000
nalgundei expectations 0.2000000
bazigi train 0.0294118
tsina train 0.0294118
trene train 0.7647059
renytcana train 0.0882353
klama train 0.0588235
trenytcana train 0.0294118
sixygu'e Syria 1.0000000
jipci millet 0.3333333
cu millet 0.3333333
cunmi millet 0.3333333
da anyone 0.3250000
celgunta anyone 0.0250000
NULL anyone 0.0250000
ianai anyone 0.0250000
lacri anyone 0.0250000
naku anyone 0.0250000
no anyone 0.0750000
tu'a anyone 0.0250000
su'o anyone 0.1250000
jikca anyone 0.0250000
ku anyone 0.0250000
prenu anyone 0.1750000
poi anyone 0.0500000
jungau anyone 0.0500000
nai Alas 0.3333333
ui Alas 0.5000000
i Alas 0.1666667
i'a i 0.0833333
zo i 0.2500000
ka'o i 0.1666667
si'a i 0.0833333
i'e i 0.0833333
NULL i 0.1666667
nai i 0.0833333
mi i 0.0833333
barna Sunspot 0.5000000
solri Sunspot 0.5000000
ry r 0.6666667
te'o r 0.3333333
noltruti'u princess 1.0000000
ka heros 0.5000000
balpre heros 0.5000000
plipe jumped 0.3500000
fi'o jumped 0.0500000
kei jumped 0.0500000
fo jumped 0.1500000
fi jumped 0.0500000
pu jumped 0.2000000
makau jumped 0.1000000
pipkla jumped 0.0500000
cirla Cheese 1.0000000
lEtsyburg Luxembourg 1.0000000
madjan Mahjong 1.0000000
nu concert 0.1666667
tigzgi concert 0.1666667
zgike concert 0.1666667
zgitigni concert 0.1666667
tigni concert 0.1666667
lenu concert 0.1666667
fi tubes 0.5000000
tubnu tubes 0.5000000
nu offending 0.5000000
cnixai offending 0.5000000
djef Djeff 0.2500000
cu Djeff 0.2500000
la Djeff 0.2500000
po'u Djeff 0.2500000
jgalu Biting 1.0000000
pu noticed 0.6666667
ganse noticed 0.3333333
falnu sail-powered 0.5000000
te sail-powered 0.5000000
cmila laugh 0.4000000
ku'i laugh 0.2000000
ka'e laugh 0.2000000
NULL laugh 0.2000000
se behaviour 0.2500000
tarti behaviour 0.2500000
be behaviour 0.2500000
seltra behaviour 0.2500000
se solutions 0.3333333
danfu solutions 0.3333333
de solutions 0.3333333
la Tal 0.5000000
tal Tal 0.5000000
cusku) stay 0.0250000
stali stay 0.8500000
temci stay 0.0250000
ze'a stay 0.0250000
cikna stay 0.0250000
NULL stay 0.0250000
fi'o stay 0.0250000
prujeftu old 0.0108696
ka old 0.0543478
masti old 0.0108696
laldo old 0.3152174
remu old 0.0108696
paze old 0.0108696
fi old 0.0108696
cirsau old 0.0108696
NULL old 0.0326087
dzena old 0.0108696
tolci'o old 0.1195652
ji'ini'u old 0.0108696
zeno old 0.0108696
tcelaldo old 0.0108696
cino old 0.0108696
slabu old 0.0869565
i'u old 0.0326087
25 old 0.0108696
pabi old 0.0108696
renvi old 0.0326087
puzu old 0.0108696
nanca old 0.1521739
18 old 0.0217391
samske Computer 0.3333333
skami Computer 0.3333333
sampla Computer 0.3333333
rukyjinme Ruthenium 1.0000000
cenba vary 0.3333333
cu vary 0.3333333
vrici vary 0.3333333
preti questions 0.1111111
loi questions 0.0555556
se questions 0.1111111
spuda questions 0.1111111
zo'ei questions 0.0555556
da questions 0.0555556
ka'e questions 0.0555556
retsku questions 0.2777778
tai questions 0.0555556
frati questions 0.0555556
so'u questions 0.0555556
pu future 0.0909091
le future 0.0909091
NULL future 0.3636364
simta'a future 0.0909091
te future 0.0909091
balvi future 0.0909091
bavycu'i future 0.0909091
bazu future 0.0909091
snomau more 0.0078740
da more 0.0078740
ce'u more 0.0078740
la'e more 0.0078740
mau more 0.0314961
vajmau more 0.0078740
su'epa more 0.0157480
verba more 0.0078740
zmadu'a more 0.0078740
za'umei more 0.0078740
semauku more 0.0078740
zdizma more 0.0393701
mentu more 0.0157480
blondine more 0.0078740
ne more 0.0314961
ke'arboiterjvi more 0.0078740
bu'onai more 0.0078740
fa more 0.0078740
ekstra more 0.0078740
za'uda more 0.0078740
loka more 0.0078740
muno more 0.0078740
ki'o more 0.0078740
pacpre more 0.0157480
la'aru'e more 0.0078740
zengau more 0.0157480
zmudu'a more 0.0078740
NULL more 0.1023622
za'ureroi more 0.0078740
re'u more 0.0078740
loglo more 0.0078740
ka more 0.0393701
patspu more 0.0078740
semau more 0.0078740
zasti more 0.0078740
ru'u more 0.0078740
datni more 0.0078740
za'uva'e more 0.0078740
munoki'o more 0.0078740
vaizma more 0.0078740
skusno more 0.0157480
cirvai more 0.0078740
zmadu more 0.1574803
no'i more 0.0078740
za'u more 0.0393701
pamuno more 0.0078740
ni more 0.0236220
se more 0.0472441
roi more 0.0078740
ce'oi more 0.0078740
zei'a more 0.0078740
za'umoi more 0.0078740
zenba more 0.0866142
xalbebna more 0.0078740
ziljmina more 0.0078740
toltatpi more 0.0078740
fi quoted 0.3333333
te quoted 0.3333333
sitna quoted 0.3333333
li 11 0.2500000
vu'u 11 0.1250000
papa 11 0.1250000
cy 11 0.1250000
fei 11 0.1250000
pa 11 0.2500000
o'i pickpockets 0.5000000
zerle'a pickpockets 0.5000000
poi babe 0.2500000
cmene babe 0.2500000
cu babe 0.2500000
cinmle babe 0.2500000
certu phlebotomist 0.5000000
be phlebotomist 0.5000000
celxa'i Guns 0.5000000
lo Guns 0.5000000
cerman Sherman 1.0000000
tcad Chad 1.0000000
mivytcuxu'i B3 1.0000000
fa Yoda 0.2500000
la.iodas Yoda 0.2500000
co'a Yoda 0.2500000
certu Yoda 0.2500000
lafti lifting 1.0000000
frinu 2 0.0281690
ni'u 2 0.0140845
xo 2 0.0140845
su'i 2 0.0140845
pi'i 2 0.0281690
ronru'u 2 0.0140845
pi'e 2 0.0140845
xampo 2 0.0140845
sumji 2 0.0140845
mikri 2 0.0140845
ju'u 2 0.0140845
re 2 0.4084507
NULL 2 0.0140845
2 2 0.0140845
du 2 0.0140845
li 2 0.3661972
nu hopes 0.5000000
pacna hopes 0.5000000
tcima storm 0.2222222
cabna'a storm 0.1111111
NULL storm 0.1111111
pulce storm 0.1111111
vlile storm 0.3333333
selnu'e storm 0.1111111
lo Language 0.3333333
iunai Language 0.3333333
bangu Language 0.3333333
plibu pubis 0.2500000
pi'o pubis 0.2500000
be pubis 0.2500000
se pubis 0.2500000
lo'e Bike 0.3333333
bei Bike 0.3333333
pudydi'u Bike 0.3333333
teodoros rose 0.1111111
rozgu rose 0.5555556
te,odoros rose 0.1111111
denmi rose 0.1111111
narzutse rose 0.1111111
naldamtanko substitute 0.5000000
basti substitute 0.5000000
zi'o Visits 0.3333333
cu Visits 0.3333333
vitke Visits 0.3333333
poi fool 0.0769231
bebna fool 0.5384615
ke'a fool 0.0769231
ba'e fool 0.0769231
ponse fool 0.0769231
NULL fool 0.0769231
sai fool 0.0769231
timske Meteorology 1.0000000
flalu Law 1.0000000
ie yes 0.0714286
zo yes 0.2142857
ku yes 0.0714286
go'i yes 0.0714286
iesai yes 0.0714286
xu yes 0.0714286
ku'o yes 0.0714286
uicai yes 0.0714286
NULL yes 0.0714286
drani yes 0.0714286
po'o yes 0.0714286
jo'a yes 0.0714286
foldi woods 0.1666667
tricu woods 0.1666667
selzda woods 0.1666667
ricfoi woods 0.5000000
lenin Vladimir 1.0000000
cusku Correct 0.3333333
fi Correct 0.3333333
ko Correct 0.3333333
se brains 0.3333333
da brains 0.3333333
besna brains 0.3333333
poi places 0.1250000
NULL places 0.1250000
stuzi places 0.3750000
ce'o places 0.3750000
smadi Guess 0.2727273
i Guess 0.0909091
go'i Guess 0.1818182
fonjontoi Guess 0.0909091
du'u Guess 0.0909091
ko Guess 0.2727273
ka guide 0.0833333
kau guide 0.0833333
mi'ai guide 0.0833333
cu guide 0.2500000
gidva guide 0.3333333
be guide 0.0833333
xamgu guide 0.0833333
kaspulji riot 1.0000000
seti'u convenient 1.0000000
kei inherited 0.3333333
cerda inherited 0.6666667
melbi countryside 0.2500000
nurma countryside 0.5000000
isemu'ibo countryside 0.2500000
di'i sporadically 0.5000000
di'inai sporadically 0.5000000
melbi handsome 1.0000000
pu sat 0.5000000
zutse sat 0.3333333
tsebi'o sat 0.1666667
za'ojmidanlu acted 1.0000000
lifri jolt 1.0000000
zasti exists 0.3888889
ku exists 0.1111111
tivni exists 0.0555556
kei exists 0.0555556
cu exists 0.3333333
NULL exists 0.0555556
ka sweet 0.0454545
sumne sweet 0.0454545
titla sweet 0.6818182
pukclite sweet 0.0909091
kukte sweet 0.1363636
ba replies 0.2000000
zo replies 0.2000000
spusku replies 0.4000000
masno replies 0.2000000
mlatu mlatu 1.0000000
lunra Mankind 1.0000000
ganlygau Shut 0.1428571
tavla Shut 0.1428571
sisti Shut 0.1428571
ko Shut 0.4285714
ga'orgau Shut 0.1428571
tolsre Thank 0.0250000
ki'ecai Thank 0.0500000
so'iva'e Thank 0.0250000
mi Thank 0.0750000
ckire Thank 0.2750000
ki'e Thank 0.3750000
uo.oinai Thank 0.0250000
ki'esai Thank 0.0250000
sai Thank 0.1250000
19xyxymoi 20th 1.0000000
jinmrfermi Fermium 1.0000000
blobe'e outfit 1.0000000
zinki Zinc 1.0000000
imposta impersonated 0.2000000
pu impersonated 0.4000000
jifkritrazu'e impersonated 0.2000000
ka impersonated 0.2000000
kei advantage 0.2500000
loka advantage 0.2500000
ki'u advantage 0.2500000
prali advantage 0.2500000
steci specific 1.0000000
tam residence 1.0000000
xendo fair 0.2000000
io fair 0.2000000
pa'enai fair 0.2000000
re'e fair 0.2000000
pairnu'i fair 0.2000000
ctuca Professors 1.0000000
ca permanent 0.2500000
ru'i permanent 0.2500000
nu permanent 0.2500000
vitno permanent 0.2500000
zgana ghost 0.3333333
pruxi ghost 0.6666667
alfabeta Phonetic 1.0000000
noltruni'u &apos; 0.0476190
say &apos; 0.0238095
dat.seventiz.cous &apos; 0.0238095
selmri &apos; 0.0238095
ni'o &apos; 0.0238095
mabla &apos; 0.0238095
you &apos; 0.0238095
apple.” &apos; 0.0238095
terjbe &apos; 0.0238095
ckule &apos; 0.1666667
cfika &apos; 0.0238095
be &apos; 0.0714286
rirni &apos; 0.0952381
in &apos; 0.0238095
zo &apos; 0.0238095
kilto &apos; 0.0238095
ba'e &apos; 0.0238095
plini &apos; 0.0238095
Lojban?.gy &apos; 0.0238095
do'anai &apos; 0.0476190
an &apos; 0.0238095
influ'enza &apos; 0.0238095
NULL &apos; 0.1190476
ra'oi &apos; 0.0238095
aftobuso &apos; 0.0238095
cortu agonizing 0.5000000
mutce agonizing 0.5000000
za'u daughters 0.0909091
xerbert daughters 0.1818182
tixnu daughters 0.4545455
da daughters 0.2727273
litki liquid 1.0000000
sance trumpet 0.2500000
be trumpet 0.5000000
tabra trumpet 0.2500000
brogovzi wabe 1.0000000
nu'ogle virgin 1.0000000
tolcmu arbitrary 1.0000000
xunsodna Rubidium 1.0000000
bitni 1000 0.2500000
se 1000 0.2500000
dugri 1000 0.2500000
sonci 1000 0.2500000
dzipo Southern 1.0000000
la Hawaii 0.2857143
la.xauaiis Hawaii 0.1428571
xavais Hawaii 0.1428571
klama Hawaii 0.2857143
xauaiis Hawaii 0.1428571
za'e derped 0.2500000
derpi derped 0.2500000
pu derped 0.2500000
i derped 0.2500000
NULL thousands 0.2500000
kilto thousands 0.2500000
za'u thousands 0.2500000
ki'o thousands 0.2500000
MP3 player 0.2000000
zgica'a player 0.2000000
selsnatci player 0.2000000
mypyci player 0.2000000
zei player 0.2000000
zi dies 0.0526316
pacna dies 0.1052632
nu dies 0.1052632
sei dies 0.0526316
mrobi'o dies 0.2631579
romoi dies 0.1578947
platon dies 0.0526316
cu dies 0.2105263
poxiol Pohjola 1.0000000
panamas Panama 1.0000000
zvati ? 0.0005015
selpluka ? 0.0005015
zipu'o ? 0.0005015
be'e ? 0.0025075
eipei ? 0.0010030
NULL ? 0.4854564
e'apei ? 0.0005015
re'i ? 0.0010030
vi'opei ? 0.0010030
ba'anaipei ? 0.0005015
kambebna ? 0.0005015
audaipei ? 0.0005015
e'o ? 0.0010030
na'ipei ? 0.0005015
i'epei ? 0.0005015
uu.oipei ? 0.0005015
peije'u ? 0.0005015
do ? 0.0065196
xo ? 0.0050150
selstidi ? 0.0005015
aupei ? 0.0005015
xrakarni ? 0.0005015
xuku ? 0.0005015
i ? 0.0005015
mo ? 0.0471414
ji ? 0.0015045
ba'oxuku ? 0.0005015
ju'oipei ? 0.0005015
skusno ? 0.0005015
le ? 0.0010030
