rectu meat 0.5833333
smacyrectu meat 0.0833333
ractyrectu meat 0.0833333
sanmi meat 0.0833333
geryrectu meat 0.0833333
smani meat 0.0833333
kamcnici balance 1.0000000
NULL Alice 0.0606061
.alis. Alice 0.3333333
alis. Alice 0.0303030
alis Alice 0.1212121
la Alice 0.4242424
.i Alice 0.0303030
brilugi gyre 1.0000000
co blue 0.0454545
blanu blue 0.8181818
gekygau blue 0.0454545
blabu blue 0.0454545
.i blue 0.0454545
carmi brightened 1.0000000
zo hamster 1.0000000
so'iroi too 0.0125000
NULL too 0.0750000
ji'a too 0.1500000
nadydu'e too 0.0125000
sutra too 0.0125000
datygugvi'e too 0.0250000
duslai too 0.0125000
ra'o too 0.0125000
ki'ecai too 0.0125000
si'a too 0.0250000
dukse too 0.4125000
go'ira'o too 0.0125000
dusbarda too 0.0125000
mutce too 0.0250000
toldu'e too 0.0250000
go'i too 0.0250000
dukce too 0.0125000
kelvo too 0.0250000
du'e too 0.1000000
la'oi Coke 0.1000000
Coke Coke 0.1000000
kokakolas Coke 0.1000000
la'o Coke 0.1000000
me Coke 0.2000000
la Coke 0.1000000
loi Coke 0.2000000
gy.Coke.gy. Coke 0.1000000
tsapi seasoned 1.0000000
nu'a -3 0.1666667
li -3 0.3333333
ci -3 0.1666667
va'a -3 0.1666667
ni'u -3 0.1666667
ju'opei certain 0.1428571
birti certain 0.3571429
fa certain 0.0714286
ju'o certain 0.1428571
baskervil certain 0.0714286
NULL certain 0.1428571
jmive certain 0.0714286
jmive Life 0.1666667
lo Life 0.3333333
pluka Life 0.0833333
nu Life 0.1666667
ku Life 0.0833333
nunji'e Life 0.1666667
blotrskunri schooner 1.0000000
cidjrsuci fantastic 0.2000000
manci fantastic 0.2000000
mutce fantastic 0.2000000
se fantastic 0.2000000
pluka fantastic 0.2000000
zi'o holy 0.3333333
censa holy 0.6666667
cmene Nakano 0.2500000
se Nakano 0.2500000
la.nakanon. Nakano 0.2500000
.naun.nakano. Nakano 0.2500000
catra committed 0.5000000
pu committed 0.2500000
sorselnelci committed 0.2500000
.enai but 0.0082645
.u'u but 0.0082645
linsi but 0.0082645
je but 0.0413223
pyd but 0.0082645
da'a but 0.0082645
lojban. but 0.0082645
enai but 0.0413223
gi'eku'i but 0.0165289
flulimna but 0.0082645
za'i but 0.0082645
.anas. but 0.0082645
NULL but 0.0826446
.e'enai but 0.0082645
cu'i but 0.0165289
lityta'u but 0.0082645
seri'anai but 0.0082645
lakne but 0.0082645
i but 0.0165289
selplicru but 0.0082645
gi'e but 0.0330579
tenfa but 0.0082645
nai but 0.0082645
ri'anai but 0.0082645
cinpa'i but 0.0082645
.ijeku'i but 0.0165289
ku'i but 0.4545455
termenvoks but 0.0082645
ta'a but 0.0082645
na.e but 0.0082645
stace but 0.0082645
za'ojmidanlu but 0.0082645
gi but 0.0082645
mu'inai but 0.0082645
frili but 0.0082645
nunlitru but 0.0082645
drata but 0.0082645
naja but 0.0082645
bu but 0.0082645
.ianai but 0.0082645
vu'o but 0.0082645
najeku'i but 0.0082645
.ije but 0.0082645
da free 0.0555556
no free 0.1111111
ti free 0.0555556
cuxykamvli free 0.0555556
zifre free 0.4444444
.e'icu'i free 0.0555556
NULL free 0.0555556
dejni free 0.0555556
jdima free 0.0555556
.e'u free 0.0555556
vi library 0.0740741
po library 0.0370370
ckuzda library 0.1481481
tezu'e library 0.0740741
poi library 0.0370370
ckusro library 0.4814815
ckudi'u library 0.1481481
li square 0.2000000
xedja square 0.2000000
fe'a square 0.2000000
NULL square 0.4000000
ganlygau Shut 0.2000000
ko Shut 0.6000000
ga'orgau Shut 0.2000000
sormemkarce furst 0.5000000
pamoi furst 0.5000000
mleca faster 0.0769231
dai faster 0.0769231
ro'o faster 0.0769231
sutyzma faster 0.0769231
mo'u faster 0.0769231
sutra faster 0.3076923
ze'a faster 0.0769231
nai faster 0.0769231
ku faster 0.0769231
la.ken. faster 0.0769231
xu Really 0.2000000
go'i Really 0.0666667
jetnu Really 0.0666667
peije'u Really 0.1333333
mu'ima Really 0.1333333
ki'uma Really 0.1333333
je'upei Really 0.0666667
ge'e Really 0.0666667
.uesai Really 0.1333333
nazbi Nose 1.0000000
fla,ui,us.klaudius.iulianus Apostate 1.0000000
lurcmu Selenium 1.0000000
bo animals 0.0714286
.iseni'inai animals 0.0714286
poi animals 0.0714286
danlu animals 0.7857143
jimca branches 1.0000000
ka omnivores 0.3333333
.omni omnivores 0.3333333
citka omnivores 0.3333333
.tomas. likes 0.0192308
kalte likes 0.0192308
si'a likes 0.0192308
cu likes 0.1730769
ny likes 0.0192308
golf likes 0.0192308
nelci likes 0.7115385
cumymu'efi'a likes 0.0192308
tarci Star 1.0000000
tu'a Apparently 0.1428571
bai Apparently 0.0714286
zei'a Apparently 0.0714286
za'a Apparently 0.4285714
.i Apparently 0.1428571
si'au Apparently 0.1428571
julne net 0.4000000
li net 0.2000000
te net 0.2000000
mei net 0.2000000
jgari falling 0.2000000
nu falling 0.2000000
farlu falling 0.2000000
fanta falling 0.2000000
mu'i falling 0.2000000
ogauas Ogawa 1.0000000
ba'o suffered 0.5000000
lifri suffered 0.5000000
smadi guessed 1.0000000
nepal Nepal 0.2500000
Nepal Nepal 0.2500000
nePAL. Nepal 0.2500000
la Nepal 0.2500000
jinmrproktini Protactinium 1.0000000
toldjica issue 0.3333333
ko'a issue 0.3333333
kei issue 0.3333333
1xyxyxymoi 2nd 1.0000000
cikre repair 1.0000000
ka effort 0.2000000
secau effort 0.2000000
cikybi'o effort 0.2000000
gunka effort 0.2000000
nandu effort 0.2000000
nintendos Nintendo 1.0000000
ctrant. well-known 0.3333333
je well-known 0.3333333
javni well-known 0.3333333
culno His 0.0156250
seltra His 0.0156250
bruni His 0.0156250
mensi His 0.0312500
ko'a His 0.1406250
ranji His 0.0156250
fetsi His 0.0156250
ra His 0.1250000
ckana His 0.0156250
tom. His 0.0312500
.djaberuakis. His 0.0156250
patfu His 0.0625000
te His 0.0156250
runkre His 0.0156250
smaji His 0.0156250
stati His 0.0156250
speni His 0.0156250
ue His 0.0156250
smoka His 0.0156250
lo His 0.2656250
mamtu His 0.0156250
sidbo His 0.0156250
seldau His 0.0156250
le His 0.0781250
xantamji thumb 0.5000000
tamji thumb 0.5000000
glare warm 0.3000000
fa warm 0.1000000
mligla warm 0.1000000
li warm 0.1000000
no warm 0.1000000
milxe warm 0.2000000
de'i warm 0.1000000
pijyske philosophy 1.0000000
banli Terrific 1.0000000
tolxagji full 0.0769231
va'e full 0.0769231
so'i full 0.0769231
sucysmadi full 0.0769231
culno full 0.4615385
pimu full 0.0769231
saksruseibo'i full 0.0769231
vasru full 0.0769231
bende group 0.1250000
tolkansa group 0.1250000
girzu group 0.1250000
te group 0.1250000
NULL group 0.1250000
lo'i group 0.1250000
bedja'a group 0.2500000
relxilma'ekla bike 0.1428571
ku bike 0.1428571
relxilma bike 0.1428571
ta'e bike 0.1428571
relxilma'e bike 0.2857143
ca bike 0.1428571
se wisdom 0.3333333
cibmakfa wisdom 0.3333333
prije wisdom 0.3333333
tu'a proud 0.4000000
jgira proud 0.5000000
le proud 0.1000000
critu autumn 1.0000000
klezba category 1.0000000
drudi roof 1.0000000
"lu Zhuangzi 0.2000000
da'inai Zhuangzi 0.2000000
djuanzis Zhuangzi 0.2000000
fau Zhuangzi 0.2000000
fe Zhuangzi 0.2000000
cecmu colony 0.5000000
cu colony 0.5000000
panci perfume 1.0000000
tcimpazi Chimpanzee 1.0000000
do Welcome 0.1666667
fi Welcome 0.1666667
vitke Welcome 0.0555556
zanvi'e Welcome 0.1666667
fi'i Welcome 0.3888889
vau Welcome 0.0555556
la.djimis. Jimmy 1.0000000
ti Give 0.0645161
.e'i Give 0.0322581
ze'i Give 0.0645161
ko Give 0.4838710
dunda Give 0.3548387
dembi stew 1.0000000
pulji police 0.6315789
kaspulji police 0.0526316
tcana police 0.2105263
loi police 0.1052632
najnimre Oranges 0.5000000
lo Oranges 0.5000000
NULL Cthulhu 0.5000000
ca Cthulhu 0.5000000
tadni discipline 0.2500000
nunfanva discipline 0.2500000
se discipline 0.2500000
cu discipline 0.2500000
velmicyspa herb 1.0000000
tolsnuti deliberate 0.5000000
se deliberate 0.5000000
simsa like 0.0567568
gleki like 0.0027027
nelci like 0.5405405
cinmo like 0.0108108
tolnelci like 0.0027027
ganse like 0.0054054
NULL like 0.0783784
canja like 0.0054054
ciplanli like 0.0027027
ce'oi like 0.0054054
mujyku'e like 0.0027027
nelrai like 0.0027027
lo like 0.0054054
dansu like 0.0027027
VFD like 0.0027027
zmanei like 0.0027027
se'u like 0.0027027
latsna like 0.0027027
barjyse'u like 0.0027027
gercmo like 0.0054054
.mikelAnjelos. like 0.0027027
pu'arpanci like 0.0027027
an like 0.0027027
peidzu like 0.0027027
xerskudji like 0.0027027
ianai like 0.0027027
au like 0.0162162
zukybajra like 0.0027027
ternupcpe like 0.0027027
du'i like 0.0027027
si'au like 0.0027027
pa'a like 0.0054054
.a'udai like 0.0027027
pe'udo'u like 0.0054054
tai like 0.0243243
lizdu'o like 0.0027027
ro'o like 0.0027027
pluka like 0.0027027
grute like 0.0027027
simlu like 0.0027027
mintu like 0.0027027
djica like 0.0729730
zirsmela like 0.0027027
aupei like 0.0027027
si'erskiji like 0.0027027
u'esai like 0.0027027
.iunai like 0.0027027
.e'a like 0.0027027
li'i like 0.0081081
tubypa'i like 0.0027027
ai like 0.0027027
velskina like 0.0027027
.au like 0.0135135
.iuru'enai like 0.0027027
smimlu like 0.0054054
malsorgle like 0.0054054
cirla like 0.0027027
nunsrera like 0.0054054
tu'a like 0.0135135
flaume like 0.0054054
gunkansa coworker 0.5000000
pe coworker 0.5000000
la basis 1.0000000
cinba kisses 0.5000000
le kisses 0.5000000
gaxygle anal 1.0000000
larfi'i artist 0.5000000
tcexau artist 0.5000000
sovda eggs 0.5454545
ri eggs 0.0909091
NULL eggs 0.1818182
cu eggs 0.0909091
tolnelci eggs 0.0909091
rafael.del.riegos Riego 1.0000000
roi obedience 1.0000000
du'u walking 0.3333333
cadzu walking 0.5000000
ca'o walking 0.1666667
e'a May 0.0588235
reisku May 0.0588235
e'apei May 0.2352941
pruxi May 0.0588235
cmene May 0.0588235
dy May 0.0588235
.e'o May 0.0588235
.e'apei May 0.2352941
xu May 0.1176471
pei May 0.0588235
tolrinsa him 0.0068966
be'o him 0.0068966
xobit. him 0.0068966
nuzba him 0.0068966
zy. him 0.0068966
bitygau him 0.0068966
curmi him 0.0068966
bargu him 0.0068966
tom. him 0.0137931
de'i him 0.0068966
pongu'e him 0.0068966
.ije'u him 0.0068966
jei him 0.0068966
ko'e him 0.0689655
cpedu him 0.0137931
xebni him 0.0068966
cabvanci him 0.0068966
da'apa him 0.0137931
ta him 0.0137931
misiz.parkyr him 0.0068966
tefengu him 0.0068966
patpei him 0.0068966
jungau him 0.0068966
tinbe him 0.0068966
selcelmrogau him 0.0068966
Parker.gy. him 0.0068966
pambi'o him 0.0068966
zdimi'a him 0.0068966
zvati him 0.0068966
micyxu'i him 0.0068966
py him 0.0068966
selyli'i him 0.0068966
ty. him 0.0068966
gungunma him 0.0137931
ra him 0.2137931
moltenva'u him 0.0068966
vo'a him 0.0137931
tersa'a him 0.0068966
ko'a him 0.3379310
tercarvi him 0.0068966
dormijysai him 0.0068966
nakni him 0.0344828
poi him 0.0068966
su'oroi him 0.0068966
ri him 0.0206897
rupsra him 0.0068966
drani fine 0.1428571
xamgu fine 0.2857143
.ui fine 0.2857143
ki'e fine 0.1428571
.uicu'i fine 0.1428571
poi country 0.0606061
gugde country 0.6969697
tergu'e country 0.0303030
bargu'e country 0.0303030
cmima country 0.0606061
se country 0.0303030
lo'e country 0.0303030
nurma country 0.0303030
cu country 0.0303030
vifne Fresh 0.1666667
bazi Fresh 0.1666667
cnino Fresh 0.1666667
nitcu Fresh 0.1666667
loi Fresh 0.3333333
minli mile 0.2500000
li mile 0.2500000
be mile 0.2500000
NULL mile 0.2500000
tu'a Stress 1.0000000
klama Mexico 0.1428571
mexno Mexico 0.1428571
mexygu'e Mexico 0.7142857
la Cain 0.5000000
kain Cain 0.5000000
halloween Halloween 0.1250000
xalo,uin Halloween 0.1250000
xalouin Halloween 0.1250000
gy.Halloween.gy. Halloween 0.1250000
la'o Halloween 0.1250000
di'ai Halloween 0.1250000
me Halloween 0.1250000
la'oi Halloween 0.1250000
jungau immediately 0.1538462
su'o immediately 0.0769231
zi immediately 0.1538462
sai immediately 0.1538462
ckaku'a immediately 0.0769231
prenu immediately 0.0769231
ba immediately 0.1538462
zo'u immediately 0.0769231
ko immediately 0.0769231
cu foreigners 0.3333333
vitke foreigners 0.3333333
fange foreigners 0.3333333
Council.gy. Austin 0.5000000
se Austin 0.5000000
cipra exam 0.7500000
kamjunmre exam 0.1250000
eksameno exam 0.1250000
cmima users 0.1111111
cu users 0.1111111
milxe users 0.1111111
le'e users 0.1111111
pilno users 0.2222222
marna users 0.1111111
tatoebas users 0.1111111
do'anai users 0.1111111
fi'ortu'a Lions 1.0000000
zbepi pedestal 0.5000000
pe'a pedestal 0.5000000
tu'a example 0.0625000
mupli example 0.3125000
zo'oi example 0.0625000
mu'a example 0.3125000
bau example 0.0625000
tarmi example 0.0625000
NULL example 0.0625000
ta'u example 0.0625000
sorprekarcytcana bus 0.0810811
basfa bus 0.1351351
sorpeka bus 0.0540541
sorprekarce bus 0.3243243
sormemkarce bus 0.0810811
NULL bus 0.0270270
poi bus 0.1081081
aftobuso bus 0.1891892
jetce runny 0.3333333
cu runny 0.3333333
te runny 0.3333333
tepri'apre hated 0.5000000
xebni hated 0.5000000
10 fast 0.0270270
pa fast 0.0540541
faursutrytce fast 0.0270270
sutra fast 0.6486486
NULL fast 0.0270270
5 fast 0.0270270
julbaco fast 0.1081081
mentu fast 0.0540541
lerci fast 0.0270270
ka increases 0.3333333
memkai increases 0.3333333
ce'u increases 0.3333333
du'u manners 0.3333333
tarti manners 0.6666667
zei Market 0.2500000
zarci Market 0.2500000
cu Market 0.2500000
iba,an Market 0.2500000
milxe somewhat 0.5000000
ko somewhat 0.5000000
nu'ogle virgin 1.0000000
kunti vacuum 0.2500000
roda vacuum 0.2500000
spoja vacuum 0.2500000
be vacuum 0.2500000
xu Or 0.2000000
ki'a Or 0.2000000
NULL Or 0.2000000
cu'e Or 0.2000000
je'i Or 0.2000000
mic. Dr. 0.5000000
le Dr. 0.5000000
salci celebrating 0.5000000
ma celebrating 0.5000000
tutra native 0.2500000
rukybau native 0.2500000
NULL native 0.2500000
mamta native 0.2500000
su'i + 0.2500000
NULL + 0.2500000
du + 0.2500000
ma'ubu + 0.2500000
mo do-what 1.0000000
fanva Translate 0.5000000
ko Translate 0.5000000
i creative 1.0000000
mencti watching 0.0588235
je watching 0.0588235
catlu watching 0.1176471
zgana watching 0.4705882
sanli watching 0.1176471
nu watching 0.1764706
la.umemuran. Umemura 0.2500000
fo Umemura 0.2500000
mi'a Umemura 0.2500000
ctuca Umemura 0.2500000
muvdu moving 0.4000000
basti moving 0.2000000
zdani moving 0.2000000
pagmu'u moving 0.2000000
ui Sigh 0.5000000
nai Sigh 0.5000000
la Bread 0.1000000
lo Bread 0.3000000
nanba Bread 0.6000000
kuarizmis al-Khwārizmī 1.0000000
mi'afra laughing 0.2500000
cmila laughing 0.7500000
zo.tatoebas. mean 0.0555556
zukte mean 0.0277778
selsmu mean 0.0277778
tolsi'a mean 0.0277778
smudji mean 0.0277778
smuni mean 0.1666667
naka'enai mean 0.0277778
skudji mean 0.0277778
zoi mean 0.1111111
.ai mean 0.0277778
si mean 0.0555556
kampu mean 0.0277778
NULL mean 0.0833333
te mean 0.0833333
Tatoeba mean 0.1111111
cnixai mean 0.0277778
fi mean 0.0833333
.tsar. czar 1.0000000
pe mouthful 0.5000000
molylai mouthful 0.5000000
cumri'a impact 0.3333333
nu impact 0.3333333
tcemalcne impact 0.3333333
coi Hi 0.9615385
co'oi Hi 0.0384615
fi area 0.1111111
se area 0.1111111
tutra area 0.1111111
diklo area 0.1111111
NULL area 0.1111111
be area 0.1111111
.nu,iork. area 0.1111111
vi area 0.1111111
la area 0.1111111
toltatpi energy 0.5000000
ni energy 0.5000000
Chi Chi 1.0000000
xeldraci Actor 1.0000000
pensi reflect 1.0000000
cu locked 0.5000000
telga'o locked 0.5000000
lo Birds 0.1250000
loi Birds 0.2500000
cipni Birds 0.5000000
lo'e Birds 0.1250000
se doubted 1.0000000
tcidu read 0.6805556
cusku read 0.0138889
ke'a read 0.0555556
ve read 0.0138889
pu read 0.0138889
cajapu read 0.0138889
naje read 0.0138889
fi read 0.0972222
skucaujmi read 0.0138889
ka read 0.0138889
za'i read 0.0138889
dei read 0.0416667
NULL read 0.0138889
cfipu sense 0.1111111
ti sense 0.1111111
racli sense 0.3333333
mutce sense 0.1111111
NULL sense 0.1111111
fau sense 0.1111111
kaurselju'o sense 0.1111111
zvati spent 0.2500000
selgei spent 0.2500000
ze'u spent 0.2500000
so'i spent 0.2500000
za'ure'u reproducible 0.4000000
.ibo reproducible 0.2000000
se reproducible 0.2000000
gasnu reproducible 0.2000000
jukpa cook 0.8181818
pu cook 0.0909091
nu cook 0.0909091
darlu objection 0.3333333
ko'a objection 0.3333333
fi objection 0.3333333
rikybakfu bitch 1.0000000
la.bil. Bill 0.1200000
doi Bill 0.0400000
la Bill 0.3200000
bil Bill 0.2000000
bil. Bill 0.0800000
ka'e Bill 0.0400000
.bil. Bill 0.2000000
.i silly 0.0526316
ta'u silly 0.1578947
nai silly 0.0526316
ka silly 0.1052632
pesyja'o silly 0.0526316
bebna silly 0.3157895
xajmi silly 0.0526316
se silly 0.1578947
i silly 0.0526316
lisri stories 0.4285714
poi stories 0.1428571
bau stories 0.1428571
pruce stories 0.1428571
soi stories 0.1428571
stagau anchor 1.0000000
NULL deep 0.2500000
je deep 0.2500000
condi deep 0.5000000
uikipidias Wikipedia 1.0000000
lu'orgu'e Lebanon 1.0000000
la Milan 0.3333333
.milAn. Milan 0.1666667
Milan Milan 0.1666667
se Milan 0.1666667
zdani Milan 0.1666667
tarla soot 1.0000000
jimpe figure 0.3333333
darno figure 0.3333333
djuno figure 0.3333333
ricfu rich 0.9473684
ca rich 0.0526316
ctuca chapter 0.3333333
pagbu chapter 0.3333333
te chapter 0.3333333
risna Hearts 0.3333333
la Hearts 0.3333333
noltruni'u Hearts 0.3333333
dijysenta floor 0.1111111
loldi floor 0.8888889
.karmen. Carmen 0.5000000
la Carmen 0.5000000
be handle 0.2000000
jitro handle 0.2000000
te handle 0.2000000
se handle 0.2000000
spuda handle 0.2000000
bancuvysi'o Linguistic 1.0000000
klama Karen 0.2000000
karen Karen 0.2000000
fi Karen 0.2000000
ma Karen 0.2000000
doi Karen 0.2000000
se fuel 0.2857143
ctile fuel 0.1428571
livla fuel 0.2857143
kosmu fuel 0.1428571
ka fuel 0.1428571
klina skies 0.3333333
tsani skies 0.3333333
za'umei skies 0.3333333
jdazei sin 1.0000000
finti Mathematica 0.1578947
Mathematica.gy. Mathematica 0.0526316
zoi Mathematica 0.2105263
Principia Mathematica 0.1052632
gy.Principia Mathematica 0.0526316
ce'u Mathematica 0.1578947
la'o Mathematica 0.1578947
Mathematica Mathematica 0.1052632
simon.bolivar Bolívar 1.0000000
nu climbing 0.4000000
cpare climbing 0.6000000
tu'a MP3 0.3333333
mypyci MP3 0.3333333
selsnatci MP3 0.3333333
maikl. Turniansky 1.0000000
jgari Grab 0.5000000
ko Grab 0.5000000
.cy Gizmo 0.5000000
la.gizmos. Gizmo 0.5000000
xanri imagine 1.0000000
porto Portuguese 1.0000000
sedycaugau head 0.0555556
kelvo head 0.1111111
le head 0.0555556
Leffingwell.gy. head 0.0555556
po'u head 0.0555556
ctununta'a head 0.0555556
be head 0.1666667
NULL head 0.0555556
stedu head 0.3333333
menli head 0.0555556
cmamuclai paprika 0.3333333
li paprika 0.3333333
pa paprika 0.3333333
lebna steals 1.0000000
bangitu'a Italian 0.5000000
lo Italian 0.5000000
ze'a months 0.0526316
li months 0.2631579
devoncir months 0.0526316
be months 0.2105263
.djunguos. months 0.0526316
masti months 0.3157895
NULL months 0.0526316
jinmrmendelevi Mendelevium 1.0000000
ninynavni Neon 1.0000000
la Susan 0.1428571
doi Susan 0.1428571
.susyn. Susan 0.1428571
susan Susan 0.1428571
ba'e Susan 0.1428571
.suzyn.grin. Susan 0.1428571
suzyn.grin. Susan 0.1428571
.ue caused 0.2500000
pu caused 0.2500000
.i caused 0.2500000
rinka caused 0.2500000
fi Follow 0.3333333
tinbe Follow 0.3333333
ko Follow 0.3333333
ei thankful 0.1666667
ckire thankful 0.3333333
te thankful 0.1666667
fi thankful 0.1666667
ma'a thankful 0.1666667
plajva Politics 1.0000000
zumri ah 0.5000000
fa ah 0.5000000
xaksu waste 0.2500000
ka waste 0.2500000
nalprali waste 0.2500000
nungu'a waste 0.2500000
la Jones 0.5000000
.djonz. Jones 0.2500000
djonz. Jones 0.2500000
tu'a Never 0.0769231
ko Never 0.4615385
termosygau Never 0.0769231
kelci Never 0.0769231
selnu'e Never 0.1538462
kakpa Never 0.0769231
sabji Never 0.0769231
dunda bill 0.3333333
janta bill 0.6666667
spebi'o Marry 0.5000000
ko Marry 0.5000000
ko Watch 0.3500000
skina Watch 0.0500000
jundi Watch 0.3000000
.o'i Watch 0.0500000
NULL Watch 0.0500000
zgana Watch 0.1000000
o'i Watch 0.1000000
befi True 0.3333333
stace True 0.3333333
lijda True 0.3333333
kamfarvi Development 1.0000000
za'a observe 1.0000000
nu'o there 0.0078125
ctemidju there 0.0078125
zaisle there 0.0078125
selgu'a there 0.0078125
piso'o there 0.0078125
vi there 0.0234375
xo there 0.0078125
ni'i there 0.0078125
dragau there 0.0078125
ra there 0.0078125
va there 0.1640625
lenku there 0.0078125
ta'i there 0.0156250
jdice there 0.0078125
prulamdei there 0.0078125
ricfu there 0.0078125
so'imei there 0.0078125
klesi there 0.0156250
NULL there 0.1250000
vu there 0.0078125
temsas. there 0.0078125
surmi there 0.0078125
je'erjinto there 0.0078125
ropno there 0.0078125
zvati there 0.2109375
.iju there 0.0078125
ta there 0.0859375
.ue there 0.0078125
gusta there 0.0078125
alis. there 0.0078125
tu there 0.0078125
xe'otce there 0.0078125
bi'unai there 0.0078125
ba'o there 0.0078125
be'e there 0.0078125
da there 0.0625000
kafyzarci there 0.0078125
zy there 0.0078125
nanla there 0.0078125
ru there 0.0078125
ro'o there 0.0078125
xabju there 0.0078125
lajdictergu'i there 0.0078125
puze'i there 0.0078125
zo'e there 0.0078125
vasru there 0.0078125
xelvetiko Swiss 1.0000000
cino 3031 0.2500000
li 3031 0.2500000
ce'o 3031 0.2500000
cipa 3031 0.2500000
mriste mailing 0.6666667
lojbo mailing 0.3333333
ciblu bleeding 0.2222222
jdika bleeding 0.1111111
ka bleeding 0.1111111
cirko bleeding 0.1111111
blucri bleeding 0.4444444
krinu reason 0.3181818
za'i reason 0.0454545
du'u reason 0.0909091
NULL reason 0.1818182
.i reason 0.0454545
nai reason 0.0909091
nu reason 0.0454545
da reason 0.0454545
makau reason 0.0454545
spusku reason 0.0454545
zi'o reason 0.0454545
makcu time 0.0112360
uanai time 0.0112360
cando time 0.0224719
zu time 0.0112360
ca time 0.1123596
platu time 0.0112360
makau time 0.0112360
ti'u time 0.0224719
se time 0.0337079
nu time 0.0112360
zukte time 0.0224719
gugde'itu time 0.0224719
temci time 0.0898876
nagoi,ias time 0.0112360
drani time 0.0112360
to'e time 0.0112360
trene time 0.0224719
pasobiremoi time 0.0112360
NULL time 0.1685393
seti'u time 0.0112360
krefu time 0.0112360
sy time 0.0112360
nunvacysai time 0.0112360
le time 0.0224719
i time 0.0112360
pare'u time 0.0112360
ze'u time 0.0674157
paroi time 0.0112360
jetsku time 0.0224719
tcika time 0.1011236
morji time 0.0112360
nunpe'i time 0.0112360
ra time 0.0112360
ru'i time 0.0112360
dormijysai time 0.0112360
ve'e time 0.0112360
islant time 0.0112360
xa Six 0.5000000
li Six 0.5000000
mlibdena Molybdenum 1.0000000
antropo anthropology 0.3333333
remske anthropology 0.3333333
saske anthropology 0.3333333
zarcpa accept 0.1428571
zanru accept 0.4285714
lo accept 0.1428571
NULL accept 0.1428571
du'u accept 0.1428571
mivyfu'i Cloning 1.0000000
de target 0.3333333
NULL target 0.3333333
ba'o target 0.3333333
makcu when 0.0152672
me'au when 0.0076336
NULL when 0.0381679
ca when 0.3053435
mo'i when 0.0076336
fange when 0.0076336
zenba when 0.0076336
fe'emo'u when 0.0076336
makau when 0.0381679
i when 0.0076336
lo when 0.1145038
jalgau when 0.0076336
krixa when 0.0076336
ku when 0.0076336
nu when 0.3053435
kei when 0.0152672
nilnalci'o when 0.0076336
ji'ipaxa when 0.0076336
mu'e when 0.0152672
gekygau when 0.0076336
skori when 0.0076336
skot when 0.0076336
ru'u when 0.0076336
pruxi when 0.0076336
lonu when 0.0152672
ro when 0.0076336
cabo when 0.0076336
ko Buy 0.5000000
erve Buy 0.5000000
papa 7 0.1428571
ze 7 0.4285714
la.lyndyn. 7 0.1428571
megdo 7 0.1428571
gy.Amsterdam.gy. 7 0.1428571
doi Taro 0.1666667
.taros.akaga,uas. Taro 0.1666667
taros Taro 0.1666667
lo Taro 0.3333333
ctesai Taro 0.1666667
ravysirji diameter 0.5000000
cy diameter 0.5000000
.i'a &apos;a 1.0000000
zivle invested 0.5000000
loi invested 0.5000000
leonard.euler Leonhard 1.0000000
keltci toys 0.5000000
selkei toys 0.5000000
baxydinkarda debit 1.0000000
carna slithy 1.0000000
pilno ride 0.1666667
selma'e ride 0.3333333
nu ride 0.5000000
prenu doctor 0.0434783
mikce doctor 0.8695652
ri doctor 0.0652174
cu doctor 0.0217391
skina cinema 0.2500000
mi'o cinema 0.2500000
ve cinema 0.2500000
.e'u cinema 0.2500000
batkyci'a Few 0.3333333
kioton. Few 0.3333333
so'u Few 0.3333333
la moon 0.1666667
cumki moon 0.0833333
to'e moon 0.0833333
lunra moon 0.5833333
pe'a moon 0.0833333
lo'e quotations 0.2500000
se quotations 0.2500000
sitsku quotations 0.2500000
.i quotations 0.2500000
nu Before 0.3333333
.deivid. Before 0.6666667
frasygugde France 0.1250000
fasygu'e France 0.6250000
fraso France 0.1250000
la France 0.1250000
.deivis. Davis 1.0000000
zasti therefore 0.2857143
ni'i therefore 0.1428571
le therefore 0.1428571
ja'e therefore 0.1428571
nu therefore 0.1428571
ja'o therefore 0.1428571
.tokpisin. Tok 0.5000000
la Tok 0.5000000
tam. Tom 0.0059524
.tom. Tom 0.0706845
tam Tom 0.0052083
la.tam. Tom 0.0044643
tom. Tom 0.0014881
tom Tom 0.3028274
.uinaisai Tom 0.0007440
doi Tom 0.0007440
Tom Tom 0.0007440
la. Tom 0.0007440
ja'aku Tom 0.0007440
baskedbol Tom 0.0007440
eksameno Tom 0.0007440
.tam. Tom 0.1063988
la Tom 0.4977679
pitr. Peter 0.1000000
la. Peter 0.1000000
.i Peter 0.1000000
la Peter 0.2000000
xu Peter 0.1000000
la.pitr. Peter 0.1000000
.pitr. Peter 0.1000000
pitr.djeksyn Peter 0.1000000
petr. Peter 0.1000000
snidu meter 0.2500000
fei'u meter 0.2500000
mitre meter 0.2500000
pi'ai meter 0.2500000
.iunai chocolate 0.0833333
.iuru'enai chocolate 0.0833333
mutce chocolate 0.0833333
cakla chocolate 0.6666667
loi chocolate 0.0833333
kei poverty 0.1250000
nai poverty 0.1250000
ka poverty 0.1250000
e poverty 0.1250000
je poverty 0.1250000
pindi poverty 0.2500000
li'i poverty 0.1250000
filta'a speaks 0.0869565
noi speaks 0.0434783
tavla speaks 0.2173913
NULL speaks 0.0434783
po'o speaks 0.0434783
bangu speaks 0.0434783
cintaros speaks 0.0434783
prenu speaks 0.0434783
certu speaks 0.0434783
la.tam. speaks 0.0434783
se speaks 0.2608696
cu speaks 0.0434783
ni speaks 0.0434783
a reuse 1.0000000
mencremau philosophers 1.0000000
japyvla are 0.0015699
be'e are 0.0015699
mucyjoifro are 0.0015699
cavdirgo are 0.0015699
ba'o are 0.0015699
jitseldejykarda are 0.0015699
ta'o are 0.0078493
co are 0.0015699
tamne are 0.0015699
re'e are 0.0015699
pacpre are 0.0031397
nagi'a are 0.0015699
.pitr. are 0.0015699
nenri are 0.0015699
prenu are 0.0015699
dibycai are 0.0015699
djeims are 0.0015699
cionmau are 0.0015699
ca are 0.0031397
zu are 0.0015699
.asun. are 0.0015699
prali are 0.0031397
toltinsa are 0.0015699
jaginai are 0.0015699
xusra are 0.0015699
mentolcre are 0.0015699
robin are 0.0031397
dekart are 0.0031397
je'a are 0.0015699
na'arde'a are 0.0031397
ru'i are 0.0015699
tarti are 0.0015699
srana are 0.0031397
karcyckiku are 0.0047096
.nansis. are 0.0015699
pinka are 0.0015699
roroiku are 0.0015699
ctuca are 0.0015699
du are 0.0031397
so'i are 0.0031397
tsakura are 0.0015699
cu are 0.2700157
lorxu are 0.0015699
ba'e are 0.0015699
ni are 0.0015699
nalreldilcymu'o are 0.0015699
Gizmo are 0.0015699
xanto are 0.0015699
la.madrid. are 0.0015699
balnema are 0.0031397
ganse are 0.0015699
tepri'apre are 0.0031397
skari are 0.0015699
nelci are 0.0062794
flaume are 0.0015699
seljibri are 0.0015699
borg are 0.0031397
djan are 0.0015699
fuzme are 0.0015699
pluja are 0.0015699
klama are 0.0031397
kamni are 0.0015699
mencremau are 0.0031397
fraxu are 0.0015699
xrabo are 0.0047096
ken are 0.0015699
najeku'i are 0.0015699
munoki'o are 0.0015699
se are 0.0031397
tuple are 0.0015699
plise are 0.0062794
denpa are 0.0015699
tolcando are 0.0015699
jmive are 0.0015699
vanbi are 0.0031397
tolracli are 0.0015699
du'i are 0.0015699
xendo are 0.0047096
jbopre are 0.0015699
jgina are 0.0015699
ke'a are 0.0015699
DeVito are 0.0031397
mamta are 0.0015699
ponjo are 0.0015699
gradu are 0.0015699
nanca are 0.0078493
vrude are 0.0015699
arduarko are 0.0031397
melbi are 0.0125589
a'o are 0.0015699
pau are 0.0015699
me are 0.0188383
ju are 0.0031397
jintitnanba are 0.0015699
fi'ure are 0.0015699
ropno are 0.0015699
ko'au are 0.0015699
ti'e are 0.0015699
saske are 0.0015699
.xelvetik. are 0.0015699
NULL are 0.0957614
mu'i are 0.0031397
bavla'i are 0.0015699
gugde are 0.0047096
pei are 0.0251177
xai are 0.0015699
nunsrera are 0.0031397
djaspa are 0.0015699
tcini are 0.0031397
da are 0.0015699
xano are 0.0015699
boi are 0.0015699
tsali are 0.0031397
drani are 0.0047096
cinki are 0.0015699
go'a are 0.0015699
mobyterle'i are 0.0031397
.suzyn.grin. are 0.0015699
su'u are 0.0015699
mokau are 0.0031397
ca'o are 0.0204082
tricu are 0.0015699
muzga are 0.0015699
pendo are 0.0015699
fa are 0.0015699
ratcu are 0.0015699
naku are 0.0015699
gi'o are 0.0015699
lojycpa are 0.0015699
crida are 0.0015699
ticysku are 0.0015699
datsi'u are 0.0015699
natmrxanguke are 0.0015699
djaspi are 0.0015699
la'aru'e are 0.0015699
vanjba are 0.0015699
frank are 0.0015699
jbena are 0.0031397
pensi'u are 0.0015699
titan are 0.0015699
selpau are 0.0015699
gairjaudu'e are 0.0015699
malsno are 0.0015699
manci are 0.0031397
cutci are 0.0031397
smani are 0.0015699
ma are 0.0423862
cipnrxigli are 0.0015699
xamgu are 0.0015699
tilju are 0.0015699
skepre are 0.0015699
dragau are 0.0015699
.ui are 0.0015699
.alps. are 0.0015699
ku are 0.0125589
so'ova'e are 0.0015699
fi are 0.0015699
zvati are 0.0298273
ja'asai are 0.0015699
malxaksu are 0.0031397
jibypante are 0.0015699
clite are 0.0015699
ji'u are 0.0015699
pavo are 0.0031397
so'imei are 0.0015699
stati are 0.0015699
najgenja are 0.0015699
serai are 0.0015699
larfi'i are 0.0015699
.i are 0.0047096
sa'apre are 0.0015699
virnu are 0.0015699
danlu are 0.0047096
gleki are 0.0094192
korvo are 0.0015699
rosias are 0.0015699
bebna are 0.0062794
xanla are 0.0015699
alna are 0.0015699
mu'ima are 0.0015699
su'a are 0.0015699
jimte are 0.0015699
mi'o are 0.0015699
junla are 0.0015699
rauva'e are 0.0015699
sonci are 0.0015699
sorgle are 0.0015699
xavais. are 0.0015699
lazni are 0.0015699
e'a are 0.0015699
dijypanka are 0.0015699
ki'o are 0.0015699
patfu are 0.0015699
zergau are 0.0015699
tolmelbi are 0.0015699
cipnrkorvo are 0.0015699
mo are 0.0156986
latcribe are 0.0015699
tumla are 0.0031397
kansa are 0.0015699
volratcu are 0.0015699
nukni are 0.0015699
spati are 0.0015699
caca'o are 0.0062794
rau are 0.0015699
caksova are 0.0015699
coico'o are 0.0015699
za'u are 0.0141287
bruna are 0.0015699
taske are 0.0015699
lanjo are 0.0015699
temsas. are 0.0015699
barda are 0.0031397
cipni are 0.0015699
ricfu are 0.0015699
sa'acre are 0.0015699
la.gizmos. are 0.0015699
sutra are 0.0031397
dusygu'a are 0.0031397
xasli are 0.0015699
zi year 0.0454545
bavlamna'a year 0.0909091
ca year 0.0454545
NULL year 0.0454545
be year 0.0454545
li year 0.0454545
pa year 0.0909091
prulamna'a year 0.0909091
cabna'a year 0.0454545
nanca year 0.2727273
so'u year 0.0454545
.irci year 0.0454545
pare year 0.0909091
tolnurcni don 0.0034965
noda don 0.0069930
e'u don 0.0034965
cu'i don 0.0069930
za'o don 0.0034965
go don 0.0034965
pu'o don 0.0034965
ju'a don 0.0034965
no'e don 0.0069930
sudgaubu'u don 0.0034965
ki'a don 0.0034965
NULL don 0.0384615
tolnelci don 0.0069930
ju'oinai don 0.0069930
no don 0.0419580
tolsanji don 0.0034965
xecu'u don 0.0034965
nalju'o don 0.0069930
jo don 0.0069930
mulci don 0.0034965
je'enai don 0.0069930
depcni don 0.0034965
selstidi don 0.0034965
claxu don 0.0034965
co'u don 0.0104895
na don 0.5629371
.ianaicai don 0.0034965
e'inai don 0.0034965
naku don 0.0104895
.aunai don 0.0314685
.a'udai don 0.0034965
va'e don 0.0034965
mo'a don 0.0069930
pe'u don 0.0034965
a'u don 0.0034965
toljunri don 0.0034965
.iuru'enai don 0.0034965
masno don 0.0034965
to'e don 0.0139860
ba'o don 0.0034965
basti don 0.0034965
je'upei don 0.0034965
bu'onai don 0.0034965
.iunai don 0.0034965
.uanai don 0.0104895
nai don 0.0524476
na'e don 0.0629371
aunai don 0.0034965
pu persuaded 0.5000000
xlura persuaded 0.5000000
lamli'e successor 1.0000000
jenca shocked 0.5000000
se shocked 0.5000000
lo Not 0.1176471
tolkanro Not 0.0588235
naku Not 0.0588235
blondino Not 0.0588235
na Not 0.1176471
cipni Not 0.0588235
je'e Not 0.0588235
NULL Not 0.0588235
jebo Not 0.0588235
e Not 0.0588235
me'iro Not 0.1176471
nu Not 0.0588235
roda Not 0.0588235
nai Not 0.0588235
la bridges 0.3333333
be bridges 0.3333333
cripu bridges 0.3333333
ekra mirror 0.0714286
ku mirror 0.0714286
minra mirror 0.6428571
zvati mirror 0.0714286
cu mirror 0.0714286
te mirror 0.0714286
ckeji It 0.0027624
.a'e It 0.0027624
rejyjveprigau It 0.0027624
.e'unai It 0.0027624
romoi It 0.0027624
be'u It 0.0027624
betka It 0.0027624
fadni It 0.0027624
lo It 0.0220994
noroi It 0.0027624
vajni It 0.0248619
la'a It 0.0027624
kingau It 0.0027624
barda It 0.0027624
ba'oi It 0.0027624
gugle It 0.0027624
selspaji It 0.0027624
xa'o It 0.0027624
ji'ipaxa It 0.0027624
faursutrytce It 0.0027624
seltcini It 0.0027624
tcelenku It 0.0027624
krici It 0.0027624
li It 0.0165746
po'o It 0.0027624
tai It 0.0027624
tolmelbi It 0.0027624
.ua It 0.0027624
dilnu It 0.0055249
xamgu It 0.0027624
itku'ile It 0.0055249
makfa It 0.0027624
dormijysai It 0.0027624
la'ede'u It 0.0027624
junri It 0.0027624
mligla It 0.0027624
nicte It 0.0027624
si'ercarvi It 0.0165746
ti It 0.0082873
xagze'a It 0.0027624
mripre It 0.0027624
serai It 0.0027624
.a'onaicai It 0.0027624
tabno It 0.0027624
.i It 0.0193370
kargu It 0.0055249
crejibri It 0.0027624
lerci It 0.0027624
cai It 0.0027624
gu It 0.0027624
bersa It 0.0027624
da It 0.0138122
.ue It 0.0055249
sei It 0.0027624
zilmipri It 0.0027624
na'e It 0.0027624
timvanbi It 0.0027624
.einaidai It 0.0027624
co'u It 0.0027624
banzu It 0.0027624
prane It 0.0027624
gei It 0.0027624
si'au It 0.0110497
la'anai It 0.0027624
bilma It 0.0027624
vamji It 0.0138122
vensa It 0.0027624
je'u It 0.0055249
banro It 0.0027624
sarcu It 0.0110497
zabna It 0.0027624
jadyke'a It 0.0027624
plixau It 0.0027624
tolsnura It 0.0027624
.enai It 0.0027624
desku It 0.0027624
carvi It 0.0386740
tcika It 0.0055249
mutce It 0.0220994
.imu'ibo It 0.0027624
do'adai It 0.0027624
la'e It 0.0055249
cnino It 0.0082873
ti'e It 0.0055249
lakne It 0.0055249
tcemelbi It 0.0027624
bakri It 0.0027624
lenku It 0.0193370
glare It 0.0138122
NULL It 0.1546961
snime It 0.0027624
pamli'u It 0.0027624
ja'osai It 0.0027624
pluja It 0.0027624
racli It 0.0027624
xagycai It 0.0027624
ta It 0.0027624
ba'unai It 0.0027624
manku It 0.0138122
rigni It 0.0027624
sai It 0.0082873
seva'u It 0.0027624
lumci It 0.0055249
do It 0.0027624
se It 0.0055249
selsau It 0.0027624
vindu It 0.0055249
nadydu'e It 0.0027624
donri It 0.0027624
ronru'u It 0.0027624
smacu It 0.0027624
nalcumki It 0.0027624
pluka It 0.0082873
ra It 0.0359116
je'a It 0.0055249
srana It 0.0055249
jaurcarvi It 0.0138122
pajni It 0.0027624
ko'a It 0.0248619
selzva It 0.0027624
zdizma It 0.0082873
la.paRIZ. It 0.0027624
du It 0.0027624
jetnu It 0.0055249
pu It 0.0082873
fasnu It 0.0027624
dusbarda It 0.0027624
.a'i It 0.0027624
li'u» It 0.0027624
ba'e It 0.0110497
slabu It 0.0027624
kukte It 0.0027624
selsa'a It 0.0027624
cortu It 0.0055249
i'anai It 0.0027624
palci It 0.0027624
nau'u It 0.0055249
tu'a It 0.0027624
trene It 0.0027624
lekyzma It 0.0027624
cilmo It 0.0027624
frica It 0.0055249
nandu It 0.0248619
pa'enai It 0.0027624
nonprali It 0.0027624
cnijicla It 0.0027624
dukse It 0.0055249
mi'e It 0.0027624
.a'unaicai It 0.0027624
frili It 0.0138122
gugdeburu It 0.0027624
ca It 0.0165746
.uedai It 0.0027624
santa umbrellas 1.0000000
fraxu excused 0.3333333
e'a excused 0.3333333
se excused 0.3333333
ji'i 50 0.5000000
muno 50 0.5000000
ku coelacanth 0.5000000
gombesa coelacanth 0.5000000
taiku Russians 0.1666667
ku Russians 0.1666667
lo Russians 0.1666667
loi Russians 0.1666667
rusko Russians 0.1666667
ruskypre Russians 0.1666667
cradi radio 0.6000000
se radio 0.2000000
vi radio 0.2000000
le Certainly 0.3333333
ju'o Certainly 0.3333333
fetsi Certainly 0.3333333
ko Meet 1.0000000
secu'u same 0.0625000
mintu same 0.3750000
mi'u same 0.0625000
di'ai same 0.0625000
creka same 0.0625000
junla same 0.0625000
du same 0.0625000
pa same 0.0625000
poi same 0.0625000
boljinterjvi same 0.0625000
NULL same 0.0625000
la Disneyland 0.2500000
mamtu Disneyland 0.2500000
.dIsniland. Disneyland 0.2500000
klama Disneyland 0.2500000
.a'i bother 0.3333333
ta bother 0.3333333
nai bother 0.3333333
se notebook 0.2500000
ci'arselpapri notebook 0.2500000
srana notebook 0.2500000
va notebook 0.2500000
li price 0.1818182
jdima price 0.3636364
xo price 0.1818182
rupnu price 0.1818182
NULL price 0.0909091
gau Devil 0.2500000
gasnu Devil 0.2500000
la.pacrid. Devil 0.5000000
kosta sweater 0.2000000
dasni sweater 0.2000000
nivycreka sweater 0.2000000
sisti sweater 0.2000000
mu'i sweater 0.2000000
rijno Silver 1.0000000
cuntu none 0.2000000
NULL none 0.2000000
na none 0.2000000
cu'i none 0.2000000
.a'u none 0.2000000
samske science 0.1111111
saske science 0.1111111
ka'oske science 0.1111111
tedyske science 0.1111111
cumymu'efi'a science 0.3333333
selpliske science 0.1111111
rarske science 0.1111111
brilugi gimble 1.0000000
NULL continually 1.0000000
zo'oi PTA 0.5000000
zoi PTA 0.5000000
minra shiny 0.3333333
gusni shiny 0.3333333
co'a shiny 0.3333333
va'o closet 0.1111111
co'a closet 0.1111111
sevzi closet 0.1111111
sroku'a closet 0.4444444
ba'o closet 0.1111111
tolmipri closet 0.1111111
ctuske Pedagogy 1.0000000
dormijysai Lunch 1.0000000
nunkarcyjanli accident 0.0833333
ri'a accident 0.0833333
snuti accident 0.7500000
karcysnuti accident 0.0833333
darsi hit 0.0500000
darxi hit 0.5500000
janli hit 0.2000000
cinju'i hit 0.0500000
ratyjbama hit 0.0500000
pu hit 0.1000000
fi greeting 0.3333333
nu greeting 0.3333333
rinsa greeting 0.3333333
prenu personalities 1.0000000
ii Yikes 1.0000000
meljo Malaysian 1.0000000
nunspesti main 0.5000000
cu main 0.5000000
verntineidja Teenage 0.5000000
le'e Teenage 0.5000000
selratni element 0.6666667
margu element 0.3333333
gy.Pinocchio.gy. Pinocchio 0.2500000
la'oi Pinocchio 0.2500000
la'o Pinocchio 0.2500000
pinocchio Pinocchio 0.2500000
be whichever 0.3333333
senelci whichever 0.3333333
poi whichever 0.3333333
korvo Crows 0.2500000
lo'e Crows 0.2500000
lo Crows 0.2500000
cipnrkorvo Crows 0.2500000
xazdo Asians 1.0000000
makau promised 0.1111111
fi promised 0.1111111
cu promised 0.1111111
nupre promised 0.5555556
fe promised 0.1111111
la Steve 0.1666667
zoi Steve 0.1666667
zo'oi Steve 0.1666667
gy.Steve.gy. Steve 0.1666667
.stiv. Steve 0.1666667
Steve Steve 0.1666667
te shown 0.5000000
jarco shown 0.5000000
fi forgot 0.0416667
mo'ifli forgot 0.0416667
tu'a forgot 0.1250000
co'u forgot 0.0833333
pu forgot 0.0416667
nalmorji forgot 0.0416667
NULL forgot 0.0416667
de'a forgot 0.1250000
morji forgot 0.2083333
mulno forgot 0.0416667
tolmo'i forgot 0.2083333
lojbo lojbanic 1.0000000
pamjai hug 1.0000000
ku heard 0.0344828
nu heard 0.0689655
tirna heard 0.3448276
norman.finkelctain. heard 0.0344828
NULL heard 0.0689655
facki heard 0.0344828
pu heard 0.1379310
ba'o heard 0.0344828
ti'e heard 0.0689655
.nikol. heard 0.0344828
labybi'o heard 0.0344828
fi heard 0.0344828
tersa'a heard 0.0344828
nuzba heard 0.0344828
monsuta Spaghetti 0.2500000
vofli Spaghetti 0.2500000
ke Spaghetti 0.2500000
cidjrspageti Spaghetti 0.2500000
fa problems 0.1111111
pobre problems 0.1111111
nabmi problems 0.5555556
jbobau problems 0.1111111
i problems 0.1111111
ve'u liter 0.2000000
litce liter 0.4000000
poi liter 0.2000000
pa liter 0.2000000
lekmi'i fridge 1.0000000
fi obey 0.4000000
tinbe obey 0.4000000
ku obey 0.2000000
zo'e reasons 0.3333333
lijda reasons 0.3333333
NULL reasons 0.3333333
sa'e precise 0.1111111
precise precise 0.2222222
zoi precise 0.1111111
NULL precise 0.2222222
zo'oi precise 0.1111111
gy.precise.gy. precise 0.2222222
badna Banana 1.0000000
genxu look 0.0232558
ckiku look 0.0232558
nabo look 0.0232558
ka look 0.1162791
melbi look 0.0232558
viska look 0.2325581
snanu look 0.0232558
selsmu look 0.0232558
mintu look 0.0232558
simlu look 0.2093023
kurji look 0.0232558
catlu look 0.0930233
ciplanli look 0.0232558
se look 0.0465116
NULL look 0.0697674
.uucai look 0.0232558
nu death 0.2500000
nunmro death 0.0833333
mi death 0.0833333
naja death 0.0833333
mrobi'o death 0.1666667
pu death 0.0833333
namsnada death 0.0833333
ko'e death 0.0833333
pi'e death 0.0833333
by.cimoi vitamin 0.2500000
mivytcuxu'i vitamin 0.2500000
cy.moi vitamin 0.2500000
abumoi vitamin 0.2500000
alna alder 0.5000000
lo alder 0.5000000
cai agreeable 0.5000000
.ie agreeable 0.5000000
loi wood 0.2500000
mudri wood 0.7500000
lojbo talk 0.0136986
ka talk 0.0136986
bacru talk 0.0136986
tavysi'u talk 0.0136986
tavla talk 0.7671233
so'isairoi talk 0.0136986
NULL talk 0.0410959
kixta'a talk 0.0136986
be'e talk 0.0136986
casnu talk 0.0684932
skusno talk 0.0273973
po'u Tiger 0.2222222
le Tiger 0.2222222
tirxu Tiger 0.5555556
roroiku exposed 1.0000000
cinri phenomenon 1.0000000
po'o Takeuchi 0.5000000
takeutcis Takeuchi 0.5000000
ja'a actually 0.0714286
ke'a actually 0.0714286
pu actually 0.1428571
titan actually 0.0714286
NULL actually 0.0714286
je'u actually 0.3571429
xanka actually 0.0714286
pu'i actually 0.0714286
fe actually 0.0714286
tubnu tubes 1.0000000
pa logarithm 0.5000000
dugri logarithm 0.5000000
viska sees 0.2500000
ba sees 0.2500000
zgana sees 0.2500000
nu sees 0.2500000
coi Again 0.5000000
ke'u Again 0.5000000
vimku'a restroom 1.0000000
seka'a guided 1.0000000
glabi'a fever 1.0000000
favmapti Homology 1.0000000
kladji go 0.0040161
aunai go 0.0040161
bi'unai go 0.0040161
klama go 0.7469880
nu go 0.0040161
barkla go 0.0040161
sipna go 0.0080321
tu'a go 0.0040161
.u'anai go 0.0040161
basti go 0.0040161
.ei go 0.0080321
velskina go 0.0040161
ty go 0.0040161
paroinai go 0.0040161
drata go 0.0040161
xadgu'a go 0.0040161
darca go 0.0080321
nunjmaji go 0.0040161
ckakla go 0.0080321
selxau go 0.0040161
i'i go 0.0040161
xa'emi'o go 0.0040161
.a'enai go 0.0040161
bajra go 0.0040161
kansa go 0.0080321
cliva go 0.0722892
nerkla go 0.0080321
di'a go 0.0040161
bai go 0.0040161
NULL go 0.0321285
bartu go 0.0040161
gijanai go 0.0040161
italias. go 0.0040161
birka go 0.0040161
cibjgatai triangle 0.2000000
kurjga triangle 0.4000000
cibyselmla triangle 0.4000000
blobe'e outfit 1.0000000
katna swords 0.1000000
ne swords 0.1000000
cladakyxa'i swords 0.2000000
za'u swords 0.1000000
mau swords 0.1000000
cu swords 0.1000000
da swords 0.1000000
se swords 0.1000000
pe'a swords 0.1000000
runla'u pool 0.1666667
kei pool 0.1666667
nu pool 0.1666667
limla'u pool 0.3333333
ra pool 0.1666667
ta'i building 0.0833333
dinju building 0.6666667
zbasu building 0.0833333
noi building 0.0833333
.gandam. building 0.0833333
bino eighty 0.5000000
za'u eighty 0.2500000
li eighty 0.2500000
zarna brillig 1.0000000
va'o speed 0.1666667
bo speed 0.1666667
sutyze'a speed 0.1666667
se speed 0.1666667
selbancu speed 0.1666667
nai speed 0.1666667
notci thank-you 0.3333333
cusku thank-you 0.3333333
ckire thank-you 0.3333333
tolyli'a arrive 0.4000000
mulkla arrive 0.2000000
byrsylon. arrive 0.2000000
ba arrive 0.2000000
patfu dad 0.5000000
cu dad 0.0833333
be dad 0.1666667
tom. dad 0.1666667
.iu dad 0.0833333
se additional 1.0000000
simon.bolivar Simón 1.0000000
sorta sort 1.0000000
claxu lacks 1.0000000
vau OK 0.1111111
fasnu OK 0.1111111
toi'e OK 0.1111111
kurji OK 0.1111111
zabna OK 0.1111111
vi'opei OK 0.2222222
.o'o OK 0.1111111
ko OK 0.1111111
de'i one 0.0049505
junla one 0.0049505
remoi one 0.0049505
su'epa one 0.0099010
ta one 0.0099010
nuncasnu one 0.0049505
fesli'a one 0.0049505
ja'a one 0.0049505
ci'i one 0.0049505
lazni one 0.0148515
.kevin. one 0.0049505
moklu one 0.0049505
se one 0.0396040
pa one 0.1980198
i'unai one 0.0049505
da'a one 0.0049505
ca'a one 0.0049505
kansa one 0.0099010
melbi one 0.0049505
troci one 0.0099010
nafselte'i one 0.0099010
xunre one 0.0049505
ropamoi one 0.0099010
pixra one 0.0049505
pamei one 0.0049505
ze'i one 0.0049505
sutra one 0.0099010
ricfu one 0.0049505
klesi one 0.0049505
NULL one 0.0594059
xi one 0.0049505
nagoi,ias one 0.0049505
da one 0.0990099
djan. one 0.0049505
xajmi one 0.0049505
bramau one 0.0049505
pendo one 0.0049505
tu one 0.0049505
panono one 0.0099010
terjbe one 0.0049505
su'o one 0.0099010
panpi one 0.0049505
prenu one 0.0396040
tolfesru'e one 0.0049505
datpre one 0.0148515
si'au one 0.0049505
zdadi'u one 0.0049505
be one 0.0495050
jalra one 0.0099010
no one 0.0891089
.kurosa,uan. one 0.0049505
ropa one 0.0198020
du one 0.0148515
.djein. one 0.0049505
.a one 0.0049505
zu'u one 0.0049505
co'e one 0.0099010
ti one 0.0297030
mlemau one 0.0049505
ca'aku one 0.0049505
meris. one 0.0049505
parpika one 0.0049505
vanci one 0.0049505
do'a one 0.0049505
blanu one 0.0148515
ji'a one 0.0049505
djaspi bits 0.5000000
jajgau bits 0.5000000
vindu poisoned 1.0000000
preti Answer 0.2352941
spusku Answer 0.0588235
loi Answer 0.0588235
ko Answer 0.1176471
li'u Answer 0.2352941
spuda Answer 0.0588235
.i Answer 0.2352941
pidjni Pidgin 1.0000000
napoleon Napoleon 1.0000000
noi Lucy 0.2000000
.lusis. Lucy 0.2000000
lusis. Lucy 0.2000000
la Lucy 0.4000000
tolzdi dump 0.3333333
a'unai dump 0.3333333
ti dump 0.3333333
e German 0.0400000
bandu'e'u German 0.1200000
dotco German 0.2800000
bangu German 0.0400000
fanva German 0.0400000
dotybau German 0.4400000
.doitc. German 0.0400000
do'a construed 0.5000000
.y. construed 0.5000000
pagre flows 1.0000000
bi'unai About 0.3333333
da About 0.3333333
jai About 0.3333333
kantu Electron 0.5000000
dutydikca Electron 0.5000000
jibri administrator 0.3333333
sidju administrator 0.3333333
jitro administrator 0.3333333
se located 0.5000000
stuzi located 0.5000000
farvi agent 1.0000000
tcaci yourself 0.0294118
ko yourself 0.1470588
selzda yourself 0.0588235
gau yourself 0.0294118
gasnu yourself 0.0294118
si'unai yourself 0.1176471
ko'oi yourself 0.0588235
.e'icu'i yourself 0.0294118
ka yourself 0.0588235
zdazva yourself 0.0294118
.eipei yourself 0.0294118
slabu yourself 0.0294118
do yourself 0.0588235
kurji yourself 0.1470588
kufra yourself 0.0588235
jgira yourself 0.0294118
catra yourself 0.0294118
NULL yourself 0.0294118
ma location 1.0000000
me Heights 0.5000000
donxosexaits Heights 0.5000000
ke'u Once 1.0000000
cladakyxa'i Sword 1.0000000
ratcu rat 0.7500000
cu rat 0.2500000
tadji method 0.3333333
.olimpiks. method 0.1666667
ta'i method 0.5000000
vau evidence 0.3333333
kei evidence 0.3333333
fu'inai evidence 0.3333333
bebna stupid 0.6428571
tolmencre stupid 0.2142857
nunbebna stupid 0.0714286
se stupid 0.0714286
pesxu goo 1.0000000
da wasting 0.2500000
malxaksu wasting 0.5000000
rore wasting 0.2500000
tavla Speaking 0.2222222
lo Speaking 0.1111111
fo Speaking 0.2222222
.i'e Speaking 0.1111111
lonu Speaking 0.1111111
le Speaking 0.1111111
ka Speaking 0.1111111
ci'i Infinity 1.0000000
se'u jolt 1.0000000
xarju pigs 1.0000000
ni'u ³ 0.5000000
gei ³ 0.5000000
xe XXX 0.2000000
fanva XXX 0.4000000
zoi XXX 0.2000000
by.XXX.by. XXX 0.2000000
niuiork. City 0.1000000
tcadu City 0.5000000
Council.gy. City 0.1000000
mexygu'e City 0.1000000
Minh City 0.1000000
kezon City 0.1000000
fetsi mare 0.5000000
xirma mare 0.5000000
za'u rabbits 0.5000000
ractu rabbits 0.5000000
ui yay 1.0000000
fepni cents 0.3333333
bino cents 0.3333333
merfei cents 0.3333333
pluton Pluto 0.6666667
la Pluto 0.3333333
mutce smokes 0.3333333
sigva'u smokes 0.3333333
damva'u smokes 0.3333333
jinmrberkeli Berkelium 1.0000000
da hoped 0.1176471
argail hoped 0.1176471
pacna hoped 0.3529412
NULL hoped 0.1176471
jalge hoped 0.0588235
la hoped 0.1176471
poi hoped 0.1176471
cu males 0.5000000
nakni males 0.5000000
sorselnelci suicide 1.0000000
xrucof. Khrushchev 1.0000000
melbi Beautiful 1.0000000
bloti riverboat 1.0000000
ranmi Legend 1.0000000
tinbe step 0.2000000
su'u step 0.2000000
NULL step 0.2000000
morsi step 0.2000000
bazi step 0.2000000
va'o Without 0.2500000
cau Without 0.2500000
se Without 0.2500000
secau Without 0.2500000
iepei Scary 0.5000000
tepygau Scary 0.5000000
tolkargu cheap 0.6666667
jai cheap 0.3333333
be industry 0.2500000
gundi industry 0.5000000
jibri industry 0.2500000
te processed 0.5000000
pu'e processed 0.5000000
.oi stinks 0.5000000
rigni stinks 0.5000000
sieras. Sierra 1.0000000
kanji Calculation 1.0000000
lalxu boats 1.0000000
forca fork 1.0000000
la Nara 0.4000000
.naras. Nara 0.4000000
zvati Nara 0.2000000
cfila structure 0.5000000
krilysu'a structure 0.5000000
to'e remorse 0.5000000
zungi remorse 0.5000000
dinske Economics 1.0000000
panra parallels 1.0000000
botpi Bottles 0.3333333
lo Bottles 0.6666667
pe'a Thermos 0.3333333
saksruseibo'i Thermos 0.6666667
poi pupil 0.2500000
ve pupil 0.2500000
ckule pupil 0.2500000
te pupil 0.2500000
midju lines 0.1666667
jufra lines 0.1666667
skucaujmi lines 0.1666667
panra lines 0.1666667
tcidu lines 0.1666667
pe'a lines 0.1666667
sicni coin 1.0000000
pulji policemen 0.5000000
poi policemen 0.5000000
be butterflies 0.5000000
toldi butterflies 0.5000000
valsi vocabulary 1.0000000
cevni Deity 1.0000000
mark.tuein Twain 1.0000000
banro larger 0.5000000
ca'o larger 0.5000000
.uan.laos.dzis. Wang 0.3333333
la Wang 0.3333333
la.uan. Wang 0.3333333
selnu'e threat 0.1666667
naku threat 0.1666667
se threat 0.1666667
snura threat 0.1666667
la'ede'u threat 0.1666667
to'e threat 0.1666667
kelci played 0.6666667
NULL played 0.1666667
.artr. played 0.1666667
pensi Think 0.5000000
ko Think 0.5000000
da limits 0.3333333
za'u limits 0.3333333
jimte limits 0.3333333
jai frighten 0.3333333
se frighten 0.3333333
terpa frighten 0.3333333
srera mistakes 0.4000000
nunsrera mistakes 0.2000000
papri mistakes 0.1000000
tolvai mistakes 0.2000000
ru'inai mistakes 0.1000000
citka medicine 0.1111111
velmicyxu'i medicine 0.2222222
saske medicine 0.1111111
micysaske medicine 0.1111111
cu medicine 0.1111111
ciroi medicine 0.1111111
micyxu'i medicine 0.2222222
fipkalte fish 0.0645161
cu fish 0.1290323
finpe fish 0.8064516
je'u Truly 1.0000000
ji'ire Approximately 1.0000000
ba staying 0.0714286
la.osakan. staying 0.0714286
xabju staying 0.1428571
stali staying 0.4285714
ca'o staying 0.2142857
djordj. staying 0.0714286
kris. Select 0.3333333
.i Select 0.3333333
ko Select 0.3333333
loi apples 0.0833333
lo'e apples 0.0416667
NULL apples 0.0416667
plise apples 0.8333333
mlongena eggplant 1.0000000
cnigau emotion 1.0000000
uanai dinner 0.0833333
nunvacysai dinner 0.0833333
vacycti dinner 0.0833333
vacysai dinner 0.3333333
ba dinner 0.0833333
fi dinner 0.0833333
taros dinner 0.0833333
le dinner 0.0833333
sanmi dinner 0.0833333
cibjgacmaci exponential 0.3333333
tenfa exponential 0.3333333
naje exponential 0.3333333
la boulevard 1.0000000
jai stronger 0.1428571
rinka stronger 0.1428571
zenba stronger 0.1428571
tsali stronger 0.4285714
nu stronger 0.1428571
kalabrian.xesybau Calabrian 1.0000000
cikna gets 0.1428571
co gets 0.1428571
co'a gets 0.5714286
spebi'o gets 0.1428571
iecy,ys.krist Church 0.5000000
.iecuax Church 0.5000000
nai gray 0.1666667
je gray 0.1666667
grusi gray 0.6666667
gymbis Gumby 1.0000000
la Robinson 0.2500000
robinson. Robinson 0.2500000
.djim Robinson 0.2500000
penmi Robinson 0.2500000
mutce drop-dead 1.0000000
nanca 1742 0.2500000
li 1742 0.2500000
be 1742 0.2500000
pazevore 1742 0.2500000
NULL happening 0.1818182
ije happening 0.1818182
fasnu happening 0.3636364
nu happening 0.0909091
mo happening 0.1818182
lonu pillows 0.1250000
ca pillows 0.1250000
sipna pillows 0.1250000
ko'a pillows 0.1250000
kicne pillows 0.5000000
relcimdyna'u Complex 1.0000000
ci third 0.1000000
dau third 0.1000000
NULL third 0.1000000
li third 0.2000000
pa third 0.2000000
mleca third 0.1000000
fe'i third 0.2000000
li forty 0.1666667
nanca forty 0.1666667
vono forty 0.1666667
ji'i forty 0.3333333
40 forty 0.1666667
gunma factors 0.2500000
se factors 0.2500000
vanbi factors 0.2500000
so'imei factors 0.2500000
djine Ring 0.5000000
daspo Ring 0.5000000
lumci sweep 0.3333333
tergu'i sweep 0.3333333
gi'e sweep 0.3333333
.i'e objectively 0.5000000
cu'i objectively 0.5000000
la Quezon 0.2500000
kezon Quezon 0.2500000
zei Quezon 0.2500000
xabju Quezon 0.2500000
nunda'a battle 1.0000000
dumpla design 0.5000000
kibro design 0.5000000
litru traveler 1.0000000
ki'e thank 0.2500000
zvati thank 0.2500000
ki'ecai thank 0.2500000
ckire thank 0.2500000
kei Swahili 0.2000000
na'e Swahili 0.2000000
sirji Swahili 0.2000000
bansuve'a Swahili 0.4000000
mulgauka'e manage 1.0000000
casnu talked 0.1764706
se talked 0.0588235
cusku talked 0.0588235
pu talked 0.2352941
juliet. talked 0.0588235
tavla talked 0.2941176
te talked 0.0588235
la.keit. talked 0.0588235
larcu Art 1.0000000
ju Whether 1.0000000
cu'i puttering 0.2500000
ni'o puttering 0.2500000
.ui puttering 0.2500000
ro'a puttering 0.2500000
djice decide 0.1111111
jdice decide 0.5555556
xukau decide 0.1111111
du'u decide 0.1111111
mi'ai decide 0.1111111
fetsi dialed 0.2500000
pu dialed 0.2500000
judrypli dialed 0.2500000
frica dialed 0.2500000
la Sarkozy 1.0000000
amazonas. Amazon 0.5000000
zei Amazon 0.5000000
li megabytes 0.5000000
7 megabytes 0.5000000
.mikelAnjelos. painting 0.1428571
pirlarfi'i painting 0.1428571
zgana painting 0.1428571
cintyxra painting 0.1428571
se painting 0.4285714
bangrpolska Polish 0.5000000
gugdrpolska Polish 0.2500000
ke Polish 0.2500000
fatri fragments 0.5000000
spisa fragments 0.5000000
bagdad Baghdad 1.0000000
ca'erbi'e blows 0.5000000
tsali blows 0.5000000
minli shore 0.1666667
pa shore 0.1666667
noi shore 0.1666667
xaskoi shore 0.1666667
ji'i shore 0.1666667
sepli shore 0.1666667
ju'i Pardon 0.2000000
be'e Pardon 0.2000000
xu Pardon 0.2000000
do Pardon 0.2000000
ki'a Pardon 0.2000000
dinju buildings 1.0000000
vamji humanity 0.2000000
te humanity 0.2000000
ro humanity 0.2000000
remna humanity 0.2000000
loi humanity 0.2000000
fazgau annoy 1.0000000
ku'i whereas 1.0000000
nu halt 0.3333333
bilga halt 0.1666667
sisti halt 0.1666667
du'u halt 0.1666667
jamna halt 0.1666667
cicna Cyan 1.0000000
cu disappearance 1.0000000
tumla Europe 0.0625000
zvati Europe 0.0625000
zdani Europe 0.0625000
mijropno Europe 0.0625000
ropno Europe 0.2500000
beryrontu'a Europe 0.0625000
rontu'a Europe 0.1250000
europas Europe 0.1250000
paroi Europe 0.0625000
la Europe 0.1250000
la.toiotas. Toyota 0.3333333
toiotas Toyota 0.3333333
me Toyota 0.3333333
jirlu'i enjoyed 0.0909091
selpu'a enjoyed 0.0909091
pluka enjoyed 0.1818182
xuru'e enjoyed 0.0909091
nu enjoyed 0.1818182
kei enjoyed 0.0909091
.i enjoyed 0.0909091
pukfri enjoyed 0.1818182
lo Soccer 0.5000000
fudbolo Soccer 0.5000000
.i tired 0.0192308
tatpi tired 0.9423077
da tired 0.0192308
.a'enai tired 0.0192308
skina movie 0.5333333
bavlamcte movie 0.0666667
kindi'u movie 0.1333333
poi movie 0.0666667
mi'o movie 0.0666667
velskina movie 0.0666667
pa movie 0.0666667
denmi dense 1.0000000
lalxu pond 0.5000000
cmala'u pond 0.5000000
jugypre red 0.0312500
ke'a red 0.0312500
je red 0.0312500
xunre red 0.8750000
ke red 0.0312500
klaku tears 0.3333333
lo'i tears 0.3333333
selklaku tears 0.3333333
uanai ... 0.0232558
NULL ... 0.0697674
.yy ... 0.0232558
panonomei ... 0.0232558
ia ... 0.0232558
sanji ... 0.0232558
fi ... 0.0697674
oise'i ... 0.0232558
".i ... 0.0232558
petr. ... 0.0232558
le'u ... 0.0232558
le ... 0.0465116
broda ... 0.0465116
vecnu ... 0.0232558
ni'i ... 0.0232558
.suzyn.grin. ... 0.0232558
mu'onai ... 0.0232558
ri'e ... 0.0465116
zumri ... 0.0232558
... ... 0.0697674
.u'u ... 0.0232558
.y. ... 0.0465116
fanza ... 0.0232558
ii ... 0.0232558
da ... 0.1627907
skiji ... 0.0232558
.a'e ... 0.0232558
le French 0.0144928
fasybau French 0.2463768
frasybau French 0.0579710
tu'a French 0.0144928
ce'u French 0.0144928
lo French 0.2753623
fo French 0.0434783
bau French 0.0144928
stati French 0.0144928
frasybangu French 0.0289855
fy French 0.0144928
fraso French 0.2608696
.abdul. Abdul 0.5000000
la Abdul 0.5000000
by OpenBSD 0.1666667
poi OpenBSD 0.1666667
la OpenBSD 0.1666667
sy OpenBSD 0.1666667
gubni OpenBSD 0.1666667
dy OpenBSD 0.1666667
sraji height 0.2000000
no'o height 0.1000000
ije height 0.1000000
clani height 0.1000000
gi'e height 0.1000000
li height 0.1000000
ka height 0.2000000
vau height 0.1000000
ku camera 0.1538462
va camera 0.1538462
kacma camera 0.6923077
la fiction 0.1428571
ku fiction 0.1428571
pluka fiction 0.1428571
cumymu'efi'a fiction 0.4285714
nonon fiction 0.1428571
sutra hasty 1.0000000
la'e Didn 0.2500000
pu Didn 0.2500000
pu'o Didn 0.2500000
di'u Didn 0.2500000
ctuca be 0.0068259
tolckape be 0.0034130
galfi be 0.0034130
la'ede'u be 0.0034130
falonu be 0.0034130
tolclite be 0.0034130
du be 0.0034130
junri be 0.0068259
terpa be 0.0034130
.ui.uenai be 0.0034130
tunta be 0.0034130
sa'e be 0.0034130
tolcumla be 0.0034130
sevzi be 0.0034130
zasti be 0.0034130
mripre be 0.0034130
ju'o be 0.0034130
truralju be 0.0034130
bredi be 0.0102389
xrukla be 0.0034130
ku'o be 0.0034130
gleki be 0.0273038
sazri be 0.0068259
gento be 0.0034130
clite be 0.0034130
cladu be 0.0034130
noda be 0.0034130
.a'i be 0.0034130
plana be 0.0034130
moi be 0.0034130
cu be 0.0341297
cripa be 0.0034130
jdari be 0.0034130
snura be 0.0068259
nu be 0.0034130
ka be 0.0546075
selgau be 0.0034130
du'u be 0.0102389
ki'asku be 0.0034130
go'a be 0.0034130
.e'e be 0.0034130
secau be 0.0034130
.ijebo be 0.0034130
volve be 0.0170648
krasi be 0.0034130
i'a be 0.0068259
zanvi'e be 0.0034130
sapselga'e be 0.0034130
lerci be 0.0341297
gu be 0.0034130
mu'ei be 0.0034130
gubni be 0.0034130
xajmi be 0.0136519
ja'o be 0.0068259
vensa be 0.0068259
torsku be 0.0034130
drata be 0.0068259
tolkansa be 0.0034130
malbebna be 0.0034130
sarcu be 0.0034130
lizdu'o be 0.0034130
mabla be 0.0034130
rupne'uru be 0.0068259
na be 0.0068259
cau'a be 0.0034130
ticysku be 0.0034130
cmaci be 0.0034130
nago'i be 0.0068259
madystace be 0.0034130
sorbaucre be 0.0034130
kamcedu be 0.0034130
jamna be 0.0034130
cirko be 0.0034130
fe'eroroi be 0.0034130
la.tatoebas. be 0.0034130
tarmi be 0.0034130
ckeji be 0.0068259
jarbu be 0.0034130
bregau be 0.0034130
jutsi be 0.0034130
boston. be 0.0034130
ziljmina be 0.0034130
zabna be 0.0034130
kansa be 0.0170648
zanselfunri'a be 0.0034130
la'a be 0.0102389
smaji be 0.0136519
ranxi be 0.0034130
za'umoi be 0.0034130
.o'unai.ui be 0.0034130
no'e be 0.0034130
NULL be 0.1365188
terjbera be 0.0034130
misno be 0.0034130
mroxadni be 0.0034130
ricfu be 0.0068259
ba'a be 0.0034130
jundi be 0.0034130
ba'oi be 0.0034130
foldi be 0.0034130
ba be 0.1228669
giji be 0.0136519
.a'ocai be 0.0034130
la.rosi,os. be 0.0034130
jai be 0.0102389
bebna be 0.0136519
ja be 0.0102389
certu be 0.0034130
vamtu be 0.0068259
lodu'u be 0.0068259
stace be 0.0068259
nalzvati be 0.0034130
mulno be 0.0102389
te be 0.0034130
narju be 0.0034130
mi'afra be 0.0034130
cando be 0.0068259
jgira be 0.0034130
claxu be 0.0034130
lazni be 0.0068259
ja'a be 0.0034130
denpa be 0.0068259
tolmansa be 0.0034130
tolfapro be 0.0034130
kakne be 0.0034130
se be 0.0102389
xorxes.luis.borxes Jorge 1.0000000
tu'a surprised 0.0277778
se surprised 0.1666667
cu surprised 0.0555556
lonu surprised 0.0277778
spaji surprised 0.3611111
pu surprised 0.1666667
jmive surprised 0.0277778
poi surprised 0.0277778
kei surprised 0.0277778
ka surprised 0.0555556
smaji surprised 0.0555556
te,odoros. rose 0.1111111
rozgu rose 0.3333333
denmi rose 0.1111111
.teodoros. rose 0.1111111
narzutse rose 0.1111111
la rose 0.2222222
co mittens 0.3333333
gluta mittens 0.6666667
tcidu recall 0.5000000
ba'anai recall 0.5000000
la'oi Junko 0.2500000
la Junko 0.2500000
djunkos Junko 0.2500000
djunko Junko 0.2500000
limne swimmer 0.5000000
limna swimmer 0.5000000
cilce ferocious 0.5000000
DeVito ferocious 0.5000000
ki'ecai Thank 0.0588235
ckire Thank 0.2941176
ki'e Thank 0.3823529
ki'esai Thank 0.0294118
sai Thank 0.0882353
ki'o Thank 0.0294118
mi Thank 0.0588235
so'iva'e Thank 0.0294118
.uo.oinai Thank 0.0294118
budjo Buddhist 1.0000000
barjyse'u Bartender 0.5000000
doi Bartender 0.5000000
mu'ima motivation 1.0000000
carvi dogs 0.0434783
mutce dogs 0.0434783
gerku dogs 0.9130435
dertu dirt 1.0000000
.kordobas. authorization 1.0000000
alna sprigs 0.3333333
jimca sprigs 0.3333333
galtu sprigs 0.3333333
la Kazan 0.1428571
kazan Kazan 0.1428571
cnita Kazan 0.1428571
tcana Kazan 0.1428571
se Kazan 0.1428571
trene Kazan 0.1428571
bu'u Kazan 0.1428571
tu'a patiently 0.5000000
depyjdari patiently 0.5000000
pe'i opine 1.0000000
la Apollo 0.3333333
apolon Apollo 0.3333333
fi Apollo 0.3333333
verba kid 1.0000000
smaji quiet 0.7894737
vlile quiet 0.0526316
ze'e quiet 0.0526316
to'e quiet 0.0526316
binxo quiet 0.0526316
tanru complex 0.2000000
.OIdipus. complex 0.2000000
pluja complex 0.6000000
NULL Tis 1.0000000
poi rotten 0.2500000
cazyfusra rotten 0.2500000
fusra rotten 0.5000000
smaji silent 0.8000000
roda silent 0.2000000
kalte stalked 1.0000000
ga'i maggot 0.5000000
nai maggot 0.5000000
vasru while 0.0222222
kurji while 0.0222222
xalbebna while 0.0222222
.adEl. while 0.0222222
ca while 0.2222222
NULL while 0.0888889
ze'i while 0.0222222
smaji while 0.0444444
stasu while 0.0222222
volve while 0.0222222
tom. while 0.0222222
surla while 0.0444444
stedu while 0.0222222
ca'o while 0.0444444
ze'a while 0.0666667
puzavi while 0.0222222
nu while 0.2666667
.erve Money 0.1428571
lo Money 0.2857143
loi Money 0.1428571
jdini Money 0.4285714
desygau shook 0.3333333
da shook 0.3333333
cu shook 0.3333333
renro cast 1.0000000
cy bores 1.0000000
spesti divorce 0.5000000
nu divorce 0.5000000
za'i poet 0.1428571
terpemci poet 0.1428571
pemci poet 0.1428571
pemci'a poet 0.1428571
finti poet 0.1428571
pemfi'i poet 0.2857143
selcpe asks 0.2000000
selji'i asks 0.2000000
be asks 0.4000000
cpedu asks 0.2000000
be kinds 0.3333333
insekto kinds 0.3333333
jutsi kinds 0.3333333
cisma smile 0.6666667
lonu smile 0.3333333
nai Huh 0.2500000
.ue Huh 0.2500000
pau Huh 0.2500000
ua Huh 0.2500000
krici despite 1.0000000
si'au seem 0.1428571
ka seem 0.1428571
simlu seem 0.7142857
ponse tool 0.2000000
tutci tool 0.6000000
ke'a tool 0.2000000
miraris.uos Vos 1.0000000
me Whose 0.0322581
jgita Whose 0.0322581
ralte Whose 0.1290323
se Whose 0.0645161
ci'arselpapri Whose 0.0322581
lo Whose 0.1935484
ma Whose 0.3548387
relxilma'e Whose 0.0322581
ponse Whose 0.0967742
po Whose 0.0322581
cizra Crazy 1.0000000
.e'u Always 0.2000000
ko Always 0.2000000
jbira'e Always 0.2000000
NULL Always 0.2000000
roroi Always 0.2000000
ko'a socks 0.3333333
po socks 0.3333333
smoka socks 0.3333333
claxu short 0.0454545
to'u short 0.1818182
to'utce short 0.0454545
cmalu short 0.0454545
poi short 0.0454545
nicte short 0.0454545
ze'i short 0.0454545
rafsi short 0.0454545
tordu short 0.4545455
nunpenmi short 0.0454545
sligu Solid 1.0000000
kargyrai most 0.0294118
crisa most 0.0294118
su'e most 0.0588235
nadrai most 0.0294118
so'e most 0.0294118
mabla most 0.0294118
tarci'e most 0.0294118
nunselpluka most 0.0294118
serai most 0.0294118
seti'u most 0.0294118
NULL most 0.1470588
dirba most 0.0294118
caprai most 0.0294118
poi most 0.0294118
ka most 0.0882353
traji most 0.3529412
jaugacbloti steamboat 1.0000000
.flOridas. Florida 0.5000000
la Florida 0.5000000
cutne clasped 1.0000000
bakni Cattle 1.0000000
meris. ones 0.1666667
gi'o ones 0.1666667
djan. ones 0.1666667
snada ones 0.3333333
nagi'a ones 0.1666667
NULL between 0.0769231
rinkyra'a between 0.0769231
redo between 0.0769231
nu between 0.0769231
frica between 0.2307692
skucaujmi between 0.0769231
midju between 0.0769231
cu between 0.0769231
jbini between 0.0769231
pavo between 0.1538462
kulnu culturally 1.0000000
elvetias Switzerland 0.3333333
.xelvetik. Switzerland 0.3333333
gugdecuxe Switzerland 0.3333333
jgidu'esku gloat 1.0000000
ligytedyske Geology 1.0000000
seri'anai doesn 0.0104167
.kevin. doesn 0.0104167
nalgleki doesn 0.0104167
so'u doesn 0.0104167
na doesn 0.4583333
cu doesn 0.1250000
rapli doesn 0.0104167
meris doesn 0.0104167
na.u doesn 0.0104167
NULL doesn 0.0729167
.anas. doesn 0.0104167
.uan. doesn 0.0104167
tom. doesn 0.0208333
gugdejupu doesn 0.0208333
bradi doesn 0.0104167
no doesn 0.0104167
to'e doesn 0.0104167
ba'o doesn 0.0208333
zukybajra doesn 0.0104167
lankyboi doesn 0.0104167
fetsi doesn 0.0208333
na.e doesn 0.0104167
nai doesn 0.0312500
poi doesn 0.0208333
.ian. doesn 0.0104167
roroinai doesn 0.0104167
palku doesn 0.0104167
panpi doesn 0.0104167
selsmu doesn 0.0104167
ca Someday 0.5000000
da Someday 0.5000000
likydekpu gallons 0.5000000
se gallons 0.5000000
pe erased 0.3333333
vimcu erased 0.3333333
pu erased 0.3333333
le expensive 0.0416667
kargyrai expensive 0.0416667
du'e expensive 0.1250000
jdima expensive 0.0416667
kargu expensive 0.7083333
ni expensive 0.0416667
lonu less 0.1578947
mleca less 0.2105263
xalbebna less 0.0526316
jdika less 0.1052632
lo'e less 0.1052632
selja'e less 0.0526316
na'e less 0.0526316
me'i less 0.0526316
NULL less 0.2105263
mo'u memorize 0.5000000
morji memorize 0.5000000
banku'anu Kannada 1.0000000
mijytu'a Mediterranean 1.0000000
euklidi Euclidean 1.0000000
toi Solaris 0.2500000
soliaris Solaris 0.2500000
cuktrnovela Solaris 0.2500000
to Solaris 0.2500000
da Lojbanistan 1.0000000
go Tully 0.1000000
zei Tully 0.2000000
kikeron Tully 0.1000000
du Tully 0.2000000
gi Tully 0.1000000
la Tully 0.1000000
tulius Tully 0.2000000
jursa harsh 1.0000000
spita infirmary 1.0000000
lerfu symbols 0.5000000
banvoksle symbols 0.5000000
.i plot 0.5000000
se plot 0.5000000
NULL length 0.2857143
be length 0.1428571
gutci length 0.2857143
satci length 0.1428571
li length 0.1428571
datygugvi'e tourist 1.0000000
kadri Rosa 1.0000000
blari'o blue-green 1.0000000
de believing 0.2000000
da believing 0.2000000
viska believing 0.1000000
nu believing 0.3000000
krici believing 0.2000000
pastu dresses 1.0000000
belrus Belarus 1.0000000
.i Look 0.0357143
jundi Look 0.0357143
go'i Look 0.0357143
viska Look 0.0714286
.o'a Look 0.0357143
catlu Look 0.3214286
na.e Look 0.0357143
ko Look 0.4285714
xrani bloodshed 1.0000000
smuske Semantics 1.0000000
brogu'e Israel 1.0000000
tolstace insincere 1.0000000
do Sing 0.3333333
pe'u Sing 0.3333333
sanga Sing 0.3333333
plekarni magazines 0.3333333
karni magazines 0.3333333
xrakarni magazines 0.3333333
curve pure 1.0000000
kujmikce nurse 1.0000000
si'a holds 0.3333333
boljinterjvi holds 0.3333333
e holds 0.3333333
banjupunu Japanese 0.0192308
ponjo Japanese 0.6730769
ponbau Japanese 0.1730769
fe'eroroi Japanese 0.0192308
lo Japanese 0.0192308
tu'a Japanese 0.0192308
gugdejupu Japanese 0.0192308
ponpre Japanese 0.0384615
le Japanese 0.0192308
cliva reluctant 0.5000000
toldji reluctant 0.5000000
tu'a treat 0.1250000
ko'a treat 0.2500000
ge treat 0.1250000
tolfekybi'o treat 0.1250000
tcidu treat 0.1250000
fartra treat 0.1250000
gi treat 0.1250000
cisti flu 0.2000000
bilma flu 0.2000000
kei flu 0.2000000
.influ,enzas. flu 0.2000000
la flu 0.2000000
selgei together 0.0714286
kansa together 0.0714286
pu'u together 0.0714286
ka'ai together 0.0714286
zutse together 0.0714286
zu'ai together 0.0714286
co together 0.0714286
kansi'u together 0.1428571
NULL together 0.1428571
cadzu together 0.0714286
lu'o together 0.0714286
ka together 0.0714286
ctigau feeds 0.1250000
be feeds 0.1250000
jai feeds 0.1250000
sabji feeds 0.1250000
gau feeds 0.1250000
vo'a feeds 0.1250000
fi feeds 0.1250000
cu feeds 0.1250000
ninmu woman 0.7647059
pa woman 0.0196078
vau woman 0.0196078
poi woman 0.0196078
noi woman 0.0392157
ma'urni'u woman 0.0196078
NULL woman 0.0392157
pe woman 0.0784314
ge'u lived 0.0400000
xabju lived 0.4800000
jmive lived 0.0400000
maris lived 0.0400000
la.maik. lived 0.0400000
cu lived 0.0800000
rom lived 0.0400000
boston lived 0.0400000
nagoi,ias lived 0.0400000
mivru'e lived 0.0400000
pu lived 0.1200000
di'a Wow 0.1250000
.ua Wow 0.1250000
.ue Wow 0.1250000
jundi Wow 0.1250000
.u'e Wow 0.3750000
NULL Wow 0.1250000
nancyprali annual 1.0000000
jinmrbosmi Osmium 1.0000000
pejgau spread 1.0000000
badenvirtemberg Baden-Württemberg 1.0000000
selcru hardware 1.0000000
jinmrdubni Dubnium 1.0000000
ko Fetch 0.5000000
cpacu Fetch 0.5000000
mentolcre dumb 0.5000000
mutce dumb 0.5000000
tolprali clumsy 0.5000000
jai clumsy 0.5000000
kalvi'u gouge 1.0000000
tamji Something 0.1000000
fasnu Something 0.3000000
be'u Something 0.1000000
kanjunla Something 0.1000000
li'asai Something 0.1000000
da Something 0.1000000
junla Something 0.1000000
ja'o Something 0.1000000
pu lasted 0.5000000
tigzgi lasted 0.5000000
la'o Danny 0.5000000
Danny Danny 0.5000000
prulamji week 0.0416667
jetfu week 0.0833333
ro week 0.0416667
pu week 0.1250000
zi week 0.1250000
ca week 0.0416667
be week 0.0416667
li week 0.0416667
jeftu week 0.4583333
te document 1.0000000
sivni secret 0.0833333
ti secret 0.1666667
ko secret 0.0833333
selmipri secret 0.0833333
mipri secret 0.4166667
do secret 0.0833333
zilmipri secret 0.0833333
nu cuttlefish 1.0000000
ke'a Allan 0.2500000
la Allan 0.2500000
me Allan 0.2500000
.alyn. Allan 0.2500000
poi percent 0.2000000
ce'i percent 0.2000000
loi percent 0.2000000
po'o percent 0.2000000
lanzu percent 0.2000000
angila eels 1.0000000
va'i rephrase 1.0000000
xrugau return 0.2307692
nu return 0.1538462
xrukla return 0.0769231
se'ixru return 0.0769231
bazisai return 0.0769231
xruti return 0.1538462
ro return 0.0769231
fetsi return 0.0769231
volve return 0.0769231
ninmu Women 0.2857143
tikygau Women 0.1428571
lo'e Women 0.1428571
zo'e Women 0.1428571
nelci Women 0.1428571
za'u Women 0.1428571
sam Sam 0.2000000
.e'unai Sam 0.2000000
la Sam 0.2000000
doi Sam 0.2000000
.sam. Sam 0.2000000
karda tiles 1.0000000
cu bites 0.5000000
batci bites 0.5000000
cukla result 0.1818182
nu'a result 0.0909091
jalge result 0.7272727
pensi'u meeting 0.0434783
nunpe'i meeting 0.0869565
nunpenmi meeting 0.0434783
NULL meeting 0.1304348
.i meeting 0.0434783
kei meeting 0.0434783
nu meeting 0.1739130
ganzu meeting 0.0434783
penmi meeting 0.1739130
cabvanci meeting 0.0434783
nunjmaji meeting 0.1739130
.iamada. Yamada 0.5000000
mi'e Yamada 0.5000000
bolivias Bolivia 1.0000000
.i'i Yay 0.1428571
dai Yay 0.1428571
.ui Yay 0.2857143
ui Yay 0.1428571
NULL Yay 0.1428571
selplicru Yay 0.1428571
spaji big 0.0200000
tavla big 0.0200000
nadycai big 0.0200000
krasi big 0.0200000
barda big 0.8800000
NULL big 0.0200000
.uecai big 0.0200000
cu teenagers 0.2727273
ta teenagers 0.0909091
verntineidja teenagers 0.5454545
ba'o teenagers 0.0909091
re Two 0.3529412
mei Two 0.0588235
bisyladru Two 0.0588235
su'i Two 0.1176471
.e'o Two 0.0588235
mo'u Two 0.0588235
li Two 0.2352941
NULL Two 0.0588235
boldembi peas 1.0000000
gy.Lee Leffingwell 0.3333333
Leffingwell.gy. Leffingwell 0.3333333
jatna Leffingwell 0.3333333
je'e Okay 0.2857143
NULL Okay 0.1428571
.o'o Okay 0.1428571
.i'a Okay 0.1428571
banzu Okay 0.1428571
ta Okay 0.1428571
mijropno Central 1.0000000
ka needy 0.2500000
du'e needy 0.1250000
da needy 0.1250000
kinda needy 0.1250000
sorta needy 0.1250000
nitcu needy 0.2500000
gendra grammatically 1.0000000
nabmi problematic 1.0000000
rau plenty 1.0000000
zi Spring 0.2500000
bazi Spring 0.2500000
vensa Spring 0.5000000
ci'irgau drew 0.2000000
pu drew 0.4000000
jbibi'o drew 0.2000000
te drew 0.2000000
.e'a may 0.1111111
ca'acu'i may 0.0277778
ku may 0.0277778
sei may 0.0277778
si'ercarvi may 0.0277778
la'acu'i may 0.0277778
gu may 0.0277778
mivru'e may 0.0277778
.u'o may 0.0277778
lacri may 0.0277778
lonu may 0.0277778
cumki may 0.0555556
tezu'e may 0.0277778
cuxna may 0.0277778
NULL may 0.1944444
la'a may 0.0277778
ja'aku may 0.0555556
naku may 0.0277778
cu may 0.0833333
cau'a may 0.0555556
crepu may 0.0277778
lindi may 0.0277778
nagi'enai Neither 0.4000000
na.enai Neither 0.2000000
danfu Neither 0.2000000
li'u Neither 0.2000000
rubnstain. Rubinstein 0.2000000
.apasionatas. Rubinstein 0.2000000
.artr. Rubinstein 0.2000000
pe Rubinstein 0.2000000
cu'u Rubinstein 0.2000000
sidartas.gautamas Gautama 1.0000000
kamcnici ruins 1.0000000
roksodna Lithium 1.0000000
pelmeni pelmeni 0.1666667
go'i pelmeni 0.1666667
zo pelmeni 0.1666667
na'i pelmeni 0.1666667
.i pelmeni 0.3333333
febybi'o vaporization 0.5000000
nejni vaporization 0.5000000
cipra test 1.0000000
NULL assume 0.5000000
sruma assume 0.5000000
sarji inhabitants 0.3333333
.i inhabitants 0.3333333
xabju inhabitants 0.3333333
tcila scene 0.0833333
stuzi scene 0.3333333
zekri scene 0.1666667
be scene 0.0833333
fasnu scene 0.0833333
poi scene 0.2500000
malsorgle slut 0.5000000
fi slut 0.1000000
loka slut 0.1000000
lonu slut 0.1000000
simlu slut 0.1000000
za'e slut 0.1000000
naun. America 0.0263158
la America 0.2631579
bemtu'a America 0.0263158
bemjoitcotu'a America 0.0263158
mergu'e America 0.2631579
bemjoitco America 0.1315789
loi America 0.0526316
ketytu'a America 0.0263158
.amerik. America 0.0526316
merko America 0.0789474
amerikas America 0.0263158
la'ortu'a America 0.0263158
jarki narrow 1.0000000
sornai International 0.5000000
gy.Funny International 0.2500000
treci'e International 0.2500000
nimrnsinensi orange 0.1250000
najnimre orange 0.2500000
pa orange 0.1250000
narju orange 0.2500000
cu orange 0.1250000
loi orange 0.1250000
.nikol. Nicole 0.4000000
la Nicole 0.4000000
certu Nicole 0.2000000
lonu liberty 0.1666667
zifre liberty 0.1666667
zukte liberty 0.1666667
banru'usu liberty 0.1666667
rusko liberty 0.1666667
loka liberty 0.1666667
kukte Bon 0.3333333
ko Bon 0.3333333
di'ai Bon 0.3333333
lo One 0.0888889
ditcu One 0.0222222
pamei One 0.1111111
me One 0.0222222
je'i One 0.0222222
po'o One 0.0444444
NULL One 0.0444444
li One 0.0666667
pa One 0.3777778
cilre One 0.0222222
zdadei One 0.0222222
selci'i One 0.0222222
nagi'o One 0.0222222
klama One 0.0444444
co'e One 0.0222222
ri One 0.0222222
xekri One 0.0222222
tumla agents 0.5000000
vecnu agents 0.5000000
paraguais Paraguay 1.0000000
tolmencre brick 0.5000000
kityblibi'u brick 0.5000000
spuda respond 1.0000000
nolraitru admires 0.3333333
sinma admires 0.3333333
naku admires 0.3333333
plise Apple 1.0000000
pi'egre leaped 0.5000000
ri leaped 0.5000000
NULL buy 0.0217391
te buy 0.2391304
ri buy 0.0217391
vecnu buy 0.3043478
.ei buy 0.0217391
sraku buy 0.0217391
tervecnu buy 0.0434783
terve'u buy 0.3043478
ko buy 0.0217391
li bet 0.2000000
pa bet 0.2000000
dejru'a bet 0.2000000
rupnu bet 0.2000000
be bet 0.2000000
ba After 0.2500000
ko'a After 0.2500000
depyjdari After 0.2500000
zgatirna After 0.2500000
bavycu'i our 0.0212766
tankyva'u our 0.0212766
mi'a our 0.1489362
dapma our 0.0212766
to'u our 0.0212766
pluton our 0.0212766
e'e our 0.0212766
bangu our 0.0212766
jbixa'u our 0.0425532
NULL our 0.0425532
ferti our 0.0212766
cazi our 0.0212766
serai our 0.0212766
ma'a our 0.0638298
vu'o our 0.0212766
se our 0.1489362
lo our 0.1702128
zunti our 0.0212766
mi'ai our 0.0851064
doi our 0.0212766
pi'o our 0.0212766
rufsu contrary 0.1666667
ru'a contrary 0.1666667
ta contrary 0.1666667
tolmi'u contrary 0.1666667
ku'i contrary 0.1666667
cmalinsi contrary 0.1666667
senva pleasant 0.2000000
pluka pleasant 0.8000000
tumla real 0.1428571
dacti real 0.1428571
ti real 0.0714286
ckana real 0.0714286
mrena'u real 0.1428571
je'u real 0.0714286
je real 0.0714286
selfri real 0.0714286
bakni real 0.0714286
krinu real 0.0714286
fatci real 0.0714286
lepu'u to 0.0004706
jarple to 0.0004706
sipna to 0.0018824
ckana to 0.0014118
velskina to 0.0009412
.e'icu'i to 0.0004706
cutne to 0.0004706
cmoni to 0.0014118
ka to 0.0931765
selbei to 0.0004706
tolcfari to 0.0004706
simpe'i to 0.0004706
madonas to 0.0004706
selpla to 0.0004706
.ai to 0.0009412
jgari to 0.0004706
.aunai to 0.0032941
la to 0.0004706
tolcumla to 0.0004706
patfa to 0.0004706
re'u to 0.0004706
jbobau to 0.0004706
.ui.uenai to 0.0004706
lecydo'i to 0.0004706
.bastn. to 0.0009412
ku to 0.0004706
nolraitrunau to 0.0009412
dei'a to 0.0004706
fi to 0.0070588
cripa to 0.0004706
paris to 0.0018824
punji to 0.0004706
va'u to 0.0004706
tokios. to 0.0009412
broda to 0.0004706
jmagutci to 0.0004706
tavla to 0.0371765
xrukla to 0.0004706
se'ixru to 0.0014118
slilygau to 0.0004706
sazri to 0.0014118
cikybi'o to 0.0004706
.au to 0.0197647
lonu to 0.0094118
snanu to 0.0004706
noigri to 0.0004706
lenu to 0.0004706
valsi to 0.0004706
lisri to 0.0009412
platu to 0.0009412
ly. to 0.0004706
.uisai to 0.0004706
mapku to 0.0004706
vecnu to 0.0023529
.tato'ebas. to 0.0004706
bi'o to 0.0004706
cando to 0.0004706
spebi'o to 0.0004706
fe to 0.0009412
renytcana to 0.0014118
mo to 0.0032941
reftadni to 0.0004706
blokla to 0.0004706
minsk to 0.0004706
gadganzu] to 0.0004706
an to 0.0009412
paris. to 0.0004706
.a'e to 0.0018824
citka to 0.0004706
ckeji to 0.0009412
cliva to 0.0023529
mulgauka'e to 0.0004706
tezu'e to 0.0004706
pitr. to 0.0004706
ponse to 0.0023529
zukti'i to 0.0004706
node to 0.0004706
poi to 0.0004706
gugdecuxe to 0.0004706
xe to 0.0009412
lo to 0.1289412
simsumji to 0.0009412
pamu to 0.0009412
ba'a to 0.0018824
ba'oi to 0.0004706
.o'unai.ui to 0.0004706
zanvi'e to 0.0018824
xersku to 0.0004706
selfi'i to 0.0004706
selzda to 0.0004706
betis to 0.0009412
relxilma'ekla to 0.0004706
meryru'u to 0.0009412
.ei to 0.0117647
ba'o to 0.0009412
pilno to 0.0009412
du'u to 0.0103529
gletu to 0.0004706
ctino to 0.0004706
nu to 0.1985882
ra'urselja'edji to 0.0004706
xlabi'o to 0.0004706
teris. to 0.0004706
nunjmaji to 0.0014118
zo'e to 0.0004706
dibycai to 0.0004706
sinma to 0.0004706
cusku to 0.0014118
lu'omi'a to 0.0004706
jbedetnunsla to 0.0009412
traide to 0.0004706
ausai to 0.0004706
cidja to 0.0018824
jitfa to 0.0018824
va'e to 0.0004706
loka to 0.0014118
lu'u to 0.0004706
loglan to 0.0004706
au to 0.0032941
nalstace to 0.0004706
pluta to 0.0056471
xerskudji to 0.0004706
ro'i to 0.0004706
o'u to 0.0004706
genxu to 0.0004706
sipybi'o to 0.0009412
bralaizba to 0.0004706
roroiku to 0.0004706
falonu to 0.0004706
ckini to 0.0009412
slabu to 0.0009412
pu to 0.0004706
juliet. to 0.0004706
.a'i to 0.0004706
doi to 0.0004706
lamji to 0.0014118
.uu to 0.0004706
selbapselfu to 0.0004706
iu to 0.0004706
ta'i to 0.0018824
dracybende to 0.0004706
.xauaiis. to 0.0004706
pendji to 0.0004706
lodu'u to 0.0009412
tcica to 0.0004706
surla to 0.0009412
fuzme to 0.0004706
tadji to 0.0009412
ba'unai to 0.0004706
zukte to 0.0032941
nunfa'o to 0.0004706
mrilu to 0.0004706
eipei to 0.0009412
selsau to 0.0004706
xobit. to 0.0004706
djica to 0.0037647
fi'i to 0.0004706
te to 0.0004706
meris to 0.0014118
tixnu to 0.0004706
loi to 0.0009412
ckusro to 0.0004706
dzuli'u to 0.0004706
tcana to 0.0004706
de to 0.0023529
xendo to 0.0018824
pyd to 0.0004706
amerikas to 0.0004706
ke'a to 0.0009412
cinju'i to 0.0004706
lakne to 0.0004706
go to 0.0004706
sedycaugau to 0.0004706
NULL to 0.0630588
mergu'e to 0.0004706
semau to 0.0004706
jdima to 0.0009412
tcini to 0.0004706
da to 0.0004706
nuncenba to 0.0004706
go'a to 0.0009412
misrygu'e to 0.0004706
... to 0.0004706
bei to 0.0004706
nilvifme'abi'o to 0.0004706
di'e to 0.0004706
cmaci to 0.0004706
timnoi to 0.0004706
muvdu to 0.0014118
juxre to 0.0004706
nago'i to 0.0004706
fusra to 0.0004706
gei to 0.0004706
ramus. to 0.0004706
.alyn. to 0.0004706
be to 0.0009412
la.okinauan. to 0.0004706
cicricfoi to 0.0009412
baze'e to 0.0004706
mulis to 0.0004706
kamnu'e to 0.0004706
zarci to 0.0009412
te'a to 0.0009412
djicni to 0.0004706
London to 0.0004706
puco'a to 0.0004706
di'a to 0.0004706
.a'enai to 0.0014118
dunda to 0.0028235
.ui to 0.0028235
maris to 0.0004706
ue to 0.0004706
trina to 0.0009412
bartu to 0.0004706
bilga to 0.0009412
gi'onai to 0.0004706
kucli to 0.0004706
klasika to 0.0004706
ga'a to 0.0028235
fa'a to 0.0004706
respa to 0.0004706
tirna to 0.0004706
jdice to 0.0004706
crenzue to 0.0004706
pritu to 0.0009412
jonsi'u to 0.0009412
ai to 0.0004706
stuna to 0.0004706
mi to 0.0131765
kladji to 0.0004706
selpo'e to 0.0009412
.loris. to 0.0004706
re'o to 0.0004706
tutra to 0.0004706
ta'onai to 0.0004706
narju to 0.0004706
latcmo to 0.0004706
europas to 0.0004706
eksameno to 0.0004706
xagri to 0.0004706
nalgundei to 0.0004706
jibmatygau to 0.0004706
lolnitre'e to 0.0004706
smacni to 0.0004706
dirba to 0.0004706
e'i to 0.0018824
troci to 0.0004706
tolplixau to 0.0004706
.e'i to 0.0009412
dansu to 0.0004706
ba to 0.0028235
vajni to 0.0018824
fukpi to 0.0009412
ei to 0.0094118
jugypre to 0.0004706
foldi to 0.0004706
le to 0.0014118
seka'a to 0.0014118
jundi to 0.0037647
.ijo to 0.0009412
kanadas to 0.0004706
la'a to 0.0009412
.paulas. to 0.0004706
ko'e to 0.0018824
djan. to 0.0004706
ui to 0.0009412
tu'a to 0.0070588
rinsa to 0.0009412
sraku to 0.0004706
be'e to 0.0004706
.u.01.u. to 0.0004706
kai'a to 0.0004706
culno to 0.0004706
.uanai to 0.0014118
farlu to 0.0004706
selcu'u to 0.0004706
la.siatl. to 0.0009412
ce'u to 0.0004706
mexygu'e to 0.0004706
ta'e to 0.0004706
nalki'asku to 0.0004706
po'onai to 0.0004706
lizdu'o to 0.0004706
.naras. to 0.0004706
simpengau to 0.0004706
fatci to 0.0004706
frili to 0.0004706
salci to 0.0004706
narzutse to 0.0004706
xecu'u to 0.0004706
capfu'a to 0.0004706
di'ai to 0.0004706
mi'u to 0.0004706
zdani to 0.0014118
sanga to 0.0018824
tinju'i to 0.0056471
lai to 0.0004706
srana to 0.0004706
baupli to 0.0004706
co'e to 0.0004706
go'i to 0.0009412
.djein. to 0.0004706
la.paRIZ. to 0.0004706
jbera to 0.0032941
ba'e to 0.0009412
dzukla to 0.0009412
01 to 0.0004706
tolnurcni to 0.0004706
.tokion. to 0.0004706
pu'o to 0.0018824
ku'o to 0.0004706
.uecai to 0.0004706
eisai to 0.0004706
vamtu to 0.0009412
klama to 0.1025882
nerkalri to 0.0009412
zu'e to 0.0004706
giji to 0.0009412
randa to 0.0004706
ckakla to 0.0023529
vanjyjikru to 0.0004706
se to 0.0070588
narcumki to 0.0004706
spuda to 0.0018824
baca'o to 0.0004706
bevbe'i to 0.0004706
mumdei to 0.0004706
selfri to 0.0004706
mrobi'o to 0.0009412
lifri to 0.0009412
pante to 0.0004706
co'a to 0.0080000
zanselfunri'a to 0.0004706
.u'o to 0.0004706
tarmi to 0.0004706
nunfusra to 0.0004706
jarbu to 0.0004706
do'adai to 0.0004706
.ainai to 0.0004706
zgatirna to 0.0009412
a'o to 0.0004706
italias. to 0.0009412
cinmle to 0.0004706
ropno to 0.0009412
temselfesti to 0.0004706
Ganyn to 0.0004706
klesi to 0.0004706
argail to 0.0009412
za'i to 0.0009412
ninpe'i to 0.0004706
be'a to 0.0004706
penmi to 0.0014118
slugu'a to 0.0004706
za'umei to 0.0004706
zinki Zinc 1.0000000
lo Music 0.2000000
zgike Music 0.4000000
cu Music 0.2000000
nu Music 0.2000000
bo Galaxy 0.2500000
barda Galaxy 0.2500000
girzu Galaxy 0.2500000
tarci Galaxy 0.2500000
mutce hills 0.5000000
slabu hills 0.5000000
noi strangled 1.0000000
pu hell 0.2500000
.o'onai hell 0.2500000
ko'a hell 0.2500000
cai hell 0.2500000
barja serving 0.5000000
loi serving 0.5000000
ba later 0.2142857
co'o later 0.1428571
e'o later 0.0714286
balvi later 0.0714286
jugbau later 0.0714286
baza later 0.0714286
di'u later 0.0714286
za later 0.1428571
NULL later 0.0714286
po'o later 0.0714286
mobyterle'i underpaid 1.0000000
la'oi Emi 0.2500000
Emi Emi 0.2500000
la'o Emi 0.2500000
gy.Emi.gy. Emi 0.2500000
Nagardjunas Nagarjuna 1.0000000
nu'o didn 0.0095238
nai didn 0.0095238
.u'u didn 0.0095238
tinbe didn 0.0095238
co'e didn 0.0095238
nalzasti didn 0.0095238
takeutcis didn 0.0190476
u'unai didn 0.0095238
na’e didn 0.0095238
punai didn 0.0095238
nalgundei didn 0.0095238
paroinai didn 0.0095238
.djon. didn 0.0095238
NULL didn 0.0476190
na didn 0.3714286
djica didn 0.0095238
djucpe didn 0.0095238
pu didn 0.4000000
.tom. didn 0.0285714
djamaikas Jamaica 1.0000000
cokcu sponge 0.5000000
panje sponge 0.5000000
li'u hole 0.1666667
kevna hole 0.6666667
be hole 0.1666667
zo John 0.0120482
djan John 0.0722892
mi'e John 0.0120482
doi John 0.0361446
.djan. John 0.1927711
la.djan. John 0.0120482
djan. John 0.1807229
la John 0.3614458
djon John 0.0240964
.djon. John 0.0602410
NULL John 0.0120482
jon John 0.0240964
terdi Middle-earth 0.3333333
la Middle-earth 0.3333333
midju Middle-earth 0.3333333
datni Data 0.2500000
rodjer.klark Data 0.2500000
du'o Data 0.2500000
la Data 0.2500000
ernan.kortes Hernán 1.0000000
nu celebrate 1.0000000
pagbu sales 0.5000000
vecnu sales 0.5000000
ka smiling 0.1428571
fa'a smiling 0.1428571
sega'a smiling 0.1428571
cisma smiling 0.4285714
ca smiling 0.1428571
ka'e burn 0.2500000
jelca burn 0.7500000
nu y 0.5000000
rodo y 0.5000000
klama Coming 0.3333333
lo Coming 0.3333333
nu Coming 0.3333333
kiiv. capital 0.0833333
NULL capital 0.0833333
.amsterdam. capital 0.0833333
raltca capital 0.6666667
belgium capital 0.0833333
vidru space 0.1428571
kensa space 0.4285714
ve'e space 0.1428571
lo space 0.2857143
nakni fooled 0.2000000
pu fooled 0.2000000
le fooled 0.2000000
tcica fooled 0.2000000
jai fooled 0.2000000
velmicyxu'i pharmacy 0.1538462
poi pharmacy 0.0769231
zaisle pharmacy 0.0769231
be pharmacy 0.1538462
le pharmacy 0.2307692
zo'u pharmacy 0.0769231
micyxu'i pharmacy 0.0769231
zarci pharmacy 0.1538462
la. Chris 0.2000000
.kris. Chris 0.2000000
cuxna Chris 0.2000000
la Chris 0.2000000
kris. Chris 0.2000000
xa 6 0.6666667
i 6 0.3333333
la Qo 0.5000000
koknoc. Qo 0.5000000
sispe'i difficulty 0.1250000
tcini difficulty 0.1250000
ko'e difficulty 0.1250000
do difficulty 0.1250000
nabmi difficulty 0.1250000
ku difficulty 0.1250000
frili difficulty 0.1250000
NULL difficulty 0.1250000
cliva Yeah 0.1250000
.i Yeah 0.1250000
nai Yeah 0.1250000
bu'unai Yeah 0.1250000
go'i Yeah 0.1250000
.u'u Yeah 0.1250000
.ie Yeah 0.2500000
Lem Lem 1.0000000
nalvelganzu Amorphous 1.0000000
so'e lots 1.0000000
ke'a aced 0.2500000
snada aced 0.2500000
serai aced 0.1250000
cfatadni aced 0.2500000
traji aced 0.1250000
fenki mad 0.1666667
fengu mad 0.6666667
pei mad 0.1666667
cu flippers 0.4000000
tutci flippers 0.2000000
nalci flippers 0.2000000
terzu'e flippers 0.2000000
barna Sunspot 0.5000000
solri Sunspot 0.5000000
menli clear 0.1111111
klina clear 0.5555556
NULL clear 0.1111111
surla clear 0.1111111
.au clear 0.1111111
toknu oven 1.0000000
ra unanimous 1.0000000
tolci'o tiredness 1.0000000
djicni forward 0.3333333
renono forward 0.3333333
bakni forward 0.3333333
tam invited 0.2000000
pu invited 0.2000000
vi'ecpe invited 0.6000000
se work 0.1770833
briju work 0.0625000
bu'u work 0.0104167
fi work 0.0312500
pi work 0.0104167
ca work 0.0520833
NULL work 0.0104167
nalterlejgu'a work 0.0104167
mo'u work 0.0104167
gunka work 0.4895833
selfi'i work 0.0104167
seljibri work 0.0104167
.ei work 0.0104167
kanpe work 0.0104167
ro'e work 0.0104167
ze'a work 0.0104167
nu work 0.0104167
jibri work 0.0625000
no Nobody 0.3793103
noda Nobody 0.1379310
ro Nobody 0.0344828
da'apa Nobody 0.0344828
da Nobody 0.3793103
na'ebo Nobody 0.0344828
xueizis Huizi 0.5000000
la Huizi 0.5000000
mabla unfair 0.5000000
na'arde'a unfair 0.5000000
jinmrkuri Curium 1.0000000
kargu how 0.0082645
NULL how 0.0495868
renvi how 0.0082645
sazri how 0.0082645
coi how 0.0247934
ta'i how 0.1322314
pei how 0.0330579
fi how 0.0743802
zo'ei how 0.0082645
ca'i how 0.0082645
ti how 0.0082645
xo how 0.0330579
coico'o how 0.0082645
nalju'o how 0.0082645
nanca how 0.0247934
ma how 0.0909091
cilre how 0.0247934
fi'a how 0.0165289
ka'erbi'o how 0.0082645
be how 0.0247934
ctebi how 0.0082645
li how 0.0082645
vobi how 0.0082645
zo'e how 0.0247934
kau how 0.0743802
makau how 0.0247934
bi'unai how 0.0165289
du'u how 0.0991736
tadji how 0.0578512
retsku how 0.0082645
fa how 0.0082645
di'e how 0.0082645
.uanai how 0.0247934
pixokau how 0.0082645
jukpa how 0.0082645
u'e how 0.0082645
dargu road 0.8000000
pritu road 0.2000000
NULL kitchen 0.1250000
ko'a kitchen 0.1250000
jupku'a kitchen 0.6250000
ei kitchen 0.1250000
zanru proposal 0.3333333
selti'i proposal 0.6666667
xanri imagination 0.2000000
ka imagination 0.2000000
xarpei imagination 0.2000000
vajni imagination 0.2000000
NULL imagination 0.2000000
pe g 1.0000000
vo Four 1.0000000
dertu soil 1.0000000
pu crossposted 0.3333333
benji crossposted 0.3333333
ze'o crossposted 0.3333333
tcica deceiving 1.0000000
citri History 0.7500000
xelso History 0.2500000
.i … 1.0000000
zo'u satsuma 0.5000000
sairfa'o satsuma 0.5000000
pamu fifteen 0.5000000
mo'a fifteen 0.2500000
su'e fifteen 0.2500000
vartitspi marshmallow 1.0000000
mitcinpa'i gay 0.2500000
sinxa gay 0.2500000
du'u gay 0.2500000
mitcinse gay 0.2500000
ta'e Sundays 0.5000000
zeldei Sundays 0.5000000
trici tree 0.0400000
stedu tree 0.0400000
na tree 0.0800000
va tree 0.0400000
tricu tree 0.8000000
prunyplipe elastic 1.0000000
cu hurts 0.0909091
se hurts 0.1363636
zargu hurts 0.0454545
cortu hurts 0.4090909
bekpi hurts 0.0454545
NULL hurts 0.0454545
mi hurts 0.1363636
be hurts 0.0454545
stedu hurts 0.0454545
.braiyn. Brian 0.2500000
brai,n. Brian 0.2500000
la. Brian 0.2500000
NULL Brian 0.2500000
ko Wait 0.4705882
denpa Wait 0.5294118
nalfendi Prime 0.2500000
mi Prime 0.2500000
kacna'u Prime 0.2500000
truralju Prime 0.2500000
rupnu $ 0.1666667
jdika $ 0.0833333
gai $ 0.0833333
zo'e $ 0.0833333
paki'oki'o $ 0.0833333
30 $ 0.0833333
be $ 0.1666667
li $ 0.2500000
galbisybau High 1.0000000
ka stone 0.1000000
rokci stone 0.6000000
di'u stone 0.1000000
ckaji stone 0.1000000
tolfesru'e stone 0.1000000
jdatcana church 0.0909091
malsi church 0.6363636
xismalsi church 0.2727273
zo'o Seriously 0.3333333
cu'i Seriously 0.3333333
ru'a Seriously 0.3333333
bancu place 0.0294118
45 place 0.0294118
basti place 0.0294118
tivni place 0.0294118
mapti place 0.0588235
da place 0.0294118
ku place 0.0588235
ga'inde place 0.0294118
ci'arse'u place 0.0588235
pe place 0.0294118
... place 0.0294118
sispe'i place 0.0294118
nakspe place 0.0294118
zo'ei place 0.0294118
zmadu place 0.0294118
zu'i place 0.0294118
stuzi place 0.2058824
lo'i place 0.0294118
lumbu'u place 0.0294118
.i place 0.0294118
NULL place 0.0882353
tolzdi place 0.0294118
be place 0.0294118
pu drove 0.3000000
lumci drove 0.1000000
fi drove 0.1000000
karce drove 0.1000000
sazri drove 0.1000000
piro drove 0.1000000
mukti drove 0.1000000
ze'a drove 0.1000000
pifcpi Hornbill 1.0000000
zvati save 0.0714286
vukrygugde save 0.0714286
nurxrugau save 0.2142857
NULL save 0.0714286
mu'i save 0.0714286
fanta save 0.0714286
nurgau save 0.2857143
snurygau save 0.0714286
tolpli save 0.0714286
pu female 0.1666667
pa female 0.1666667
cu female 0.1666667
fetsi female 0.5000000
raksygu'e Iraq 1.0000000
carna earth 0.0476190
soi earth 0.0952381
cu earth 0.1428571
noda earth 0.0476190
vo'a earth 0.0476190
kurji earth 0.1428571
mlijilkle earth 0.0476190
terdi earth 0.2857143
gi'e earth 0.0476190
la earth 0.0952381
zgikrxumpa Humppa 0.5000000
ko Humppa 0.5000000
lecydo'i afternoon 0.4000000
zi afternoon 0.3333333
ca afternoon 0.2666667
malba agonies 0.3333333
.i agonies 0.3333333
pe agonies 0.3333333
nobli lady 0.1428571
NULL lady 0.1428571
ninmu lady 0.4285714
ke lady 0.1428571
nolni'u lady 0.1428571
krici feels 0.5000000
cu feels 0.5000000
.ibo occur 0.1666667
baza occur 0.0833333
je'i occur 0.0833333
NULL occur 0.1666667
di'inai occur 0.0833333
srera occur 0.2500000
zo'e occur 0.0833333
co'a occur 0.0833333
gidva Lord 0.3333333
le Lord 0.3333333
cevni Lord 0.3333333
pruxi Spirit 0.5000000
be'e Spirit 0.5000000
cai awful 0.2500000
.uu awful 0.2500000
xlali awful 0.2500000
mutce awful 0.2500000
cpana labourer 0.2500000
gunka labourer 0.2500000
se labourer 0.2500000
fi'o labourer 0.2500000
namsos Namsos 1.0000000
la Anyi 0.5000000
.an,iis. Anyi 0.2500000
joi Anyi 0.2500000
nai Roughly 0.5000000
sa'e Roughly 0.5000000
certu able 0.1428571
a'o able 0.0476190
pu'i able 0.0952381
madonas able 0.0476190
ka'e able 0.0952381
kakne able 0.5714286
tu'a search 0.3333333
vlasisku search 0.1666667
sisku search 0.3333333
NULL search 0.1666667
metxani methane 1.0000000
jelca candles 0.2500000
cu candles 0.2500000
laktergu'i candles 0.5000000
tolvri beast 0.5000000
danlu beast 0.5000000
bimoi ninth 1.0000000
stogau phase 1.0000000
curmi allowed 0.1333333
jai allowed 0.1333333
ckuzda allowed 0.0666667
NULL allowed 0.0666667
ka allowed 0.1333333
se allowed 0.2000000
fai allowed 0.2000000
surmi allowed 0.0666667
klasti Stop 0.0400000
sisti Stop 0.2800000
.o'onai Stop 0.0800000
ka Stop 0.0800000
.a'unai Stop 0.0400000
ko Stop 0.4400000
i Stop 0.0400000
za previously 0.4000000
jai previously 0.4000000
se previously 0.2000000
la.linuks. Linux 0.5000000
linuks Linux 0.5000000
nu destruction 0.5000000
co'i destruction 0.5000000
mulno hereby 0.2500000
nu hereby 0.2500000
ca'e hereby 0.2500000
nalzi'e hereby 0.2500000
girzu Social 0.5000000
remna Social 0.5000000
lanme sheep 1.0000000
salpo onto 1.0000000
peljma Yellow-footed 1.0000000
fau If 0.0675676
NULL If 0.0810811
za'i If 0.0270270
.ainaisai If 0.0135135
go If 0.0135135
lo'e If 0.0135135
nu If 0.1756757
da'i If 0.0135135
nibli If 0.0135135
gajanai If 0.0810811
seba'i If 0.0135135
ganai If 0.2432432
jagi If 0.0135135
na.a If 0.0135135
ga If 0.0135135
jaginai If 0.0405405
va'o If 0.1216216
.e'o If 0.0135135
ko If 0.0270270
lu'a separately 0.3333333
ko'a separately 0.3333333
pleji separately 0.3333333
le phrase 0.2000000
jufra phrase 0.1000000
vasru phrase 0.1000000
se phrase 0.1000000
jufpau phrase 0.1000000
pagbu phrase 0.1000000
poi phrase 0.1000000
gi'e phrase 0.1000000
vanbi phrase 0.1000000
jgita violinist 0.5000000
pumo'u violinist 0.5000000
la.sidnis. Sydney 0.5000000
fi Sydney 0.5000000
ku wall 0.1250000
bitmu wall 0.6250000
kityblibi'u wall 0.1250000
ne'a wall 0.1250000
ro Whoever 0.2500000
gi'o Whoever 0.2500000
da Whoever 0.2500000
zo'u Whoever 0.2500000
NULL subject 0.1666667
tercu'e subject 0.0833333
seltadni subject 0.0833333
nunfa'o subject 0.0833333
lo'i subject 0.1666667
moi subject 0.0833333
se subject 0.0833333
casnu subject 0.0833333
nelrai subject 0.0833333
nunfusra subject 0.0833333
melbi audiencely-beautiful 0.2500000
tavla audiencely-beautiful 0.2500000
se audiencely-beautiful 0.2500000
tam. audiencely-beautiful 0.2500000
lo'e Rabbits 0.3333333
cu Rabbits 0.3333333
ractu Rabbits 0.3333333
bolgu'odi'u alley 1.0000000
za'u Gods 0.3333333
ku Gods 0.3333333
cevni Gods 0.3333333
ne'i hiding 0.3000000
mipri hiding 0.2000000
vobmipri hiding 0.5000000
jamna brought 0.0625000
flecu brought 0.0625000
nunspe brought 0.0625000
terve'u brought 0.0625000
klagau brought 0.0625000
fi brought 0.1250000
bevri brought 0.0625000
.iseki'ubo brought 0.0625000
mojgau brought 0.0625000
pu brought 0.1875000
dunda brought 0.0625000
la'edi'u brought 0.0625000
mulis. brought 0.0625000
zo screams 0.2000000
fyk. screams 0.2000000
krixa screams 0.2000000
cu screams 0.2000000
.kentykis. screams 0.2000000
kulnu culture 1.0000000
jgari holding 0.3333333
sarji holding 0.3333333
ri holding 0.3333333
nerklastu entrance 0.2500000
be entrance 0.2500000
nerkalri entrance 0.5000000
muicerangas Muixeranga 1.0000000
NULL slightly 0.3333333
ka slightly 0.3333333
milxe slightly 0.3333333
feprykenra lung 0.2500000
rinkyra'a lung 0.2500000
se lung 0.2500000
cu lung 0.2500000
muvdu 500 1.0000000
ta address 0.1000000
tu'a address 0.1000000
NULL address 0.1000000
me address 0.1000000
judri address 0.6000000
muki'o 5,000 1.0000000
jemna pearls 0.2500000
lo pearls 0.5000000
vi pearls 0.2500000
.tsar. tsar 1.0000000
karcru open 0.0555556
NULL open 0.0555556
ca open 0.0555556
ko open 0.0555556
kargau open 0.6666667
kalri open 0.1111111
co'a starting 0.2500000
pu'e starting 0.2500000
se starting 0.2500000
fred starting 0.1250000
cavdirgo starting 0.1250000
caucni miss 0.8333333
cinmo miss 0.1666667
pasifik voyage 0.2000000
di'ai voyage 0.2000000
xamgu voyage 0.2000000
nu voyage 0.2000000
litru voyage 0.2000000
ka'u mustn 0.3333333
.ei mustn 0.3333333
cabdei mustn 0.3333333
galxe throat 0.5000000
bilma throat 0.5000000
jonsi'u U.N. 0.2500000
gugde U.N. 0.2500000
cmima U.N. 0.2500000
la U.N. 0.2500000
ke antique 0.5000000
laldo antique 0.5000000
tu'urvau tube 0.5000000
i tube 0.5000000
jdima goods 0.2500000
selve'u goods 0.2500000
mi'a goods 0.2500000
cu goods 0.2500000
pinsi pencils 1.0000000
cikybi'o morning 0.0294118
xagycerni morning 0.0294118
cabycerni morning 0.0294118
bi morning 0.0294118
cerni morning 0.5588235
vo morning 0.0294118
djedi morning 0.0294118
NULL morning 0.0294118
ca morning 0.2352941
loi iron 0.3333333
tirse iron 0.6666667
citka lunch 0.0625000
noda lunch 0.0625000
dormijysai lunch 0.6875000
be lunch 0.1875000
cipra examination 1.0000000
tu'a careless 1.0000000
19xyxymoi 20th 1.0000000
fi ripped 0.3333333
pu ripped 0.3333333
zerle'a ripped 0.3333333
selti'i approved 0.6666667
NULL approved 0.3333333
pamumoi fifteenth 0.3333333
ctona'a fifteenth 0.3333333
ca fifteenth 0.3333333
frati responding 1.0000000
benesuel Venezuela 1.0000000
cnitce sentimental 1.0000000
cfatadni freshman 1.0000000
jbibi'o near 0.0588235
daspo near 0.0588235
cu near 0.1176471
vi near 0.4117647
jibni near 0.1176471
NULL near 0.0588235
ne'a near 0.0588235
xabju near 0.0588235
va near 0.0588235
jivna competing 1.0000000
selsku remain 0.3333333
cmecau remain 0.3333333
stali remain 0.3333333
pu ran 0.2666667
mo'u ran 0.0666667
penmi ran 0.0666667
to'o ran 0.0666667
bajra ran 0.5333333
le shop 0.1111111
kafyzai shop 0.2222222
kafyzarci shop 0.1111111
zarci shop 0.3333333
i shop 0.1111111
be shop 0.1111111
.eipei must 0.0156250
ei must 0.0937500
tolfapro must 0.0156250
eidai must 0.0156250
mintu must 0.0156250
carmi must 0.0156250
bilga must 0.2031250
mrobi'o must 0.0156250
gento must 0.0156250
nitcu must 0.0468750
NULL must 0.0312500
ju'o must 0.0625000
mripre must 0.0156250
ja'o must 0.0781250
nerkla must 0.0156250
.ei must 0.1093750
ja'osai must 0.0156250
e'i must 0.0156250
ka must 0.0937500
.uinaidai must 0.0156250
nu must 0.0937500
lo Bats 0.5000000
volratcu Bats 0.5000000
baklanme Muskox 1.0000000
sezypi'i lengths 1.0000000
NULL tis 1.0000000
co'u Hope 0.1428571
romoi Hope 0.4285714
lo Hope 0.2857143
.a'o Hope 0.1428571
ri'a succeeded 0.1428571
to'e succeeded 0.1428571
ra succeeded 0.1428571
nai succeeded 0.1428571
snada succeeded 0.4285714
linsi chains 0.3333333
pe chains 0.3333333
po'o chains 0.3333333
ija'ebo sea 0.0588235
ijo sea 0.1176471
ze'e sea 0.0588235
xamsi sea 0.5882353
NULL sea 0.0588235
inaja sea 0.1176471
sodnrkali Potassium 1.0000000
zgizu'e guitar 0.0833333
srana guitar 0.0833333
lozu'o guitar 0.0833333
poi guitar 0.0833333
tu'a guitar 0.0833333
jgita guitar 0.5000000
pilno guitar 0.0833333
skepre scientist 0.5000000
ma scientist 0.5000000
noi leg 0.1111111
pe leg 0.1111111
ri'a leg 0.1111111
toldra leg 0.1111111
tuple leg 0.5555556
.i clever 0.3333333
mencre clever 0.3333333
ka clever 0.3333333
tu'a wants 0.0243902
ridrxobi wants 0.0243902
sauron. wants 0.0243902
djica wants 0.9024390
pu wants 0.0243902
jbixa'u duty 0.3333333
ma'a duty 0.3333333
bilga duty 0.3333333
kurjga hypotenuse 0.5000000
xiptenuse hypotenuse 0.5000000
tricu woods 0.1428571
foldi woods 0.1428571
ca woods 0.1428571
ricfoi woods 0.4285714
selzda woods 0.1428571
luk. Luke 0.5000000
doi Luke 0.5000000
po books 0.0169492
cukta books 0.7457627
ku books 0.0338983
lo books 0.0508475
ralte books 0.0508475
se books 0.0508475
munoki'o books 0.0169492
moi books 0.0169492
tezu'e books 0.0169492
nunkarcyjanli traffic 0.2500000
nu traffic 0.2500000
savru traffic 0.2500000
karce traffic 0.2500000
za regular 0.5000000
likydekpu regular 0.5000000
na'e non-red 0.2500000
xunre non-red 0.2500000
skari non-red 0.5000000
lo some 0.3333333
ladru some 0.0098039
zmadu'a some 0.0098039
NULL some 0.0490196
dusygu'a some 0.0196078
au some 0.0392157
sela'u some 0.0098039
za'u some 0.0098039
xo'e some 0.0098039
pemci some 0.0098039
roroiku some 0.0098039
seldjudji some 0.0098039
su'oda some 0.0098039
zengau some 0.0098039
zo'e some 0.0098039
pesxu some 0.0196078
zacterve'u some 0.0098039
zmudu'a some 0.0098039
mrobi'o some 0.0098039
i'unai some 0.0098039
so'o some 0.1176471
loi some 0.0098039
febgau some 0.0098039
djacu some 0.0098039
nitcu some 0.0098039
preti some 0.0098039
lumbu'u some 0.0098039
ctigau some 0.0098039
da some 0.0098039
sipna some 0.0098039
tu'a some 0.0392157
tcecizra some 0.0098039
jukpa some 0.0294118
ru'u some 0.0098039
fe'eca'o some 0.0098039
tcati some 0.0098039
titla some 0.0098039
sraku some 0.0098039
noi some 0.0098039
nabypalne some 0.0098039
su'o some 0.0294118
nu some 0.0098039
mapti fit 1.0000000
tercli sufficient 0.5000000
banzu sufficient 0.2500000
baucre sufficient 0.2500000
enai except 0.2222222
NULL except 0.1111111
na'ebo except 0.2222222
da except 0.1111111
da'apa except 0.2222222
da'a except 0.1111111
lenku cold 0.7380952
zukam cold 0.0238095
tcelenku cold 0.0238095
to'ebo cold 0.0238095
bilma cold 0.0238095
NULL cold 0.0238095
mutce cold 0.0238095
u'e cold 0.0476190
vaxybi'a cold 0.0476190
ni cold 0.0238095
ro Math 0.3333333
cmaci Math 0.3333333
lo Math 0.3333333
pi continued 0.2000000
pu continued 0.4000000
ze'a continued 0.2000000
ca'o continued 0.2000000
la Dalí 0.3333333
gi Dalí 0.3333333
salvador.dalis. Dalí 0.3333333
daplrxometepe Ometepe 1.0000000
jinmrplati Platinum 1.0000000
morgu'e Morocco 1.0000000
la Russia 0.4285714
.rosi,ias. Russia 0.2857143
rukygu'e Russia 0.1428571
rosias Russia 0.1428571
ckana bedtime 0.2000000
lisri bedtime 0.2000000
fi bedtime 0.2000000
te bedtime 0.2000000
tu'a bedtime 0.2000000
zo'o postulate 1.0000000
bancuvysi'o purism 1.0000000
la.miklel,n. McClellan 1.0000000
blasodna Caesium 1.0000000
17xyxymoi 18th 0.2000000
pabi 18th 0.4000000
.i 18th 0.2000000
detri 18th 0.2000000
bajra runners 0.3333333
cu runners 0.3333333
so'o runners 0.3333333
mu'i zoo 0.1666667
mivdalmuzga zoo 0.8333333
damba fight 0.8333333
da'arsi'u fight 0.1666667
tcetce mamma 0.5000000
mamta mamma 0.5000000
xlali worst 0.6666667
xlarai worst 0.3333333
cu Each 0.2500000
ro Each 0.5000000
tcidu Each 0.2500000
zei Caribbean 0.5000000
