byRAK.obamas Obama 0.5000000
byRAK.obamas Barack 1.0000000
snidu sixty 0.5000000
snidu meter 0.2500000
snidu Second 1.0000000
snidu second 0.1000000
celgunta shoot 0.5000000
celgunta shooting 0.5000000
tolnelci dislike 0.2000000
tolnelci like 0.0027027
tolnelci with 0.0040486
tolnelci that 0.0016420
tolnelci eggs 0.0909091
tolnelci do 0.0029326
tolnelci &apos;t 0.0023838
tolnelci don 0.0069930
tolnelci much 0.0116279
tolnelci pleasure 0.2500000
.axmed. Ahmad 0.5000000
.axmed. name 0.0104167
.axmed. is 0.0004983
caca'o are 0.0062696
caca'o What 0.0056818
caca'o working 0.0476190
caca'o is 0.0009965
caca'o love 0.0061350
caca'o NULL 0.0001695
caca'o suggesting 0.3333333
mo'ifli They 0.0063291
mo'ifli We 0.0041841
dunda give 0.4250000
dunda sandwich 0.0909091
dunda doll 0.1666667
dunda gave 0.3454545
dunda for 0.0024038
dunda flowers 0.0476190
dunda gives 0.4000000
dunda bill 0.3333333
dunda you 0.0025823
dunda handed 0.1666667
dunda this 0.0026810
dunda &apos;ll 0.0134228
dunda pass 0.1578947
dunda given 0.2222222
dunda gift 0.5000000
dunda Can 0.0312500
dunda from 0.0053476
dunda feed 0.3333333
dunda giving 0.1000000
dunda business 0.0588235
dunda present 0.0400000
dunda me 0.0373134
dunda that 0.0032841
dunda something 0.0208333
dunda to 0.0028222
dunda bу 0.3333333
dunda a 0.0005838
dunda Give 0.3548387
dunda context 1.0000000
dunda brought 0.0625000
dunda NULL 0.0011862
jarple make 0.0151515
jarple cardboard 0.5000000
jarple to 0.0004704
jarple used 0.0322581
lanka My 0.0022883
lanka basket 0.5000000
jibni around 0.0588235
jibni am 0.0048544
jibni nearest 0.1111111
jibni near 0.1176471
jibni drunk 0.0625000
jibni willing 0.1666667
jibni a 0.0005838
jibni approaching 0.1666667
jibni How 0.0046948
jibni is 0.0004983
jibni close 0.2000000
jibni nigh 1.0000000
gy.Tatoeba.gy. Tatoeba 0.0500000
gy.Tatoeba.gy. URL 1.0000000
gy.Tatoeba.gy. the 0.0004431
gy.Tatoeba.gy. of 0.0011507
rliex &apos;lyeh 0.1250000
fetspe &apos;s 0.0011025
fetspe wife 0.0625000
fetspe my 0.0022831
fetspe ex-wife 0.2000000
.pacicac. striking 0.5000000
.pacicac. thirteen 0.2000000
.pacicac. were 0.0093458
.pacicac. clocks 0.3333333
.frank. eats 0.0500000
.frank. Frank 0.1666667
mribriju here 0.0058140
mribriju office 0.0666667
mribriju a 0.0005838
mribriju post 0.0909091
mribriju around 0.0588235
jutsi be 0.0034014
jutsi a 0.0005838
jutsi extinct 0.5000000
jutsi kinds 0.3333333
jutsi cannibal 0.1666667
nunjmaji have 0.0024752
nunjmaji go 0.0040161
nunjmaji from 0.0053476
nunjmaji &apos;s 0.0022051
nunjmaji attend 0.1428571
nunjmaji move 0.0909091
nunjmaji myself 0.0344828
nunjmaji to 0.0014111
nunjmaji meeting 0.1739130
bancre speak 0.0062112
bancre Chinese 0.0357143
tsali is 0.0024913
tsali he 0.0196078
tsali are 0.0031348
tsali blows 0.5000000
tsali He 0.0016779
tsali &apos;s 0.0022051
tsali strong 0.6666667
tsali stronger 0.4285714
tsali . 0.0006859
tsali am 0.0048544
tsali tough 1.0000000
jinmrgadolini Gadolinium 1.0000000
du'e needy 0.1250000
du'e NULL 0.0001695
du'e too 0.1000000
du'e quit 0.0588235
du'e ! 0.0018692
du'e Countless 1.0000000
du'e many 0.0238095
du'e much 0.0232558
du'e expensive 0.1250000
du'e &apos;s 0.0011025
Aachen Aachen 0.2500000
Aachen in 0.0028986
mispre person 0.0185185
mispre a 0.0005838
mispre is 0.0004983
mispre who 0.0081301
mispre celebrity 1.0000000
dusbarda too 0.0125000
dusbarda It 0.0027624
dusbarda &apos;s 0.0011025
dusbarda large 0.1428571
vi'ecpe invited 0.6000000
vi'ecpe guests 0.2000000
sombo saplings 0.3333333
sombo planted 0.6666667
sombo you 0.0006456
sombo plant 0.1428571
.flOridas. Florida 0.5000000
.flOridas. in 0.0014493
.flOridas. still 0.0256410
go'inai No 0.0105263
Pharamp Pharamp 0.2500000
la.esperanton. Esperanto 0.1000000
la.esperanton. learn 0.0263158
la.toci,on. Toshio 1.0000000
la.toci,on. does 0.0166667
.u whether 0.0526316
.u NULL 0.0001695
.u they 0.0131579
.u ) 0.0136986
.u ( 0.0140845
.u solicit 1.0000000
.u not 0.0021739
.u cars 0.1666667
.u or 0.0081301
.u discuss 0.0625000
la.braiyn. Kate 0.1111111
no'a word 0.0357143
no'a do 0.0029326
no'a was 0.0021552
no'a such 0.0714286
no'a his 0.0034247
no'a NULL 0.0001695
no'a extent 0.2000000
no'a an 0.0069444
no'a before 0.0166667
no'a they 0.0131579
.uedai night 0.0161290
.uedai &apos;clock 0.0909091
.uedai ten 0.0526316
.uedai &apos;s 0.0011025
.uedai at 0.0037879
.uedai o 0.0454545
.uedai already 0.0434783
.uedai It 0.0027624
zoi. &quot; 0.0096852
zoi. kaisha 0.2857143
zoi. for 0.0048077
sucku told 0.0140845
rebekas Rebecca 0.5000000
rebekas at 0.0075758
rebekas least 0.0800000
rebekas has 0.0089286
by NULL 0.0001695
by OpenBSD 0.1666667
by invention 0.2000000
by he 0.0039216
smaci oxen 1.0000000
tuks. is 0.0004983
tuks. Antarctic 0.5000000
tuks. Tux 0.5000000
tuks. an 0.0069444
nago'i be 0.0068027
nago'i not 0.0021739
nago'i To 0.0188679
nago'i that 0.0016420
nago'i or 0.0081301
nago'i to 0.0004704
sajysne have 0.0024752
sajysne dreams 0.2222222
sajysne A 0.0080000
sajysne has 0.0044643
sajysne lucid 0.4285714
la'izda door 0.0263158
crino green 1.0000000
crino both 0.0312500
crino is 0.0004983
crino possibly 1.0000000
.meilis. Mei 0.5000000
.meilis. Li 0.3333333
tolkanro Not 0.0588235
tolkanro his 0.0034247
tolkanro he 0.0039216
tolkanro being 0.0212766
tolkanro careful 0.0769231
tolkanro fell 0.0344828
tolkanro ill 0.0666667
tolkanro of 0.0011507
tolkanro , 0.0008203
dyvydy is 0.0004983
dyvydy DVD 0.3333333
dyvydy a 0.0005838
ponslakyle'u Kana 1.0000000
kulcitsi semester 1.0000000
jonai skillful 1.0000000
jonai Either 0.1666667
jonai or 0.0081301
ka'a London 0.0333333
ka'a by 0.0063291
ka'a Where 0.0044248
ka'a for 0.0072115
ka'a NULL 0.0001695
kambebna is 0.0004983
kambebna What 0.0028409
kambebna that 0.0016420
kambebna of 0.0011507
kambebna question 0.0344828
kambebna ? 0.0005647
kambebna kind 0.0133333
bralaizba manufacture 1.0000000
bralaizba to 0.0004704
klamburi pun 1.0000000
blaci houses 0.0588235
blaci glass 0.2727273
blaci who 0.0081301
blaci Those 0.0800000
blaci live 0.0140845
blaci should 0.0161290
blaci reflects 0.3333333
blaci in 0.0014493
.oiro'o pain 0.0833333
.oiro'o no 0.0072464
.oiro'o in 0.0014493
.oiro'o longer 0.1428571
zmudu'a some 0.0096154
zmudu'a me 0.0018657
zmudu'a more 0.0094340
nalvai what 0.0039216
nalvai matter 0.0625000
nalvai forgives 0.2000000
nalvai no 0.0072464
nalvai she 0.0082645
gy.precise.gy. meaning 0.0588235
gy.precise.gy. &quot; 0.0048426
gy.precise.gy. precise 0.2222222
gy.precise.gy. of 0.0011507
gy.precise.gy. the 0.0004431
so'isairoi in 0.0014493
so'isairoi talk 0.0136986
.oipeida'i You 0.0023697
.oipeida'i join 0.3333333
.oipeida'i mind 0.0526316
.oipeida'i if 0.0117647
nalpencu off 0.0212766
brogovzi borogoves 0.2500000
itiopias Ethiopia 1.0000000
po'onai do 0.0029326
po'onai not 0.0021739
po'onai only 0.0113636
po'onai that 0.0016420
po'onai to 0.0004704
pasifik long 0.0217391
pasifik voyage 0.2000000
pasifik the 0.0004431
pasifik Pacific 0.1111111
pasifik across 0.1111111
critu Fall 0.3333333
critu fall 0.1428571
critu autumn 1.0000000
ku come 0.0222222
ku beloved 0.2000000
ku habit 0.0666667
ku exists 0.1111111
ku anyone 0.0285714
ku Life 0.0833333
ku teeth 0.1250000
ku . 0.0005716
ku GPS 0.2000000
ku rainy 0.2500000
ku pencil 0.1000000
ku faster 0.0769231
ku borogoves 0.2500000
ku news 0.0833333
ku trouble 0.0909091
ku Hokkaido 0.0666667
ku fell 0.0344828
ku jump 0.2000000
ku NULL 0.0059312
ku talker 0.1111111
ku characteristics 0.1250000
ku river 0.0454545
ku permission 0.1333333
ku telephone 0.0769231
ku judge 0.2500000
ku camera 0.1538462
ku bananas 0.0714286
ku ripe 0.2500000
ku can 0.0039062
ku outgrabe 0.2500000
ku Gods 0.3333333
ku begin 0.1428571
ku brother 0.0350877
ku difficulty 0.1250000
ku Maybe 0.1250000
ku inevitable 0.2000000
ku ears 0.0714286
ku playthings 0.1666667
ku girlfriend 0.0400000
ku Thus 0.3333333
ku Valsi 0.2500000
ku hall 0.3333333
ku smell 0.1666667
ku exercise 0.1250000
ku trees 0.0833333
ku insects 0.1666667
ku banana 0.1666667
ku Espresso 0.5000000
ku needs 0.0571429
ku is 0.0209268
ku Lojban 0.0103093
ku fails 0.3333333
ku favorite 0.0333333
ku answered 0.1111111
ku , 0.0073831
ku whatever 0.0714286
ku delicious 0.0526316
ku cool 0.1111111
ku face 0.0833333
ku ceasing 0.2000000
ku pursuit 0.2500000
ku rang 0.2500000
ku Those 0.0800000
ku figment 0.2500000
ku drinking 0.0357143
ku even 0.0526316
ku apple 0.0243902
ku books 0.0338983
ku won 0.0384615
ku far 0.0555556
ku cries 1.0000000
ku Unicorn 0.2000000
ku Nature 0.2500000
ku Beer 0.1666667
ku dog 0.0081967
ku sister 0.0243902
ku inch 0.1428571
ku bike 0.1428571
ku left 0.0147059
ku squatting 0.2000000
ku gun 0.1000000
ku isn 0.0133333
ku floats 0.3333333
ku called 0.0217391
ku class 0.1250000
ku everywhere 0.2000000
ku obey 0.2000000
ku Mooli 0.0454545
ku better 0.0277778
ku hand 0.0454545
ku hovercraft 0.5000000
ku thing 0.0322581
ku may 0.0277778
ku lust 1.0000000
ku to 0.0004704
ku fear 0.1000000
ku risks 0.2000000
ku nest 0.5000000
ku heard 0.0344828
ku hanging 0.5000000
ku looking 0.0882353
ku mirror 0.0714286
ku toupee 0.2500000
ku Here 0.0714286
ku wall 0.1250000
ku children 0.0731707
ku Aha 0.1250000
ku now 0.0294118
ku Determination 0.1666667
ku when 0.0075758
ku agreement 0.1428571
ku tend 0.2500000
ku are 0.0125392
ku court 0.2500000
ku before 0.0333333
ku honest 0.0588235
ku freezes 0.2500000
ku coelacanth 0.5000000
ku remember 0.0303030
ku Shopping 0.1666667
ku blondes 0.5000000
ku using 0.0555556
ku adults 0.3333333
ku absorbs 0.5000000
ku kiss 0.0625000
ku tries 0.3333333
ku items 0.2500000
ku health 0.0952381
ku spouse 0.1666667
ku trying 0.0833333
ku Soviet-American 0.3333333
ku bank 0.0833333
ku uncle 0.0588235
ku sad 0.0400000
ku games 0.0714286
ku place 0.0588235
ku studies 0.1250000
ku Aluminium 0.2500000
ku window 0.0588235
ku fiction 0.1428571
ku Russians 0.1666667
ku friendly 0.1428571
ki it 0.0018553
ki internally 0.5000000
ki that 0.0016420
ki stabbed 0.5000000
selma'i &apos;t 0.0011919
me'u device 0.2500000
me'u Hakata 0.2500000
cein and 0.0026247
cein attending 1.0000000
cein off 0.0212766
cein on 0.0042735
cein goes 0.0204082
cein computer 0.0250000
cein Shane 0.3333333
cein the 0.0004431
manti Myrmecology 0.5000000
surdei prohibited 0.2000000
vudzu'e the 0.0004431
vudzu'e They 0.0063291
vudzu'e right 0.0156250
vudzu'e did 0.0064516
vudzu'e thing 0.0322581
ju'o Do 0.0051020
ju'o very 0.0045249
ju'o be 0.0034014
ju'o am 0.0048544
ju'o Certainly 0.3333333
ju'o over 0.0192308
ju'o fact 0.0526316
ju'o geez 0.3333333
ju'o must 0.0625000
ju'o , 0.0016407
ju'o I 0.0022508
ju'o certainly 1.0000000
ju'o You 0.0023697
ju'o &apos;m 0.0130719
ju'o think 0.0081967
ju'o That 0.0044843
ju'o if 0.0117647
ju'o sure 0.1724138
ju'o definitely 0.1666667
ju'o NULL 0.0003389
ju'o certain 0.1428571
smadi My 0.0022883
smadi Guess 0.3000000
smadi who 0.0162602
smadi himself 0.0714286
smadi guessed 1.0000000
smadi guess 0.2857143
smadi right 0.0156250
jinmrberbi Erbium 1.0000000
xansli hand 0.0454545
xansli waving 0.1428571
xansli his 0.0034247
xansli by 0.0063291
cfaga'e it 0.0018553
cfaga'e notice 0.2500000
cfaga'e do 0.0029326
pojbre armed 1.0000000
jinzi natural 0.1250000
jinzi talent 0.2000000
jinzi has 0.0044643
jinzi for 0.0024038
jinzi She 0.0028490
jinzi nature 0.5000000
jinzi NULL 0.0001695
jinzi divine 0.0500000
jinzi a 0.0005838
ze Jump 0.3333333
ze 7 0.4285714
ze NULL 0.0003389
ze 17 0.2500000
ze at 0.0037879
ze seven 0.5000000
ze store 0.0526316
ze closes 0.3333333
puzavi while 0.0222222
puzavi ago 0.0322581
puzavi a 0.0005838
puzavi here 0.0058140
puzavi was 0.0021552
cinjukus. Shinjuku 0.5000000
kenra with 0.0040486
kenra ill 0.0666667
kenra cancer 0.3333333
kenra became 0.0454545
dujro'i Igneous 1.0000000
dujro'i rock 0.1428571
fenki nuts 0.3333333
fenki completely 0.1428571
fenki is 0.0004983
fenki ! 0.0037383
fenki crazies 0.5000000
fenki nut 0.5000000
fenki were 0.0093458
fenki den 0.5000000
fenki crazy 0.5000000
fenki &apos;re 0.0128205
fenki of 0.0023015
fenki mad 0.1666667
djordj. &apos;s 0.0011025
djordj. was 0.0021552
djordj. staying 0.0714286
djordj. George 0.2500000
djordj. at 0.0037879
sadyka'e help 0.0120482
sadyka'e your 0.0024631
sadyka'e , 0.0008203
ni'a under 0.2727273
ni'a text 1.0000000
ni'a such 0.0714286
ni'a straight 0.2500000
ni'a below 0.3333333
ni'a the 0.0008861
friko African 1.0000000
friko Africa 0.2000000
tolcri nevermind 0.2500000
tolcri find 0.2500000
tolcri if 0.0117647
tolcri they 0.0131579
tolcri us 0.0156250
tolcri see 0.0076923
tolcri what 0.0039216
tolcri it 0.0018553
tolcri found 0.1739130
tolcri I 0.0003215
ki'o kilo 0.2000000
ki'o are 0.0015674
ki'o more 0.0094340
ki'o There 0.0060976
ki'o than 0.0077519
ki'o billion 0.5000000
ki'o Thank 0.0294118
zukcfu busy 0.0357143
zukcfu himself 0.0714286
zukcfu busies 0.3333333
zukcfu NULL 0.0001695
zukcfu with 0.0040486
zukcfu her 0.0049261
diklo visit 0.0769231
diklo likely 0.0909091
diklo confined 0.5000000
diklo &apos;ll 0.0067114
diklo local 0.5000000
diklo &apos;s 0.0011025
diklo the 0.0013292
diklo area 0.1111111
boldembi peas 1.0000000
la.betis. Betty 0.2500000
la.betis. a 0.0011675
la.betis. is 0.0009965
nimre Citrus 1.0000000
vijytcana the 0.0013292
vijytcana airport 0.8333333
vijytcana at 0.0037879
vijytcana now 0.0098039
ferti Fertile 0.5000000
ferti cultivates 0.3333333
ferti our 0.0212766
kijytcini number 0.0250000
kijytcini Oxidation 1.0000000
rubnstain. Arthur 0.5000000
rubnstain. Rubinstein 0.2000000
rubnstain. by 0.0063291
ko'a treatment 0.1428571
ko'a drumming 0.3333333
ko'a they 0.0921053
ko'a news 0.0833333
ko'a her 0.2463054
ko'a folly 0.1000000
ko'a get 0.0208333
ko'a lifted 0.3333333
ko'a this 0.0053619
ko'a presently 1.0000000
ko'a Everybody 0.0666667
ko'a printed 0.3333333
ko'a He 0.3523490
ko'a approve 0.2000000
ko'a post 0.1818182
ko'a his 0.1164384
ko'a His 0.1406250
ko'a advice 0.1304348
ko'a Instead 0.2500000
ko'a skiing 0.1250000
ko'a annoys 0.3333333
ko'a novels 0.3333333
ko'a their 0.0851064
ko'a hell 0.2500000
ko'a They 0.2721519
ko'a he 0.2392157
ko'a clearly 0.1666667
ko'a NULL 0.0072869
ko'a Her 0.1282051
ko'a describe 0.1666667
ko'a objection 0.3333333
ko'a Although 0.2500000
ko'a kilometers 0.1428571
ko'a jaw 0.3333333
ko'a Anka 0.1666667
ko'a screamed 0.1428571
ko'a treat 0.2500000
ko'a counts 0.2500000
ko'a After 0.2500000
ko'a kitchen 0.1250000
ko'a She 0.3988604
ko'a secretary 0.1666667
ko'a instead 0.2000000
ko'a Their 0.2000000
ko'a enterprise 0.1666667
ko'a apologized 1.0000000
ko'a mine 0.0185185
ko'a Nick 0.2500000
ko'a it 0.0296846
ko'a pillows 0.1250000
ko'a himself 0.1428571
ko'a them 0.2280702
ko'a judges 0.1111111
ko'a Living 0.5000000
ko'a socks 0.3333333
ko'a deal 0.1818182
ko'a issue 0.3333333
ko'a Woman 0.2500000
ko'a separately 0.3333333
ko'a she 0.2892562
ko'a these 0.0256410
ko'a It 0.0248619
ko'a waving 0.1428571
ko'a definitely 0.1666667
ko'a him 0.3379310
flacre who 0.0081301
flacre lawyers 0.3333333
flacre became 0.0454545
oradeas Oradea 1.0000000
ge'e NULL 0.0001695
ge'e Really 0.0666667
ge'e Well 0.2500000
ge'e ! 0.0018692
ge'e that 0.0016420
ge'e because 0.0125000
ge'e really 0.0142857
ge'e Oh 0.0714286
ge'e So 0.0625000
ge'e , 0.0016407
xunai &apos;t 0.0071514
xunai Isn 0.2500000
xunai Doesn 0.2500000
xunai &quot; 0.0072639
xunai Don 0.0384615
desygau shook 0.3333333
desygau it 0.0018553
kinzga saw 0.0109890
sosygugje'a Empire 1.0000000
zulxanpre left-handed 1.0000000
zulxanpre is 0.0004983
zulxanpre &apos;m 0.0021786
pensi'u meeting 0.0434783
pensi'u meet 0.0434783
pensi'u are 0.0015674
finpe lot 0.0142857
finpe Fish 0.6666667
finpe fish 0.8064516
finpe of 0.0023015
finpe kind 0.0133333
finpe fishing 0.2500000
peizo'onai Are 0.0090090
peizo'onai ? 0.0005647
peizo'onai you 0.0006456
peizo'onai serious 0.0833333
xo'o NULL 0.0003389
xo'o Obvious 0.3333333
noreg Norway 1.0000000
elvetias Switzerland 0.3333333
la.iesus. Jesus 0.0909091
kixmi'a laughter 0.2000000
kixmi'a howled 0.5000000
kixmi'a with 0.0040486
cu'i gripping 0.3333333
cu'i spark 0.5000000
cu'i ease 0.3333333
cu'i Erm 0.3333333
cu'i Hmm 0.5000000
cu'i do 0.0029326
cu'i importantly 0.5000000
cu'i care 0.0769231
cu'i don 0.0069930
cu'i &apos;t 0.0035757
cu'i but 0.0165289
cu'i Eh 0.2500000
cu'i geez 0.3333333
cu'i meh 0.5000000
cu'i So 0.1250000
cu'i anything 0.0128205
cu'i or 0.0081301
cu'i Gulp 0.3333333
cu'i puttering 0.2500000
cu'i none 0.2000000
cu'i Ah 0.1111111
cu'i NULL 0.0001695
cu'i &apos;s 0.0011025
cu'i surprising 0.2000000
cu'i I 0.0009646
cu'i objectively 0.5000000
cu'i though 0.2500000
cu'i , 0.0114848
cu'i Seriously 0.3333333
cu'i purchase 0.2500000
cu'i not 0.0086957
cu'i really 0.0142857
jinmrzirkoni Zirconium 1.0000000
jdica decided 0.0500000
jdica his 0.0034247
jdica up 0.0100000
jdica mind 0.0526316
jdica have 0.0024752
jdica made 0.0138889
gy.Chicago.gy. route 0.2500000
zirkliru Iodine 1.0000000
velcki explanation 0.2500000
mamta mother 0.5643564
mamta grandmother 1.0000000
mamta mothers 0.5000000
mamta grandfather 0.0833333
mamta Mom 0.1666667
mamta NULL 0.0001695
mamta Her 0.0256410
mamta are 0.0015674
mamta maternal 0.2000000
mamta mommy 0.2500000
mamta Mummy 0.3333333
mamta My 0.0183066
mamta paternal 0.5000000
mamta native 0.2500000
mamta mamma 0.5000000
mamta mom 0.6666667
mamta mum 0.5000000
mamta &apos;s 0.0011025
trina find 0.0357143
trina drawn 0.3333333
trina to 0.0009407
trina in 0.0014493
trina appealing 0.5000000
trina nothing 0.0222222
trina attractive 0.3333333
selsaubi'o &apos;ll 0.0067114
selsaubi'o used 0.0322581
selsaubi'o get 0.0104167
sezga'o Autism 0.6666667
leonardos.davintcis Leonardo 1.0000000
leonardos.davintcis da 1.0000000
leonardos.davintcis Vinci 1.0000000
pu'au nobody 0.1428571
pu'au has 0.0044643
afyganisTAN Afghanistan 1.0000000
kansa accompanied 0.5000000
kansa accompany 0.5000000
kansa lot 0.0142857
kansa been 0.0129870
kansa with 0.1174089
kansa &apos;ll 0.0067114
kansa together 0.0714286
kansa go 0.0080321
kansa have 0.0024752
kansa responsibility 0.0909091
kansa classmates 0.1666667
kansa am 0.0048544
kansa ? 0.0005647
kansa join 0.6666667
kansa &apos;re 0.0256410
kansa be 0.0170068
kansa partner 0.1428571
kansa degree 0.5000000
kansa are 0.0015674
kansa me 0.0018657
kansa NULL 0.0005084
kansa come 0.0111111
kansa someone 0.0322581
kansa by 0.0063291
kansa today 0.0089286
kansa assistant 0.1666667
kansa one 0.0099010
kansa &apos;t 0.0023838
xalo,uin Halloween 0.1250000
jarjinme Tungsten 1.0000000
mars Mars 1.0000000
so'uroi seldom 0.2500000
so'uroi up 0.0100000
so'uroi came 0.0192308
so'uroi Sometimes 0.5000000
sfe'ero Swedish 1.0000000
sfe'ero a 0.0005838
gapnitfa'e upside 0.2500000
gapnitfa'e down 0.0212766
cmama'a top 0.1428571
cmama'a on 0.0042735
cmama'a the 0.0008861
cmama'a of 0.0011507
cmama'a hill 0.1111111
djirafa Giraffe 1.0000000
.dIsniland. went 0.0136986
.dIsniland. mother 0.0099010
.dIsniland. Disneyland 0.2500000
.dIsniland. with 0.0040486
.dIsniland. my 0.0022831
vreta lay 0.1428571
vreta lie 0.0833333
vreta lying 0.2000000
vreta on 0.0128205
tordu short 0.4545455
tordu He 0.0016779
tordu shorter 0.3333333
tordu is 0.0004983
tordu Short 0.5000000
tordu with 0.0080972
tordu &apos;m 0.0021786
tordu has 0.0044643
tordu &apos;s 0.0022051
xersku her 0.0049261
xersku stepping 0.5000000
xersku to 0.0004704
xersku for 0.0024038
.u'inai funny 0.1000000
.u'inai &apos;t 0.0011919
.u'inai . 0.0001143
.u'inai This 0.0030120
.u'inai isn 0.0133333
sorprekarcytcana station 0.0303030
sorprekarcytcana stop 0.0714286
sorprekarcytcana bus 0.0810811
sorprekarcytcana a 0.0005838
dotco Germans 0.4000000
dotco &apos;t 0.0011919
dotco &apos;re 0.0128205
dotco , 0.0008203
dotco aren 0.1111111
dotco Germany 0.1250000
dotco German 0.2800000
sene'i footsteps 0.3333333
.iesus. a 0.0005838
.iesus. by 0.0063291
.iesus. shining 0.5000000
.iesus. star 0.3333333
.iesus. Jesus 0.1818182
sapcki language 0.0123457
sapcki in 0.0014493
sapcki plain 0.3333333
sapcki it 0.0018553
sapcki put 0.0270270
ka'erbi'o learn 0.0263158
ka'erbi'o objects 1.0000000
ka'erbi'o how 0.0082645
kanryze'a feel 0.0285714
kanryze'a better 0.0277778
tepri'apre by 0.0126582
tepri'apre terrorists 0.2500000
tepri'apre hated 0.5000000
tepri'apre are 0.0031348
baikal. Lake 0.1111111
baikal. Baikal 0.5000000
snanu the 0.0004431
snanu am 0.0048544
snanu south 0.4000000
snanu to 0.0004704
snanu South 0.1666667
snanu look 0.0232558
.ijo adult 0.2500000
.ijo equivalent 1.0000000
.ijo logically 0.3333333
.ijo to 0.0009407
.ijo is 0.0009965
.ijo Q 0.2500000
.ijo button 0.0666667
cilmo wet 0.8461538
cilmo is 0.0004983
cilmo humid 1.0000000
cilmo quite 0.0500000
cilmo &apos;s 0.0033076
cilmo . 0.0001143
cilmo It 0.0027624
cilmo &apos;m 0.0021786
nalseljmi her 0.0049261
nalseljmi mystery 0.2000000
nalseljmi of 0.0011507
cladu Don 0.0096154
cladu hear 0.0263158
cladu everyone 0.0200000
cladu NULL 0.0003389
cladu sound 0.0769231
cladu greets 0.5000000
cladu can 0.0039062
cladu loudly 0.2500000
cladu the 0.0004431
cladu loud 0.5000000
cladu of 0.0011507
cladu louder 0.1428571
cladu noisy 1.0000000
cladu be 0.0034014
zerpre criminal 0.3333333
zerpre attempted 0.3333333
.a'enai sleep 0.0256410
.a'enai Quit 0.2000000
.a'enai &apos;m 0.0021786
.a'enai ski 0.2857143
.a'enai got 0.0133333
.a'enai . 0.0002286
.a'enai go 0.0040161
.a'enai &apos;ve 0.0131579
.a'enai have 0.0024752
.a'enai I 0.0006431
.a'enai tired 0.0192308
.a'enai to 0.0014111
melbi it 0.0037106
melbi beautiful 0.9724771
melbi who 0.0081301
melbi beauty 0.1428571
melbi &apos;re 0.0384615
melbi am 0.0048544
melbi Beautiful 1.0000000
melbi find 0.0714286
melbi cute 0.1250000
melbi gorgeous 0.5000000
melbi so 0.0091743
melbi prettily 1.0000000
melbi wonderful 0.0833333
melbi &apos;s 0.0044101
melbi one 0.0049505
melbi Dude 0.5000000
melbi ordinary-looking 0.5000000
melbi &apos;m 0.0021786
melbi nicely 1.0000000
melbi That 0.0044843
melbi is 0.0034878
melbi ! 0.0074766
melbi ugly 0.1250000
melbi NULL 0.0005084
melbi very 0.0180995
melbi creature 0.5000000
melbi looks 0.0322581
melbi pretty 0.5483871
melbi beautiful-thing 0.5000000
melbi countryside 0.2000000
melbi How 0.0046948
melbi talkerly-beautiful 0.3333333
melbi Good 0.0370370
melbi HOT 0.5000000
melbi audiencely-beautiful 0.2500000
melbi look 0.0232558
melbi sings 0.1111111
melbi . 0.0077741
melbi nice 0.1212121
melbi good-looking 1.0000000
melbi handsome 1.0000000
melbi good 0.0285714
melbi are 0.0125392
melbi a 0.0140105
atlantik. Atlantic 0.5000000
kansi'u together 0.1428571
kansi'u carry 0.1428571
kansi'u several 0.1666667
.troias. Trojan 0.2500000
.troias. a 0.0005838
.apasionatas. Rubinstein 0.2000000
.elis. Elephant 0.2000000
xilckabu tire 0.6666667
xilckabu my 0.0022831
xilckabu now 0.0098039
xilckabu on 0.0042735
mu'ima Why 0.0272109
mu'ima Really 0.1333333
mu'ima is 0.0004983
mu'ima are 0.0015674
mu'ima for 0.0024038
mu'ima the 0.0004431
mu'ima these 0.0256410
mu'ima motivation 1.0000000
mu'ima ? 0.0022586
mu'ima What 0.0028409
kib equivalents 0.2500000
mari'as.saras. is 0.0004983
mari'as.saras. name 0.0104167
mari'as.saras. Maria 0.1428571
mari'as.saras. Sara 0.5000000
sazysti . 0.0001143
sazysti off 0.0212766
sazysti down 0.0212766
sazysti turn 0.0714286
sazysti Shutting 0.5000000
london from 0.0053476
london differs 0.3333333
london &apos;s 0.0011025
london London 0.0666667
london that 0.0016420
london of 0.0011507
london climate 0.3333333
slilygau waved 0.5000000
slilygau to 0.0004704
purmo NULL 0.0001695
purmo Flour 0.2000000
purmo powder 0.5000000
purmo flour 0.5000000
purmo from 0.0053476
.irci year 0.0454545
.irci channel 0.2500000
dracydi'u theater 1.0000000
kufra make 0.0151515
kufra Make 0.2000000
kufra NULL 0.0001695
kufra felt 0.0952381
kufra comfortable 0.7500000
kufra yourself 0.0588235
kufra home 0.0086207
kufra at 0.0037879
kufra For 0.0714286
kufra good 0.0190476
jmisre a 0.0005838
jmisre misunderstanding 0.5000000
jmisre misunderstood 0.1666667
jmisre of 0.0011507
bitmu Wall 0.6000000
bitmu of 0.0034522
bitmu fence 0.5000000
bitmu Great 0.1000000
bitmu wall 0.6250000
bitmu China 0.1111111
.ainaisai If 0.0135135
ji'u on 0.0085470
ji'u perfection 0.3333333
ji'u , 0.0008203
ji'u based 0.6666667
ji'u Socrates 0.1666667
ji'u lyrics 0.2500000
ji'u the 0.0004431
ji'u are 0.0015674
nunde'a stop 0.0714286
nunde'a next 0.0588235
cuxna Choose 0.5000000
cuxna what 0.0039216
cuxna choose 0.8000000
cuxna yours 0.0322581
cuxna elected 0.5000000
cuxna have 0.0024752
cuxna chosen 0.4000000
cuxna been 0.0129870
cuxna is 0.0004983
cuxna Chris 0.2000000
cuxna choice 0.6666667
cuxna may 0.0277778
cuxna NULL 0.0001695
cuxna elect 1.0000000
snexu'i ( 0.0140845
snexu'i ) 0.0136986
snexu'i Cannabis 0.5000000
snexu'i drug 1.0000000
.e'u Leave 0.0500000
.e'u Always 0.2000000
.e'u suggest 0.4000000
.e'u by 0.0063291
.e'u NULL 0.0010168
.e'u Please 0.0434783
.e'u feel 0.0285714
.e'u reduce 0.3333333
.e'u free 0.0555556
.e'u I 0.0003215
.e'u &apos;s 0.0088203
.e'u cinema 0.2500000
.e'u should 0.0161290
.e'u stay 0.0322581
.e'u case 0.2000000
.e'u You 0.0023697
.e'u Let 0.1578947
.e'u since 0.1111111
.e'u hesitate 0.2000000
.e'u dessert 0.5000000
.e'u drop 0.3333333
.e'u advice 0.0434783
.e'u worry 0.0666667
xesygu'e Greece 0.5000000
звати cows 0.1428571
cnicro telling 0.2000000
cnicro Sometimes 0.5000000
tolsnuti deliberate 0.5000000
tolsnuti hide 0.3333333
tolsnuti looks 0.0161290
tolsnuti your 0.0024631
tolsnuti good 0.0095238
tolsnuti intentionally 0.5000000
cteduncitsi Equinox 1.0000000
dakfu sharp 0.1250000
dakfu is 0.0009965
dakfu knife 0.8000000
dakfu that 0.0016420
dakfu with 0.0040486
bakryta'o written 0.1000000
bakryta'o blackboard 0.2000000
bakryta'o on 0.0042735
.e'unaire'e repeat 0.2000000
.e'unaire'e that 0.0016420
nagi'enai lender 0.5000000
nagi'enai or 0.0081301
nagi'enai get 0.0104167
nagi'enai Neither 0.4000000
nagi'enai disappointed 0.5000000
cazi being 0.0212766
cazi our 0.0212766
cazi NULL 0.0003389
cazi moment 0.0526316
cazi bedroom 0.2500000
cazi just 0.0123457
cazi of 0.0011507
cazi at 0.0037879
dusygu'a are 0.0031348
dusygu'a overworked 0.5000000
dusygu'a some 0.0192308
dusygu'a administrators 0.2500000
dusygu'a professors 0.0769231
derxi garbage 0.5000000
derxi of 0.0011507
konstantius.xlorus Constantius 0.3333333
konstantius.xlorus Chlorus 1.0000000
frikytu'a Africa 0.2000000
jibri a 0.0046702
jibri this 0.0026810
jibri career 0.1666667
jibri NULL 0.0010168
jibri as 0.0105263
jibri administrator 0.3333333
jibri my 0.0091324
jibri walks 0.1250000
jibri work 0.0631579
jibri jobs 1.0000000
jibri industry 0.2500000
jibri job 0.5116279
jibri do 0.0087977
jibri unjust 0.2000000
tcexau very 0.0045249
tcexau nice 0.0303030
tcexau wonderful 0.0833333
tcexau artist 0.5000000
nolraitru Queen 0.1666667
nolraitru king 0.8947368
nolraitru King 0.3750000
nolraitru does 0.0333333
nolraitru the 0.0008861
nolraitru admires 0.3333333
bazu future 0.1111111
bazu the 0.0004431
bazu will 0.0048309
bazu , 0.0008203
bazu in 0.0014493
bazu expect 0.1666667
bazu far 0.0555556
bazu that 0.0016420
45 years 0.0125000
45 place 0.0294118
45 45 1.0000000
45 The 0.0015432
45 took 0.0303030
45 ago 0.0322581
45 war 0.0909091
perli pear 0.3333333
perli on 0.0085470
perli pears 1.0000000
perli left 0.0294118
ricyratcu hazelnuts 0.2500000
xrisomasa Christmas 0.2500000
krilysu'a Crystal 1.0000000
krilysu'a structure 0.5000000
ramus. to 0.0004704
ramus. Ramu 0.5000000
Klabaster Klabaster 0.1428571
vi'opei ? 0.0011293
vi'opei Go 0.0270270
vi'opei Be 0.0384615
vi'opei careful 0.0769231
vi'opei , 0.0008203
vi'opei OK 0.2222222
tankyva'u affects 0.2000000
tankyva'u Smoking 0.5000000
tankyva'u our 0.0212766
lu'u to 0.0004704
cnigau by 0.0063291
cnigau emotion 1.0000000
cnigau producing 0.5000000
dzitumbau in 0.0014493
dzitumbau Dutch 0.1111111
dzitumbau speaking 0.0714286
dzitumbau ! 0.0018692
terve'u bought 0.1578947
terve'u a 0.0046702
terve'u myself 0.0344828
terve'u brought 0.0625000
terve'u that 0.0016420
terve'u paid 0.0769231
terve'u for 0.0024038
terve'u puppy 0.1428571
terve'u it 0.0018553
terve'u buy 0.3043478
terve'u &apos;ve 0.0131579
terve'u buys 0.1250000
lastu Brass 0.5000000
mixre sounds 0.1666667
mixre a 0.0005838
mixre several 0.1666667
mixre of 0.0023015
mixre mixture 0.3333333
si'o concept 1.0000000
si'o NULL 0.0001695
si'o commanding 0.2000000
si'o meaningless 1.0000000
si'o soccer 0.0666667
si'o into 0.0161290
livbai kicked 0.3333333
livbai out 0.0108696
livbai Settlers 0.5000000
livbai of 0.0011507
.ibo reproducible 0.2000000
.ibo the 0.0004431
.ibo - 0.0384615
.ibo NULL 0.0001695
.ibo occur 0.1666667
djek. First 1.0000000
djunko Junko 0.2500000
djunko a 0.0005838
djunko is 0.0004983
si'erskiji like 0.0027027
si'erskiji going 0.0074074
si'erskiji feel 0.0285714
si'erskiji skiing 0.1250000
nau now 0.0980392
nau &apos;m 0.0043573
nau &apos;re 0.0064103
nau Now 0.0500000
gi'u do 0.0029326
gi'u whether 0.0526316
gi'u , 0.0008203
gi'u it 0.0018553
jinmrlorensi Lawrencium 1.0000000
seltivni program 1.0000000
seltivni TV 0.1250000
seltivni on 0.0042735
lunbe , 0.0016407
lunbe naked 1.0000000
lunbe would 0.0140845
lunbe sunbathe 0.3333333
xa'e Let 0.0263158
xa'e &apos;s 0.0022051
xandegji can 0.0039062
xandegji type 0.0714286
xandegji all 0.0068493
xandegji using 0.0555556
xandegji fingers 0.1111111
.ai NULL 0.0013557
.ai definitely 0.1666667
.ai ! 0.0018692
.ai to 0.0009407
.ai something 0.0104167
.ai spend 0.4000000
.ai beat 0.2000000
.ai that 0.0016420
.ai do 0.0029326
.ai these 0.0256410
.ai planning 0.3333333
.ai intend 0.2500000
.ai I 0.0019293
.ai . 0.0001143
.ai To 0.0188679
.ai &apos;ll 0.0067114
.ai purchase 0.2500000
.ai her 0.0049261
.ai am 0.0048544
klaje'i followed 0.1428571
klaje'i me 0.0037313
klaje'i into 0.0322581
klaje'i She 0.0056980
belo am 0.0048544
belo bean 0.3333333
jai warn 0.5000000
jai defend 0.2500000
jai nice 0.0303030
jai saying 0.0625000
jai was 0.0043103
jai Practice 0.2000000
jai 25 0.0714286
jai previously 0.4000000
jai playthings 0.1666667
jai ruin 0.2500000
jai crazies 0.2500000
jai be 0.0102041
jai Change 0.1250000
jai were 0.0467290
jai easy 0.0416667
jai obviously 0.3333333
jai supposed 0.0833333
jai fix 0.1111111
jai stamps 0.2500000
jai &apos;m 0.0021786
jai thief 1.0000000
jai makes 0.0952381
jai allowed 0.1333333
jai late 0.2105263
jai Madrid 0.2500000
jai Lojban 0.0103093
jai is 0.0009965
jai stronger 0.1428571
jai interest 0.1000000
jai motivate 0.1250000
jai stream 0.1428571
jai boring 0.1666667
jai Portugal 0.2000000
jai start 0.1034483
jai project 0.1818182
jai meal 0.1666667
jai cause 0.0833333
jai month 0.0909091
jai turn 0.0714286
jai clumsy 0.5000000
jai make 0.0303030
jai a 0.0005838
jai bouquet 0.2500000
jai Leave 0.0500000
jai doing 0.0508475
jai hurt 0.0714286
jai Should 0.2500000
jai frighten 0.3333333
jai cheap 0.3333333
jai difficult 0.0606061
jai rational 0.1250000
jai break 0.1000000
jai possible 0.0555556
jai understood 0.1428571
jai happens 0.0476190
jai fooled 0.2000000
jai tear 0.1666667
jai Time 0.1428571
jai emotions 0.1666667
jai half 0.0666667
jai NULL 0.0038976
jai likely 0.0909091
jai Turn 0.0434783
jai hard 0.0487805
jai starts 0.1666667
jai justified 0.3333333
jai early 0.0666667
jai opening 0.1000000
jai feeds 0.1250000
jai compelled 0.2500000
jai About 0.3333333
.naun.nakano. Nakano 0.2500000
ku] already 0.0434783
pifli'a from 0.0106952
pifli'a escaped 0.3333333
pifli'a has 0.0044643
.iri'abo meow 0.1428571
.iri'abo &apos;m 0.0021786
jirlu'i give 0.0250000
jirlu'i enjoyed 0.0909091
jirlu'i bath 0.2000000
jirlu'i &apos;ve 0.0131579
jirlu'i your 0.0024631
iecy,ys.krist Church 0.5000000
iecy,ys.krist of 0.0023015
iecy,ys.krist Latter-day 0.1666667
iecy,ys.krist Christ 0.3333333
iecy,ys.krist Jesus 0.0909091
.amsterdam. The 0.0015432
.amsterdam. capital 0.0833333
.amsterdam. city 0.0303030
na'orteryratni Atomic 1.0000000
na'orteryratni mass 0.5000000
risna cold-hearted 0.2500000
risna Hearts 0.3333333
risna Heart 1.0000000
risna heart 0.3000000
nondei On 0.0666667
nondei on 0.0042735
nondei , 0.0008203
nondei Sunday 0.3750000
zo,is. Zoe 0.3333333
in &apos; 0.0285714
tolplixau pointless 1.0000000
tolplixau useless 0.2500000
tolplixau is 0.0004983
tolplixau to 0.0004704
na.u &apos;t 0.0011919
na.u doesn 0.0104167
na.u , 0.0008203
na.u if 0.0117647
na.u matter 0.0625000
na.u no 0.0072464
jdali'u a 0.0005838
jdali'u in 0.0014493
jdali'u mission 0.3333333
jdali'u am 0.0048544
jdali'u on 0.0042735
paraguais Paraguay 1.0000000
cerni this 0.0026810
cerni Good 0.1111111
cerni morning 0.5588235
cerni NULL 0.0001695
zasti God 0.0147059
zasti NULL 0.0010168
zasti He 0.0016779
zasti exists 0.3888889
zasti is 0.0004983
zasti here 0.0058140
zasti does 0.0166667
zasti god 0.0714286
zasti exist 0.9411765
zasti She 0.0028490
zasti out 0.0434783
zasti legend 0.3333333
zasti Buddha 0.1428571
zasti To 0.1132075
zasti , 0.0008203
zasti therefore 0.2857143
zasti Existence 0.5000000
zasti reality 0.3333333
zasti more 0.0094340
zasti you 0.0006456
zasti Thames 0.2500000
zasti dies 0.0416667
zasti with 0.0161943
zasti not 0.0021739
zasti touch 0.2857143
zasti really 0.0142857
zasti of 0.0057537
zasti am 0.0097087
zasti &apos;re 0.0064103
zasti be 0.0034014
zasti or 0.0081301
pa'a almost 0.0500000
pa'a , 0.0008203
pa'a freely 0.2500000
pa'a like 0.0054054
jungau information 0.2500000
jungau immediately 0.1538462
jungau tell 0.2054795
jungau know 0.0106762
jungau what 0.0039216
jungau wouldn 0.1000000
jungau let 0.0400000
jungau NULL 0.0003389
jungau him 0.0068966
jungau about 0.0056818
jungau inform 1.0000000
jungau anyone 0.0571429
jungau me 0.0055970
jungau something 0.0104167
jungau anybody 0.0689655
jungau told 0.0704225
jungau Tell 0.1578947
jungau informed 0.5000000
jungau US 0.2000000
jungau Let 0.0131579
lyndyn rainy 0.2500000
lyndyn day 0.0123457
lyndyn in 0.0014493
lyndyn squares 0.1666667
lyndyn London 0.1333333
lyndyn Was 0.0666667
lyndyn the 0.0008861
lyndyn for 0.0048077
lyndyn it 0.0018553
ky. NULL 0.0001695
ky. won 0.0192308
ky. she 0.0247934
ky. Although 0.1250000
remlabno werewolf 1.0000000
remlabno a 0.0005838
no'o height 0.1000000
krori'a bend 0.1428571
xamgau making 0.1000000
xamgau fun 0.0370370
xamgau of 0.0011507
xamgau joke 0.1000000
.tokpisin. can 0.0039062
.tokpisin. Pisin 1.0000000
.tokpisin. well 0.0188679
.tokpisin. Tok 0.5000000
rigypanci really 0.0142857
rigypanci . 0.0001143
rigypanci stink 1.0000000
xejykre a 0.0005838
xejykre has 0.0044643
xejykre man 0.0117647
.oinai performance 0.2500000
.oinai &apos;m 0.0021786
.oinai Nice 0.1666667
.oinai their 0.0212766
.oinai I 0.0003215
.oinai with 0.0040486
.oinai pleased 0.1666667
mabru Mammal 1.0000000
mabru mammals 0.4000000
mabru a 0.0005838
mabru mammal 1.0000000
fengu furiously 0.2500000
fengu is 0.0004983
fengu with 0.0080972
fengu he 0.0078431
fengu angry 0.8000000
fengu &apos;m 0.0021786
fengu because 0.0125000
fengu mad 0.6666667
fengu got 0.0133333
cinlysko string 0.3333333
cinlysko The 0.0015432
gy the 0.0008861
gy then 0.0357143
gy Facebook 0.2000000
gy dj 0.2500000
gy , 0.0008203
gy ssh 0.5000000
gy dog 0.0245902
gy NULL 0.0001695
gy headset 0.5000000
gy VNC 1.0000000
gy with 0.0080972
cinri interest 0.4000000
cinri it 0.0055659
cinri This 0.0030120
cinri From 0.2500000
cinri question 0.0344828
cinri of 0.0011507
cinri am 0.0097087
cinri most 0.0294118
cinri fascinated 0.5000000
cinri cares 0.1111111
cinri interested 0.3529412
cinri in 0.0101449
cinri The 0.0015432
cinri interesting 0.6666667
cinri &apos;m 0.0043573
cinri That 0.0044843
cinri no 0.0072464
cinri phenomenon 1.0000000
cinri by 0.0063291
cinri NULL 0.0001695
cinri interests 0.5000000
sampre loving 0.1250000
snanilsutra sound 0.0769231
snanilsutra of 0.0011507
snanilsutra Speed 0.5000000
sidju NULL 0.0008473
sidju &apos;ll 0.0134228
sidju helped 0.5625000
sidju financially 0.5000000
sidju helps 0.4000000
sidju you 0.0006456
sidju administrator 0.3333333
sidju me 0.0037313
sidju help 0.6867470
sidju helping 0.4000000
sidju helpful 0.5000000
sidju Help 0.3000000
sidju favor 0.5000000
sidju assistant 0.3333333
muvysutra velocity 0.2500000
nonprali will 0.0048309
nonprali labor 0.2000000
nonprali It 0.0027624
pelmeni pelmeni 0.1666667
pelmeni &quot; 0.0096852
pelmeni of 0.0023015
tcingis. Genghis 1.0000000
cintypu'i painted 0.6666667
cintypu'i paint 0.3333333
cintypu'i at 0.0037879
cintypu'i paints 0.3333333
cmacmana the 0.0008861
cmacmana hill 0.2222222
cmacmana on 0.0085470
la.umemuran. Mr 0.0769231
la.umemuran. teaches 0.0833333
la.umemuran. Umemura 0.2500000
gombesa coelacanth 0.5000000
gombesa inhabits 0.5000000
gombesa Latimeria 1.0000000
ly. pass 0.0526316
ly. it 0.0018553
ly. on 0.0042735
ly. to 0.0004704
ly. NULL 0.0001695
xajrectu pork 1.0000000
punji NULL 0.0003389
punji posted 0.1428571
punji it 0.0018553
punji to 0.0004704
punji put 0.2972973
punji chalk 0.2500000
punji Put 0.2500000
nanbrxuafla ! 0.0018692
nanbrxuafla waffle 1.0000000
berger had 0.0084034
berger Berger 0.5000000
selmikce film 0.1250000
selmikce Patient 1.0000000
selmikce ) 0.0136986
selmikce patient 0.2500000
selmikce ( 0.0140845
selmikce a 0.0005838
xadyske anatomy 1.0000000
xadyske Human 0.1111111
farlygau a 0.0005838
farlygau vase 0.3333333
pukfri ourselves 0.2500000
pukfri enjoyed 0.1818182
.araukanias. Araucanía 0.2500000
cavi came 0.0192308
cavi here 0.0058140
so it 0.0018553
so was 0.0021552
so nine 0.7142857
so 9 1.0000000
so o 0.0909091
so 3.14159 0.1250000
so &apos;clock 0.1818182
da suggestion 0.2500000
da There 0.2195122
da searching 0.1111111
da those 0.0416667
da reason 0.0454545
da Nobody 0.3793103
da idea 0.0909091
da something 0.2187500
da different 0.0500000
da to 0.0004704
da once 0.0400000
da implement 0.1111111
da giving 0.1000000
da satisfied 0.1000000
da happens 0.0952381
da free 0.0555556
da Someday 0.5000000
da shades 0.5000000
da scared 0.1111111
da shoes 0.0476190
da lot 0.0285714
da hail 0.3333333
da lucid 0.2857143
da Here 0.0714286
da brothers 0.0769231
da Everything 0.3333333
da shook 0.3333333
da children 0.0487805
da a 0.0064215
da daughters 0.2727273
da farewell 0.5000000
da Everybody 0.3333333
da cause 0.0833333
da hundreds 0.2000000
da way 0.0140845
da know 0.0035587
da Whoever 0.2500000
da any 0.1034483
da Nothing 0.2000000
da rooms 0.1428571
da wasting 0.2500000
da anything 0.3589744
da purpose 0.1428571
da needy 0.1250000
da debt 0.3333333
da X 0.3333333
da It 0.0138122
da many 0.0476190
da so 0.0091743
da place 0.0294118
da tired 0.0192308
da unemployed 0.3333333
da Somebody 0.5714286
da point 0.1250000
da it 0.0166976
da wist 0.1666667
da have 0.0346535
da lies 0.1111111
da God 0.0147059
da no 0.0652174
da are 0.0015674
da survivors 0.2500000
da vanities 0.5000000
da job 0.0465116
da tell 0.0958904
da useless 0.2500000
da kids 0.1000000
da regret 0.1111111
da Everyone 0.2553191
da enemies 0.3333333
da anybody 0.4827586
da limits 0.3333333
da objective 0.3333333
da married 0.0277778
da controls 0.5000000
da hoped 0.1176471
da NULL 0.0132181
da oneself 0.1666667
da upon 0.1666667
da siblings 0.5000000
da survived 0.2500000
da love 0.0061350
da nothing 0.1777778
da swords 0.1000000
da &apos;s 0.0253583
da legs 0.2222222
da About 0.3333333
da cares 0.1111111
da passing 0.2500000
da ears 0.1428571
da ... 0.1627907
da someone 0.1935484
da needed 0.1000000
da anyone 0.3142857
da golf 0.2500000
da dressed 0.3333333
da friends 0.0363636
da all 0.0068493
da All 0.0333333
da . 0.0137190
da anywhere 0.1428571
da aware 0.0625000
da things 0.2115385
da X. 0.2500000
da there 0.0625000
da sons 0.2500000
da level 1.0000000
da Something 0.1000000
da sing 0.1200000
da sure 0.0344828
da Men 0.5000000
da stick 0.2500000
da unmarried 0.2500000
da benefits 0.2000000
da fond 0.1111111
da vacancies 0.2000000
da is 0.0049826
da everything 0.3111111
da opinion 0.0400000
da driven 0.2500000
da one 0.0940594
da unhappy 0.1363636
da what 0.0196078
da got 0.0133333
da much 0.0348837
da visitors 0.1428571
da except 0.1111111
da nearby 0.1428571
da terrorists 0.2500000
da blowing 0.3333333
da everyone 0.1400000
da architect 0.2500000
da more 0.0094340
da enter 0.0625000
da family 0.0476190
da expressed 0.2500000
da day 0.0246914
da somebody 0.5000000
da Someone 0.2105263
da lose 0.0714286
da villains 0.3333333
da Lojbanistan 1.0000000
da someday 0.3333333
da diligent 0.2500000
da some 0.0096154
da decision 0.1428571
da Then 0.1428571
da believing 0.2000000
da future 0.1111111
da languages 0.1923077
da questions 0.0625000
da Other 0.2500000
.doitcland. Germany 0.0625000
za'i , 0.0008203
za'i If 0.0270270
za'i Scatland 1.0000000
za'i poet 0.1428571
za'i because 0.0125000
za'i with 0.0040486
za'i that 0.0016420
za'i but 0.0082645
za'i matter 0.0625000
za'i to 0.0014111
za'i read 0.0138889
za'i Death 0.2500000
za'i health 0.1428571
za'i reason 0.0454545
za'i NULL 0.0025419
di'ai Pleasant 0.5000000
di'ai Halloween 0.1250000
di'ai weekend 0.4000000
di'ai Good 0.2222222
di'ai Goodnight 0.2000000
di'ai New 0.1428571
di'ai luck 0.4444444
di'ai voyage 0.2000000
di'ai Year 0.2727273
di'ai Happy 0.1875000
di'ai wish 0.0666667
di'ai Bon 0.3333333
di'ai same 0.0625000
di'ai ! 0.0261682
di'ai to 0.0004704
di'ai A 0.0080000
di'ai the 0.0004431
di'ai good 0.0095238
di'ai Christmas 0.2500000
di'ai &quot; 0.0096852
di'ai I 0.0006431
di'ai . 0.0002286
titikakas. Titicaca 0.5000000
titikakas. Lake 0.1111111
zi'o village 0.1000000
zi'o holy 0.3333333
zi'o sheds 0.1666667
zi'o Nothing 0.0666667
zi'o prepare 0.1250000
zi'o for 0.0024038
zi'o no 0.0072464
zi'o visit 0.0769231
zi'o is 0.0004983
zi'o sad 0.0800000
zi'o cells 0.2500000
zi'o Cuba 0.4000000
zi'o Visits 0.3333333
zi'o reason 0.0454545
peterburg Petersburg 1.0000000
peterburg Saint 0.3333333
vulkano volcanoes 1.0000000
vulkano many 0.0119048
.nin.smit. Mrs. 0.0909091
.nin.smit. Smith 0.2500000
.nin.smit. cleans 0.2000000
vukrygugde ! 0.0018692
vukrygugde save 0.0714286
vukrygugde Ukraine 0.2500000
gugyfrica ladies 0.5000000
gugyfrica foreign 0.1250000
litru away 0.0540541
litru NULL 0.0001695
litru traveled 0.2500000
litru trip 0.1363636
litru a 0.0011675
litru travellers 1.0000000
litru travel 0.5714286
litru was 0.0021552
litru knowledgeable 0.3333333
litru baggage 0.3333333
litru trips 0.2500000
litru traveling 0.4285714
litru brief 1.0000000
litru traveler 1.0000000
litru The 0.0015432
litru on 0.0085470
litru journey 0.5000000
litru Traveling 0.2000000
litru travels 0.2500000
litru voyage 0.2000000
bidgu'e Indonesia 1.0000000
01 NULL 0.0001695
01 Unicode 0.5000000
01 to 0.0004704
rezeno pounds 1.0000000
la.tatoebas. be 0.0034014
la.tatoebas. should 0.0161290
la.tatoebas. deleted 1.0000000
la.tatoebas. add 0.2500000
la.tatoebas. Tatoeba 0.1750000
la.tatoebas. from 0.0053476
randa The 0.0015432
randa British 0.2500000
randa forced 0.3333333
randa commander 1.0000000
randa was 0.0021552
randa to 0.0004704
randa surrender 1.0000000
ba'anai I 0.0006431
ba'anai recall 0.5000000
ba'anai yeah 0.5000000
ba'anai now 0.0098039
ba'anai , 0.0016407
ba'anai remember 0.0303030
ba'anai Oh 0.0357143
selja'o were 0.0093458
selja'o exhibition 0.2000000
selja'o on 0.0085470
selja'o sold 0.5000000
selja'o pictures 0.0909091
memkai increases 0.3333333
faxixo'e mountains 0.1000000
ratyjbama nuclear 0.5000000
ratyjbama hit 0.0500000
ratyjbama been 0.0129870
ratyjbama by 0.0063291
ratyjbama bombs 0.2500000
plana all 0.0068493
plana fat 0.7500000
plana be 0.0034014
plana &apos;m 0.0021786
prenu repairman 0.5000000
prenu crazy 0.1250000
prenu man 0.1058824
prenu persons 0.3333333
prenu taller 0.0625000
prenu met 0.0263158
prenu Lawyers 0.2500000
prenu men 0.0434783
prenu people 0.4640000
prenu dolls 0.2000000
prenu Everyone 0.1702128
prenu person 0.7962963
prenu beings 1.0000000
prenu distinct 0.2500000
prenu singer 0.2000000
prenu . 0.0002286
prenu loudly 0.2500000
prenu Someone 0.1052632
prenu mortal 0.3333333
prenu anyone 0.1428571
prenu that 0.0016420
prenu jealous 0.2500000
prenu are 0.0015674
prenu European 0.2500000
prenu a 0.0017513
prenu personalities 1.0000000
prenu pianist 0.5000000
prenu speaks 0.0434783
prenu &apos;re 0.0064103
prenu passengers 0.2000000
prenu around 0.0588235
prenu am 0.0097087
prenu doctor 0.0434783
prenu everyone 0.0400000
prenu Man 0.2000000
prenu swimmers 0.3333333
prenu giggled 0.3333333
prenu one 0.0396040
prenu immediately 0.0769231
prenu alive 0.0476190
prenu eat 0.0111111
prenu is 0.0004983
prenu herself 0.1666667
prenu driver 0.2500000
prenu People 0.3000000
prenu nobody 0.4285714
prenu NULL 0.0027114
ki'otre 133 0.5000000
gugdrpolska women 0.1000000
gugdrpolska Polish 0.2500000
gugdrpolska at 0.0037879
.uinaidai You 0.0023697
culnygau filled 0.1000000
culnygau the 0.0004431
rusko liberty 0.1666667
rusko Russians 0.1666667
rusko for 0.0024038
rusko in 0.0014493
rusko Russian 0.2307692
banli cool 0.3333333
banli Great 0.3000000
banli Terrific 1.0000000
banli This 0.0030120
banli formidable 0.3333333
banli extraordinary 1.0000000
banli am 0.0048544
banli is 0.0009965
banli spectacular 0.5000000
banli ! 0.0037383
banli awesome 0.4444444
banli Christian 0.3333333
banli a 0.0011675
banli NULL 0.0001695
banli wonderful 0.2500000
banli &apos;s 0.0022051
banli academies 0.2000000
banli &apos;m 0.0021786
banli great 0.4600000
mi'u Jane 0.0769231
mi'u to 0.0004704
mi'u very 0.0045249
mi'u thing 0.0322581
mi'u same 0.0625000
mi'u the 0.0004431
ralte Whose 0.1290323
ralte had 0.0420168
ralte books 0.0508475
ralte Tell 0.0526316
ralte have 0.1237624
ralte belong 0.2500000
ralte yours 0.0322581
ralte belongs 0.0740741
ralte beauties 0.5000000
ralte new 0.0312500
ralte gun 0.1000000
ralte bicycle 0.0714286
ralte has 0.1026786
ralte got 0.0133333
ralte owns 0.1111111
ralte own 0.1388889
ralte a 0.0262697
ralte He 0.0016779
ralte NULL 0.0006779
ralte mine 0.0370370
ralte car 0.0078125
ralte getting 0.0434783
ralte That 0.0044843
ralte keeps 0.3333333
ralte hers 0.1428571
ralte keep 0.1428571
ralte is 0.0004983
titspi candy 0.3750000
titspi tastes 0.1666667
titspi used 0.0322581
.iamada. is 0.0004983
.iamada. name 0.0104167
.iamada. Yamada 0.5000000
gy.Laurie.gy. Laurie 0.0833333
salvador.dalis. Salvador 0.5000000
salvador.dalis. Dalí 0.3333333
salvador.dalis. languages 0.0384615
salvador.dalis. of 0.0011507
salvador.dalis. the 0.0004431
simda'a quarrel 0.3333333
vurgu'e Ukraine 0.2500000
cfari starts 0.3333333
cfari vegetables 0.1666667
cfari already 0.0434783
cfari freshness 0.1666667
cfari has 0.0044643
cfari classes 0.1666667
cfari Year 0.0909091
cfari now 0.0196078
cfari after 0.0344828
cfari started 0.0434783
cfari NULL 0.0003389
cfari start 0.4137931
cfari young 0.0526316
cfari begin 0.1428571
ctino to 0.0004704
ctino people 0.0080000
ctino Young 0.3333333
ctino tend 0.2500000
plipe He 0.0016779
plipe joy 0.2000000
plipe high 0.1538462
plipe NULL 0.0003389
plipe jump 0.4000000
plipe ( 0.0281690
plipe handspring 0.2000000
plipe jumping 1.0000000
plipe jumped 0.3076923
plipe of 0.0023015
plipe jumps 0.5000000
plipe out 0.0217391
merli always 0.0142857
termu'eske Physics 0.7500000
termu'eske Prize 0.5000000
zukAm. a 0.0005838
bino NULL 0.0001695
bino than 0.0077519
bino cents 0.3333333
bino eighty 0.5000000
bino years 0.0125000
terpemci poet 0.1428571
raksygu'e Iraq 1.0000000
genja have 0.0024752
genja roots 0.3333333
genja root 0.3333333
genja that 0.0016420
genja , 0.0008203
genja Beetroot 0.2500000
genja borsch 0.3333333
mulgau it 0.0018553
mulgau finish 0.8000000
mulgau have 0.0024752
mulgau job 0.0232558
mulgau the 0.0004431
mulgau homework 0.1666667
mulgau bring 0.0909091
mulgau done 0.0192308
mulgau make 0.0151515
.a'unaicai It 0.0027624
.a'unaicai that 0.0016420
.a'unaicai unthinkable 1.0000000
.a'unaicai &apos;s 0.0011025
zmanei favorite 0.0333333
zmanei like 0.0027027
zmanei color 0.0909091
zmanei &apos;d 0.0196078
zmanei prefer 0.2941176
ckuzda is 0.0004983
ckuzda allowed 0.0666667
ckuzda library 0.1481481
ckuzda not 0.0021739
ckuzda copy 0.5000000
dakau Soon 0.2000000
va'ei if 0.0117647
glagau heating 0.1666667
glagau &apos;s 0.0011025
ka'orta carrots 0.5000000
merbau and 0.0026247
merbau American 0.0454545
merbau British 0.2500000
datsi'u different 0.0500000
datsi'u are 0.0015674
nonzau integer 0.2000000
nonzau greatest 0.2500000
jukpa some 0.0288462
jukpa cooked 0.3333333
jukpa can 0.0039062
jukpa cooks 0.5000000
jukpa cook 0.8181818
jukpa cooking 0.2000000
jukpa baking 0.5000000
jukpa make 0.0757576
jukpa bake 0.6666667
jukpa NULL 0.0008473
jukpa hobby 0.1666667
jukpa baked 0.4000000
jukpa made 0.0277778
jukpa snails 0.3333333
jukpa how 0.0082645
jukpa She 0.0028490
nalki'asku to 0.0004704
nalki'asku shout 0.3333333
nalki'asku not 0.0021739
cipa 3031 0.2500000
cipa &quot; 0.0096852
zdotu'a Asia 0.3333333
ro'i going 0.0074074
ro'i care 0.0384615
ro'i &apos;m 0.0021786
ro'i am 0.0048544
ro'i think 0.0081967
ro'i do 0.0029326
ro'i I 0.0009646
ro'i have 0.0024752
ro'i so 0.0091743
ro'i that 0.0016420
ro'i lonely 0.0769231
ro'i an 0.0069444
ro'i to 0.0004704
ro'i opinion 0.0400000
ro'i interested 0.0588235
ekuador Ecuador 1.0000000
la.ken. went 0.0136986
la.ken. Ken 0.0833333
la.ken. , 0.0008203
la.ken. faster 0.0769231
la.ken. or 0.0081301
dacti object 0.5000000
dacti that 0.0016420
dacti using 0.0555556
dacti thing 0.0322581
dacti real 0.1428571
dacti a 0.0017513
kaidji want 0.0035842
fe'eca'o off 0.0212766
fe'eca'o trails 0.3333333
fe'eca'o this 0.0026810
fe'eca'o at 0.0037879
fe'eca'o out 0.0108696
fe'eca'o some 0.0096154
fe'eca'o that 0.0016420
cipnrxigli are 0.0015674
cipnrxigli flying 0.0833333
cipnrxigli There 0.0060976
cipnrxigli birds 0.0769231
bunda weighs 0.1666667
bunda 270 1.0000000
gerku dogs 0.9130435
gerku dog 0.8852459
gerku Dogs 0.1666667
gerku chest 0.2500000
gerku of 0.0023015
gerku &apos;m 0.0021786
gerku poor 0.0555556
gerku Dog 1.0000000
gerku that 0.0049261
gerku doggie 0.3333333
gerku kind 0.0133333
gerku a 0.0017513
gerku NULL 0.0001695
zilmipri isn 0.0133333
zilmipri secret 0.0833333
zilmipri It 0.0027624
zilmipri a 0.0005838
fudbolo Soccer 0.5000000
fudbolo football 0.5000000
fudbolo soccer 0.5333333
julne net 0.4000000
julne being 0.0212766
julne size 0.2000000
julne of 0.0023015
julne each 0.0212766
julne heap 1.0000000
velve'u down 0.0212766
velve'u expenses 0.1250000
kargu this 0.0026810
kargu NULL 0.0001695
kargu is 0.0009965
kargu ! 0.0056075
kargu how 0.0082645
kargu It 0.0055249
kargu &apos;s 0.0022051
kargu expensive 0.7083333
klirlxastati Astatine 1.0000000
kamka'o well-being 1.0000000
kamka'o health 0.0952381
kamka'o NULL 0.0001695
madonas to 0.0004704
madonas able 0.0476190
madonas is 0.0009965
madonas Madonna 0.5000000
xecu'u to 0.0004704
xecu'u hesitate 0.2000000
xecu'u &apos;t 0.0011919
xecu'u don 0.0034965
tolstace insincere 1.0000000
.doitc. German 0.0400000
ben Ben 1.0000000
denburcu toothbrush 0.3333333
nabypalne have 0.0024752
nabypalne some 0.0096154
nabypalne Please 0.0054348
nabypalne pie 0.3333333
xagri repaired 1.0000000
xagri to 0.0004704
xagri get 0.0104167
xagri my 0.0022831
xagri need 0.0129870
xagri oboe 1.0000000
tcelenku cold 0.0243902
tcelenku really 0.0142857
tcelenku It 0.0027624
tcelenku &apos;s 0.0011025
fizbu excited 0.4000000
lu'i the 0.0004431
lu'i of 0.0011507
lu'i set 0.0833333
lu'i runs 0.0555556
lu'i distinct 0.2500000
fe'a the 0.0004431
fe'a 100 0.1428571
fe'a of 0.0011507
fe'a square 0.2000000
fe'a root 0.3333333
serbias Serbia 1.0000000
ce'i % 0.3333333
ce'i percent 0.2000000
ce'i of 0.0011507
drijdikygau comforting 1.0000000
drijdikygau her 0.0049261
nunselnandu ever 0.0400000
nunselnandu hardest 0.5000000
nunselnandu &apos;ve 0.0131579
nunselnandu done 0.0192308
nunselnandu thing 0.0322581
voksnaske Phonetics 1.0000000
co'o Goodnight 0.2000000
co'o See 0.4000000
co'o you 0.0025823
co'o ! 0.0186916
co'o later 0.1428571
co'o Good-bye 0.5000000
co'o Goodbye 0.6000000
co'o Bye 1.0000000
co'o . 0.0008003
co'o now 0.0196078
co'o , 0.0008203
co'o goodbye 0.3750000
co'o bye 0.2500000
co'o again 0.0238095
jinsru encircled 0.5000000
jinsru with 0.0040486
tolcu'i impossible 0.0434783
tolcu'i This 0.0030120
tolcu'i is 0.0004983
tolcu'i ! 0.0018692
la.linuks. ! 0.0018692
la.linuks. Linux 0.5000000
zdilisri get 0.0104167
zdilisri joke 0.1000000
toi'e &apos;m 0.0043573
toi'e unhappy 0.0454545
toi'e I 0.0003215
toi'e serious 0.0833333
toi'e , 0.0008203
toi'e kidding 0.1666667
toi'e OK 0.1111111
toi'e ! 0.0018692
dzena old 0.0128205
dzena of 0.0011507
ketlete Body 1.0000000
ketlete index 1.0000000
ketlete mass 0.5000000
nanla There 0.0060976
nanla a 0.0005838
nanla boy 0.8709677
nanla NULL 0.0001695
nanla was 0.0021552
nanla there 0.0078125
nanla boys 0.5333333
grupu'o Flour 0.2000000
papri on 0.0042735
papri paper 0.2000000
papri burns 0.3333333
papri consisting 0.5000000
papri mistakes 0.1000000
papri Paper 0.2500000
papri NULL 0.0001695
dinske Economics 1.0000000
mataios Saint 0.3333333
mataios Matthew 1.0000000
jarki a 0.0005838
jarki narrow 1.0000000
jarki path 0.3333333
jarki along 0.1428571
festi garbage 0.5000000
festi pile 0.5000000
festi The 0.0015432
.i'e sushi 0.0769231
.i'e excellent 0.5000000
.i'e did 0.0064516
.i'e NULL 0.0001695
.i'e Very 0.1111111
.i'e Speaking 0.1111111
.i'e an 0.0069444
.i'e ! 0.0018692
.i'e job 0.0232558
.i'e Hm 0.5000000
.i'e . 0.0001143
.i'e objectively 0.5000000
rejyjveprigau It 0.0027624
rejyjveprigau printed 0.3333333
rejyjveprigau saved 0.2000000
rejyjveprigau ! 0.0018692
rejyjveprigau &apos;s 0.0011025
rejyjveprigau and 0.0026247
rejyjveprigau been 0.0129870
ctuske Pedagogy 1.0000000
gy.The The 0.0015432
gy.The Age 0.1666667
ponpre Japanese 0.0384615
ze'u waited 0.1176471
ze'u long 0.1739130
ze'u , 0.0008203
ze'u have 0.0024752
ze'u permanent 0.2000000
ze'u for 0.0072115
ze'u time 0.0674157
ze'u no 0.0072464
ze'u Long 0.5000000
ze'u How 0.0046948
ze'u spent 0.2500000
ze'u a 0.0023351
ze'u NULL 0.0005084
ze'u until 0.0434783
kimbab. kimbap 0.5000000
klausevits Clausewitz 1.0000000
narzutse to 0.0004704
narzutse from 0.0053476
narzutse rose 0.1111111
narzutse his 0.0034247
narzutse welcome 0.1428571
narzutse chair 0.1000000
tirxu NULL 0.0003389
tirxu Tiger 0.5555556
tirxu Police 0.1250000
tirxu tiger 1.0000000
tirxu ! 0.0112150
tirxu has 0.0044643
tirxu Help 0.2000000
tirxu tigers 0.3333333
tirxu friendly 0.1428571
pikci &apos;m 0.0021786
pikci begged 0.5000000
pikci begging 0.5000000
pikci make 0.0151515
pikci beg 0.5000000
la.yLIzabet. Elizabeth 0.2500000
la.yLIzabet. his 0.0034247
senpi doubt 0.7500000
senpi it 0.0055659
senpi if 0.0235294
senpi that 0.0016420
senpi NULL 0.0005084
larfi'i a 0.0005838
larfi'i good 0.0095238
larfi'i artist 0.5000000
larfi'i are 0.0015674
larfi'i very 0.0045249
vo'a zoo 0.1250000
vo'a Dad 0.1000000
vo'a busies 0.3333333
vo'a his 0.0479452
vo'a bag 0.0666667
vo'a invitation 0.1111111
vo'a breast-pocket 0.2500000
vo'a her 0.0394089
vo'a thinks 0.0909091
vo'a themselves 0.1111111
vo'a Elizabeth 0.2500000
vo'a nose 0.1333333
vo'a herself 0.1666667
vo'a itself 0.7142857
vo'a Mike 0.0769231
vo'a craft 0.3333333
vo'a he 0.0196078
vo'a NULL 0.0028809
vo'a tooth 0.5000000
vo'a him 0.0137931
vo'a their 0.0851064
vo'a cannibal 0.1666667
vo'a earth 0.0476190
vo'a home 0.0172414
vo'a spoken 0.1111111
vo'a nipples 0.5000000
vo'a toy 0.1250000
vo'a myself 0.0689655
vo'a astronaut 0.2500000
vo'a feeds 0.1250000
vo'a brother 0.0350877
vo'a hates 0.0416667
vo'a hid 0.1666667
vo'a ears 0.0714286
vo'a yawning 0.3333333
va'a applying 1.0000000
tabybi'o These 0.0126582
tabybi'o charred 0.5000000
naljundi &apos;s 0.0011025
naljundi promiscuous 1.0000000
naljundi sexually 0.5000000
nakpa'i My 0.0022883
nakpa'i boyfriend 0.1428571
lusis. is 0.0004983
lusis. Lucy 0.2000000
sipta'i . 0.0001143
sipta'i sleepy 0.1111111
sipta'i &apos;re 0.0064103
rijno coins 0.5000000
rijno silver 1.0000000
rijno a 0.0005838
rijno Silver 1.0000000
livga the 0.0004431
livga Alcohol 0.2500000
livga liver 0.2000000
livga damages 1.0000000
la'ortu'a Latin 0.2000000
la'ortu'a America 0.0263158
.e'ese'a do 0.0029326
.e'ese'a myself 0.0344828
.e'ese'a I 0.0003215
.e'ese'a will 0.0048309
.e'ese'a it 0.0018553
.e'ese'a . 0.0001143
stasu soup 0.6000000
stasu broth 1.0000000
stasu bean 0.3333333
stasu your 0.0024631
stasu while 0.0222222
stasu spoonful 0.5000000
stasu borsch 0.3333333
va'ucmo a 0.0005838
va'ucmo until 0.0434783
va'ucmo sigh 0.5000000
va'ucmo finished 0.0625000
va'ucmo he 0.0039216
va'ucmo it 0.0018553
va'ucmo with 0.0040486
uruguais Uruguay 1.0000000
ausai much 0.0116279
ausai very 0.0045249
ausai to 0.0004704
ausai I 0.0003215
ausai want 0.0035842
pindi was 0.0043103
pindi rather 0.2222222
pindi than 0.0155039
pindi live 0.0281690
pindi poor 0.3333333
pindi &apos;m 0.0021786
pindi wealth 0.3333333
pindi poverty 0.2500000
pindi is 0.0004983
pindi in 0.0057971
pindi peaceful 0.2857143
bogjinme Calcium 1.0000000
feprykenra There 0.0060976
feprykenra lung 0.2500000
gaja ( 0.0140845
mu'opei you 0.0006456
mu'opei ? 0.0005647
mu'opei Have 0.0256410
mu'opei finished 0.0625000
la.siskos. around 0.0588235
la.siskos. Sysko 1.0000000
la.siskos. hangs 0.5000000
2 2 0.0256410
2 30 0.1250000
2 : 0.0238095
nivji a 0.0005838
nivji knitting 1.0000000
nivji is 0.0004983
.tato,ebas. of 0.0011507
.tato,ebas. version 0.2000000
.tato,ebas. Tatoeba 0.0500000
li 2008 0.2000000
li virtually 0.5000000
li seven 0.4000000
li fifty 0.1000000
li height 0.1000000
li generation 0.5000000
li letters 0.0625000
li Three 0.1250000
li tonight 0.0526316
li π 0.5000000
li hour 0.2105263
li day 0.0246914
li circumference 1.0000000
li enterprise 0.1666667
li bag 0.0666667
li months 0.2631579
li 25 0.1428571
li 538 0.1428571
li kilometers 0.1428571
li third 0.2000000
li age 0.2000000
li June 0.1666667
li days 0.1481481
li Count 0.2500000
li 4 0.2500000
li million 1.0000000
li -3 0.2500000
li Six 0.5000000
li cherish 0.1428571
li It 0.0165746
li weighs 0.3333333
li o 0.3181818
li the 0.0004431
li 20 0.1818182
li seventeen 0.2500000
li seconds 0.3333333
li Five 0.1428571
li Up 0.2500000
li weeks 0.3157895
li blew 0.2000000
li is 0.0034878
li Two 0.2352941
li minute 0.1176471
li square 0.2000000
li dollars 0.2000000
li 1982 0.2500000
li degrees 0.5000000
li 2011 0.5000000
li e 0.1818182
li bit 0.0714286
li first 0.0344828
li tomorrow 0.0240964
li yen 0.1666667
li week 0.0416667
li how 0.0082645
li net 0.2000000
li enough 0.0487805
li 2539 0.3333333
li . 0.0030868
li twelve 0.2500000
li product 0.5000000
li 5 0.1428571
li F 0.5000000
li earn 0.3333333
li p.m. 0.1250000
li 1742 0.2500000
li warm 0.1000000
li ago 0.0967742
li sake 0.5000000
li year 0.0454545
li eighty 0.2500000
li 10 0.1538462
li One 0.0666667
li forty 0.1666667
li kilo 0.2000000
li years 0.3250000
li eight 0.3333333
li miles 0.1666667
li The 0.0030864
li 13 0.2857143
li hours 0.2812500
li 1 0.4285714
li length 0.1428571
li minutes 0.2682927
li paprika 0.3333333
li eight-thirty 0.2307692
li unspecified 0.3333333
li times 0.1153846
li 2 0.2820513
li five 0.0416667
li price 0.1818182
li NULL 0.0042366
li euros 0.1250000
li 25th 0.1428571
li pound 0.2000000
li 1977 0.2500000
li meters 0.2857143
li 1.4 0.2000000
li googol 0.3333333
li attended 0.1000000
li four 0.1304348
li equal 0.2727273
li probability 0.2500000
li 3031 0.2500000
li 2003 0.2000000
li 14 0.3636364
li Devonshire 0.1428571
li bet 0.2000000
li mile 0.2500000
li 0.001 0.5000000
li 8 0.2500000
li six 0.1666667
li equals 0.3529412
li 1010 0.1666667
li megabytes 0.5000000
li 17 0.2500000
li $ 0.2500000
li nine 0.1428571
li 00 0.1428571
jbini NULL 0.0003389
jbini pauses 0.5000000
jbini with 0.0040486
jbini between 0.0714286
jbini among 0.1000000
selku'e the 0.0004431
selku'e gap 1.0000000
smacyrectu mouse 0.0555556
smacyrectu meat 0.0833333
smacyrectu ) 0.0136986
smacyrectu ( 0.0140845
flani is 0.0004983
flani flute 1.0000000
flani that 0.0016420
flani of 0.0011507
cmecau remain 0.3333333
cmecau in 0.0014493
cmecau anonymous 0.3333333
moltenva'u he 0.0039216
moltenva'u was 0.0021552
moltenva'u , 0.0008203
moltenva'u yawning 0.3333333
moltenva'u him 0.0068966
ma'u expression 0.2500000
visysanji see 0.0076923
visysanji can 0.0039062
taxfu clothing 0.2500000
taxfu dress 0.0769231
taxfu badly 0.3333333
taxfu in 0.0014493
taxfu NULL 0.0005084
taxfu out 0.0108696
taxfu clothes 0.3636364
taxfu had 0.0084034
taxfu well 0.0188679
taxfu business 0.0588235
taxfu really 0.0142857
denci out 0.0108696
denci Baby 0.2500000
denci teeth 0.3750000
denci tooth 0.5000000
denci taken 0.1428571
bavlamna'a year 0.0909091
estis Estonia 1.0000000
sakta There 0.0060976
sakta no 0.0072464
sakta Sugar 0.5714286
sakta sugar 0.7333333
sakta is 0.0004983
vulfygan.amade,us.motsart Mozart 1.0000000
vulfygan.amade,us.motsart Wolfgang 1.0000000
vulfygan.amade,us.motsart Amadeus 1.0000000
xance &apos;s 0.0011025
xance hand 0.4545455
xance yet 0.0357143
xance handspring 0.2000000
xance handwriting 0.2857143
xance your 0.0024631
xance hands 0.6923077
xance mobile 0.1666667
xance handed 0.1666667
lingua a 0.0005838
muki'o exactly 0.0526316
muki'o 5,000 1.0000000
.i'unai weird 0.1000000
.i'unai . 0.0001143
.i'unai This 0.0030120
.i'unai is 0.0004983
my medication 0.2000000
my cat 0.0212766
my &apos;s 0.0011025
my tells 0.2500000
my The 0.0030864
my NULL 0.0001695
bansuve'a will 0.0048309
bansuve'a , 0.0016407
bansuve'a translation 0.1428571
bansuve'a then 0.0357143
bansuve'a provide 0.2000000
bansuve'a indirectly 1.0000000
bansuve'a in 0.0014493
bansuve'a this 0.0026810
bansuve'a Swahili 0.4000000
jaigau preserve 0.5000000
jaigau beauties 0.5000000
jaigau should 0.0161290
jaigau the 0.0008861
jaigau of 0.0011507
zifsnada with 0.0040486
zifsnada it 0.0018553
zifsnada got 0.0133333
zifsnada away 0.0270270
zifsnada nearly 0.2500000
kacna'u natural 0.1250000
kacna'u is 0.0004983
kacna'u Prime 0.2500000
kacna'u a 0.0005838
kacna'u 25 0.0714286
kacna'u Natural 0.3333333
kacna'u number 0.0750000
cnebo necklace 0.2500000
.xanakos. desk 0.1000000
.xanakos. Hanako 0.3333333
.xanakos. &apos;s 0.0011025
.xanakos. is 0.0004983
forca Forks 1.0000000
forca Three 0.1250000
forca fork 1.0000000
temci long 0.0652174
temci Time 0.2857143
temci spare 0.5000000
temci time 0.0898876
temci of 0.0023015
temci How 0.0046948
temci amount 0.2000000
temci NULL 0.0001695
remgunma crowd 1.0000000
ma'ekla will 0.0048309
ma'ekla drive 0.0769231
ma'ekla driving 0.3333333
ma'ekla &apos;m 0.0021786
bemtu'a America 0.0263158
bemtu'a North 0.2000000
gubyseltru Czech 0.3333333
gubyseltru a 0.0005838
gubyseltru Republic 0.2000000
gubyseltru republic 1.0000000
jinmrsamari Samarium 1.0000000
runta soluble 0.5000000
runta dissolves 0.5000000
runta in 0.0028986
rogjinme Chromium 1.0000000
MP3 player 0.2000000
MP3 an 0.0069444
zdizma lot 0.0142857
zdizma more 0.0471698
zdizma NULL 0.0001695
zdizma fun 0.1851852
zdizma &apos;s 0.0033076
zdizma This 0.0030120
zdizma than 0.0310078
zdizma It 0.0082873
pe'ipei during 0.0909091
pe'ipei you 0.0006456
pe'ipei we 0.0089286
pe'ipei gonna 0.0769231
pe'ipei think 0.0081967
pe'ipei do 0.0058651
narju be 0.0034014
narju orange 0.2500000
narju to 0.0004704
narju my 0.0022831
jajgau He 0.0016779
jajgau T-shirts 0.2500000
jajgau bits 0.5000000
jajgau collected 0.5000000
Laurie Laurie 0.0833333
setmima do 0.0058651
setmima not 0.0043478
setmima sets 0.3333333
setmima set 0.0833333
setmima contain 0.5714286
setmima themselves 0.2222222
la'orxi'o Catholic 1.0000000
la'orxi'o &apos;s 0.0022051
la'orxi'o She 0.0028490
la'orxi'o a 0.0011675
la'orxi'o devout 0.5000000
la'orxi'o He 0.0016779
gugde'itu time 0.0224719
gugde'itu first 0.0689655
gy.Coke.gy. Coke 0.1000000
xanla about 0.0056818
xanla worried 0.3333333
xanla are 0.0015674
cu'upre businessman 0.5000000
cu'upre businessperson 0.6000000
cu'upre am 0.0048544
cu'upre become 0.0476190
cu'upre a 0.0029189
spranto an 0.0069444
spranto official 0.1250000
cirl,r,bri ) 0.0136986
cirl,r,bri cheese 0.0769231
cirl,r,bri brie 1.0000000
cirl,r,bri ( 0.0140845
be'u enough 0.0243902
be'u . 0.0004573
be'u &apos;s 0.0022051
be'u I 0.0006431
be'u missing 0.2500000
be'u It 0.0027624
be'u here 0.0058140
be'u need 0.0389610
be'u is 0.0004983
be'u ! 0.0018692
be'u Something 0.1000000
be'u it 0.0018553
be'u This 0.0030120
be'u washing 0.1111111
be'u not 0.0043478
be'u sate 0.2000000
je'unaipei Wasn 0.2500000
je'unaipei &apos;t 0.0011919
aksiptrina prey 0.3333333
birjanco shoulders 0.3333333
birjanco his 0.0034247
birjanco shoulder 1.0000000
birjanco my 0.0022831
birjanco on 0.0085470
broda ... 0.0465116
broda this 0.0026810
broda P 0.5714286
broda craft 0.3333333
broda is 0.0004983
broda to 0.0004704
broda try 0.0243902
broda do 0.0058651
broda it 0.0018553
broda balloon 0.2000000
vartisyboi balloon 0.2000000
vartisyboi a 0.0005838
klagau brought 0.0625000
blutu'u practicing 0.2500000
uu Mwa 1.0000000
uu ! 0.0018692
uu , 0.0008203
uu ha 0.1250000
nunglecau abstinence 0.5000000
nunglecau before 0.0166667
17xyxymoi 18th 0.2000000
17xyxymoi century 0.2000000
.liz. Liz 0.2000000
.liz. this 0.0026810
la.kubas. Cuba 0.2000000
la.kubas. before 0.0166667
kriceto , 0.0008203
jinmrplutoni Plutonium 1.0000000
basna &quot; 0.0048426
basna &apos;e 0.2500000
basna emphasizes 1.0000000
basna NULL 0.0001695
basna ba 1.0000000
maik,l. Jackson 0.3333333
maik,l. Michael 0.1666667
ba'i margarine 0.2500000
ba'i rather 0.1111111
ba'i going 0.0074074
ba'i Instead 0.2500000
ba'i NULL 0.0003389
ba'i of 0.0011507
.iecuax Jesus 0.0909091
.iecuax Church 0.5000000
balvi usage 0.2500000
balvi later 0.0714286
balvi future 0.1111111
balvi will 0.0048309
balvi advance 0.2727273
balvi happen 0.0666667
tankypli smoke 0.1000000
lanci flag 0.8571429
lanci a 0.0005838
lanci , 0.0016407
lanci please 0.0317460
ka'irtrusi'o cement 0.2000000
dircynavni Radon 1.0000000
ge'u lived 0.0400000
ge'u NULL 0.0001695
ge'u Elephant 0.2000000
tolmi'u contrary 0.1666667
tolmi'u , 0.0008203
nunpalci evil 0.0769231
nunpalci all 0.0068493
nunpalci of 0.0011507
minli shore 0.1666667
minli miles 0.1666667
minli mile 0.2500000
minli a 0.0005838
djine Ruling 0.3333333
djine the 0.0004431
djine Ring 0.5000000
la.akiran. baby 0.0588235
la.akiran. their 0.0212766
la.akiran. Akira 0.3333333
la.akiran. named 0.1000000
toi Neptunes 0.2500000
toi before 0.0166667
toi ) 0.0547945
toi film 0.1250000
toi antibiotic 0.2500000
toi Solaris 0.2500000
Lojban?.gy. &apos; 0.0285714
Lojban?.gy. ? 0.0005647
Lojban?.gy. in 0.0028986
Lojban?.gy. &quot; 0.0024213
Lojban?.gy. Lojban 0.0206186
a'o I 0.0012862
a'o able 0.0476190
a'o comes 0.0500000
a'o resolve 0.5000000
a'o to 0.0004704
a'o hope 0.1111111
a'o that 0.0016420
a'o are 0.0015674
.farcad. is 0.0009965
.farcad. Farshad 0.4000000
.farcad. name 0.0208333
lidycevjinme Thorium 1.0000000
xamsku joking 0.2000000
xamsku jokes 0.1666667
la biased 0.2500000
la Terry 0.4571429
la Delphi 0.3333333
la Peter 0.2000000
la Tam 1.0000000
la Hokkaido 0.1333333
la Michelle 0.5000000
la Jesus 0.3636364
la Lulus 0.3333333
la Bob 0.4736842
la Steve 0.1666667
la Data 0.2500000
la Hakata 0.2500000
la Fred 0.4000000
la Doris 0.4615385
la golf 0.2500000
la Okinawa 0.1666667
la Prague 0.3333333
la France 0.1250000
la phase 1.0000000
la Allan 0.2500000
la Camgusmis 0.3333333
la Myra 0.3333333
la Facebook 0.1000000
la Mr. 0.1666667
la Plato 0.1000000
la in 0.0057971
la museum 0.1428571
la Keiko 0.3333333
la Apollo 0.3333333
la Nagoya 0.2857143
la Elephant 0.2000000
la axe 0.3333333
la Eve 0.5000000
la Even 0.2000000
la Newton 0.3333333
la Carl 0.3333333
la Jones 0.5000000
la Zoe 0.3333333
la Emacs 0.2500000
la Judy 0.3333333
la Happy 0.0625000
la Frank 0.3333333
la Her 0.0256410
la hoped 0.1176471
la NULL 0.0074564
la Shinjuku 0.5000000
la official 0.1250000
la Maria 0.2857143
la Was 0.1333333
la km 0.2857143
la Chen 0.5000000
la biscuits 0.5000000
la Loglan 0.3333333
la Evans 0.1666667
la Marcos 0.5000000
la Qatar 0.5000000
la area 0.1111111
la Juan 0.5000000
la Jane 0.3076923
la hoping 0.2500000
la Dalí 0.3333333
la wiki 0.1428571
la Dict 0.2000000
la Paula 0.5000000
la Cookie 0.5000000
la Laura 0.5000000
la Muiriel 0.1428571
la Olympics 0.3333333
la Nancy 0.3750000
la Kay 0.5000000
la Kobe 0.3333333
la Islamabad 0.5000000
la Metafile 0.3333333
la Miss 0.5000000
la Susan 0.1428571
la Chris 0.2000000
la Australia 0.1428571
la even 0.0526316
la pizza 0.1111111
la Giant 0.2857143
la Paris 0.3846154
la flu 0.2000000
la Middle-earth 0.3333333
la Lojban 0.3298969
la squares 0.1666667
la John 0.3614458
la Russian 0.1538462
la Uyghur 0.5000000
la Iceland 0.4285714
la Sauron 0.3333333
la Marcus 0.3333333
la Nicodemus 0.3333333
la Muplis 0.5000000
la Aristotle 0.4000000
la Helga 0.5000000
la Zhang 0.5000000
la approaching 0.1666667
la English 0.0486111
la Thomas 0.4000000
la Al 0.5000000
la Big 0.5000000
la Lincoln 0.2500000
la Mooli 0.1818182
la Nicole 0.4000000
la Clarke 0.2500000
la Descartes 0.5000000
la Kingdom 0.3333333
la Mom 0.1666667
la Shakespeare 0.3750000
la Tony 0.3333333
la Mr 0.4615385
la d 0.5000000
la Madonna 0.5000000
la Lech 0.3333333
la Brest 0.5000000
la Humpty 0.5000000
la blocked 0.1111111
la José 0.5000000
la Golf 0.5000000
la Adèle 0.3333333
la SUV 0.5000000
la Preem 0.5000000
la Lenin 0.3333333
la Common 0.5000000
la Tibet 0.3333333
la Carlos 0.3333333
la kaisha 0.0714286
la chosen 0.2000000
la OpenBSD 0.1666667
la Yang 0.5000000
la Devonshire 0.1428571
la Véronique 0.5000000
la addict 0.2500000
la Lucy 0.4000000
la Garofalo 0.5000000
la Europe 0.1250000
la Robinson 0.2500000
la Zurich 0.1818182
la Akasaka 0.1428571
la Kazan 0.1428571
la Dutch 0.2222222
la Joaquín 0.5000000
la Robert 0.1666667
la Father 0.2500000
la Batman 0.5000000
la Mahal 0.5000000
la Tok 0.5000000
la Windows 0.2500000
la Jack 0.3333333
la Gotham 0.5000000
la Michelangelo 0.2000000
la God 0.1176471
la Sam 0.2000000
la Egypt 0.3333333
la perfection 0.3333333
la Great 0.2000000
la Eimi 0.3333333
la Tom 0.4977645
la Osaka 0.2857143
la JFK 0.2000000
la basis 1.0000000
la Cain 0.5000000
la Tully 0.1000000
la Appassionata 1.0000000
la Kuala 0.5000000
la Croatia 0.3333333
la Qo 0.5000000
la Seine 0.2500000
la Bread 0.1000000
la March 0.1250000
la Columbus 0.3750000
la Saitou 0.2500000
la IBM 0.0909091
la 13th 0.3333333
la Uri 0.3333333
la The 0.0216049
la Kevin 0.3333333
la George 0.1666667
la GPS 0.1000000
la Battle 0.3333333
la Tokyo 0.2888889
la Anglo-Zanzibar 0.2000000
la Joneses 0.1428571
la Alice 0.4242424
la Roman 0.1111111
la Herbert 0.2000000
la China 0.1111111
la Sarah 0.4000000
la Pat 0.4000000
la differs 0.3333333
la Doctor 0.2857143
la Kurosawa 0.3333333
la theremin 0.5000000
la Teresa 0.5000000
la Paul 0.4000000
la Baskerville 0.3333333
la Boston 0.4285714
la striking 0.5000000
la Shane 0.3333333
la Huizi 0.5000000
la Yassir 0.5000000
la Izmir 0.2500000
la IRC 0.3333333
la Araucanía 0.2500000
la Jacob 0.3333333
la Ganon 0.5000000
la Starcraft 0.5000000
la . 0.0008003
la Timmendorfer 0.5000000
la Bush 0.2500000
la Toki 0.3333333
la Alfred 0.3333333
la Carmen 0.5000000
la Shintaro 0.2000000
la Bell 0.5000000
la Ken 0.3333333
la Uyghurs 0.3333333
la lit 0.3333333
la Tatoeba 0.2250000
la Junko 0.2500000
la Daniel 0.4285714
la England 0.2222222
la Rome 0.3571429
la Red 0.1666667
la Florida 0.5000000
la Romeo 0.2500000
la &apos;lyeh 0.2500000
la pretending 0.2000000
la Germany 0.2500000
la Edward 0.5000000
la Teochew 0.3333333
la Mayuko 0.5000000
la Hearts 0.3333333
la Nora 0.3333333
la Meg 0.5000000
la Mike 0.1538462
la Dalat 0.3333333
la Ruling 0.3333333
la Mt 0.3333333
la Africa 0.2000000
la Elvis 0.5000000
la Alcubierre 0.3333333
la Honolulu 0.3333333
la Juliet 0.5000000
la junkie 0.2500000
la Keisuke 0.5000000
la bridges 0.3333333
la Tal 0.3333333
la Pakistan 0.4000000
la Simon 0.3333333
la Pluto 0.3333333
la Degas 0.5000000
la Abdul 0.5000000
la New 0.0952381
la University 0.4000000
la Adam 0.3333333
la outlined 0.3333333
la Mark 0.2500000
la Nicholas 0.5000000
la Nick 0.1666667
la II 0.4000000
la Amuro 0.2500000
la Coke 0.1000000
la Valsi 0.2500000
la Internet 0.1250000
la Esperanto 0.0500000
la Cathy 0.5000000
la Tux 0.5000000
la Farsi 0.3333333
la Jeremy 0.5000000
la model 0.1000000
la Kentucky 0.5000000
la Nixon 0.2500000
la Yumi 0.2857143
la Wonderland 1.0000000
la Latter-day 0.1666667
la Ali 0.5000000
la Canada 0.1428571
la Kyoto 0.2142857
la moon 0.1666667
la Arthur 0.5000000
la Black 0.3333333
la Liz 0.2000000
la Flying 0.2500000
la Turin 0.5000000
la Tsurugidake 0.5000000
la Beijing 0.4285714
la Italy 0.3846154
la Japan 0.1428571
la is 0.0014948
la Aachen 0.2500000
la Rebecca 0.5000000
la Esperantujo 0.5000000
la the 0.0004431
la Lake 0.1111111
la Columbia 0.3333333
la Hokaido 0.5000000
la Hawaii 0.2857143
la Uhhh 0.3333333
la Pacific 0.2222222
la Mount 0.3333333
la Oedipus 0.2500000
la Scott 0.5000000
la Only 0.1666667
la Armenia 0.5000000
la Philip 0.5000000
la Emily 0.4285714
la India 0.3333333
la catch 0.0909091
la Michel 0.2500000
la Jupiter 0.4000000
la cultivates 0.3333333
la Sato 0.2500000
la month 0.0909091
la Jim 0.3846154
la Carla 0.5000000
la basketball 0.1250000
la Hence 1.0000000
la Ann 0.4444444
la Farshad 0.2000000
la fairy 0.2500000
la Tamy 0.5000000
la iPad 0.2500000
la Cory 0.5000000
la Hanako 0.3333333
la Ramudu 0.5000000
la Nara 0.4000000
la Berber 0.3333333
la Mei 0.5000000
la Xalbo 0.1666667
la Burj 0.5000000
la Russia 0.4285714
la Bridge 0.1666667
la Earth 0.2727273
la Shinji 0.5000000
la Cicero 0.3333333
la Berger 0.5000000
la Dag 0.2500000
la to 0.0004704
la UT 0.2500000
la Titan 0.3333333
la Mordor 0.5000000
la Romney 0.5000000
la Kate 0.4444444
la Minsk 0.3333333
la boulevard 1.0000000
la Athens 0.3333333
la Disneyland 0.2500000
la Barcelona 0.3333333
la Anka 0.3333333
la Michael 0.3333333
la Linda 0.2000000
la Mrs. 0.3636364
la Anyi 0.5000000
la CIA 0.0666667
la Yerevan 0.5000000
la West 0.5000000
la Hyogo 0.2500000
la Mac 0.3333333
la Akagawa 0.5000000
la lojban 0.5000000
la Quezon 0.2500000
la kimbap 0.5000000
la Porsche 0.5000000
la Mary 0.4688797
la Rover 0.5000000
la Fukushima 0.3333333
la Wang 0.3333333
la Naoko 0.4000000
la Yoko 0.2500000
la Dad 0.2000000
la Haiti 0.5000000
la rose 0.2222222
la David 0.4545455
la Norman 0.5000000
la Holk 0.2500000
la buffalo 0.1000000
la America 0.2631579
la animist 0.3333333
la Napoleonic 0.3333333
la Jiro 0.1666667
la Postscript 0.2500000
la Belgium 0.1428571
la Haskell 0.2000000
la U.N. 0.2500000
la Korea 0.1428571
la fiction 0.1428571
la Christina 0.5000000
la Bill 0.3200000
la Milan 0.3333333
la Jean-Luc 0.5000000
la Natasha 0.5000000
la Patagonia 1.0000000
la Laurie 0.2500000
la Betty 0.2500000
la Lucifera 0.1666667
la waitress 0.5000000
la Georgia 0.5000000
la impatient 0.3333333
la Nepal 0.2500000
la London 0.3000000
la Ramu 0.5000000
la Greet 0.3333333
la Socrates 0.1666667
la system 0.2500000
la Richmonder 0.2500000
la sailed 1.0000000
la earth 0.0952381
la Sweden 0.1818182
la Lucas 0.5000000
la R 0.5000000
la Buddha 0.2857143
la Kordobas 0.3333333
la Yan 0.5000000
la'ede'u this 0.0026810
la'ede'u cannot 0.0227273
la'ede'u be 0.0034014
la'ede'u It 0.0027624
la'ede'u That 0.0044843
la'ede'u true 0.0303030
la'ede'u threat 0.1666667
snasni thirteen 0.2000000
spageti invisible 0.3333333
spageti undetectable 0.3333333
spageti that 0.0016420
spageti Monster 0.3333333
spageti an 0.0069444
spageti and 0.0026247
kacmyterxra my 0.0022831
kacmyterxra was 0.0021552
kacmyterxra take 0.0789474
kacmyterxra photographs 0.5000000
kacmyterxra picture 0.0952381
kacmyterxra taken 0.1428571
kacmyterxra pictures 0.0909091
barna out 0.0108696
barna stain 0.5000000
barna mark 0.2500000
barna your 0.0024631
barna set 0.0833333
barna of 0.0011507
barna Get 0.0555556
barna ! 0.0018692
barna On 0.0666667
barna Sunspot 0.5000000
se excused 0.3333333
se those 0.0416667
se suggestion 0.2500000
se hers 0.1428571
se circuses 0.3333333
se to 0.0070555
se something 0.0625000
se satisfied 0.4000000
se live 0.0281690
se plan 0.0588235
se implement 0.2222222
se message 0.2000000
se googleable 0.3333333
se treason 0.2000000
se respected 0.5000000
se confusedly 0.2500000
se advice 0.2173913
se motivates 0.2500000
se Thunder 0.2000000
se stupidity 1.0000000
se bouquet 0.2500000
se seeing 0.0714286
se a 0.0134267
se printed 0.3333333
se dreams 0.1111111
se My 0.0091533
se mind 0.1052632
se standing 0.0714286
se amused 0.6666667
se snails 0.3333333
se seat 0.3333333
se know 0.0249110
se Burn 0.3333333
se Beer 0.1666667
se look 0.0465116
se latter 0.3333333
se murdered 0.5000000
se resulted 0.2000000
se buried 0.3333333
se discipline 0.2500000
se called 0.1086957
se mended 0.2500000
se everywhere 0.2000000
se stands 0.1428571
se foaled 0.3333333
se bу 0.3333333
se hair 0.0370370
se allowed 0.2000000
se surprised 0.1666667
se &apos;m 0.0087146
se o 0.0909091
se Socrates 0.1666667
se shocked 0.5000000
se Austin 0.5000000
se success 0.1111111
se sad 0.2000000
se games 0.0714286
se Products 0.1428571
se over 0.0192308
se browser 0.1428571
se Milan 0.1666667
se time 0.0337079
se &apos;re 0.0897436
se wist 0.3333333
se solutions 0.3333333
se deserve 0.3333333
se hobby 0.1666667
se attractive 0.3333333
se only 0.1363636
se starting 0.2500000
se dish 0.5000000
se life 0.0571429
se my 0.0022831
se deliberate 0.5000000
se are 0.0031348
se drinkable 0.2500000
se great 0.0400000
se job 0.1395349
se encircled 0.5000000
se thinking 0.0769231
se quotations 0.2500000
se additional 1.0000000
se cntrational 0.3333333
se shock 0.3333333
se interested 0.1176471
se crooked 0.2000000
se piano 0.1538462
se cigarettes 0.1428571
se posted 0.2857143
se exciting 0.2000000
se characteristic 0.3333333
se attempt 0.4000000
se collaborative 0.5000000
se belongs 0.2222222
se boat 0.1666667
se Hyogo 0.2500000
se Biwa 0.1666667
se named 0.1000000
se confused 0.3333333
se Jabberwocky 0.3333333
se married 0.0277778
se Lumpur 0.5000000
se subject 0.0833333
se explodes 0.1666667
se judge 0.5000000
se seller 0.4000000
se understood 0.2857143
se experiment 0.1428571
se dream 0.1363636
se patriotism 0.2000000
se south 0.2000000
se taste 0.1111111
se work 0.1789474
se hat 0.0769231
se inevitable 0.2000000
se mood 0.2500000
se edible 0.2000000
se by 0.1139241
se beloved 0.4000000
se make 0.0303030
se habit 0.1333333
se ex 0.3333333
se well-liked 0.3333333
se Izmir 0.2500000
se from 0.0695187
se gift 0.2500000
se . 0.0011432
se observing 0.2000000
se things 0.0769231
se eleven 0.5000000
se keeping 0.3333333
se bullshit 0.1666667
se speeches 0.3333333
se sons 0.2500000
se lost 0.0461538
se frighten 0.3333333
se raise 0.2000000
se hidden 0.6666667
se unmarried 0.2500000
se ridiculous 0.3333333
se air 0.0909091
se behind 0.2222222
se opinion 0.1600000
se is 0.0154459
se topic 0.5000000
se license 0.5000000
se located 0.5000000
se she 0.0082645
se reproducible 0.2000000
se the 0.0004431
se stank 0.2000000
se made 0.0694444
se what 0.0352941
se smells 0.2500000
se loves 0.0434783
se whatever 0.0714286
se doubted 1.0000000
se loving 0.1250000
se visitors 0.1428571
se reality 0.3333333
se you 0.0032279
se Nixon 0.2500000
se blowing 0.3333333
se loved 0.1428571
se factors 0.2500000
se game 0.0526316
se books 0.0508475
se goals 0.2500000
se watched 0.1666667
se lives 0.1176471
se mine 0.0740741
se previously 0.2000000
se thrown 0.3333333
se common 0.1818182
se birthday 0.0434783
se supposed 0.1666667
se guests 0.2000000
se tail 0.5000000
se jokes 0.1666667
se presidential 0.2500000
se entailing 0.3333333
se tune 0.2000000
se offered 0.2000000
se speak 0.3478261
se gunshot 0.2500000
se fuel 0.2857143
se requires 0.1428571
se slippery 0.5000000
se covered 0.3333333
se euros 0.1250000
se destroyed 0.5000000
se undetectable 0.3333333
se bilingual 0.3333333
se among 0.1000000
se wheat 0.2500000
se swollen 0.5000000
se Pieces 0.3333333
se talked 0.0588235
se rather 0.1111111
se their 0.0851064
se cannibal 0.1666667
se raw 0.1111111
se drawn 0.3333333
se Suddenly 0.1428571
se chosen 0.2000000
se painting 0.4285714
se Instead 0.2500000
se oil 0.1250000
se busy 0.1071429
se hardly 0.2500000
se threat 0.1666667
se Nakano 0.2500000
se Aix-la-Chapelle 0.1666667
se beholder 0.5000000
se claim 0.2500000
se promise 0.1034483
se speed 0.1666667
se has 0.1026786
se criticism 0.2000000
se handwriting 0.1428571
se wounded 0.3333333
se Skateboarding 0.2500000
se stupid 0.0714286
se prosper 0.5000000
se left 0.0147059
se salary 0.2500000
se involved 0.4000000
se presentation 0.2000000
se relative 0.2500000
se mistake 0.0555556
se attack 0.2000000
se met 0.0263158
se Without 0.2500000
se error 0.3529412
se 10 0.0769231
se pear 0.1111111
se ignorance 0.1666667
se solved 0.2500000
se soup 0.2000000
se cancer 0.1666667
se It 0.0055249
se handle 0.2000000
se hurts 0.1363636
se acquainted 0.5000000
se granted 0.2500000
se where 0.0117647
se our 0.1489362
se speaking 0.0714286
se phrase 0.1000000
se of 0.0069045
se Regardless 0.2000000
se have 0.0816832
se said 0.1818182
se built 0.1250000
se defeated 0.3333333
se radio 0.2000000
se bored 0.1111111
se honor 0.2000000
se language 0.0123457
se filled 0.1000000
se develop 1.0000000
se talent 0.2000000
se song 0.1333333
se plot 0.5000000
se audiencely-beautiful 0.2500000
se vivid 0.3333333
se killed 0.1621622
se cost 0.2222222
se meating 0.2500000
se Akasaka 0.2857143
se Silly 0.2500000
se Kazan 0.1428571
se dolls 0.2000000
se trains 0.1818182
se forcing 0.5000000
se original 0.5000000
se Shopping 0.1666667
se prefix 0.2500000
se for 0.0192308
se distraught 0.5000000
se time-wasting 0.2500000
se notebook 0.2500000
se NULL 0.0340620
se expected 0.1428571
se means 0.1818182
se harp 0.3333333
se upon 0.3333333
se mathematical 1.0000000
se because 0.0750000
se brand 0.3333333
se love 0.0184049
se &apos;s 0.0628445
se &apos;ve 0.0657895
se hypothesis 0.3333333
se swords 0.1000000
se object 0.1666667
se Icelanders 0.2000000
se career 0.3333333
se compelled 0.2500000
se in 0.0159420
se disgusts 0.5000000
se worked 0.1111111
se cares 0.3333333
se punished 0.4000000
se legs 0.1666667
se four 0.0434783
se well 0.0754717
se ? 0.0107284
se astound 0.3333333
se labourer 0.2500000
se ears 0.0714286
se messages 0.6666667
se p.m. 0.1250000
se attracted 0.5000000
se lyrics 0.2500000
se missing 0.2500000
se anytime 0.1666667
se experience 0.1052632
se promises 0.4285714
se contains 0.2500000
se flaws 0.5000000
se prohibited 0.2000000
se fingers 0.1111111
se borogoves 0.2500000
se having 0.1111111
se lifted 0.3333333
se below 0.3333333
se Where 0.0044248
se trouble 0.1818182
se had 0.0504202
se enjoy 0.1428571
se originate 1.0000000
se brown 0.2173913
se camouflage 1.0000000
se question 0.0344828
se audience 0.2500000
se frustrated 0.3333333
se Would 0.0810811
se breakfast 0.1666667
se drill 0.3333333
se regardless 0.1428571
se Sweet 0.2500000
se needs 0.1428571
se wherever 0.5000000
se fantastic 0.2000000
se fitted 0.5000000
se one 0.0396040
se Russian 0.0769231
se country 0.0303030
se favorite 0.1666667
se Deutschland 0.2000000
se Five 0.1428571
se expression 0.2500000
se name 0.0208333
se defined 1.0000000
se everyone 0.0200000
se listener 0.3333333
se leak 1.0000000
se them 0.0175439
se breathe 0.2500000
se am 0.0145631
se Those 0.0400000
se arms 0.5000000
se speaks 0.2608696
se even 0.1052632
se Whose 0.0645161
se gallons 0.5000000
se silly 0.1578947
se on 0.0085470
se wears 0.3750000
se wisdom 0.3333333
se extremely 0.2222222
se girlfriend 0.0800000
se sculpture 0.5000000
se foreign 0.1250000
se pleased 0.1666667
se camel 0.1428571
se color 0.0909091
se flirting 0.3333333
se appetite 0.2500000
se was 0.0215517
se engaged 0.3333333
se understand 0.0229885
se puzzled 0.5000000
se smell 0.1666667
se warmly 0.2000000
se Evans 0.1666667
se lung 0.2500000
se area 0.1111111
se stolen 0.3076923
se be 0.0102041
se joke 0.1000000
se happiness 0.0769231
se damaged 0.3333333
se questions 0.1250000
se man 0.0117647
se prerequisit 0.2000000
se files 0.5000000
slilu NULL 0.0001695
slilu his 0.0034247
slilu started 0.0434783
slilu Everybody 0.0666667
slilu waving 0.1428571
memimoi my 0.0022831
memimoi mine 0.0555556
Stanisław Stanisław 1.0000000
ji'esle ) 0.0136986
ji'esle ( 0.0140845
ji'esle biology 0.2500000
ji'esle Cell 1.0000000
co photos 0.1666667
co sleep 0.0256410
co well 0.0188679
co translations 0.0588235
co cookies 0.1428571
co happy 0.0092593
co it 0.0018553
co together 0.0714286
co can 0.0039062
co working 0.0476190
co skiing 0.1250000
co quietly 0.3333333
co blue 0.0454545
co pussycat 0.3333333
co granted 0.2500000
co quickly 0.0555556
co claws 0.2500000
co sit 0.0769231
co NULL 0.0013557
co gets 0.1428571
co swimming 0.0625000
co run 0.0800000
co hard 0.0243902
co mittens 0.3333333
co waving 0.1428571
co fucked 0.1428571
co pretty 0.0322581
co fruit 0.1428571
co bed 0.0454545
co dies 0.0416667
co soon 0.0277778
co approaching 0.1666667
co campaign 0.5000000
co walked 0.0454545
co today 0.0089286
co ticket 0.1250000
co destroy 0.1666667
co playthings 0.1666667
co by 0.0063291
co a 0.0017513
co try 0.0243902
co glory 0.5000000
co are 0.0015674
.marias. Maria 0.2857143
.marias. &apos;s 0.0011025
alxebra Algebra 1.0000000
toljgi &apos;s 0.0011025
toljgi shame 0.3333333
zanselfunri'a be 0.0034014
zanselfunri'a number 0.0250000
zanselfunri'a a 0.0005838
zanselfunri'a to 0.0004704
zanselfunri'a lucky 0.1428571
zanselfunri'a Many 0.1428571
zanselfunri'a consider 0.2000000
ceikspir. Shakespeare 0.1250000
.e'icu'i Help 0.1000000
.e'icu'i Feel 1.0000000
.e'icu'i free 0.0555556
.e'icu'i yourself 0.0294118
.e'icu'i to 0.0004704
.e'icu'i . 0.0001143
1xyxyxymoi millennium 0.3333333
1xyxyxymoi 2nd 1.0000000
.iokos. a 0.0005838
.iokos. is 0.0004983
.iokos. Yoko 0.2500000
selpraci'e as 0.0105263
selpraci'e economy 0.5000000
selpraci'e a 0.0005838
ctigau that 0.0016420
ctigau some 0.0096154
ctigau feeds 0.1250000
ctigau fed 0.2500000
ctigau Feed 0.3333333
kampindi Poverty 0.5000000
iepei &apos;t 0.0011919
iepei wasn 0.0400000
iepei ? 0.0005647
iepei Scary 0.5000000
iepei , 0.0008203
iepei it 0.0018553
kracku manuscript 0.5000000
fukpi copy 0.5000000
fukpi &apos;s 0.0011025
fukpi forgery 0.2500000
fukpi imitate 1.0000000
fukpi cloned 0.5000000
fukpi a 0.0011675
fukpi to 0.0009407
fukpi try 0.0243902
fukpi That 0.0044843
fukpi her 0.0049261
ranti penis 1.0000000
ranti soft 0.5000000
ranti is 0.0004983
ranti being 0.0212766
ranti it 0.0018553
.oipei day 0.0123457
.oipei ? 0.0005647
.oipei your 0.0024631
.oipei How 0.0046948
.oipei today 0.0089286
.oipei was 0.0021552
tabrelkijno dioxide 1.0000000
tabrelkijno Carbon 0.5000000
nunfli failures 1.0000000
loglo are 0.0015674
simsa very 0.0045249
simsa other 0.0144928
simsa times 0.0384615
simsa these 0.0256410
simsa resembles 1.0000000
simsa bees 0.1666667
simsa something 0.0208333
simsa like 0.0567568
simsa skin 0.2500000
simsa shirt 0.1111111
simsa as 0.0210526
simsa similar 0.6000000
simsa type 0.0714286
simsa dearly 0.2500000
simsa NULL 0.0006779
tcomolunmas. Mount 0.3333333
tcomolunmas. Everest 0.5000000
tcomolunmas. as 0.0105263
.meris. grabbed 0.5000000
.meris. her 0.0049261
.meris. Mary 0.1369295
.meris. does 0.0166667
.meris. of 0.0011507
tolcfari come 0.0111111
tolcfari end 0.0434783
tolcfari to 0.0004704
tolcfari an 0.0069444
nalpli Omit 0.5000000
softo Soviet-American 0.3333333
nunli'u research 0.5000000
nunli'u so 0.0091743
nunli'u purposes 0.2000000
ze'i Stay 0.1000000
ze'i a 0.0058377
ze'i NULL 0.0001695
ze'i short 0.0454545
ze'i Give 0.0645161
ze'i minute 0.1176471
ze'i one 0.0049505
ze'i pacing 0.1666667
ze'i rest 0.0833333
ze'i &apos;s 0.0011025
ze'i through 0.0833333
ze'i us 0.0312500
ze'i instantly 0.4285714
ze'i while 0.0222222
ze'i for 0.0096154
ze'i journey 0.5000000
ze'i moment 0.3684211
ze'i easy 0.0416667
.a'e &apos;s 0.0033076
.a'e tsunami 0.2857143
.a'e It 0.0027624
.a'e Yaaaawn 0.5000000
.a'e Today 0.0384615
.a'e going 0.0296296
.a'e to 0.0018815
.a'e is 0.0004983
.a'e ! 0.0037383
.a'e NULL 0.0001695
.a'e ... 0.0232558
.a'e There 0.0121951
2000 2,000 1.0000000
pemci'a greatest 0.1250000
pemci'a was 0.0021552
pemci'a the 0.0004431
pemci'a poet 0.1428571
pemci'a Basho 0.5000000
.gy. password 0.1428571
.gy. Democratic 0.5000000
.gy. Party 0.2500000
.gy. rock 0.1428571
djonz. t 0.1250000
djonz. Jones 0.2500000
djonz. isn 0.0133333
djonz. ’ 0.0769231
.iseni'inai animals 0.0714286
je'u NULL 0.0001695
je'u that 0.0016420
je'u task 0.2500000
je'u he 0.0039216
je'u is 0.0014948
je'u Okinawa 0.1666667
je'u Yes 0.1111111
je'u &apos;t 0.0035757
je'u truly 0.5000000
je'u lecture 0.1428571
je'u innit 0.5000000
je'u It 0.0055249
je'u , 0.0016407
je'u . 0.0009146
je'u false 0.0714286
je'u quite 0.0500000
je'u sail-powered 0.2500000
je'u surprise 0.0625000
je'u Truly 1.0000000
je'u actually 0.3571429
je'u isn 0.0400000
je'u real 0.0714286
je'u really 0.0142857
je'u Hokkaido 0.0666667
je'u No 0.0210526
je'u it 0.0074212
je'u eh 0.2000000
je'u have 0.0074257
smitra pretended 1.0000000
kityblibi'u brick 0.5000000
kityblibi'u wall 0.1250000
uidaisai &apos;m 0.0021786
uidaisai for 0.0024038
uidaisai so 0.0091743
uidaisai I 0.0003215
uidaisai you 0.0006456
uidaisai happy 0.0092593
uidaisai . 0.0001143
cakla chocolates 0.2500000
cakla I 0.0006431
cakla chocolate 0.6666667
xindo an 0.0069444
xindo Indo-European 0.3333333
xindo Indian 1.0000000
zacterve'u me 0.0018657
zacterve'u some 0.0096154
zacterve'u shopping 0.5000000
zacterve'u for 0.0024038
zacterve'u do 0.0029326
Emi Emi 0.2500000
Emi is 0.0004983
Emi a 0.0005838
remna wrong 0.0357143
remna humans 0.5000000
remna human 0.9600000
remna &apos;m 0.0021786
remna ordinary 0.1250000
remna a 0.0005838
remna NULL 0.0011862
remna race 0.2000000
remna man 0.0352941
remna of 0.0011507
remna people 0.0080000
remna Human 0.4444444
remna prince 1.0000000
remna animal 0.2000000
remna Social 0.5000000
remna humanity 0.2000000
siberias Siberia 1.0000000
xasyske Oceanography 1.0000000
.uo Finally 1.0000000
.uo I 0.0003215
.uo ! 0.0018692
.uo did 0.0064516
banxa &apos;m 0.0021786
banxa Bank 0.3333333
banxa bank 0.7500000
banxa a 0.0005838
banxa clerk 0.5000000
cipnrkorvo are 0.0015674
cipnrkorvo Crows 0.2500000
tarti friendly 0.2857143
tarti acting 1.0000000
tarti very 0.0090498
tarti into 0.0161290
tarti understanding 0.1428571
tarti enter 0.0625000
tarti manners 0.6666667
tarti has 0.0044643
tarti people 0.0080000
tarti thy 0.3333333
tarti are 0.0015674
tarti behaves 0.2000000
.robert. , 0.0008203
.robert. Robert 0.2500000
.robert. leaving 0.0416667
.robert. &apos;m 0.0021786
.u'anai it 0.0074212
.u'anai go 0.0040161
.u'anai worth 0.0588235
.u'anai ! 0.0037383
.u'anai Leave 0.0500000
.u'anai Forget 0.2000000
.o'i Watch 0.0500000
.o'i Beware 0.3333333
.o'i Careful 0.3333333
.o'i pickpockets 0.5000000
.o'i Charge 0.2500000
.o'i of 0.0011507
.o'i ! 0.0037383
dansrtinikli Tinikling 1.0000000
dansrtinikli dance 0.0625000
bimoi ninth 1.0000000
labno began 0.0625000
labno younger 0.3333333
labno of 0.0011507
labno wolf 0.6666667
labno they 0.0131579
labno sign 0.5000000
labno as 0.0105263
labno wolves 0.3333333
sorta &apos;m 0.0043573
sorta of 0.0034522
sorta needy 0.1250000
sorta kind 0.0133333
sorta sort 1.0000000
tolvai Little 0.5000000
tolvai mistakes 0.2000000
vercedra childhood 0.5000000
terdju succeed 0.1428571
desku It 0.0027624
desku shaking 0.5000000
desku &apos;s 0.0011025
desku twinkling 0.3333333
.xanguk Korea 0.1428571
.xanguk South 0.1666667
marde Ethics 1.0000000
grisazri collaborative 0.5000000
to'ebo food 0.0277778
to'ebo cold 0.0243902
mucibi introduced 0.1666667
mucibi in 0.0014493
mucibi 538 0.1428571
mucibi into 0.0161290
mucibi Buddhism 0.5000000
mucibi was 0.0021552
mucibi Japan 0.0285714
.djaks. it 0.0018553
.djaks. goes 0.0204082
.djaks. , 0.0008203
.djaks. How 0.0046948
.djaks. Jacques 0.2000000
jon John 0.0240964
jon of 0.0011507
bersa son 0.6486486
bersa &apos;s 0.0011025
bersa Jacob 0.1111111
bersa It 0.0027624
bersa NULL 0.0001695
bersa a 0.0005838
bersa sons 0.3750000
sampli user 0.1111111
sampli computers 0.1111111
sampli of 0.0011507
fagri Burn 0.3333333
fagri known 0.0666667
fagri was 0.0043103
fagri unknown 1.0000000
fagri fire 0.6842105
fagri fires 0.3333333
fagri with 0.0040486
fagri desire 0.1666667
zutse a 0.0005838
zutse sitting 0.7142857
zutse sit 0.6153846
zutse wherever 0.5000000
zutse here 0.0058140
zutse sank 1.0000000
zutse ! 0.0018692
zutse is 0.0004983
zutse &quot; 0.0024213
zutse seat 0.5000000
zutse second 0.1000000
zutse Sit 0.2857143
zutse sat 0.2857143
zutse together 0.0714286
zutse sits 0.2500000
zutse down 0.1276596
zutse on 0.0128205
zutse have 0.0024752
karl Carl 0.3333333
jbesla post 0.1818182
jbesla birthday 0.0869565
jbesla bу 0.3333333
jbesla her 0.0049261
jbesla present 0.0800000
emilis Emily 0.1428571
emilis is 0.0004983
mypy you 0.0006456
selcni mood 0.2500000
selcni NULL 0.0001695
selcni Grammatical 0.5000000
ta'onai to 0.0004704
ta'onai back 0.0208333
ta'onai But 0.0263158
ta'onai the 0.0004431
ta'onai ; 0.0232558
ta'onai point 0.1250000
ta'onai case 0.2000000
cakyrespa turtles 1.0000000
kalabrian.xesybau dialect 1.0000000
kalabrian.xesybau Calabrian 1.0000000
kalabrian.xesybau Greek 0.0526316
pistabno Graphite 1.0000000
temu'i leave 0.0238095
temu'i . 0.0001143
temu'i You 0.0023697
temu'i of 0.0011507
temu'i because 0.0125000
cange farmer 0.5000000
cange Farm 1.0000000
tcadrklaipeda Klaipėda 1.0000000
so'a everyone 0.0200000
so'a almost 0.1000000
so'a all 0.0205479
so'a every 0.0273973
so'a Almost 0.6666667
so'a sate 0.2000000
so'a bath 0.1000000
.suzyn.grin. ... 0.0232558
.suzyn.grin. Greene 0.3333333
.suzyn.grin. are 0.0015674
.suzyn.grin. Susan 0.1428571
jipno mountain 0.0909091
jipno top 0.1428571
jipno blade 1.0000000
jipno of 0.0023015
jipno the 0.0017723
jipno end 0.0434783
zimbabues Zimbabwe 1.0000000
zdazva home 0.0172414
zdazva at 0.0037879
zdazva make 0.0151515
zdazva Please 0.0054348
zdazva stayed 0.0833333
zdazva yourself 0.0294118
sucysmadi full 0.0769231
sucysmadi conjectures 0.2500000
sucysmadi of 0.0011507
retsku how 0.0082645
retsku question 0.1034483
retsku do 0.0029326
retsku Ask 0.1428571
retsku questions 0.2500000
retsku have 0.0024752
retsku Nicodemus 0.3333333
retsku interrogation 0.5000000
retsku asked 0.2063492
retsku ask 0.2093023
retsku asking 0.3333333
meti sell 0.0625000
meti this 0.0026810
meti would 0.0140845
Principia Mathematica 0.1052632
tercli this 0.0053619
tercli passing 0.2500000
tercli for 0.0048077
tercli course 0.1333333
tercli sufficient 0.5000000
sorbau at 0.0037879
sorbau equivalents 0.1250000
cpana desk 0.1000000
cpana There 0.0060976
cpana was 0.0021552
cpana on 0.0769231
cpana it 0.0018553
cpana &apos;s 0.0011025
cpana labourer 0.2500000
cpana mark 0.2500000
cpana scattered 0.3333333
B &quot; 0.0024213
B I 0.0003215
selsenva dream 0.0454545
selsenva children 0.0243902
selsenva &apos;s 0.0011025
selsenva song 0.0666667
selsenva a 0.0005838
selsenva life 0.0285714
selsenva express 0.5000000
selsenva that 0.0032841
xingu'e India 0.3333333
bi'a ! 0.0018692
199xymoi 1990s 1.0000000
kurjga of 0.0023015
kurjga any 0.0344828
kurjga hypotenuse 0.5000000
kurjga triangle 0.4000000
tu over 0.0192308
tu there 0.0078125
tu almost 0.0500000
tu lemon 0.5000000
tu give 0.0250000
tu yonder 0.3333333
tu that 0.0065681
tu That 0.0224215
tu a 0.0005838
tu Seine 0.2500000
tu &apos;s 0.0033076
tu Who 0.0074627
tu . 0.0002286
tu Feed 0.1666667
tu described 0.3333333
tu fuck 0.1428571
tu fountain 0.2500000
tu one 0.0049505
tu hundreds 0.2000000
lu say 0.0370370
lu responds 0.2500000
lu goodbye 0.1250000
lu plays 0.1111111
lu Robert 0.1666667
lu “ 0.4000000
lu along 0.1428571
lu where 0.0117647
lu Aaaah 0.2500000
lu , 0.0049221
lu &quot; 0.2009685
lu thanks 0.1818182
lu study 0.0238095
lu explodes 0.1666667
lu no 0.0217391
lu : 0.0952381
lu NULL 0.0013557
lu says 0.0294118
lu unidentified 0.1666667
di'atce high 0.0769231
di'atce very 0.0045249
slugu'a quit 0.0588235
slugu'a jogging 0.1666667
slugu'a excessive 0.5000000
slugu'a to 0.0004704
slugu'a exercise 0.1250000
slugu'a because 0.0125000
slugu'a it 0.0018553
slugu'a was 0.0021552
xomoi Which 0.0333333
xomoi did 0.0064516
ra'i random 0.1666667
ra'i from 0.0267380
ra'i Madrid 0.2500000
ra'i up 0.0300000
ra'i Tatoeba.org. 1.0000000
nyty b 1.0000000
mo'ini'a walk 0.0344828
mo'ini'a down 0.0212766
mutce devout 0.5000000
mutce extremely 0.3333333
mutce He 0.0016779
mutce a 0.0175131
mutce Real 0.3333333
mutce succeeding 0.3333333
mutce chocolate 0.0833333
mutce far 0.0555556
mutce burning 0.2000000
mutce hills 0.5000000
mutce She 0.0085470
mutce great 0.0600000
mutce smokes 0.3333333
mutce heat 0.2000000
mutce awful 0.2500000
mutce cold 0.0243902
mutce laughter 0.2000000
mutce use 0.0370370
mutce Very 0.2222222
mutce cried 0.0833333
mutce dying 0.0909091
mutce wide 0.5000000
mutce dumb 0.5000000
mutce poem 0.0833333
mutce very 0.6334842
mutce highly 0.3333333
mutce NULL 0.0030503
mutce drop-dead 1.0000000
mutce agonizing 1.0000000
mutce hard 0.0243902
mutce is 0.0024913
mutce It 0.0220994
mutce fantastic 0.2000000
mutce dogs 0.0434783
mutce wonderful 0.0833333
mutce much 0.1279070
mutce &apos;s 0.0132304
mutce delicious 0.0526316
mutce so 0.0825688
mutce loves 0.0434783
mutce too 0.0250000
mutce greatly 1.0000000
mutce lot 0.2142857
mutce badly 0.3333333
mutce browser 0.1428571
mutce sense 0.1111111
mutce really 0.1857143
mutce am 0.0097087
mutce responsibility 0.2727273
zanzibar War 0.1666667
zanzibar Anglo-Zanzibar 0.2000000
jimte are 0.0015674
jimte limits 0.3333333
jimte There 0.0060976
pe'anai literal 1.0000000
pe'anai meaning 0.2352941
micyxu'i cured 0.2500000
micyxu'i of 0.0011507
micyxu'i medication 0.2000000
micyxu'i his 0.0034247
micyxu'i medicine 0.2222222
micyxu'i him 0.0068966
micyxu'i illness 1.0000000
micyxu'i pharmacy 0.0769231
selpluka it 0.0018553
selpluka ? 0.0005647
selpluka cute 0.1250000
selpluka &apos;t 0.0011919
pitka a 0.0005838
pitka ticket 0.0625000
.nansin. Nancy 0.1250000
.nansin. has 0.0044643
skutadji is 0.0004983
monopolis ( 0.0140845
monopolis ) 0.0136986
monopolis Monopoly 1.0000000
monopolis game 0.0526316
ri'ornimre lime 0.5000000
mivykansa without 0.0312500
mivykansa whom 0.1428571
mivykansa you 0.0006456
mivykansa cannot 0.0227273
mivykansa can 0.0039062
mivykansa live 0.0140845
ponas. Pona 0.2000000
xrani were 0.0093458
xrani offended 0.3333333
xrani liver 0.2000000
xrani wounded 0.3333333
xrani hurt 0.2857143
xrani damaged 0.3333333
xrani wound 0.3333333
xrani get 0.0104167
xrani bloodshed 1.0000000
xrani knock 0.3333333
xrani by 0.0126582
minde dismiss 0.2500000
minde commanding 0.2000000
minde tell 0.0136986
minde told 0.0845070
minde were 0.0280374
minde command 0.4285714
minde commanded 1.0000000
minde NULL 0.0001695
minde tells 0.2500000
sanli silently 0.5000000
sanli lined 0.5000000
sanli standing 0.2857143
sanli watching 0.1176471
sanli stood 0.3333333
sanli Get 0.0555556
sanli stand 0.1111111
sanli up 0.0300000
sanli NULL 0.0001695
sanli pillar 0.3333333
mlijilkle metal 0.1111111
mlijilkle earth 0.0476190
mlijilkle Alkaline 1.0000000
nagi'o : 0.0238095
nagi'o those 0.0416667
nagi'o of 0.0011507
nagi'o One 0.0222222
ba'urdu'u complaining 0.1666667
ba'urdu'u always 0.0142857
ba'urdu'u &apos;re 0.0064103
de'a NULL 0.0001695
de'a breath 0.2000000
de'a stop 0.0357143
de'a stopped 0.1200000
de'a my 0.0022831
de'a forgot 0.1250000
de'a past 0.0833333
smugau calling 0.2500000
la'edi'u before 0.0166667
la'edi'u that 0.0016420
la'edi'u brought 0.0625000
la'edi'u NULL 0.0003389
la'edi'u a 0.0005838
la'edi'u thing 0.0322581
la'edi'u such 0.0714286
la'edi'u Isn 0.1250000
jinga lost 0.0307692
jinga Checkmate 1.0000000
jinga wins 0.5000000
jinga sizeable 0.3333333
jinga and 0.0026247
jinga Very 0.1111111
jinga can 0.0039062
jinga will 0.0048309
jinga . 0.0019435
jinga win 1.0000000
jinga lottery 0.1666667
jinga winning 0.5000000
jinga beat 0.2000000
jinga defeat 0.4285714
jinga NULL 0.0001695
jinga won 0.0576923
jinga defeated 0.3333333
jinga triumphs 0.2000000
jinga amount 0.2000000
pofygau cooks 0.2500000
pofygau gas 0.1428571
pofygau spoil 1.0000000
pofygau Too 0.1666667
pofygau many 0.0119048
pofygau broke 0.1250000
brest during 0.0909091
brest started 0.0434783
brest Brest 0.5000000
brest his 0.0034247
brest career 0.1666667
zivle a 0.0005838
zivle of 0.0011507
zivle invested 0.5000000
zivle lot 0.0142857
xokaidon. in 0.0014493
xokaidon. Was 0.0666667
xokaidon. Hokkaido 0.0666667
xokaidon. he 0.0039216
xokaidon. last 0.0243902
mi'ai away 0.0270270
mi'ai Let 0.0263158
mi'ai curse 0.1250000
mi'ai resulted 0.2000000
mi'ai We 0.2175732
mi'ai our 0.0851064
mi'ai we 0.1250000
mi'ai decide 0.1111111
mi'ai ours 0.2500000
mi'ai . 0.0001143
