zergau that 0.0016420
zergau he 0.0039216
zergau &apos;s 0.0011025
zergau are 0.0015674
zergau criminal 0.3333333
zergau a 0.0005838
kijytcini Oxidation 1.0000000
kijytcini number 0.0250000
naldamtanko smokeless 0.2500000
naldamtanko substitute 0.5000000
naldamtanko as 0.0105263
naldamtanko cigarettes 0.1428571
naldamtanko of 0.0011507
naldamtanko tobacco 0.2500000
naldamtanko because 0.0125000
xelklasabji &apos;ll 0.0067114
xelklasabji take 0.0263158
baucre fluency 0.2500000
baucre for 0.0024038
baucre many 0.0119048
baucre situations 0.3333333
baucre sufficient 0.2500000
kecti so 0.0091743
kecti sorry 0.1538462
kecti all 0.0068493
kecti for 0.0024038
kecti loss 0.2500000
kecti &apos;re 0.0064103
kecti &apos;m 0.0021786
munje natural 0.1250000
munje savior 1.0000000
munje Universe 1.0000000
munje is 0.0004983
munje Nature 0.2500000
munje unimaginable 1.0000000
munje universe 0.8000000
munje world 0.5750000
munje the 0.0017723
munje of 0.0034522
kixmi'a laughter 0.2000000
kixmi'a with 0.0040486
kixmi'a howled 0.5000000
la.dik. Dick 0.5000000
grusi grey 0.7500000
grusi beard 1.0000000
grusi in 0.0014493
grusi brinded 0.5000000
grusi gray 0.6666667
grusi dark 0.0666667
grusi the 0.0004431
tenfa &apos;t 0.0011919
tenfa an 0.0069444
tenfa function 0.5000000
tenfa blackboard 0.2000000
tenfa exponential 0.3333333
tenfa isn 0.0133333
tenfa but 0.0082645
nivycreka on 0.0042735
nivycreka sweater 0.2000000
nivycreka heater 0.5000000
tolkien R. 1.0000000
tolkien Tolkien 0.5000000
do'u NULL 0.0005084
do'u about 0.0056818
do'u Yes 0.0277778
do'u What 0.0028409
do'u talking 0.0238095
do'u Hey 0.0526316
do'u Tommy 0.2500000
do'u delete 0.2000000
.ubu USA 0.1666667
.ubu The 0.0015432
ledyselkra antibiotic 0.2500000
stasu while 0.0222222
stasu soup 0.6000000
stasu broth 1.0000000
stasu borsch 0.3333333
stasu your 0.0024631
stasu bean 0.3333333
stasu spoonful 0.5000000
paxa &apos;m 0.0065359
paxa 16 0.4285714
paxa hexadecimal 0.2500000
paxa &quot; 0.0145278
paxa I 0.0009646
boxfo blanket 1.0000000
ca'e Dibs 1.0000000
ca'e hereby 0.2500000
ca'e rational 0.1250000
ca'e . 0.0001143
ca'e pronounce 0.5000000
ca'e that 0.0016420
ca'e Prohibition 1.0000000
ca'e sit 0.0769231
ca'e NULL 0.0010168
ca'e I 0.0006431
tolka'i meet 0.0434783
xruti home 0.0086207
xruti trip 0.1363636
xruti returned 0.2500000
xruti off 0.0212766
xruti back 0.0625000
xruti Clear 0.1666667
xruti good 0.0095238
xruti return 0.1538462
xruti round 0.0769231
xruti a 0.0005838
xruti Have 0.0256410
xruti NULL 0.0005084
xruti gave 0.0181818
xruti Round 0.2000000
smaci oxen 1.0000000
friti She 0.0028490
friti inviting 0.3333333
friti offered 0.6000000
bisli exactly 0.0526316
bisli ice 0.5714286
bisli NULL 0.0003389
bisli once 0.0400000
bisli the 0.0013292
bisli frost 0.5000000
bisli on 0.0128205
bantu'uru Turkish 0.5000000
tolmencre brick 0.5000000
tolmencre &apos;s 0.0022051
tolmencre stupid 0.2142857
jbera can 0.0078125
jbera I 0.0006431
jbera me 0.0055970
jbera NULL 0.0003389
jbera borrow 0.7142857
jbera long 0.0434783
jbera lend 0.5454545
jbera to 0.0032926
jbera borrowed 0.3333333
jbera it 0.0055659
bloja'a the 0.0008861
bloja'a of 0.0034522
bloja'a captain 0.7500000
bloja'a &apos;s 0.0011025
ni'inai from 0.0053476
ni'inai state 0.1428571
ni'inai &apos;t 0.0011919
ni'inai follow 0.1428571
ni'inai logically 0.3333333
ze'o crossposted 0.3333333
carvi is 0.0014948
carvi NULL 0.0001695
carvi rained 0.2857143
carvi was 0.0021552
carvi heavily 0.5000000
carvi rainy 0.2500000
carvi snows 0.2500000
carvi it 0.0129870
carvi raining 0.6190476
carvi snowing 0.1666667
carvi precipitation 0.5000000
carvi last 0.0243902
carvi The 0.0030864
carvi It 0.0414365
carvi snow 0.2187500
carvi and 0.0026247
carvi stops 0.3636364
carvi rain 0.8235294
carvi &apos;s 0.0066152
carvi will 0.0144928
carvi cats 0.0322581
carvi rains 0.2500000
carvi dogs 0.0434783
carvi . 0.0049160
flacre became 0.0454545
flacre who 0.0081301
flacre lawyers 0.3333333
tolfapro be 0.0034014
tolfapro must 0.0156250
tolfapro kept 0.0555556
tolfapro Agreements 1.0000000
mi'arckasu at 0.0037879
mi'arckasu village 0.1000000
mi'arckasu laughed 0.1000000
mi'arckasu the 0.0004431
za'adai job 0.0232558
katnymruli axes 0.2000000
katnymruli in 0.0014493
katnymruli using 0.0555556
katnymruli become 0.0476190
katnymruli expert 0.2500000
katnymruli an 0.0069444
mamymamta Grandma 0.5000000
mamymamta went 0.0136986
levi largest 1.0000000
levi These 0.0126582
levi System 0.2000000
li'enrafsi bo 1.0000000
li'enrafsi prefix 0.2500000
li'enrafsi &quot; 0.0048426
pamjai Hug 0.5000000
pamjai you 0.0006456
pamjai me 0.0018657
pamjai hug 1.0000000
pamjai Let 0.0131579
bakryta'o blackboard 0.2000000
bakryta'o written 0.1000000
bakryta'o on 0.0042735
onkapi Okapi 1.0000000
selmri e-mail 0.2000000
xu To 0.0377358
xu answered 0.1111111
xu special 0.2500000
xu Peter 0.1000000
xu Hungry 0.4000000
xu Are 0.7567568
xu Does 0.9512195
xu do 0.0087977
xu eaten 0.0833333
xu beverage 0.5000000
xu ? 0.0542067
xu Impossible 0.2000000
xu Do 0.7244898
xu Could 0.1666667
xu Very 0.1111111
xu Have 0.6153846
xu Would 0.2702703
xu wine 0.0666667
xu Has 0.5000000
xu Red 0.1666667
xu Or 0.2000000
xu Doesn 0.2500000
xu Tommy 0.2500000
xu By 0.2000000
xu Unicorn 0.2000000
xu Germans 0.2000000
xu Is 0.7444444
xu Did 0.7241379
xu * 0.0909091
xu Excuse 0.1000000
xu Must 0.5000000
xu Oh 0.0357143
xu Am 0.8000000
xu For 0.0714286
xu you 0.0012912
xu Will 0.4761905
xu whether 0.1052632
xu Pshaw 0.2500000
xu Celsius 0.2000000
xu Can 0.4531250
xu Were 0.4545455
xu coworkers 0.1666667
xu Was 0.1333333
xu Wasn 0.2500000
xu A 0.0160000
xu Really 0.1333333
xu Erm 0.3333333
xu NULL 0.0005084
xu does 0.0166667
xu drives 0.1111111
xu Pardon 0.2000000
xu May 0.1176471
Ropno official 0.1250000
remu 25 0.1428571
remu old 0.0128205
remu 25th 0.1428571
remu &apos;m 0.0021786
remu years 0.0125000
remu December 0.5000000
srera mistaken 0.3333333
srera the 0.0017723
srera purpose 0.1428571
srera Did 0.0172414
srera made 0.0416667
srera mistake 0.5000000
srera observed 0.2000000
srera occur 0.2500000
srera wrong 0.0714286
srera messed 0.5000000
srera divine 0.1000000
srera up 0.0100000
srera err 0.2000000
srera mistakes 0.4000000
srera number 0.0250000
srera error 0.4117647
srera am 0.0097087
srera NULL 0.0006779
srera on 0.0042735
srera newsgroup 0.5000000
srera a 0.0029189
fancu function 0.5000000
fancu NULL 0.0001695
fancu cessation 0.5000000
fancu mathematics 0.1000000
fancu decay 0.3333333
fancu ( 0.0140845
fancu ) 0.0136986
fancu Function 0.5000000
be'o Throw 0.3333333
be'o years 0.0125000
be'o Teddy 1.0000000
be'o NULL 0.0003389
be'o whore 0.2500000
be'o him 0.0068966
be'o inch 0.1428571
li'o and 0.0026247
li'o on 0.0042735
li'o : 0.0238095
li'o so 0.0091743
bancus I 0.0003215
naljinsa dirty 0.0769231
depcni Patience 0.3333333
depcni is 0.0004983
depcni possess 1.0000000
depcni that 0.0016420
depcni don 0.0034965
depcni virtue 0.3333333
depcni a 0.0005838
potygu'e Portugal 0.4000000
zirpu purple 1.0000000
tigzgi lasted 0.5000000
tigzgi The 0.0015432
tigzgi concert 0.1428571
so nine 0.7142857
so 3.14159 0.1250000
so 9 1.0000000
so o 0.0909091
so it 0.0018553
so was 0.0021552
so &apos;clock 0.1818182
zgirpopu Pop 1.0000000
zgirpopu music 0.0322581
skot resumed 0.5000000
skot Scott 0.5000000
skot when 0.0075758
skot her 0.0098522
skot career 0.1666667
go'inai No 0.0105263
stali pear 0.2222222
stali stayed 0.3333333
stali Stay 0.5000000
stali will 0.0048309
stali left 0.0294118
stali remain 0.3333333
stali can 0.0039062
stali staying 0.3571429
stali going 0.0074074
stali here 0.0058140
stali hangs 0.5000000
stali stay 0.8387097
stali at 0.0265152
stali NULL 0.0001695
sackycmu Phosphorus 1.0000000
carna counterclockwise 0.5000000
carna rotates 0.5000000
carna Tropical 0.5000000
carna earth 0.0476190
carna goes 0.0204082
carna crossroad 0.1666667
carna round 0.0769231
carna slithy 1.0000000
carna Take 0.0250000
carna the 0.0004431
carna Turn 0.0434783
carna Carlos 0.3333333
mairas was 0.0021552
mairas Myra 0.3333333
junta weighing 0.3333333
junta NULL 0.0001695
junta herself 0.0416667
jinmrtitani Titanium 1.0000000
.meg. looks 0.0161290
.meg. Meg 0.2500000
.meg. just 0.0123457
ji'ireroi There 0.0060976
zgikrxumpa the 0.0004431
zgikrxumpa Play 1.0000000
zgikrxumpa ! 0.0018692
zgikrxumpa Humppa 0.5000000
mampa'u maternal 0.4000000
mampa'u grandfather 0.1666667
nerklaji hall 0.3333333
nerklaji the 0.0004431
nerklaji , 0.0008203
so'ire'u travel 0.0714286
so'ire'u lot 0.0142857
so'ire'u a 0.0005838
rupructcica money 0.0131579
rupructcica launder 1.0000000
bekpi hurts 0.0454545
bekpi back 0.0208333
bekpi My 0.0045767
za'ure'u reproducible 0.4000000
za'ure'u menu 0.2500000
za'ure'u around 0.0588235
za'ure'u will 0.0048309
za'ure'u again 0.2619048
flora of 0.0034522
flora flowers 0.0952381
flora bouquet 0.2500000
zerfuzyxu'a accused 1.0000000
zerfuzyxu'a stealing 0.2000000
zerfuzyxu'a was 0.0021552
zerfuzyxu'a of 0.0011507
snidu meter 0.2500000
snidu second 0.1000000
snidu Second 1.0000000
snidu sixty 0.5000000
jintitnanba doughnuts 0.5000000
jintitnanba these 0.0256410
jintitnanba tasty 0.1111111
jintitnanba are 0.0015674
jintitnanba , 0.0008203
mo'ine'i me 0.0037313
mo'ine'i in 0.0014493
mo'ine'i inside 0.0909091
mo'ine'i pushed 0.1111111
fagri fires 0.3333333
fagri was 0.0043103
fagri fire 0.6842105
fagri unknown 1.0000000
fagri Burn 0.3333333
fagri desire 0.1666667
fagri with 0.0040486
fagri known 0.0666667
lu goodbye 0.1250000
lu says 0.0294118
lu say 0.0370370
lu responds 0.2500000
lu Robert 0.1666667
lu “ 0.4000000
lu study 0.0238095
lu no 0.0217391
lu explodes 0.1666667
lu thanks 0.1818182
lu NULL 0.0013557
lu where 0.0117647
lu plays 0.1111111
lu &quot; 0.2009685
lu along 0.1428571
lu Aaaah 0.2500000
lu , 0.0049221
lu unidentified 0.1666667
lu : 0.0952381
tanxe There 0.0060976
tanxe box 0.7000000
ja'aku Tom 0.0007452
ja'aku may 0.0555556
nimre Citrus 1.0000000
se'ixru returned 0.2500000
se'ixru see 0.0076923
se'ixru back 0.1666667
se'ixru come 0.0444444
se'ixru to 0.0014111
se'ixru return 0.0769231
se'ixru Go 0.0270270
se'ixru your 0.0024631
.tonis. &apos;s 0.0033076
.tonis. Evans 0.1666667
.tonis. Tony 0.2666667
pindi poor 0.3333333
pindi &apos;m 0.0021786
pindi rather 0.2222222
pindi wealth 0.3333333
pindi poverty 0.2500000
pindi in 0.0057971
pindi than 0.0155039
pindi is 0.0004983
pindi was 0.0043103
pindi live 0.0281690
pindi peaceful 0.2857143
fa'i bit 0.0714286
.uecai happen 0.0666667
.uecai that 0.0016420
.uecai surprise 0.0625000
.uecai big 0.0200000
.uecai a 0.0005838
.uecai ! 0.0018692
.uecai I 0.0003215
.uecai What 0.0028409
.uecai to 0.0004704
.uecai expected 0.1428571
.uecai never 0.0163934
terzu'e goal 1.0000000
terzu'e the 0.0004431
terzu'e flippers 0.2000000
terzu'e NULL 0.0001695
sruma assume 0.5000000
sruma supposed 0.0833333
sruma is 0.0004983
centero center 0.3333333
centero in 0.0014493
centero the 0.0004431
siberias Siberia 1.0000000
ba possible 0.0555556
ba tsunami 0.2857143
ba beat 0.2000000
ba NULL 0.0025419
ba will-- 0.2500000
ba approve 0.2000000
ba perish 0.3333333
ba &apos;d 0.0196078
ba after 0.3103448
ba &apos;m 0.0217865
ba helped 0.0625000
ba Will 0.3333333
ba 20 0.0909091
ba snow 0.0625000
ba ever 0.0400000
ba gonna 0.2307692
ba interest 0.1000000
ba happen 0.0666667
ba going 0.2000000
ba dismiss 0.2500000
ba astronaut 0.2500000
ba turns 0.3333333
ba be 0.1258503
ba will 0.5024155
ba likely 0.0909091
ba arrive 0.2000000
ba ha 0.1250000
ba business 0.0588235
ba vacation 0.5000000
ba shall 0.1428571
ba London 0.0333333
ba Would 0.0810811
ba staying 0.0714286
ba toward 0.2500000
ba fed 0.2500000
ba to 0.0032926
ba happened 0.0196078
ba himself 0.0714286
ba see 0.0076923
ba At 0.0526316
ba sees 0.2500000
ba s 0.2000000
ba &apos;ll 0.5234899
ba After 0.2500000
ba later 0.2142857
ba accompany 0.2500000
ba dinner 0.0833333
ba won 0.3269231
ba opening 0.2000000
ba would 0.0422535
ba immediately 0.1538462
ba Aha 0.1250000
cuxna Choose 0.5000000
cuxna is 0.0004983
cuxna NULL 0.0001695
cuxna may 0.0277778
cuxna elect 1.0000000
cuxna elected 0.5000000
cuxna chosen 0.4000000
cuxna been 0.0129870
cuxna have 0.0024752
cuxna choose 0.8000000
cuxna Chris 0.2000000
cuxna yours 0.0322581
cuxna choice 0.6666667
cuxna what 0.0039216
boltipterjvi soccer 0.0666667
cu'e did 0.0064516
cu'e ? 0.0005647
cu'e bite 0.1428571
cu'e maybe 0.3333333
cu'e Or 0.2000000
.teresas. Teresa 0.5000000
Xianfan Xianfan 1.0000000
io here 0.0058140
io fair 0.2000000
io Sir 0.1428571
io Get 0.0555556
io your 0.0024631
io ass 0.3333333
io over 0.0192308
di'o in 0.0072464
di'o marketplace 0.5000000
di'o difficult 0.0303030
di'o NULL 0.0001695
di'o Talking 0.2000000
zargu My 0.0022883
zargu hurts 0.0454545
zargu butt 0.5000000
bidgu'e Indonesia 1.0000000
gugdrpolska Polish 0.2500000
gugdrpolska at 0.0037879
gugdrpolska women 0.1000000
sezbanzu ensnares 1.0000000
kazaksTAN Kazakhstan 1.0000000
ru'i NULL 0.0001695
ru'i continuously 0.5000000
ru'i time 0.0112360
ru'i permanent 0.2000000
ru'i during 0.0909091
ru'i nodes 0.3333333
ru'i the 0.0004431
ru'i &apos;re 0.0064103
ru'i lights 0.1428571
ru'i She 0.0028490
ru'i yawning 0.3333333
ru'i all 0.0068493
ru'i continuous 1.0000000
ru'i are 0.0015674
makpu cap 0.3333333
sodva soda 0.5000000
sodva favourite 0.3333333
sodva my 0.0022831
sodva brand 0.3333333
pumo'u violinist 0.5000000
pumo'u became 0.0454545
pumo'u as 0.0105263
violni violin 1.0000000
violni the 0.0004431
jdini much 0.0232558
jdini any 0.0172414
jdini cost 0.0555556
jdini financial 1.0000000
jdini NULL 0.0003389
jdini wallet 0.2000000
jdini Money 0.4285714
jdini money 0.6842105
jdini does 0.0166667
jdini is 0.0004983
jdini it 0.0037106
toljisyzma dirty 0.1538462
toljisyzma as 0.0421053
toljisyzma yours 0.0645161
selctu not 0.0021739
selctu &apos;m 0.0021786
selctu student 0.0312500
selctu a 0.0005838
flulimna demonstrated 0.6666667
flulimna but 0.0082645
flulimna ability 0.1666667
flulimna can 0.0039062
flulimna swim 0.0909091
flulimna swimming 0.0625000
flulimna has 0.0089286
flulimna and 0.0026247
flulimna not 0.0021739
flulimna this 0.0053619
rinka strengthens 1.0000000
rinka stronger 0.1428571
rinka bestows 1.0000000
rinka fat 0.1250000
rinka necessarily 0.2500000
rinka progress 0.3333333
rinka Practice 0.2000000
rinka causes 0.5000000
rinka kept 0.0555556
rinka makes 0.0476190
rinka the 0.0004431
rinka Curiosity 0.1428571
rinka NULL 0.0008473
rinka caused 0.2500000
rinka cause 0.2500000
rinka it 0.0018553
rinka of 0.0023015
bemjoitcotu'a discovered 0.1250000
bemjoitcotu'a Columbus 0.1250000
bemjoitcotu'a America 0.0263158
romi'a Everyone 0.0212766
romi'a &apos;s 0.0011025
fasygu'e border 1.0000000
fasygu'e France 0.6250000
fasygu'e with 0.0040486
nikaraguas Nicaragua 0.3333333
(sei &quot; 0.0048426
mulna'u greatest 0.2500000
mulna'u Integer 1.0000000
mulna'u positive 0.2666667
mulna'u integer 0.6000000
tu yonder 0.3333333
tu fountain 0.2500000
tu . 0.0002286
tu almost 0.0500000
tu that 0.0065681
tu Feed 0.1666667
tu That 0.0224215
tu hundreds 0.2000000
tu &apos;s 0.0033076
tu there 0.0078125
tu Who 0.0074627
tu give 0.0250000
tu over 0.0192308
tu Seine 0.2500000
tu one 0.0049505
tu fuck 0.1428571
tu described 0.3333333
tu lemon 0.5000000
tu a 0.0005838
gije translations 0.0588235
gije and 0.0026247
gije get 0.0104167
sairfa'o satsuma 0.5000000
sairfa'o a 0.0005838
sairfa'o Have 0.0256410
albert. Albert 1.0000000
barja a 0.0011675
barja at 0.0075758
barja serving 0.5000000
barja bookstore 0.3333333
barja bar 0.7500000
barja pubs 0.3333333
barja used 0.0967742
barja the 0.0004431
rokci at 0.0075758
rokci NULL 0.0001695
rokci stone 0.6000000
rokci not 0.0021739
rokci rock 0.2857143
rokci stones 0.4285714
rokci Rock-paper-scissors 0.3333333
rokci Stone 0.5000000
aleksandr. Alexander 1.0000000
.ritcardniksyn. from 0.0053476
.ritcardniksyn. public 0.5000000
.ritcardniksyn. attention 0.0769231
.ritcardniksyn. Richard 0.3333333
.ritcardniksyn. dropped 0.2000000
.ritcardniksyn. Nixon 0.2500000
nan.oza,uas. Ozawa 0.5000000
gy.Fanta.gy. soda 0.5000000
.DJUpitr. Jupiter 0.2000000
tercarvi showered 0.5000000
tercarvi him 0.0068966
tercarvi with 0.0040486
ki'ecai thank 0.2500000
ki'ecai cannot 0.0227273
ki'ecai . 0.0001143
ki'ecai for 0.0024038
ki'ecai Thank 0.0588235
ki'ecai you 0.0019367
ki'ecai very 0.0135747
ki'ecai I 0.0003215
ki'ecai too 0.0125000
ki'ecai ! 0.0018692
ki'ecai much 0.0348837
ki'ecai , 0.0008203
ganlo fail 0.0625000
ganlo pushed 0.1111111
ganlo closed 0.6666667
ganlo without 0.0312500
ganlo NULL 0.0001695
ganlo close 0.1333333
ganlo was 0.0021552
ganlo shut 0.1250000
konsepSION , 0.0008203
konsepSION Concepción 1.0000000
konsepSION Chile 0.5000000
iakob Jacob 0.2222222
iakob child 0.0487805
iakob of 0.0023015
iakob only 0.0227273
xedja a 0.0005838
xedja square 0.2000000
xedja jaw 0.3333333
xedja has 0.0044643
termu'eske Prize 0.5000000
termu'eske Physics 0.7500000
spesi'u gotten 0.3333333
spesi'u married 0.0277778
cipnrxigli birds 0.0769231
cipnrxigli are 0.0015674
cipnrxigli flying 0.0833333
cipnrxigli There 0.0060976
si'o soccer 0.0666667
si'o commanding 0.2000000
si'o into 0.0161290
si'o NULL 0.0001695
si'o meaningless 1.0000000
si'o concept 1.0000000
lEtsyburg Luxembourg 1.0000000
zoi. kaisha 0.2857143
zoi. &quot; 0.0096852
zoi. for 0.0048077
karni aimed 0.3333333
karni magazine 0.7500000
karni is 0.0004983
karni at 0.0075758
karni magazines 0.3333333
panku park 0.0588235
xismalsi this 0.0026810
xismalsi of 0.0011507
xismalsi is 0.0004983
xismalsi church 0.2727273
uinai am 0.0145631
uinai Aw 1.0000000
uinai Unfortunately 0.6666667
uinai it 0.0037106
uinai , 0.0041017
uinai Regrettably 1.0000000
uinai unhappy 0.0909091
uinai I 0.0006431
uinai about 0.0113636
uinai and 0.0052493
panpi who 0.0081301
panpi calm 0.1111111
panpi in 0.0028986
panpi doesn 0.0104167
panpi no 0.0072464
panpi peaceful 0.7142857
panpi peace 0.5833333
panpi desire 0.1666667
panpi one 0.0049505
panpi &apos;t 0.0011919
cilce ferocious 0.5000000
cilce , 0.0008203
cilce wild 0.6666667
cilce NULL 0.0003389
cilce looking 0.0294118
cilce for 0.0024038
gy.Aoi.gy. Aoi 0.2500000
zmajbi closer 1.0000000
dau Start 0.1250000
dau ten 0.0526316
dau third 0.1000000
dau October 0.2000000
dau the 0.0004431
dau of 0.0011507
tcexagji hungry 0.0370370
tcexagji &apos;m 0.0021786
tcexagji very 0.0045249
tolcando am 0.0048544
tolcando are 0.0015674
tolcando . 0.0009146
tolcando busy 0.6071429
tolcando &apos;m 0.0021786
tolcando yet 0.0357143
tolcando were 0.0093458
tolcando and 0.0026247
tolcando games 0.0714286
tolcando They 0.0063291
dzuli'u to 0.0004704
dzuli'u walk 0.0344828
dzuli'u every 0.0136986
dzuli'u a 0.0005838
dzuli'u take 0.0263158
sraku cigarettes 0.1428571
sraku buy 0.0217391
sraku some 0.0096154
sraku to 0.0004704
jamfu foot 0.2727273
jamfu on 0.0042735
jamfu feet 0.4444444
za'e &apos;s 0.0011025
za'e is 0.0004983
za'e whore 0.2500000
za'e slut 0.1000000
cmeci'e Ingredients 0.5000000
cmeci'e of 0.0011507
cmeci'e Cosmetic 1.0000000
cu has 0.2321429
cu company 0.1428571
cu really 0.0714286
cu shook 0.3333333
cu runny 0.3333333
cu Vulcan 0.2500000
cu pictures 0.1818182
cu soul 0.1111111
cu doesn 0.1250000
cu girl 0.0819672
cu professors 0.1538462
cu ambassador 0.5000000
cu shoes 0.0952381
cu candles 0.2500000
cu Dumpty 0.2000000
cu colour 0.1000000
cu hen 0.3333333
cu medicine 0.1111111
cu buyer 0.1666667
cu engage 0.3333333
cu doctor 0.0217391
cu grip 0.3333333
cu cooks 0.2500000
cu liver 0.2000000
cu dies 0.1666667
cu miles 0.1666667
cu over 0.0769231
cu lives 0.2058824
cu surprised 0.0555556
cu necessarily 0.2500000
cu suits 0.3333333
cu arrow 0.3333333
cu Shintaro 0.2000000
cu friends 0.0545455
cu visitors 0.1428571
cu contains 0.2500000
cu mixture 0.3333333
cu marriage 0.2500000
cu emotions 0.1666667
cu drinks 0.4210526
cu ’ 0.0769231
cu boys 0.0666667
cu partner 0.2857143
cu Market 0.2500000
cu tie 0.2000000
cu early 0.1333333
cu T-shirt 0.2500000
cu colony 0.5000000
cu probably 0.1666667
cu States 0.1666667
cu loves 0.0434783
cu drama 0.5000000
cu takes 0.4285714
cu families 0.5555556
cu makes 0.1428571
cu remains 0.5000000
cu Kyoto 0.0714286
cu Dogs 0.1666667
cu bites 0.5000000
cu zombies 0.5000000
cu Rabbits 0.3333333
cu customers 0.5000000
cu project 0.0909091
cu reads 0.3333333
cu brother 0.0526316
cu &apos;s 0.0507166
cu According 0.2000000
cu intelligence 0.2500000
cu seems 0.1951220
cu arrived 0.1081081
cu translator 0.1428571
cu prey 0.3333333
cu Arab 0.5000000
cu eggs 0.0909091
cu cars 0.1666667
cu hides 0.2500000
cu hears 0.3333333
cu power 0.0769231
cu does 0.0166667
cu on 0.0598291
cu tender 0.2500000
cu boil 0.5000000
cu parade 0.3333333
cu asked 0.0476190
cu trains 0.1818182
cu Harpier 1.0000000
cu more 0.0471698
cu smiled 0.1666667
cu wears 0.1250000
cu runners 0.3333333
cu hunter 0.3333333
cu . 0.0035441
cu dangerous 0.0714286
cu mother 0.0297030
cu men 0.3478261
cu engineering 0.3333333
cu moo 0.2500000
cu girls 0.0344828
cu between 0.0714286
cu reflects 0.3333333
cu barbers 0.5000000
cu female 0.1666667
cu chillier 0.2500000
cu carried 0.2000000
cu orange 0.1250000
cu dissolves 0.5000000
cu passed 0.2000000
cu slave 0.2000000
cu south 0.2000000
cu Rome 0.0714286
cu broke 0.1875000
cu mirror 0.0714286
cu freshness 0.3333333
cu UT 0.2500000
cu Music 0.2000000
cu Greek-Americans 0.3333333
cu shorter 0.1666667
cu upright 0.1666667
cu opens 0.3333333
cu limp 0.5000000
cu God 0.0147059
cu speaks 0.0434783
cu fat 0.1250000
cu recovery 0.2500000
cu Yumi 0.1428571
cu fixed 0.2222222
cu browser 0.1428571
cu was 0.1056034
cu toilet 0.1666667
cu across 0.2222222
cu teenagers 0.2727273
cu hazelnuts 0.2500000
cu knows 0.2391304
cu governed 0.5000000
cu breath 0.2000000
cu lake 0.2500000
cu becomes 0.3333333
cu correct 0.0526316
cu blesses 0.5000000
cu wins 0.2500000
cu lights 0.1428571
cu ashamed 0.1666667
cu pleases 0.2500000
cu divine 0.3000000
cu meowed 0.5000000
cu Zen 0.5000000
cu die 0.0625000
cu CIA 0.0666667
cu died 0.0232558
cu needs 0.0571429
cu start 0.1379310
cu father 0.0526316
cu sits 0.2500000
cu wanted 0.0281690
cu promised 0.1111111
cu cleans 0.2000000
cu terrific 0.5000000
cu triumphs 0.2000000
cu may 0.0833333
cu Lojban-enthusiast 0.3333333
cu Green 0.5000000
cu main 0.5000000
cu parents 0.0526316
cu killed 0.1081081
cu keeps 0.3333333
cu talks 0.2142857
cu sons 0.1250000
cu happens 0.1904762
cu bouquets 0.3333333
cu Ken 0.1250000
cu upper-case 0.3333333
cu hurts 0.0909091
cu texts 0.5000000
cu workers 0.1250000
cu factory 0.1428571
cu bear 0.2222222
cu teaches 0.0833333
cu pinball 0.2500000
cu proletarians 0.3333333
cu be 0.0340136
cu had 0.0420168
cu respects 0.2000000
cu began 0.2500000
cu Each 0.2500000
cu understands 0.1250000
cu rice 0.0666667
cu Kings 1.0000000
cu sell 0.1875000
cu swords 0.1000000
cu mended 0.2500000
cu Thames 0.2500000
cu junkie 0.2500000
cu bucket 0.1111111
cu ? 0.0011293
cu refused 0.3333333
cu costs 0.2500000
cu flower 0.0625000
cu Ozawa 0.5000000
cu end 0.0869565
cu left 0.0735294
cu playing 0.0588235
cu husband 0.2222222
cu belongs 0.2962963
cu sings 0.2222222
cu Cut 0.2500000
cu exceeded 0.5000000
cu lecture 0.1428571
cu yell 0.4000000
cu apples. 1.0000000
cu freezes 0.2500000
cu are 0.2633229
cu suggested 0.2000000
cu British 0.5000000
cu coat 0.1666667
cu hypertension 0.5000000
cu explorers 0.3333333
cu need 0.0779221
cu passengers 0.2000000
cu mice 0.2500000
cu skint 0.5000000
cu man 0.0352941
cu affects 0.2000000
cu lived 0.0800000
cu is 0.3751868
cu seemed 0.0909091
cu lung 0.2500000
cu kiss 0.0625000
cu ll 0.5000000
cu discipline 0.2500000
cu looks 0.2096774
cu sounds 0.1666667
cu buffalo 0.1000000
cu users 0.1111111
cu travels 0.2500000
cu Ted 0.5000000
cu Icelanders 0.2000000
cu burns 0.3333333
cu Linda 0.2000000
cu positive 0.0666667
cu uses 0.2000000
cu people 0.2000000
cu envies 0.5000000
cu aficionado 0.2500000
cu discusses 0.4000000
cu resumed 0.5000000
cu wound 0.3333333
cu jumps 0.4000000
cu earth 0.1428571
cu rat 0.2500000
cu looked 0.0666667
cu among 0.2000000
cu interested 0.1176471
cu memory 0.1250000
cu Optimists 0.3333333
cu isn 0.0400000
cu complained 0.2500000
cu fly 0.3846154
cu trick 0.2500000
cu Brazillian 0.5000000
cu Beverly 1.0000000
cu Inshallah 0.3333333
cu apparently 0.3333333
cu boobs 0.3333333
cu tastes 0.3333333
cu babe 0.2500000
cu discuss 0.3750000
cu each 0.1276596
cu tickets 0.2500000
cu park 0.1176471
cu lay 0.2857143
cu repairs 0.5000000
cu galxe 0.3333333
cu screams 0.2000000
cu closes 0.3333333
cu rotates 0.5000000
cu Mary 0.0041494
cu goods 0.2500000
cu fascinated 0.5000000
cu likes 0.1730769
cu causes 0.2500000
cu furiously 0.5000000
cu fish 0.1290323
cu cute 0.1250000
cu cured 0.2500000
cu coiffure 0.3333333
cu avoided 0.1666667
cu sick 0.0434783
cu addict 0.2500000
cu crashed 0.2000000
cu feels 0.5000000
cu hates 0.1250000
cu child 0.0487805
cu worked 0.2222222
cu as 0.0421053
cu exists 0.3888889
cu failed 0.2500000
cu ball 0.1666667
cu rang 0.2500000
cu country 0.0303030
cu consider 0.2000000
cu paints 0.3333333
cu picked 0.2000000
cu Cows 0.4000000
cu listens 0.5000000
cu eats 0.2000000
cu grabbed 0.5000000
cu Joneses 0.2857143
cu discount 0.1428571
cu a 0.0023351
cu north 0.2500000
cu kilometers 0.1428571
cu lojbanologists 0.2500000
cu those 0.0416667
cu Biwa 0.1666667
cu feeds 0.1250000
cu dad 0.0833333
cu recent 0.2000000
cu locked 0.5000000
cu time-wasting 0.2500000
cu students 0.1363636
cu goblins 0.5000000
cu negative 0.5000000
cu texted 0.2500000
cu fell 0.1379310
cu During 0.2500000
cu pin 0.3333333
cu peppers 0.5000000
cu damaged 0.3333333
cu slow 0.1111111
cu accommodates 0.5000000
cu puppy 0.1428571
cu interests 0.5000000
cu spectator 0.2500000
cu bought 0.0350877
cu internet 0.2000000
cu than 0.0387597
cu foreigners 0.3333333
cu woke 0.1666667
cu stones 0.2857143
cu soft 0.1666667
cu &apos;re 0.0064103
cu nodes 0.3333333
cu near 0.1176471
cu disappearance 1.0000000
cu Visits 0.3333333
cu Lojbanists 0.2000000
cu kissed 0.1111111
cu crazy 0.1250000
cu weighs 0.1666667
cu contraption 0.1666667
cu heating 0.1666667
cu should 0.0161290
cu unit 0.2000000
cu flippers 0.4000000
cu arriving 0.1000000
cu town 0.0666667
cu starts 0.3333333
cu NULL 0.0425352
cu ways 0.2500000
cu males 0.5000000
cu did 0.0064516
cu talker 0.1111111
cu prevented 0.2500000
cu Camgusmis 0.3333333
cu bartender 0.5000000
cu lacked 0.3333333
cu rooms 0.1428571
be'e ? 0.0028233
be'e here 0.0058140
be'e I 0.0003215
be'e there 0.0078125
be'e Spirit 0.5000000
be'e talk 0.0136986
be'e Hello 0.0256410
be'e you 0.0012912
be'e Do 0.0051020
be'e get 0.0104167
be'e are 0.0015674
be'e Are 0.0090090
be'e still 0.0256410
be'e to 0.0004704
zdimi'a at 0.0037879
zdimi'a laughed 0.1000000
zdimi'a him 0.0068966
you say 0.0123457
ze'oi have 0.0024752
ze'oi Mac 0.1666667
ze'oi am 0.0048544
nunpe'i the 0.0004431
nunpe'i will 0.0048309
nunpe'i meeting 0.0869565
nunpe'i next 0.0294118
nunpe'i notice 0.2500000
nunpe'i you 0.0006456
nunpe'i posted 0.1428571
nunpe'i about 0.0056818
nunpe'i During 0.2500000
nunpe'i visit 0.0769231
nunpe'i A 0.0080000
nunpe'i time 0.0112360
nunpe'i was 0.0021552
detri is 0.0004983
detri October 0.2000000
detri NULL 0.0003389
detri day 0.0123457
detri date 0.1428571
detri June 0.0833333
detri Calendar 1.0000000
detri 18th 0.2000000
detri it 0.0018553
xanka worry 0.5333333
xanka was 0.0043103
xanka do 0.0029326
xanka anxious 1.0000000
xanka NULL 0.0003389
xanka about 0.0113636
xanka worried 0.3333333
xanka concerned 1.0000000
xanka very 0.0045249
xanka nervous 1.0000000
xanka am 0.0048544
xanka he 0.0039216
xanka actually 0.0714286
sazri. a 0.0005838
sazri. pilot 0.1250000
mulno triumphs 0.2000000
mulno okay 0.1111111
mulno What 0.0028409
mulno finished 0.2500000
mulno NULL 0.0001695
mulno not 0.0021739
mulno end 0.0434783
mulno hereby 0.2500000
mulno over 0.0576923
mulno capacity 0.5000000
mulno done 0.0192308
mulno final 1.0000000
mulno complete 0.3333333
mulno forgot 0.0416667
mulno cannot 0.0227273
mulno completely 0.2857143
mulno all 0.0273973
mulno undone 0.3333333
mulno have 0.0024752
mulno be 0.0102041
flalu Law 1.0000000
flalu the 0.0008861
flalu legal 1.0000000
flalu Lawyers 0.2500000
flalu it 0.0018553
flalu am 0.0048544
flalu Is 0.0111111
flalu NULL 0.0003389
flalu law 0.5714286
flalu lawgivers 0.3333333
zgipli a 0.0005838
zgipli play 0.0285714
nintadni &apos;m 0.0021786
nintadni beginner 0.5000000
nintadni in 0.0014493
nintadni a 0.0005838
sei pinball 0.2500000
sei likely 0.0909091
sei Inshallah 0.3333333
sei tend 0.2500000
sei holes 0.2500000
sei It 0.0027624
sei worry 0.0666667
sei , 0.0024610
sei think 0.0081967
sei Language 0.1428571
sei sudden 0.1666667
sei cry 0.0666667
sei of 0.0011507
sei damn 0.2500000
sei fact 0.0526316
sei NULL 0.0027114
sei &apos;d 0.0196078
sei earlier 0.0769231
sei a 0.0005838
sei umbrella 0.2000000
sei &quot; 0.0048426
sei Sit 0.1428571
sei tends 0.1666667
sei All 0.0166667
sei do 0.0029326
sei dies 0.0416667
sei Suddenly 0.1428571
sei &apos;re 0.0064103
sei eject 0.3333333
sei may 0.0277778
sei I 0.0003215
sei can 0.0156250
seja'eda'i wouldn 0.1000000
kalmebykre eyebrows 0.3333333
ctipla a 0.0011675
ctipla diet 0.3333333
ctipla has 0.0044643
ctipla been 0.0129870
ctipla &apos;m 0.0021786
ctipla on 0.0085470
juliet. Romeo 0.2500000
juliet. Juliet 0.2500000
juliet. on 0.0042735
juliet. to 0.0004704
juliet. talked 0.0588235
vei other 0.0144928
vei NULL 0.0001695
vei each 0.0212766
ritli beat 0.2000000
proga programming 0.2000000
jipno the 0.0017723
jipno end 0.0434783
jipno of 0.0023015
jipno mountain 0.0909091
jipno blade 1.0000000
jipno top 0.1428571
tarti has 0.0044643
tarti friendly 0.2857143
tarti understanding 0.1428571
tarti very 0.0090498
tarti into 0.0161290
tarti enter 0.0625000
tarti people 0.0080000
tarti are 0.0015674
tarti manners 0.6666667
tarti thy 0.3333333
tarti acting 1.0000000
tarti behaves 0.2000000
zilzena of 0.0011507
zilzena happened 0.0196078
zilzena number 0.0500000
zilzena times 0.0384615
zilzena increased 0.2500000
zilzena it 0.0018553
zilzena The 0.0015432
.esperanton. it 0.0018553
.esperanton. Esperanto 0.0500000
.esperanton. because 0.0125000
.esperanton. , 0.0008203
kamfe'u couldn 0.0666667
kamfe'u my 0.0022831
kamfe'u &apos;t 0.0011919
kamfe'u control 0.1428571
nalcni in 0.0014493
nalcni blunt 1.0000000
nalcni manner 0.1666667
nalcni his 0.0034247
nalcni very 0.0045249
remuciso a 0.0005838
remuciso 2539 0.3333333
remuciso is 0.0004983
ta'a me 0.0074627
ta'a could 0.0222222
ta'a tell 0.0136986
ta'a , 0.0016407
ta'a where 0.0117647
ta'a someone 0.0161290
ta'a Excuse 0.3000000
ta'a but 0.0082645
xenru happened 0.0196078
xenru regret 0.6666667
xenru had 0.0084034
xenru regretted 0.5000000
xenru this 0.0080429
xenru what 0.0039216
korvo Crows 0.2500000
korvo are 0.0015674
coico'o how 0.0082645
coico'o Hey 0.0526316
coico'o Nonong 0.2500000
coico'o are 0.0015674
coico'o , 0.0008203
fasysodna Francium 1.0000000
ka'argau the 0.0022153
ka'argau cut 0.3076923
ka'argau Cut 0.2500000
pinka yet 0.0357143
pinka happens 0.0476190
pinka comments 0.5000000
pinka There 0.0060976
pinka anything 0.0128205
pinka are 0.0015674
pinka notice 0.2500000
pinka no 0.0072464
ju'acu'i &quot; 0.0048426
cinjikca with 0.0040486
cinjikca was 0.0021552
cinjikca flirting 0.3333333
beidjin Beijing 0.1428571
pitr. wanted 0.0140845
pitr. to 0.0004704
pitr. Peter 0.1000000
pitr. become 0.0476190
sroku'a closet 0.4444444
barkulselgu'a done 0.0192308
barkulselgu'a homework 0.1666667
barkulselgu'a her 0.0049261
barkulselgu'a has 0.0044643
plipe jumps 0.5000000
plipe jumping 1.0000000
plipe high 0.1538462
plipe NULL 0.0003389
plipe joy 0.2000000
plipe out 0.0217391
plipe jumped 0.3076923
plipe ( 0.0281690
plipe He 0.0016779
plipe handspring 0.2000000
plipe jump 0.4000000
plipe of 0.0023015
glagau &apos;s 0.0011025
glagau heating 0.1666667
velne'u Prize 0.5000000
velne'u in 0.0014493
smitra pretended 1.0000000
zu'u the 0.0017723
zu'u one 0.0049505
zu'u gripping 0.3333333
zu'u hand 0.1818182
zu'u other 0.0289855
zu'u On 0.3333333
pasyskaci dress 0.0769231
dafsku answer 0.0526316
dafsku answered 0.1111111
mivyfu'i Cloning 1.0000000
spaske Botany 1.0000000
seldantypre archer 1.0000000
seldantypre The 0.0015432
liste list 0.5000000
liste menu 0.2500000
liste listed 0.3333333
liste off 0.0212766
liste A 0.0080000
liste Symbol 0.5000000
liste NULL 0.0001695
liste about 0.0056818
cargau turned 0.0526316
lindgren Lindgren 1.0000000
lankyboi doesn 0.0104167
lankyboi coach 0.1250000
lankyboi &apos;t 0.0011919
lankyboi know 0.0035587
lankyboi basketball 0.2500000
makfartci Compass 1.0000000
baziku Soon 0.4000000
punli swollen 0.5000000
punli a 0.0005838
punli little 0.0169492
sapyga'e Obvious 0.3333333
sapyga'e Captain 0.5000000
Lojban?.gy. &quot; 0.0024213
Lojban?.gy. Lojban 0.0206186
Lojban?.gy. &apos; 0.0285714
Lojban?.gy. ? 0.0005647
Lojban?.gy. in 0.0028986
dicmakseldi'e Electromagnetic 1.0000000
dicmakseldi'e radiation 0.5000000
nupre keep 0.0714286
nupre promised 0.5555556
nupre he 0.0039216
nupre promises 0.4285714
nupre would 0.0140845
nupre keeping 0.3333333
nupre I 0.0003215
nupre A 0.0080000
nupre &apos;ll 0.0067114
nupre me 0.0037313
nupre gave 0.0181818
nupre NULL 0.0003389
nupre promise 0.4137931
nupre happen 0.0666667
cilta two 0.0088496
cilta wires 0.6666667
jdali'u am 0.0048544
jdali'u in 0.0014493
jdali'u a 0.0005838
jdali'u on 0.0042735
jdali'u mission 0.3333333
canko windows 1.0000000
canko window 0.9411765
canko Microsoft 0.2000000
canko Windows 0.2500000
celgunta shoot 0.5000000
celgunta shooting 0.5000000
.maik. has 0.0044643
.maik. Mike 0.0769231
.maik. two 0.0088496
dracybende belong 0.2500000
dracybende club 0.5000000
dracybende to 0.0004704
dracybende drama 0.5000000
i'i and 0.0026247
i'i &apos;ll 0.0067114
i'i for 0.0024038
i'i a 0.0005838
i'i we 0.0089286
i'i have 0.0024752
i'i Come 0.0277778
i'i go 0.0040161
i'i walk 0.0344828
jimte are 0.0015674
jimte limits 0.3333333
jimte There 0.0060976
desygau shook 0.3333333
desygau it 0.0018553
akti off 0.0425532
akti it 0.0018553
akti Turn 0.0869565
akti get 0.0104167
akti on 0.0042735
akti idle 0.2500000
akti running 0.0434783
akti turn 0.0714286
akti down 0.0212766
kisygu'e Pakistan 0.2000000
sipgau Put 0.0833333
fatci proof 0.2500000
fatci your 0.0024631
fatci Where 0.0044248
fatci &apos;s 0.0011025
fatci ? 0.0005647
fatci a 0.0005838
fatci to 0.0004704
fatci real 0.0714286
fatci fact 0.1578947
fatci known 0.0666667
fatci experience 0.0526316
fatci The 0.0015432
fatci made 0.0138889
fatci truth 0.0666667
toltu'i disagree 0.1666667
datsi'u are 0.0015674
datsi'u different 0.0500000
nuncenba in 0.0014493
nuncenba temperature 0.3333333
nuncenba to 0.0004704
nuncenba changes 0.1666667
dalpe'o have 0.0024752
dalpe'o My 0.0022883
dalpe'o NULL 0.0001695
dalpe'o pet 0.5000000
dalpe'o a 0.0011675
cintolvu'e He 0.0016779
cintolvu'e . 0.0001143
cintolvu'e bad 0.0416667
cintolvu'e a 0.0005838
cintolvu'e boy 0.0161290
cintolvu'e is 0.0004983
censa Islam 0.6666667
censa Call 0.0740741
censa for 0.0048077
censa &apos;s 0.0022051
censa Jihad 0.5000000
censa holy 0.6666667
censa Against 0.5000000
censa prophet 0.5000000
censa of 0.0011507
kusru those 0.0416667
kusru hurt 0.0714286
jboskepre discussions 1.0000000
jboskepre had 0.0084034
jboskepre lojbanologists 0.2500000
jboskepre English 0.0069444
jboskepre in 0.0014493
xanla are 0.0015674
xanla about 0.0056818
xanla worried 0.3333333
latmo Latin 0.2000000
latmo have 0.0049505
latmo Roman 0.5555556
latmo a 0.0011675
cilre hard 0.0243902
cilre how 0.0247934
cilre will 0.0048309
cilre studied 0.1111111
cilre study 0.0952381
cilre learning 0.4166667
cilre One 0.0222222
cilre learned 0.2857143
cilre learn 0.5526316
cilre command 0.1428571
cilre NULL 0.0005084
cilre learns 0.5000000
dumdu'o what 0.0039216
titla NULL 0.0003389
titla have 0.0024752
titla candy 0.1250000
titla some 0.0096154
titla Sweet 0.2500000
titla dreams 0.1111111
titla sweet 0.6666667
uese'i Oops 0.2500000
uese'i , 0.0008203
apple.” &apos; 0.0285714
fe'emo'u ) 0.0136986
fe'emo'u faced 0.5000000
fe'emo'u when 0.0075758
fe'emo'u it 0.0018553
fe'emo'u above 0.1250000
fe'emo'u until 0.0434783
fe'emo'u from 0.0053476
fe'emo'u viewed 1.0000000
zo'u George 0.0833333
zo'u Movie 0.3333333
zo'u Language 0.1428571
zo'u wife 0.0312500
zo'u vision 0.2500000
zo'u &apos;s 0.0011025
zo'u meters 0.0714286
zo'u , 0.0032814
zo'u Time 0.1428571
zo'u boobs 0.3333333
zo'u immediately 0.0769231
zo'u lucid 0.1428571
zo'u hobbit 0.1428571
zo'u pharmacy 0.0769231
zo'u something 0.0104167
zo'u is 0.0019930
zo'u for 0.0024038
zo'u NULL 0.0016946
zo'u Whoever 0.2500000
zo'u sister 0.0243902
zo'u pencil 0.1000000
zo'u was 0.0043103
zo'u languages 0.0384615
zo'u seasons 0.5000000
zo'u sing 0.0400000
zo'u As 0.0588235
zo'u Mr. 0.1666667
zo'u got 0.0133333
zo'u satsuma 0.5000000
zo'u nothing 0.0222222
zo'u kiss 0.0625000
pitr.djeksyn Jackson 0.3333333
pitr.djeksyn Peter 0.1000000
cakla chocolate 0.6666667
cakla chocolates 0.2500000
cakla I 0.0006431
.uucai look 0.0232558
.uucai terrible 0.2000000
.uucai You 0.0023697
lepu'u to 0.0004704
lepu'u love 0.0061350
lepu'u To 0.0377358
lepu'u life 0.0285714
bakrbisoni NULL 0.0003389
bakrbisoni buffalo 0.1000000
ciksa wrote 0.0333333
su'epa than 0.0155039
su'epa one 0.0099010
su'epa No 0.0210526
su'epa professor 0.1428571
su'epa more 0.0188679
jbenunsla Merry 0.5000000
jbenunsla Christmas 0.2500000
cisu'iparoiku time 0.0112360
da.i Knowing 1.0000000
su'ore At 0.1052632
su'ore least 0.1600000
su'ore two 0.0353982
su'ore at 0.0075758
me'u Hakata 0.2500000
me'u device 0.2500000
se'a myself 0.0344828
se'a by 0.0063291
se'a , 0.0016407
se'a NULL 0.0001695
se'a ourselves 0.2500000
krefu again 0.0714286
krefu that 0.0016420
krefu first 0.0344828
krefu NULL 0.0001695
krefu ! 0.0018692
krefu time 0.0112360
forca Three 0.1250000
forca Forks 1.0000000
forca fork 1.0000000
cukla result 0.1818182
gy.Russell.gy. Russell 0.1250000
gy.Russell.gy. not 0.0021739
gy.Russell.gy. is 0.0004983
lo'u have 0.0024752
.iamada. is 0.0004983
.iamada. name 0.0104167
.iamada. Yamada 0.5000000
clupa looping 0.1666667
mi'a Houston 0.2500000
mi'a we 0.1785714
mi'a tune 0.2000000
mi'a We 0.3263598
mi'a goods 0.2500000
mi'a Clusivity 0.3333333
mi'a Our 0.2222222
mi'a us 0.3437500
mi'a present 0.0400000
mi'a Umemura 0.2500000
mi'a our 0.1489362
gynus GNU 1.0000000
zohu: official 0.1250000
nintendos Nintendo 1.0000000
kukis Cookie 0.5000000
kukis Is 0.0555556
kukis a 0.0029189
kukis Question 1.0000000
kukis : 0.0952381
catke Somebody 0.0714286
catke Someone 0.0526316
catke pushed 0.2222222
.oidaipei How 0.0046948
rajyserti ladder 0.5000000
ro'e much 0.0116279
ro'e though 0.2500000
ro'e through 0.0833333
ro'e NULL 0.0001695
ro'e work 0.0105263
ro'e Die 0.2000000
ro'e hard 0.0243902
ro'e brain 1.0000000
.ai.e'e . 0.0001143
.ai.e'e without 0.0312500
.ai.e'e I 0.0003215
.ai.e'e do 0.0029326
.ai.e'e &apos;ll 0.0067114
.ai.e'e fail 0.0625000
.ai.e'e that 0.0016420
xaksu waste 0.2500000
xaksu spend 0.2000000
mebri the 0.0004431
mebri on 0.0042735
mebri forehead 1.0000000
papibici meters 0.0714286
papibici tall 0.0666667
papibici 1.83 1.0000000
papibici &apos;m 0.0021786
linji emphasis 1.0000000
linji Parallel 0.3333333
linji line 0.5000000
seljibri are 0.0015674
seljibri employees 0.5000000
seljibri work 0.0105263
seljibri now 0.0098039
seljibri of 0.0011507
seljibri quit 0.0588235
seljibri out 0.0108696
dakfu knife 0.8000000
dakfu that 0.0016420
dakfu sharp 0.1250000
dakfu is 0.0009965
dakfu with 0.0040486
so'ida a 0.0005838
so'ida quite 0.0500000
so'ida &apos;s 0.0011025
so'ida of 0.0011507
so'ida things 0.0192308
so'ida lot 0.0142857
so'ida There 0.0060976
pelnimre a 0.0005838
pelnimre lemon 0.5000000
pelnimre &apos;s 0.0011025
konstantius Constantius 0.3333333
konstantius II 0.2000000
kanguru Kangaroo 1.0000000
termakfa wizard 1.0000000
selbaise'u Slavery 1.0000000
gurni sow 1.0000000
gurni Cereal 1.0000000
madjiar Hungary 1.0000000
drudi roof 1.0000000
cpana it 0.0018553
cpana scattered 0.3333333
cpana desk 0.1000000
cpana There 0.0060976
cpana labourer 0.2500000
cpana on 0.0769231
cpana was 0.0021552
cpana &apos;s 0.0011025
cpana mark 0.2500000
pampe'o dating 0.2500000
pampe'o lover 0.1428571
pampe'o her 0.0049261
pampe'o got 0.0133333
pampe'o ex-girlfriend 1.0000000
pampe'o present 0.0400000
pampe'o boyfriend 0.7142857
pampe'o not 0.0021739
pampe'o from 0.0053476
pampe'o my 0.0068493
pampe'o a 0.0023351
pampe'o girlfriend 0.2800000
.u'i &apos;s 0.0011025
.u'i , 0.0008203
.u'i = 0.1428571
.u'i NULL 0.0001695
.u'i Hahaha 0.5000000
.u'i that 0.0016420
.u'i Yawn 0.5000000
vlaste typical 0.0833333
vlaste a 0.0005838
vlaste dictionary 0.0625000
sfe'ero a 0.0005838
sfe'ero Swedish 1.0000000
xarpi hedge-pig 1.0000000
klinton Clinton 0.5000000
nagi'e fallacy 0.3333333
nagi'e A 0.0080000
nagi'e cat 0.0106383
nagi'e : 0.0238095
fintce &apos;m 0.0021786
sucku told 0.0140845
nolnau noblemen 0.5000000
nolnau please 0.0158730
nolnau Sir 0.1428571
nolnau you 0.0006456
nolnau gentleman 1.0000000
nolnau nobleman 0.5000000
nolnau if 0.0117647
tedycte Saturday 0.4000000
tedycte ! 0.0037383
tedycte night 0.0322581
.aipei sure 0.0344828
.aipei Do 0.0051020
.aipei Are 0.0090090
.aipei you 0.0006456
xecu'u don 0.0034965
xecu'u to 0.0004704
xecu'u hesitate 0.2000000
xecu'u &apos;t 0.0011919
la'o tatoeba.org 0.3333333
la'o SpaceChem 0.2500000
la'o Pharamp 0.2500000
la'o Willis 0.2000000
la'o Jiro 0.1666667
la'o headset 0.2500000
la'o Aoi 0.2500000
la'o GPS 0.1000000
la'o Halloween 0.1250000
la'o TATOEBA 0.2500000
la'o Millie 0.2500000
la'o Abraham 0.3333333
la'o rock 0.1428571
la'o Steins 0.5000000
la'o Microsoft 0.2000000
la'o ssh 0.1250000
la'o enchiladas 0.2500000
la'o Aix-la-Chapelle 0.1111111
la'o Vabungula 0.1428571
la'o Age 0.1666667
la'o Danny 0.5000000
la'o Yuelami 0.3333333
la'o Lee 0.5000000
la'o Tatoeba 0.0250000
la'o Auckland 0.3333333
la'o NNC 0.2500000
la'o Mrs. 0.0909091
la'o 2006 0.1428571
la'o Council 0.2500000
la'o Android 0.5000000
la'o Pinocchio 0.2500000
la'o Emi 0.2500000
la'o Mathematica 0.1578947
la'o Facebook 0.1000000
la'o Noelia 0.3333333
la'o Visa 0.1250000
la'o Klabaster 0.2857143
la'o a 0.0040864
la'o Russell 0.2500000
la'o Coke 0.1000000
la'o NULL 0.0003389
la'o is 0.0034878
la'o Funny 0.3333333
la'o route 0.5000000
la'o Ray 1.0000000
la'o Schlumbergera 0.5000000
la'o cntrational 0.1666667
la'o IBM 0.0909091
la'o favourite 0.3333333
la'o Laurie 0.0833333
panono 100 0.2857143
panono of 0.0034522
panono people 0.0080000
panono There 0.0060976
panono hundred 0.7500000
panono one 0.0099010
panono were 0.0093458
panono hundreds 0.2000000
jditce Determination 0.1666667
jditce everything 0.0222222
jditce is 0.0004983
gercmo like 0.0054054
gercmo bark 0.2000000
krinu why 0.0645161
krinu reason 0.3181818
krinu justified 0.3333333
krinu by 0.0126582
krinu did 0.0064516
krinu patriotism 0.2000000
krinu divorces 1.0000000
krinu real 0.0714286
krinu the 0.0017723
krinu because 0.0250000
krinu &apos;s 0.0033076
krinu Why 0.0068027
krinu NULL 0.0003389
nalska Colorless 0.2500000
la.tam. shorter 0.1666667
la.tam. Tom 0.0044709
la.tam. speaks 0.0434783
pante complaining 0.1666667
pante &apos;s 0.0011025
pante protested 1.0000000
pante complaints 0.2500000
pante complain 0.3333333
pante mind 0.0526316
pante to 0.0004704
pante complained 0.5000000
pante objected 0.3333333
nalcumki can 0.0039062
nalcumki &apos;m 0.0021786
nalcumki impossible 0.0434783
nalcumki &apos;t 0.0011919
nalcumki incredibly 1.0000000
nalcumki It 0.0027624
.anolulus. Honolulu 0.3333333
.anolulus. by 0.0063291
.anolulus. of 0.0011507
.anolulus. way 0.0140845
puzaku &apos;m 0.0021786
nictu helmet 0.2000000
jbogri Lojban 0.0103093
jbogri by 0.0063291
jbogri Group 0.2500000
jbogri said 0.0082645
la.osakan. Osaka 0.4285714
la.osakan. in 0.0028986
la.osakan. staying 0.0714286
la.osakan. been 0.0129870
binsaicti snacking 0.5000000
binsaicti habit 0.0666667
binsaicti the 0.0004431
binsaicti of 0.0011507
.ijebo At 0.0526316
.ijebo oustide 0.1666667
.ijebo be 0.0034014
.ijebo &apos;ll 0.0067114
.ijebo it 0.0018553
.ijebo Yes 0.0277778
.pitr. friend 0.0125000
.pitr. &apos;s 0.0011025
.pitr. , 0.0008203
.pitr. are 0.0015674
.pitr. aren 0.0555556
.pitr. &apos;t 0.0011919
.pitr. Peter 0.1000000
sabji NULL 0.0001695
sabji hand 0.0454545
sabji Never 0.0769231
sabji you 0.0006456
sabji that 0.0016420
sabji bite 0.1428571
sabji the 0.0004431
sabji feeds 0.1250000
la.bastn. Boston 0.0571429
la.bastn. on 0.0042735
tolcumla arrogant 1.0000000
tolcumla be 0.0034014
tolcumla to 0.0004704
tolcumla tends 0.0833333
falonu tell 0.0136986
falonu to 0.0004704
falonu possible 0.0555556
falonu be 0.0034014
falonu could 0.0222222
se'o I 0.0006431
tolkanpe her 0.0049261
tolkanpe unexpected 1.0000000
tcaudjo'us am 0.0048544
tcaudjo'us Teochew 0.3333333
.gandam. model 0.1000000
.gandam. building 0.0833333
.gandam. Gundam 0.2500000
.gandam. my 0.0022831
.gandam. finished 0.0625000
nurma remote 0.5000000
nurma in 0.0014493
nurma did 0.0064516
nurma countryside 0.4000000
nurma country 0.0303030
ci'arfi'i a 0.0005838
ci'arfi'i good 0.0095238
ci'arfi'i is 0.0004983
ci'arfi'i writer 0.2500000
dirba possession 1.0000000
dirba dear 0.2500000
dirba Plato 0.1000000
dirba most 0.0294118
dirba &apos;s 0.0011025
dirba give 0.0250000
dirba to 0.0004704
dirba everybody 0.1111111
dirba affection 1.0000000
dirba prized 1.0000000
dirba dearly 0.2500000
ba'e precedes 1.0000000
ba'e flies 0.5000000
ba'e &apos;e 0.2500000
ba'e ; 0.0232558
ba'e fool 0.0833333
ba'e not 0.0021739
ba'e NULL 0.0006779
ba'e equal 0.0909091
ba'e &apos;m 0.0021786
ba'e to 0.0009407
ba'e responsible 0.1428571
ba'e really 0.0285714
ba'e nuts 0.3333333
ba'e &apos;s 0.0022051
ba'e interesting 0.0555556
ba'e up 0.0100000
ba'e It 0.0110497
ba'e you 0.0019367
ba'e CAN 0.5000000
ba'e Monday 0.1111111
ba'e at 0.0037879
ba'e Do 0.0051020
ba'e are 0.0015674
ba'e dead 0.0333333
ba'e Susan 0.1428571
ba'e To 0.0188679
ba'e the 0.0004431
ba'e seems 0.0243902
ba'e all 0.0068493
ba'e * 0.2727273
jonai or 0.0081301
jonai skillful 1.0000000
jonai Either 0.1666667
georgias Georgia 0.5000000
sanji what 0.0274510
sanji of 0.0069045
sanji &apos;m 0.0043573
sanji knew 0.0500000
sanji ... 0.0232558
sanji aware 0.8125000
sanji I 0.0003215
sanji was 0.0021552
sanji that 0.0016420
sanji know 0.0284698
sanji happen 0.0666667
bridi predicate 1.0000000
pevglare hot 0.0344828
mu'ima Why 0.0272109
mu'ima Really 0.1333333
mu'ima ? 0.0022586
mu'ima these 0.0256410
mu'ima What 0.0028409
mu'ima motivation 1.0000000
mu'ima for 0.0024038
mu'ima is 0.0004983
mu'ima are 0.0015674
mu'ima the 0.0004431
lankyboiterjvi than 0.0077519
lankyboiterjvi basketball 0.1250000
pa'o across 0.1111111
pa'o traveled 0.2500000
pa'o through 0.0833333
pa'o cross 0.1666667
pa'o out 0.0108696
pa'o on 0.0042735
pa'o focus 0.5000000
bu'a existent 0.3333333
bu'a difficulties 0.4000000
bu'a that 0.0032841
bu'a NULL 0.0006779
ponpre Japanese 0.0384615
lacri can 0.0078125
lacri trust 0.7000000
lacri count 0.2000000
lacri dependable 1.0000000
lacri may 0.0277778
lacri NULL 0.0003389
lacri on 0.0085470
lacri &apos;t 0.0023838
lacri rely 0.7500000
lacri upon 0.1666667
seme'a wise 0.1111111
seme'a eats 0.0500000
trina find 0.0357143
trina in 0.0014493
trina attractive 0.3333333
trina nothing 0.0222222
trina to 0.0009407
trina appealing 0.5000000
trina drawn 0.3333333
xairi'a Sentences 0.1666667
kluce'u society 0.5000000
ju'u number 0.0250000
ju'u hexadecimal 0.2500000
ju'u 1010 0.1666667
ju'u base 0.3333333
ju'u in 0.0014493
ju'u equals 0.0588235
ju'u 2 0.0256410
ju'u dozen 0.1250000
tirna I 0.0003215
tirna can 0.0156250
tirna listened 0.1666667
tirna we 0.0089286
tirna could 0.0222222
tirna that 0.0016420
tirna heard 0.3448276
tirna NULL 0.0001695
tirna listening 0.3333333
tirna you 0.0006456
tirna hearing 0.2000000
tirna sound 0.0769231
tirna to 0.0004704
tirna listen 0.2000000
tirna hear 0.5263158
selcpe asks 0.2000000
selcpe he 0.0039216
selcpe anything 0.0128205
selcpe demands 0.3333333
va'ei if 0.0117647
xo'e Zurich 0.0909091
xo'e some 0.0096154
xo'e eighteen 0.1250000
balkulctu former 0.2000000
balkulctu a 0.0005838
gapci gas 0.5714286
gapci Gas 1.0000000
gapci Turn 0.0869565
gapci the 0.0008861
gapci gases 1.0000000
gapci pipes 0.3333333
gapci off 0.0425532
zu'a person 0.0185185
zu'a on 0.0042735
tolstace insincere 1.0000000
jinmrtantalu Tantalum 1.0000000
.oi no 0.0144928
.oi Ugh 1.0000000
.oi Ouch 0.6666667
.oi Mmm 0.5000000
.oi Oy 1.0000000
.oi so 0.0091743
.oi ! 0.0168224
.oi stinks 0.5000000
.oi What 0.0028409
.oi dragging 0.3333333
.oi NULL 0.0001695
.oi Yum 0.2500000
.oi mildly 0.2000000
.oi King 0.1250000
.oi now 0.0098039
.oi Ow 0.5000000
.oi Oh 0.0714286
.oi , 0.0024610
.oi Agh 0.5000000
terbi'e receive 1.0000000
terbi'e it 0.0018553
terbi'e should 0.0161290
mrobixsla &apos;s 0.0011025
mrobixsla funeral 0.2500000
mrobixsla When 0.0102041
mrobixsla the 0.0004431
Democratic influential 1.0000000
Democratic Party 0.2500000
Democratic and 0.0026247
Democratic prestigious 1.0000000
cmicu'a vote 1.0000000
cmicu'a won 0.0192308
jinmrberilo Beryllium 1.0000000
terpa scaring 1.0000000
terpa You 0.0023697
terpa fear 0.4000000
terpa were 0.0093458
terpa scare 1.0000000
terpa be 0.0034014
terpa scared 0.4444444
terpa people 0.0080000
terpa afraid 0.6969697
terpa is 0.0019930
terpa NULL 0.0008473
terpa not 0.0043478
terpa They 0.0063291
terpa was 0.0043103
terpa of 0.0218642
terpa &apos;re 0.0128205
terpa &apos;m 0.0087146
terpa am 0.0048544
terpa frighten 0.3333333
nukni magenta 1.0000000
nukni are 0.0015674
toltatpi more 0.0094340
toltatpi I. 0.3333333
toltatpi than 0.0077519
toltatpi have 0.0024752
toltatpi energy 0.5000000
kostarikas Rica 1.0000000
kostarikas Costa 1.0000000
xrukla to 0.0004704
xrukla be 0.0034014
xrukla come 0.0222222
xrukla back 0.1250000
xrukla return 0.0769231
crida Exactly 0.1000000
crida exactly 0.0526316
crida who 0.0081301
crida are 0.0015674
crida each 0.0212766
crida There 0.0060976
crida fairy 0.2500000
crida goblins 0.5000000
prujeftu already 0.0434783
prujeftu old 0.0128205
prujeftu weeks 0.0526316
prujeftu two 0.0088496
lazni one 0.0148515
lazni lazy 0.7142857
lazni NULL 0.0003389
lazni make 0.0303030
lazni be 0.0068027
lazni keeping 0.3333333
lazni it 0.0018553
lazni faithful 0.5000000
lazni in 0.0014493
lazni slowest 0.2857143
lazni are 0.0015674
bavlamna'a year 0.0909091
la.cev. God 0.0294118
la.cev. in 0.0014493
truralju Prime 0.2500000
truralju Minister 1.0000000
truralju be 0.0034014
eliogabalus Elagabalus 1.0000000
mark been 0.0129870
mark had 0.0084034
mark Mark 0.2500000
vi'opei Be 0.0384615
vi'opei OK 0.2222222
vi'opei , 0.0008203
vi'opei ? 0.0011293
vi'opei careful 0.0769231
vi'opei Go 0.0270270
cibmakfa order 0.1111111
cibmakfa of 0.0011507
cibmakfa triforce 0.5000000
cibmakfa , 0.0008203
cibmakfa wisdom 0.3333333
cibmakfa in 0.0014493
selcilre is 0.0004983
selcilre learned 0.1428571
selcilre soon 0.0277778
tu'e law 0.1428571
la.djak. on 0.0042735
la.djak. Jack 0.0476190
la.djak. count 0.2000000
nafmupli Portugal 0.2000000
fenki is 0.0004983
fenki ! 0.0037383
fenki mad 0.1666667
fenki nuts 0.3333333
fenki den 0.5000000
fenki crazies 0.5000000
fenki were 0.0093458
fenki &apos;re 0.0128205
fenki of 0.0023015
fenki crazy 0.5000000
fenki completely 0.1428571
fenki nut 0.5000000
paroi remains 0.2500000
paroi have 0.0024752
paroi This 0.0030120
paroi time 0.0112360
paroi only 0.0113636
paroi Europe 0.0625000
paroi coughed 0.3333333
paroi first 0.0689655
paroi once 0.0400000
paroi in 0.0014493
paroi vivid 0.3333333
paroi Avnery 0.5000000
paroi my 0.0045662
paroi NULL 0.0001695
paroi since 0.1111111
paroi is 0.0004983
paroi memory 0.1250000
gugde'itu first 0.0689655
gugde'itu time 0.0224719
.liz. this 0.0026810
.liz. Liz 0.2000000
rolo every 0.0136986
rolo in 0.0014493
ta aboard 1.0000000
ta bother 0.3333333
ta Pshaw 0.2500000
ta Mortimer 0.1666667
ta it 0.0092764
ta entered 0.1111111
ta teenagers 0.0909091
ta color 0.0909091
ta address 0.1000000
ta streetlight 0.3333333
ta contrary 0.1666667
ta NULL 0.0006779
ta is 0.0209268
ta Is 0.0111111
ta him 0.0137931
ta friends 0.0181818
ta She 0.0170940
ta he 0.0039216
ta &apos;s 0.0264609
ta owns 0.1111111
ta them 0.0175439
ta surprise 0.0625000
ta That 0.3452915
ta down 0.0212766
ta there 0.0859375
ta thing 0.0322581
ta his 0.0034247
ta Okay 0.1428571
ta It 0.0027624
ta smells 0.1666667
ta Turn 0.0434783
ta s 0.2000000
ta rudeness 0.2857143
ta removed 0.3333333
ta performance 0.2500000
ta studies 0.1250000
ta buyer 0.5000000
ta one 0.0099010
ta bloody 0.3333333
ta . 0.0016005
ta He 0.0151007
ta room 0.0196078
ta hers 0.1428571
ta statement 0.1000000
ta pocket 0.2500000
ta hotel 0.0555556
ta girlfriend 0.0400000
ta Those 0.0400000
ta that 0.1116585
.smit. Mrs. 0.0909091
.smit. goes 0.0204082
.smit. Smith 0.2500000
tcila described 0.3333333
tcila scene 0.0833333
tcila detailed 0.3333333
tcila in 0.0028986
tcila She 0.0028490
tcila the 0.0004431
tcila detail 0.3333333
cinri fascinated 0.5000000
cinri interest 0.4000000
cinri most 0.0294118
cinri That 0.0044843
cinri interesting 0.6666667
cinri This 0.0030120
cinri question 0.0344828
cinri phenomenon 1.0000000
cinri interested 0.3529412
cinri NULL 0.0001695
cinri interests 0.5000000
cinri of 0.0011507
cinri &apos;m 0.0043573
cinri From 0.2500000
cinri it 0.0055659
cinri no 0.0072464
cinri am 0.0097087
cinri in 0.0101449
cinri by 0.0063291
cinri cares 0.1111111
cinri The 0.0015432
.inaja property 0.5000000
cinse NULL 0.0001695
cinse She 0.0028490
cinse sexually 0.5000000
.karmen. Carmen 0.5000000
.karmen. is 0.0004983
.karmen. a 0.0005838
jikca anyone 0.0285714
jikca see 0.0076923
jikca social 1.0000000
selkei toys 0.5000000
selkei basketball 0.2500000
selkei toy 0.6250000
selkei who 0.0081301
selkei coach 0.1250000
selkei NULL 0.0001695
selkei playthings 0.1666667
selkei Gundam 0.2500000
nunglecau before 0.0166667
nunglecau abstinence 0.5000000
klasika classical 0.2000000
klasika to 0.0004704
rere ten 0.0526316
rere &apos;clock 0.1818182
rere o 0.0454545
crakla Proceed 0.3333333
crakla caution 0.3333333
crakla with 0.0040486
nunjamna Anglo-Zanzibar 0.2000000
nunjamna detests 1.0000000
nunjamna war 0.1818182
nunjamna War 0.1666667
nunjamna Wars 0.5000000
cumri'a helping 0.2000000
cumri'a NULL 0.0001695
cumri'a me 0.0037313
cumri'a impact 0.3333333
cumri'a enabled 0.5000000
mi'amli Everyone 0.0212766
mi'amli giggled 0.3333333
Minh City 0.1000000
Minh Minh 0.5000000
depyjdari patiently 0.5000000
depyjdari After 0.2500000
za'uda There 0.0060976
za'uda nothing 0.0222222
za'uda &apos;s 0.0011025
za'uda more 0.0094340
banginu'a Interlingua 0.3333333
[jo'au To 0.0188679
eidai come 0.0111111
eidai must 0.0156250
eidai You 0.0023697
la.sasa,iaman. Sasayama 1.0000000
pare is 0.0004983
pare year 0.0909091
pare dozen 0.2500000
pare A 0.0160000
pare has 0.0089286
pare 25th 0.1428571
pare She 0.0028490
pare twelve 0.5000000
mobyterle'i are 0.0031348
mobyterle'i also 0.1428571
mobyterle'i underpaid 1.0000000
mobyterle'i secretaries 1.0000000
mobyterle'i professors 0.0769231
la.li,in. Ying 1.0000000
xajrectu pork 1.0000000
saske history 0.1250000
saske science 0.1111111
saske sciences 0.6000000
saske chemistry 0.2500000
saske knowing 0.1111111
saske medicine 0.1111111
saske NULL 0.0001695
saske about 0.0056818
saske anthropology 0.3333333
saske harder 0.0714286
saske Myrmecology 0.5000000
saske something 0.0104167
saske are 0.0015674
saske Science 1.0000000
saske biology 0.2500000
kulnr,farsi Persian 1.0000000
uikipidias Wikipedia 1.0000000
pesku'i How 0.0093897
pesku'i ! 0.0037383
pesku'i considerate 1.0000000
pesku'i of 0.0023015
fla,ui,us.iulius Constantius 0.3333333
livga damages 1.0000000
livga Alcohol 0.2500000
livga liver 0.2000000
livga the 0.0004431
bevri it 0.0018553
bevri carry 0.4285714
bevri got 0.0133333
bevri baggage 0.3333333
bevri NULL 0.0001695
bevri They 0.0063291
bevri me 0.0055970
bevri any 0.0172414
bevri away 0.0270270
bevri mobile 0.1666667
bevri brought 0.0625000
bevri carried 0.6000000
bevri carrying 0.3333333
bevri Bring 0.4000000
bevri bring 0.2727273
bevri take 0.0789474
camki'a scream 0.1111111
anai goes 0.0204082
anai if 0.0117647
krasi of 0.0023015
krasi be 0.0034014
krasi the 0.0013292
krasi babies 1.0000000
krasi come 0.0222222
krasi start 0.0344828
krasi something 0.0104167
krasi is 0.0004983
krasi NULL 0.0005084
krasi from 0.0374332
krasi root 0.3333333
krasi origin 1.0000000
krasi big 0.0200000
zerle'a robber 0.2500000
zerle'a robbed 0.3333333
zerle'a NULL 0.0006779
zerle'a steal 0.3333333
zerle'a ripped 0.3333333
zerle'a stealing 0.4000000
zerle'a Someone 0.1052632
zerle'a pickpockets 0.5000000
zerle'a stolen 0.3076923
zerle'a stole 0.4545455
zerle'a been 0.0129870
zerle'a robbery 1.0000000
nagi'enai lender 0.5000000
nagi'enai or 0.0081301
nagi'enai disappointed 0.5000000
nagi'enai Neither 0.4000000
nagi'enai get 0.0104167
virnu &apos;m 0.0021786
virnu the 0.0004431
virnu are 0.0015674
virnu as 0.0105263
virnu she 0.0165289
virnu brave 1.0000000
virnu was 0.0043103
virnu , 0.0008203
cintypu'i paints 0.3333333
cintypu'i paint 0.3333333
cintypu'i at 0.0037879
cintypu'i painted 0.6666667
selgungunma task 0.2500000
selgungunma project 0.0909091
selgungunma &apos;s 0.0011025
selgungunma true 0.0303030
selgungunma that 0.0016420
zasni causes 0.2500000
taibo much 0.0116279
tasta meant 0.1000000
tasta NULL 0.0001695
tasta taste 0.1111111
tasta originally 0.5000000
tasta ” 0.3333333
tasta it 0.0018553
tasta “ 0.2000000
tasta salty 0.2500000
tasta sweet 0.0833333
filrai easiest 1.0000000
xagze'a It 0.0027624
xagze'a improved 1.0000000
xagze'a &apos;s 0.0011025
xagze'a . 0.0001143
jalgau when 0.0075758
jalgau crashed 0.2000000
jalgau influence 0.5000000
jalgau of 0.0011507
jalgau he 0.0039216
jalgau alcohol 0.3333333
jalgau his 0.0034247
saras Sarah 0.4000000
saras sings 0.2222222
tuple legs 0.5000000
tuple are 0.0015674
tuple leg 0.5555556
mulis. &apos;s 0.0011025
mulis. , 0.0024610
mulis. brought 0.0625000
mulis. Mooli 0.3181818
mulis. his 0.0034247
mulis. pretending 0.2000000
mulis. house 0.0081967
ka'a for 0.0072115
ka'a London 0.0333333
ka'a NULL 0.0001695
ka'a by 0.0063291
ka'a Where 0.0044248
relxilma'e rode 0.5000000
relxilma'e bicycle 0.7142857
relxilma'e bike 0.2857143
relxilma'e Whose 0.0322581
relxilma'e a 0.0017513
relxilma'e sheds 0.1666667
relxilma'e belongs 0.0370370
ko'o love 0.0061350
ko'o respectively 0.1666667
ko'o , 0.0008203
ko'o her 0.0098522
va seldom 0.2500000
va observed 0.2000000
va branch 0.3333333
va contraption 0.1666667
va cleans 0.2000000
va That 0.1076233
va there 0.1640625
va near 0.0588235
va Those 0.1200000
va There 0.0304878
va beach 0.1111111
va that 0.0361248
va barbershop 0.5000000
va story 0.0384615
va those 0.0416667
va camera 0.1538462
va guy 0.0909091
va around 0.1176471
va over 0.0384615
va tree 0.0400000
va beside 0.3333333
va sit 0.0769231
va houses 0.1764706
va NULL 0.0003389
va taking 0.0714286
va notebook 0.2500000
po'o language 0.0123457
po'o He 0.0016779
po'o Determination 0.1666667
po'o chains 0.3333333
po'o answered 0.1111111
po'o the 0.0004431
po'o subjects 0.1428571
po'o Only 0.0833333
po'o later 0.0714286
po'o employees 0.5000000
po'o who 0.0162602
po'o 1,000,000 0.2000000
po'o can 0.0039062
po'o indie 0.5000000
po'o paint 0.3333333
po'o roach 0.2500000
po'o tries 0.6666667
po'o way 0.0140845
po'o alone 0.0227273
po'o Takeuchi 0.5000000
po'o only 0.2386364
po'o &apos;s 0.0033076
po'o It 0.0027624
po'o Other 0.2500000
po'o lenses 0.2500000
po'o figment 0.2500000
po'o helmet 0.2000000
po'o speaks 0.0434783
po'o thing 0.0645161
po'o person 0.0185185
po'o The 0.0015432
po'o customer 0.3333333
po'o One 0.0444444
po'o a 0.0029189
po'o afford 0.3333333
po'o is 0.0014948
po'o percent 0.2000000
po'o just 0.0987654
skari of 0.0011507
skari are 0.0015674
skari those 0.0416667
skari Color 1.0000000
skari non-red 0.5000000
skari NULL 0.0003389
skari a 0.0011675
skari color 0.3636364
skari What 0.0028409
.pol Bunyan 0.5000000
.pol about 0.0056818
dzipo Southern 1.0000000
dzipo Antarctic 0.5000000
.teodoros. the 0.0004431
.teodoros. Theodore 0.5000000
.teodoros. owns 0.1111111
.teodoros. rose 0.1111111
nunselnandu hardest 0.5000000
nunselnandu &apos;ve 0.0131579
nunselnandu ever 0.0400000
nunselnandu done 0.0192308
nunselnandu thing 0.0322581
cartu diagram 1.0000000
cartu timetable 0.5000000
cartu map 1.0000000
cartu a 0.0011675
cartu chart 0.2000000
cartu Periodic 0.3333333
zei'a way 0.0140845
zei'a getting 0.0869565
zei'a is 0.0004983
zei'a , 0.0008203
zei'a more 0.0094340
zei'a it 0.0018553
zei'a stopping 0.3333333
zei'a Apparently 0.0714286
pe'u you 0.0019367
pe'u don 0.0034965
pe'u Check 0.3333333
pe'u Please 0.0652174
pe'u something 0.0104167
pe'u . 0.0003430
pe'u their 0.0212766
pe'u NULL 0.0001695
pe'u sit 0.0769231
pe'u Sing 0.3333333
pe'u &apos;t 0.0011919
pe'u Why 0.0068027
pe'u pacing 0.1666667
pe'u Could 0.0833333
pe'u put 0.0270270
pe'u please 0.0476190
pe'u move 0.0909091
taksi a 0.0005838
taksi taken 0.1428571
taksi have 0.0024752
taksi taxi 0.4000000
.iki'ubo My 0.0022883
.iki'ubo because 0.0125000
.iki'ubo Chinese 0.0357143
.iki'ubo There 0.0060976
.iki'ubo dishes 0.2000000
.iki'ubo . 0.0003430
iinai I 0.0003215
iinai . 0.0001143
iinai &apos;m 0.0021786
iinai afraid 0.0303030
iinai not 0.0021739
snura be 0.0068027
snura &apos;m 0.0021786
snura safe 0.6000000
snura saved 0.2000000
snura by 0.0063291
snura now 0.0098039
snura beauty 0.1428571
snura a 0.0005838
snura threat 0.1666667
ci NULL 0.0008473
ci farther 0.5000000
ci approximately 0.5000000
ci 3 0.2222222
ci has 0.0133929
ci Three 0.5000000
ci three 0.7555556
ci of 0.0011507
ci -3 0.2500000
ci third 0.1000000
ci 10- 0.2500000
purmo flour 0.5000000
purmo from 0.0053476
purmo NULL 0.0001695
purmo powder 0.5000000
purmo Flour 0.2000000
baca'o will 0.0048309
baca'o continue 0.2000000
baca'o to 0.0004704
baca'o mother 0.0099010
baca'o , 0.0016407
baca'o my 0.0022831
ce'i of 0.0011507
ce'i percent 0.2000000
ce'i % 0.3333333
banru'usu in 0.0014493
banru'usu language 0.0123457
banru'usu liberty 0.1666667
banru'usu for 0.0024038
banru'usu the 0.0004431
banru'usu Russian 0.0769231
nurxru rescued 0.5000000
nurxru my 0.0022831
nurxru life 0.0285714
nurxru saved 0.2000000
nurxru redeemed 0.5000000
gasmlu feel 0.0285714
Willis animal 0.4000000
Willis Willis 0.2000000
Willis formidable 0.3333333
Willis a 0.0011675
atenais Athens 0.3333333
xa'urbi'o land 0.2000000
pimu half 0.0666667
pimu always 0.0142857
pimu not 0.0021739
pimu full 0.0769231
pimu is 0.0004983
fe'o ! 0.0037383
fe'o a 0.0005838
fe'o Have 0.0256410
fe'o is 0.0004983
fe'o day 0.0123457
fe'o . 0.0001143
fe'o nice 0.0303030
fe'o This 0.0030120
fe'o over 0.0192308
fe'o discussion 0.1428571
patagonias. Araucanía 0.2500000
.xelvetik. Uyghurs 0.3333333
.xelvetik. 80 1.0000000
.xelvetik. Switzerland 0.3333333
.xelvetik. only 0.0113636
.xelvetik. in 0.0014493
.xelvetik. are 0.0015674
selja'o pictures 0.0909091
selja'o sold 0.5000000
selja'o were 0.0093458
selja'o exhibition 0.2000000
selja'o on 0.0085470
termenvoks in 0.0014493
termenvoks but 0.0082645
termenvoks ( 0.0140845
termenvoks 1920 0.5000000
jmina adding 0.5000000
jmina feed 0.3333333
jmina ability 0.1666667
jmina the 0.0004431
jmina contribute 0.1666667
jmina add 0.5000000
jmina things 0.0192308
jmina NULL 0.0003389
pilda pale 0.5000000
dapma She 0.0028490
dapma about 0.0056818
dapma our 0.0212766
dapma often 0.0434783
dapma spoke 0.1428571
dapma curse 0.1250000
.romios. instantly 0.1428571
.romios. Romeo 0.2500000
ken are 0.0015674
ken friends 0.0181818
ken Ken 0.1250000
ken and 0.0026247
kamfarvi Human 0.1111111
kamfarvi Development 1.0000000
dukse &apos;re 0.0064103
dukse &apos;m 0.0021786
dukse no 0.0144928
dukse it 0.0018553
dukse is 0.0014948
dukse exercise 0.1250000
dukse chatter 0.5000000
dukse Too 0.3333333
dukse too 0.4125000
dukse liar 0.3333333
dukse have 0.0024752
dukse extra 1.0000000
dukse It 0.0055249
dukse &apos;s 0.0110254
dukse That 0.0179372
dukse We 0.0041841
dukse much 0.0697674
dukse irregular 0.5000000
condi deep 0.5000000
condi it 0.0018553
.bancus. , 0.0008203
.bancus. Bancus 0.3333333
stedu hurts 0.0454545
stedu NULL 0.0001695
stedu helmet 0.2000000
stedu my 0.0022831
stedu head 0.3333333
stedu Head 1.0000000
stedu headache 0.6666667
stedu while 0.0222222
stedu tree 0.0400000
stedu whenever 0.1250000
stedu overhead 0.2000000
stedu why 0.0322581
rarske Natural 0.3333333
rarske science 0.1111111
miraris.uos Vos 1.0000000
miraris.uos Mirari 1.0000000
pinxe Eat 0.1111111
pinxe Tea 0.1666667
pinxe drinkable 0.2500000
pinxe Drinking 0.2222222
pinxe drink 0.8852459
pinxe Drink 0.2000000
pinxe drinking 0.6785714
pinxe NULL 0.0008473
pinxe drunk 0.1875000
pinxe tea 0.0178571
pinxe a 0.0005838
pinxe Have 0.0256410
pinxe wine 0.0666667
pinxe drank 0.7142857
pinxe trink 1.0000000
pinxe drinks 0.5263158
ratni Atom 1.0000000
ratni NULL 0.0001695
kotygu'e for 0.0024038
kotygu'e Scotland 1.0000000
snucanci away 0.0270270
snucanci died 0.0232558
snucanci parade 0.3333333
mluske Phenomenology 1.0000000
pujaca manuscript 0.5000000
pujaca by 0.0063291
kanadas to 0.0004704
kanadas Canada 0.0714286
bancuvysi'o purism 1.0000000
bancuvysi'o Linguistic 1.0000000
bavla'ima'i her 0.0049261
bavla'ima'i next 0.0294118
bavla'ima'i job 0.0232558
bavla'ima'i month 0.0909091
bavla'ima'i quit 0.0588235
plimyt. Plymouth 0.5000000
plimyt. of 0.0011507
grasu greasy 0.2500000
dugri natural 0.1250000
dugri e 0.1818182
dugri logarithm 0.5000000
.kurosa,uan. one 0.0049505
.kurosa,uan. least 0.0400000
.kurosa,uan. Kurosawa 0.3333333
.kurosa,uan. film 0.1250000
.kurosa,uan. at 0.0037879
mlemau is 0.0004983
mlemau one 0.0049505
mlemau prettier 1.0000000
kenra became 0.0454545
kenra cancer 0.3333333
kenra ill 0.0666667
kenra with 0.0040486
seltra His 0.0156250
seltra up 0.0100000
seltra behaviour 0.5000000
seltra with 0.0040486
seltra way 0.0140845
seltra annoys 0.3333333
seltra put 0.0270270
seltra behaves 0.2000000
seltra he 0.0039216
tai online 0.1000000
tai that 0.0065681
tai It 0.0027624
tai like 0.0243243
tai How 0.0046948
tai Thus 0.3333333
tai bark 0.1000000
tai harder 0.0714286
tai questions 0.0625000
tai delicious 0.0526316
tai way 0.0985915
tai NULL 0.0003389
tai jam 0.1666667
tai so 0.1009174
tai of 0.0011507
tai it 0.0018553
tai as 0.0210526
tai joke 0.1000000
tai As 0.0588235
ji'ini'u old 0.0128205
ji'ini'u eighteen 0.1250000
ji'ini'u years 0.0125000
ji'ini'u am 0.0048544
je'asai really 0.0142857
je'asai got 0.0133333
farna trip 0.1818182
farna way 0.0422535
gundi industry 0.5000000
ci'arse'u where 0.0235294
ci'arse'u the 0.0004431
ci'arse'u works 0.1052632
ci'arse'u place 0.0588235
ci'arse'u secretary 0.2500000
ci'arse'u as 0.0210526
ci'arse'u a 0.0011675
ci'arse'u she 0.0165289
jegi NULL 0.0001695
jegi every 0.0136986
ridjinme Cobalt 1.0000000
nuncfa all 0.0068493
nuncfa origination 1.0000000
nuncfa is 0.0004983
sapcki put 0.0270270
sapcki plain 0.3333333
sapcki language 0.0123457
sapcki in 0.0014493
sapcki it 0.0018553
xrucof. Khrushchev 1.0000000
su'i quarter 0.2000000
su'i 2 0.0512821
su'i Two 0.1176471
su'i 11 0.2500000
su'i equals 0.1764706
su'i + 0.2500000
su'i plus 0.6000000
su'i eight-thirty 0.0769231
camgusmis Heh 0.2000000
camgusmis Camgusmis 0.3333333
camgusmis , 0.0008203
taj,ma'al. Taj 0.5000000
taj,ma'al. , 0.0016407
taj,ma'al. the 0.0004431
taj,ma'al. Mahal 0.5000000
pinocchio : 0.0238095
pinocchio Pinocchio 0.2500000
pinocchio says 0.0294118
tsani The 0.0030864
tsani skies 0.3333333
tsani skyful 0.5000000
tsani sky 0.9655172
tervecnu you 0.0006456
tervecnu buy 0.0434783
gy. password 0.1428571
gy. upper-case 0.3333333
gy. Party 0.2500000
gy. rock 0.1428571
du'o Data 0.2500000
du'o Under 0.3333333
du'o &apos;s 0.0011025
du'o According 0.2000000
du'o ! 0.0018692
du'o Christianity 0.3333333
du'o great 0.0200000
du'o think 0.0081967
du'o that 0.0016420
xunselska best 0.0303030
xunselska colour 0.1000000
ketlete Body 1.0000000
ketlete index 1.0000000
ketlete mass 0.5000000
dzitumbau Dutch 0.1111111
dzitumbau in 0.0014493
dzitumbau ! 0.0018692
dzitumbau speaking 0.0714286
tolplixau pointless 1.0000000
tolplixau to 0.0004704
tolplixau is 0.0004983
tolplixau useless 0.2500000
la.djudis. Judy 0.3333333
rirxe Nile 0.2500000
rirxe in 0.0057971
rirxe any 0.0344828
rirxe That 0.0044843
rirxe beside 0.3333333
rirxe River 0.5000000
rirxe a 0.0017513
rirxe river 0.6363636
rirxe is 0.0004983
sauron. wants 0.0243902
sauron. every 0.0136986
sauron. Sauron 0.3333333
so'u year 0.0454545
so'u There 0.0060976
so'u few 0.3333333
so'u NULL 0.0003389
so'u &apos;t 0.0011919
so'u a 0.0017513
so'u A 0.0080000
so'u little 0.0338983
so'u own 0.0277778
so'u many 0.0119048
so'u Kyoto 0.0714286
so'u questions 0.0625000
so'u Few 0.3333333
so'u bag 0.0666667
so'u doesn 0.0104167
coi who 0.0081301
coi greetings 0.5000000
coi Hey 0.0526316
coi how 0.0247934
coi Day 0.5000000
coi Again 0.5000000
coi ! 0.0485981
coi Good 0.1481481
coi NULL 0.0003389
coi this 0.0053619
coi Hello 0.7692308
coi . 0.0004573
coi Jacques 0.2000000
coi &quot; 0.0048426
coi hi 0.5000000
coi , 0.0254307
coi Hi 0.9615385
coi Greetings 0.5000000
coi evening 0.2727273
tezu'e to 0.0004704
tezu'e meet 0.0434783
tezu'e books 0.0169492
tezu'e careful 0.0769231
tezu'e library 0.0740741
tezu'e so 0.0091743
tezu'e we 0.0089286
tezu'e here 0.0116279
tezu'e NULL 0.0006779
tezu'e may 0.0277778
tezu'e saplings 0.3333333
tezu'e Come 0.0277778
tezu'e have 0.0024752
tezu'e and 0.0026247
tezu'e relax 0.1428571
tezu'e avoid 0.1428571
tezu'e you 0.0006456
zambias Zambia 1.0000000
.i'ecai great 0.0400000
.i'ecai a 0.0005838
.i'ecai ! 0.0037383
.i'ecai That 0.0089686
.i'ecai &apos;s 0.0022051
bandu'e'u German 0.1200000
bandu'e'u worry 0.0666667
sipku'a now 0.0098039
sipku'a her 0.0049261
sipku'a &apos;s 0.0011025
sipku'a straightening 0.5000000
sipku'a She 0.0028490
stuvi'e in 0.0028986
stuvi'e excited 0.2000000
stuvi'e of 0.0011507
stuvi'e Italy 0.1538462
stuvi'e for 0.0048077
stuvi'e being 0.0212766
spesti divorce 0.5000000
spesti divorced 1.0000000
spesti am 0.0048544
tokios. here 0.0058140
tokios. to 0.0009407
tokios. Tokyo 0.0444444
in &apos; 0.0285714
velmicyxu'i medicine 0.2222222
velmicyxu'i nearby 0.2857143
velmicyxu'i pharmacy 0.1538462
velmicyxu'i a 0.0011675
grana stick 0.2500000
grana melting 0.2000000
grana cane 0.5000000
grana and 0.0052493
grana rods 1.0000000
junla are 0.0015674
junla watch 0.2857143
junla same 0.0625000
junla Something 0.1000000
junla thirteen 0.2000000
junla one 0.0049505
junla is 0.0004983
junla clock 0.5357143
junla clocks 0.3333333
pinji Penis 1.0000000
kibro online 0.1000000
kibro internet 0.2000000
kibro website 1.0000000
kibro design 0.5000000
kibro Internet 0.1250000
mu'eske Cosmology 1.0000000
te'o ( 0.0140845
te'o ) 0.0136986
te'o of 0.0023015
te'o 1 0.1428571
te'o e 0.4545455
te'o = 0.1428571
te'o ln 1.0000000
de'u say 0.0123457
de'u in 0.0014493
de'u it 0.0018553
de'u responsible 0.1428571
de'u down 0.0212766
de'u ignore 0.1250000
de'u you 0.0006456
de'u that 0.0032841
de'u for 0.0024038
tcetce Your 0.0166667
tcetce mamma 0.5000000
tcetce so 0.0091743
tcetce &apos;s 0.0011025
nelzma prefer 0.0588235
dinjbera Can 0.0156250
bavycu'i discuss 0.0625000
bavycu'i often 0.0434783
bavycu'i future 0.1111111
bavycu'i our 0.0212766
bavycu'i would 0.0140845
katcpi birds 0.0769231
katcpi prey 0.3333333
katcpi of 0.0011507
ricfu day 0.0123457
ricfu moment 0.0526316
ricfu Then 0.1428571
ricfu both 0.0312500
ricfu escape 1.0000000
ricfu was 0.0021552
ricfu one 0.0049505
ricfu is 0.0009965
ricfu from 0.0053476
ricfu NULL 0.0001695
ricfu richer 1.0000000
ricfu affluent 1.0000000
ricfu wealth 0.3333333
ricfu rich 0.9473684
ricfu are 0.0015674
ricfu be 0.0068027
ricfu there 0.0078125
ricfu were 0.0093458
ricfu &apos;s 0.0011025
ricfu at 0.0075758
seri'anai that 0.0016420
seri'anai me 0.0018657
seri'anai from 0.0053476
seri'anai but 0.0082645
seri'anai stop 0.0357143
seri'anai doesn 0.0104167
seri'anai am 0.0048544
seri'anai food 0.0277778
seri'anai being 0.0212766
Machines.gy. Amsterdam 0.5000000
vonmoija'a NULL 0.0001695
kliru Chlorine 1.0000000
cifyge'u puppy 0.1428571
cifyge'u us 0.0156250
cifyge'u a 0.0005838
ni expensive 0.0416667
ni fluency 0.2500000
ni energy 0.5000000
ni exact 0.2500000
ni slowest 0.1428571
ni universe 0.2000000
ni increase 0.3333333
ni difficult 0.0303030
ni cold 0.0243902
ni sizes 0.2000000
ni smart 0.0588235
ni more 0.0188679
ni health 0.0476190
ni expenses 0.1250000
ni extent 0.2000000
ni due 0.5000000
ni for 0.0024038
ni decreasing 0.2500000
ni glass 0.0454545
ni we 0.0089286
ni hurry 0.1428571
ni happier 0.3333333
ni unit 0.2000000
ni Everest 0.5000000
ni are 0.0015674
ni speaks 0.0434783
ni honor 0.2000000
ni tall 0.1333333
ni kind 0.0133333
ni proven 1.0000000
ni faithful 0.5000000
ni bit 0.0714286
ni is 0.0014948
ni NULL 0.0018641
ni man 0.0117647
selstu in 0.0014493
caze'aca these 0.0256410
caze'aca worse 0.2500000
caze'aca days 0.0370370
caze'aca getting 0.0434783
ju'a Everything 0.0416667
ju'a don 0.0034965
ju'a * 0.1818182
ju'a Alcohol 0.2500000
ga'inai sir 0.3333333
ga'inai , 0.0016407
ga'inai Er 1.0000000
ga'inai Sir 0.1428571
draci play 0.0285714
draci NULL 0.0001695
draci begin 0.1428571
.pinbol. game 0.0526316
.pinbol. The 0.0015432
.pinbol. of 0.0011507
.pinbol. pinball 0.2500000
xatra letter 0.7200000
xatra wrote 0.0333333
xatra written 0.1000000
xatra letters 0.3125000
xatra now 0.0196078
xatra these 0.0256410
xatra a 0.0011675
leva those 0.0416667
clita tolerate 0.3333333
clita rudeness 0.1428571
clita his 0.0034247
rom Rome 0.2142857
rom in 0.0014493
rom wasn 0.0400000
rom &apos;t 0.0011919
rom once 0.0400000
rom lived 0.0400000
sidartas.gautamas Buddha 0.1428571
sidartas.gautamas Gautama 1.0000000
selcru hardware 1.0000000
selcru available 1.0000000
selcru rights 0.3333333
selcru required 0.3333333
selcru Human 0.1111111
selcru here 0.0058140
.abu B 0.2000000
.abu her 0.0049261
.abu A 0.0160000
kafyzarci coffee 0.0181818
kafyzarci there 0.0078125
kafyzarci shop 0.1111111
kafyzarci over 0.0192308
li'u better 0.0277778
li'u Answer 0.2352941
li'u &quot; 0.1937046
li'u . 0.0001143
li'u : 0.0714286
li'u object 0.1666667
li'u , 0.0016407
li'u ? 0.0056465
li'u Neither 0.2000000
li'u Fifty-six 0.5000000
li'u study 0.0238095
li'u goodbye 0.1250000
li'u Thunder 0.2000000
li'u hole 0.1666667
li'u say 0.0370370
li'u thanks 0.0909091
li'u NULL 0.0008473
li'u ” 0.3333333
li'u Keiko 0.3333333
li'u Friend 0.3333333
toldu'e too 0.0250000
toldu'e little 0.0169492
toldu'e much 0.0116279
kansi'u together 0.1428571
kansi'u carry 0.1428571
kansi'u several 0.1666667
bevma'e almost 0.0500000
bevma'e backed 0.5000000
bevma'e truck 0.3333333
bevma'e run 0.0400000
bevma'e up 0.0100000
brito Britain 0.3333333
brito NULL 0.0001695
brito about 0.0056818
brito hear 0.0263158
brito in 0.0014493
brito English 0.0069444
brito school 0.0153846
brito life 0.0285714
ju'ocu'i put 0.0270270
ju'ocu'i it 0.0018553
ju'ocu'i should 0.0161290
ju'ocu'i &apos;m 0.0021786
ju'ocu'i where 0.0117647
ju'ocu'i sure 0.0344828
ju'ocu'i month 0.0909091
ju'ocu'i &apos;s 0.0011025
ju'ocu'i Maybe 0.1250000
ju'ocu'i I 0.0003215
ju'ocu'i not 0.0021739
ju'ocu'i this 0.0026810
pluta get 0.0937500
pluta beach 0.1111111
pluta way 0.0563380
pluta path 0.6666667
pluta X 0.0833333
pluta I 0.0028939
pluta do 0.0234604
pluta How 0.0375587
pluta to 0.0056444
zdifri is 0.0004983
zdifri fun 0.0370370
zdifri something 0.0104167
seri'i With 0.1666667
ciska wrote 0.3666667
ciska NULL 0.0010168
ciska write 0.7500000
ciska writing 0.5909091
ciska Write 0.5714286
ciska down 0.1063830
ciska it 0.0037106
ciska written 0.2000000
ciska programming 0.2000000
ciska &apos;m 0.0021786
ciska correctly 0.2000000
ciska handwriting 0.2857143
ciska their 0.0212766
ciska writes 0.6666667
cipra is 0.0004983
cipra proof 0.2500000
cipra that 0.0016420
cipra exam 0.7500000
cipra NULL 0.0001695
cipra experiment 0.2857143
cipra Test-driven 0.5000000
cipra of 0.0023015
cipra exercises 0.2500000
cipra test 1.0000000
cipra Mathematical 1.0000000
cipra examination 1.0000000
julne each 0.0212766
julne being 0.0212766
julne of 0.0023015
julne heap 1.0000000
julne net 0.4000000
julne size 0.2000000
pakistan Pakistan 0.2000000
pakistan is 0.0004983
prubi'o by 0.0126582
prubi'o slowly 0.1052632
prubi'o dragging 0.6666667
ob River 0.1250000
ob Ob 1.0000000
ba'ucu'i I 0.0003215
ba'ucu'i am 0.0048544
ba'ucu'i forced 0.3333333
ba'ucu'i because 0.0125000
ba'ucu'i sharp 0.1250000
bangrgogurio Korean 0.2222222
bangrgogurio studies 0.1250000
sipybi'o &apos;m 0.0021786
sipybi'o to 0.0009407
sipybi'o of 0.0011507
sipybi'o bed 0.0454545
sipybi'o opposite 0.5000000
sipybi'o sleep 0.0256410
sipybi'o going 0.0148148
jbobau Lojban 0.0618557
jbobau in 0.0028986
jbobau NULL 0.0001695
jbobau it 0.0018553
jbobau continue 0.2000000
jbobau problems 0.1111111
jbobau to 0.0004704
fricysi'u unhappy 0.0454545
fricysi'u in 0.0014493
mi'o NULL 0.0008473
mi'o we 0.3214286
mi'o shines 0.2500000
mi'o &apos;re 0.0192308
mi'o over 0.0192308
mi'o what 0.0039216
mi'o you 0.0006456
mi'o willing 0.1666667
mi'o Let 0.1184211
mi'o We 0.1464435
mi'o cinema 0.2500000
mi'o movie 0.0666667
mi'o puppy 0.2857143
mi'o Come 0.0277778
mi'o are 0.0015674
mi'o follow 0.1428571
mi'o us 0.0156250
pei hat 0.0384615
pei shall 0.1428571
pei And 0.1250000
pei Hokkaido 0.0666667
pei Would 0.0540541
pei mad 0.1666667
pei isn 0.0400000
pei how 0.0330579
pei Shall 0.5000000
pei Do 0.0561224
pei Mimi 0.3333333
pei ? 0.0208922
pei Are 0.0450450
pei want 0.0035842
pei May 0.0588235
pei Okinawa 0.1666667
pei everyone 0.0200000
pei Isn 0.1250000
pei awesome 0.2222222
pei Can 0.0781250
pei you 0.0200129
pei How 0.0704225
pei , 0.0008203
pei surprise 0.0625000
pei doing 0.0169492
pei innit 0.5000000
pei think 0.0409836
pei eh 0.2000000
pei Did 0.0344828
pei Ehhh 0.2500000
pei are 0.0250784
pei Is 0.0444444
bu'a'a NULL 0.0003389
djuno know 0.6725979
djuno knowing 0.2222222
djuno NULL 0.0016946
djuno knows 0.5217391
djuno figure 0.3333333
djuno known 0.1333333
djuno nearer 0.2500000
djuno knew 0.3500000
djuno lost 0.0307692
djuno No 0.0105263
djuno cause 0.1666667
djuno Knowledge 0.2500000
danlo fire 0.0526316
lifri ’ 0.1538462
lifri happened 0.0392157
lifri &apos;m 0.0021786
lifri to 0.0009407
lifri life 0.1142857
lifri experience 0.0526316
lifri nothin 0.5000000
lifri NULL 0.0005084
lifri forefront 0.5000000
lifri yet 0.0357143
lifri had 0.0084034
lifri the 0.0008861
lifri seen 0.0555556
lifri suffered 0.5000000
lifri t 0.1250000
lifri happens 0.0476190
rarbau language 0.0123457
rarbau Natural 0.3333333
terselmlu relatively 0.5000000
memimoi my 0.0022831
memimoi mine 0.0555556
.tomas. Thomas 0.2000000
.tomas. likes 0.0192308
tende Everybody 0.0666667
tende tends 0.0833333
nalci pair 0.3333333
nalci with 0.0040486
nalci flippers 0.2000000
nalci of 0.0011507
livycru me 0.0037313
livycru off 0.0425532
livycru let 0.0800000
savru traffic 0.2500000
savru the 0.0004431
savru with 0.0040486
savru about 0.0056818
savru this 0.0026810
savru revise 1.0000000
savru noise 0.5000000
bolivias Bolivia 1.0000000
misis Lincoln 0.2500000
nononono yen 0.1666667
nononono think 0.0081967
nononono more 0.0094340
nononono than 0.0077519
nononono cost 0.0555556
nononono you 0.0006456
nononono will 0.0048309
nononono 10,000 1.0000000
nononono it 0.0018553
za'umoi more 0.0094340
za'umoi any 0.0172414
za'umoi shouldn 0.0909091
za'umoi There 0.0060976
za'umoi be 0.0034014
sa'irbi'o up 0.0200000
sa'irbi'o complete 0.1666667
sa'irbi'o standing 0.0714286
sa'irbi'o stop 0.0357143
sa'irbi'o before 0.0166667
sa'irbi'o again 0.0238095
srana are 0.0031348
srana business 0.0588235
srana all 0.0068493
srana mine 0.0370370
srana related 0.1666667
srana &apos;s 0.0022051
srana do 0.0029326
srana his 0.0034247
srana with 0.0080972
srana It 0.0055249
srana things 0.0384615
srana experience 0.1052632
srana nothing 0.0444444
srana those 0.0416667
srana book 0.0071942
srana to 0.0004704
srana guitar 0.0833333
srana mathematics 0.1000000
srana my 0.0022831
srana about 0.0227273
srana NULL 0.0003389
srana notebook 0.2500000
boljinterjvi holds 0.3333333
boljinterjvi for 0.0024038
boljinterjvi same 0.0625000
boljinterjvi true 0.0303030
gunta &apos;re 0.0064103
gunta under 0.0454545
gunta crazy 0.0625000
gunta NULL 0.0001695
gunta attack 0.4000000
gunta infected 0.3333333
gunta attacked 0.5000000
gunta attacking 0.5000000
gunta Charge 0.2500000
gunta were 0.0093458
gunta ! 0.0018692
bartu &apos;s 0.0022051
bartu outside 0.4444444
bartu out 0.0326087
bartu abroad 0.0588235
bartu As 0.0588235
bartu to 0.0009407
bartu oustide 0.1666667
bartu someone 0.0322581
bartu go 0.0040161
glabi'a a 0.0011675
glabi'a fever 1.0000000
glabi'a have 0.0049505
cinla a 0.0005838
cinla slim 1.0000000
cinla is 0.0004983
betfu have 0.0049505
betfu ache 0.3333333
betfu stomach 0.4000000
betfu a 0.0011675
la.iumin. Yumi 0.1428571
Party of 0.0011507
Party the 0.0004431
Party member 0.1666667
Party Party 0.2500000
JFK worked 0.2222222
fetspe ex-wife 0.2000000
fetspe &apos;s 0.0011025
fetspe wife 0.0625000
fetspe my 0.0022831
fu'e owner 0.2000000
fu'e There 0.0060976
sumti Verb 1.0000000
sumti argument 0.1666667
rakau meet 0.0434783
laktuka lettuce 1.0000000
ropa Queen 0.3333333
ropa only 0.1136364
ropa one 0.0198020
zbepi for 0.0024038
zbepi pedestal 0.5000000
zbepi a 0.0005838
devoncir ago 0.0322581
devoncir Devonshire 0.1428571
devoncir in 0.0014493
devoncir months 0.0526316
kliki his 0.0034247
kliki clicked 0.2000000
sisti &apos;t 0.0011919
sisti hasn 0.2500000
sisti NULL 0.0008473
sisti finished 0.0625000
sisti shooting 0.5000000
sisti Stop 0.2800000
sisti shut 0.1250000
sisti quit 0.0588235
sisti over 0.0192308
sisti sudden 0.1666667
sisti it 0.0018553
sisti saying 0.0625000
sisti stop 0.3928571
sisti picking 0.3333333
sisti that 0.0016420
sisti halt 0.1666667
sisti Pull 0.5000000
sisti turn 0.0714286
sisti ceasing 0.2000000
sisti p.m. 0.1250000
sisti up 0.0100000
sisti , 0.0016407
sisti took 0.0303030
sisti has 0.0044643
sisti bullshit 0.1666667
sisti sweater 0.2000000
sisti gas 0.1428571
sisti stopped 0.1200000
jinsa get 0.0104167
jinsa clean 0.1250000
jinsa am 0.0048544
jinsa dirty 0.2307692
.yyy. Um 0.1111111
.susyn. Susan 0.1428571
raijibni metro 0.1250000
raijibni nearest 0.1111111
raijibni stop 0.0357143
akiko Akiko 0.1666667
au &apos;d 0.1176471
au I 0.0045016
au wish 0.1000000
au some 0.0384615
au like 0.0162162
au Wish 0.3333333
au would 0.0140845
au to 0.0032926
au want 0.0322581
2008 2008 0.2000000
pe'a distant 0.2000000
pe'a lines 0.1666667
pe'a Bad 0.5000000
pe'a manner 0.1666667
pe'a pedestal 0.5000000
pe'a Necessity 0.2500000
pe'a bees 0.1666667
pe'a the 0.0004431
pe'a &quot; 0.0096852
pe'a cold-hearted 0.2500000
pe'a stream 0.1428571
pe'a soul 0.1111111
pe'a . 0.0005716
pe'a NULL 0.0010168
pe'a Thermos 0.3333333
pe'a heart 0.1000000
pe'a a 0.0011675
pe'a Shit 0.2500000
pe'a burning 0.2000000
pe'a bug 0.2500000
pe'a moon 0.0833333
pe'a &apos;re 0.0064103
pe'a literally 0.5000000
pe'a bend 0.1428571
pe'a in 0.0014493
pe'a superstar 0.3333333
pe'a swords 0.1000000
pe'a swallowed 0.5000000
paze old 0.0128205
paze seventeen 0.5000000
paze years 0.0125000
cinpa'i that 0.0016420
cinpa'i way 0.0140845
cinpa'i not 0.0021739
cinpa'i but 0.0082645
tokios in 0.0014493
tokios differs 0.3333333
tokios , 0.0016407
tokios Japan 0.0571429
tokios Tokyo 0.1111111
tokios &apos;m 0.0043573
tokios from 0.0106952
karcru open 0.0555556
karcru left 0.0147059
tedyske Earth 0.0909091
tedyske science 0.1111111
tolsnura It 0.0027624
tolsnura dangerous 0.0714286
tolsnura &apos;s 0.0011025
tolsnura here 0.0058140
Russell not 0.0043478
Russell Russell 0.2500000
Russell is 0.0009965
tedydesku collapsed 0.2500000
le'ipli &apos;ve 0.0131579
le'ipli had 0.0084034
le'ipli ever 0.0400000
le'ipli recruited 1.0000000
le'ipli unemployed 0.3333333
uitki on 0.0042735
uitki it 0.0018553
uitki completely 0.1428571
uitki wiki 0.1428571
.i'a do 0.0029326
.i'a , 0.0008203
.i'a &apos;e 0.2500000
.i'a Okay 0.1428571
.i'a and 0.0026247
.i'a &apos;a 1.0000000
.i'a i 0.5000000
.i'a No 0.0105263
.i'a . 0.0001143
.i'a will 0.0048309
ke'a Tea 0.1666667
ke'a whom 0.1428571
ke'a do 0.0058651
ke'a anywhere 0.1428571
ke'a folly 0.1000000
ke'a unjust 0.2000000
ke'a whose 0.2000000
ke'a version 0.2000000
ke'a aced 0.2500000
ke'a Vulcan 0.2500000
ke'a grandfather 0.0833333
ke'a looking 0.0588235
ke'a play 0.0285714
ke'a Dumpty 0.2000000
ke'a passed 0.2000000
ke'a tool 0.2000000
ke'a shot 0.5000000
ke'a dreaming 0.1428571
ke'a busies 0.3333333
ke'a Allan 0.2500000
ke'a failed 0.1666667
ke'a sets 0.3333333
ke'a guy 0.0909091
ke'a put 0.0540541
ke'a smarter 0.3333333
ke'a to 0.0009407
ke'a actually 0.0714286
ke'a read 0.0555556
ke'a going 0.0074074
ke'a white 0.0344828
ke'a which 0.0263158
ke'a examples 0.2500000
ke'a hobbit 0.1428571
ke'a are 0.0015674
ke'a respects 0.2000000
ke'a red 0.0312500
ke'a NULL 0.0028809
ke'a built 0.0833333
ke'a plastic 0.1666667
ke'a herself 0.0833333
ke'a overhead 0.2000000
bazigi out 0.0108696
bazigi and 0.0026247
bazigi soon 0.0277778
bazigi was 0.0021552
bazigi of 0.0011507
bazigi left 0.0147059
bazigi train 0.0322581
bazigi sight 0.1428571
vudus religion 0.3333333
vudus Voodoo 0.5000000
vudus The 0.0015432
ticta'u clothing 0.2500000
broda is 0.0004983
broda this 0.0026810
broda do 0.0058651
broda try 0.0243902
broda balloon 0.2000000
broda craft 0.3333333
broda to 0.0004704
broda it 0.0018553
broda ... 0.0465116
broda P 0.5714286
fraso France 0.1250000
fraso &apos;m 0.0043573
fraso French 0.2608696
fraso am 0.0048544
fraso Canada 0.0714286
fraso few 0.1111111
fraso at 0.0037879
fraso songs 0.3333333
fraso well 0.0188679
fraso that 0.0016420
fraso visited 0.0909091
nagoi,ias they 0.0131579
nagoi,ias in 0.0014493
nagoi,ias time 0.0112360
nagoi,ias At 0.0526316
nagoi,ias Nagoya 0.1428571
nagoi,ias one 0.0049505
nagoi,ias lived 0.0400000
selcni NULL 0.0001695
selcni Grammatical 0.5000000
selcni mood 0.2500000
selpluka &apos;t 0.0011919
selpluka it 0.0018553
selpluka cute 0.1250000
selpluka ? 0.0005647
mymbais Mumbai 1.0000000
judis is 0.0004983
judis Judy 0.3333333
lumci T-shirt 0.2500000
lumci up 0.0100000
lumci It 0.0055249
lumci drive 0.0769231
lumci Clean 0.5000000
lumci wash 0.8888889
lumci bathroom 0.0909091
lumci needs 0.0571429
lumci sweep 0.3333333
lumci drove 0.1000000
lumci washing-up 0.5000000
lumci Wash 0.5000000
lumci * 0.0909091
lumci makes 0.0476190
lumci washes 1.0000000
lumci my 0.0022831
lumci washing 0.5555556
lumci air-cleaner 0.2500000
lumci washed 0.5714286
lumci bath 0.1000000
lumci clean 0.1250000
kaisha kaisha 0.1428571
tutske Geography 1.0000000
xadgu'a for 0.0024038
xadgu'a practice 1.0000000
xadgu'a sport 0.0833333
xadgu'a go 0.0040161
xadgu'a in 0.0014493
xadgu'a sports 0.2000000
.an,iis. Anyi 0.2500000
tolyle'a you 0.0006456
tolyle'a valuables 1.0000000
tolyle'a back 0.0208333
tolyle'a me 0.0018657
tolyle'a give 0.0250000
tolyle'a my 0.0022831
.bab. , 0.0008203
.bab. Bob 0.0526316
vudypai a 0.0005838
vudypai raw 0.1111111
vudypai deal 0.0909091
vudypai got 0.0133333
volter Voltaire 1.0000000
sam Sam 0.2000000
sam sam 0.2500000
terve'u brought 0.0625000
terve'u paid 0.0769231
terve'u puppy 0.1428571
terve'u &apos;ve 0.0131579
terve'u it 0.0018553
terve'u myself 0.0344828
terve'u buy 0.3043478
terve'u for 0.0024038
terve'u bought 0.1578947
terve'u buys 0.1250000
terve'u that 0.0016420
terve'u a 0.0046702
maltas Malta 1.0000000
rutrkoko coconuts 1.0000000
.columbos. Columbus 0.1250000
jinga won 0.0576923
jinga and 0.0026247
jinga amount 0.2000000
jinga . 0.0019435
jinga will 0.0048309
jinga winning 0.5000000
jinga can 0.0039062
jinga defeat 0.4285714
jinga triumphs 0.2000000
jinga Checkmate 1.0000000
jinga NULL 0.0001695
jinga beat 0.2000000
jinga win 1.0000000
jinga defeated 0.3333333
jinga lottery 0.1666667
jinga Very 0.1111111
jinga sizeable 0.3333333
jinga lost 0.0307692
jinga wins 0.5000000
narcmaci non-mathematical 1.0000000
incala Inshallah 0.3333333
incala , 0.0008203
incala soon 0.0277778
kamerun Cameroon 1.0000000
tcomolunmas. Mount 0.3333333
tcomolunmas. Everest 0.5000000
tcomolunmas. as 0.0105263
.ionai = 0.1428571
.ionai deer 0.2500000
.ionai &apos;re 0.0064103
.ionai Hey 0.0526316
.ionai you 0.0012912
.ionai , 0.0008203
.ionai liar 0.3333333
.ionai shut 0.1250000
.ionai up 0.0100000
.ionai such 0.0714286
cmari'e for 0.0024038
cmari'e trout 0.3333333
cmari'e creek 1.0000000
cmari'e stream 0.2857143
ma bank 0.0833333
ma do 0.1436950
ma ? 0.1710898
ma celebrating 0.5000000
ma Says 0.2500000
ma chocolates 0.2500000
ma Where 0.5530973
ma respectively 0.3333333
ma Exactly 0.1000000
ma museum 0.1428571
ma where 0.0705882
ma taxi 0.1000000
ma subjects 0.1428571
ma cost 0.2222222
ma logic 0.1666667
ma extent 0.2000000
ma suggesting 0.3333333
ma how 0.0909091
ma experimental 0.2000000
ma responsible 0.1428571
ma Who 0.8656716
ma How 0.2347418
ma Such 0.2000000
ma location 1.0000000
ma Whose 0.3548387
ma When 0.3673469
ma enemy 0.1428571
ma Lojbanists 0.2000000
ma guide 0.2000000
ma Which 0.4000000
ma are 0.0438871
ma why 0.0322581
ma restaurant 0.0270270
ma selling 0.5000000
ma contraption 0.1666667
ma scientist 0.5000000
ma What 0.4573864
ma deal 0.0909091
ma Why 0.4149660
ma is 0.0089686
ma Karen 0.2000000
ma anymore 0.0312500
ma monkeys 0.3333333
ma paying 0.1250000
ma NULL 0.0027114
ma does 0.0166667
ma did 0.2193548
ma what 0.0352941
ma causing 0.5000000
ma conclusions 0.5000000
ma Xalbo 0.1666667
ma boys 0.0666667
.tato'ebas. Tatoeba 0.0250000
.tato'ebas. ! 0.0018692
.tato'ebas. to 0.0004704
selsenva that 0.0032841
selsenva children 0.0243902
selsenva a 0.0005838
selsenva express 0.5000000
selsenva &apos;s 0.0011025
selsenva dream 0.0454545
selsenva song 0.0666667
selsenva life 0.0285714
xa 256 0.2500000
xa 6 0.6666667
xa six 0.7500000
xa NULL 0.0001695
xa June 0.1666667
xa Six 0.5000000
sera'a wrong 0.0357143
sera'a at 0.0037879
sera'a with 0.0040486
sera'a NULL 0.0001695
itiopias Ethiopia 1.0000000
jinmlruterfordi Rutherfordium 1.0000000
mrodimna fate 1.0000000
mrodimna Man 0.2000000
mrodimna people 0.0080000
mrodimna the 0.0004431
mrodimna of 0.0011507
mrodimna all 0.0068493
mrodimna mortal 0.3333333
mrodimna Death 0.2500000
vacri air-cleaner 0.2500000
vacri air 0.2727273
vacri mixture 0.3333333
vacri Air 0.5000000
vacri hovering 0.5000000
xan Khan 1.0000000
xokaidos north 0.1250000
xokaidos Hokaido 0.5000000
pa'a like 0.0054054
pa'a almost 0.0500000
pa'a freely 0.2500000
pa'a , 0.0008203
.alminiu Aluminium 0.2500000
.alminiu is 0.0004983
namibias Namibia 1.0000000
pesti'i the 0.0004431
pesti'i hypothesis 0.3333333
tikpa who 0.0081301
tikpa &apos;s 0.0011025
tikpa kicked 0.3333333
tikpa kicking 0.5000000
tikpa kicks 1.0000000
jinmrtiterbi Ytterbium 1.0000000
xumrkonkreto cement 0.2000000
xumrkonkreto or 0.0081301
zulselpevysmacu left 0.0147059
International.gy. Funny 0.1666667
je'a it 0.0018553
je'a sure 0.0344828
je'a exactly 0.0526316
je'a deserve 0.3333333
je'a are 0.0015674
je'a Indeed 0.6666667
je'a does 0.0333333
je'a true 0.0303030
je'a It 0.0055249
je'a felt 0.0476190
je'a do 0.0029326
je'a really 0.2142857
.anas. Anna 0.5000000
.anas. , 0.0008203
.anas. but 0.0082645
.anas. doesn 0.0104167
raxipa ignorance 0.1666667
ta'onai ; 0.0232558
ta'onai point 0.1250000
ta'onai to 0.0004704
ta'onai the 0.0004431
ta'onai back 0.0208333
ta'onai case 0.2000000
ta'onai But 0.0263158
cinki insects 0.3333333
cinki are 0.0015674
cinki even 0.0526316
soliaris Solaris 0.2500000
enai NULL 0.0001695
enai except 0.2222222
enai goes 0.0204082
enai but 0.0413223
enai herself 0.1666667
enai everyone 0.0400000
niut,n. Newton 0.3333333
keit. NULL 0.0001695
keit. quit 0.0588235
keit. has 0.0044643
keit. Kate 0.1111111
prenu person 0.7962963
prenu around 0.0588235
prenu Someone 0.1052632
prenu People 0.3000000
prenu herself 0.1666667
prenu NULL 0.0027114
prenu is 0.0004983
prenu repairman 0.5000000
prenu nobody 0.4285714
prenu a 0.0017513
prenu everyone 0.0400000
prenu passengers 0.2000000
prenu man 0.1058824
prenu pianist 0.5000000
prenu are 0.0015674
prenu crazy 0.1250000
prenu taller 0.0625000
prenu speaks 0.0434783
prenu eat 0.0111111
prenu jealous 0.2500000
prenu met 0.0263158
prenu personalities 1.0000000
prenu Everyone 0.1702128
prenu giggled 0.3333333
prenu European 0.2500000
prenu Lawyers 0.2500000
prenu &apos;re 0.0064103
prenu driver 0.2500000
prenu swimmers 0.3333333
prenu dolls 0.2000000
prenu doctor 0.0434783
prenu am 0.0097087
prenu one 0.0396040
prenu loudly 0.2500000
prenu distinct 0.2500000
prenu beings 1.0000000
prenu singer 0.2000000
prenu immediately 0.0769231
prenu Man 0.2000000
prenu . 0.0002286
prenu people 0.4640000
prenu men 0.0434783
prenu anyone 0.1428571
prenu alive 0.0476190
prenu persons 0.3333333
prenu that 0.0016420
prenu mortal 0.3333333
"lu Zhuangzi 0.2000000
troci &apos;ll 0.0134228
troci Trying 0.3333333
troci finally 0.1428571
troci . 0.0001143
troci efforts 0.3333333
troci tried 0.5925926
troci something 0.0104167
troci Try 0.4705882
troci one 0.0099010
troci a 0.0005838
troci try 0.7560976
troci trying 0.6666667
troci it 0.0037106
troci to 0.0004704
troci attempted 0.3333333
troci attempt 0.4000000
bancli busy 0.0357143
bancli learning 0.0416667
bancli is 0.0004983
fonpli make 0.0151515
fonpli call 0.0344828
fonpli a 0.0005838
fonpli phone 0.0434783
fonpli we 0.0089286
velmicyxukmi medication 0.2000000
vanju please 0.0158730
vanju cider 0.3333333
vanju wines 1.0000000
vanju wine 0.6666667
vanju , 0.0008203
jinmrplutoni Plutonium 1.0000000
genai ; 0.0232558
genai You 0.0023697
genai &apos;re 0.0064103
genai neither 0.2500000
genai not 0.0021739
genai evil 0.0769231
klasti There 0.0060976
klasti &apos;s 0.0011025
klasti Stop 0.0400000
klasti a 0.0011675
terkagni business 0.0588235
terkagni on 0.0042735
terkagni urgent 0.5000000
la.esperanton. Esperanto 0.1000000
la.esperanton. learn 0.0263158
zeldei Sunday 0.1250000
zeldei every 0.0136986
zeldei on 0.0042735
zeldei fail 0.0625000
zeldei without 0.0312500
zeldei Sundays 0.5000000
rotsu thick 0.7500000
velsla Tomorrow 0.1428571
velsla is 0.0004983
velsla . 0.0001143
velsla a 0.0005838
velsla holiday 0.3333333
purci over 0.0192308
purci the 0.0004431
purci is 0.0004983
purci before 0.0166667
purci mistake 0.0555556
purci past 0.1666667
purci as 0.0105263
kalyle'otci &apos;ve 0.0131579
kalyle'otci broken 0.0526316
kalyle'otci glasses 0.0263158
kalyle'otci my 0.0022831
munoki'o than 0.0077519
munoki'o There 0.0060976
munoki'o in 0.0014493
munoki'o books 0.0169492
munoki'o 50,000 0.3333333
munoki'o more 0.0094340
munoki'o are 0.0015674
xotli hotel 0.7222222
xotli quite 0.0500000
xotli very 0.0045249
xotli close 0.0666667
xotli nice 0.0303030
.prim. Preem 0.5000000
.prim. Palver 0.5000000
.braun. is 0.0004983
.braun. Mr 0.0769231
.braun. &apos;s 0.0011025
.braun. Brown 0.2000000
zerlebna stolen 0.0769231
zerlebna was 0.0021552
kualalumpur Lumpur 0.5000000
kualalumpur Kuala 0.5000000
xuku , 0.0008203
xuku ? 0.0005647
xuku do 0.0029326
xuku really 0.0142857
xuku you 0.0006456
bevbe'i suitcase 0.5000000
bevbe'i take 0.0263158
bevbe'i your 0.0024631
bevbe'i to 0.0004704
bevbe'i &apos;ll 0.0067114
.ingland. about 0.0056818
.ingland. England 0.1111111
panra lines 0.1666667
panra parallels 1.0000000
panra do 0.0029326
panra Parallel 0.3333333
jvinu spectacular 0.5000000
jvinu a 0.0005838
jvinu NULL 0.0001695
jvinu from 0.0053476
jvinu view 0.6666667
jvinu sight 0.1428571
jvinu by 0.0063291
jvinu the 0.0004431
naljundi promiscuous 1.0000000
naljundi &apos;s 0.0011025
naljundi sexually 0.5000000
lai According 0.2000000
lai , 0.0008203
lai Klingons 0.5000000
lai Borg 0.2500000
lai Joneses 0.1428571
lai hobbit 0.1428571
lai Chrysler 0.2500000
lai to 0.0004704
lai the 0.0004431
lai Bible 0.2000000
berlin Berlin 1.0000000
sapme'ocmaci Arithmetic 1.0000000
pamsi'u love 0.0122699
pamsi'u other 0.0289855
pamsi'u each 0.0425532
.kristian.anasn. tale 0.2500000
.kristian.anasn. , 0.0008203
.kristian.anasn. fairy 0.2500000
faursutrytce fast 0.0270270
faursutrytce very 0.0045249
faursutrytce happened 0.0196078
faursutrytce It 0.0027624
ze'ecaru'i changes 0.1666667
ze'ecaru'i lot 0.0142857
malba agonies 0.3333333
malba of 0.0011507
mixre of 0.0023015
mixre sounds 0.1666667
mixre mixture 0.3333333
mixre a 0.0005838
mixre several 0.1666667
nudlefari Pastafarians 0.5000000
ponse belongs 0.1851852
ponse has 0.0312500
ponse owns 0.5555556
ponse mine 0.0555556
ponse money 0.0131579
ponse Whose 0.0967742
ponse yours 0.0645161
ponse ha 0.1250000
ponse have 0.0297030
ponse had 0.0168067
ponse having 0.0555556
ponse enough 0.0487805
ponse houses 0.0588235
ponse NULL 0.0006779
ponse is 0.0019930
ponse tool 0.2000000
ponse owner 0.4000000
ponse as 0.0105263
ponse own 0.2500000
ponse to 0.0028222
ponse of 0.0023015
ja , 0.0008203
ja send 0.1111111
ja be 0.0102041
ja or 0.0731707
ja NULL 0.0005084
ja touching 0.5000000
tolmakcu He 0.0016779
tolmakcu young 0.1052632
tolmakcu is 0.0009965
tolmakcu She 0.0028490
tolmakcu immature 0.3333333
su'o songs 0.3333333
su'o at 0.0227273
su'o Perhaps 0.1666667
su'o Some 0.6153846
su'o unhappy 0.0454545
su'o 2000 0.2500000
su'o humans 0.5000000
su'o others 0.1111111
su'o least 0.3600000
su'o immediately 0.0769231
su'o identical 0.5000000
su'o mopped 1.0000000
su'o friends 0.0363636
su'o anyone 0.1428571
su'o some 0.0288462
su'o one 0.0099010
su'o NULL 0.0010168
su'o billion 0.2500000
su'o salt 0.1250000
su'o burnt 0.2000000
su'o any 0.0172414
su'o comments 0.5000000
su'o Hokkaido 0.0666667
su'o administrators 0.2500000
su'o fifty 0.1000000
su'o Someone 0.1052632
romoi dies 0.1250000
romoi proved 0.2000000
romoi fatal 1.0000000
romoi It 0.0027624
romoi wound 0.3333333
romoi last 0.2439024
romoi Hope 0.4285714
puziki just 0.0493827
puziki She 0.0028490
puziki He 0.0016779
puziki We 0.0041841
puziki I 0.0003215
sfasa punishment 0.5000000
sfasa roots 0.3333333
sfasa stealing 0.2000000
sfasa punished 0.6000000
sfasa for 0.0024038
sfasa &apos;t 0.0011919
sfasa was 0.0021552
sfasa punish 0.6666667
sfasa scolding 0.5000000
boxna of 0.0011507
boxna the 0.0008861
boxna wave 1.0000000
boxna is 0.0004983
boxna waves 0.5000000
boxna Wave 1.0000000
ctesai Taro 0.1666667
ctesai my 0.0045662
ctesai supper 0.3750000
ctesai have 0.0049505
nanba &apos;re 0.0064103
nanba bread 1.0000000
nanba Bread 0.6000000
nanba a 0.0005838
.rom. Even 0.2000000
.rom. built 0.0416667
.rom. in 0.0014493
.rom. Rome 0.0714286
.rom. was 0.0021552
fonta'a calling 0.2500000
fonta'a ring 1.0000000
fonta'a telephone 0.0769231
fonta'a telephoned 0.5000000
fonta'a Call 0.0370370
fonta'a Somebody 0.1428571
fonta'a called 0.1086957
fonta'a call 0.1034483
fonta'a again 0.0476190
ze'e was 0.0043103
ze'e away 0.0270270
ze'e heart 0.1000000
ze'e NULL 0.0001695
ze'e nomad 0.5000000
ze'e travels 0.2500000
ze'e intend 0.2500000
ze'e ever 0.0400000
ze'e sea 0.0588235
ze'e Perhaps 0.1666667
ze'e always 0.1000000
ze'e quiet 0.0526316
ze'e dig 0.3333333
ze'e will 0.0048309
ze'e &apos;ve 0.0131579
ze'e all 0.0068493
ze'e She 0.0056980
.djaks. Jacques 0.2000000
.djaks. goes 0.0204082
.djaks. , 0.0008203
.djaks. How 0.0046948
.djaks. it 0.0018553
su'oda some 0.0096154
su'oda In 0.0238095
su'oda situations 0.3333333
pi'e 20 0.1818182
pi'e death 0.0833333
pi'e of 0.0011507
pi'e eight-thirty 0.0769231
pi'e 2 0.0512821
pi'e was 0.0021552
pi'e quarter 0.2000000
pi'e NULL 0.0003389
pi'e June 0.3333333
pi'e Devonshire 0.2857143
pi'e 30 0.2500000
pi'e 2006 0.2857143
pi'e &apos;s 0.0011025
pi'e : 0.0476190
pi'e October 0.4000000
pi'e 538 0.2857143
tolfa'o The 0.0015432
tepygau Scary 0.5000000
tepygau scared 0.2222222
tepygau craft 0.3333333
loglan to 0.0004704
loglan Loglan 0.3333333
uidaisai you 0.0006456
uidaisai happy 0.0092593
uidaisai for 0.0024038
uidaisai &apos;m 0.0021786
uidaisai . 0.0001143
uidaisai so 0.0091743
uidaisai I 0.0003215
ga'icu'i my 0.0022831
ga'icu'i , 0.0008203
ga'icu'i peers 1.0000000
ga'icu'i &apos;m 0.0021786
crepu plucked 0.3333333
crepu pick 0.5000000
crepu may 0.0277778
crepu not 0.0021739
la'a Perhaps 0.1666667
la'a probably 0.5416667
la'a may 0.0277778
la'a NULL 0.0001695
la'a It 0.0027624
la'a &apos;s 0.0022051
la'a That 0.0044843
la'a Maybe 0.2500000
la'a Probably 0.3333333
la'a ery 0.3333333
la'a unlikely 0.3333333
la'a to 0.0009407
la'a be 0.0102041
la'a been 0.0129870
la'a ought 0.2222222
ki it 0.0018553
ki that 0.0016420
