sepo'i was 0.0021552
sepo'i out 0.0109890
sepo'i laid 0.5000000
sepo'i Supper 0.5000000
sepo'i on 0.0042918
byRAK.obamas Barack 1.0000000
byRAK.obamas Obama 0.3333333
pe'ipei think 0.0081967
pe'ipei during 0.1000000
pe'ipei gonna 0.0769231
pe'ipei do 0.0058824
pe'ipei you 0.0006468
pe'ipei we 0.0088496
seva'u It 0.0027701
seva'u . 0.0001143
seva'u &apos;s 0.0011050
seva'u puppy 0.1428571
seva'u for 0.0024510
seva'u NULL 0.0001782
nansin has 0.0045872
nansin Nancy 0.1250000
trano Nitrogen 1.0000000
paze years 0.0129870
paze old 0.0128205
paze seventeen 0.5000000
kaisar Caesar 1.0000000
a'ucu'i &apos;s 0.0022099
a'ucu'i out 0.0109890
a'ucu'i turns 0.3333333
a'ucu'i interesting 0.1111111
a'ucu'i not 0.0043956
a'ucu'i . 0.0003430
a'ucu'i right 0.0158730
a'ucu'i That 0.0087719
a'ucu'i everything 0.0222222
bagdad Baghdad 1.0000000
selgu'a on 0.0085837
selgu'a there 0.0080000
selgu'a task 0.5000000
selgu'a ordinary 0.1250000
selgu'a This 0.0029940
selgu'a an 0.0069444
selgu'a business 0.0588235
selgu'a is 0.0004958
banvoksle phonetic 0.5000000
banvoksle symbols 0.5000000
ga'inai ? 0.0005643
ga'inai Sir 0.1428571
ga'inai sir 0.3333333
ga'inai , 0.0016474
ga'inai Er 1.0000000
kluce'u society 0.5000000
kluce'u modern 0.5000000
du'edji greed 0.2000000
cinmle to 0.0004710
cinmle He 0.0016835
cinmle sexy 1.0000000
cinmle &apos;s 0.0022099
cinmle babe 0.2500000
cinmle attracted 0.5000000
cinmle hot 0.0357143
ianai , 0.0016474
ianai sporks 0.2500000
ianai dating 0.2500000
ianai No 0.0109890
ianai not 0.0021978
ianai anyone 0.0277778
ianai NULL 0.0001782
ianai I 0.0006468
ianai believe 0.0232558
ianai don 0.0034965
ianai but 0.0084034
ianai Then 0.1428571
ianai now 0.0098039
cipra test 1.0000000
cipra Mathematical 1.0000000
cipra of 0.0011561
cipra exercises 0.2500000
cipra NULL 0.0001782
cipra that 0.0016340
cipra experiment 0.3750000
cipra examination 1.0000000
cipra results 0.2000000
cipra proof 0.2500000
cipra &apos;s 0.0011050
cipra The 0.0015699
cipra Test-driven 0.5000000
cipra is 0.0004958
cipra exam 0.6666667
kukis Is 0.0555556
kukis a 0.0029172
kukis Question 1.0000000
kukis Cookie 0.5000000
kukis : 0.0952381
ui.uenai epic 1.0000000
ui.uenai going 0.0075758
ui.uenai be 0.0034014
ui.uenai to 0.0004710
ui.uenai is 0.0004958
ui.uenai This 0.0029940
ui.uenai ! 0.0018519
kensa space 0.4285714
kensa virus 0.5000000
kensa In 0.0476190
kensa , 0.0024712
selylacri user 0.2222222
selylacri trusted 1.0000000
selylacri a 0.0011669
bruna NULL 0.0003564
bruna well 0.0196078
bruna wasn 0.0400000
bruna are 0.0015773
bruna My 0.0120482
bruna very 0.0045249
bruna Brother 1.0000000
bruna were 0.0092593
bruna brother 0.5925926
bruna brothers 0.6923077
sordaivla Plural 1.0000000
remu &apos;m 0.0021978
remu years 0.0129870
remu 25 0.1428571
remu 25th 0.1428571
remu old 0.0128205
fakli'u discovered 0.1250000
fakli'u explorers 0.3333333
ciska &apos;m 0.0021978
ciska handwriting 0.2857143
ciska NULL 0.0007129
ciska write 0.7500000
ciska written 0.3333333
ciska writes 0.6666667
ciska will 0.0049020
ciska programming 0.2000000
ciska Write 0.4444444
ciska spelled 0.3333333
ciska their 0.0196078
ciska it 0.0018553
ciska wrote 0.3666667
ciska down 0.1086957
ciska writing 0.5652174
djordj George 0.3571429
la.kubas Cuba 0.2000000
pevysmacyki'e pad 1.0000000
pevysmacyki'e mouse 0.0555556
noltrusi'o Monarchism 1.0000000
meti sell 0.0625000
meti this 0.0027027
meti would 0.0144928
cmalu It 0.0027701
cmalu breakfast 0.1666667
cmalu amount 0.2000000
cmalu small 0.9166667
cmalu little 0.4067797
cmalu hill 0.1250000
cmalu short 0.0454545
cmalu are 0.0015773
cmalu a 0.0064177
cmalu pretty 0.0322581
cmalu NULL 0.0003564
cmalu expenses 0.1250000
nunba'o of 0.0011561
nunba'o growth 0.2500000
cnitce sentimental 1.0000000
cnitce has 0.0045872
cnitce avoided 0.0833333
cnitce being 0.0212766
cnitce completely 0.1428571
la.mam Mother 0.5000000
la.mam scolding 0.5000000
delfis at 0.0037736
delfis Delphi 0.3333333
truncata.ly species 0.5000000
truncata.ly the 0.0004452
truncata.ly Schlumbergera 0.5000000
truncata.ly truncata 0.5000000
truncata.ly of 0.0011561
najnimryjisra juice 0.1111111
nan.oza,uas Ozawa 0.5000000
kisygu'e Pakistan 0.2000000
velcradi radios 1.0000000
velcradi fix 0.1111111
velcradi broken 0.0526316
se'o know 0.0035587
se'o I 0.0006468
se'o internally 0.5000000
rigni It 0.0027701
rigni obnoxious 1.0000000
rigni me 0.0018797
rigni stinks 0.2000000
rigni disgusts 0.5000000
gy.http://tatoeba.org/.gy tatoeba.org 0.3333333
gy.http://tatoeba.org/.gy http 0.5000000
gy.http://tatoeba.org/.gy : 0.0238095
gy.http://tatoeba.org/.gy / 0.1764706
kliru Chlorine 1.0000000
jo NULL 0.0001782
jo don 0.0069930
jo around 0.0555556
jo hang 1.0000000
jo in 0.0014409
jo , 0.0008237
jo not 0.0043956
jo &apos;t 0.0023923
jo then 0.0357143
jo end 0.0416667
jo or 0.0080645
jo if 0.0114943
jo okay 0.1111111
sralytu'a fond 0.1000000
sralytu'a of 0.0011561
sralytu'a am 0.0048780
sralytu'a Australian 0.5000000
urja a 0.0005834
urja hurry 0.1666667
urja in 0.0014409
ce'u anime 1.0000000
ce'u fix 0.1111111
ce'u both 0.0312500
ce'u detail 0.1666667
ce'u Lojban 0.0104167
ce'u NULL 0.0024951
ce'u faithful 0.3333333
ce'u French 0.0149254
ce'u Mathematica 0.1578947
ce'u people 0.0080000
ce'u thing 0.0322581
ce'u increased 0.2500000
ce'u slowest 0.1666667
ce'u the 0.0004452
ce'u involved 0.2000000
ce'u more 0.0181818
ce'u shoot 0.1666667
ce'u at 0.0037736
ce'u respect 0.2000000
ce'u disagreeable 0.2000000
ce'u than 0.0079365
ce'u into 0.0161290
ce'u folly 0.0769231
ce'u no 0.0073529
ce'u frequently 0.3333333
ce'u teach 0.1333333
ce'u increases 0.5000000
ce'u hates 0.0869565
ce'u this 0.0027027
ce'u managed 0.2500000
ce'u strike 0.3333333
ce'u untidy 0.3333333
darsi hit 0.0500000
nafmupli Portugal 0.1666667
nakpa'i boyfriend 0.1428571
nakpa'i My 0.0024096
tepri'apre are 0.0031546
tepri'apre everyone 0.0212766
tepri'apre themselves 0.1250000
tepri'apre except 0.1111111
tepri'apre by 0.0127389
tepri'apre hated 0.5000000
tepri'apre terrorists 0.2500000
xazdo Asia 0.3333333
xazdo compete 1.0000000
xazdo with 0.0040323
xazdo Asians 1.0000000
mu'ezda world 0.0250000
ipadminis mini 1.0000000
ipadminis iPad 0.1250000
ipadminis an 0.0069444
ticta'u clothing 0.2500000
go isn 0.0136986
go If 0.0138889
go life 0.0277778
go don 0.0034965
go Tully 0.1000000
go NULL 0.0001782
go &apos;t 0.0011962
go it 0.0018553
go to 0.0004710
go hesitate 0.2500000
geits Gates 1.0000000
srasu NULL 0.0001782
srasu grass 0.8333333
la.kentaron Kentaro 1.0000000
crisa summer 0.7142857
crisa in 0.0028818
crisa lot 0.0142857
crisa the 0.0004452
crisa In 0.0238095
crisa even 0.0625000
crisa most 0.0294118
go'ira'o - 0.0416667
go'ira'o I 0.0003234
go'ira'o love 0.0062112
go'ira'o too 0.0125000
go'ira'o you 0.0006468
go'o preceding 0.2500000
go'o The 0.0015699
go'o is 0.0004958
go'o false 0.0714286
go'o sentence 0.0131579
prucitri Prehistory 1.0000000
gugyka'i with 0.0040323
gugyka'i demanded 0.2000000
gugyka'i meet 0.0454545
gugyka'i to 0.0004710
gugyka'i ambassador 0.5000000
tecu'u tell 0.0142857
tecu'u yet 0.0357143
tecu'u &apos;t 0.0011962
nebysrijge with 0.0040323
nebysrijge tie 0.4000000
nebysrijge goes 0.0208333
bakfu for 0.0024510
bakfu pack 0.2500000
nunspesti cause 0.0833333
nunspesti main 0.5000000
cidjrkacera ) 0.0136986
cidjrkacera food 0.0285714
cidjrkacera ( 0.0140845
cidjrkacera kosher 0.5000000
muvycau Be 0.0384615
muvycau . 0.0001143
muvycau still 0.0256410
noreg Norway 1.0000000
nalpo'i could 0.0222222
na.e at 0.0075472
na.e but 0.0084034
na.e &apos;t 0.0011962
na.e Yours 0.5000000
na.e , 0.0016474
na.e doesn 0.0101010
na.e Look 0.0357143
ga'u Zurich 0.1818182
ga'u where 0.0119048
ga'u overhead 0.2500000
ga'u above 0.1111111
ga'u the 0.0008905
ga'u sleeps 0.0714286
ga'u NULL 0.0001782
stati NULL 0.0001782
stati talent 0.5000000
stati talented 1.0000000
stati French 0.0149254
stati smart 0.7333333
stati are 0.0015773
stati a 0.0023337
stati an 0.0069444
stati &apos;re 0.0065789
stati intelligent 0.1666667
stati is 0.0004958
stati bright 0.4000000
stati capable 0.1250000
stati His 0.0158730
stati both 0.0312500
tecra'a Here 0.0714286
tecra'a &apos;s 0.0011050
kibjo'e Internet 0.1428571
xamsi Sea 1.0000000
xamsi oceans 0.5000000
xamsi ocean 0.6666667
xamsi sea 0.6470588
xamsi cyclone 0.3333333
xamsi seafood 0.5000000
xamsi Gulf 0.5000000
xamsi shoreline 0.1666667
tinbe NULL 0.0003564
tinbe did 0.0064103
tinbe step 0.2000000
tinbe Obey 0.3333333
tinbe what 0.0077220
tinbe obey 0.4000000
tinbe their 0.0392157
tinbe following 0.1666667
tinbe law 0.1428571
tinbe act 1.0000000
tinbe him 0.0069930
tinbe in 0.0014409
tinbe taken 0.1111111
tinbe having 0.0555556
tinbe do 0.0058824
tinbe line 0.5000000
tinbe Follow 0.3333333
tinbe Just 0.0714286
e'apei Could 0.0476190
e'apei ? 0.0005643
e'apei Can 0.0476190
e'apei begin 0.1428571
e'apei May 0.4444444
la.pablos Pablo 0.5000000
iokos Yoko 0.2500000
iokos a 0.0005834
iokos is 0.0004958
bajli'a out 0.0109890
bajli'a came 0.0196078
bajli'a running 0.0434783
kobes Kobe 0.5000000
ridjinme Cobalt 1.0000000
krosa'i bowed 0.2500000
krosa'i I 0.0003234
krosa'i . 0.0001143
krosa'i politely 1.0000000
taisai so 0.0092593
uikipidias Wikipedia 1.0000000
grute like 0.0027174
grute from 0.0053191
grute want 0.0035842
grute fruit 0.5714286
plinici'u globalisation 0.5000000
ainctain Einstein 1.0000000
cabna'a by 0.0063694
cabna'a year 0.0384615
cabna'a storm 0.2500000
cabna'a this 0.0027027
pavyseljirna unicorns 1.0000000
pavyseljirna Have 0.0512821
pavyseljirna , 0.0008237
pavyseljirna caught 0.1818182
pavyseljirna you 0.0012937
mrospe widower 0.5000000
mrospe a 0.0005834
mrospe called 0.0217391
mrospe is 0.0004958
simsa shirt 0.1000000
simsa bees 0.2500000
simsa something 0.0319149
simsa as 0.0312500
simsa be 0.0068027
simsa resembles 1.0000000
simsa skin 0.2000000
simsa very 0.0045249
simsa type 0.0714286
simsa like 0.0570652
simsa these 0.0277778
simsa similar 0.6000000
simsa NULL 0.0008911
se.unai if 0.0114943
se.unai matter 0.0555556
se.unai &apos;t 0.0011962
se.unai , 0.0008237
se.unai doesn 0.0101010
se.unai no 0.0073529
jinmrterbi Terbium 1.0000000
ginske Genetics 1.0000000
fintce prolific 1.0000000
fintce a 0.0005834
fintce &apos;m 0.0021978
uiski whisky 1.0000000
uiski expert 0.2500000
dinske Economics 1.0000000
la.li,in Ying 1.0000000
euklides Euclid 1.0000000
brulu'i brushes 0.5000000
pujaca manuscript 0.5000000
pujaca by 0.0063694
xismalsi church 0.2727273
xismalsi this 0.0027027
xismalsi is 0.0004958
tadni am 0.0146341
tadni &apos;m 0.0021978
tadni studying 0.5681818
tadni students 0.5000000
tadni study 0.6190476
tadni revise 0.3333333
tadni studied 0.2857143
tadni &apos;s 0.0011050
tadni Lojban-student 0.5000000
tadni Learn 0.2500000
tadni Esperanto 0.1500000
tadni a 0.0035006
tadni NULL 0.0019604
tadni Study 0.5000000
tadni student 0.8666667
tadni classmates 0.1666667
tadni learn 0.0750000
tadni studies 0.2500000
seljalge . 0.0001143
seljalge why 0.0285714
jbama bombs 0.2500000
jbama is 0.0004958
jbama over 0.0192308
jbama a 0.0005834
jbama bomb 1.0000000
makau when 0.0303030
makau steal 0.1666667
makau why 0.2000000
makau murderer 0.2500000
makau wins 0.2500000
makau NULL 0.0023169
makau arriving 0.1000000
makau possible 0.0555556
makau detail 0.1666667
makau to 0.0023552
makau promised 0.1111111
makau how 0.0256410
makau reason 0.0476190
makau doing 0.0344828
makau experiment 0.1250000
makau crashed 0.2000000
makau what 0.0656371
makau where 0.1071429
makau whose 0.0714286
makau meant 0.2000000
makau problem 0.0400000
makau saw 0.0109890
makau time 0.0112360
makau high 0.1538462
makau who 0.0800000
makau pheasant 0.2500000
makau Belgium 0.1428571
pampendo have 0.0024570
pampendo a 0.0005834
pampendo &apos;t 0.0011962
pampendo girlfriend 0.0400000
guatemal Guatemala 1.0000000
cukta NULL 0.0001782
cukta times 0.0344828
cukta belong 0.2500000
cukta books 0.7377049
cukta bookstore 0.3333333
cukta book 0.8920863
cukta whom 0.1666667
cukta are 0.0015773
cukta textbook 0.2500000
cukta author 0.1250000
cukta ! 0.0037037
cukta guest-book 0.2500000
seja'e NULL 0.0003564
seja'e discount 0.1428571
seja'e &apos;s 0.0011050
seja'e Why 0.0547945
seja'e am 0.0048780
fatri scattered 0.6666667
fatri out 0.0109890
fatri giving 0.1000000
selpinxe a 0.0005834
selpinxe Drink 0.2000000
selpinxe drink 0.0163934
pa'e but 0.0084034
pa'e Of 0.2000000
pa'e &apos;m 0.0021978
pa'e My 0.0024096
pa'e I 0.0003234
pa'e that 0.0016340
pa'e unbiased 1.0000000
pa'e course 0.0666667
pa'e opinion 0.0400000
pa'e biased 0.5000000
pa'e is 0.0004958
je'asai really 0.0140845
je'asai got 0.0133333
remei" ... 0.0227273
remei" let 0.0400000
remei" Um 0.1250000
remei" me 0.0018797
remei" think 0.0081967
nalra'u Better 0.5000000
nalra'u ! 0.0018519
nalra'u leave 0.0243902
nalra'u it 0.0018553
nunbrari'a the 0.0004452
nunbrari'a is 0.0004958
nunbrari'a zoom 1.0000000
muplis Muplis 0.5000000
meilis Mei 0.5000000
meilis Li 0.3333333
cinba tender 0.2500000
cinba kiss 0.4375000
cinba kissed 0.4444444
cinba with 0.0040323
cinba kisses 0.5000000
cinba Kiss 0.5000000
la.cikagos leaving 0.0434783
la.cikagos Chicago 0.5000000
la.cikagos is 0.0004958
mi'au mew 0.3333333
mi'au &apos;d 0.0192308
za'adai is 0.0004958
za'adai This 0.0029940
za'adai job 0.0232558
ri'ornimre lime 0.5000000
Party of 0.0011561
Party Party 0.2500000
Party Democratic 0.5000000
sanli watching 0.1176471
sanli stand 0.2222222
sanli lined 0.5000000
sanli Get 0.0555556
sanli up 0.0300000
sanli standing 0.3076923
sanli stood 0.3333333
sanli silently 0.5000000
sanli pillar 0.3333333
do'adai teach 0.0666667
do'adai of 0.0011561
do'adai It 0.0027701
do'adai generous 1.0000000
do'adai to 0.0004710
do'adai &apos;s 0.0011050
kerfa Jabberwocky 0.3333333
kerfa have 0.0049140
kerfa shampoo 1.0000000
kerfa hair 0.9259259
tercu'e subject 0.0833333
tercu'e last 0.0243902
tercu'e enrolled 0.5000000
tabra Brass 0.5000000
tabra instrument 0.5000000
dargu road 0.8000000
dargu street 0.2500000
dargu the 0.0004452
dargu Take 0.0250000
dargu on 0.0042918
jdikygau I 0.0003234
jdikygau reduce 0.5000000
jdikygau we 0.0088496
jdikygau think 0.0081967
jdikygau radio 0.1428571
jdikygau should 0.0158730
nilce room 0.0200000
nilce furniture 1.0000000
nilce in 0.0014409
susan Susan 0.1428571
fasyjinme Gallium 1.0000000
onai get 0.0104167
onai busy 0.0333333
onai living 0.0588235
onai dying 0.0769231
onai Either 0.3333333
onai or 0.0322581
misrygu'e go 0.0040161
misrygu'e want 0.0035842
misrygu'e to 0.0009421
misrygu'e really 0.0140845
misrygu'e Egypt 0.6666667
devoncir three 0.0222222
devoncir Devonshire 0.1250000
devoncir ago 0.0322581
devoncir months 0.0625000
devoncir in 0.0014409
toldarsi &apos;m 0.0021978
toldarsi shy 1.0000000
seltadni do 0.0029412
seltadni Which 0.0333333
seltadni subject 0.0833333
xomoi Which 0.0333333
xomoi did 0.0064103
spofu not 0.0021978
spofu order 0.2222222
spofu , 0.0008237
spofu shutter 1.0000000
spofu out 0.0219780
spofu down 0.0434783
spofu of 0.0023121
spofu destroy 0.1666667
spofu broken 0.5789474
spofu NULL 0.0001782
tefengu angry 0.0344828
tefengu make 0.0153846
tefengu him 0.0069930
tefengu would 0.0144928
rupsra him 0.0069930
rupsra financially 0.5000000
tu'e : 0.0238095
tu'e Make 0.2000000
tu'e law 0.1428571
tu'e it 0.0018553
tu'e your 0.0023866
selda'i been 0.0129870
selda'i have 0.0024570
rikybakfu bitch 1.0000000
rikybakfu backpack 0.5000000
rikybakfu stole 0.0909091
rikybakfu my 0.0022831
pi'ai megabytes 0.2000000
pi'ai meter 0.2500000
pi'ai miles 0.1666667
2008 2008 0.2000000
braiyn Brian 0.2000000
kai'a forgive 0.1538462
kai'a to 0.0004710
ze'u NULL 0.0003564
ze'u until 0.0434783
ze'u a 0.0023337
ze'u Long 0.5000000
ze'u permanent 0.1666667
ze'u spent 0.2500000
ze'u How 0.0045872
ze'u , 0.0008237
ze'u have 0.0024570
ze'u long 0.1666667
ze'u no 0.0073529
ze'u time 0.0561798
ze'u waited 0.1176471
gos ( 0.0140845
gos Go 0.0285714
gos game 0.0526316
gos ) 0.0136986
maikrosaft Microsoft 0.2000000
tolmencre &apos;m 0.0021978
tolmencre stupid 0.2142857
tolmencre brick 0.5000000
tolmencre &apos;s 0.0022099
po'onai that 0.0016340
po'onai only 0.0111111
po'onai not 0.0021978
po'onai to 0.0004710
po'onai do 0.0029412
jarjinme Tungsten 1.0000000
ce'i of 0.0011561
ce'i % 0.3333333
ce'i families 0.1666667
ce'i American 0.0454545
ce'i this 0.0027027
ce'i follow 0.1666667
ce'i percent 0.2000000
ce'i pattern 1.0000000
Tsurix over 0.0384615
Tsurix Zurich 0.1818182
ropa one 0.0195122
ropa only 0.1111111
ropa Queen 0.3333333
jinmrlorensi Lawrencium 1.0000000
ji'asai I 0.0006468
ji'asai even 0.1250000
nalceikri Atheism 0.5000000
makfa It 0.0027701
makfa a 0.0011669
makfa magician 0.5000000
makfa perform 1.0000000
makfa magical 0.1333333
makfa supernatural 1.0000000
makfa magic 0.5000000
makfa miracle 1.0000000
tadjycolnunte'a Terrorism 1.0000000
puca'o howled 0.5000000
puca'o were 0.0092593
puca'o They 0.0064103
redo between 0.0769231
bukurectis in 0.0014409
bukurectis Bucharest 0.5000000
bukurectis was 0.0021552
bukurectis she 0.0082645
bukurectis Anka 0.1666667
zanfu'a &apos;re 0.0065789
zanfu'a lucky 0.1428571
rauva'e quite 0.0555556
rauva'e , 0.0008237
rauva'e In 0.0238095
rauva'e fact 0.0500000
rauva'e are 0.0015773
nozo'e nothing 0.0222222
nozo'e &apos;s 0.0011050
nozo'e There 0.0063291
ga'e G 0.5000000
ga'e &quot; 0.0023923
airland Ireland 1.0000000
airland of 0.0011561
airland Republic 0.2000000
akti idle 0.2500000
akti Turn 0.0869565
akti off 0.0434783
akti on 0.0042918
akti running 0.0434783
akti turn 0.0714286
akti it 0.0018553
akti down 0.0217391
akti get 0.0104167
glare NULL 0.0003564
glare warm 0.3000000
glare very 0.0135747
glare is 0.0019831
glare things 0.0172414
glare it 0.0037106
glare heat 0.6000000
glare &apos;s 0.0033149
glare high 0.0769231
glare hot 0.6785714
glare It 0.0166205
mi'irlarcu engineering 0.3333333
mi'irlarcu Electrical 0.5000000
nalmorji about 0.0056497
nalmorji all 0.0068966
nalmorji forgot 0.0400000
laurzengau louder 0.1428571
laurzengau you 0.0006468
laurzengau speak 0.0062112
laurzengau ? 0.0005643
uecu'i is 0.0004958
uecu'i Such 0.2000000
uecu'i life 0.0277778
uecu'i . 0.0001143
jitro everything 0.0222222
jitro bartender 0.5000000
jitro control 0.7142857
jitro administrator 0.3333333
jitro under 0.0454545
jitro manager 0.5000000
jitro administrators 0.5000000
jitro handle 0.2000000
jitro business 0.0588235
jitro spending 1.0000000
jitro controls 0.3333333
jitro have 0.0024570
ralju CEO 0.5000000
ralju Belgium 0.1428571
ralju leader 0.1666667
ralju Painting 0.2500000
ralju at 0.0037736
ralju principal 1.0000000
ralju IBM 0.2222222
ralju of 0.0046243
ralju Kiev 0.1250000
nononono cost 0.0500000
nononono it 0.0018553
nononono you 0.0006468
nononono than 0.0079365
nononono will 0.0049020
nononono 10,000 1.0000000
nononono yen 0.1666667
nononono think 0.0081967
nononono more 0.0090909
cimei three 0.0222222
cimei brothers 0.0769231
cimei has 0.0045872
cimei He 0.0016835
pelji is 0.0009916
pelji Paper 0.2500000
pelji Rock-paper-scissors 0.3333333
pelji just 0.0243902
pelji magical 0.1333333
pelji paper 0.4666667
po'e stomach 0.1000000
po'e his 0.0034965
po'e plants 0.2000000
po'e &apos;s 0.0011050
nago'i To 0.0192308
nago'i be 0.0068027
nago'i to 0.0004710
nago'i that 0.0016340
nago'i not 0.0021978
nago'i or 0.0080645
zimbabues Zimbabwe 1.0000000
ze'epu have 0.0024570
ze'epu never 0.0327869
klausevits Clausewitz 1.0000000
klausevits von 1.0000000
mitcinpa'i gay 0.2500000
naru'e shocking 0.5000000
naru'e hardly 0.2500000
naru'e That 0.0043860
naru'e nearly 0.5000000
tolclite rude 1.0000000
tolclite be 0.0034014
e'ese'a . 0.0001143
e'ese'a will 0.0049020
e'ese'a I 0.0003234
e'ese'a myself 0.0370370
e'ese'a do 0.0029412
e'ese'a it 0.0018553
selsa'a sing 0.0416667
selsa'a is 0.0004958
selsa'a It 0.0027701
selsa'a . 0.0002287
selsa'a song 0.2666667
selsa'a a 0.0005834
falgau dropped 0.2000000
falgau my 0.0022831
jisra juice 0.7777778
glazenca'a oil 0.1111111
glazenca'a heating 0.2000000
glazenca'a heater 0.5000000
glazenca'a device 0.2500000
glazenca'a uses 0.2000000
glazenca'a runs 0.0555556
glazenca'a on 0.0042918
fusra rot 1.0000000
fusra begun 0.5000000
fusra to 0.0009421
fusra rotten 0.5000000
fusra has 0.0045872
fusra decay 0.3333333
lisycku novel 0.0666667
lisycku twenty 0.1250000
lisycku at 0.0037736
ernan.kortes Hernán 1.0000000
ernan.kortes Cortés 1.0000000
cteki stops 0.1250000
cteki certificates 0.5000000
cteki taxes 1.0000000
cteki accruing 1.0000000
cteki tax 1.0000000
cteki after 0.0357143
cteki on 0.0042918
cteki Interest 1.0000000
rere ten 0.0526316
rere &apos;clock 0.1666667
rere o 0.0476190
lo Being 0.2727273
lo goat 0.2000000
lo Use 0.0833333
lo People 0.4210526
lo at 0.0264151
lo Baby 0.5000000
lo Milk 0.2500000
lo chocolates 0.2500000
lo about 0.0112994
lo With 0.1428571
lo Fertile 0.5000000
lo These 0.2077922
lo my 0.0662100
lo Which 0.1000000
lo Blind 1.0000000
lo There 0.0379747
lo Your 0.3174603
lo Red 0.1666667
lo volleyball 0.5000000
lo wires 0.3333333
lo Products 0.2857143
lo Birds 0.1250000
lo Others 0.5000000
lo whose 0.0714286
lo their 0.2549020
lo She 0.0085714
lo Air 0.5000000
lo Shopping 0.1666667
lo Short 0.5000000
lo alder 0.5000000
lo religious 0.1666667
lo bananas 0.0714286
lo Silly 0.2500000
lo Finding 0.3333333
lo ? 0.0942438
lo home 0.0347826
lo than 0.0396825
lo taken 0.1111111
lo Guns 0.5000000
lo Eating 0.2000000
lo our 0.2000000
lo 256 0.2500000
lo for 0.0686275
lo Determination 0.1666667
lo Russians 0.1666667
lo shit 0.1111111
lo hands 0.1176471
lo Sugar 0.2857143
lo Wood 0.5000000
lo when 0.1136364
lo Russian 0.1538462
lo bullshit 0.3333333
lo Apples 0.2000000
lo Fishing 0.3333333
lo What 0.0417827
lo Monday 0.3333333
lo needless 0.5000000
lo noblemen 0.5000000
lo Bananas 0.5000000
lo French 0.2388060
lo space 0.2857143
lo Illness 0.5000000
lo Translation 0.3333333
lo who 0.0080000
lo Baseball 0.5000000
lo Dry 0.5000000
lo oranges 0.4285714
lo Where 0.0488889
lo more 0.0545455
lo Females 0.5000000
lo Bats 0.5000000
lo to 0.1219972
lo listening 0.0769231
lo wanted 0.0142857
lo Aardvarks 0.5000000
lo Bottles 0.6666667
lo Bread 0.3000000
lo Weather 0.3333333
lo Spanish 0.1666667
lo Jaded 0.3333333
lo Who 0.0223881
lo Physics 0.2500000
lo Cats 0.4687500
lo leaves 0.4444444
lo without 0.1034483
lo circuses 0.3333333
lo his 0.3636364
lo some 0.3495146
lo Man 0.3333333
lo phonetic 0.5000000
lo Real 0.3333333
lo NULL 0.2247371
lo chopsticks 0.3333333
lo music 0.0625000
lo tasty 0.1111111
lo Dancing 0.3333333
lo . 0.2740681
lo if 0.1149425
lo &apos;s 0.0143646
lo God 0.1428571
lo Flour 0.4000000
lo Her 0.1794872
lo April 0.2500000
lo Time 0.2857143
lo Practice 0.2500000
lo pearls 0.5000000
lo Someone 0.0588235
lo that 0.0032680
lo Pastafarians 0.5000000
lo Fewer 0.3333333
lo An 0.4444444
lo Fall 0.3333333
lo The 0.4678179
lo Formerly 1.0000000
lo China 0.0370370
lo Cherry 0.5000000
lo her 0.0776699
lo Young 0.3333333
lo the 0.4870882
lo Italian 0.5000000
lo history 0.2500000
lo Gasoline 0.5000000
lo accept 0.1428571
lo Old 0.2857143
lo ceased 0.5000000
lo butter 0.1250000
lo One 0.0909091
lo Winter 0.2500000
lo Pizza 0.3333333
lo into 0.2741935
lo Rats 0.2500000
lo spring 0.4285714
lo Music 0.2000000
lo Five 0.1428571
lo quick 0.1666667
lo with 0.0161290
lo Hope 0.2857143
lo Nature 0.2500000
lo Whales 0.5000000
lo Beetroot 0.2500000
lo Slow 0.5000000
lo Both 0.3000000
lo Tea 0.1666667
lo an 0.3125000
lo Math 0.3333333
lo airplane 0.5000000
lo A 0.5042017
lo like 0.0027174
lo Cows 0.1666667
lo His 0.2698413
lo Life 0.2500000
lo Although 0.1250000
lo Drinking 0.4444444
lo Grandma 0.5000000
lo telephone 0.1538462
lo beans 0.5000000
lo As 0.1250000
lo Soccer 0.5000000
lo Aluminum 0.5000000
lo a 0.3477246
lo Every 0.0833333
lo He 0.0101010
lo Patience 0.3333333
lo in 0.0878963
lo 25 0.0714286
lo Trying 0.3333333
lo Pieces 0.3333333
lo Arabic 0.4000000
lo tobacco 0.7500000
lo Skateboarding 0.2500000
lo what 0.1467181
lo Esperanto 0.1500000
lo Water 0.2000000
lo Rhinoceros 0.5000000
lo Death 0.2500000
lo Mom 0.1666667
lo Those 0.2068966
lo School 0.5000000
lo Potential 0.5000000
lo confetti 0.5000000
lo Bees 0.5000000
lo Pessimists 0.3333333
lo watch 0.1000000
lo strawberries 0.5000000
lo books 0.0491803
lo Money 0.4000000
lo Speaking 0.1250000
lo It 0.0193906
lo trips 0.5000000
lo Our 0.2222222
lo To 0.1730769
lo Not 0.1250000
lo they 0.1025641
lo Enough 0.2857143
lo your 0.3269690
lo any 0.0862069
lo Cockroaches 0.5000000
lo by 0.0127389
lo Portugal 0.1666667
lo out 0.0219780
lo rice 0.0666667
lo More 0.2727273
lo Paper 0.2500000
lo eat 0.0111111
lo Dogs 0.3333333
lo air 0.0909091
lo Maybe 0.1250000
lo observed 0.2000000
lo Beauty 1.0000000
lo Children 0.3000000
lo computers 0.2857143
lo BIG 0.5000000
lo globalisation 0.5000000
lo Horses 0.6666667
lo Seen 0.3333333
lo electrical 0.5000000
lo of 0.0254335
lo Dayxa 0.5000000
lo Hawks 1.0000000
lo Latin 0.2000000
lo instance 0.5000000
lo exportable 1.0000000
lo All 0.2000000
lo people 0.1280000
lo Curiosity 0.2857143
lo Coming 0.3333333
lo Forty-eight 0.4000000
lo Marriage 0.5000000
lo Crows 0.2500000
lo above 0.2222222
lo bake 0.4000000
lo Human 0.1250000
lo Fish 0.3333333
lo Sentences 0.5000000
lo Half 0.5000000
lo somewhere 0.4444444
lo Little 0.5000000
lo Buffalo 0.2500000
lo Language 0.3333333
lo Policemen 1.0000000
lo This 0.1137725
lo Whose 0.1935484
lo Lawyers 0.5000000
lo Japanese 0.0192308
lo Gold 0.4285714
lo Parallel 0.3333333
lo My 0.3108434
lo today 0.0089286
lo Love 0.0555556
lo Rice 0.2500000
lo pens 0.5000000
lo Taro 0.1666667
lo Oranges 0.5000000
lo Nonon 0.5000000
lo Meat 0.5000000
lo Today 0.3846154
lo Computers 0.5000000
lo Colorless 0.5000000
lo English 0.2482759
lo Father 0.2500000
lo That 0.1140351
lo Dinner 0.5000000
lo on 0.0171674
lo Words 0.5000000
na’e didn 0.0099010
na’e not 0.0021978
na’e ’ 0.0769231
na’e t 0.1250000
fange as 0.0104167
fange foreigner 0.1666667
fange were 0.0092593
fange foreign 0.8333333
fange languages 0.0740741
fange who 0.0080000
fange guests 0.2000000
fange &apos;t 0.0023923
fange foreigners 0.5000000
fange He 0.0016835
fange doesn 0.0101010
fange Foreigners 0.5000000
fange know 0.0035587
fange unidentified 0.3333333
fange Traveling 0.2000000
re 256 0.2500000
re smaller 0.2000000
re of 0.0046243
re second 0.0666667
re two 0.7090909
re Tuesday 0.3333333
re 25 0.2142857
re holes 0.2500000
re blew 0.2000000
re both 0.2187500
re NULL 0.0014258
re 12 0.3333333
re eight-thirty 0.0769231
re other 0.0294118
re Two 0.3529412
re 2 0.3076923
re Both 0.5000000
re half 0.4000000
re twice 0.1428571
re twenty 0.1250000
re pronounce 0.2500000
mabru a 0.0005834
mabru them 0.0172414
mabru expect 0.1666667
mabru mammals 0.4000000
mabru mammal 1.0000000
mabru Mammal 1.0000000
mabru be 0.0034014
mabru to 0.0004710
benesuel Venezuela 1.0000000
bajeri'a revived 0.1111111
bajeri'a after 0.0357143
febvi boil 0.5000000
febvi point 0.1111111
febvi boiling 0.5000000
febvi Boiling 1.0000000
febvi is 0.0004958
brityrupnu pound 0.2000000
brityrupnu was 0.0021552
brityrupnu A 0.0084034
kualalumpur Lumpur 0.5000000
kualalumpur Kuala 0.5000000
nalgundei to 0.0004710
nalgundei expectations 1.0000000
nalgundei vacation 0.5000000
nalgundei &apos;t 0.0011962
nalgundei up 0.0100000
nalgundei come 0.0108696
nalgundei didn 0.0099010
[pu I 0.0003234
batci cannot 0.0227273
batci bite 0.3000000
batci anymore 0.0333333
batci me 0.0018797
batci in 0.0014409
batci fingernails 0.5000000
batci bites 0.5000000
batci bit 0.0714286
labno as 0.0104167
labno of 0.0011561
labno younger 0.3333333
labno wolves 0.4000000
labno sign 0.5000000
labno they 0.0128205
labno wolf 0.6666667
labno began 0.0625000
plita flat 0.5000000
bazigi and 0.0026247
bazigi of 0.0011561
bazigi out 0.0109890
bazigi sight 0.1428571
bazigi soon 0.0277778
bazigi was 0.0021552
bazigi left 0.0156250
bazigi train 0.0333333
skami computer 0.9500000
skami Computers 0.5000000
skami does 0.0166667
skami computers 0.4285714
skami Computer 0.3333333
kikeron Cicero 0.3333333
kikeron Tully 0.1000000
jinmrzirkoni Zirconium 1.0000000
briju work 0.0631579
briju office 0.6000000
briju factory 0.1250000
briju secretary 0.1666667
ketytu'a South 0.1666667
ketytu'a America 0.0263158
kulnr,farsi Persian 1.0000000
xano in 0.0014409
xano sixty 0.5000000
xano There 0.0063291
xano minute 0.0588235
xano a 0.0005834
xano seconds 0.3333333
xano are 0.0015773
jaginai you 0.0012937
jaginai can 0.0038911
jaginai are 0.0015773
jaginai If 0.0416667
me'au when 0.0075758
me'au it 0.0018553
me'au have 0.0024570
me'au something 0.0106383
me'au said 0.0082645
me'au originally 0.5000000
me'au happened 0.0196078
nunfanva scholarly 1.0000000
nunfanva at 0.0037736
nunfanva Translation 0.3333333
nunfanva discipline 1.0000000
nunfanva exercises 0.2500000
nunfanva translation 0.0714286
le'e Lots 0.5000000
le'e users 0.1250000
le'e The 0.0015699
le'e do 0.0029412
le'e Teenagers 0.5000000
le'e Americans 0.3333333
le'e Teenage 0.5000000
le'e aimed 0.1666667
relma'i February 1.0000000
meg talks 0.0714286
meg Meg 0.5000000
meg looks 0.0163934
meg just 0.0121951
nagi'a pass 0.0526316
nagi'a the 0.0004452
nagi'a who 0.0160000
nagi'a ones 0.2000000
nagi'a are 0.0015773
nagi'a only 0.0111111
nagi'a students 0.0454545
nik ! 0.0018519
nik hurried 0.3333333
nik Nick 0.2500000
nik his 0.0034965
Laurie Laurie 0.0833333
samcfi bug 0.2500000
samcfi or 0.0080645
ekuador Ecuador 1.0000000
deivis Davis 1.0000000
deivis Mr 0.0833333
Link Link 1.0000000
Link the 0.0004452
Link mends 1.0000000
influ,enzas the 0.0004452
influ,enzas catch 0.0909091
influ,enzas flu 0.2000000
punli swollen 0.5000000
punli a 0.0005834
punli little 0.0169492
cmoni scream 0.2222222
cmoni going 0.0151515
cmoni hems 0.2500000
cmoni &apos;m 0.0043956
cmoni to 0.0014131
cmoni neighing 1.0000000
cmoni hedge-pig 0.2500000
cmoni bark 0.1111111
2011 US 0.2000000
2011 till 0.1250000
2011 2011 0.5000000
2011 from 0.0053191
2011 2008 0.2000000
pacna Have 0.0256410
pacna dies 0.1200000
pacna she 0.0165289
pacna dream 0.0454545
pacna for 0.0049020
pacna becoming 0.5000000
pacna hoping 0.2500000
pacna hopes 0.5000000
pacna Dream 1.0000000
pacna needed 0.1000000
pacna hoped 0.4117647
pacna hope 0.4444444
xokaidon he 0.0038610
xokaidon year 0.0384615
xokaidon in 0.0014409
xokaidon Was 0.0666667
xokaidon Hokkaido 0.0666667
xokaidon last 0.0243902
zgitigni the 0.0004452
zgitigni concert 0.1428571
zgitigni at 0.0037736
sangu'e think 0.0081967
sangu'e Spain 1.0000000
sangu'e I 0.0003234
sangu'e , 0.0008237
du'o great 0.0196078
du'o &apos;s 0.0011050
du'o According 0.2000000
du'o that 0.0016340
du'o ! 0.0018519
du'o Data 0.2500000
du'o Under 0.3333333
du'o think 0.0081967
du'o Christianity 0.3333333
pavo and 0.0052493
pavo primes 1.0000000
pavo exactly 0.0526316
pavo 10 0.1538462
pavo two 0.0181818
pavo are 0.0031546
pavo 14 0.1818182
pavo between 0.1538462
pavo There 0.0126582
pavo only 0.0111111
rijno silver 1.0000000
rijno a 0.0005834
rijno Silver 1.0000000
ru from 0.0053191
ru about 0.0056497
ru away 0.0303030
ru anybody 0.0344828
ru there 0.0080000
ru it 0.0037106
xamgau making 0.1250000
xamgau fun 0.0370370
xamgau joke 0.1000000
xamgau of 0.0011561
ritygu'e United 0.0666667
ritygu'e Kingdom 0.3333333
ritygu'e Britain 0.3333333
iesos Jesus 0.1000000
ckafrspreso a 0.0005834
ckafrspreso have 0.0024570
ckafrspreso maker 0.5000000
ca'a is 0.0014874
ca'a which 0.0250000
ca'a in 0.0043228
ca'a online 0.1000000
ca'a snowing 0.1666667
ca'a shock 0.3333333
ca'a one 0.0048780
ca'a NULL 0.0001782
ca'a am 0.0048780
ca'a &apos;m 0.0021978
ca'a dream 0.0454545
mongolo Mongolia 1.0000000
zumri Maize 1.0000000
zumri Corn 0.5000000
zumri ... 0.0454545
zumri ah 1.0000000
kalri and 0.0026247
kalri Open 0.1250000
kalri open 0.1764706
kalri up 0.0100000
kalri opened 0.1818182
kalri opening 0.1000000
miuri'el Happy 0.0588235
miuri'el , 0.0008237
miuri'el Muiriel 0.2857143
miuri'el birthday 0.0400000
vo'a cannibal 0.1666667
vo'a busies 0.3333333
vo'a astronaut 0.2500000
vo'a yawning 0.3333333
vo'a bag 0.0666667
vo'a Dad 0.1000000
vo'a tooth 0.5000000
vo'a father 0.0075758
vo'a feeds 0.1250000
vo'a toy 0.1111111
vo'a hates 0.0434783
vo'a pigs 1.0000000
vo'a ears 0.0666667
vo'a myself 0.0740741
vo'a earth 0.0476190
vo'a home 0.0173913
vo'a fed 0.2000000
vo'a breast-pocket 0.2500000
vo'a choice 0.1428571
vo'a itself 0.7142857
vo'a their 0.0588235
vo'a his 0.0489510
vo'a brother 0.0370370
vo'a NULL 0.0032080
vo'a herself 0.1538462
vo'a nipples 0.5000000
vo'a themselves 0.1250000
vo'a invitation 0.1111111
vo'a thinks 0.0909091
vo'a him 0.0139860
vo'a craft 0.3333333
vo'a he 0.0193050
vo'a own 0.0243902
vo'a hid 0.1250000
vo'a her 0.0388350
vo'a zoo 0.1250000
vo'a of 0.0011561
eidai come 0.0108696
eidai You 0.0024038
eidai should 0.0158730
eidai must 0.0156250
eidai month 0.0909091
brito about 0.0056497
brito life 0.0277778
brito Britain 0.3333333
brito school 0.0153846
brito surrender 0.2500000
brito hear 0.0256410
brito English 0.0068966
brito in 0.0014409
terselmlu relatively 0.5000000
lepu'u life 0.0277778
lepu'u To 0.0192308
lepu'u to 0.0004710
lepu'u love 0.0062112
by.XXX.by XXX 0.2000000
by.XXX.by say 0.0121951
tuple leg 0.5555556
tuple are 0.0015773
tuple legs 0.5000000
bidgu'e Indonesia 1.0000000
xauaiis been 0.0129870
xauaiis Hawaii 0.1428571
xauaiis to 0.0004710
ogauas speaking 0.0714286
ogauas . 0.0001143
ogauas is 0.0004958
ogauas Ogawa 1.0000000
serbias Serbia 1.0000000
Steve an 0.0069444
Steve Steve 0.1666667
Steve American 0.0454545
Steve is 0.0004958
ke'a which 0.0500000
ke'a white 0.0344828
ke'a Allan 0.2500000
ke'a version 0.2000000
ke'a Vulcan 0.2500000
ke'a whose 0.2142857
ke'a grandfather 0.0833333
ke'a plastic 0.1666667
ke'a herself 0.0769231
ke'a shot 0.5000000
ke'a going 0.0075758
ke'a actually 0.0625000
ke'a NULL 0.0030298
ke'a failed 0.1666667
ke'a guy 0.0909091
ke'a looking 0.0571429
ke'a respects 0.2105263
ke'a sets 0.3333333
ke'a dreaming 0.1428571
ke'a aced 0.2500000
ke'a to 0.0014131
ke'a Dumpty 0.2000000
ke'a busies 0.3333333
ke'a Tea 0.1666667
ke'a read 0.0563380
ke'a examples 0.2500000
ke'a built 0.0909091
ke'a put 0.0571429
ke'a red 0.0312500
ke'a passed 0.2000000
ke'a whom 0.1666667
ke'a anywhere 0.1428571
ke'a smarter 0.3333333
ke'a folly 0.0769231
ke'a do 0.0058824
ke'a who 0.0320000
ke'a overhead 0.2500000
ke'a play 0.0294118
kafke once 0.0416667
kafke have 0.0024570
kafke coughed 0.3333333
kafke Someone 0.0588235
kafke a 0.0005834
kafke cough 0.3333333
ta'a me 0.0075188
ta'a tell 0.0142857
ta'a someone 0.0158730
ta'a Excuse 0.3000000
ta'a but 0.0084034
ta'a , 0.0016474
ta'a could 0.0222222
ta'a where 0.0119048
ckire thanked 0.5000000
ckire you 0.0019405
ckire in 0.0086455
ckire thank-you 0.3333333
ckire thanks 0.1818182
ckire Thanks 0.3333333
ckire NULL 0.0001782
ckire advance 0.3636364
ckire for 0.0392157
ckire thankful 0.3333333
ckire Thank 0.2941176
ckire &apos;m 0.0021978
ckire am 0.0048780
ckire grateful 0.6666667
ckire thank 0.2500000
bangrmalti Maltese 1.0000000
bangrmalti language 0.0120482
lazyzda home 0.0086957
jinga won 0.0545455
jinga winning 0.5000000
jinga defeat 0.4285714
jinga amount 0.2000000
jinga Very 0.1111111
jinga . 0.0019437
jinga and 0.0026247
jinga wins 0.5000000
jinga NULL 0.0001782
jinga win 1.0000000
jinga defeated 0.3333333
jinga can 0.0038911
jinga Checkmate 1.0000000
jinga sizeable 0.3333333
jinga triumphs 0.2000000
jinga beat 0.2000000
jinga will 0.0049020
jinga ! 0.0018519
jinga lottery 0.1666667
jinga lost 0.0298507
File:Windows98.png Windows98.png 1.0000000
File:Windows98.png File 1.0000000
File:Windows98.png : 0.0238095
nau'u It 0.0055402
sferies Sweden 0.1818182
nanstici southwest 1.0000000
nanstici the 0.0004452
nanstici from 0.0053191
nanstici blowing 0.3333333
zganygau show 0.0434783
naja , 0.0008237
naja do 0.0029412
naja fear 0.0909091
naja death 0.0769231
naja not 0.0021978
naja but 0.0084034
naja dying 0.0769231
fo'a He 0.0016835
fo'a and 0.0026247
fo'a hems 0.2500000
fo'a haws 1.0000000
nu arrival 0.3333333
nu change 0.1875000
nu who 0.0320000
nu heard 0.0689655
nu affects 0.2000000
nu writing 0.0434783
nu climbing 0.4000000
nu being 0.1914894
nu to 0.2001884
nu curse 0.1250000
nu Because 0.1111111
nu whole 0.1428571
nu try 0.1250000
nu approach 0.3333333
nu doesn 0.0101010
nu farts 0.5000000
nu can 0.0116732
nu meeting 0.1666667
nu pheasant 0.2500000
nu necessary 0.0454545
nu programming 0.2000000
nu standing 0.1538462
nu Castro 0.5000000
nu without 0.1034483
nu impact 0.3333333
nu dies 0.0800000
nu Painting 0.2500000
nu Before 0.3333333
nu some 0.0097087
nu NULL 0.0522189
nu allow 0.4285714
nu activity 0.5000000
nu light 0.0526316
nu stages 0.2500000
nu handspring 0.2000000
nu using 0.0526316
nu Dancing 0.3333333
nu lose 0.0714286
nu if 0.1149425
nu avoided 0.1666667
nu wish 0.1612903
nu games 0.2857143
nu intense 0.2000000
nu sting 0.5000000
nu collecting 0.2500000
nu anonymous 0.3333333
nu better 0.1666667
nu guide 0.1428571
nu help 0.0117647
nu that 0.0931373
nu experiment 0.1250000
nu ride 0.4000000
nu shines 0.2500000
nu therefore 0.1428571
nu because 0.2222222
nu success 0.2857143
nu trick 0.2500000
nu could 0.0222222
nu time 0.0112360
nu motivated 0.1666667
nu her 0.0048544
nu interrupted 0.2500000
nu probably 0.0800000
nu watching 0.1764706
nu jogging 0.1666667
nu down 0.0434783
nu mystery 0.2000000
nu swim 0.1250000
nu bath 0.2000000
nu plays 0.1111111
nu walk 0.0357143
nu arriving 0.1000000
nu you 0.0032342
nu it 0.0129870
nu Being 0.2727273
nu upside 0.2500000
nu multitasking 0.3333333
nu Learning 1.0000000
nu hoping 0.2500000
nu relaxing 0.3333333
nu send 0.1111111
nu fishing 0.2500000
nu businessman 0.2500000
nu date 0.1428571
nu kiss 0.1875000
nu afford 0.3333333
nu cared 0.3333333
nu invention 0.2000000
nu took 0.0303030
nu galxe 0.2500000
nu well 0.0588235
nu joy 0.2000000
nu murders 1.0000000
nu worst 0.2000000
nu early 0.0625000
nu tell 0.0142857
nu about 0.0169492
nu leave 0.0243902
nu high 0.0769231
nu revise 0.3333333
nu fly 0.0769231
nu There 0.0126582
nu succeed 0.1428571
nu powers 1.0000000
nu pain 0.0833333
nu studying 0.1136364
nu prove 0.4285714
nu succeeding 0.2500000
nu case 0.2000000
nu dream 0.1363636
nu rudeness 0.2857143
nu Marcus 0.3333333
nu Jaani 0.3333333
nu bedroom 0.2500000
nu Waiting 0.3333333
nu Shopping 0.1666667
nu must 0.0937500
nu Unless 0.5000000
nu lengthy 0.1666667
nu translating 0.2000000
nu after 0.1428571
nu let 0.2400000
nu taken 0.1111111
nu interrogation 0.5000000
nu Eating 0.2000000
nu Finding 0.3333333
nu for 0.0759804
nu work 0.0105263
nu wanting 0.3333333
nu Seeing 0.3333333
nu saplings 0.3333333
nu pay 0.0400000
nu cook 0.0909091
nu when 0.3106061
nu sleeping 0.1428571
nu leaving 0.1739130
nu complaints 0.2000000
nu wine 0.0666667
nu information 0.2500000
nu rinse 0.3333333
nu needed 0.1000000
nu he 0.0463320
nu share 0.5000000
nu comprehend 0.5000000
nu know 0.0106762
nu art 0.1428571
nu halt 0.3333333
nu had 0.0508475
nu discussion 0.2857143
nu run 0.0800000
nu strong 0.0588235
nu running 0.0434783
nu clearly 0.1666667
nu decisions 0.3333333
nu memories 0.5000000
nu clean 0.1250000
nu Prevention 0.5000000
nu heating 0.2000000
nu thought 0.0625000
nu long 0.0416667
nu traffic 0.2500000
nu discovering 0.3333333
nu shout 0.3333333
nu asking 0.1111111
nu If 0.0972222
nu so 0.0277778
nu death 0.2307692
nu shouting 0.3333333
nu contribute 0.5000000
nu exhausting 0.1250000
nu melting 0.2000000
nu air 0.0909091
nu drive 0.0769231
nu astronaut 0.2500000
nu hopes 0.5000000
nu sore 0.5000000
nu between 0.0769231
nu silence 0.1428571
nu oneself 0.0833333
nu tame 0.5000000
nu distance 0.1428571
nu celebrate 1.0000000
nu raise 0.2000000
nu divorce 0.5000000
nu of 0.0034682
nu houses 0.0625000
nu detailed 0.3333333
nu eating 0.0714286
nu drumming 0.3333333
nu well-knownness 0.3333333
nu make 0.0153846
nu memory 0.2857143
nu destruction 0.5000000
nu cleaned 0.5000000
nu Curiosity 0.1428571
nu translate 0.1000000
nu return 0.1538462
nu stopped 0.0800000
nu requires 0.1428571
nu robbery 0.3333333
nu Lock 1.0000000
nu stronger 0.1250000
nu Coming 0.3333333
nu war 0.2727273
nu future 0.2222222
nu while 0.2727273
nu permanent 0.3333333
nu skills 0.5000000
nu poorly 0.1666667
nu correctly 0.2500000
nu something 0.0106383
nu foot 0.0909091
nu sees 0.2500000
nu President 0.3333333
nu saw 0.0109890
nu somewhere 0.1111111
nu online 0.1000000
nu party 0.0909091
nu glad 0.2727273
nu progress 0.3333333
nu permission 0.2222222
nu go 0.0040161
nu follow 0.1666667
nu concert 0.1428571
nu accepting 0.5000000
nu speeches 0.1666667
nu Necessity 0.2500000
nu should 0.0158730
nu travelling 0.2500000
nu voyage 0.1666667
nu Love 0.1111111
nu Their 0.2000000
nu stop 0.0666667
nu point 0.2222222
nu scream 0.3333333
nu does 0.0333333
nu pool 0.1666667
nu be 0.0034014
nu learning 0.1250000
nu someone 0.0158730
nu footsteps 0.3333333
nu possible 0.0555556
nu prevented 0.2500000
nu dancing 0.2500000
nu initial 0.5000000
nu see 0.0387597
nu discussing 0.5000000
nu temporary 1.0000000
nu game 0.1052632
nu presence 0.2500000
nu lock 0.3333333
nu before 0.1206897
nu Music 0.2000000
nu hide 0.2000000
nu performance 0.2500000
nu Bridge 0.1666667
nu bugging 0.5000000
nu extent 0.2000000
nu beauty 0.1111111
nu persuade 0.4000000
nu guess 0.1428571
nu forgotten 0.1428571
nu whenever 0.2500000
nu Believe 0.1000000
nu chess 0.3333333
nu drinking 0.1481481
nu trust 0.1000000
nu finished 0.1250000
nu lucky 0.1428571
nu replies 0.2000000
nu fogey 0.3333333
nu Drinking 0.2222222
nu made 0.0563380
nu irony 0.2500000
nu Life 0.1666667
nu write 0.0625000
nu smoking 0.0909091
nu invitation 0.4444444
nu Starcraft 0.3333333
nu Trying 0.3333333
nu presidential 0.2500000
nu adjustments 0.5000000
nu childhood 0.5000000
nu seeing 0.2142857
nu offending 0.5000000
nu Skateboarding 0.2500000
nu what 0.0308880
nu risk 0.2000000
nu falling 0.2500000
nu gunshot 0.2500000
nu traveling 0.2857143
nu snacking 0.5000000
nu believing 0.3000000
nu happiness 0.0769231
nu first 0.0344828
nu War 0.1666667
nu wasn 0.0400000
nu greeting 0.3333333
nu ignorance 0.1666667
nu vegetables 0.1666667
nu reason 0.0476190
nu is 0.0004958
nu peace 0.3333333
nu hereby 0.2500000
nu trips 0.2500000
nu washing-up 0.5000000
nu preventing 1.0000000
nu will 0.0147059
nu until 0.3043478
nu Clarke 0.2500000
nu Enough 0.1428571
nu Not 0.0625000
nu Valsi 0.2000000
nu When 0.0505051
nu they 0.0384615
genxu hook 0.5000000
vobmipri hiding 0.4545455
vobmipri &apos;s 0.0022099
vobmipri They 0.0064103
vobmipri He 0.0016835
vobmipri &apos;re 0.0065789
vobmipri She 0.0028571
trubasti conquer 0.5000000
e'anmo let 0.0400000
grana rods 1.0000000
grana stick 0.2500000
grana processed 0.3333333
grana and 0.0052493
grana melting 0.2000000
grana cane 0.5000000
lamji adjacent 0.5000000
lamji next 0.1428571
lamji door 0.0750000
lamji last 0.0243902
lamji to 0.0018841
lamji person 0.0181818
norvifne fresh 0.1428571
norvifne not 0.0021978
selcru rights 0.3333333
selcru hardware 0.2500000
selcru available 1.0000000
selcru here 0.0059524
selcru required 0.3333333
selcru list 0.1000000
selcru of 0.0011561
selcru A 0.0084034
selsanga NULL 0.0001782
selsanga about 0.0056497
selsanga songs 0.5000000
selsanga song 0.0666667
ficysi'u each 0.0192308
ficysi'u from 0.0053191
ficysi'u other 0.0147059
ficysi'u taste 0.1111111
ficysi'u distinct 0.2500000
ficysi'u in 0.0014409
po'edji want 0.0071685
po'edji a 0.0011669
la.kioton Kyoto 0.2142857
la.kioton in 0.0057637
axmed Ahmad 0.5000000
axmed name 0.0105263
axmed is 0.0004958
zgagau difficulties 0.2000000
zgagau what 0.0038610
zgagau show 0.0434783
sfaile file 1.0000000
seldji turn 0.0714286
pujeca has 0.0045872
pujeca robber 0.2500000
pujeca solved 0.2500000
pujeca still 0.0256410
pujeca been 0.0129870
notci notice 0.2500000
notci texted 0.2500000
notci message 0.5000000
notci note 0.3333333
notci thank-you 0.3333333
djaspi bits 0.5000000
djaspi are 0.0015773
prulamji week 0.0400000
prije wisdom 0.3333333
prije wise 0.4444444
prije NULL 0.0001782
prije so 0.0277778
prije thinks 0.1818182
prije as 0.0312500
prije he 0.0115830
prije not 0.0021978
nintadni &apos;m 0.0021978
nintadni a 0.0005834
nintadni beginner 0.5000000
nintadni in 0.0014409
jinmrneptuni Neptunium 1.0000000
oradeas Oradea 1.0000000
jetyja'o who 0.0080000
jetyja'o the 0.0004452
jetyja'o murderer 0.2500000
jetyja'o prove 0.1428571
jetyja'o is 0.0004958
titla some 0.0097087
titla Sweet 0.2500000
titla sweet 0.7500000
titla NULL 0.0001782
titla candy 0.1111111
titla dreams 0.1111111
titla have 0.0024570
datsi'u different 0.0500000
datsi'u are 0.0015773
gice'o and 0.0052493
gice'o conquer 0.5000000
la.uan is 0.0009916
la.uan Wang 0.3333333
la.uan Mr 0.0833333
la.uan from 0.0053191
la.uan Mr. 0.1666667
cidjrsatsuma for 0.0024510
cidjrsatsuma dessert 0.5000000
vanju some 0.0097087
vanju cider 0.5000000
vanju wine 0.6666667
vanju wines 1.0000000
vanju , 0.0008237
cribe A 0.0336134
cribe Bear 0.5000000
cribe bear 0.5000000
cribe a 0.0005834
cribe anymore 0.0333333
cribe bears 1.0000000
fancu NULL 0.0001782
fancu Function 0.5000000
fancu mathematics 0.1000000
fancu decay 0.3333333
fancu function 0.5000000
fancu cessation 0.5000000
fancu ( 0.0140845
fancu ) 0.0136986
tcesmisi'u common 0.0909091
tcesmisi'u in 0.0014409
tcesmisi'u much 0.0116279
tcesmisi'u had 0.0084746
mokau is 0.0009916
mokau it 0.0037106
mokau easiest 0.1666667
mokau throw 0.1666667
mokau what 0.0077220
mokau kind 0.0547945
mokau was 0.0021552
mokau he 0.0038610
mokau NULL 0.0001782
mokau of 0.0034682
mokau are 0.0031546
mokau ain 0.6666667
mokau am 0.0048780
zu'ucu'i it 0.0018553
zu'ucu'i points 0.5000000
zu'ucu'i of 0.0011561
zu'ucu'i From 0.5000000
zu'ucu'i both 0.0312500
zu'ucu'i view 0.3333333
zmudu'a some 0.0097087
zmudu'a more 0.0090909
zmudu'a me 0.0018797
nunda'a for 0.0024510
nunda'a battle 1.0000000
lisxracku reading 0.0357143
lisxracku always 0.0142857
lisxracku comics 0.2500000
lisxracku &apos;s 0.0011050
kentykis screams 0.2000000
kentykis Kentucky 0.5000000
rotsu thick 0.7500000
tolci'orai eldest 1.0000000
tolci'orai is 0.0004958
tolci'orai the 0.0004452
jinmrberkeli Berkelium 1.0000000
lu'o together 0.0714286
lu'o the 0.0004452
lu'o hunting 0.5000000
lu'o other 0.0147059
vajmau important 0.0344828
vajmau than 0.0079365
vajmau intelligence 0.2500000
vajmau more 0.0090909
mujyfa'o of 0.0011561
mujyfa'o end 0.0416667
tolselcurmi prohibited 0.2000000
norsau with 0.0040323
norsau familiar 0.1250000
crovu'i spicy 0.5000000
ti'a backed 0.3333333
ti'a behind 0.2222222
jvinu by 0.0063694
jvinu spectacular 0.5000000
jvinu the 0.0008905
jvinu sight 0.1428571
jvinu from 0.0053191
jvinu view 0.6666667
jvinu a 0.0005834
cecla Nice 0.0833333
cecla ! 0.0018519
cecla shoot 0.1666667
cecla Cannon 0.2500000
cecla shot 0.1666667
birje ! 0.0018519
birje Beer 0.3333333
birje beer 0.7407407
birje got 0.0133333
birje &apos;ve 0.0131579
deivid.pekinpas David 0.1428571
deivid.pekinpas Peckinpah 1.0000000
jursa on 0.0042918
jursa his 0.0034965
jursa expression 0.2500000
jursa harsh 1.0000000
jursa face 0.0833333
jenmi in 0.0014409
jenmi the 0.0004452
jenmi &apos;m 0.0021978
jenmi army 0.5000000
libgu'e Libya 1.0000000
krefu time 0.0112360
krefu first 0.0344828
krefu NULL 0.0001782
krefu ! 0.0018519
krefu again 0.0697674
krefu that 0.0016340
gy.Pinocchio.gy Pinocchio 0.2500000
gy.Pinocchio.gy : 0.0238095
gy.Pinocchio.gy says 0.0294118
ze closes 0.3333333
ze 17 0.2500000
ze store 0.0526316
ze 7 0.5000000
ze Jump 0.3333333
ze at 0.0037736
ze NULL 0.0001782
ze seven 0.5000000
u'unai didn 0.0099010
u'unai &apos;t 0.0011962
larxra picture 0.0500000
gy.Android.gy Android 0.5000000
gy.Android.gy device 0.2500000
iseni'inai animals 0.0714286
moskovas Moscow 1.0000000
jenca shock 0.3333333
jenca &apos;re 0.0065789
jenca &apos;s 0.0011050
jenca shocked 0.5000000
jenca situation 0.2500000
jenca a 0.0005834
jenca NULL 0.0001782
jenca shocking 0.5000000
jenca almost 0.0500000
kuritcibas Curitiba 1.0000000
sorbaucre be 0.0034014
sorbaucre polyglot 1.0000000
sorbaucre a 0.0005834
sarkozis Sarkozy 1.0000000
tolci'o experienced 1.0000000
tolci'o in 0.0014409
tolci'o an 0.0138889
tolci'o tiredness 1.0000000
tolci'o old 0.1410256
tolci'o An 0.2222222
tolci'o fogey 0.3333333
arseniko Arsenic 1.0000000
nalseljunbau Lingua 1.0000000
nalseljunbau Ignota 1.0000000
enchiladas enchiladas 0.2500000
co'oi Hi 0.0384615
co'oi George 0.0714286
fudzi was 0.0021552
fudzi Mt 0.3333333
fudzi with 0.0040323
fudzi . 0.0001143
fudzi covered 0.3333333
fudzi Fuji 1.0000000
gajanai did 0.0064103
gajanai NULL 0.0001782
gajanai &quot; 0.0047847
gajanai If 0.0833333
rulstani broccoli 0.5000000
xalbo a 0.0005834
xalbo joking 0.6000000
xalbo of 0.0011561
xalbo it 0.0018553
xalbo way 0.0140845
xalbo joke 0.1000000
xalbo by 0.0063694
xalbo Xalbo 0.1666667
luk.besyn Luc 1.0000000
luk.besyn Besson 1.0000000
volve back 0.1666667
volve while 0.0227273
volve soon 0.0833333
volve is 0.0004958
volve in 0.0014409
volve be 0.0170068
volve &apos;ll 0.0067568
volve return 0.0769231
djudji help 0.0117647
djudji cry 0.0625000
djudji for 0.0024510
kunti vacuum 0.2500000
kunti unless 0.4000000
kunti , 0.0016474
kunti empty 0.7500000
minde told 0.0857143
minde commanding 0.2500000
minde dismiss 0.2500000
minde were 0.0277778
minde tells 0.2500000
minde command 0.4285714
minde tell 0.0142857
minde commanded 1.0000000
minde NULL 0.0001782
litki liquids 1.0000000
la.okinauan to 0.0004710
la.okinauan Okinawa 0.1666667
la.okinauan been 0.0129870
zernalfu'e doubt 0.1250000
zernalfu'e &apos;re 0.0065789
zernalfu'e , 0.0008237
zernalfu'e innocence 1.0000000
zernalfu'e innocent 0.6000000
zernalfu'e was 0.0021552
zernalfu'e that 0.0016340
selsaubi'o &apos;ll 0.0067568
selsaubi'o used 0.0333333
selsaubi'o get 0.0104167
jdini NULL 0.0001782
jdini does 0.0166667
jdini money 0.6842105
jdini Money 0.4000000
jdini cost 0.0500000
jdini is 0.0004958
jdini it 0.0037106
jdini much 0.0232558
jdini wallet 0.2000000
jdini financial 0.5000000
jdini any 0.0172414
la.toci,on Toshio 1.0000000
la.toci,on does 0.0166667
la.toci,on Who 0.0074627
jufpau in 0.0014409
jufpau phrase 0.1111111
mroxadni be 0.0034014
mroxadni body 0.1428571
mroxadni dead 0.0322581
mroxadni a 0.0005834
ma'urni'u any 0.0172414
ma'urni'u with 0.0040323
ma'urni'u woman 0.0200000
ma'urni'u kissed 0.1111111
balcu'e university 0.6000000
balcu'e a 0.0011669
balcu'e is 0.0004958
balcu'e He 0.0016835
balcu'e Plymouth 0.5000000
nuncenba changes 0.1666667
nuncenba in 0.0014409
nuncenba to 0.0004710
nuncenba temperature 0.3333333
lankyboiterjvi than 0.0079365
lankyboiterjvi basketball 0.1250000
10 ten 0.0526316
10 minutes 0.0227273
10 fast 0.0256410
cibjgacmaci exponential 0.3333333
la.tam Tom 0.0043860
la.tam speaks 0.0416667
la.tam shorter 0.1666667
mu'ima the 0.0004452
mu'ima to 0.0004710
mu'ima is 0.0004958
mu'ima ? 0.0022573
mu'ima Why 0.0273973
mu'ima motivation 1.0000000
mu'ima What 0.0027855
mu'ima these 0.0277778
mu'ima for 0.0024510
mu'ima are 0.0015773
di'e the 0.0004452
di'e sentence 0.0131579
di'e false 0.0714286
di'e following 0.1666667
di'e express 0.5000000
di'e next 0.0285714
selcti ate 0.0172414
banzuxe'o studies 0.1250000
banzuxe'o as 0.0104167
banzuxe'o well 0.0392157
banzuxe'o Chinese 0.0357143
seldei for 0.0024510
seldei river 0.0526316
prityxanpre right-handed 1.0000000
prityxanpre is 0.0004958
prityxanpre &apos;m 0.0021978
prityxanpre am 0.0048780
prityxanpre . 0.0003430
bu'u Where 0.0222222
bu'u in 0.0619597
bu'u crossroad 0.1666667
bu'u shone 0.2500000
bu'u Oxford 0.5000000
bu'u trout 0.3333333
bu'u sleeps 0.0714286
bu'u &apos;m 0.0021978
bu'u somewhere 0.3333333
bu'u at 0.1018868
bu'u play 0.0294118
bu'u work 0.0105263
bu'u whistling 0.2000000
bu'u Far 0.5000000
bu'u this 0.0027027
bu'u At 0.0526316
bu'u where 0.0119048
bu'u stayed 0.0833333
bu'u owner 0.2000000
bu'u Gotham 0.2000000
bu'u works 0.1578947
bu'u outside 0.1111111
bu'u laid 0.5000000
bu'u studying 0.0454545
bu'u twinkling 0.3333333
bu'u tree 0.0384615
bu'u Kazan 0.1666667
bu'u earthquake 0.5000000
bu'u In 0.0952381
bu'u the 0.0004452
bu'u prophet 0.5000000
bu'u blocked 0.1111111
bu'u died 0.0227273
bu'u restaurant 0.0270270
bu'u on 0.0214592
bu'u NULL 0.0005347
bu'u Juliet 0.2000000
skot when 0.0075758
skot her 0.0097087
skot Scott 0.5000000
skot resumed 0.5000000
skot career 0.3333333
blutu'u scared 0.1111111
blutu'u practicing 0.2500000
blutu'u herself 0.0384615
gusta Where 0.0044444
gusta restaurant 0.4594595
gusta is 0.0009916
gusta there 0.0080000
gusta restaurants 1.0000000
gusta a 0.0011669
nunpe'i visit 0.0714286
nunpe'i next 0.0285714
nunpe'i During 0.2500000
nunpe'i you 0.0006468
nunpe'i time 0.0112360
nunpe'i meeting 0.0833333
nunpe'i was 0.0021552
nunpe'i will 0.0049020
nunpe'i posted 0.1428571
tam &apos;s 0.0099448
tam is 0.0029747
tam looked 0.0666667
tam with 0.0040323
tam Tom 0.1184211
tam for 0.0024510
tam says 0.0294118
tam residence 1.0000000
tam wouldn 0.1000000
du'e Countless 1.0000000
du'e quit 0.0555556
du'e ! 0.0018519
du'e &apos;s 0.0011050
du'e much 0.0232558
du'e too 0.1000000
du'e many 0.0365854
du'e needy 0.1250000
du'e Too 0.1666667
du'e expensive 0.1250000
sliders Sliders 1.0000000
rirni parents 0.6578947
rirni NULL 0.0001782
rirni Parent 1.0000000
rirni my 0.0022831
rirni My 0.0048193
rirni by 0.0063694
rirni lot 0.0142857
rirni raised 0.5000000
rirni Your 0.0158730
rirni have 0.0024570
rirni &apos; 0.0857143
rirni their 0.0196078
rirni his 0.0034965
ibubymys IBM 0.1111111
amerikas to 0.0004710
amerikas America 0.0263158
skudji mean 0.0277778
skudji Robert 0.0714286
nunselnandu done 0.0196078
nunselnandu ever 0.0400000
nunselnandu &apos;ve 0.0131579
nunselnandu thing 0.0322581
nunselnandu hardest 0.5000000
kancu Count 0.2500000
kancu from 0.0053191
xabju trip 0.0454545
xabju live 0.6250000
xabju in 0.0634006
xabju Richmonder 0.2500000
xabju resided 0.5000000
xabju inhabits 0.5000000
xabju lives 0.4444444
xabju own 0.0243902
xabju UT 0.2500000
xabju staying 0.1538462
xabju Quezon 0.2500000
xabju from 0.0212766
xabju Kyoto 0.0714286
xabju remote 0.5000000
xabju where 0.0119048
xabju near 0.0526316
xabju Korea 0.1250000
xabju NULL 0.0008911
xabju living 0.0588235
xabju inhabitants 0.5000000
xabju lived 0.5416667
tolvifne stale 1.0000000
tolvifne hard 0.0243902
selpe'o s 0.2000000
selpe'o lovers 0.5000000
selpe'o have 0.0073710
selpe'o lover 0.2857143
selpe'o ( 0.0281690
selpe'o a 0.0011669
selpe'o ) 0.0273973
e'unai Sam 0.2000000
e'unai not 0.0043956
e'unai Proceed 0.3333333
e'unai It 0.0027701
e'unai . 0.0001143
e'unai &apos;s 0.0011050
e'unai Forget 0.2000000
e'unai them 0.0172414
e'unai advise 0.5000000
e'unai NULL 0.0003564
e'unai I 0.0003234
звати cows 0.1428571
vrude virtuous 1.0000000
vrude are 0.0015773
vrude a 0.0005834
vrude They 0.0064103
vrude nice 0.0312500
vrude basically 1.0000000
vrude good 0.0190476
vrude man 0.0119048
vrude is 0.0004958
mipyzga on 0.0042918
mipyzga is 0.0004958
mipyzga that 0.0016340
mipyzga spying 1.0000000
mipyzga me 0.0037594
mipyzga someone 0.0158730
odbenu Walrus 1.0000000
panoki'o 000 1.0000000
panoki'o 10 0.0769231
gradu shades 0.5000000
gradu SI 0.5000000
gradu many 0.0121951
gradu are 0.0015773
gradu of 0.0011561
basti go 0.0040161
basti &apos;t 0.0011962
basti substitute 0.5000000
basti in 0.0014409
basti replacing 1.0000000
basti &apos;s 0.0011050
basti trains 0.1818182
basti place 0.0294118
basti my 0.0022831
basti moving 0.2000000
basti don 0.0034965
basti NULL 0.0001782
sorpeka the 0.0004452
sorpeka catch 0.0909091
sorpeka bus 0.0810811
u.01.u to 0.0004710
u.01.u Unicode 0.5000000
nanfi'ogu'e Africa 0.2000000
nanfi'ogu'e South 0.1666667
selplicru ugh 0.5000000
selplicru , 0.0008237
selplicru permitted 0.2500000
selplicru Yay 0.1428571
selplicru use 0.0370370
selplicru but 0.0084034
selplicru caffeine 1.0000000
selplicru for 0.0049020
dekart Descartes 0.5000000
dekart are 0.0031546
critu fall 0.1428571
critu Fall 0.3333333
critu autumn 1.0000000
tuks Antarctic 0.5000000
tuks is 0.0004958
tuks Tux 0.5000000
tuks an 0.0069444
jaigau the 0.0008905
jaigau preserve 0.5000000
jaigau should 0.0158730
jaigau beauties 0.5000000
jaigau of 0.0011561
pAkistan Pakistan 0.2000000
terpemci poet 0.1428571
ti'e are 0.0015773
ti'e NULL 0.0001782
ti'e I 0.0022639
ti'e heard 0.0689655
ti'e They 0.0320513
ti'e classes 0.1666667
ti'e hear 0.1282051
ti'e said 0.0165289
ti'e It 0.0055402
ti'e that 0.0147059
ti'e say 0.0487805
karli collar 1.0000000
karli necklace 0.3333333
karli belt 0.5000000
kazaksTAN Kazakhstan 1.0000000
minli shore 0.1666667
minli miles 0.1666667
minli mile 0.2500000
torsku be 0.0034014
torsku Professors 1.0000000
torsku explain 0.0555556
torsku should 0.0158730
torsku everything 0.0222222
torsku succinct 1.0000000
ia Indeed 0.3333333
ia that 0.0032680
ia Hmm 0.5000000
ia &apos;s 0.0022099
ia think 0.0245902
ia ... 0.0227273
ia I 0.0022639
ia believe 0.0930233
ia owner 0.2000000
speni She 0.0057143
speni is 0.0004958
speni married 0.5945946
speni wife 0.5333333
speni marrying 1.0000000
speni His 0.0158730
speni NULL 0.0003564
speni unmarried 0.2500000
speni spouses 1.0000000
speni spouse 0.8333333
speni husband 0.2500000
speni My 0.0024096
speni relationship 0.2500000
speni marry 0.5000000
speni &apos;m 0.0043956
ko'e She 0.0028571
ko'e death 0.0769231
ko'e lips 0.2500000
ko'e to 0.0023552
ko'e drunk 0.0666667
ko'e present 0.0434783
ko'e why 0.0285714
ko'e NULL 0.0007129
ko'e difficulty 0.1250000
ko'e arrival 0.3333333
ko'e . 0.0004574
ko'e shoulders 0.3333333
ko'e hid 0.1250000
ko'e study 0.0238095
ko'e sight 0.1428571
ko'e him 0.0699301
ko'e of 0.0023121
ko'e forget 0.0555556
ko'e tall 0.0666667
ko'e jealous 0.2500000
ko'e putting 0.2500000
ko'e her 0.0242718
ko'e claim 0.2500000
narju orange 0.2500000
narju be 0.0034014
narju to 0.0004710
narju my 0.0022831
mrori'i was 0.0021552
mrori'i funeral 0.2500000
zdadei One 0.0227273
zdadei day 0.0126582
tedycte Saturday 0.4000000
tedycte night 0.0322581
tedycte ! 0.0037037
ninpe'i meet 0.0454545
ninpe'i to 0.0004710
roldzadijbartu outdoors 1.0000000
clugau filled 0.1000000
clugau made 0.0140845
kamfe'u &apos;t 0.0011962
kamfe'u my 0.0022831
kamfe'u control 0.1428571
kamfe'u couldn 0.0714286
selta'i Saturday 0.4000000
selta'i exhausting 0.5000000
cnemu for 0.0024510
cnemu her 0.0048544
cnemu kindness 1.0000000
cnemu in 0.0014409
cnemu reward 0.5000000
cnemu nothing 0.0222222
cnemu She 0.0028571
cnemu got 0.0133333
tankyva'u affects 0.2000000
tankyva'u our 0.0200000
tankyva'u Smoking 0.5000000
ge'orge ! 0.0018519
ge'orge George 0.0714286
ge'orge going 0.0075758
ge'orge How 0.0045872
ge'orge it 0.0018553
ge'orge , 0.0008237
ge'orge &apos;s 0.0011050
baze'e to 0.0004710
baze'e going 0.0075758
baze'e never 0.0163934
baze'e was 0.0021552
voksa speech 0.3333333
voksa Slow 0.5000000
voksa voice 1.0000000
voksa characteristic 0.3333333
voksa of 0.0011561
voksa yours 0.0322581
voksa sounds 0.1666667
mapku helmet 0.2000000
mapku hat 0.3913043
mapku cap 0.3333333
mapku caps 1.0000000
mapku my 0.0022831
mapku do 0.0029412
u'usai . 0.0001143
u'usai &apos;m 0.0043956
u'usai very 0.0045249
u'usai sorry 0.1538462
u'usai I 0.0006468
u'usai truly 0.5000000
mivytcuxu'i vitamin 0.2500000
mivytcuxu'i Vitamin 0.5000000
mivytcuxu'i C 0.5000000
mivytcuxu'i B3 0.5000000
mivytcuxu'i A 0.0168067
ganai case 0.2000000
ganai If 0.2500000
ganai medication 0.2000000
ganai if 0.0229885
ganai Call 0.0370370
ganai Love 0.0555556
ganai gave 0.0178571
ganai explodes 0.1666667
la.osakan been 0.0129870
la.osakan Osaka 0.3750000
la.osakan staying 0.0769231
la.osakan in 0.0028818
tcyn Chen 0.5000000
tcyn is 0.0024789
18xyxymoi 19th 1.0000000
18xyxymoi century 0.2000000
logji Logic 1.0000000
logji logical 0.3333333
brauzero &apos;s 0.0011050
brauzero browser 0.1428571
brauzero your 0.0023866
brauzero favorite 0.0312500
brauzero web 0.1666667
smani monkeys 0.6666667
smani kind 0.0136986
smani What 0.0027855
smani &apos;s 0.0011050
smani those 0.0400000
smani are 0.0015773
smani of 0.0011561
smani meat 0.0769231
smani monkey 1.0000000
zu'u gripping 0.3333333
zu'u the 0.0022262
zu'u On 0.3571429
zu'u other 0.0294118
zu'u hand 0.2272727
zu'u one 0.0097561
ba'anai I 0.0006468
ba'anai yeah 0.5000000
ba'anai recall 0.5000000
ba'anai remember 0.0303030
ba'anai now 0.0098039
fa waving 0.2000000
fa happen 0.0666667
fa trust 0.1000000
fa happiness 0.0769231
fa certain 0.0714286
fa passes 0.5000000
fa Compared 0.2500000
fa of 0.0011561
fa are 0.0031546
fa difficult 0.1142857
fa wrong 0.0322581
fa dream 0.0454545
fa hard 0.0243902
fa surprise 0.0625000
fa claws 0.2500000
fa necessary 0.1363636
fa matter 0.0555556
fa sat 0.1428571
fa sport 0.0769231
fa NULL 0.0040991
fa warm 0.1000000
fa Sarah 0.2000000
fa Enough 0.1428571
fa is 0.0089241
fa how 0.0085470
fa thing 0.0322581
fa economy 0.5000000
fa kids 0.1000000
fa hide 0.2000000
fa problems 0.1250000
fa comparison 0.2500000
fa avoided 0.1666667
fa labor 0.2000000
fa even 0.0625000
fa else 0.0555556
fa better 0.0277778
fa Obviously 0.5000000
fa life 0.0277778
fa impossible 0.0869565
fa &apos;s 0.0033149
fa require 0.5000000
fa do 0.0029412
fa Zurich 0.0909091
fa Foolish 0.3333333
fa true 0.0606061
fa worth 0.2941176
fa pictures 0.1000000
fa under 0.0454545
fa hungry 0.0370370
fa dreams 0.1111111
fa Yoda 0.2500000
fa guess 0.1428571
fa shopkeeper 0.2500000
fa Above 0.3333333
fa much 0.0116279
fa wicked 0.3333333
fa what 0.0077220
fa password 0.1428571
fa bicycle 0.0714286
kamxada partner 0.1428571
kamxada &apos;s 0.0011050
ije and 0.0367454
ije NULL 0.0001782
ije come 0.0108696
ije professors 0.0833333
ije dj 0.2500000
ije moo 0.2500000
ije ; 0.0750000
ije but 0.0084034
ije it 0.0018553
ije others 0.1111111
ije , 0.0172982
ije sushi 0.3076923
ije happening 0.1818182
ije divine 0.1052632
ije everyone 0.0212766
ca understand 0.0114943
ca looked 0.0222222
ca am 0.0243902
ca &apos;m 0.0175824
ca at 0.0301887
ca Now 0.1764706
ca year 0.0384615
ca was 0.0021552
ca pillows 0.1250000
ca cared 0.3333333
ca snowing 0.1666667
ca whenever 0.2500000
ca woods 0.1428571
ca drunk 0.0666667
ca midday 0.3333333
ca eats 0.1052632
ca UFO 0.1000000
ca kicking 0.5000000
ca March 0.2000000
ca While 0.5000000
ca Liz 0.4000000
ca dream 0.0454545
ca working 0.0952381
ca Sunday 0.2500000
ca damned 0.5000000
ca studying 0.1590909
ca longer 0.1428571
ca tomorrow 0.3875000
ca During 0.2500000
ca As 0.0625000
ca goes 0.0208333
ca Khalifa 0.2500000
ca doing 0.1206897
ca bike 0.1428571
ca next 0.0571429
ca going 0.0075758
ca June 0.0833333
ca soldiers 0.2000000
ca summer 0.1428571
ca seems 0.0243902
ca lies 0.1111111
ca current 0.6666667
ca often 0.0909091
ca taking 0.1428571
ca work 0.0526316
ca Yoko 0.2500000
ca now 0.3921569
ca sleeps 0.0714286
ca Paris 0.0370370
ca afternoon 0.2666667
ca break 0.2000000
ca cookies 0.2500000
ca wears 0.0625000
ca salty 1.0000000
ca when 0.2954545
ca last 0.1951220
ca sister 0.0250000
ca Taral 0.5000000
ca mission 0.3333333
ca Mom 0.1666667
ca Cthulhu 0.5000000
ca are 0.0031546
ca I 0.0009702
ca up 0.0400000
ca running 0.1739130
ca will 0.0245098
ca It 0.0166205
ca is 0.0059494
ca When 0.4343434
ca engaged 0.3333333
ca morning 0.2424242
ca 00 0.1250000
ca rich 0.0526316
ca Bush 0.2500000
ca tonight 0.3684211
ca 13 0.1250000
ca change 0.0625000
ca paints 0.3333333
ca already 0.0833333
ca once 0.0833333
ca lying 0.4000000
ca shaving 0.3333333
ca If 0.0138889
ca night 0.0322581
ca whistling 0.2000000
ca cry 0.1250000
ca eat 0.0111111
ca someday 0.3333333
ca week 0.0400000
ca writing 0.0434783
ca has 0.0091743
ca 1920 0.5000000
ca Arafat 0.5000000
ca October 0.2000000
ca smiling 0.1428571
ca driven 0.2500000
ca fifteenth 0.5000000
ca postulate 1.0000000
ca mountains 0.1111111
ca drinks 0.0500000
ca Friday 0.1666667
ca asleep 0.1428571
ca boiling 0.5000000
ca men 0.0416667
ca yesterday 0.4421053
ca ( 0.0140845
ca Tomorrow 0.2500000
ca 25th 0.1428571
ca midnight 0.3333333
ca month 0.0909091
ca NULL 0.0156835
ca lose 0.0714286
ca during 0.4000000
ca , 0.0024712
ca buys 0.1250000
ca permanent 0.1666667
ca while 0.2500000
ca handspring 0.2000000
ca anytime 0.1666667
ca Dict 0.2000000
ca open 0.0588235
ca 1977 0.3333333
ca bird 0.0625000
ca beach 0.1000000
ca pubs 0.3333333
ca Someday 0.5000000
ca looking 0.0285714
ca alive 0.0909091
ca today 0.4107143
ca parking 0.5000000
ca day 0.1518987
ca ago 0.0322581
ca time 0.1235955
ca does 0.0333333
ca wet 0.0769231
ca Today 0.1153846
ca possible 0.1111111
ca someone 0.0476190
ca on 0.0042918
ca glasses 0.0263158
ca bath 0.2000000
ca trying 0.0714286
tcati tea 0.7142857
tcati some 0.0194175
tcati teas 1.0000000
tcati ; 0.0250000
tcati ! 0.0018519
tcati Tea 0.3333333
tabno It 0.0027701
tabno Carbon 0.5000000
tabno &apos;s 0.0011050
tabno carbon 1.0000000
malxaksu wasting 0.5000000
malxaksu their 0.0784314
ju'onai impossible 0.0434783
ju'onai , 0.0008237
ju'onai which 0.0250000
ju'onai is 0.0004958
romi'a &apos;s 0.0011050
romi'a Everyone 0.0208333
xanla worried 0.3333333
xanla are 0.0015773
xanla about 0.0056497
rinju tied 0.5000000
rinju up 0.0100000
rinju until 0.0434783
xai are 0.0015773
xai they 0.0128205
xai Both 0.1000000
xai aren 0.0555556
volkla landed 0.5000000
volkla on 0.0042918
volkla a 0.0005834
jaurvasmro drowned 1.0000000
jaurvasmro in 0.0014409
cticpe Can 0.0158730
pastu suits 0.3333333
pastu suit 0.1666667
pastu dress 0.6153846
pastu dresses 1.0000000
pastu the 0.0004452
pastu with 0.0040323
pastu Nice 0.0833333
nazbi pierced 0.2222222
nazbi Nose 1.0000000
nazbi nose 0.8181818
inajanai &apos;t 0.0011962
inajanai Klingon 0.2000000
inajanai , 0.0008237
inajanai won 0.0181818
selctu a 0.0005834
selctu &apos;m 0.0021978
selctu not 0.0021978
selctu student 0.0333333
toltatpi have 0.0024570
toltatpi I. 0.3333333
toltatpi energy 0.5000000
toltatpi than 0.0079365
toltatpi more 0.0090909
prolog Prolog 1.0000000
ienaisai I 0.0003234
ienaisai at 0.0037736
ienaisai agree 0.0344828
ienaisai you 0.0006468
ienaisai do 0.0029412
ienaisai all 0.0068966
ienaisai with 0.0040323
ienaisai . 0.0001143
ienaisai not 0.0021978
Aachen in 0.0028818
Aachen Aachen 0.2500000
ki'ogra bananas 0.0714286
ki'ogra kilos 0.5000000
ki'ogra more 0.0090909
ki'ogra of 0.0011561
ki'ogra me 0.0018797
ki'ogra kilo 0.2000000
ki'ogra than 0.0079365
tabrelkijno Carbon 0.5000000
tabrelkijno dioxide 1.0000000
kalte fishing 0.2500000
kalte hunting 0.5000000
kalte likes 0.0192308
kalte hunters 0.5000000
kalte NULL 0.0001782
kalte hunter 0.6666667
kalte by 0.0063694
kalte stalked 1.0000000
imposta impersonated 0.2000000
jai stream 0.1428571
jai understood 0.1428571
jai defend 0.2500000
jai go 0.0040161
jai break 0.1000000
jai late 0.2105263
jai feeds 0.1250000
jai Change 0.1250000
jai boring 0.1666667
jai Should 0.3333333
jai start 0.1034483
jai turn 0.0714286
jai crazies 0.2500000
jai , 0.0008237
jai frighten 0.3333333
jai 25 0.0714286
jai rational 0.1250000
jai fashionable 0.2500000
jai cause 0.0833333
jai age 0.0666667
jai Time 0.1428571
jai About 0.3333333
jai be 0.0102041
jai hurt 0.0666667
jai is 0.0004958
jai emotions 0.2000000
jai motivate 0.1250000
jai Lojban 0.0104167
jai possible 0.0555556
jai warn 0.5000000
jai happens 0.0476190
jai previously 0.2500000
jai meal 0.1666667
jai fix 0.1111111
jai ruin 0.2500000
jai tear 0.1666667
jai difficult 0.0857143
jai thief 1.0000000
jai starts 0.1666667
jai clumsy 0.5000000
jai fortune 0.2500000
jai was 0.0043103
jai cheap 0.3333333
jai were 0.0370370
jai Turn 0.0434783
jai early 0.0625000
jai allowed 0.1333333
jai fooled 0.2000000
jai likely 0.0909091
jai nice 0.0312500
jai Portugal 0.1666667
jai &apos;m 0.0021978
jai saying 0.0625000
jai bouquet 0.2500000
jai Leave 0.0500000
jai makes 0.1363636
jai easy 0.0434783
jai rage 0.3333333
jai doing 0.0517241
jai supposed 0.0833333
jai make 0.0307692
jai justified 0.3333333
jai stronger 0.1250000
jai a 0.0017503
jai NULL 0.0039209
jai month 0.0909091
jai stamps 0.2500000
jai opening 0.1000000
jai hard 0.0487805
jai obviously 0.3333333
jai project 0.1818182
jai Madrid 0.2500000
jai playthings 0.1666667
gy.Auckland.gy in 0.0014409
gy.Auckland.gy Auckland 0.3333333
purmo NULL 0.0001782
purmo flour 0.3333333
purmo Flour 0.2000000
purmo from 0.0053191
purmo powder 0.5000000
tolvu'e bad 0.0400000
tolvu'e He 0.0016835
tolvu'e is 0.0004958
tolvu'e boy 0.0161290
tolvu'e . 0.0001143
tolvu'e a 0.0005834
selxarkei pretending 0.2000000
selxarkei was 0.0021552
selxarkei he 0.0038610
selxarkei just 0.0121951
friko Africa 0.2000000
friko African 1.0000000
ractyrectu rabbit 0.5000000
ractyrectu meat 0.0769231
ractyrectu ( 0.0140845
ractyrectu ) 0.0136986
trotskis Trotsky 1.0000000
xansli by 0.0063694
xansli waving 0.2000000
xansli hand 0.0454545
xansli his 0.0034965
cifyge'u puppy 0.1428571
cifyge'u a 0.0005834
cifyge'u us 0.0156250
zu'ai other 0.0147059
zu'ai in 0.0014409
zu'ai together 0.0714286
zu'ai love 0.0062112
ian Yang 0.5000000
ian Yan 0.5000000
ian or 0.0080645
ian Ian 1.0000000
so'ida quite 0.0555556
so'ida lot 0.0142857
so'ida &apos;s 0.0011050
so'ida There 0.0063291
fy.Aix-la-Chapelle.fy &quot; 0.0047847
fy.Aix-la-Chapelle.fy Aix-la-Chapelle 0.0555556
mo'ifli They 0.0064103
mo'ifli We 0.0041841
mulis house 0.0081301
mulis ... 0.0227273
mulis pretending 0.2000000
mulis brought 0.0625000
mulis Mooli 0.3333333
mulis , 0.0016474
mulis &apos;s 0.0022099
cmana the 0.0017809
cmana Mountain 0.5000000
cmana hill 0.2500000
cmana mountain 0.6363636
cmana in 0.0014409
cmana NULL 0.0003564
cmana mountains 0.6666667
cmana necessarily 0.2000000
cmana each 0.0192308
cmana other 0.0147059
mikce they 0.0128205
mikce a 0.0163361
mikce Mortimer 0.1666667
mikce &apos;s 0.0044199
mikce see 0.0232558
mikce Doctor 0.2857143
mikce is 0.0009916
mikce Isn 0.1250000
mikce treating 0.5000000
mikce doctors 0.5000000
mikce knowing 0.0909091
mikce treatment 0.1428571
mikce doctor 0.8888889
rakau meet 0.0454545
derdembi peanuts 1.0000000
zei.kongos the 0.0004452
zei.kongos Republic 0.2000000
zei.kongos Congo 0.5000000
zei.kongos of 0.0011561
linkon world 0.0250000
linkon over 0.0192308
linkon read 0.0140845
linkon Lincoln 0.2500000
linkon all 0.0068966
linkon the 0.0004452
linkon by 0.0063694
linkon children 0.0238095
Gizmo are 0.0015773
ckiku no 0.0073529
ckiku my 0.0045662
ckiku have 0.0024570
ckiku key 0.9090909
ckiku keys 0.6250000
ckiku left 0.0156250
ckiku idea 0.0454545
na.anai them 0.0172414
na.anai Either 0.1666667
na.anai of 0.0011561
na.anai or 0.0080645
na.anai , 0.0016474
na.anai neither 0.2500000
bei people 0.0080000
bei what 0.0038610
bei Latter-day 0.1666667
bei Socrates 0.2500000
bei Haskell 0.2000000
bei has 0.0045872
bei oil 0.2222222
bei other 0.0147059
bei and 0.0052493
bei pack 0.2500000
bei NULL 0.0007129
bei &apos;ve 0.0131579
bei elders 0.5000000
bei Delphi 0.3333333
bei no 0.0073529
bei Elves 0.5000000
bei evil 0.0833333
bei knowledge 0.1666667
bei sheds 0.1666667
bei care 0.0400000
relxilma'ekla bike 0.1428571
relxilma'ekla to 0.0004710
Livgyterbilma non-B 0.1666667
Livgyterbilma hepatitis 0.5000000
mitsmu NULL 0.0001782
nerkla inside 0.1818182
nerkla enter 0.1666667
nerkla entered 0.3333333
nerkla Keep 0.2222222
nerkla into 0.0322581
nerkla in 0.0043228
nerkla out 0.0219780
nerkla it 0.0018553
nerkla Go 0.0285714
nerkla now 0.0098039
nerkla not 0.0021978
nerkla must 0.0156250
nerkla go 0.0080321
nerkla NULL 0.0001782
nerkla going 0.0151515
nerkla on 0.0042918
ciblu blood 0.2500000
ciblu . 0.0002287
ciblu It 0.0027701
ciblu beet 0.2500000
ciblu our 0.0200000
ciblu &apos;re 0.0131579
ciblu bleeding 0.1666667
nabo at 0.0037736
nabo look 0.0227273
nabo &apos;t 0.0011962
mu'ei your 0.0023866
mu'ei never 0.0163934
mu'ei husband 0.1250000
mu'ei wife 0.0333333
mu'ei would 0.0144928
mu'ei be 0.0034014
mu'ei NULL 0.0003564
berger had 0.0084746
berger Berger 0.5000000
skatygug resentment 1.0000000
skatygug that 0.0016340
skatygug Well 0.2000000
skatygug &apos;s 0.0011050
skatygug unheard 0.3333333
skatygug Hatred 1.0000000
skatygug and 0.0026247
iu I 0.0016171
iu NULL 0.0003564
iu internet 0.2000000
iu you 0.0032342
iu to 0.0004710
iu Love 0.1111111
iu love 0.0496894
iu &apos;re 0.0065789
iu romantic 0.5000000
iu dad 0.0909091
iu . 0.0001143
iu mommy 0.2500000
mi'e This 0.0149701
mi'e Ichiro 0.5000000
mi'e Ricardo 0.3333333
mi'e My 0.0337349
mi'e Jon 0.5000000
mi'e Adam 0.1666667
mi'e Yamada 0.5000000
mi'e &apos;s 0.0011050
mi'e calling 0.5000000
mi'e Farshad 0.4000000
mi'e Ahmad 0.5000000
mi'e . 0.0029728
mi'e am 0.0097561
mi'e &apos;m 0.0109890
mi'e Lin 0.5000000
mi'e Hashimoto 0.5000000
mi'e Mike 0.0833333
mi'e is 0.0024789
mi'e John 0.0120482
mi'e Greene 0.3333333
mi'e Hase 0.5000000
mi'e It 0.0027701
mi'e Hisashi 0.5000000
mi'e Ivan 0.5000000
mi'e Nonong 0.2500000
mi'e Sara 0.5000000
mi'e loving 0.1250000
mi'e name 0.0315789
mi'e Nancy 0.1250000
mi'e I 0.0035576
mi'e Sasha 0.5000000
mi'e m 0.2500000
tcaudjo'us am 0.0048780
tcaudjo'us Teochew 0.3333333
paso a 0.0011669
paso seven 0.1000000
paso quarter 0.3333333
paso past 0.1818182
fukucimas Fukushima 0.3333333
fukucimas to 0.0004710
fukucimas help 0.0117647
zilkancu once 0.0416667
zilkancu for 0.0024510
zilkancu NULL 0.0003564
zilkancu Jump 0.3333333
zilkancu each 0.0192308
seljibyfa'o month 0.0909091
ckafi coffees 1.0000000
ckafi coffee 0.8113208
ckafi like 0.0027174
ckafi some 0.0097087
ckafi Coffee 1.0000000
ckafi ! 0.0018519
gy.US Kittens 0.5000000
nelzma prefer 0.0588235
panra do 0.0029412
panra parallels 1.0000000
panra Parallel 0.3333333
panra lines 0.1666667
benficysi'a Neurodiversity 1.0000000
xindo Indo-European 0.3333333
xindo an 0.0069444
xindo Indian 1.0000000
tulius Tully 0.2000000
Fred Fred 0.4000000
mlibdena Molybdenum 1.0000000
tu hundreds 0.2000000
tu lemon 0.5000000
tu described 0.3333333
tu over 0.0192308
tu &apos;s 0.0022099
tu Who 0.0074627
tu NULL 0.0001782
tu Seine 0.2500000
tu almost 0.0500000
tu there 0.0080000
tu Feed 0.1666667
tu give 0.0250000
tu fuck 0.1428571
tu fountain 0.2500000
tu That 0.0219298
tu one 0.0048780
tu yonder 0.3333333
tu that 0.0065359
reda is 0.0004958
reda bilingual 0.3333333
bastyn Boston 0.0555556
bastyn in 0.0014409
bastyn isn 0.0136986
bastyn now 0.0098039
bastyn &apos;t 0.0011962
zifygau release 1.0000000
uitki going 0.0075758
uitki explain 0.0555556
uitki on 0.0042918
uitki am 0.0048780
uitki wiki 0.2000000
uitki completely 0.1428571
uitki it 0.0018553
uitki to 0.0004710
panzi children 0.1666667
panzi have 0.0024570
panzi got 0.0133333
panzi kids 0.2000000
panzi any 0.0172414
panzi child 0.1000000
panzi Is 0.0111111
panzi Jacob 0.2222222
gugde'usu Mr. 0.1666667
gugde'usu United 0.2000000
gugde'usu States 0.1666667
foldi field 0.4285714
foldi be 0.0034014
foldi to 0.0004710
foldi those 0.0400000
foldi a 0.0011669
foldi used 0.0333333
foldi woods 0.1428571
foldi place 0.0294118
foldi from 0.0053191
planyjdika weight 0.2500000
planyjdika lose 0.0714286
soi NULL 0.0005347
soi stories 0.1666667
soi right 0.0158730
soi and 0.0052493
soi such 0.0714286
soi hates 0.0434783
soi quite 0.0555556
soi commanding 0.2500000
soi knowing 0.1818182
soi for 0.0024510
soi me 0.0037594
soi stages 0.2500000
soi , 0.0041186
soi everyone 0.0425532
soi cares 0.1111111
soi &apos;ll 0.0067568
soi earth 0.0476190
ta'e to 0.0004710
ta'e classical 0.2500000
ta'e Sundays 0.5000000
ta'e Our 0.1111111
ta'e bike 0.1428571
ta'e drink 0.0327869
ta'e swim 0.0312500
ta'e tends 0.1666667
ta'e He 0.0050505
ta'e sometimes 0.1111111
ta'e NULL 0.0003564
ta'e habitually 1.0000000
ta'e used 0.0333333
ta'e helps 0.2000000
ta'e , 0.0008237
ta'e those 0.0400000
ta'e often 0.0454545
ta'e ) 0.0136986
ta'e kind 0.0136986
ta'e does 0.0166667
ta'e heaven 0.5000000
ta'e changes 0.1666667
ta'e always 0.0285714
blacykabri a 0.0005834
blacykabri of 0.0034682
blacykabri have 0.0024570
blacykabri glass 0.1428571
bai Apparently 0.0909091
bai it 0.0018553
bai to 0.0004710
bai , 0.0016474
bai forced 0.3333333
bai am 0.0048780
bai upright 0.1666667
bai forcing 0.5000000
bai NULL 0.0001782
lerfyliste letters 0.0625000
lerfyliste of 0.0011561
lerfyliste list 0.1000000
tordu has 0.0045872
tordu shorter 0.3333333
tordu &apos;s 0.0011050
tordu Short 0.5000000
tordu is 0.0004958
tordu with 0.0080645
tordu He 0.0016835
tordu short 0.4545455
tordu &apos;m 0.0021978
plini &apos; 0.0285714
plini Planet 1.0000000
plini planet 0.4285714
terbi'e should 0.0158730
terbi'e receive 1.0000000
terbi'e it 0.0018553
Lincoln.gy a 0.0005834
Lincoln.gy Abraham 0.3333333
sega'a Smile 0.1428571
sega'a smiled 0.2500000
sega'a smiling 0.1428571
sega'a stood 0.0555556
sega'a at 0.0188679
narpanra shirt 0.1000000
narpanra stands 0.1666667
narpanra colorful 1.0000000
narpanra Your 0.0158730
narpanra out 0.0109890
narpanra really 0.0140845
mrotolkakpa here 0.0059524
mrotolkakpa buried 0.3333333
braxamsi Ocean 1.0000000
mulna'u Integer 1.0000000
mulna'u positive 0.2666667
mulna'u integer 0.7500000
cidjrpitsa The 0.0015699
cidjrpitsa word 0.0357143
cidjrpitsa cidjrpitsa 0.5000000
cidjrpitsa &quot; 0.0047847
nolni'u Pardon 0.2000000
nolni'u lady 0.1666667
nolni'u noblewomen 1.0000000
nolni'u noblewoman 1.0000000
na'ipei ? 0.0005643
na'ipei not 0.0021978
na'ipei Why 0.0068493
nonkansa . 0.0014864
nonkansa &apos;t 0.0047847
nonkansa is 0.0009916
nonkansa travelling 0.2500000
nonkansa anymore 0.1333333
nonkansa &apos;m 0.0109890
nonkansa isn 0.0547945
nonkansa lonely 0.4545455
nonkansa alone 0.5869565
nonkansa aren 0.1111111
xisacis name 0.0105263
xisacis Hisashi 0.5000000
xisacis is 0.0004958
dracybende to 0.0004710
dracybende drama 0.5000000
dracybende club 0.5000000
dracybende belong 0.2500000
flOridas still 0.0256410
flOridas Florida 0.5000000
flOridas in 0.0014409
preti some 0.0097087
preti asked 0.0793651
preti Ask 0.0625000
preti the 0.0004452
preti good 0.0095238
preti mind 0.0555556
preti shopkeeper 0.2500000
preti a 0.0011669
preti NULL 0.0005347
preti ask 0.0888889
preti question 0.5666667
preti matter 0.0555556
preti Answer 0.4000000
preti in 0.0014409
preti &apos;s 0.0011050
preti questions 0.1176471
preti I 0.0003234
da'arsi'u Men 0.5000000
da'arsi'u fight 0.1666667
gy.Visa.gy by 0.0063694
gy.Visa.gy Visa 0.1250000
banian Bunyan 0.3333333
jdali'u a 0.0005834
jdali'u am 0.0048780
jdali'u in 0.0014409
jdali'u on 0.0042918
jdali'u mission 0.3333333
cinydjica passion 1.0000000
Yuelami Yuelami 0.2500000
nunselpluka most 0.0294118
nunselpluka thing 0.0322581
nunselpluka enjoyable 0.5000000
nunselpluka &apos;ve 0.0131579
nunselpluka ever 0.0400000
nunselpluka done 0.0196078
pavdei on 0.0085837
pavdei show 0.0434783
pavdei ! 0.0018519
pavdei Monday 0.4444444
la'aru'e are 0.0015773
la'aru'e more 0.0090909
la'aru'e than 0.0079365
la'aru'e feelings 0.2500000
la'aru'e thoughts 0.3333333
la'aru'e Maybe 0.1250000
la'aru'e intense 0.2000000
lundyn London 0.0333333
lundyn here 0.0059524
lundyn from 0.0053191
banzuni My 0.0024096
banzuni fluency 0.2500000
zerfu'e guilty 1.0000000
zerfu'e &apos;re 0.0065789
la.yLIzabet his 0.0034965
la.yLIzabet Elizabeth 0.5000000
cintypu'i painted 0.6666667
cintypu'i paints 0.3333333
cintypu'i paint 0.3333333
rikardos &apos;s 0.0022099
rikardos Ricardo 0.3333333
rikardos What 0.0027855
rikardos yours 0.0322581
rikardos name 0.0105263
te'irselstati skill 1.0000000
te'irselstati a 0.0005834
te'irselstati kind 0.0136986
te'irselstati Translation 0.3333333
te'irselstati of 0.0011561
te'irselstati special 0.2500000
tigzgi concert 0.1428571
tigzgi lasted 0.5000000
tigzgi The 0.0015699
dikca Electrical 0.5000000
febgau Boil 0.5000000
febgau the 0.0004452
febgau some 0.0097087
ze'e Perhaps 0.1666667
ze'e always 0.1000000
ze'e heart 0.1000000
ze'e travels 0.2500000
ze'e quiet 0.0526316
ze'e dig 0.3333333
ze'e NULL 0.0003564
ze'e &apos;ve 0.0131579
ze'e ever 0.0400000
ze'e intend 0.2500000
ze'e was 0.0043103
ze'e will 0.0049020
ze'e all 0.0068966
ze'e She 0.0057143
ze'e nomad 0.3333333
ze'e sea 0.0588235
bevrlis Shakespeare 0.1250000
ciksa wrote 0.0333333
tolnurcni feel 0.0285714
tolnurcni threatened 1.0000000
tolnurcni &apos;t 0.0011962
tolnurcni to 0.0004710
tolnurcni have 0.0024570
tolnurcni don 0.0034965
tertigni judges 0.1111111
tertigni complaints 0.2000000
tertigni audience 0.2000000
tertigni &apos;s 0.0011050
strutione Ostrich 1.0000000
jinmrtali Thallium 1.0000000
jikfanza his 0.0034965
jikfanza rudeness 0.1428571
jikfanza bear 0.0555556
toljunri &apos;t 0.0011962
toljunri Not 0.0625000
toljunri what 0.0038610
toljunri care 0.0400000
toljunri don 0.0034965
me'i 12 0.1666667
me'i 50,000 0.3333333
me'i hour 0.0526316
me'i enough 0.0250000
me'i Less 1.0000000
me'i Fewer 0.6666667
me'i less 0.0476190
me'i than 0.0158730
me'i bit 0.0714286
ratni Atom 1.0000000
ratni ? 0.0005643
tarla soot 1.0000000
bi'ucu'i this 0.0081081
bi'ucu'i It 0.0027701
bi'ucu'i . 0.0001143
bi'ucu'i of 0.0011561
alzaitu Olive 1.0000000
termosygau rub 0.5000000
termosygau your 0.0023866
termosygau Never 0.0769231
jarki along 0.1250000
jarki a 0.0005834
jarki narrow 1.0000000
jarki path 0.3333333
aucu'i paper 0.1333333
xaskoi on 0.0085837
xaskoi shore 0.1666667
xaskoi seaside 1.0000000
xaskoi is 0.0004958
xaskoi beach 0.4000000
xaskoi the 0.0013357
fe'u at 0.0037736
xasli Horses 0.3333333
xasli and 0.0026247
xasli donkeys 1.0000000
xasli are 0.0015773
xasli different 0.0500000
cakyrespa turtles 1.0000000
cakyrespa . 0.0001143
to'a letter 0.0400000
to'a a 0.0005834
to'a lower-case 0.5000000
to'a n 0.2500000
to'a &quot; 0.0047847
".i Um 0.1250000
".i ? 0.0005643
".i &quot; 0.0047847
manri Enthalpy 1.0000000
xalifas in 0.0014409
xalifas is 0.0004958
xalifas currently 1.0000000
xalifas tallest 0.0833333
xalifas Khalifa 0.2500000
xalifas the 0.0004452
xalifas skyscraper 1.0000000
tatpi sleepy 0.1111111
tatpi &apos;re 0.0065789
tatpi tired 0.9423077
tatpi am 0.0048780
tatpi Aren 0.4000000
tatpi So 0.0625000
tatpi &apos;m 0.0285714
tatpi very 0.0045249
tatpi bookstore 0.3333333
tatpi she 0.0082645
tatpi of 0.0057803
tatpi exhausted 0.2500000
tatpi NULL 0.0001782
tatpi I 0.0006468
limne swimmer 0.5000000
limne I. 0.3333333
limne than 0.0079365
limne better 0.0277778
xerbert &apos;s 0.0022099
xerbert Herbert 0.2000000
xerbert daughters 0.1818182
narviska'e they 0.0128205
narviska'e clearly 0.1666667
narviska'e happened 0.0196078
narviska'e because 0.0123457
narviska'e not 0.0021978
narviska'e see 0.0077519
narviska'e could 0.0222222
cisma Smile 0.2857143
cisma smile 0.6666667
cisma smiled 0.4166667
cisma smiling 0.4285714
krokodilo A 0.0168067
krokodilo Crocodiles 0.5000000
krokodilo have 0.0024570
krokodilo crocodile 0.6666667
ze'oi Mac 0.1666667
ze'oi have 0.0024570
ze'oi am 0.0048780
punaijeba only 0.0111111
punaijeba in 0.0014409
xuaKIN is 0.0004958
xuaKIN Joaquín 0.5000000
niut,n Newton 0.3333333
la'asai of 0.0011561
la'asai postman 0.5000000
la'asai precipitation 0.5000000
la'asai a 0.0005834
la'asai It 0.0027701
la'asai high 0.0769231
la'asai chance 0.3333333
la'asai There 0.0063291
i'unai This 0.0029940
i'unai hotel 0.0555556
i'unai one 0.0048780
i'unai some 0.0097087
i'unai . 0.0003430
i'unai is 0.0009916
i'unai weird 0.0909091
i'unai of 0.0011561
i'unai also 0.0714286
i'unai know 0.0035587
i'unai I 0.0003234
dunku negative 0.5000000
dunku enormous 0.5000000
sraku some 0.0097087
sraku cigarettes 0.1428571
sraku buy 0.0212766
loni dearly 1.0000000
loni as 0.0208333
loni Love 0.0555556
loni am 0.0048780
loni your 0.0047733
loni grateful 0.3333333
loni NULL 0.0001782
loni parents 0.0263158
sadyka'e , 0.0008237
sadyka'e help 0.0117647
sadyka'e your 0.0023866
kagytrujalju CEO 0.5000000
kagytrujalju of 0.0023121
eksameno likely 0.0909091
eksameno exam 0.1111111
eksameno to 0.0004710
eksameno is 0.0004958
eksameno &apos;s 0.0011050
eksameno pass 0.0526316
iciros.tanakas is 0.0004958
iciros.tanakas Ichiro 0.5000000
iciros.tanakas name 0.0105263
iciros.tanakas Tanaka 1.0000000
fonjorne Somebody 0.0714286
fonjorne call 0.0322581
fonjorne Call 0.2222222
fonjorne Someone 0.0588235
fonjorne called 0.1304348
peidzu like 0.0027174
peidzu around 0.0555556
peidzu please 0.0163934
peidzu Would 0.0277778
peidzu you 0.0006468
peidzu just 0.0121951
peidzu stop 0.0333333
peidzu that 0.0016340
peidzu pacing 0.1666667
saturn Saturn 1.0000000
jinmrgadolini Gadolinium 1.0000000
selzdifri very 0.0180995
selzdifri &apos;ll 0.0270270
selzdifri a 0.0023337
selzdifri spend 0.4000000
selzdifri pass 0.1052632
selzdifri fun 0.1481481
melselsa'a song 0.0666667
melselsa'a a 0.0005834
melselsa'a beautiful 0.0091743
sonci a 0.0017503
sonci are 0.0015773
sonci 13th 0.3333333
sonci soldiers 0.6000000
sonci soldier 1.0000000
sonci The 0.0031397
almaZAN Almazán 1.0000000
selbaise'u Slavery 1.0000000
porc Porsche 0.5000000
porc a 0.0005834
facebook account 0.2000000
facebook my 0.0022831
facebook Facebook 0.1000000
selsne , 0.0008237
selsne epistemology 1.0000000
selsne clearly 0.1666667
selsne your 0.0023866
selsne dream 0.0454545
selsne of 0.0011561
sicpi increased 0.2500000
sicpi rain 0.0294118
sicpi the 0.0004452
xedja jaw 0.3333333
xedja a 0.0005834
xedja square 0.2500000
xedja has 0.0045872
bavlamcte night 0.0161290
bavlamcte a 0.0005834
bavlamcte movie 0.0666667
bavlamcte tomorrow 0.0125000
glipre English 0.0068966
zoi Lollipop 0.2500000
zoi Lucifera 0.1666667
zoi XXX 0.2000000
zoi equivalents 0.2000000
zoi Russell 0.2500000
zoi DeVito 0.6666667
zoi NNC 0.5000000
zoi bo 0.2000000
zoi mean 0.1111111
zoi &quot; 0.0047847
zoi http 0.5000000
zoi rlpowell 0.2500000
zoi PTA 0.5000000
zoi password 0.1428571
zoi Deutschland 0.2000000
zoi gerund 0.2000000
zoi Willis 0.4000000
zoi is 0.0004958
zoi precise 0.1111111
zoi Steve 0.1666667
zoi means 0.0714286
zoi kaisha 0.3846154
zoi underline 0.2500000
zoi Eyjafjallajökull 0.1666667
zoi Mathematica 0.2105263
zoi Akiko 0.1818182
zoi encoded 0.5000000
cinlysko string 0.3333333
cinlysko The 0.0015699
kerlo ears 0.4666667
kerlo pierced 0.4444444
kerlo Ear 1.0000000
kerlo ear 0.6000000
kerlo two 0.0181818
pifygau for 0.0024510
pifygau prison 0.5000000
pifygau in 0.0028818
pifygau He 0.0016835
pifygau thrown 0.5000000
pifygau was 0.0021552
drata worlds 0.5000000
drata but 0.0084034
drata other 0.1617647
drata equal 0.0909091
drata NULL 0.0010693
drata otherwise 0.3333333
drata anything 0.0506329
drata engage 0.3333333
drata This 0.0059880
drata different 0.1500000
drata be 0.0034014
drata is 0.0004958
drata else 0.4444444
drata another 0.3846154
drata abroad 0.2941176
drata &apos;ll 0.0067568
drata any 0.0344828
drata taller 0.0625000
drata in 0.0014409
drata foreigner 0.1666667
drata something 0.0106383
drata things 0.0172414
drata an 0.0069444
cintyxra painting 0.1428571
cintyxra a 0.0005834
terai sport 0.0769231
terai favorite 0.0312500
jmisre of 0.0011561
jmisre misunderstood 0.1666667
jmisre a 0.0005834
jmisre misunderstanding 0.5000000
dunra is 0.0009916
dunra winter 1.0000000
dunra coming 0.0312500
dunra Winter 0.5000000
cirla is 0.0004958
cirla like 0.0027174
cirla Cheese 1.0000000
cirla cheese 0.3846154
io NULL 0.0001782
io &apos;am 1.0000000
io your 0.0023866
io over 0.0192308
io Sir 0.1428571
io Now 0.0588235
io ass 0.3333333
io fair 0.2000000
io Get 0.0555556
taiku those 0.0400000
taiku Russians 0.1666667
taiku , 0.0008237
taiku ! 0.0018519
taiku Ah 0.1111111
cfipu am 0.0048780
cfipu confused 0.3333333
cfipu &apos;m 0.0021978
cfipu at 0.0037736
cfipu about 0.0056497
cfipu confusedly 0.2500000
cfipu NULL 0.0003564
cfipu buffalo 0.1000000
cfipu sense 0.1111111
cfipu when 0.0075758
cfipu makes 0.0454545
cfipu rather 0.1111111
cfipu all 0.0068966
cfipu puzzled 0.5000000
cfipu no 0.0073529
munoki'o books 0.0163934
munoki'o than 0.0079365
munoki'o more 0.0090909
munoki'o are 0.0015773
munoki'o in 0.0014409
munoki'o 50,000 0.3333333
munoki'o There 0.0063291
karcyckiku Where 0.0133333
karcyckiku keys 0.1875000
karcyckiku car 0.0232558
karcyckiku are 0.0047319
metxani atoms 1.0000000
metxani methane 1.0000000
metxani does 0.0166667
metxani have 0.0024570
jifxu'a is 0.0009916
jifxu'a wrong 0.0645161
solvre , 0.0008237
solvre on 0.0042918
solvre sunbathe 0.3333333
xorxes.luis.borxes Luis 1.0000000
xorxes.luis.borxes Jorge 1.0000000
xorxes.luis.borxes Borges 1.0000000
visysanji see 0.0077519
visysanji can 0.0038911
visysanji that 0.0016340
dotygu'e in 0.0014409
dotygu'e shares 0.5000000
dotygu'e made 0.0140845
dotygu'e Germany 0.3750000
dotygu'e was 0.0021552
kamvli great 0.0196078
kamvli NULL 0.0003564
kamvli power 0.0714286
no'o height 0.1428571
faxixo'e mountains 0.1111111
kurt.gedyl Kurt 1.0000000
kurt.gedyl Gödel 1.0000000
lastu Brass 0.5000000
lictenctain Liechtenstein 1.0000000
fasnu It 0.0027701
fasnu happening 0.3636364
fasnu what 0.0193050
fasnu Something 0.3000000
fasnu has 0.0045872
fasnu to 0.0004710
fasnu OK 0.1111111
fasnu event 0.3333333
fasnu about 0.0056497
fasnu That 0.0043860
fasnu next 0.0571429
fasnu going 0.0075758
fasnu NULL 0.0007129
fasnu happens 0.2857143
fasnu crime 0.2500000
fasnu last 0.0243902
fasnu on 0.0085837
fasnu Whatever 0.3750000
fasnu Revolutionary 0.2500000
fasnu ago 0.0322581
fasnu shall 0.1428571
fasnu things 0.0172414
fasnu scene 0.0833333
fasnu &apos;s 0.0033149
fasnu happened 0.2941176
fasnu funeral 0.2500000
fasnu Things 0.3333333
fasnu happen 0.2000000
mipri secretive 1.0000000
mipri kept 0.0555556
mipri hiding 0.1818182
mipri a 0.0005834
mipri NULL 0.0001782
mipri keep 0.0833333
mipri not 0.0021978
mipri hidden 0.5000000
mipri She 0.0028571
mipri the 0.0004452
mipri secret 0.4166667
mipri would 0.0144928
mipri hide 0.4000000
mipri hides 0.5000000
mipri . 0.0009147
mipri disclose 1.0000000
mipri hid 0.5000000
mipri things 0.0172414
mipri it 0.0074212
kanguru Kangaroo 1.0000000
toiotas Toyota 0.3333333
no'ebo food 0.0285714
no'ebo lukewarm 1.0000000
xa'e Let 0.0266667
xa'e &apos;s 0.0022099
ca'aku one 0.0048780
ca'aku helps 0.2000000
ca'aku no 0.0073529
jitseldejykarda are 0.0015773
jitseldejykarda credit 1.0000000
jitseldejykarda cards 0.5000000
fetsi &apos;s 0.0022099
fetsi queen 0.2500000
fetsi mare 0.5000000
fetsi wife 0.0333333
fetsi girlfriend 0.1600000
fetsi female 0.4285714
fetsi baked 0.2000000
fetsi became 0.0454545
fetsi her 0.0291262
fetsi knows 0.0212766
fetsi type 0.0714286
fetsi camel 0.1428571
fetsi dialed 0.2500000
fetsi Females 0.5000000
fetsi wore 0.0833333
fetsi She 0.0800000
fetsi return 0.0769231
fetsi His 0.0158730
fetsi Certainly 0.3333333
fetsi fifty 0.0909091
fetsi sent 0.1428571
fetsi doesn 0.0202020
fetsi NULL 0.0005347
fetsi admitted 0.0769231
fetsi she 0.0330579
nalcumki &apos;t 0.0011962
nalcumki impossible 0.0434783
nalcumki It 0.0027701
nalcumki &apos;m 0.0021978
nalcumki incredibly 1.0000000
nalcumki can 0.0038911
farna ? 0.0016930
farna One 0.0681818
farna trip 0.1818182
farna way 0.0845070
selzda used 0.0333333
selzda woods 0.1428571
selzda living 0.0588235
selzda &apos;ll 0.0067568
selzda get 0.0104167
selzda yourself 0.0588235
selzda to 0.0004710
selzda by 0.0127389
paltylumca'a sporks 0.2500000
vanjyjikru brandy 1.0000000
vanjyjikru to 0.0004710
derni'agau NULL 0.0001782
sosygugje'a Empire 1.0000000
spamatne margarine 0.2000000
banru'usu Russian 0.0769231
banru'usu in 0.0014409
banru'usu language 0.0120482
banru'usu liberty 0.1666667
banru'usu for 0.0024510
banru'usu the 0.0004452
zifre &apos;m 0.0065934
zifre can 0.0077821
zifre NULL 0.0012475
zifre freely 0.2500000
zifre anger 0.3333333
zifre liberty 0.1666667
zifre bring 0.1000000
zifre spare 1.0000000
zifre vacancies 0.2000000
zifre free 0.4444444
zifre be 0.0034014
zifre in 0.0014409
zifre we 0.0088496
zifre as 0.0208333
zifre , 0.0008237
botsuanas Botswana 1.0000000
mleske Aesthetics 1.0000000
sudan Sudan 1.0000000
xalka beverage 0.5000000
xalka to 0.0004710
xalka have 0.0073710
xalka Alcohol 0.2500000
xalka don 0.0034965
xalka liver 0.2000000
xalka alcohol 0.6666667
xalka slave 0.2000000
xalka at 0.0037736
xalka a 0.0005834
gymbis Gumby 1.0000000
morna handwriting 0.1428571
morna NULL 0.0001782
morna Your 0.0158730
xan Khan 1.0000000
nunspe marriage 0.4000000
nunspe happiness 0.0769231
nunspe Marriage 0.5000000
nunspe Her 0.0256410
nunspe to 0.0004710
nunspe we 0.0088496
nunspe brought 0.0625000
nunspe married 0.0270270
mulci to 0.0004710
mulci clean 0.1250000
mulci don 0.0034965
01 to 0.0004710
01 NULL 0.0001782
01 Unicode 0.5000000
ai.e'e without 0.0344828
ai.e'e fail 0.0625000
ai.e'e I 0.0003234
ai.e'e do 0.0029412
ai.e'e that 0.0016340
ai.e'e &apos;ll 0.0067568
ai.e'e . 0.0001143
badgau defend 0.2500000
xrula flower 0.6250000
xrula cauliflower 0.5000000
xrula flowers 0.6363636
xrula revived 0.1111111
nunli'u research 0.5000000
nunli'u purposes 0.2500000
mau did 0.0064103
mau swords 0.2000000
mau than 0.0238095
mau more 0.0363636
mau jog 0.1666667
mau worked 0.1111111
kurki bitter 1.0000000
ma'a Clusivity 0.3333333
ma'a duty 0.3333333
ma'a of 0.0011561
ma'a our 0.0600000
ma'a ears 0.0666667
ma'a provide 0.3333333
ma'a us 0.0625000
ma'a thankful 0.1666667
ma'a approach 0.3333333
ma'a mammals 0.2000000
ma'a neighbors 0.2500000
ma'a We 0.1087866
ma'a have 0.0024570
ma'a we 0.0796460
ma'a Our 0.1111111
ma'a greed 0.2000000
ma'a argue 0.3333333
ma'a all 0.0068966
zilmipri secret 0.0833333
zilmipri It 0.0027701
zilmipri isn 0.0136986
zilmipri a 0.0005834
selti'i proposal 0.6666667
selti'i they 0.0256410
selti'i end 0.0833333
selti'i , 0.0016474
selti'i the 0.0017809
selti'i In 0.0476190
selti'i approved 0.6666667
menli just 0.0121951
menli what 0.0038610
menli NULL 0.0001782
menli Artificial 0.5000000
menli my 0.0045662
menli mind 0.2222222
menli clear 0.1111111
menli head 0.0555556
zgatirna to 0.0014131
zgatirna listen 0.1000000
zgatirna After 0.2500000
ctufau present 0.0434783
ctufau the 0.0004452
ctufau class 0.2500000
ctufau in 0.0014409
suzyn.grin ... 0.0227273
suzyn.grin &apos;m 0.0021978
suzyn.grin Greene 0.6666667
suzyn.grin are 0.0015773
suzyn.grin Susan 0.2857143
nagoias to 0.0004710
nagoias Nagoya 0.1666667
daurbandu sustainable 0.5000000
rairnei favorite 0.0312500
rairnei actor 0.5000000
toknyjukpa traditional 0.5000000
toknyjukpa bake 0.2000000
satos Sato 0.2500000
satos &apos;m 0.0021978
spatrmeliace Meliaceae 1.0000000
puziki just 0.0487805
puziki We 0.0041841
puziki She 0.0028571
puziki I 0.0003234
puziki He 0.0016835
tumskiji Skateboarding 0.2500000
balpre only 0.0222222
balpre heros 0.5000000
balpre heroes 0.5000000
po father 0.0075758
po NULL 0.0005347
po Kurosawa 0.3333333
po socks 0.3333333
po library 0.0344828
po shirt 0.1000000
po soul 0.1111111
po is 0.0009916
po Whose 0.0322581
po books 0.0163934
po money 0.0394737
po friend 0.0256410
po boss 0.1250000
po sack 0.2857143
po sits 0.5000000
po room 0.0200000
po toothbrush 0.2500000
po businessperson 0.2000000
po &apos;s 0.0022099
po business 0.0588235
po shoes 0.0434783
rajyclazma than 0.0079365
rajyclazma his 0.0034965
rajyclazma taller 0.0625000
rajyclazma is 0.0004958
cmima body 0.1428571
cmima army 0.5000000
cmima U.N. 0.2500000
cmima club 0.5000000
cmima &apos;s 0.0022099
cmima user 0.1111111
cmima users 0.1250000
cmima blood 0.1666667
cmima a 0.0029172
cmima &apos;m 0.0043956
cmima contain 0.2857143
cmima country 0.0588235
cmima NULL 0.0005347
cmima member 0.6666667
papa 11 0.2500000
papa · 0.4285714
papa 7 0.1250000
papa 2 0.0256410
cumri'a enables 0.5000000
cumri'a me 0.0018797
cumri'a enabled 0.5000000
cumri'a impact 0.3333333
xanto Elephant 0.2000000
xanto has 0.0045872
xanto elephants 1.0000000
xanto way 0.0140845
xanto blocking 0.5000000
xanto are 0.0015773
xanto An 0.2222222
xanto mice 0.2500000
xanto elephant 1.0000000
xanto my 0.0022831
indias India 0.2500000
indias is 0.0004958
indias in 0.0014409
skacau Colorless 0.2500000
blotrskunri schooner 1.0000000
blotrskunri is 0.0004958
blotrskunri a 0.0005834
gy.precise.gy meaning 0.0588235
gy.precise.gy precise 0.2222222
gy.precise.gy the 0.0004452
gy.precise.gy &quot; 0.0047847
gy.precise.gy of 0.0011561
pinxa three 0.0444444
pinxa Take 0.0250000
Principia author 0.1250000
Principia Mathematica 0.1052632
Principia only 0.0222222
Principia of 0.0011561
Principia Principia 0.1666667
xukmi Chemical 0.5000000
xukmi chemistry 0.2500000
soltolfa'u is 0.0004958
soltolfa'u it 0.0018553
soltolfa'u sunrise 1.0000000
soltolfa'u a 0.0011669
cupra not 0.0021978
cupra Products 0.1428571
cupra make 0.0153846
cupra NULL 0.0001782
cupra clicked 0.2000000
baikal Lake 0.1111111
baikal Baikal 0.5000000
frederik Frédéric 1.0000000
teris , 0.0032949
teris Terry 0.4444444
internet Internet 0.1428571
internet is 0.0004958
internet The 0.0015699
civla living 0.1176471
civla fleas 1.0000000
civla on 0.0085837
IBM IBM 0.2222222
djogu'e Arabia 1.0000000
djogu'e Saudi 1.0000000
vaujebabo looked 0.0222222
vaujebabo and 0.0026247
kraislr Chrysler 0.2500000
kraislr a 0.0005834
kraislr is 0.0004958
pamei &quot; 0.0095694
pamei member 0.1666667
pamei my 0.0022831
pamei set 0.0833333
pamei own 0.0243902
pamei with 0.0040323
pamei One 0.0227273
pamei one 0.0048780
pamei have 0.0024570
xanguk Korea 0.1250000
xanguk South 0.1666667
patpei that 0.0016340
patpei been 0.0129870
patpei so 0.0092593
patpei bothering 0.5000000
patpei much 0.0116279
patpei him 0.0069930
patpei has 0.0045872
imazixen Berber 0.3333333
imazixen people 0.0080000
lanjo are 0.0015773
lanjo glasses 0.0263158
saras Sarah 0.4000000
saras sings 0.2500000
sornai International 0.5000000
rupnu costs 0.5000000
rupnu &apos;s 0.0022099
rupnu the 0.0008905
rupnu What 0.0055710
rupnu yen 0.1666667
rupnu bag 0.0666667
rupnu this 0.0054054
rupnu $ 0.1666667
rupnu money 0.0131579
rupnu dollars 0.2000000
rupnu bet 0.2000000
rupnu NULL 0.0003564
rupnu price 0.1818182
rupnu enough 0.0500000
rupnu of 0.0023121
cy'ibu'abus CIA 0.0666667
cy'ibu'abus the 0.0004452
cy'ibu'abus for 0.0024510
fukpi cloned 0.5000000
fukpi her 0.0048544
fukpi try 0.0250000
fukpi NULL 0.0001782
fukpi That 0.0043860
fukpi a 0.0011669
fukpi imitate 1.0000000
fukpi to 0.0009421
fukpi forgery 0.2500000
fukpi &apos;s 0.0011050
fukpi copy 0.5000000
pu turned 0.1578947
pu interrupted 0.2500000
pu hath 1.0000000
pu fixed 0.1111111
pu bought 0.2413793
pu football 0.5000000
pu could 0.2000000
pu did 0.3333333
pu clicked 0.4000000
pu crime 0.2500000
pu drew 0.4000000
pu caught 0.1818182
pu call 0.0322581
pu offered 0.2000000
pu used 0.1666667
pu wore 0.5000000
pu fucked 0.1428571
pu pushed 0.2500000
pu door 0.0250000
pu became 0.2727273
pu Was 0.2666667
pu lay 0.1428571
pu riot 0.5000000
pu having 0.1111111
pu wondered 0.4000000
pu attacked 0.5000000
pu says 0.0294118
pu built 0.0454545
pu weren 0.1428571
pu stayed 0.3333333
pu rescued 0.5000000
pu done 0.0196078
pu stepped 0.3750000
pu wounded 0.3333333
pu ex-wife 0.2000000
pu stood 0.4444444
pu baked 0.4000000
pu close 0.0769231
pu NULL 0.0090893
pu Wasn 0.5000000
pu went 0.3289474
pu demanded 0.4000000
pu kept 0.1111111
pu dreamed 0.1666667
pu waited 0.3529412
pu drove 0.3000000
pu heard 0.1379310
pu cried 0.2500000
pu ate 0.3793103
pu haven 0.0714286
pu invited 0.2500000
pu laughed 0.3000000
pu Uri 0.3333333
pu raised 0.5000000
pu already 0.1250000
pu filled 0.3000000
pu wanted 0.3428571
pu found 0.3043478
pu saved 0.2000000
pu neglected 0.2500000
pu lasted 0.5000000
pu week 0.1200000
pu strolled 0.3333333
pu to 0.0004710
pu showered 0.5000000
pu asked 0.1904762
pu managed 0.2500000
pu told 0.2000000
pu melted 0.2500000
pu always 0.0428571
pu flew 0.1666667
pu created 0.2000000
pu crossposted 0.3333333
pu needed 0.2000000
pu actually 0.1250000
pu had 0.2881356
pu started 0.0869565
pu continued 0.4000000
pu nearly 0.2500000
pu clouds 0.3333333
pu sick 0.0952381
pu kissed 0.2222222
pu smelled 0.5000000
pu bowed 0.2500000
pu moved 0.4285714
pu listened 0.3333333
pu said 0.1322314
pu committed 0.2500000
pu learned 0.1428571
pu fed 0.2000000
pu loved 0.2352941
pu arrived 0.1111111
pu shopkeeper 0.2500000
pu erased 0.3333333
pu camel 0.1428571
pu dialed 0.2500000
pu cook 0.0909091
pu Parker 0.3333333
pu painted 0.3333333
pu walked 0.2857143
pu impersonated 0.4000000
pu enabled 0.5000000
pu entertained 0.5000000
pu Frank 0.1666667
pu surprised 0.1351351
pu lied 0.3750000
pu sharpened 0.5000000
pu Long 0.5000000
pu She 0.0028571
pu giggled 0.3333333
pu hit 0.1000000
pu decided 0.0500000
pu stank 0.2000000
pu stole 0.3636364
pu elected 0.5000000
pu would 0.0144928
pu persuaded 0.5000000
pu looked 0.2000000
pu requested 0.3333333
pu helped 0.2666667
pu talked 0.2352941
pu drank 0.2380952
pu handed 0.1666667
pu cut 0.2307692
pu danced 0.2857143
pu needn 0.3333333
pu swam 0.5000000
pu took 0.3636364
pu rained 0.2857143
pu lost 0.2686567
pu Settlers 0.5000000
pu informed 0.5000000
pu implored 0.2500000
pu happened 0.2352941
pu fell 0.1785714
