Obama byRAK.obamas 0.5000000
Barack byRAK.obamas 0.5000000
sixty snidu 0.2500000
meter snidu 0.2500000
Second snidu 0.2500000
second snidu 0.2500000
shoot celgunta 0.7500000
shooting celgunta 0.2500000
dislike tolnelci 0.0833333
like tolnelci 0.0833333
with tolnelci 0.0833333
that tolnelci 0.0833333
eggs tolnelci 0.0833333
do tolnelci 0.0833333
&apos;t tolnelci 0.1666667
don tolnelci 0.1666667
much tolnelci 0.0833333
pleasure tolnelci 0.0833333
Ahmad .axmed. 0.3333333
name .axmed. 0.3333333
is .axmed. 0.3333333
are caca'o 0.3333333
What caca'o 0.1666667
working caca'o 0.0833333
is caca'o 0.1666667
love caca'o 0.0833333
NULL caca'o 0.0833333
suggesting caca'o 0.0833333
They mo'ifli 0.5000000
We mo'ifli 0.5000000
give dunda 0.1416667
sandwich dunda 0.0083333
doll dunda 0.0083333
gave dunda 0.1583333
for dunda 0.0083333
flowers dunda 0.0083333
gives dunda 0.0166667
bill dunda 0.0083333
you dunda 0.0333333
handed dunda 0.0083333
this dunda 0.0083333
&apos;ll dunda 0.0166667
pass dunda 0.0250000
given dunda 0.0166667
gift dunda 0.0333333
Can dunda 0.0166667
from dunda 0.0083333
feed dunda 0.0083333
giving dunda 0.0083333
business dunda 0.0083333
present dunda 0.0083333
me dunda 0.1666667
that dunda 0.0166667
something dunda 0.0166667
to dunda 0.0500000
bу dunda 0.0166667
a dunda 0.0083333
Give dunda 0.0916667
context dunda 0.0083333
brought dunda 0.0083333
NULL dunda 0.0583333
make jarple 0.2500000
cardboard jarple 0.2500000
to jarple 0.2500000
used jarple 0.2500000
My lanka 0.5000000
basket lanka 0.5000000
around jibni 0.0625000
am jibni 0.0625000
nearest jibni 0.0625000
near jibni 0.1250000
drunk jibni 0.0625000
willing jibni 0.0625000
a jibni 0.0625000
approaching jibni 0.0625000
How jibni 0.0625000
is jibni 0.0625000
close jibni 0.1875000
nigh jibni 0.1250000
Tatoeba gy.Tatoeba.gy. 0.4000000
URL gy.Tatoeba.gy. 0.2000000
the gy.Tatoeba.gy. 0.2000000
of gy.Tatoeba.gy. 0.2000000
&apos;lyeh rliex 1.0000000
&apos;s fetspe 0.2000000
wife fetspe 0.4000000
my fetspe 0.2000000
ex-wife fetspe 0.2000000
striking .pacicac. 0.2500000
thirteen .pacicac. 0.2500000
were .pacicac. 0.2500000
clocks .pacicac. 0.2500000
eats .frank. 0.5000000
Frank .frank. 0.5000000
here mribriju 0.2000000
office mribriju 0.2000000
a mribriju 0.2000000
post mribriju 0.2000000
around mribriju 0.2000000
be jutsi 0.2000000
a jutsi 0.2000000
extinct jutsi 0.2000000
kinds jutsi 0.2000000
cannibal jutsi 0.2000000
have nunjmaji 0.0666667
go nunjmaji 0.0666667
from nunjmaji 0.0666667
&apos;s nunjmaji 0.1333333
attend nunjmaji 0.0666667
move nunjmaji 0.0666667
myself nunjmaji 0.0666667
to nunjmaji 0.2000000
meeting nunjmaji 0.2666667
speak bancre 0.5000000
Chinese bancre 0.5000000
is tsali 0.1282051
he tsali 0.1282051
are tsali 0.0512821
blows tsali 0.0256410
He tsali 0.0256410
&apos;s tsali 0.0512821
strong tsali 0.3076923
stronger tsali 0.0769231
. tsali 0.1538462
am tsali 0.0256410
tough tsali 0.0256410
Gadolinium jinmrgadolini 1.0000000
needy du'e 0.0476190
NULL du'e 0.0476190
too du'e 0.3809524
quit du'e 0.0476190
! du'e 0.0476190
Countless du'e 0.0476190
many du'e 0.0952381
much du'e 0.0952381
expensive du'e 0.1428571
&apos;s du'e 0.0476190
Aachen Aachen 0.5000000
in Aachen 0.5000000
person mispre 0.2000000
a mispre 0.2000000
is mispre 0.2000000
who mispre 0.2000000
celebrity mispre 0.2000000
too dusbarda 0.2500000
It dusbarda 0.2500000
&apos;s dusbarda 0.2500000
large dusbarda 0.2500000
invited vi'ecpe 0.7500000
guests vi'ecpe 0.2500000
saplings sombo 0.2000000
planted sombo 0.4000000
you sombo 0.2000000
plant sombo 0.2000000
Florida .flOridas. 0.3333333
in .flOridas. 0.3333333
still .flOridas. 0.3333333
No go'inai 1.0000000
Pharamp Pharamp 1.0000000
Esperanto la.esperanton. 0.6666667
learn la.esperanton. 0.3333333
Toshio la.toci,on. 0.5000000
does la.toci,on. 0.5000000
whether .u 0.1000000
NULL .u 0.1000000
they .u 0.1000000
) .u 0.1000000
( .u 0.1000000
solicit .u 0.1000000
not .u 0.1000000
cars .u 0.1000000
or .u 0.1000000
discuss .u 0.1000000
Kate la.braiyn. 1.0000000
word no'a 0.1000000
do no'a 0.1000000
was no'a 0.1000000
such no'a 0.1000000
his no'a 0.1000000
NULL no'a 0.1000000
extent no'a 0.1000000
an no'a 0.1000000
before no'a 0.1000000
they no'a 0.1000000
night .uedai 0.1250000
&apos;clock .uedai 0.1250000
ten .uedai 0.1250000
&apos;s .uedai 0.1250000
at .uedai 0.1250000
o .uedai 0.1250000
already .uedai 0.1250000
It .uedai 0.1250000
&quot; zoi. 0.4000000
kaisha zoi. 0.4000000
for zoi. 0.2000000
told sucku 1.0000000
Rebecca rebekas 0.2500000
at rebekas 0.2500000
least rebekas 0.2500000
has rebekas 0.2500000
NULL by 0.2500000
OpenBSD by 0.2500000
invention by 0.2500000
he by 0.2500000
oxen smaci 1.0000000
is tuks. 0.2500000
Antarctic tuks. 0.2500000
Tux tuks. 0.2500000
an tuks. 0.2500000
be nago'i 0.2857143
not nago'i 0.1428571
To nago'i 0.1428571
that nago'i 0.1428571
or nago'i 0.1428571
to nago'i 0.1428571
have sajysne 0.1250000
dreams sajysne 0.2500000
A sajysne 0.1250000
has sajysne 0.1250000
lucid sajysne 0.3750000
door la'izda 1.0000000
green crino 0.8571429
both crino 0.0476190
is crino 0.0476190
possibly crino 0.0476190
Mei .meilis. 0.5000000
Li .meilis. 0.5000000
Not tolkanro 0.1111111
his tolkanro 0.1111111
he tolkanro 0.1111111
being tolkanro 0.1111111
careful tolkanro 0.1111111
fell tolkanro 0.1111111
ill tolkanro 0.1111111
of tolkanro 0.1111111
, tolkanro 0.1111111
is dyvydy 0.3333333
DVD dyvydy 0.3333333
a dyvydy 0.3333333
Kana ponslakyle'u 1.0000000
semester kulcitsi 1.0000000
skillful jonai 0.3333333
Either jonai 0.3333333
or jonai 0.3333333
London ka'a 0.1428571
by ka'a 0.1428571
Where ka'a 0.1428571
for ka'a 0.4285714
NULL ka'a 0.1428571
is kambebna 0.1428571
What kambebna 0.1428571
that kambebna 0.1428571
of kambebna 0.1428571
question kambebna 0.1428571
? kambebna 0.1428571
kind kambebna 0.1428571
manufacture bralaizba 0.5000000
to bralaizba 0.5000000
pun klamburi 1.0000000
houses blaci 0.0714286
glass blaci 0.4285714
who blaci 0.0714286
Those blaci 0.1428571
live blaci 0.0714286
should blaci 0.0714286
reflects blaci 0.0714286
in blaci 0.0714286
pain .oiro'o 0.2500000
no .oiro'o 0.2500000
in .oiro'o 0.2500000
longer .oiro'o 0.2500000
some zmudu'a 0.3333333
me zmudu'a 0.3333333
more zmudu'a 0.3333333
what nalvai 0.2000000
matter nalvai 0.2000000
forgives nalvai 0.2000000
no nalvai 0.2000000
she nalvai 0.2000000
meaning gy.precise.gy. 0.1428571
&quot; gy.precise.gy. 0.2857143
precise gy.precise.gy. 0.2857143
of gy.precise.gy. 0.1428571
the gy.precise.gy. 0.1428571
in so'isairoi 0.5000000
talk so'isairoi 0.5000000
You .oipeida'i 0.2500000
join .oipeida'i 0.2500000
mind .oipeida'i 0.2500000
if .oipeida'i 0.2500000
off nalpencu 1.0000000
borogoves brogovzi 1.0000000
Ethiopia itiopias 1.0000000
do po'onai 0.2000000
not po'onai 0.2000000
only po'onai 0.2000000
that po'onai 0.2000000
to po'onai 0.2000000
long pasifik 0.2000000
voyage pasifik 0.2000000
the pasifik 0.2000000
Pacific pasifik 0.2000000
across pasifik 0.2000000
Fall critu 0.2500000
fall critu 0.2500000
autumn critu 0.5000000
come ku 0.0078125
beloved ku 0.0039062
habit ku 0.0039062
exists ku 0.0078125
anyone ku 0.0039062
Life ku 0.0039062
teeth ku 0.0039062
. ku 0.0195312
GPS ku 0.0078125
rainy ku 0.0039062
pencil ku 0.0039062
faster ku 0.0039062
borogoves ku 0.0039062
news ku 0.0039062
trouble ku 0.0039062
Hokkaido ku 0.0039062
fell ku 0.0039062
jump ku 0.0039062
NULL ku 0.1367188
talker ku 0.0039062
characteristics ku 0.0039062
river ku 0.0039062
permission ku 0.0078125
telephone ku 0.0039062
judge ku 0.0039062
camera ku 0.0078125
bananas ku 0.0039062
ripe ku 0.0039062
can ku 0.0039062
outgrabe ku 0.0039062
Gods ku 0.0039062
begin ku 0.0039062
brother ku 0.0078125
difficulty ku 0.0039062
Maybe ku 0.0039062
inevitable ku 0.0039062
ears ku 0.0039062
playthings ku 0.0039062
girlfriend ku 0.0039062
Thus ku 0.0039062
Valsi ku 0.0039062
hall ku 0.0039062
smell ku 0.0039062
exercise ku 0.0039062
trees ku 0.0039062
insects ku 0.0039062
banana ku 0.0039062
Espresso ku 0.0039062
needs ku 0.0078125
is ku 0.1640625
Lojban ku 0.0039062
fails ku 0.0039062
favorite ku 0.0039062
answered ku 0.0039062
, ku 0.0351562
whatever ku 0.0039062
delicious ku 0.0039062
cool ku 0.0039062
face ku 0.0039062
ceasing ku 0.0078125
pursuit ku 0.0039062
rang ku 0.0039062
Those ku 0.0078125
figment ku 0.0039062
drinking ku 0.0039062
even ku 0.0039062
apple ku 0.0039062
books ku 0.0078125
won ku 0.0078125
far ku 0.0039062
cries ku 0.0039062
Unicorn ku 0.0039062
Nature ku 0.0039062
Beer ku 0.0039062
dog ku 0.0039062
sister ku 0.0039062
inch ku 0.0039062
bike ku 0.0039062
left ku 0.0039062
squatting ku 0.0039062
gun ku 0.0039062
isn ku 0.0039062
floats ku 0.0039062
called ku 0.0039062
class ku 0.0039062
everywhere ku 0.0039062
obey ku 0.0039062
Mooli ku 0.0039062
better ku 0.0039062
hand ku 0.0039062
hovercraft ku 0.0039062
thing ku 0.0039062
may ku 0.0039062
lust ku 0.0039062
to ku 0.0039062
fear ku 0.0039062
risks ku 0.0039062
nest ku 0.0039062
heard ku 0.0039062
hanging ku 0.0039062
looking ku 0.0117188
mirror ku 0.0039062
toupee ku 0.0039062
Here ku 0.0039062
wall ku 0.0039062
children ku 0.0117188
Aha ku 0.0039062
now ku 0.0117188
Determination ku 0.0039062
when ku 0.0039062
agreement ku 0.0039062
tend ku 0.0039062
are ku 0.0312500
court ku 0.0039062
before ku 0.0078125
honest ku 0.0039062
freezes ku 0.0039062
coelacanth ku 0.0039062
remember ku 0.0039062
Shopping ku 0.0039062
blondes ku 0.0039062
using ku 0.0039062
adults ku 0.0039062
absorbs ku 0.0039062
kiss ku 0.0039062
tries ku 0.0039062
items ku 0.0039062
health ku 0.0078125
spouse ku 0.0039062
trying ku 0.0039062
Soviet-American ku 0.0039062
bank ku 0.0039062
uncle ku 0.0039062
sad ku 0.0039062
games ku 0.0039062
place ku 0.0078125
studies ku 0.0039062
Aluminium ku 0.0039062
window ku 0.0039062
fiction ku 0.0039062
Russians ku 0.0039062
friendly ku 0.0039062
it ki 0.2500000
internally ki 0.2500000
that ki 0.2500000
stabbed ki 0.2500000
&apos;t selma'i 1.0000000
device me'u 0.5000000
Hakata me'u 0.5000000
and cein 0.1250000
attending cein 0.1250000
off cein 0.1250000
on cein 0.1250000
goes cein 0.1250000
computer cein 0.1250000
Shane cein 0.1250000
the cein 0.1250000
Myrmecology manti 1.0000000
prohibited surdei 1.0000000
the vudzu'e 0.2000000
They vudzu'e 0.2000000
right vudzu'e 0.2000000
did vudzu'e 0.2000000
thing vudzu'e 0.2000000
Do ju'o 0.0238095
very ju'o 0.0238095
be ju'o 0.0238095
am ju'o 0.0238095
Certainly ju'o 0.0238095
over ju'o 0.0238095
fact ju'o 0.0238095
geez ju'o 0.0238095
must ju'o 0.0952381
, ju'o 0.0476190
I ju'o 0.1666667
certainly ju'o 0.0238095
You ju'o 0.0238095
&apos;m ju'o 0.1428571
think ju'o 0.0238095
That ju'o 0.0238095
if ju'o 0.0238095
sure ju'o 0.1190476
definitely ju'o 0.0238095
NULL ju'o 0.0476190
certain ju'o 0.0476190
My smadi 0.0909091
Guess smadi 0.2727273
who smadi 0.1818182
himself smadi 0.0909091
guessed smadi 0.0909091
guess smadi 0.1818182
right smadi 0.0909091
Erbium jinmrberbi 1.0000000
hand xansli 0.2500000
waving xansli 0.2500000
his xansli 0.2500000
by xansli 0.2500000
it cfaga'e 0.3333333
notice cfaga'e 0.3333333
do cfaga'e 0.3333333
armed pojbre 1.0000000
natural jinzi 0.1111111
talent jinzi 0.1111111
has jinzi 0.1111111
for jinzi 0.1111111
She jinzi 0.1111111
nature jinzi 0.1111111
NULL jinzi 0.1111111
divine jinzi 0.1111111
a jinzi 0.1111111
Jump ze 0.0500000
7 ze 0.1500000
NULL ze 0.1000000
17 ze 0.0500000
at ze 0.0500000
seven ze 0.5000000
store ze 0.0500000
closes ze 0.0500000
while puzavi 0.2000000
ago puzavi 0.2000000
a puzavi 0.2000000
here puzavi 0.2000000
was puzavi 0.2000000
Shinjuku cinjukus. 1.0000000
with kenra 0.2000000
ill kenra 0.2000000
cancer kenra 0.4000000
became kenra 0.2000000
Igneous dujro'i 0.5000000
rock dujro'i 0.5000000
nuts fenki 0.0434783
completely fenki 0.0434783
is fenki 0.0434783
! fenki 0.0869565
crazies fenki 0.0869565
nut fenki 0.0434783
were fenki 0.0434783
den fenki 0.0434783
crazy fenki 0.3478261
&apos;re fenki 0.0869565
of fenki 0.0869565
mad fenki 0.0434783
&apos;s djordj. 0.1428571
was djordj. 0.1428571
staying djordj. 0.1428571
George djordj. 0.4285714
at djordj. 0.1428571
help sadyka'e 0.3333333
your sadyka'e 0.3333333
, sadyka'e 0.3333333
under ni'a 0.5000000
text ni'a 0.0833333
such ni'a 0.0833333
straight ni'a 0.0833333
below ni'a 0.0833333
the ni'a 0.1666667
African friko 0.5000000
Africa friko 0.5000000
nevermind tolcri 0.0526316
find tolcri 0.3684211
if tolcri 0.0526316
they tolcri 0.0526316
us tolcri 0.0526316
see tolcri 0.0526316
what tolcri 0.0526316
it tolcri 0.0526316
found tolcri 0.2105263
I tolcri 0.0526316
kilo ki'o 0.1250000
are ki'o 0.1250000
more ki'o 0.1250000
There ki'o 0.1250000
than ki'o 0.1250000
billion ki'o 0.2500000
Thank ki'o 0.1250000
busy zukcfu 0.1666667
himself zukcfu 0.1666667
busies zukcfu 0.1666667
NULL zukcfu 0.1666667
with zukcfu 0.1666667
her zukcfu 0.1666667
visit diklo 0.1000000
likely diklo 0.1000000
confined diklo 0.1000000
&apos;ll diklo 0.1000000
local diklo 0.1000000
&apos;s diklo 0.1000000
the diklo 0.3000000
area diklo 0.1000000
peas boldembi 1.0000000
Betty la.betis. 0.3333333
a la.betis. 0.3333333
is la.betis. 0.3333333
Citrus nimre 1.0000000
the vijytcana 0.3000000
airport vijytcana 0.5000000
at vijytcana 0.1000000
now vijytcana 0.1000000
Fertile ferti 0.3333333
cultivates ferti 0.3333333
our ferti 0.3333333
number kijytcini 0.5000000
Oxidation kijytcini 0.5000000
Arthur rubnstain. 0.3333333
Rubinstein rubnstain. 0.3333333
by rubnstain. 0.3333333
treatment ko'a 0.0012674
drumming ko'a 0.0012674
they ko'a 0.0088720
news ko'a 0.0012674
her ko'a 0.0633714
folly ko'a 0.0012674
get ko'a 0.0025349
lifted ko'a 0.0012674
this ko'a 0.0025349
presently ko'a 0.0012674
Everybody ko'a 0.0012674
printed ko'a 0.0012674
He ko'a 0.2661597
approve ko'a 0.0012674
post ko'a 0.0025349
his ko'a 0.0430925
His ko'a 0.0114068
advice ko'a 0.0038023
Instead ko'a 0.0012674
skiing ko'a 0.0012674
annoys ko'a 0.0012674
novels ko'a 0.0012674
their ko'a 0.0050697
hell ko'a 0.0012674
They ko'a 0.0544994
he ko'a 0.0773131
clearly ko'a 0.0012674
NULL ko'a 0.0544994
Her ko'a 0.0063371
describe ko'a 0.0012674
objection ko'a 0.0012674
Although ko'a 0.0025349
kilometers ko'a 0.0012674
jaw ko'a 0.0012674
Anka ko'a 0.0012674
screamed ko'a 0.0012674
treat ko'a 0.0025349
counts ko'a 0.0012674
After ko'a 0.0012674
kitchen ko'a 0.0012674
She ko'a 0.1774398
secretary ko'a 0.0025349
instead ko'a 0.0012674
Their ko'a 0.0012674
enterprise ko'a 0.0012674
apologized ko'a 0.0012674
mine ko'a 0.0012674
Nick ko'a 0.0038023
it ko'a 0.0202788
pillows ko'a 0.0012674
himself ko'a 0.0025349
them ko'a 0.0164766
judges ko'a 0.0012674
Living ko'a 0.0012674
socks ko'a 0.0012674
deal ko'a 0.0025349
issue ko'a 0.0012674
Woman ko'a 0.0012674
separately ko'a 0.0012674
she ko'a 0.0443599
these ko'a 0.0012674
It ko'a 0.0114068
waving ko'a 0.0012674
definitely ko'a 0.0012674
him ko'a 0.0621039
who flacre 0.3333333
lawyers flacre 0.3333333
became flacre 0.3333333
Oradea oradeas 1.0000000
NULL ge'e 0.0833333
Really ge'e 0.0833333
Well ge'e 0.0833333
! ge'e 0.0833333
that ge'e 0.0833333
because ge'e 0.0833333
really ge'e 0.0833333
Oh ge'e 0.1666667
So ge'e 0.0833333
, ge'e 0.1666667
&apos;t xunai 0.3750000
Isn xunai 0.1250000
Doesn xunai 0.0625000
&quot; xunai 0.1875000
Don xunai 0.2500000
shook desygau 0.5000000
it desygau 0.5000000
saw kinzga 1.0000000
Empire sosygugje'a 1.0000000
left-handed zulxanpre 0.6000000
is zulxanpre 0.2000000
&apos;m zulxanpre 0.2000000
meeting pensi'u 0.3333333
meet pensi'u 0.3333333
are pensi'u 0.3333333
lot finpe 0.0312500
Fish finpe 0.0625000
fish finpe 0.7812500
of finpe 0.0625000
kind finpe 0.0312500
fishing finpe 0.0312500
Are peizo'onai 0.2500000
? peizo'onai 0.2500000
you peizo'onai 0.2500000
serious peizo'onai 0.2500000
NULL xo'o 0.6666667
Obvious xo'o 0.3333333
Norway noreg 1.0000000
Switzerland elvetias 1.0000000
Jesus la.iesus. 1.0000000
laughter kixmi'a 0.3333333
howled kixmi'a 0.3333333
with kixmi'a 0.3333333
gripping cu'i 0.0178571
spark cu'i 0.0178571
ease cu'i 0.0178571
Erm cu'i 0.0178571
Hmm cu'i 0.0178571
do cu'i 0.0178571
importantly cu'i 0.0178571
care cu'i 0.0357143
don cu'i 0.0357143
&apos;t cu'i 0.0535714
but cu'i 0.0357143
Eh cu'i 0.0178571
geez cu'i 0.0178571
meh cu'i 0.0178571
So cu'i 0.0357143
anything cu'i 0.0178571
or cu'i 0.0178571
Gulp cu'i 0.0178571
puttering cu'i 0.0178571
none cu'i 0.0178571
Ah cu'i 0.0178571
NULL cu'i 0.0178571
&apos;s cu'i 0.0178571
surprising cu'i 0.0178571
I cu'i 0.0535714
objectively cu'i 0.0178571
though cu'i 0.0178571
, cu'i 0.2500000
Seriously cu'i 0.0178571
purchase cu'i 0.0178571
not cu'i 0.0714286
really cu'i 0.0178571
Zirconium jinmrzirkoni 1.0000000
decided jdica 0.1666667
his jdica 0.1666667
up jdica 0.1666667
mind jdica 0.1666667
have jdica 0.1666667
made jdica 0.1666667
route gy.Chicago.gy. 1.0000000
Iodine zirkliru 1.0000000
explanation velcki 1.0000000
mother mamta 0.6785714
grandmother mamta 0.0119048
mothers mamta 0.0119048
grandfather mamta 0.0119048
Mom mamta 0.0119048
NULL mamta 0.0119048
Her mamta 0.0119048
are mamta 0.0119048
maternal mamta 0.0119048
mommy mamta 0.0119048
Mummy mamta 0.0119048
My mamta 0.0952381
paternal mamta 0.0119048
native mamta 0.0119048
mamma mamta 0.0119048
mom mamta 0.0476190
mum mamta 0.0119048
&apos;s mamta 0.0119048
find trina 0.1250000
drawn trina 0.1250000
to trina 0.2500000
in trina 0.1250000
appealing trina 0.1250000
nothing trina 0.1250000
attractive trina 0.1250000
&apos;ll selsaubi'o 0.3333333
used selsaubi'o 0.3333333
get selsaubi'o 0.3333333
Autism sezga'o 1.0000000
Leonardo leonardos.davintcis 0.3333333
da leonardos.davintcis 0.3333333
Vinci leonardos.davintcis 0.3333333
nobody pu'au 0.5000000
has pu'au 0.5000000
Afghanistan afyganisTAN 1.0000000
accompanied kansa 0.0277778
accompany kansa 0.0277778
lot kansa 0.0138889
been kansa 0.0138889
with kansa 0.4027778
&apos;ll kansa 0.0138889
together kansa 0.0138889
go kansa 0.0277778
have kansa 0.0138889
responsibility kansa 0.0138889
classmates kansa 0.0138889
am kansa 0.0138889
? kansa 0.0138889
join kansa 0.0277778
&apos;re kansa 0.0555556
be kansa 0.0694444
partner kansa 0.0138889
degree kansa 0.0138889
are kansa 0.0138889
me kansa 0.0138889
NULL kansa 0.0416667
come kansa 0.0138889
someone kansa 0.0277778
by kansa 0.0138889
today kansa 0.0138889
assistant kansa 0.0138889
one kansa 0.0277778
&apos;t kansa 0.0277778
Halloween xalo,uin 1.0000000
Tungsten jarjinme 1.0000000
Mars mars 1.0000000
seldom so'uroi 0.2500000
up so'uroi 0.2500000
came so'uroi 0.2500000
Sometimes so'uroi 0.2500000
Swedish sfe'ero 0.5000000
a sfe'ero 0.5000000
upside gapnitfa'e 0.5000000
down gapnitfa'e 0.5000000
top cmama'a 0.1666667
on cmama'a 0.1666667
the cmama'a 0.3333333
of cmama'a 0.1666667
hill cmama'a 0.1666667
Giraffe djirafa 1.0000000
went .dIsniland. 0.2000000
mother .dIsniland. 0.2000000
Disneyland .dIsniland. 0.2000000
with .dIsniland. 0.2000000
my .dIsniland. 0.2000000
lay vreta 0.1666667
lie vreta 0.1666667
lying vreta 0.1666667
on vreta 0.5000000
short tordu 0.4761905
He tordu 0.0476190
shorter tordu 0.0952381
is tordu 0.0476190
Short tordu 0.0476190
with tordu 0.0952381
&apos;m tordu 0.0476190
has tordu 0.0476190
&apos;s tordu 0.0952381
her xersku 0.2500000
stepping xersku 0.2500000
to xersku 0.2500000
for xersku 0.2500000
funny .u'inai 0.2000000
&apos;t .u'inai 0.2000000
. .u'inai 0.2000000
This .u'inai 0.2000000
isn .u'inai 0.2000000
station sorprekarcytcana 0.1428571
stop sorprekarcytcana 0.2857143
bus sorprekarcytcana 0.4285714
a sorprekarcytcana 0.1428571
Germans dotco 0.1176471
&apos;t dotco 0.0588235
&apos;re dotco 0.1176471
, dotco 0.0588235
aren dotco 0.1176471
Germany dotco 0.1176471
German dotco 0.4117647
footsteps sene'i 1.0000000
a .iesus. 0.1666667
by .iesus. 0.1666667
shining .iesus. 0.1666667
star .iesus. 0.1666667
Jesus .iesus. 0.3333333
language sapcki 0.2000000
in sapcki 0.2000000
plain sapcki 0.2000000
it sapcki 0.2000000
put sapcki 0.2000000
learn ka'erbi'o 0.3333333
objects ka'erbi'o 0.3333333
how ka'erbi'o 0.3333333
feel kanryze'a 0.5000000
better kanryze'a 0.5000000
by tepri'apre 0.2500000
terrorists tepri'apre 0.2500000
hated tepri'apre 0.2500000
are tepri'apre 0.2500000
Lake baikal. 0.5000000
Baikal baikal. 0.5000000
the snanu 0.1428571
am snanu 0.1428571
south snanu 0.2857143
to snanu 0.1428571
South snanu 0.1428571
look snanu 0.1428571
adult .ijo 0.0833333
equivalent .ijo 0.1666667
logically .ijo 0.1666667
to .ijo 0.1666667
is .ijo 0.1666667
Q .ijo 0.1666667
button .ijo 0.0833333
wet cilmo 0.5238095
is cilmo 0.0476190
humid cilmo 0.0952381
quite cilmo 0.0476190
&apos;s cilmo 0.1428571
. cilmo 0.0476190
It cilmo 0.0476190
&apos;m cilmo 0.0476190
her nalseljmi 0.3333333
mystery nalseljmi 0.3333333
of nalseljmi 0.3333333
Don cladu 0.0666667
hear cladu 0.0666667
everyone cladu 0.0666667
NULL cladu 0.1333333
sound cladu 0.0666667
greets cladu 0.0666667
can cladu 0.0666667
loudly cladu 0.0666667
the cladu 0.0666667
loud cladu 0.0666667
of cladu 0.0666667
louder cladu 0.0666667
noisy cladu 0.0666667
be cladu 0.0666667
criminal zerpre 0.5000000
attempted zerpre 0.5000000
sleep .a'enai 0.0588235
Quit .a'enai 0.0588235
&apos;m .a'enai 0.0588235
ski .a'enai 0.1176471
got .a'enai 0.0588235
. .a'enai 0.1176471
go .a'enai 0.0588235
&apos;ve .a'enai 0.0588235
have .a'enai 0.0588235
I .a'enai 0.1176471
tired .a'enai 0.0588235
to .a'enai 0.1764706
it melbi 0.0068493
beautiful melbi 0.3630137
who melbi 0.0034247
beauty melbi 0.0034247
&apos;re melbi 0.0205479
am melbi 0.0034247
Beautiful melbi 0.0034247
find melbi 0.0068493
cute melbi 0.0034247
gorgeous melbi 0.0034247
so melbi 0.0034247
prettily melbi 0.0034247
wonderful melbi 0.0034247
&apos;s melbi 0.0136986
one melbi 0.0034247
Dude melbi 0.0034247
ordinary-looking melbi 0.0034247
&apos;m melbi 0.0034247
nicely melbi 0.0034247
That melbi 0.0034247
is melbi 0.0239726
! melbi 0.0136986
ugly melbi 0.0034247
NULL melbi 0.0102740
very melbi 0.0136986
creature melbi 0.0034247
looks melbi 0.0068493
pretty melbi 0.0582192
beautiful-thing melbi 0.0034247
countryside melbi 0.0034247
How melbi 0.0034247
talkerly-beautiful melbi 0.0034247
Good melbi 0.0034247
HOT melbi 0.0034247
audiencely-beautiful melbi 0.0034247
look melbi 0.0034247
sings melbi 0.0034247
. melbi 0.2328767
nice melbi 0.0136986
good-looking melbi 0.0034247
handsome melbi 0.0034247
good melbi 0.0102740
are melbi 0.0273973
a melbi 0.0821918
Atlantic atlantik. 1.0000000
together kansi'u 0.5000000
carry kansi'u 0.2500000
several kansi'u 0.2500000
Trojan .troias. 0.5000000
a .troias. 0.5000000
Rubinstein .apasionatas. 1.0000000
Elephant .elis. 1.0000000
tire xilckabu 0.4000000
my xilckabu 0.2000000
now xilckabu 0.2000000
on xilckabu 0.2000000
Why mu'ima 0.2352941
Really mu'ima 0.1176471
is mu'ima 0.0588235
are mu'ima 0.0588235
for mu'ima 0.0588235
the mu'ima 0.0588235
these mu'ima 0.0588235
motivation mu'ima 0.0588235
? mu'ima 0.2352941
What mu'ima 0.0588235
equivalents kib 1.0000000
is mari'as.saras. 0.2500000
name mari'as.saras. 0.2500000
Maria mari'as.saras. 0.2500000
Sara mari'as.saras. 0.2500000
. sazysti 0.2000000
off sazysti 0.2000000
down sazysti 0.2000000
turn sazysti 0.2000000
Shutting sazysti 0.2000000
from london 0.1250000
differs london 0.1250000
&apos;s london 0.1250000
London london 0.2500000
that london 0.1250000
of london 0.1250000
climate london 0.1250000
waved slilygau 0.5000000
to slilygau 0.5000000
NULL purmo 0.2000000
Flour purmo 0.2000000
powder purmo 0.2000000
flour purmo 0.2000000
from purmo 0.2000000
year .irci 0.5000000
channel .irci 0.5000000
theater dracydi'u 1.0000000
make kufra 0.0666667
Make kufra 0.0666667
NULL kufra 0.0666667
felt kufra 0.1333333
comfortable kufra 0.2000000
yourself kufra 0.1333333
home kufra 0.0666667
at kufra 0.0666667
For kufra 0.0666667
good kufra 0.1333333
a jmisre 0.2500000
misunderstanding jmisre 0.2500000
misunderstood jmisre 0.2500000
of jmisre 0.2500000
Wall bitmu 0.1764706
of bitmu 0.1764706
fence bitmu 0.1176471
Great bitmu 0.0588235
wall bitmu 0.2941176
China bitmu 0.1764706
If .ainaisai 1.0000000
on ji'u 0.2000000
perfection ji'u 0.1000000
, ji'u 0.1000000
based ji'u 0.2000000
Socrates ji'u 0.1000000
lyrics ji'u 0.1000000
the ji'u 0.1000000
are ji'u 0.1000000
stop nunde'a 0.5000000
next nunde'a 0.5000000
Choose cuxna 0.0454545
what cuxna 0.0454545
choose cuxna 0.1818182
yours cuxna 0.0454545
elected cuxna 0.0454545
have cuxna 0.0454545
chosen cuxna 0.0909091
been cuxna 0.0454545
is cuxna 0.0454545
Chris cuxna 0.0454545
choice cuxna 0.1818182
may cuxna 0.0454545
NULL cuxna 0.0454545
elect cuxna 0.0909091
( snexu'i 0.2500000
) snexu'i 0.2500000
Cannabis snexu'i 0.2500000
drug snexu'i 0.2500000
Leave .e'u 0.0185185
Always .e'u 0.0185185
suggest .e'u 0.0370370
by .e'u 0.0185185
NULL .e'u 0.1111111
Please .e'u 0.1481481
feel .e'u 0.0185185
reduce .e'u 0.0185185
free .e'u 0.0185185
I .e'u 0.0185185
&apos;s .e'u 0.1481481
cinema .e'u 0.0185185
should .e'u 0.0185185
stay .e'u 0.0185185
case .e'u 0.0185185
You .e'u 0.0185185
Let .e'u 0.2222222
since .e'u 0.0185185
hesitate .e'u 0.0185185
dessert .e'u 0.0185185
drop .e'u 0.0185185
advice .e'u 0.0185185
worry .e'u 0.0185185
Greece xesygu'e 1.0000000
cows звати 1.0000000
telling cnicro 0.5000000
Sometimes cnicro 0.5000000
deliberate tolsnuti 0.1666667
hide tolsnuti 0.1666667
looks tolsnuti 0.1666667
your tolsnuti 0.1666667
good tolsnuti 0.1666667
intentionally tolsnuti 0.1666667
Equinox cteduncitsi 1.0000000
sharp dakfu 0.0769231
is dakfu 0.1538462
knife dakfu 0.6153846
that dakfu 0.0769231
with dakfu 0.0769231
written bakryta'o 0.3333333
blackboard bakryta'o 0.3333333
on bakryta'o 0.3333333
repeat .e'unaire'e 0.5000000
that .e'unaire'e 0.5000000
lender nagi'enai 0.1666667
or nagi'enai 0.1666667
get nagi'enai 0.1666667
Neither nagi'enai 0.3333333
disappointed nagi'enai 0.1666667
being cazi 0.1111111
our cazi 0.1111111
NULL cazi 0.2222222
moment cazi 0.1111111
bedroom cazi 0.1111111
just cazi 0.1111111
of cazi 0.1111111
at cazi 0.1111111
are dusygu'a 0.2000000
overworked dusygu'a 0.2000000
some dusygu'a 0.2000000
administrators dusygu'a 0.2000000
professors dusygu'a 0.2000000
garbage derxi 0.5000000
of derxi 0.5000000
Constantius konstantius.xlorus 0.5000000
Chlorus konstantius.xlorus 0.5000000
Africa frikytu'a 1.0000000
a jibri 0.1379310
this jibri 0.0172414
career jibri 0.0172414
NULL jibri 0.1034483
as jibri 0.0172414
administrator jibri 0.0344828
my jibri 0.0689655
walks jibri 0.0172414
work jibri 0.1034483
jobs jibri 0.0172414
industry jibri 0.0172414
job jibri 0.3793103
do jibri 0.0517241
unjust jibri 0.0172414
very tcexau 0.2500000
nice tcexau 0.2500000
wonderful tcexau 0.2500000
artist tcexau 0.2500000
Queen nolraitru 0.0370370
king nolraitru 0.6296296
King nolraitru 0.1111111
does nolraitru 0.0740741
the nolraitru 0.0740741
admires nolraitru 0.0740741
future bazu 0.1250000
the bazu 0.1250000
will bazu 0.1250000
, bazu 0.1250000
in bazu 0.1250000
expect bazu 0.1250000
far bazu 0.1250000
that bazu 0.1250000
years 45 0.1428571
place 45 0.1428571
45 45 0.1428571
The 45 0.1428571
took 45 0.1428571
ago 45 0.1428571
war 45 0.1428571
pear perli 0.3333333
on perli 0.2222222
pears perli 0.2222222
left perli 0.2222222
hazelnuts ricyratcu 1.0000000
Christmas xrisomasa 1.0000000
Crystal krilysu'a 0.5000000
structure krilysu'a 0.5000000
to ramus. 0.5000000
Ramu ramus. 0.5000000
Klabaster Klabaster 1.0000000
? vi'opei 0.2500000
Go vi'opei 0.1250000
Be vi'opei 0.1250000
careful vi'opei 0.1250000
, vi'opei 0.1250000
OK vi'opei 0.2500000
affects tankyva'u 0.3333333
Smoking tankyva'u 0.3333333
our tankyva'u 0.3333333
to lu'u 1.0000000
by cnigau 0.3333333
emotion cnigau 0.3333333
producing cnigau 0.3333333
in dzitumbau 0.2500000
Dutch dzitumbau 0.2500000
speaking dzitumbau 0.2500000
! dzitumbau 0.2500000
bought terve'u 0.2250000
a terve'u 0.2000000
myself terve'u 0.0250000
brought terve'u 0.0250000
that terve'u 0.0250000
paid terve'u 0.0250000
for terve'u 0.0250000
puppy terve'u 0.0250000
it terve'u 0.0250000
buy terve'u 0.3500000
&apos;ve terve'u 0.0250000
buys terve'u 0.0250000
Brass lastu 1.0000000
sounds mixre 0.1666667
a mixre 0.1666667
several mixre 0.1666667
of mixre 0.3333333
mixture mixre 0.1666667
concept si'o 0.1666667
NULL si'o 0.1666667
commanding si'o 0.1666667
meaningless si'o 0.1666667
soccer si'o 0.1666667
into si'o 0.1666667
kicked livbai 0.2500000
out livbai 0.2500000
Settlers livbai 0.2500000
of livbai 0.2500000
reproducible .ibo 0.1666667
the .ibo 0.1666667
- .ibo 0.1666667
NULL .ibo 0.1666667
occur .ibo 0.3333333
First djek. 1.0000000
Junko djunko 0.3333333
a djunko 0.3333333
is djunko 0.3333333
like si'erskiji 0.2500000
going si'erskiji 0.2500000
feel si'erskiji 0.2500000
skiing si'erskiji 0.2500000
now nau 0.7142857
&apos;m nau 0.1428571
&apos;re nau 0.0714286
Now nau 0.0714286
do gi'u 0.2500000
whether gi'u 0.2500000
, gi'u 0.2500000
it gi'u 0.2500000
Lawrencium jinmrlorensi 1.0000000
program seltivni 0.2500000
TV seltivni 0.5000000
on seltivni 0.2500000
, lunbe 0.2857143
naked lunbe 0.4285714
would lunbe 0.1428571
sunbathe lunbe 0.1428571
Let xa'e 0.5000000
&apos;s xa'e 0.5000000
can xandegji 0.2000000
type xandegji 0.2000000
all xandegji 0.2000000
using xandegji 0.2000000
fingers xandegji 0.2000000
NULL .ai 0.2424242
definitely .ai 0.0303030
! .ai 0.0303030
to .ai 0.0606061
something .ai 0.0303030
spend .ai 0.0606061
beat .ai 0.0303030
that .ai 0.0303030
do .ai 0.0303030
these .ai 0.0303030
planning .ai 0.0303030
intend .ai 0.0303030
I .ai 0.1818182
. .ai 0.0303030
To .ai 0.0303030
&apos;ll .ai 0.0303030
purchase .ai 0.0303030
her .ai 0.0303030
am .ai 0.0303030
followed klaje'i 0.2500000
me klaje'i 0.2500000
into klaje'i 0.2500000
She klaje'i 0.2500000
am belo 0.5000000
bean belo 0.5000000
warn jai 0.0158730
defend jai 0.0079365
nice jai 0.0079365
saying jai 0.0079365
was jai 0.0158730
Practice jai 0.0079365
25 jai 0.0079365
previously jai 0.0158730
playthings jai 0.0079365
ruin jai 0.0079365
crazies jai 0.0079365
be jai 0.0238095
Change jai 0.0079365
were jai 0.0396825
easy jai 0.0079365
obviously jai 0.0079365
supposed jai 0.0079365
fix jai 0.0079365
stamps jai 0.0079365
&apos;m jai 0.0079365
thief jai 0.0079365
makes jai 0.0158730
allowed jai 0.0158730
late jai 0.0952381
Madrid jai 0.0079365
Lojban jai 0.0079365
is jai 0.0158730
stronger jai 0.0079365
interest jai 0.0079365
motivate jai 0.0079365
stream jai 0.0079365
boring jai 0.0079365
Portugal jai 0.0079365
start jai 0.0238095
project jai 0.0158730
meal jai 0.0079365
cause jai 0.0079365
month jai 0.0079365
turn jai 0.0079365
clumsy jai 0.0079365
make jai 0.0158730
a jai 0.0079365
bouquet jai 0.0158730
Leave jai 0.0079365
doing jai 0.0238095
hurt jai 0.0079365
Should jai 0.0079365
frighten jai 0.0079365
cheap jai 0.0079365
difficult jai 0.0158730
rational jai 0.0079365
break jai 0.0079365
possible jai 0.0079365
understood jai 0.0079365
happens jai 0.0079365
fooled jai 0.0079365
tear jai 0.0158730
Time jai 0.0079365
emotions jai 0.0079365
half jai 0.0079365
NULL jai 0.1825397
likely jai 0.0079365
Turn jai 0.0079365
hard jai 0.0158730
starts jai 0.0079365
justified jai 0.0079365
early jai 0.0079365
opening jai 0.0079365
feeds jai 0.0079365
compelled jai 0.0079365
About jai 0.0079365
Nakano .naun.nakano. 1.0000000
already ku] 1.0000000
from pifli'a 0.4000000
escaped pifli'a 0.4000000
has pifli'a 0.2000000
meow .iri'abo 0.5000000
&apos;m .iri'abo 0.5000000
give jirlu'i 0.1666667
enjoyed jirlu'i 0.1666667
bath jirlu'i 0.3333333
&apos;ve jirlu'i 0.1666667
your jirlu'i 0.1666667
Church iecy,ys.krist 0.1666667
of iecy,ys.krist 0.3333333
Latter-day iecy,ys.krist 0.1666667
Christ iecy,ys.krist 0.1666667
Jesus iecy,ys.krist 0.1666667
The .amsterdam. 0.3333333
capital .amsterdam. 0.3333333
city .amsterdam. 0.3333333
Atomic na'orteryratni 0.5000000
mass na'orteryratni 0.5000000
cold-hearted risna 0.1428571
Hearts risna 0.2857143
Heart risna 0.1428571
heart risna 0.4285714
On nondei 0.1666667
on nondei 0.1666667
, nondei 0.1666667
Sunday nondei 0.5000000
Zoe zo,is. 1.0000000
&apos; in 1.0000000
pointless tolplixau 0.4000000
useless tolplixau 0.2000000
is tolplixau 0.2000000
to tolplixau 0.2000000
&apos;t na.u 0.1666667
doesn na.u 0.1666667
, na.u 0.1666667
if na.u 0.1666667
matter na.u 0.1666667
no na.u 0.1666667
a jdali'u 0.2000000
in jdali'u 0.2000000
mission jdali'u 0.2000000
am jdali'u 0.2000000
on jdali'u 0.2000000
Paraguay paraguais 1.0000000
this cerni 0.0416667
Good cerni 0.1250000
morning cerni 0.7916667
NULL cerni 0.0416667
God zasti 0.0125000
NULL zasti 0.0750000
He zasti 0.0125000
exists zasti 0.0875000
is zasti 0.0125000
here zasti 0.0125000
does zasti 0.0125000
god zasti 0.0125000
exist zasti 0.2000000
She zasti 0.0125000
out zasti 0.0500000
legend zasti 0.0125000
Buddha zasti 0.0125000
To zasti 0.0750000
, zasti 0.0125000
therefore zasti 0.0250000
Existence zasti 0.0125000
reality zasti 0.0500000
more zasti 0.0125000
you zasti 0.0125000
Thames zasti 0.0125000
dies zasti 0.0125000
with zasti 0.0500000
not zasti 0.0125000
touch zasti 0.0500000
really zasti 0.0125000
of zasti 0.0625000
am zasti 0.0250000
&apos;re zasti 0.0125000
be zasti 0.0125000
or zasti 0.0125000
almost pa'a 0.2000000
, pa'a 0.2000000
freely pa'a 0.2000000
like pa'a 0.4000000
information jungau 0.0208333
immediately jungau 0.0416667
tell jungau 0.3125000
know jungau 0.0625000
what jungau 0.0208333
wouldn jungau 0.0208333
let jungau 0.0208333
NULL jungau 0.0416667
him jungau 0.0208333
about jungau 0.0208333
inform jungau 0.0208333
anyone jungau 0.0416667
me jungau 0.0625000
something jungau 0.0208333
anybody jungau 0.0416667
told jungau 0.1041667
Tell jungau 0.0625000
informed jungau 0.0208333
US jungau 0.0208333
Let jungau 0.0208333
rainy lyndyn 0.0714286
day lyndyn 0.0714286
in lyndyn 0.0714286
squares lyndyn 0.0714286
London lyndyn 0.2857143
Was lyndyn 0.0714286
the lyndyn 0.1428571
for lyndyn 0.1428571
it lyndyn 0.0714286
NULL ky. 0.1666667
won ky. 0.1666667
she ky. 0.5000000
Although ky. 0.1666667
werewolf remlabno 0.5000000
a remlabno 0.5000000
height no'o 1.0000000
bend krori'a 1.0000000
making xamgau 0.2500000
fun xamgau 0.2500000
of xamgau 0.2500000
joke xamgau 0.2500000
can .tokpisin. 0.2500000
Pisin .tokpisin. 0.2500000
well .tokpisin. 0.2500000
Tok .tokpisin. 0.2500000
really rigypanci 0.3333333
. rigypanci 0.3333333
stink rigypanci 0.3333333
a xejykre 0.3333333
has xejykre 0.3333333
man xejykre 0.3333333
performance .oinai 0.1250000
&apos;m .oinai 0.1250000
Nice .oinai 0.2500000
their .oinai 0.1250000
I .oinai 0.1250000
with .oinai 0.1250000
pleased .oinai 0.1250000
Mammal mabru 0.2000000
mammals mabru 0.4000000
a mabru 0.2000000
mammal mabru 0.2000000
furiously fengu 0.0270270
is fengu 0.0270270
with fengu 0.0540541
he fengu 0.0540541
angry fengu 0.6486486
&apos;m fengu 0.0270270
because fengu 0.0270270
mad fengu 0.1081081
got fengu 0.0270270
string cinlysko 0.5000000
The cinlysko 0.5000000
the gy 0.1000000
then gy 0.0500000
Facebook gy 0.1000000
dj gy 0.0500000
, gy 0.0500000
ssh gy 0.2000000
dog gy 0.1500000
NULL gy 0.0500000
headset gy 0.1000000
VNC gy 0.0500000
with gy 0.1000000
interest cinri 0.0800000
it cinri 0.0600000
This cinri 0.0200000
From cinri 0.0200000
question cinri 0.0200000
of cinri 0.0200000
am cinri 0.0400000
most cinri 0.0200000
fascinated cinri 0.0200000
cares cinri 0.0200000
interested cinri 0.1200000
in cinri 0.1400000
The cinri 0.0200000
interesting cinri 0.2400000
&apos;m cinri 0.0400000
That cinri 0.0200000
no cinri 0.0200000
phenomenon cinri 0.0200000
by cinri 0.0200000
NULL cinri 0.0200000
interests cinri 0.0200000
loving sampre 1.0000000
sound snanilsutra 0.3333333
of snanilsutra 0.3333333
Speed snanilsutra 0.3333333
NULL sidju 0.0555556
&apos;ll sidju 0.0222222
helped sidju 0.1000000
financially sidju 0.0111111
helps sidju 0.0222222
you sidju 0.0111111
administrator sidju 0.0222222
me sidju 0.0222222
help sidju 0.6333333
helping sidju 0.0222222
helpful sidju 0.0111111
Help sidju 0.0333333
favor sidju 0.0111111
assistant sidju 0.0222222
velocity muvysutra 1.0000000
will nonprali 0.3333333
labor nonprali 0.3333333
It nonprali 0.3333333
pelmeni pelmeni 0.2500000
&quot; pelmeni 0.5000000
of pelmeni 0.2500000
Genghis tcingis. 1.0000000
painted cintypu'i 0.5714286
paint cintypu'i 0.1428571
at cintypu'i 0.1428571
paints cintypu'i 0.1428571
the cmacmana 0.3333333
hill cmacmana 0.3333333
on cmacmana 0.3333333
Mr la.umemuran. 0.3333333
teaches la.umemuran. 0.3333333
Umemura la.umemuran. 0.3333333
coelacanth gombesa 0.3333333
inhabits gombesa 0.3333333
Latimeria gombesa 0.3333333
pass ly. 0.2000000
it ly. 0.2000000
on ly. 0.2000000
to ly. 0.2000000
NULL ly. 0.2000000
pork xajrectu 1.0000000
NULL punji 0.1000000
posted punji 0.0500000
it punji 0.0500000
to punji 0.0500000
put punji 0.5500000
chalk punji 0.0500000
Put punji 0.1500000
! nanbrxuafla 0.5000000
waffle nanbrxuafla 0.5000000
had berger 0.5000000
Berger berger 0.5000000
film selmikce 0.1666667
Patient selmikce 0.1666667
) selmikce 0.1666667
patient selmikce 0.1666667
( selmikce 0.1666667
a selmikce 0.1666667
anatomy xadyske 0.5000000
Human xadyske 0.5000000
a farlygau 0.5000000
vase farlygau 0.5000000
ourselves pukfri 0.3333333
enjoyed pukfri 0.6666667
Araucanía .araukanias. 1.0000000
came cavi 0.5000000
here cavi 0.5000000
it so 0.0714286
was so 0.0714286
nine so 0.3571429
9 so 0.1428571
o so 0.1428571
3.14159 so 0.0714286
&apos;clock so 0.1428571
suggestion da 0.0014144
There da 0.0509194
searching da 0.0014144
those da 0.0014144
reason da 0.0014144
Nobody da 0.0155587
idea da 0.0028289
something da 0.0297030
different da 0.0014144
to da 0.0014144
once da 0.0014144
implement da 0.0014144
giving da 0.0014144
satisfied da 0.0014144
happens da 0.0028289
free da 0.0014144
Someday da 0.0028289
shades da 0.0014144
scared da 0.0014144
shoes da 0.0014144
lot da 0.0028289
hail da 0.0028289
lucid da 0.0028289
Here da 0.0014144
brothers da 0.0014144
Everything da 0.0113154
shook da 0.0014144
children da 0.0028289
a da 0.0155587
daughters da 0.0042433
farewell da 0.0014144
Everybody da 0.0070721
cause da 0.0014144
hundreds da 0.0014144
way da 0.0014144
know da 0.0014144
Whoever da 0.0014144
any da 0.0084866
Nothing da 0.0042433
rooms da 0.0014144
wasting da 0.0028289
anything da 0.0396040
purpose da 0.0014144
needy da 0.0014144
debt da 0.0014144
X da 0.0056577
It da 0.0070721
many da 0.0056577
so da 0.0014144
place da 0.0014144
tired da 0.0014144
unemployed da 0.0014144
Somebody da 0.0113154
point da 0.0014144
it da 0.0127298
wist da 0.0014144
have da 0.0198020
lies da 0.0014144
God da 0.0014144
no da 0.0127298
are da 0.0014144
survivors da 0.0014144
vanities da 0.0014144
job da 0.0028289
tell da 0.0099010
useless da 0.0014144
kids da 0.0014144
regret da 0.0014144
Everyone da 0.0169731
enemies da 0.0028289
anybody da 0.0198020
limits da 0.0014144
objective da 0.0014144
married da 0.0014144
controls da 0.0014144
hoped da 0.0028289
NULL da 0.1103253
oneself da 0.0028289
upon da 0.0014144
siblings da 0.0014144
survived da 0.0014144
love da 0.0014144
nothing da 0.0113154
swords da 0.0014144
&apos;s da 0.0325318
legs da 0.0056577
About da 0.0014144
cares da 0.0014144
passing da 0.0028289
ears da 0.0028289
... da 0.0099010
someone da 0.0169731
needed da 0.0014144
anyone da 0.0155587
golf da 0.0014144
dressed da 0.0014144
friends da 0.0028289
all da 0.0014144
All da 0.0028289
. da 0.1697313
anywhere da 0.0014144
aware da 0.0014144
things da 0.0155587
X. da 0.0014144
there da 0.0113154
sons da 0.0028289
level da 0.0014144
Something da 0.0014144
sing da 0.0042433
sure da 0.0014144
Men da 0.0014144
stick da 0.0014144
unmarried da 0.0014144
benefits da 0.0014144
fond da 0.0014144
vacancies da 0.0014144
is da 0.0141443
everything da 0.0198020
opinion da 0.0014144
driven da 0.0014144
one da 0.0268741
unhappy da 0.0042433
what da 0.0070721
got da 0.0014144
much da 0.0042433
visitors da 0.0014144
except da 0.0014144
nearby da 0.0014144
terrorists da 0.0028289
blowing da 0.0014144
everyone da 0.0099010
architect da 0.0014144
more da 0.0014144
enter da 0.0014144
family da 0.0014144
expressed da 0.0014144
day da 0.0028289
somebody da 0.0014144
Someone da 0.0056577
lose da 0.0014144
villains da 0.0028289
Lojbanistan da 0.0014144
someday da 0.0014144
diligent da 0.0028289
some da 0.0014144
decision da 0.0014144
Then da 0.0014144
believing da 0.0028289
future da 0.0014144
languages da 0.0070721
questions da 0.0014144
Other da 0.0014144
Germany .doitcland. 1.0000000
, za'i 0.0294118
If za'i 0.0588235
Scatland za'i 0.0294118
poet za'i 0.0294118
because za'i 0.0294118
with za'i 0.0294118
that za'i 0.0294118
but za'i 0.0294118
matter za'i 0.0294118
to za'i 0.0882353
read za'i 0.0294118
Death za'i 0.0294118
health za'i 0.0882353
reason za'i 0.0294118
NULL za'i 0.4411765
Pleasant di'ai 0.0178571
Halloween di'ai 0.0178571
weekend di'ai 0.0357143
Good di'ai 0.1071429
Goodnight di'ai 0.0178571
New di'ai 0.0535714
luck di'ai 0.0714286
voyage di'ai 0.0178571
Year di'ai 0.0535714
Happy di'ai 0.0535714
wish di'ai 0.0357143
Bon di'ai 0.0178571
same di'ai 0.0178571
! di'ai 0.2500000
to di'ai 0.0178571
A di'ai 0.0178571
the di'ai 0.0178571
good di'ai 0.0178571
Christmas di'ai 0.0178571
&quot; di'ai 0.0714286
I di'ai 0.0357143
. di'ai 0.0357143
Titicaca titikakas. 0.5000000
Lake titikakas. 0.5000000
village zi'o 0.0625000
holy zi'o 0.0625000
sheds zi'o 0.0625000
Nothing zi'o 0.0625000
prepare zi'o 0.0625000
for zi'o 0.0625000
no zi'o 0.0625000
visit zi'o 0.0625000
is zi'o 0.0625000
sad zi'o 0.1250000
cells zi'o 0.0625000
Cuba zi'o 0.1250000
Visits zi'o 0.0625000
reason zi'o 0.0625000
Petersburg peterburg 0.5000000
Saint peterburg 0.5000000
volcanoes vulkano 0.5000000
many vulkano 0.5000000
Mrs. .nin.smit. 0.3333333
Smith .nin.smit. 0.3333333
cleans .nin.smit. 0.3333333
! vukrygugde 0.3333333
save vukrygugde 0.3333333
Ukraine vukrygugde 0.3333333
ladies gugyfrica 0.5000000
foreign gugyfrica 0.5000000
away litru 0.0588235
NULL litru 0.0294118
traveled litru 0.0294118
trip litru 0.0882353
a litru 0.0588235
travellers litru 0.0294118
travel litru 0.2352941
was litru 0.0294118
knowledgeable litru 0.0294118
baggage litru 0.0294118
trips litru 0.0294118
traveling litru 0.0882353
brief litru 0.0294118
traveler litru 0.0294118
The litru 0.0294118
on litru 0.0588235
journey litru 0.0294118
Traveling litru 0.0294118
travels litru 0.0294118
voyage litru 0.0294118
Indonesia bidgu'e 1.0000000
NULL 01 0.3333333
Unicode 01 0.3333333
to 01 0.3333333
pounds rezeno 1.0000000
be la.tatoebas. 0.0833333
should la.tatoebas. 0.0833333
deleted la.tatoebas. 0.0833333
add la.tatoebas. 0.0833333
Tatoeba la.tatoebas. 0.5833333
from la.tatoebas. 0.0833333
The randa 0.1428571
British randa 0.1428571
forced randa 0.1428571
commander randa 0.1428571
was randa 0.1428571
to randa 0.1428571
surrender randa 0.1428571
I ba'anai 0.2222222
recall ba'anai 0.1111111
yeah ba'anai 0.1111111
now ba'anai 0.1111111
, ba'anai 0.2222222
remember ba'anai 0.1111111
Oh ba'anai 0.1111111
were selja'o 0.1666667
exhibition selja'o 0.1666667
on selja'o 0.3333333
sold selja'o 0.1666667
pictures selja'o 0.1666667
increases memkai 1.0000000
mountains faxixo'e 1.0000000
nuclear ratyjbama 0.2000000
hit ratyjbama 0.2000000
been ratyjbama 0.2000000
by ratyjbama 0.2000000
bombs ratyjbama 0.2000000
all plana 0.1111111
fat plana 0.6666667
be plana 0.1111111
&apos;m plana 0.1111111
repairman prenu 0.0096154
crazy prenu 0.0096154
man prenu 0.0432692
persons prenu 0.0048077
taller prenu 0.0048077
met prenu 0.0048077
Lawyers prenu 0.0096154
men prenu 0.0048077
people prenu 0.2788462
dolls prenu 0.0048077
Everyone prenu 0.0384615
person prenu 0.2067308
beings prenu 0.0048077
distinct prenu 0.0048077
singer prenu 0.0096154
. prenu 0.0096154
loudly prenu 0.0048077
Someone prenu 0.0096154
mortal prenu 0.0048077
anyone prenu 0.0240385
that prenu 0.0048077
jealous prenu 0.0048077
are prenu 0.0048077
European prenu 0.0048077
a prenu 0.0144231
personalities prenu 0.0048077
pianist prenu 0.0048077
speaks prenu 0.0048077
&apos;re prenu 0.0048077
passengers prenu 0.0048077
around prenu 0.0048077
am prenu 0.0096154
doctor prenu 0.0096154
everyone prenu 0.0096154
Man prenu 0.0048077
swimmers prenu 0.0048077
giggled prenu 0.0048077
one prenu 0.0384615
immediately prenu 0.0048077
alive prenu 0.0048077
eat prenu 0.0048077
is prenu 0.0048077
herself prenu 0.0192308
driver prenu 0.0048077
People prenu 0.0288462
nobody prenu 0.0144231
NULL prenu 0.0769231
133 ki'otre 1.0000000
women gugdrpolska 0.3333333
Polish gugdrpolska 0.3333333
at gugdrpolska 0.3333333
You .uinaidai 1.0000000
filled culnygau 0.5000000
the culnygau 0.5000000
liberty rusko 0.1428571
Russians rusko 0.1428571
for rusko 0.1428571
in rusko 0.1428571
Russian rusko 0.4285714
cool banli 0.0545455
Great banli 0.0545455
Terrific banli 0.0181818
This banli 0.0181818
formidable banli 0.0363636
extraordinary banli 0.0181818
am banli 0.0181818
is banli 0.0363636
spectacular banli 0.0181818
! banli 0.0363636
awesome banli 0.0727273
Christian banli 0.0181818
a banli 0.0363636
NULL banli 0.0181818
wonderful banli 0.0545455
&apos;s banli 0.0363636
academies banli 0.0181818
&apos;m banli 0.0181818
great banli 0.4181818
Jane mi'u 0.1666667
to mi'u 0.1666667
very mi'u 0.1666667
thing mi'u 0.1666667
same mi'u 0.1666667
the mi'u 0.1666667
Whose ralte 0.0246914
had ralte 0.0308642
books ralte 0.0185185
Tell ralte 0.0061728
have ralte 0.3086420
belong ralte 0.0061728
yours ralte 0.0061728
belongs ralte 0.0123457
beauties ralte 0.0061728
new ralte 0.0123457
gun ralte 0.0061728
bicycle ralte 0.0061728
has ralte 0.1419753
got ralte 0.0061728
owns ralte 0.0061728
own ralte 0.0308642
a ralte 0.2777778
He ralte 0.0061728
NULL ralte 0.0246914
mine ralte 0.0123457
car ralte 0.0061728
getting ralte 0.0061728
That ralte 0.0061728
keeps ralte 0.0061728
hers ralte 0.0061728
keep ralte 0.0123457
is ralte 0.0061728
candy titspi 0.6000000
tastes titspi 0.2000000
used titspi 0.2000000
is .iamada. 0.3333333
name .iamada. 0.3333333
Yamada .iamada. 0.3333333
Laurie gy.Laurie.gy. 1.0000000
Salvador salvador.dalis. 0.2000000
Dalí salvador.dalis. 0.2000000
languages salvador.dalis. 0.2000000
of salvador.dalis. 0.2000000
the salvador.dalis. 0.2000000
quarrel simda'a 1.0000000
Ukraine vurgu'e 1.0000000
starts cfari 0.0714286
vegetables cfari 0.0357143
already cfari 0.0357143
freshness cfari 0.0357143
has cfari 0.0357143
classes cfari 0.0357143
Year cfari 0.0357143
now cfari 0.0714286
after cfari 0.0357143
started cfari 0.0357143
NULL cfari 0.0714286
start cfari 0.4285714
young cfari 0.0357143
begin cfari 0.0357143
to ctino 0.2500000
people ctino 0.2500000
Young ctino 0.2500000
tend ctino 0.2500000
He plipe 0.0370370
joy plipe 0.0370370
high plipe 0.0740741
NULL plipe 0.0740741
jump plipe 0.0740741
( plipe 0.0740741
handspring plipe 0.0370370
jumping plipe 0.1111111
jumped plipe 0.1481481
of plipe 0.0740741
jumps plipe 0.1851852
out plipe 0.0740741
always merli 1.0000000
Physics termu'eske 0.7500000
Prize termu'eske 0.2500000
a zukAm. 1.0000000
NULL bino 0.1666667
than bino 0.1666667
cents bino 0.1666667
eighty bino 0.3333333
years bino 0.1666667
poet terpemci 1.0000000
Iraq raksygu'e 1.0000000
have genja 0.1428571
roots genja 0.1428571
root genja 0.1428571
that genja 0.1428571
, genja 0.1428571
Beetroot genja 0.1428571
borsch genja 0.1428571
it mulgau 0.0833333
finish mulgau 0.3333333
have mulgau 0.0833333
job mulgau 0.0833333
the mulgau 0.0833333
homework mulgau 0.0833333
bring mulgau 0.0833333
done mulgau 0.0833333
make mulgau 0.0833333
It .a'unaicai 0.2500000
that .a'unaicai 0.2500000
unthinkable .a'unaicai 0.2500000
&apos;s .a'unaicai 0.2500000
favorite zmanei 0.1111111
like zmanei 0.1111111
color zmanei 0.1111111
&apos;d zmanei 0.1111111
prefer zmanei 0.5555556
is ckuzda 0.1250000
allowed ckuzda 0.1250000
library ckuzda 0.5000000
not ckuzda 0.1250000
copy ckuzda 0.1250000
Soon dakau 1.0000000
if va'ei 1.0000000
heating glagau 0.5000000
&apos;s glagau 0.5000000
carrots ka'orta 1.0000000
and merbau 0.3333333
American merbau 0.3333333
British merbau 0.3333333
different datsi'u 0.5000000
are datsi'u 0.5000000
integer nonzau 0.5000000
greatest nonzau 0.5000000
some jukpa 0.0789474
cooked jukpa 0.0263158
can jukpa 0.0263158
cooks jukpa 0.0526316
cook jukpa 0.2368421
cooking jukpa 0.0263158
baking jukpa 0.0263158
make jukpa 0.1315789
bake jukpa 0.0526316
NULL jukpa 0.1315789
hobby jukpa 0.0263158
baked jukpa 0.0526316
made jukpa 0.0526316
snails jukpa 0.0263158
how jukpa 0.0263158
She jukpa 0.0263158
to nalki'asku 0.3333333
shout nalki'asku 0.3333333
not nalki'asku 0.3333333
3031 cipa 0.3333333
&quot; cipa 0.6666667
Asia zdotu'a 1.0000000
going ro'i 0.0588235
care ro'i 0.0588235
&apos;m ro'i 0.0588235
am ro'i 0.0588235
think ro'i 0.0588235
do ro'i 0.0588235
I ro'i 0.1764706
have ro'i 0.0588235
so ro'i 0.0588235
that ro'i 0.0588235
lonely ro'i 0.0588235
an ro'i 0.0588235
to ro'i 0.0588235
opinion ro'i 0.0588235
interested ro'i 0.0588235
Ecuador ekuador 1.0000000
went la.ken. 0.1666667
Ken la.ken. 0.3333333
, la.ken. 0.1666667
faster la.ken. 0.1666667
or la.ken. 0.1666667
object dacti 0.2727273
that dacti 0.0909091
using dacti 0.0909091
thing dacti 0.0909091
real dacti 0.1818182
a dacti 0.2727273
want kaidji 1.0000000
off fe'eca'o 0.1428571
trails fe'eca'o 0.1428571
this fe'eca'o 0.1428571
at fe'eca'o 0.1428571
out fe'eca'o 0.1428571
some fe'eca'o 0.1428571
that fe'eca'o 0.1428571
are cipnrxigli 0.2500000
flying cipnrxigli 0.2500000
There cipnrxigli 0.2500000
birds cipnrxigli 0.2500000
weighs bunda 0.5000000
270 bunda 0.5000000
dogs gerku 0.1448276
dog gerku 0.7448276
Dogs gerku 0.0068966
chest gerku 0.0068966
of gerku 0.0137931
&apos;m gerku 0.0068966
poor gerku 0.0068966
Dog gerku 0.0068966
that gerku 0.0206897
doggie gerku 0.0068966
kind gerku 0.0068966
a gerku 0.0206897
NULL gerku 0.0068966
isn zilmipri 0.2500000
secret zilmipri 0.2500000
It zilmipri 0.2500000
a zilmipri 0.2500000
Soccer fudbolo 0.2500000
football fudbolo 0.0833333
soccer fudbolo 0.6666667
net julne 0.2500000
being julne 0.1250000
size julne 0.1250000
of julne 0.2500000
each julne 0.1250000
heap julne 0.1250000
down velve'u 0.5000000
expenses velve'u 0.5000000
this kargu 0.0344828
NULL kargu 0.0344828
is kargu 0.0689655
! kargu 0.1034483
how kargu 0.0344828
It kargu 0.0689655
&apos;s kargu 0.0689655
expensive kargu 0.5862069
Astatine klirlxastati 1.0000000
well-being kamka'o 0.2500000
health kamka'o 0.5000000
NULL kamka'o 0.2500000
to madonas 0.1666667
able madonas 0.1666667
is madonas 0.3333333
Madonna madonas 0.3333333
to xecu'u 0.2500000
hesitate xecu'u 0.2500000
&apos;t xecu'u 0.2500000
don xecu'u 0.2500000
insincere tolstace 1.0000000
German .doitc. 1.0000000
Ben ben 1.0000000
toothbrush denburcu 1.0000000
have nabypalne 0.2000000
some nabypalne 0.2000000
Please nabypalne 0.2000000
pie nabypalne 0.4000000
repaired xagri 0.1666667
to xagri 0.1666667
get xagri 0.1666667
my xagri 0.1666667
need xagri 0.1666667
oboe xagri 0.1666667
cold tcelenku 0.2500000
really tcelenku 0.2500000
It tcelenku 0.2500000
&apos;s tcelenku 0.2500000
excited fizbu 1.0000000
the lu'i 0.2000000
of lu'i 0.2000000
set lu'i 0.2000000
runs lu'i 0.2000000
distinct lu'i 0.2000000
the fe'a 0.2000000
100 fe'a 0.2000000
of fe'a 0.2000000
square fe'a 0.2000000
root fe'a 0.2000000
Serbia serbias 1.0000000
% ce'i 0.3333333
percent ce'i 0.3333333
of ce'i 0.3333333
comforting drijdikygau 0.5000000
her drijdikygau 0.5000000
ever nunselnandu 0.2000000
hardest nunselnandu 0.2000000
&apos;ve nunselnandu 0.2000000
done nunselnandu 0.2000000
thing nunselnandu 0.2000000
Phonetics voksnaske 1.0000000
Goodnight co'o 0.0227273
See co'o 0.0909091
you co'o 0.0909091
! co'o 0.2272727
later co'o 0.0454545
Good-bye co'o 0.0227273
Goodbye co'o 0.0681818
Bye co'o 0.0909091
. co'o 0.1590909
now co'o 0.0454545
, co'o 0.0227273
goodbye co'o 0.0681818
bye co'o 0.0227273
again co'o 0.0227273
encircled jinsru 0.5000000
with jinsru 0.5000000
impossible tolcu'i 0.2500000
This tolcu'i 0.2500000
is tolcu'i 0.2500000
! tolcu'i 0.2500000
! la.linuks. 0.5000000
Linux la.linuks. 0.5000000
get zdilisri 0.5000000
joke zdilisri 0.5000000
&apos;m toi'e 0.2222222
unhappy toi'e 0.1111111
I toi'e 0.1111111
serious toi'e 0.1111111
, toi'e 0.1111111
kidding toi'e 0.1111111
OK toi'e 0.1111111
! toi'e 0.1111111
old dzena 0.5000000
of dzena 0.5000000
Body ketlete 0.3333333
index ketlete 0.3333333
mass ketlete 0.3333333
There nanla 0.0149254
a nanla 0.0149254
boy nanla 0.8059701
NULL nanla 0.0149254
was nanla 0.0149254
there nanla 0.0149254
boys nanla 0.1194030
Flour grupu'o 1.0000000
on papri 0.1111111
paper papri 0.3333333
burns papri 0.1111111
consisting papri 0.1111111
mistakes papri 0.1111111
Paper papri 0.1111111
NULL papri 0.1111111
Economics dinske 1.0000000
Saint mataios 0.5000000
Matthew mataios 0.5000000
a jarki 0.2500000
narrow jarki 0.2500000
path jarki 0.2500000
along jarki 0.2500000
garbage festi 0.3333333
pile festi 0.3333333
The festi 0.3333333
sushi .i'e 0.0833333
excellent .i'e 0.0833333
did .i'e 0.0833333
NULL .i'e 0.0833333
Very .i'e 0.0833333
Speaking .i'e 0.0833333
an .i'e 0.0833333
! .i'e 0.0833333
job .i'e 0.0833333
Hm .i'e 0.0833333
. .i'e 0.0833333
objectively .i'e 0.0833333
It rejyjveprigau 0.1428571
printed rejyjveprigau 0.1428571
saved rejyjveprigau 0.1428571
! rejyjveprigau 0.1428571
&apos;s rejyjveprigau 0.1428571
and rejyjveprigau 0.1428571
been rejyjveprigau 0.1428571
Pedagogy ctuske 1.0000000
The gy.The 0.5000000
Age gy.The 0.5000000
Japanese ponpre 1.0000000
waited ze'u 0.0588235
long ze'u 0.2352941
, ze'u 0.0294118
have ze'u 0.0294118
permanent ze'u 0.0294118
for ze'u 0.0882353
time ze'u 0.1764706
no ze'u 0.0294118
Long ze'u 0.0294118
How ze'u 0.0294118
spent ze'u 0.0294118
a ze'u 0.1176471
NULL ze'u 0.0882353
until ze'u 0.0294118
kimbap kimbab. 1.0000000
Clausewitz klausevits 1.0000000
to narzutse 0.1666667
from narzutse 0.1666667
rose narzutse 0.1666667
his narzutse 0.1666667
welcome narzutse 0.1666667
chair narzutse 0.1666667
NULL tirxu 0.0769231
Tiger tirxu 0.1923077
Police tirxu 0.0384615
tiger tirxu 0.2692308
! tirxu 0.2307692
has tirxu 0.0384615
Help tirxu 0.0769231
tigers tirxu 0.0384615
friendly tirxu 0.0384615
&apos;m pikci 0.2000000
begged pikci 0.2000000
begging pikci 0.2000000
make pikci 0.2000000
beg pikci 0.2000000
Elizabeth la.yLIzabet. 0.5000000
his la.yLIzabet. 0.5000000
doubt senpi 0.4000000
it senpi 0.2000000
if senpi 0.1333333
that senpi 0.0666667
NULL senpi 0.2000000
a larfi'i 0.2000000
good larfi'i 0.2000000
artist larfi'i 0.2000000
are larfi'i 0.2000000
very larfi'i 0.2000000
zoo vo'a 0.0111111
Dad vo'a 0.0111111
busies vo'a 0.0111111
his vo'a 0.1555556
bag vo'a 0.0111111
invitation vo'a 0.0111111
breast-pocket vo'a 0.0111111
her vo'a 0.0888889
thinks vo'a 0.0111111
themselves vo'a 0.0111111
Elizabeth vo'a 0.0111111
nose vo'a 0.0222222
herself vo'a 0.0444444
itself vo'a 0.0555556
Mike vo'a 0.0111111
craft vo'a 0.0111111
he vo'a 0.0555556
NULL vo'a 0.1888889
tooth vo'a 0.0111111
him vo'a 0.0222222
their vo'a 0.0444444
cannibal vo'a 0.0111111
earth vo'a 0.0111111
home vo'a 0.0222222
spoken vo'a 0.0111111
nipples vo'a 0.0111111
toy vo'a 0.0111111
myself vo'a 0.0222222
astronaut vo'a 0.0111111
feeds vo'a 0.0111111
brother vo'a 0.0222222
hates vo'a 0.0111111
hid vo'a 0.0111111
ears vo'a 0.0111111
yawning vo'a 0.0111111
applying va'a 1.0000000
These tabybi'o 0.5000000
charred tabybi'o 0.5000000
&apos;s naljundi 0.3333333
promiscuous naljundi 0.3333333
sexually naljundi 0.3333333
My nakpa'i 0.5000000
boyfriend nakpa'i 0.5000000
is lusis. 0.5000000
Lucy lusis. 0.5000000
. sipta'i 0.3333333
sleepy sipta'i 0.3333333
&apos;re sipta'i 0.3333333
coins rijno 0.1250000
silver rijno 0.6250000
a rijno 0.1250000
Silver rijno 0.1250000
the livga 0.2500000
Alcohol livga 0.2500000
liver livga 0.2500000
damages livga 0.2500000
Latin la'ortu'a 0.5000000
America la'ortu'a 0.5000000
do .e'ese'a 0.1666667
myself .e'ese'a 0.1666667
I .e'ese'a 0.1666667
will .e'ese'a 0.1666667
it .e'ese'a 0.1666667
. .e'ese'a 0.1666667
soup stasu 0.5000000
broth stasu 0.0833333
bean stasu 0.0833333
your stasu 0.0833333
while stasu 0.0833333
spoonful stasu 0.0833333
borsch stasu 0.0833333
a va'ucmo 0.1428571
until va'ucmo 0.1428571
sigh va'ucmo 0.1428571
finished va'ucmo 0.1428571
he va'ucmo 0.1428571
it va'ucmo 0.1428571
with va'ucmo 0.1428571
Uruguay uruguais 1.0000000
much ausai 0.2000000
very ausai 0.2000000
to ausai 0.2000000
I ausai 0.2000000
want ausai 0.2000000
was pindi 0.0769231
rather pindi 0.0769231
than pindi 0.0769231
live pindi 0.0769231
poor pindi 0.2307692
&apos;m pindi 0.0384615
wealth pindi 0.0769231
poverty pindi 0.0769231
is pindi 0.0384615
in pindi 0.1538462
peaceful pindi 0.0769231
Calcium bogjinme 1.0000000
There feprykenra 0.5000000
lung feprykenra 0.5000000
( gaja 1.0000000
you mu'opei 0.2500000
? mu'opei 0.2500000
Have mu'opei 0.2500000
finished mu'opei 0.2500000
around la.siskos. 0.3333333
Sysko la.siskos. 0.3333333
hangs la.siskos. 0.3333333
2 2 0.3333333
30 2 0.3333333
: 2 0.3333333
a nivji 0.3333333
knitting nivji 0.3333333
is nivji 0.3333333
of .tato,ebas. 0.2500000
version .tato,ebas. 0.2500000
Tatoeba .tato,ebas. 0.5000000
2008 li 0.0031056
virtually li 0.0031056
seven li 0.0248447
fifty li 0.0031056
height li 0.0031056
generation li 0.0031056
letters li 0.0031056
Three li 0.0031056
tonight li 0.0031056
π li 0.0031056
hour li 0.0124224
day li 0.0062112
circumference li 0.0062112
enterprise li 0.0031056
bag li 0.0031056
months li 0.0155280
25 li 0.0062112
538 li 0.0031056
kilometers li 0.0031056
third li 0.0062112
age li 0.0062112
June li 0.0062112
days li 0.0124224
Count li 0.0031056
4 li 0.0062112
million li 0.0031056
-3 li 0.0031056
Six li 0.0031056
cherish li 0.0031056
It li 0.0186335
weighs li 0.0062112
o li 0.0217391
the li 0.0031056
20 li 0.0062112
seventeen li 0.0031056
seconds li 0.0031056
Five li 0.0031056
Up li 0.0031056
weeks li 0.0186335
blew li 0.0031056
is li 0.0217391
Two li 0.0124224
minute li 0.0062112
square li 0.0031056
dollars li 0.0062112
1982 li 0.0031056
degrees li 0.0062112
2011 li 0.0031056
e li 0.0062112
bit li 0.0031056
first li 0.0031056
tomorrow li 0.0062112
yen li 0.0031056
week li 0.0031056
how li 0.0031056
net li 0.0031056
enough li 0.0062112
2539 li 0.0031056
. li 0.0838509
twelve li 0.0062112
product li 0.0062112
5 li 0.0062112
F li 0.0031056
earn li 0.0062112
p.m. li 0.0031056
1742 li 0.0031056
warm li 0.0031056
ago li 0.0093168
sake li 0.0031056
year li 0.0031056
eighty li 0.0031056
10 li 0.0062112
One li 0.0093168
forty li 0.0031056
kilo li 0.0031056
years li 0.0807453
eight li 0.0093168
miles li 0.0031056
The li 0.0062112
13 li 0.0062112
hours li 0.0279503
1 li 0.0093168
length li 0.0031056
minutes li 0.0341615
paprika li 0.0031056
eight-thirty li 0.0093168
unspecified li 0.0031056
times li 0.0093168
2 li 0.0341615
five li 0.0031056
price li 0.0062112
NULL li 0.0776398
euros li 0.0031056
25th li 0.0031056
pound li 0.0031056
1977 li 0.0031056
meters li 0.0124224
1.4 li 0.0031056
googol li 0.0093168
attended li 0.0031056
four li 0.0093168
equal li 0.0093168
probability li 0.0062112
3031 li 0.0062112
2003 li 0.0031056
14 li 0.0124224
Devonshire li 0.0031056
bet li 0.0031056
mile li 0.0031056
0.001 li 0.0031056
8 li 0.0062112
six li 0.0062112
equals li 0.0186335
1010 li 0.0031056
megabytes li 0.0031056
17 li 0.0031056
$ li 0.0093168
nine li 0.0031056
00 li 0.0031056
NULL jbini 0.3333333
pauses jbini 0.1666667
with jbini 0.1666667
between jbini 0.1666667
among jbini 0.1666667
the selku'e 0.5000000
gap selku'e 0.5000000
mouse smacyrectu 0.2500000
meat smacyrectu 0.2500000
) smacyrectu 0.2500000
( smacyrectu 0.2500000
is flani 0.2500000
flute flani 0.2500000
that flani 0.2500000
of flani 0.2500000
remain cmecau 0.3333333
in cmecau 0.3333333
anonymous cmecau 0.3333333
he moltenva'u 0.2000000
was moltenva'u 0.2000000
, moltenva'u 0.2000000
yawning moltenva'u 0.2000000
him moltenva'u 0.2000000
expression ma'u 1.0000000
see visysanji 0.5000000
can visysanji 0.5000000
clothing taxfu 0.0625000
dress taxfu 0.0625000
badly taxfu 0.0625000
in taxfu 0.0625000
NULL taxfu 0.1875000
out taxfu 0.0625000
clothes taxfu 0.2500000
had taxfu 0.0625000
well taxfu 0.0625000
business taxfu 0.0625000
really taxfu 0.0625000
out denci 0.1428571
Baby denci 0.1428571
teeth denci 0.4285714
tooth denci 0.1428571
taken denci 0.1428571
year bavlamna'a 1.0000000
Estonia estis 1.0000000
There sakta 0.0555556
no sakta 0.0555556
Sugar sakta 0.2222222
sugar sakta 0.6111111
is sakta 0.0555556
Mozart vulfygan.amade,us.motsart 0.3333333
Wolfgang vulfygan.amade,us.motsart 0.3333333
Amadeus vulfygan.amade,us.motsart 0.3333333
&apos;s xance 0.0370370
hand xance 0.3703704
yet xance 0.0370370
handspring xance 0.0370370
handwriting xance 0.0740741
your xance 0.0370370
hands xance 0.3333333
mobile xance 0.0370370
handed xance 0.0370370
a lingua 1.0000000
exactly muki'o 0.5000000
5,000 muki'o 0.5000000
weird .i'unai 0.2500000
. .i'unai 0.2500000
This .i'unai 0.2500000
is .i'unai 0.2500000
medication my 0.1250000
cat my 0.2500000
&apos;s my 0.1250000
tells my 0.1250000
The my 0.2500000
NULL my 0.1250000
will bansuve'a 0.0833333
, bansuve'a 0.1666667
translation bansuve'a 0.1666667
then bansuve'a 0.0833333
provide bansuve'a 0.0833333
indirectly bansuve'a 0.0833333
in bansuve'a 0.0833333
this bansuve'a 0.0833333
Swahili bansuve'a 0.1666667
preserve jaigau 0.1666667
beauties jaigau 0.1666667
should jaigau 0.1666667
the jaigau 0.3333333
of jaigau 0.1666667
with zifsnada 0.2000000
it zifsnada 0.2000000
got zifsnada 0.2000000
away zifsnada 0.2000000
nearly zifsnada 0.2000000
natural kacna'u 0.1111111
is kacna'u 0.1111111
Prime kacna'u 0.1111111
a kacna'u 0.1111111
25 kacna'u 0.1111111
Natural kacna'u 0.1111111
number kacna'u 0.3333333
necklace cnebo 1.0000000
desk .xanakos. 0.2500000
Hanako .xanakos. 0.2500000
&apos;s .xanakos. 0.2500000
is .xanakos. 0.2500000
Forks forca 0.3333333
Three forca 0.3333333
fork forca 0.3333333
long temci 0.1578947
Time temci 0.1052632
spare temci 0.0526316
time temci 0.4210526
of temci 0.1052632
How temci 0.0526316
amount temci 0.0526316
NULL temci 0.0526316
crowd remgunma 1.0000000
will ma'ekla 0.2500000
drive ma'ekla 0.2500000
driving ma'ekla 0.2500000
&apos;m ma'ekla 0.2500000
America bemtu'a 0.5000000
North bemtu'a 0.5000000
Czech gubyseltru 0.2500000
a gubyseltru 0.2500000
Republic gubyseltru 0.2500000
republic gubyseltru 0.2500000
Samarium jinmrsamari 1.0000000
soluble runta 0.2500000
dissolves runta 0.2500000
in runta 0.5000000
Chromium rogjinme 1.0000000
player MP3 0.5000000
an MP3 0.5000000
lot zdizma 0.0434783
more zdizma 0.2173913
NULL zdizma 0.0434783
fun zdizma 0.2173913
&apos;s zdizma 0.1304348
This zdizma 0.0434783
than zdizma 0.1739130
It zdizma 0.1304348
during pe'ipei 0.1428571
you pe'ipei 0.1428571
we pe'ipei 0.1428571
gonna pe'ipei 0.1428571
think pe'ipei 0.1428571
do pe'ipei 0.2857143
be narju 0.2000000
orange narju 0.4000000
to narju 0.2000000
my narju 0.2000000
He jajgau 0.2500000
T-shirts jajgau 0.2500000
bits jajgau 0.2500000
collected jajgau 0.2500000
Laurie Laurie 1.0000000
do setmima 0.1538462
not setmima 0.1538462
sets setmima 0.1538462
set setmima 0.0769231
contain setmima 0.3076923
themselves setmima 0.1538462
Catholic la'orxi'o 0.2000000
&apos;s la'orxi'o 0.2000000
She la'orxi'o 0.1000000
a la'orxi'o 0.2000000
devout la'orxi'o 0.2000000
He la'orxi'o 0.1000000
time gugde'itu 0.5000000
first gugde'itu 0.5000000
Coke gy.Coke.gy. 1.0000000
about xanla 0.3333333
worried xanla 0.3333333
are xanla 0.3333333
businessman cu'upre 0.1666667
businessperson cu'upre 0.2500000
am cu'upre 0.0833333
become cu'upre 0.0833333
a cu'upre 0.4166667
an spranto 0.5000000
official spranto 0.5000000
) cirl,r,bri 0.2500000
cheese cirl,r,bri 0.2500000
brie cirl,r,bri 0.2500000
( cirl,r,bri 0.2500000
enough be'u 0.0416667
. be'u 0.1666667
&apos;s be'u 0.0833333
I be'u 0.0833333
missing be'u 0.0416667
It be'u 0.0416667
here be'u 0.0416667
need be'u 0.1250000
is be'u 0.0416667
! be'u 0.0416667
Something be'u 0.0416667
it be'u 0.0416667
This be'u 0.0416667
washing be'u 0.0416667
not be'u 0.0833333
sate be'u 0.0416667
Wasn je'unaipei 0.5000000
&apos;t je'unaipei 0.5000000
prey aksiptrina 1.0000000
shoulders birjanco 0.1666667
his birjanco 0.1666667
shoulder birjanco 0.1666667
my birjanco 0.1666667
on birjanco 0.3333333
... broda 0.1333333
this broda 0.0666667
P broda 0.2666667
craft broda 0.0666667
is broda 0.0666667
to broda 0.0666667
try broda 0.0666667
do broda 0.1333333
it broda 0.0666667
balloon broda 0.0666667
balloon vartisyboi 0.5000000
a vartisyboi 0.5000000
brought klagau 1.0000000
practicing blutu'u 1.0000000
Mwa uu 0.2500000
! uu 0.2500000
, uu 0.2500000
ha uu 0.2500000
abstinence nunglecau 0.5000000
before nunglecau 0.5000000
18th 17xyxymoi 0.5000000
century 17xyxymoi 0.5000000
Liz .liz. 0.5000000
this .liz. 0.5000000
Cuba la.kubas. 0.5000000
before la.kubas. 0.5000000
, kriceto 1.0000000
Plutonium jinmrplutoni 1.0000000
&quot; basna 0.3333333
&apos;e basna 0.1666667
emphasizes basna 0.1666667
NULL basna 0.1666667
ba basna 0.1666667
Jackson maik,l. 0.5000000
Michael maik,l. 0.5000000
margarine ba'i 0.1428571
rather ba'i 0.1428571
going ba'i 0.1428571
Instead ba'i 0.1428571
NULL ba'i 0.2857143
of ba'i 0.1428571
Jesus .iecuax 0.5000000
Church .iecuax 0.5000000
usage balvi 0.1250000
later balvi 0.1250000
future balvi 0.1250000
will balvi 0.1250000
advance balvi 0.3750000
happen balvi 0.1250000
smoke tankypli 1.0000000
flag lanci 0.5454545
a lanci 0.0909091
, lanci 0.1818182
please lanci 0.1818182
cement ka'irtrusi'o 1.0000000
Radon dircynavni 1.0000000
lived ge'u 0.3333333
NULL ge'u 0.3333333
Elephant ge'u 0.3333333
contrary tolmi'u 0.5000000
, tolmi'u 0.5000000
evil nunpalci 0.3333333
all nunpalci 0.3333333
of nunpalci 0.3333333
shore minli 0.2500000
miles minli 0.2500000
mile minli 0.2500000
a minli 0.2500000
Ruling djine 0.3333333
the djine 0.3333333
Ring djine 0.3333333
baby la.akiran. 0.2500000
their la.akiran. 0.2500000
Akira la.akiran. 0.2500000
named la.akiran. 0.2500000
Neptunes toi 0.1111111
before toi 0.1111111
) toi 0.4444444
film toi 0.1111111
antibiotic toi 0.1111111
Solaris toi 0.1111111
&apos; Lojban?.gy. 0.1428571
? Lojban?.gy. 0.1428571
in Lojban?.gy. 0.2857143
&quot; Lojban?.gy. 0.1428571
Lojban Lojban?.gy. 0.2857143
I a'o 0.2857143
able a'o 0.0714286
comes a'o 0.0714286
resolve a'o 0.0714286
to a'o 0.0714286
hope a'o 0.2857143
that a'o 0.0714286
are a'o 0.0714286
is .farcad. 0.3333333
Farshad .farcad. 0.3333333
name .farcad. 0.3333333
Thorium lidycevjinme 1.0000000
joking xamsku 0.5000000
jokes xamsku 0.5000000
biased la 0.0006090
Terry la 0.0097442
Delphi la 0.0006090
Peter la 0.0012180
Tam la 0.0006090
Hokkaido la 0.0012180
Michelle la 0.0006090
Jesus la 0.0024361
Lulus la 0.0006090
Bob la 0.0054811
Steve la 0.0006090
Data la 0.0006090
Hakata la 0.0006090
Fred la 0.0012180
Doris la 0.0036541
golf la 0.0006090
Okinawa la 0.0006090
Prague la 0.0006090
France la 0.0006090
phase la 0.0006090
Allan la 0.0006090
Camgusmis la 0.0006090
Myra la 0.0006090
Facebook la 0.0006090
Mr. la 0.0006090
Plato la 0.0006090
in la 0.0024361
museum la 0.0006090
Keiko la 0.0006090
Apollo la 0.0006090
Nagoya la 0.0012180
Elephant la 0.0006090
axe la 0.0006090
Eve la 0.0006090
Even la 0.0006090
Newton la 0.0006090
Carl la 0.0012180
Jones la 0.0012180
Zoe la 0.0006090
Emacs la 0.0006090
Judy la 0.0006090
Happy la 0.0006090
Frank la 0.0012180
Her la 0.0006090
hoped la 0.0012180
NULL la 0.0267966
Shinjuku la 0.0006090
official la 0.0006090
Maria la 0.0012180
Was la 0.0012180
km la 0.0012180
Chen la 0.0030451
biscuits la 0.0006090
Loglan la 0.0012180
Evans la 0.0006090
Marcos la 0.0006090
Qatar la 0.0006090
area la 0.0006090
Juan la 0.0006090
Jane la 0.0024361
hoping la 0.0006090
Dalí la 0.0006090
wiki la 0.0006090
Dict la 0.0006090
Paula la 0.0006090
Cookie la 0.0036541
Laura la 0.0012180
Muiriel la 0.0006090
Olympics la 0.0006090
Nancy la 0.0018270
Kay la 0.0024361
Kobe la 0.0006090
Islamabad la 0.0006090
Metafile la 0.0006090
Miss la 0.0006090
Susan la 0.0006090
Chris la 0.0006090
Australia la 0.0006090
even la 0.0006090
pizza la 0.0006090
Giant la 0.0012180
Paris la 0.0060901
flu la 0.0006090
Middle-earth la 0.0006090
Lojban la 0.0194884
squares la 0.0006090
John la 0.0182704
Russian la 0.0012180
Uyghur la 0.0006090
Iceland la 0.0018270
Sauron la 0.0006090
Marcus la 0.0006090
Nicodemus la 0.0006090
Muplis la 0.0006090
Aristotle la 0.0012180
Helga la 0.0006090
Zhang la 0.0006090
approaching la 0.0006090
English la 0.0042631
Thomas la 0.0012180
Al la 0.0012180
Big la 0.0006090
Lincoln la 0.0006090
Mooli la 0.0024361
Nicole la 0.0012180
Clarke la 0.0006090
Descartes la 0.0012180
Kingdom la 0.0006090
Mom la 0.0006090
Shakespeare la 0.0018270
Tony la 0.0030451
Mr la 0.0036541
d la 0.0006090
Madonna la 0.0012180
Lech la 0.0006090
Brest la 0.0006090
Humpty la 0.0012180
blocked la 0.0006090
José la 0.0006090
Golf la 0.0012180
Adèle la 0.0006090
SUV la 0.0006090
Preem la 0.0006090
Lenin la 0.0006090
Common la 0.0006090
Tibet la 0.0006090
Carlos la 0.0006090
kaisha la 0.0006090
chosen la 0.0006090
OpenBSD la 0.0006090
Yang la 0.0006090
Devonshire la 0.0006090
Véronique la 0.0006090
addict la 0.0006090
Lucy la 0.0012180
Garofalo la 0.0006090
Europe la 0.0012180
Robinson la 0.0006090
Zurich la 0.0012180
Akasaka la 0.0006090
Kazan la 0.0006090
Dutch la 0.0012180
Joaquín la 0.0006090
Robert la 0.0012180
Father la 0.0006090
Batman la 0.0030451
Mahal la 0.0006090
Tok la 0.0006090
Windows la 0.0006090
Jack la 0.0042631
Gotham la 0.0024361
Michelangelo la 0.0006090
God la 0.0048721
Sam la 0.0006090
Egypt la 0.0006090
perfection la 0.0006090
Great la 0.0012180
Eimi la 0.0006090
Tom la 0.4068210
Osaka la 0.0012180
JFK la 0.0006090
basis la 0.0006090
Cain la 0.0012180
Tully la 0.0012180
Appassionata la 0.0006090
Kuala la 0.0006090
Croatia la 0.0006090
Qo la 0.0006090
Seine la 0.0006090
Bread la 0.0006090
March la 0.0006090
Columbus la 0.0018270
Saitou la 0.0006090
IBM la 0.0006090
13th la 0.0006090
Uri la 0.0006090
The la 0.0085262
Kevin la 0.0012180
George la 0.0012180
GPS la 0.0006090
Battle la 0.0006090
Tokyo la 0.0079172
Anglo-Zanzibar la 0.0006090
Joneses la 0.0006090
Alice la 0.0085262
Roman la 0.0006090
Herbert la 0.0012180
China la 0.0018270
Sarah la 0.0012180
Pat la 0.0024361
differs la 0.0006090
Doctor la 0.0012180
Kurosawa la 0.0006090
theremin la 0.0006090
Teresa la 0.0006090
Paul la 0.0012180
Baskerville la 0.0006090
Boston la 0.0091352
striking la 0.0006090
Shane la 0.0006090
Huizi la 0.0006090
Yassir la 0.0006090
Izmir la 0.0006090
IRC la 0.0006090
Araucanía la 0.0006090
Jacob la 0.0018270
Ganon la 0.0012180
Starcraft la 0.0006090
. la 0.0042631
Timmendorfer la 0.0006090
Bush la 0.0006090
Toki la 0.0006090
Alfred la 0.0006090
Carmen la 0.0006090
Shintaro la 0.0006090
Bell la 0.0006090
Ken la 0.0048721
Uyghurs la 0.0006090
lit la 0.0006090
Tatoeba la 0.0054811
Junko la 0.0006090
Daniel la 0.0018270
England la 0.0012180
Rome la 0.0030451
Red la 0.0006090
Florida la 0.0006090
Romeo la 0.0006090
&apos;lyeh la 0.0012180
pretending la 0.0006090
Germany la 0.0024361
Edward la 0.0006090
Teochew la 0.0006090
Mayuko la 0.0006090
Hearts la 0.0012180
Nora la 0.0006090
Meg la 0.0012180
Mike la 0.0012180
Dalat la 0.0006090
Ruling la 0.0006090
Mt la 0.0006090
Africa la 0.0006090
Elvis la 0.0006090
Alcubierre la 0.0006090
Honolulu la 0.0006090
Juliet la 0.0012180
junkie la 0.0006090
Keisuke la 0.0006090
bridges la 0.0006090
Tal la 0.0006090
Pakistan la 0.0012180
Simon la 0.0006090
Pluto la 0.0006090
Degas la 0.0006090
Abdul la 0.0006090
New la 0.0012180
University la 0.0012180
Adam la 0.0012180
outlined la 0.0006090
Mark la 0.0006090
Nicholas la 0.0012180
Nick la 0.0012180
II la 0.0012180
Amuro la 0.0006090
Coke la 0.0006090
Valsi la 0.0006090
Internet la 0.0006090
Esperanto la 0.0006090
Cathy la 0.0006090
Tux la 0.0006090
Farsi la 0.0006090
Jeremy la 0.0012180
model la 0.0006090
Kentucky la 0.0006090
Nixon la 0.0006090
Yumi la 0.0012180
Wonderland la 0.0006090
Latter-day la 0.0006090
Ali la 0.0006090
Canada la 0.0012180
Kyoto la 0.0018270
moon la 0.0012180
Arthur la 0.0006090
Black la 0.0006090
Liz la 0.0006090
Flying la 0.0006090
Turin la 0.0006090
Tsurugidake la 0.0006090
Beijing la 0.0018270
Italy la 0.0030451
Japan la 0.0030451
is la 0.0018270
Aachen la 0.0012180
Rebecca la 0.0012180
Esperantujo la 0.0012180
the la 0.0006090
Lake la 0.0006090
Columbia la 0.0006090
Hokaido la 0.0006090
Hawaii la 0.0012180
Uhhh la 0.0006090
Pacific la 0.0012180
Mount la 0.0006090
Oedipus la 0.0006090
Scott la 0.0006090
Only la 0.0012180
Armenia la 0.0006090
Philip la 0.0006090
Emily la 0.0018270
India la 0.0006090
catch la 0.0006090
Michel la 0.0006090
Jupiter la 0.0012180
cultivates la 0.0006090
Sato la 0.0006090
month la 0.0006090
Jim la 0.0030451
Carla la 0.0012180
basketball la 0.0006090
Hence la 0.0006090
Ann la 0.0024361
Farshad la 0.0006090
fairy la 0.0006090
Tamy la 0.0006090
iPad la 0.0012180
Cory la 0.0012180
Hanako la 0.0006090
Ramudu la 0.0006090
Nara la 0.0012180
Berber la 0.0006090
Mei la 0.0006090
Xalbo la 0.0006090
Burj la 0.0006090
Russia la 0.0018270
Bridge la 0.0006090
Earth la 0.0018270
Shinji la 0.0006090
Cicero la 0.0012180
Berger la 0.0006090
Dag la 0.0006090
to la 0.0006090
UT la 0.0006090
Titan la 0.0006090
Mordor la 0.0024361
Romney la 0.0006090
Kate la 0.0024361
Minsk la 0.0006090
boulevard la 0.0006090
Athens la 0.0006090
Disneyland la 0.0006090
Barcelona la 0.0006090
Anka la 0.0012180
Michael la 0.0012180
Linda la 0.0006090
Mrs. la 0.0024361
Anyi la 0.0012180
CIA la 0.0006090
Yerevan la 0.0006090
West la 0.0006090
Hyogo la 0.0012180
Mac la 0.0012180
Akagawa la 0.0006090
lojban la 0.0006090
Quezon la 0.0006090
kimbap la 0.0006090
Porsche la 0.0006090
Mary la 0.0688185
Rover la 0.0006090
Fukushima la 0.0006090
Wang la 0.0012180
Naoko la 0.0012180
Yoko la 0.0006090
Dad la 0.0012180
Haiti la 0.0006090
rose la 0.0012180
David la 0.0030451
Norman la 0.0006090
Holk la 0.0006090
buffalo la 0.0006090
America la 0.0060901
animist la 0.0006090
Napoleonic la 0.0006090
Jiro la 0.0006090
Postscript la 0.0006090
Belgium la 0.0006090
Haskell la 0.0006090
U.N. la 0.0012180
Korea la 0.0006090
fiction la 0.0006090
Christina la 0.0006090
Bill la 0.0048721
Milan la 0.0012180
Jean-Luc la 0.0006090
Natasha la 0.0012180
Patagonia la 0.0006090
Laurie la 0.0018270
Betty la 0.0012180
Lucifera la 0.0006090
waitress la 0.0006090
Georgia la 0.0006090
impatient la 0.0006090
Nepal la 0.0006090
London la 0.0054811
Ramu la 0.0006090
Greet la 0.0006090
Socrates la 0.0006090
system la 0.0006090
Richmonder la 0.0012180
sailed la 0.0006090
earth la 0.0012180
Sweden la 0.0012180
Lucas la 0.0006090
R la 0.0012180
Buddha la 0.0012180
Kordobas la 0.0006090
Yan la 0.0006090
this la'ede'u 0.1428571
cannot la'ede'u 0.1428571
be la'ede'u 0.1428571
It la'ede'u 0.1428571
That la'ede'u 0.1428571
true la'ede'u 0.1428571
threat la'ede'u 0.1428571
thirteen snasni 1.0000000
invisible spageti 0.1666667
undetectable spageti 0.1666667
that spageti 0.1666667
Monster spageti 0.1666667
an spageti 0.1666667
and spageti 0.1666667
my kacmyterxra 0.1000000
was kacmyterxra 0.1000000
take kacmyterxra 0.3000000
photographs kacmyterxra 0.1000000
picture kacmyterxra 0.2000000
taken kacmyterxra 0.1000000
pictures kacmyterxra 0.1000000
out barna 0.1000000
stain barna 0.1000000
mark barna 0.1000000
your barna 0.1000000
set barna 0.1000000
of barna 0.1000000
Get barna 0.1000000
! barna 0.1000000
On barna 0.1000000
Sunspot barna 0.1000000
excused se 0.0008019
those se 0.0008019
suggestion se 0.0008019
hers se 0.0008019
circuses se 0.0008019
to se 0.0120289
something se 0.0048115
satisfied se 0.0032077
live se 0.0016038
plan se 0.0008019
implement se 0.0016038
message se 0.0008019
googleable se 0.0008019
treason se 0.0008019
respected se 0.0080192
confusedly se 0.0008019
advice se 0.0040096
motivates se 0.0008019
Thunder se 0.0008019
stupidity se 0.0008019
bouquet se 0.0016038
seeing se 0.0008019
a se 0.0184443
printed se 0.0008019
dreams se 0.0008019
My se 0.0032077
mind se 0.0016038
standing se 0.0008019
amused se 0.0016038
snails se 0.0008019
seat se 0.0016038
know se 0.0056135
Burn se 0.0008019
Beer se 0.0008019
look se 0.0016038
latter se 0.0008019
murdered se 0.0008019
resulted se 0.0008019
buried se 0.0016038
discipline se 0.0008019
called se 0.0040096
mended se 0.0008019
everywhere se 0.0008019
stands se 0.0008019
foaled se 0.0008019
bу se 0.0016038
hair se 0.0008019
allowed se 0.0024058
surprised se 0.0048115
&apos;m se 0.0032077
o se 0.0016038
Socrates se 0.0008019
shocked se 0.0008019
Austin se 0.0008019
success se 0.0008019
sad se 0.0040096
games se 0.0008019
Products se 0.0008019
over se 0.0008019
browser se 0.0008019
Milan se 0.0008019
time se 0.0024058
&apos;re se 0.0112269
wist se 0.0016038
solutions se 0.0008019
deserve se 0.0008019
hobby se 0.0008019
attractive se 0.0008019
only se 0.0096231
starting se 0.0016038
dish se 0.0008019
life se 0.0016038
my se 0.0008019
deliberate se 0.0008019
are se 0.0016038
drinkable se 0.0008019
great se 0.0016038
job se 0.0048115
encircled se 0.0008019
thinking se 0.0008019
quotations se 0.0008019
additional se 0.0008019
cntrational se 0.0016038
shock se 0.0008019
interested se 0.0016038
crooked se 0.0008019
piano se 0.0016038
cigarettes se 0.0008019
posted se 0.0016038
exciting se 0.0008019
characteristic se 0.0008019
attempt se 0.0016038
collaborative se 0.0008019
belongs se 0.0048115
boat se 0.0008019
Hyogo se 0.0016038
Biwa se 0.0008019
named se 0.0008019
confused se 0.0040096
Jabberwocky se 0.0008019
married se 0.0008019
Lumpur se 0.0008019
subject se 0.0008019
explodes se 0.0008019
judge se 0.0016038
seller se 0.0016038
understood se 0.0016038
experiment se 0.0008019
dream se 0.0024058
patriotism se 0.0008019
south se 0.0008019
taste se 0.0008019
work se 0.0136327
hat se 0.0016038
inevitable se 0.0008019
mood se 0.0008019
edible se 0.0008019
by se 0.0144346
beloved se 0.0016038
make se 0.0016038
habit se 0.0016038
ex se 0.0008019
well-liked se 0.0008019
Izmir se 0.0008019
from se 0.0104250
gift se 0.0016038
. se 0.0080192
observing se 0.0008019
things se 0.0032077
eleven se 0.0008019
keeping se 0.0008019
bullshit se 0.0008019
speeches se 0.0016038
sons se 0.0016038
lost se 0.0024058
frighten se 0.0008019
raise se 0.0008019
hidden se 0.0016038
unmarried se 0.0008019
ridiculous se 0.0008019
air se 0.0008019
behind se 0.0032077
opinion se 0.0032077
is se 0.0248597
topic se 0.0008019
license se 0.0008019
located se 0.0008019
she se 0.0008019
reproducible se 0.0008019
the se 0.0008019
stank se 0.0008019
made se 0.0040096
what se 0.0072173
smells se 0.0024058
loves se 0.0008019
whatever se 0.0008019
doubted se 0.0008019
loving se 0.0008019
visitors se 0.0008019
reality se 0.0032077
you se 0.0040096
Nixon se 0.0008019
blowing se 0.0008019
loved se 0.0040096
factors se 0.0008019
game se 0.0008019
books se 0.0024058
goals se 0.0008019
watched se 0.0008019
lives se 0.0032077
mine se 0.0032077
previously se 0.0008019
thrown se 0.0008019
common se 0.0016038
birthday se 0.0008019
supposed se 0.0016038
guests se 0.0008019
tail se 0.0008019
jokes se 0.0008019
presidential se 0.0008019
entailing se 0.0008019
tune se 0.0008019
offered se 0.0008019
speak se 0.0449078
gunshot se 0.0008019
fuel se 0.0016038
requires se 0.0008019
slippery se 0.0008019
covered se 0.0008019
euros se 0.0008019
destroyed se 0.0008019
undetectable se 0.0008019
bilingual se 0.0008019
among se 0.0008019
wheat se 0.0016038
swollen se 0.0008019
Pieces se 0.0008019
talked se 0.0008019
rather se 0.0008019
their se 0.0032077
cannibal se 0.0008019
raw se 0.0008019
drawn se 0.0008019
Suddenly se 0.0008019
chosen se 0.0008019
painting se 0.0024058
Instead se 0.0008019
oil se 0.0008019
busy se 0.0024058
hardly se 0.0008019
threat se 0.0008019
Nakano se 0.0008019
Aix-la-Chapelle se 0.0024058
beholder se 0.0008019
claim se 0.0008019
promise se 0.0024058
speed se 0.0008019
has se 0.0184443
criticism se 0.0008019
handwriting se 0.0008019
wounded se 0.0008019
Skateboarding se 0.0008019
stupid se 0.0008019
prosper se 0.0008019
left se 0.0008019
salary se 0.0008019
involved se 0.0016038
presentation se 0.0008019
relative se 0.0008019
mistake se 0.0008019
attack se 0.0008019
met se 0.0008019
Without se 0.0008019
error se 0.0048115
10 se 0.0008019
pear se 0.0008019
ignorance se 0.0008019
solved se 0.0008019
soup se 0.0016038
cancer se 0.0008019
It se 0.0016038
handle se 0.0008019
hurts se 0.0024058
acquainted se 0.0008019
granted se 0.0008019
where se 0.0008019
our se 0.0056135
speaking se 0.0008019
phrase se 0.0008019
of se 0.0048115
Regardless se 0.0008019
have se 0.0264635
said se 0.0176423
built se 0.0024058
defeated se 0.0032077
radio se 0.0008019
bored se 0.0008019
honor se 0.0008019
language se 0.0008019
filled se 0.0008019
develop se 0.0008019
talent se 0.0008019
song se 0.0016038
plot se 0.0008019
audiencely-beautiful se 0.0008019
vivid se 0.0008019
killed se 0.0048115
cost se 0.0032077
meating se 0.0008019
Akasaka se 0.0016038
Silly se 0.0008019
Kazan se 0.0008019
dolls se 0.0008019
trains se 0.0016038
forcing se 0.0008019
original se 0.0008019
Shopping se 0.0008019
prefix se 0.0008019
for se 0.0064154
distraught se 0.0008019
time-wasting se 0.0008019
notebook se 0.0008019
NULL se 0.1611868
expected se 0.0008019
means se 0.0016038
harp se 0.0008019
upon se 0.0016038
mathematical se 0.0008019
because se 0.0048115
brand se 0.0008019
love se 0.0024058
&apos;s se 0.0457097
&apos;ve se 0.0040096
hypothesis se 0.0008019
swords se 0.0008019
object se 0.0008019
Icelanders se 0.0008019
career se 0.0016038
compelled se 0.0008019
in se 0.0088212
disgusts se 0.0008019
worked se 0.0008019
cares se 0.0024058
punished se 0.0016038
legs se 0.0024058
four se 0.0008019
well se 0.0032077
? se 0.0152366
astound se 0.0008019
labourer se 0.0008019
ears se 0.0008019
messages se 0.0016038
p.m. se 0.0008019
attracted se 0.0008019
lyrics se 0.0008019
missing se 0.0008019
anytime se 0.0008019
experience se 0.0016038
promises se 0.0024058
contains se 0.0008019
flaws se 0.0008019
prohibited se 0.0008019
fingers se 0.0008019
borogoves se 0.0008019
having se 0.0016038
lifted se 0.0008019
below se 0.0008019
Where se 0.0008019
trouble se 0.0016038
had se 0.0048115
enjoy se 0.0008019
originate se 0.0008019
brown se 0.0040096
camouflage se 0.0008019
question se 0.0008019
audience se 0.0008019
frustrated se 0.0008019
Would se 0.0024058
breakfast se 0.0008019
drill se 0.0008019
regardless se 0.0008019
Sweet se 0.0008019
needs se 0.0040096
wherever se 0.0008019
fantastic se 0.0008019
fitted se 0.0008019
one se 0.0064154
Russian se 0.0008019
country se 0.0008019
favorite se 0.0040096
Deutschland se 0.0008019
Five se 0.0008019
expression se 0.0008019
name se 0.0016038
defined se 0.0008019
everyone se 0.0008019
listener se 0.0008019
leak se 0.0008019
them se 0.0008019
breathe se 0.0008019
am se 0.0024058
Those se 0.0008019
arms se 0.0008019
speaks se 0.0048115
even se 0.0016038
Whose se 0.0016038
gallons se 0.0008019
silly se 0.0024058
on se 0.0016038
wears se 0.0048115
wisdom se 0.0008019
extremely se 0.0016038
girlfriend se 0.0016038
sculpture se 0.0008019
foreign se 0.0008019
pleased se 0.0008019
camel se 0.0008019
color se 0.0008019
flirting se 0.0008019
appetite se 0.0008019
was se 0.0080192
engaged se 0.0008019
understand se 0.0016038
puzzled se 0.0008019
smell se 0.0008019
warmly se 0.0008019
Evans se 0.0008019
lung se 0.0008019
area se 0.0008019
stolen se 0.0032077
be se 0.0024058
joke se 0.0008019
happiness se 0.0008019
damaged se 0.0008019
questions se 0.0016038
man se 0.0008019
prerequisit se 0.0008019
files se 0.0008019
NULL slilu 0.2000000
his slilu 0.2000000
started slilu 0.2000000
Everybody slilu 0.2000000
waving slilu 0.2000000
my memimoi 0.2500000
mine memimoi 0.7500000
Stanisław Stanisław 1.0000000
) ji'esle 0.2500000
( ji'esle 0.2500000
biology ji'esle 0.2500000
Cell ji'esle 0.2500000
photos co 0.0185185
sleep co 0.0185185
well co 0.0185185
translations co 0.0185185
cookies co 0.0185185
happy co 0.0185185
it co 0.0185185
together co 0.0185185
can co 0.0185185
working co 0.0185185
skiing co 0.0185185
quietly co 0.0185185
blue co 0.0185185
pussycat co 0.0185185
granted co 0.0185185
quickly co 0.0185185
claws co 0.0185185
sit co 0.0185185
NULL co 0.1481481
gets co 0.0185185
swimming co 0.0185185
run co 0.0370370
hard co 0.0185185
mittens co 0.0185185
waving co 0.0185185
fucked co 0.0185185
pretty co 0.0185185
fruit co 0.0185185
bed co 0.0185185
dies co 0.0185185
soon co 0.0185185
approaching co 0.0185185
campaign co 0.0185185
walked co 0.0185185
today co 0.0185185
ticket co 0.0370370
destroy co 0.0185185
playthings co 0.0185185
by co 0.0185185
a co 0.0555556
try co 0.0185185
glory co 0.0185185
are co 0.0185185
Maria .marias. 0.6666667
&apos;s .marias. 0.3333333
Algebra alxebra 1.0000000
&apos;s toljgi 0.5000000
shame toljgi 0.5000000
be zanselfunri'a 0.1428571
number zanselfunri'a 0.1428571
a zanselfunri'a 0.1428571
to zanselfunri'a 0.1428571
lucky zanselfunri'a 0.1428571
Many zanselfunri'a 0.1428571
consider zanselfunri'a 0.1428571
Shakespeare ceikspir. 1.0000000
Help .e'icu'i 0.1666667
Feel .e'icu'i 0.1666667
free .e'icu'i 0.1666667
yourself .e'icu'i 0.1666667
to .e'icu'i 0.1666667
. .e'icu'i 0.1666667
millennium 1xyxyxymoi 0.5000000
2nd 1xyxyxymoi 0.5000000
a .iokos. 0.3333333
is .iokos. 0.3333333
Yoko .iokos. 0.3333333
as selpraci'e 0.3333333
economy selpraci'e 0.3333333
a selpraci'e 0.3333333
that ctigau 0.1666667
some ctigau 0.1666667
feeds ctigau 0.1666667
fed ctigau 0.1666667
Feed ctigau 0.3333333
Poverty kampindi 1.0000000
&apos;t iepei 0.1666667
wasn iepei 0.1666667
? iepei 0.1666667
Scary iepei 0.1666667
, iepei 0.1666667
it iepei 0.1666667
manuscript kracku 1.0000000
copy fukpi 0.0833333
&apos;s fukpi 0.0833333
forgery fukpi 0.0833333
imitate fukpi 0.0833333
cloned fukpi 0.0833333
a fukpi 0.1666667
to fukpi 0.1666667
try fukpi 0.0833333
That fukpi 0.0833333
her fukpi 0.0833333
penis ranti 0.1428571
soft ranti 0.4285714
is ranti 0.1428571
being ranti 0.1428571
it ranti 0.1428571
day .oipei 0.1666667
? .oipei 0.1666667
your .oipei 0.1666667
How .oipei 0.1666667
today .oipei 0.1666667
was .oipei 0.1666667
dioxide tabrelkijno 0.5000000
Carbon tabrelkijno 0.5000000
failures nunfli 1.0000000
are loglo 1.0000000
very simsa 0.0238095
other simsa 0.0238095
times simsa 0.0238095
these simsa 0.0238095
resembles simsa 0.0238095
bees simsa 0.0238095
something simsa 0.0476190
like simsa 0.5000000
skin simsa 0.0238095
shirt simsa 0.0238095
as simsa 0.0476190
similar simsa 0.0714286
type simsa 0.0238095
dearly simsa 0.0238095
NULL simsa 0.0952381
Mount tcomolunmas. 0.3333333
Everest tcomolunmas. 0.3333333
as tcomolunmas. 0.3333333
grabbed .meris. 0.0270270
her .meris. 0.0270270
Mary .meris. 0.8918919
does .meris. 0.0270270
of .meris. 0.0270270
come tolcfari 0.2500000
end tolcfari 0.2500000
to tolcfari 0.2500000
an tolcfari 0.2500000
Omit nalpli 1.0000000
Soviet-American softo 1.0000000
research nunli'u 0.3333333
so nunli'u 0.3333333
purposes nunli'u 0.3333333
Stay ze'i 0.0243902
a ze'i 0.2439024
NULL ze'i 0.0243902
short ze'i 0.0243902
Give ze'i 0.0487805
minute ze'i 0.0487805
one ze'i 0.0243902
pacing ze'i 0.0243902
rest ze'i 0.0243902
&apos;s ze'i 0.0243902
through ze'i 0.0243902
us ze'i 0.0487805
instantly ze'i 0.0731707
while ze'i 0.0243902
for ze'i 0.0975610
journey ze'i 0.0243902
moment ze'i 0.1707317
easy ze'i 0.0243902
&apos;s .a'e 0.1304348
tsunami .a'e 0.0869565
It .a'e 0.0434783
Yaaaawn .a'e 0.0434783
Today .a'e 0.0434783
going .a'e 0.1739130
to .a'e 0.1739130
is .a'e 0.0434783
! .a'e 0.0869565
NULL .a'e 0.0434783
... .a'e 0.0434783
There .a'e 0.0869565
2,000 2000 1.0000000
greatest pemci'a 0.2000000
was pemci'a 0.2000000
the pemci'a 0.2000000
poet pemci'a 0.2000000
Basho pemci'a 0.2000000
password .gy. 0.2500000
Democratic .gy. 0.2500000
Party .gy. 0.2500000
rock .gy. 0.2500000
t djonz. 0.2500000
Jones djonz. 0.2500000
isn djonz. 0.2500000
’ djonz. 0.2500000
animals .iseni'inai 1.0000000
NULL je'u 0.0178571
that je'u 0.0178571
task je'u 0.0178571
he je'u 0.0178571
is je'u 0.0535714
Okinawa je'u 0.0178571
Yes je'u 0.0714286
&apos;t je'u 0.0535714
truly je'u 0.0178571
lecture je'u 0.0178571
innit je'u 0.0178571
It je'u 0.0357143
, je'u 0.0357143
. je'u 0.1428571
false je'u 0.0178571
quite je'u 0.0178571
sail-powered je'u 0.0178571
surprise je'u 0.0178571
Truly je'u 0.0178571
actually je'u 0.0892857
isn je'u 0.0535714
real je'u 0.0178571
really je'u 0.0178571
Hokkaido je'u 0.0178571
No je'u 0.0357143
it je'u 0.0714286
eh je'u 0.0178571
have je'u 0.0535714
pretended smitra 1.0000000
brick kityblibi'u 0.5000000
wall kityblibi'u 0.5000000
&apos;m uidaisai 0.1428571
for uidaisai 0.1428571
so uidaisai 0.1428571
I uidaisai 0.1428571
you uidaisai 0.1428571
happy uidaisai 0.1428571
. uidaisai 0.1428571
chocolates cakla 0.0909091
I cakla 0.1818182
chocolate cakla 0.7272727
an xindo 0.2500000
Indo-European xindo 0.2500000
Indian xindo 0.5000000
me zacterve'u 0.2000000
some zacterve'u 0.2000000
shopping zacterve'u 0.2000000
for zacterve'u 0.2000000
do zacterve'u 0.2000000
Emi Emi 0.3333333
is Emi 0.3333333
a Emi 0.3333333
wrong remna 0.0200000
humans remna 0.0200000
human remna 0.4800000
&apos;m remna 0.0200000
ordinary remna 0.0200000
a remna 0.0200000
NULL remna 0.1400000
race remna 0.0200000
man remna 0.0600000
of remna 0.0200000
people remna 0.0200000
Human remna 0.0800000
prince remna 0.0200000
animal remna 0.0200000
Social remna 0.0200000
humanity remna 0.0200000
Siberia siberias 1.0000000
Oceanography xasyske 1.0000000
Finally .uo 0.2500000
I .uo 0.2500000
! .uo 0.2500000
did .uo 0.2500000
&apos;m banxa 0.0769231
Bank banxa 0.0769231
bank banxa 0.6923077
a banxa 0.0769231
clerk banxa 0.0769231
are cipnrkorvo 0.5000000
Crows cipnrkorvo 0.5000000
friendly tarti 0.1250000
acting tarti 0.0625000
very tarti 0.1250000
into tarti 0.0625000
understanding tarti 0.0625000
enter tarti 0.0625000
manners tarti 0.1250000
has tarti 0.0625000
people tarti 0.0625000
thy tarti 0.1250000
are tarti 0.0625000
behaves tarti 0.0625000
, .robert. 0.1666667
Robert .robert. 0.5000000
leaving .robert. 0.1666667
&apos;m .robert. 0.1666667
it .u'anai 0.4000000
go .u'anai 0.1000000
worth .u'anai 0.1000000
! .u'anai 0.2000000
Leave .u'anai 0.1000000
Forget .u'anai 0.1000000
Watch .o'i 0.1250000
Beware .o'i 0.1250000
Careful .o'i 0.1250000
pickpockets .o'i 0.1250000
Charge .o'i 0.1250000
of .o'i 0.1250000
! .o'i 0.2500000
Tinikling dansrtinikli 0.5000000
dance dansrtinikli 0.5000000
ninth bimoi 1.0000000
began labno 0.1000000
younger labno 0.1000000
of labno 0.1000000
wolf labno 0.2000000
they labno 0.1000000
sign labno 0.1000000
as labno 0.1000000
wolves labno 0.2000000
&apos;m sorta 0.2222222
of sorta 0.3333333
needy sorta 0.1111111
kind sorta 0.1111111
sort sorta 0.2222222
Little tolvai 0.5000000
mistakes tolvai 0.5000000
childhood vercedra 1.0000000
succeed terdju 1.0000000
It desku 0.2000000
shaking desku 0.4000000
&apos;s desku 0.2000000
twinkling desku 0.2000000
Korea .xanguk 0.5000000
South .xanguk 0.5000000
Ethics marde 1.0000000
collaborative grisazri 1.0000000
food to'ebo 0.5000000
cold to'ebo 0.5000000
introduced mucibi 0.1428571
in mucibi 0.1428571
538 mucibi 0.1428571
into mucibi 0.1428571
Buddhism mucibi 0.1428571
was mucibi 0.1428571
Japan mucibi 0.1428571
it .djaks. 0.2000000
goes .djaks. 0.2000000
, .djaks. 0.2000000
How .djaks. 0.2000000
Jacques .djaks. 0.2000000
John jon 0.6666667
of jon 0.3333333
son bersa 0.7500000
&apos;s bersa 0.0312500
Jacob bersa 0.0312500
It bersa 0.0312500
NULL bersa 0.0312500
a bersa 0.0312500
sons bersa 0.0937500
user sampli 0.3333333
computers sampli 0.3333333
of sampli 0.3333333
Burn fagri 0.0476190
known fagri 0.0476190
was fagri 0.0952381
unknown fagri 0.0476190
fire fagri 0.6190476
fires fagri 0.0476190
with fagri 0.0476190
desire fagri 0.0476190
a zutse 0.0250000
sitting zutse 0.1250000
sit zutse 0.2000000
wherever zutse 0.0250000
here zutse 0.0250000
sank zutse 0.0250000
! zutse 0.0250000
is zutse 0.0250000
&quot; zutse 0.0250000
seat zutse 0.0750000
second zutse 0.0250000
Sit zutse 0.0500000
sat zutse 0.0500000
together zutse 0.0250000
sits zutse 0.0250000
down zutse 0.1500000
on zutse 0.0750000
have zutse 0.0250000
Carl karl 1.0000000
post jbesla 0.2222222
birthday jbesla 0.2222222
bу jbesla 0.2222222
her jbesla 0.1111111
present jbesla 0.2222222
Emily emilis 0.5000000
is emilis 0.5000000
you mypy 1.0000000
mood selcni 0.3333333
NULL selcni 0.3333333
Grammatical selcni 0.3333333
to ta'onai 0.1428571
back ta'onai 0.1428571
But ta'onai 0.1428571
the ta'onai 0.1428571
; ta'onai 0.1428571
point ta'onai 0.1428571
case ta'onai 0.1428571
turtles cakyrespa 1.0000000
dialect kalabrian.xesybau 0.3333333
Calabrian kalabrian.xesybau 0.3333333
Greek kalabrian.xesybau 0.3333333
Graphite pistabno 1.0000000
leave temu'i 0.2000000
. temu'i 0.2000000
You temu'i 0.2000000
of temu'i 0.2000000
because temu'i 0.2000000
farmer cange 0.5000000
Farm cange 0.5000000
Klaipėda tcadrklaipeda 1.0000000
everyone so'a 0.0714286
almost so'a 0.1428571
all so'a 0.2142857
every so'a 0.1428571
Almost so'a 0.2857143
sate so'a 0.0714286
bath so'a 0.0714286
... .suzyn.grin. 0.2500000
Greene .suzyn.grin. 0.2500000
are .suzyn.grin. 0.2500000
Susan .suzyn.grin. 0.2500000
mountain jipno 0.1000000
top jipno 0.1000000
blade jipno 0.1000000
of jipno 0.2000000
the jipno 0.4000000
end jipno 0.1000000
Zimbabwe zimbabues 1.0000000
home zdazva 0.2857143
at zdazva 0.1428571
make zdazva 0.1428571
Please zdazva 0.1428571
stayed zdazva 0.1428571
yourself zdazva 0.1428571
full sucysmadi 0.3333333
conjectures sucysmadi 0.3333333
of sucysmadi 0.3333333
how retsku 0.0256410
question retsku 0.0769231
do retsku 0.0256410
Ask retsku 0.0512821
questions retsku 0.1025641
have retsku 0.0256410
Nicodemus retsku 0.0256410
interrogation retsku 0.0256410
asked retsku 0.3333333
ask retsku 0.2307692
asking retsku 0.0769231
sell meti 0.3333333
this meti 0.3333333
would meti 0.3333333
Mathematica Principia 1.0000000
this tercli 0.2000000
passing tercli 0.2000000
for tercli 0.2000000
course tercli 0.2000000
sufficient tercli 0.2000000
at sorbau 0.5000000
equivalents sorbau 0.5000000
desk cpana 0.0384615
There cpana 0.0384615
was cpana 0.0384615
on cpana 0.6923077
it cpana 0.0384615
&apos;s cpana 0.0384615
labourer cpana 0.0384615
mark cpana 0.0384615
scattered cpana 0.0384615
&quot; B 0.5000000
I B 0.5000000
dream selsenva 0.1111111
children selsenva 0.1111111
&apos;s selsenva 0.1111111
song selsenva 0.1111111
a selsenva 0.1111111
life selsenva 0.1111111
express selsenva 0.1111111
that selsenva 0.2222222
India xingu'e 1.0000000
! bi'a 1.0000000
1990s 199xymoi 1.0000000
of kurjga 0.2500000
any kurjga 0.2500000
hypotenuse kurjga 0.2500000
triangle kurjga 0.2500000
over tu 0.0344828
there tu 0.0344828
almost tu 0.0344828
lemon tu 0.0344828
give tu 0.0344828
yonder tu 0.0344828
that tu 0.1379310
That tu 0.1724138
a tu 0.0344828
Seine tu 0.0344828
&apos;s tu 0.1034483
Who tu 0.0344828
. tu 0.0689655
Feed tu 0.0344828
described tu 0.0344828
fuck tu 0.0344828
fountain tu 0.0344828
one tu 0.0344828
hundreds tu 0.0344828
say lu 0.0243902
responds lu 0.0081301
goodbye lu 0.0081301
plays lu 0.0081301
Robert lu 0.0162602
“ lu 0.0162602
along lu 0.0081301
where lu 0.0081301
Aaaah lu 0.0081301
, lu 0.0487805
&quot; lu 0.6747967
thanks lu 0.0162602
study lu 0.0081301
explodes lu 0.0081301
no lu 0.0243902
: lu 0.0325203
NULL lu 0.0650407
says lu 0.0081301
unidentified lu 0.0081301
high di'atce 0.5000000
very di'atce 0.5000000
quit slugu'a 0.1250000
jogging slugu'a 0.1250000
excessive slugu'a 0.1250000
to slugu'a 0.1250000
exercise slugu'a 0.1250000
because slugu'a 0.1250000
it slugu'a 0.1250000
was slugu'a 0.1250000
Which xomoi 0.5000000
did xomoi 0.5000000
random ra'i 0.0909091
from ra'i 0.4545455
Madrid ra'i 0.0909091
up ra'i 0.2727273
Tatoeba.org. ra'i 0.0909091
b nyty 1.0000000
walk mo'ini'a 0.5000000
down mo'ini'a 0.5000000
devout mutce 0.0062696
extremely mutce 0.0094044
He mutce 0.0031348
a mutce 0.0940439
Real mutce 0.0031348
succeeding mutce 0.0031348
chocolate mutce 0.0031348
far mutce 0.0031348
burning mutce 0.0031348
hills mutce 0.0031348
She mutce 0.0094044
great mutce 0.0094044
smokes mutce 0.0031348
heat mutce 0.0031348
awful mutce 0.0031348
cold mutce 0.0031348
laughter mutce 0.0031348
use mutce 0.0031348
Very mutce 0.0062696
cried mutce 0.0031348
dying mutce 0.0031348
wide mutce 0.0156740
dumb mutce 0.0031348
poem mutce 0.0031348
very mutce 0.4388715
highly mutce 0.0031348
NULL mutce 0.0564263
drop-dead mutce 0.0031348
agonizing mutce 0.0062696
hard mutce 0.0031348
is mutce 0.0156740
It mutce 0.0250784
fantastic mutce 0.0031348
dogs mutce 0.0031348
wonderful mutce 0.0031348
much mutce 0.0344828
&apos;s mutce 0.0376176
delicious mutce 0.0031348
so mutce 0.0282132
loves mutce 0.0031348
too mutce 0.0062696
greatly mutce 0.0094044
lot mutce 0.0470219
badly mutce 0.0031348
browser mutce 0.0031348
sense mutce 0.0031348
really mutce 0.0407524
am mutce 0.0062696
responsibility mutce 0.0094044
War zanzibar 0.5000000
Anglo-Zanzibar zanzibar 0.5000000
are jimte 0.3333333
limits jimte 0.3333333
There jimte 0.3333333
literal pe'anai 0.5000000
meaning pe'anai 0.5000000
cured micyxu'i 0.1111111
of micyxu'i 0.1111111
medication micyxu'i 0.1111111
his micyxu'i 0.1111111
medicine micyxu'i 0.2222222
him micyxu'i 0.1111111
illness micyxu'i 0.1111111
pharmacy micyxu'i 0.1111111
it selpluka 0.2500000
? selpluka 0.2500000
cute selpluka 0.2500000
&apos;t selpluka 0.2500000
a pitka 0.5000000
ticket pitka 0.5000000
Nancy .nansin. 0.5000000
has .nansin. 0.5000000
is skutadji 1.0000000
( monopolis 0.2500000
) monopolis 0.2500000
Monopoly monopolis 0.2500000
game monopolis 0.2500000
lime ri'ornimre 1.0000000
without mivykansa 0.1666667
whom mivykansa 0.1666667
you mivykansa 0.1666667
cannot mivykansa 0.1666667
can mivykansa 0.1666667
live mivykansa 0.1666667
Pona ponas. 1.0000000
were xrani 0.0666667
offended xrani 0.0666667
liver xrani 0.0666667
wounded xrani 0.0666667
hurt xrani 0.2666667
damaged xrani 0.0666667
wound xrani 0.0666667
get xrani 0.0666667
bloodshed xrani 0.0666667
knock xrani 0.0666667
by xrani 0.1333333
dismiss minde 0.0555556
commanding minde 0.0555556
tell minde 0.0555556
told minde 0.3333333
were minde 0.1666667
command minde 0.1666667
commanded minde 0.0555556
NULL minde 0.0555556
tells minde 0.0555556
silently sanli 0.0476190
lined sanli 0.0476190
standing sanli 0.1904762
watching sanli 0.0952381
stood sanli 0.2857143
Get sanli 0.0476190
stand sanli 0.0476190
up sanli 0.1428571
NULL sanli 0.0476190
pillar sanli 0.0476190
metal mlijilkle 0.3333333
earth mlijilkle 0.3333333
Alkaline mlijilkle 0.3333333
: nagi'o 0.2500000
those nagi'o 0.2500000
of nagi'o 0.2500000
One nagi'o 0.2500000
complaining ba'urdu'u 0.3333333
always ba'urdu'u 0.3333333
&apos;re ba'urdu'u 0.3333333
NULL de'a 0.0909091
breath de'a 0.0909091
stop de'a 0.0909091
stopped de'a 0.2727273
my de'a 0.0909091
forgot de'a 0.2727273
past de'a 0.0909091
calling smugau 1.0000000
before la'edi'u 0.1111111
that la'edi'u 0.1111111
brought la'edi'u 0.1111111
NULL la'edi'u 0.2222222
a la'edi'u 0.1111111
thing la'edi'u 0.1111111
such la'edi'u 0.1111111
Isn la'edi'u 0.1111111
lost jinga 0.0363636
Checkmate jinga 0.0363636
wins jinga 0.0363636
sizeable jinga 0.0181818
and jinga 0.0181818
Very jinga 0.0181818
can jinga 0.0181818
will jinga 0.0181818
. jinga 0.3090909
win jinga 0.2000000
lottery jinga 0.0181818
winning jinga 0.0181818
beat jinga 0.0181818
defeat jinga 0.0545455
NULL jinga 0.0181818
won jinga 0.0545455
defeated jinga 0.0727273
triumphs jinga 0.0181818
amount jinga 0.0181818
cooks pofygau 0.1428571
gas pofygau 0.1428571
spoil pofygau 0.1428571
Too pofygau 0.1428571
many pofygau 0.1428571
broke pofygau 0.2857143
during brest 0.2000000
started brest 0.2000000
Brest brest 0.2000000
his brest 0.2000000
career brest 0.2000000
a zivle 0.2500000
of zivle 0.2500000
invested zivle 0.2500000
lot zivle 0.2500000
in xokaidon. 0.2000000
Was xokaidon. 0.2000000
Hokkaido xokaidon. 0.2000000
he xokaidon. 0.2000000
last xokaidon. 0.2000000
away mi'ai 0.0109890
Let mi'ai 0.0219780
curse mi'ai 0.0109890
resulted mi'ai 0.0109890
We mi'ai 0.5714286
our mi'ai 0.0439560
we mi'ai 0.1538462
decide mi'ai 0.0109890
ours mi'ai 0.0109890
. mi'ai 0.0109890
