was sepo'i 0.2000000
out sepo'i 0.2000000
laid sepo'i 0.2000000
Supper sepo'i 0.2000000
on sepo'i 0.2000000
Barack byRAK.obamas 0.5000000
Obama byRAK.obamas 0.5000000
think pe'ipei 0.1428571
during pe'ipei 0.1428571
gonna pe'ipei 0.1428571
do pe'ipei 0.2857143
you pe'ipei 0.1428571
we pe'ipei 0.1428571
It seva'u 0.1666667
. seva'u 0.1666667
&apos;s seva'u 0.1666667
puppy seva'u 0.1666667
for seva'u 0.1666667
NULL seva'u 0.1666667
has nansin 0.5000000
Nancy nansin 0.5000000
Nitrogen trano 1.0000000
years paze 0.2500000
old paze 0.2500000
seventeen paze 0.5000000
Caesar kaisar 1.0000000
&apos;s a'ucu'i 0.1333333
out a'ucu'i 0.0666667
turns a'ucu'i 0.0666667
interesting a'ucu'i 0.1333333
not a'ucu'i 0.1333333
. a'ucu'i 0.2000000
right a'ucu'i 0.0666667
That a'ucu'i 0.1333333
everything a'ucu'i 0.0666667
Baghdad bagdad 1.0000000
on selgu'a 0.2222222
there selgu'a 0.1111111
task selgu'a 0.1111111
ordinary selgu'a 0.1111111
This selgu'a 0.1111111
an selgu'a 0.1111111
business selgu'a 0.1111111
is selgu'a 0.1111111
phonetic banvoksle 0.5000000
symbols banvoksle 0.5000000
? ga'inai 0.1666667
Sir ga'inai 0.1666667
sir ga'inai 0.1666667
, ga'inai 0.3333333
Er ga'inai 0.1666667
society kluce'u 0.5000000
modern kluce'u 0.5000000
greed du'edji 1.0000000
to cinmle 0.1111111
He cinmle 0.1111111
sexy cinmle 0.2222222
&apos;s cinmle 0.2222222
babe cinmle 0.1111111
attracted cinmle 0.1111111
hot cinmle 0.1111111
, ianai 0.1333333
sporks ianai 0.0666667
dating ianai 0.0666667
No ianai 0.0666667
not ianai 0.0666667
anyone ianai 0.0666667
NULL ianai 0.0666667
I ianai 0.1333333
believe ianai 0.0666667
don ianai 0.0666667
but ianai 0.0666667
Then ianai 0.0666667
now ianai 0.0666667
test cipra 0.1250000
Mathematical cipra 0.0416667
of cipra 0.0416667
exercises cipra 0.0416667
NULL cipra 0.0416667
that cipra 0.0416667
experiment cipra 0.1250000
examination cipra 0.0416667
results cipra 0.0416667
proof cipra 0.0416667
&apos;s cipra 0.0416667
The cipra 0.0416667
Test-driven cipra 0.0416667
is cipra 0.0416667
exam cipra 0.2500000
Is kukis 0.2083333
a kukis 0.2083333
Question kukis 0.1666667
Cookie kukis 0.2500000
: kukis 0.1666667
epic ui.uenai 0.1428571
going ui.uenai 0.1428571
be ui.uenai 0.1428571
to ui.uenai 0.1428571
is ui.uenai 0.1428571
This ui.uenai 0.1428571
! ui.uenai 0.1428571
space kensa 0.3333333
virus kensa 0.1111111
In kensa 0.2222222
, kensa 0.3333333
user selylacri 0.3333333
trusted selylacri 0.3333333
a selylacri 0.3333333
NULL bruna 0.0370370
well bruna 0.0185185
wasn bruna 0.0185185
are bruna 0.0185185
My bruna 0.0925926
very bruna 0.0185185
Brother bruna 0.0185185
were bruna 0.0185185
brother bruna 0.5925926
brothers bruna 0.1666667
Plural sordaivla 1.0000000
&apos;m remu 0.1666667
years remu 0.1666667
25 remu 0.3333333
25th remu 0.1666667
old remu 0.1666667
discovered fakli'u 0.5000000
explorers fakli'u 0.5000000
&apos;m ciska 0.0156250
handwriting ciska 0.0312500
NULL ciska 0.0625000
write ciska 0.1875000
written ciska 0.0468750
writes ciska 0.0625000
will ciska 0.0156250
programming ciska 0.0156250
Write ciska 0.0625000
spelled ciska 0.0156250
their ciska 0.0156250
it ciska 0.0156250
wrote ciska 0.1718750
down ciska 0.0781250
writing ciska 0.2031250
George djordj 1.0000000
Cuba la.kubas 1.0000000
pad pevysmacyki'e 0.5000000
mouse pevysmacyki'e 0.5000000
Monarchism noltrusi'o 1.0000000
sell meti 0.3333333
this meti 0.3333333
would meti 0.3333333
It cmalu 0.0128205
breakfast cmalu 0.0128205
amount cmalu 0.0128205
small cmalu 0.4230769
little cmalu 0.3076923
hill cmalu 0.0128205
short cmalu 0.0128205
are cmalu 0.0128205
a cmalu 0.1410256
pretty cmalu 0.0128205
NULL cmalu 0.0256410
expenses cmalu 0.0128205
of nunba'o 0.5000000
growth nunba'o 0.5000000
sentimental cnitce 0.2000000
has cnitce 0.2000000
avoided cnitce 0.2000000
being cnitce 0.2000000
completely cnitce 0.2000000
Mother la.mam 0.5000000
scolding la.mam 0.5000000
at delfis 0.5000000
Delphi delfis 0.5000000
species truncata.ly 0.2000000
the truncata.ly 0.2000000
Schlumbergera truncata.ly 0.2000000
truncata truncata.ly 0.2000000
of truncata.ly 0.2000000
juice najnimryjisra 1.0000000
Ozawa nan.oza,uas 1.0000000
Pakistan kisygu'e 1.0000000
radios velcradi 0.3333333
fix velcradi 0.3333333
broken velcradi 0.3333333
know se'o 0.2500000
I se'o 0.5000000
internally se'o 0.2500000
It rigni 0.1666667
obnoxious rigni 0.3333333
me rigni 0.1666667
stinks rigni 0.1666667
disgusts rigni 0.1666667
tatoeba.org gy.http://tatoeba.org/.gy 0.1666667
http gy.http://tatoeba.org/.gy 0.1666667
: gy.http://tatoeba.org/.gy 0.1666667
/ gy.http://tatoeba.org/.gy 0.5000000
Chlorine kliru 1.0000000
NULL jo 0.0625000
don jo 0.1250000
around jo 0.0625000
hang jo 0.0625000
in jo 0.0625000
, jo 0.0625000
not jo 0.1250000
&apos;t jo 0.1250000
then jo 0.0625000
end jo 0.0625000
or jo 0.0625000
if jo 0.0625000
okay jo 0.0625000
fond sralytu'a 0.2500000
of sralytu'a 0.2500000
am sralytu'a 0.2500000
Australian sralytu'a 0.2500000
a urja 0.3333333
hurry urja 0.3333333
in urja 0.3333333
anime ce'u 0.0200000
fix ce'u 0.0200000
both ce'u 0.0200000
detail ce'u 0.0200000
Lojban ce'u 0.0200000
NULL ce'u 0.2800000
faithful ce'u 0.0200000
French ce'u 0.0200000
Mathematica ce'u 0.0600000
people ce'u 0.0200000
thing ce'u 0.0200000
increased ce'u 0.0200000
slowest ce'u 0.0200000
the ce'u 0.0200000
involved ce'u 0.0200000
more ce'u 0.0400000
shoot ce'u 0.0200000
at ce'u 0.0200000
respect ce'u 0.0200000
disagreeable ce'u 0.0200000
than ce'u 0.0200000
into ce'u 0.0200000
folly ce'u 0.0200000
no ce'u 0.0200000
frequently ce'u 0.0200000
teach ce'u 0.0400000
increases ce'u 0.0200000
hates ce'u 0.0400000
this ce'u 0.0200000
managed ce'u 0.0200000
strike ce'u 0.0200000
untidy ce'u 0.0200000
hit darsi 1.0000000
Portugal nafmupli 1.0000000
boyfriend nakpa'i 0.5000000
My nakpa'i 0.5000000
are tepri'apre 0.1818182
everyone tepri'apre 0.0909091
themselves tepri'apre 0.0909091
except tepri'apre 0.0909091
by tepri'apre 0.1818182
hated tepri'apre 0.1818182
terrorists tepri'apre 0.1818182
Asia xazdo 0.2500000
compete xazdo 0.2500000
with xazdo 0.2500000
Asians xazdo 0.2500000
world mu'ezda 1.0000000
mini ipadminis 0.3333333
iPad ipadminis 0.3333333
an ipadminis 0.3333333
clothing ticta'u 1.0000000
isn go 0.0909091
If go 0.0909091
life go 0.0909091
don go 0.0909091
Tully go 0.1818182
NULL go 0.0909091
&apos;t go 0.0909091
it go 0.0909091
to go 0.0909091
hesitate go 0.0909091
Gates geits 1.0000000
NULL srasu 0.1666667
grass srasu 0.8333333
Kentaro la.kentaron 1.0000000
summer crisa 0.4166667
in crisa 0.1666667
lot crisa 0.0833333
the crisa 0.0833333
In crisa 0.0833333
even crisa 0.0833333
most crisa 0.0833333
- go'ira'o 0.2000000
I go'ira'o 0.2000000
love go'ira'o 0.2000000
too go'ira'o 0.2000000
you go'ira'o 0.2000000
preceding go'o 0.2000000
The go'o 0.2000000
is go'o 0.2000000
false go'o 0.2000000
sentence go'o 0.2000000
Prehistory prucitri 1.0000000
with gugyka'i 0.2000000
demanded gugyka'i 0.2000000
meet gugyka'i 0.2000000
to gugyka'i 0.2000000
ambassador gugyka'i 0.2000000
tell tecu'u 0.3333333
yet tecu'u 0.3333333
&apos;t tecu'u 0.3333333
with nebysrijge 0.2500000
tie nebysrijge 0.5000000
goes nebysrijge 0.2500000
for bakfu 0.5000000
pack bakfu 0.5000000
cause nunspesti 0.5000000
main nunspesti 0.5000000
) cidjrkacera 0.2000000
food cidjrkacera 0.2000000
( cidjrkacera 0.2000000
kosher cidjrkacera 0.4000000
Be muvycau 0.3333333
. muvycau 0.3333333
still muvycau 0.3333333
Norway noreg 1.0000000
could nalpo'i 1.0000000
at na.e 0.2222222
but na.e 0.1111111
&apos;t na.e 0.1111111
Yours na.e 0.1111111
, na.e 0.2222222
doesn na.e 0.1111111
Look na.e 0.1111111
Zurich ga'u 0.2222222
where ga'u 0.1111111
overhead ga'u 0.1111111
above ga'u 0.1111111
the ga'u 0.2222222
sleeps ga'u 0.1111111
NULL ga'u 0.1111111
NULL stati 0.0333333
talent stati 0.0666667
talented stati 0.0333333
French stati 0.0333333
smart stati 0.3666667
are stati 0.0333333
a stati 0.1333333
an stati 0.0333333
&apos;re stati 0.0333333
intelligent stati 0.0333333
is stati 0.0333333
bright stati 0.0666667
capable stati 0.0333333
His stati 0.0333333
both stati 0.0333333
Here tecra'a 0.5000000
&apos;s tecra'a 0.5000000
Internet kibjo'e 1.0000000
Sea xamsi 0.2500000
oceans xamsi 0.0357143
ocean xamsi 0.1428571
sea xamsi 0.3928571
cyclone xamsi 0.0357143
seafood xamsi 0.0714286
Gulf xamsi 0.0357143
shoreline xamsi 0.0357143
NULL tinbe 0.0869565
did tinbe 0.0434783
step tinbe 0.0434783
Obey tinbe 0.0434783
what tinbe 0.0869565
obey tinbe 0.0869565
their tinbe 0.0869565
following tinbe 0.0434783
law tinbe 0.0434783
act tinbe 0.0434783
him tinbe 0.0434783
in tinbe 0.0434783
taken tinbe 0.0434783
having tinbe 0.0434783
do tinbe 0.0869565
line tinbe 0.0434783
Follow tinbe 0.0434783
Just tinbe 0.0434783
Could e'apei 0.0714286
? e'apei 0.0714286
Can e'apei 0.2142857
begin e'apei 0.0714286
May e'apei 0.5714286
Pablo la.pablos 1.0000000
Yoko iokos 0.3333333
a iokos 0.3333333
is iokos 0.3333333
out bajli'a 0.3333333
came bajli'a 0.3333333
running bajli'a 0.3333333
Kobe kobes 1.0000000
Cobalt ridjinme 1.0000000
bowed krosa'i 0.2000000
I krosa'i 0.2000000
. krosa'i 0.2000000
politely krosa'i 0.4000000
so taisai 1.0000000
Wikipedia uikipidias 1.0000000
like grute 0.1428571
from grute 0.1428571
want grute 0.1428571
fruit grute 0.5714286
globalisation plinici'u 1.0000000
Einstein ainctain 1.0000000
by cabna'a 0.2500000
year cabna'a 0.2500000
storm cabna'a 0.2500000
this cabna'a 0.2500000
unicorns pavyseljirna 0.1250000
Have pavyseljirna 0.2500000
, pavyseljirna 0.1250000
caught pavyseljirna 0.2500000
you pavyseljirna 0.2500000
widower mrospe 0.2500000
a mrospe 0.2500000
called mrospe 0.2500000
is mrospe 0.2500000
shirt simsa 0.0227273
bees simsa 0.0227273
something simsa 0.0681818
as simsa 0.0681818
be simsa 0.0454545
resembles simsa 0.0227273
skin simsa 0.0227273
very simsa 0.0227273
type simsa 0.0227273
like simsa 0.4772727
these simsa 0.0227273
similar simsa 0.0681818
NULL simsa 0.1136364
if se.unai 0.1666667
matter se.unai 0.1666667
&apos;t se.unai 0.1666667
, se.unai 0.1666667
doesn se.unai 0.1666667
no se.unai 0.1666667
Terbium jinmrterbi 1.0000000
Genetics ginske 1.0000000
prolific fintce 0.3333333
a fintce 0.3333333
&apos;m fintce 0.3333333
whisky uiski 0.5000000
expert uiski 0.5000000
Economics dinske 1.0000000
Ying la.li,in 1.0000000
Euclid euklides 1.0000000
brushes brulu'i 1.0000000
manuscript pujaca 0.5000000
by pujaca 0.5000000
church xismalsi 0.6000000
this xismalsi 0.2000000
is xismalsi 0.2000000
am tadni 0.0240000
&apos;m tadni 0.0080000
studying tadni 0.2000000
students tadni 0.0880000
study tadni 0.2080000
revise tadni 0.0080000
studied tadni 0.0160000
&apos;s tadni 0.0080000
Lojban-student tadni 0.0080000
Learn tadni 0.0080000
Esperanto tadni 0.0240000
a tadni 0.0480000
NULL tadni 0.0880000
Study tadni 0.0080000
student tadni 0.2080000
classmates tadni 0.0080000
learn tadni 0.0240000
studies tadni 0.0160000
. seljalge 0.5000000
why seljalge 0.5000000
bombs jbama 0.1666667
is jbama 0.1666667
over jbama 0.1666667
a jbama 0.1666667
bomb jbama 0.3333333
when makau 0.0444444
steal makau 0.0111111
why makau 0.0777778
murderer makau 0.0111111
wins makau 0.0111111
NULL makau 0.1444444
arriving makau 0.0111111
possible makau 0.0111111
detail makau 0.0111111
to makau 0.0555556
promised makau 0.0111111
how makau 0.0333333
reason makau 0.0111111
doing makau 0.0222222
experiment makau 0.0111111
crashed makau 0.0111111
what makau 0.1888889
where makau 0.1000000
whose makau 0.0111111
meant makau 0.0222222
problem makau 0.0111111
saw makau 0.0111111
time makau 0.0111111
high makau 0.0222222
who makau 0.1111111
pheasant makau 0.0111111
Belgium makau 0.0111111
have pampendo 0.2500000
a pampendo 0.2500000
&apos;t pampendo 0.2500000
girlfriend pampendo 0.2500000
Guatemala guatemal 1.0000000
NULL cukta 0.0054945
times cukta 0.0054945
belong cukta 0.0054945
books cukta 0.2472527
bookstore cukta 0.0164835
book cukta 0.6813187
whom cukta 0.0054945
are cukta 0.0054945
textbook cukta 0.0054945
author cukta 0.0054945
! cukta 0.0109890
guest-book cukta 0.0054945
NULL seja'e 0.1538462
discount seja'e 0.0769231
&apos;s seja'e 0.0769231
Why seja'e 0.6153846
am seja'e 0.0769231
scattered fatri 0.5000000
out fatri 0.2500000
giving fatri 0.2500000
a selpinxe 0.3333333
Drink selpinxe 0.3333333
drink selpinxe 0.3333333
but pa'e 0.0909091
Of pa'e 0.0909091
&apos;m pa'e 0.0909091
My pa'e 0.0909091
I pa'e 0.0909091
that pa'e 0.0909091
unbiased pa'e 0.0909091
course pa'e 0.0909091
opinion pa'e 0.0909091
biased pa'e 0.0909091
is pa'e 0.0909091
really je'asai 0.5000000
got je'asai 0.5000000
... remei" 0.2000000
let remei" 0.2000000
Um remei" 0.2000000
me remei" 0.2000000
think remei" 0.2000000
Better nalra'u 0.2500000
! nalra'u 0.2500000
leave nalra'u 0.2500000
it nalra'u 0.2500000
the nunbrari'a 0.3333333
is nunbrari'a 0.3333333
zoom nunbrari'a 0.3333333
Muplis muplis 1.0000000
Mei meilis 0.5000000
Li meilis 0.5000000
tender cinba 0.0625000
kiss cinba 0.4375000
kissed cinba 0.2500000
with cinba 0.0625000
kisses cinba 0.1250000
Kiss cinba 0.0625000
leaving la.cikagos 0.3333333
Chicago la.cikagos 0.3333333
is la.cikagos 0.3333333
mew mi'au 0.5000000
&apos;d mi'au 0.5000000
is za'adai 0.3333333
This za'adai 0.3333333
job za'adai 0.3333333
lime ri'ornimre 1.0000000
of Party 0.3333333
Party Party 0.3333333
Democratic Party 0.3333333
watching sanli 0.0952381
stand sanli 0.0952381
lined sanli 0.0476190
Get sanli 0.0476190
up sanli 0.1428571
standing sanli 0.1904762
stood sanli 0.2857143
silently sanli 0.0476190
pillar sanli 0.0476190
teach do'adai 0.1666667
of do'adai 0.1666667
It do'adai 0.1666667
generous do'adai 0.1666667
to do'adai 0.1666667
&apos;s do'adai 0.1666667
Jabberwocky kerfa 0.0344828
have kerfa 0.0689655
shampoo kerfa 0.0344828
hair kerfa 0.8620690
subject tercu'e 0.3333333
last tercu'e 0.3333333
enrolled tercu'e 0.3333333
Brass tabra 0.5000000
instrument tabra 0.5000000
road dargu 0.5000000
street dargu 0.1250000
the dargu 0.1250000
Take dargu 0.1250000
on dargu 0.1250000
I jdikygau 0.1666667
reduce jdikygau 0.1666667
we jdikygau 0.1666667
think jdikygau 0.1666667
radio jdikygau 0.1666667
should jdikygau 0.1666667
room nilce 0.2500000
furniture nilce 0.5000000
in nilce 0.2500000
Susan susan 1.0000000
Gallium fasyjinme 1.0000000
get onai 0.1000000
busy onai 0.1000000
living onai 0.1000000
dying onai 0.1000000
Either onai 0.2000000
or onai 0.4000000
go misrygu'e 0.1428571
want misrygu'e 0.1428571
to misrygu'e 0.2857143
really misrygu'e 0.1428571
Egypt misrygu'e 0.2857143
three devoncir 0.2000000
Devonshire devoncir 0.2000000
ago devoncir 0.2000000
months devoncir 0.2000000
in devoncir 0.2000000
&apos;m toldarsi 0.2000000
shy toldarsi 0.8000000
do seltadni 0.3333333
Which seltadni 0.3333333
subject seltadni 0.3333333
Which xomoi 0.5000000
did xomoi 0.5000000
not spofu 0.0416667
order spofu 0.0833333
, spofu 0.0416667
shutter spofu 0.0416667
out spofu 0.0833333
down spofu 0.0833333
of spofu 0.0833333
destroy spofu 0.0416667
broken spofu 0.4583333
NULL spofu 0.0416667
angry tefengu 0.2500000
make tefengu 0.2500000
him tefengu 0.2500000
would tefengu 0.2500000
him rupsra 0.5000000
financially rupsra 0.5000000
: tu'e 0.2000000
Make tu'e 0.2000000
law tu'e 0.2000000
it tu'e 0.2000000
your tu'e 0.2000000
been selda'i 0.5000000
have selda'i 0.5000000
bitch rikybakfu 0.2500000
backpack rikybakfu 0.2500000
stole rikybakfu 0.2500000
my rikybakfu 0.2500000
megabytes pi'ai 0.3333333
meter pi'ai 0.3333333
miles pi'ai 0.3333333
2008 2008 1.0000000
Brian braiyn 1.0000000
forgive kai'a 0.6666667
to kai'a 0.3333333
NULL ze'u 0.0689655
until ze'u 0.0344828
a ze'u 0.1379310
Long ze'u 0.0344828
permanent ze'u 0.0344828
spent ze'u 0.0344828
How ze'u 0.0344828
, ze'u 0.0344828
have ze'u 0.0344828
long ze'u 0.2758621
no ze'u 0.0344828
time ze'u 0.1724138
waited ze'u 0.0689655
( gos 0.2500000
Go gos 0.2500000
game gos 0.2500000
) gos 0.2500000
Microsoft maikrosaft 1.0000000
&apos;m tolmencre 0.1428571
stupid tolmencre 0.4285714
brick tolmencre 0.1428571
&apos;s tolmencre 0.2857143
that po'onai 0.2000000
only po'onai 0.2000000
not po'onai 0.2000000
to po'onai 0.2000000
do po'onai 0.2000000
Tungsten jarjinme 1.0000000
of ce'i 0.1250000
% ce'i 0.1250000
families ce'i 0.1250000
American ce'i 0.1250000
this ce'i 0.1250000
follow ce'i 0.1250000
percent ce'i 0.1250000
pattern ce'i 0.1250000
over Tsurix 0.5000000
Zurich Tsurix 0.5000000
one ropa 0.2500000
only ropa 0.6250000
Queen ropa 0.1250000
Lawrencium jinmrlorensi 1.0000000
I ji'asai 0.5000000
even ji'asai 0.5000000
Atheism nalceikri 1.0000000
It makfa 0.1000000
a makfa 0.2000000
magician makfa 0.1000000
perform makfa 0.1000000
magical makfa 0.2000000
supernatural makfa 0.1000000
magic makfa 0.1000000
miracle makfa 0.1000000
Terrorism tadjycolnunte'a 1.0000000
howled puca'o 0.3333333
were puca'o 0.3333333
They puca'o 0.3333333
between redo 1.0000000
in bukurectis 0.2000000
Bucharest bukurectis 0.2000000
was bukurectis 0.2000000
she bukurectis 0.2000000
Anka bukurectis 0.2000000
&apos;re zanfu'a 0.5000000
lucky zanfu'a 0.5000000
quite rauva'e 0.2000000
, rauva'e 0.2000000
In rauva'e 0.2000000
fact rauva'e 0.2000000
are rauva'e 0.2000000
nothing nozo'e 0.3333333
&apos;s nozo'e 0.3333333
There nozo'e 0.3333333
G ga'e 0.5000000
&quot; ga'e 0.5000000
Ireland airland 0.3333333
of airland 0.3333333
Republic airland 0.3333333
idle akti 0.0909091
Turn akti 0.1818182
off akti 0.1818182
on akti 0.0909091
running akti 0.0909091
turn akti 0.0909091
it akti 0.0909091
down akti 0.0909091
get akti 0.0909091
NULL glare 0.0425532
warm glare 0.0638298
very glare 0.0638298
is glare 0.0851064
things glare 0.0212766
it glare 0.0425532
heat glare 0.0638298
&apos;s glare 0.0638298
high glare 0.0212766
hot glare 0.4042553
It glare 0.1276596
engineering mi'irlarcu 0.5000000
Electrical mi'irlarcu 0.5000000
about nalmorji 0.3333333
all nalmorji 0.3333333
forgot nalmorji 0.3333333
louder laurzengau 0.2500000
you laurzengau 0.2500000
speak laurzengau 0.2500000
? laurzengau 0.2500000
is uecu'i 0.2500000
Such uecu'i 0.2500000
life uecu'i 0.2500000
. uecu'i 0.2500000
everything jitro 0.0555556
bartender jitro 0.0555556
control jitro 0.2777778
administrator jitro 0.1111111
under jitro 0.0555556
manager jitro 0.0555556
administrators jitro 0.1111111
handle jitro 0.0555556
business jitro 0.0555556
spending jitro 0.0555556
controls jitro 0.0555556
have jitro 0.0555556
CEO ralju 0.1428571
Belgium ralju 0.0714286
leader ralju 0.0714286
Painting ralju 0.0714286
at ralju 0.0714286
principal ralju 0.0714286
IBM ralju 0.1428571
of ralju 0.2857143
Kiev ralju 0.0714286
cost nononono 0.1111111
it nononono 0.1111111
you nononono 0.1111111
than nononono 0.1111111
will nononono 0.1111111
10,000 nononono 0.1111111
yen nononono 0.1111111
think nononono 0.1111111
more nononono 0.1111111
three cimei 0.2500000
brothers cimei 0.2500000
has cimei 0.2500000
He cimei 0.2500000
is pelji 0.1333333
Paper pelji 0.0666667
Rock-paper-scissors pelji 0.0666667
just pelji 0.1333333
magical pelji 0.1333333
paper pelji 0.4666667
stomach po'e 0.2500000
his po'e 0.2500000
plants po'e 0.2500000
&apos;s po'e 0.2500000
To nago'i 0.1428571
be nago'i 0.2857143
to nago'i 0.1428571
that nago'i 0.1428571
not nago'i 0.1428571
or nago'i 0.1428571
Zimbabwe zimbabues 1.0000000
have ze'epu 0.3333333
never ze'epu 0.6666667
Clausewitz klausevits 0.5000000
von klausevits 0.5000000
gay mitcinpa'i 1.0000000
shocking naru'e 0.2000000
hardly naru'e 0.2000000
That naru'e 0.2000000
nearly naru'e 0.4000000
rude tolclite 0.5000000
be tolclite 0.5000000
. e'ese'a 0.1666667
will e'ese'a 0.1666667
I e'ese'a 0.1666667
myself e'ese'a 0.1666667
do e'ese'a 0.1666667
it e'ese'a 0.1666667
sing selsa'a 0.1000000
is selsa'a 0.1000000
It selsa'a 0.1000000
. selsa'a 0.2000000
song selsa'a 0.4000000
a selsa'a 0.1000000
dropped falgau 0.5000000
my falgau 0.5000000
juice jisra 1.0000000
oil glazenca'a 0.1428571
heating glazenca'a 0.1428571
heater glazenca'a 0.1428571
device glazenca'a 0.1428571
uses glazenca'a 0.1428571
runs glazenca'a 0.1428571
on glazenca'a 0.1428571
rot fusra 0.1250000
begun fusra 0.1250000
to fusra 0.2500000
rotten fusra 0.2500000
has fusra 0.1250000
decay fusra 0.1250000
novel lisycku 0.3333333
twenty lisycku 0.3333333
at lisycku 0.3333333
Hernán ernan.kortes 0.5000000
Cortés ernan.kortes 0.5000000
stops cteki 0.1250000
certificates cteki 0.1250000
taxes cteki 0.1250000
accruing cteki 0.1250000
tax cteki 0.1250000
after cteki 0.1250000
on cteki 0.1250000
Interest cteki 0.1250000
ten rere 0.2500000
&apos;clock rere 0.5000000
o rere 0.2500000
Being lo 0.0003985
goat lo 0.0001328
Use lo 0.0001328
People lo 0.0010626
at lo 0.0009297
Baby lo 0.0002656
Milk lo 0.0001328
chocolates lo 0.0001328
about lo 0.0002656
With lo 0.0001328
Fertile lo 0.0001328
These lo 0.0021251
my lo 0.0038518
Which lo 0.0003985
Blind lo 0.0001328
There lo 0.0007969
Your lo 0.0026564
Red lo 0.0001328
volleyball lo 0.0001328
wires lo 0.0001328
Products lo 0.0002656
Birds lo 0.0001328
Others lo 0.0001328
whose lo 0.0001328
their lo 0.0017267
She lo 0.0003985
Air lo 0.0001328
Shopping lo 0.0001328
Short lo 0.0001328
alder lo 0.0001328
religious lo 0.0001328
bananas lo 0.0001328
Silly lo 0.0001328
Finding lo 0.0001328
? lo 0.0221809
home lo 0.0005313
than lo 0.0006641
taken lo 0.0001328
Guns lo 0.0001328
Eating lo 0.0001328
our lo 0.0013282
256 lo 0.0001328
for lo 0.0037190
Determination lo 0.0001328
Russians lo 0.0001328
shit lo 0.0001328
hands lo 0.0002656
Sugar lo 0.0002656
Wood lo 0.0001328
when lo 0.0019923
Russian lo 0.0002656
bullshit lo 0.0002656
Apples lo 0.0002656
Fishing lo 0.0001328
What lo 0.0019923
Monday lo 0.0003985
needless lo 0.0001328
noblemen lo 0.0001328
Bananas lo 0.0001328
French lo 0.0021251
space lo 0.0002656
Illness lo 0.0001328
Translation lo 0.0001328
who lo 0.0001328
Baseball lo 0.0001328
Dry lo 0.0001328
oranges lo 0.0003985
Where lo 0.0014610
more lo 0.0007969
Females lo 0.0001328
Bats lo 0.0001328
to lo 0.0344003
listening lo 0.0001328
wanted lo 0.0001328
Aardvarks lo 0.0002656
Bottles lo 0.0002656
Bread lo 0.0003985
Weather lo 0.0001328
Spanish lo 0.0002656
Jaded lo 0.0001328
Who lo 0.0003985
Physics lo 0.0001328
Cats lo 0.0019923
leaves lo 0.0005313
without lo 0.0003985
circuses lo 0.0001328
his lo 0.0138133
some lo 0.0047815
Man lo 0.0002656
phonetic lo 0.0001328
Real lo 0.0001328
NULL lo 0.1674857
chopsticks lo 0.0001328
music lo 0.0002656
tasty lo 0.0001328
Dancing lo 0.0002656
. lo 0.3183690
if lo 0.0013282
&apos;s lo 0.0017267
God lo 0.0013282
Flour lo 0.0002656
Her lo 0.0009297
April lo 0.0001328
Time lo 0.0002656
Practice lo 0.0001328
pearls lo 0.0002656
Someone lo 0.0001328
that lo 0.0002656
Pastafarians lo 0.0001328
Fewer lo 0.0002656
An lo 0.0005313
Fall lo 0.0001328
The lo 0.0395803
Formerly lo 0.0001328
China lo 0.0001328
Cherry lo 0.0001328
her lo 0.0021251
Young lo 0.0001328
the lo 0.1453048
Italian lo 0.0001328
history lo 0.0002656
Gasoline lo 0.0001328
accept lo 0.0001328
Old lo 0.0002656
ceased lo 0.0001328
butter lo 0.0001328
One lo 0.0005313
Winter lo 0.0001328
Pizza lo 0.0001328
into lo 0.0022579
Rats lo 0.0001328
spring lo 0.0003985
Music lo 0.0001328
Five lo 0.0001328
quick lo 0.0001328
with lo 0.0005313
Hope lo 0.0002656
Nature lo 0.0001328
Whales lo 0.0002656
Beetroot lo 0.0001328
Slow lo 0.0001328
Both lo 0.0003985
Tea lo 0.0001328
an lo 0.0059769
Math lo 0.0001328
airplane lo 0.0001328
A lo 0.0079692
like lo 0.0001328
Cows lo 0.0001328
His lo 0.0022579
Life lo 0.0003985
Although lo 0.0001328
Drinking lo 0.0005313
Grandma lo 0.0001328
telephone lo 0.0002656
beans lo 0.0001328
As lo 0.0002656
Soccer lo 0.0003985
Aluminum lo 0.0001328
a lo 0.0791606
Every lo 0.0002656
He lo 0.0007969
Patience lo 0.0001328
in lo 0.0081020
25 lo 0.0001328
Trying lo 0.0001328
Pieces lo 0.0001328
Arabic lo 0.0002656
tobacco lo 0.0003985
Skateboarding lo 0.0001328
what lo 0.0050472
Esperanto lo 0.0003985
Water lo 0.0001328
Rhinoceros lo 0.0001328
Death lo 0.0001328
Mom lo 0.0001328
Those lo 0.0007969
School lo 0.0002656
Potential lo 0.0001328
confetti lo 0.0002656
Bees lo 0.0001328
Pessimists lo 0.0001328
watch lo 0.0003985
strawberries lo 0.0001328
books lo 0.0003985
Money lo 0.0005313
Speaking lo 0.0001328
It lo 0.0009297
trips lo 0.0002656
Our lo 0.0002656
To lo 0.0011954
Not lo 0.0002656
they lo 0.0010626
Enough lo 0.0002656
your lo 0.0181963
any lo 0.0006641
Cockroaches lo 0.0001328
by lo 0.0002656
Portugal lo 0.0001328
out lo 0.0002656
rice lo 0.0001328
More lo 0.0003985
Paper lo 0.0001328
eat lo 0.0001328
Dogs lo 0.0002656
air lo 0.0001328
Maybe lo 0.0001328
observed lo 0.0001328
Beauty lo 0.0001328
Children lo 0.0003985
computers lo 0.0002656
BIG lo 0.0001328
globalisation lo 0.0001328
Horses lo 0.0002656
Seen lo 0.0001328
electrical lo 0.0001328
of lo 0.0029220
Dayxa lo 0.0001328
Hawks lo 0.0001328
Latin lo 0.0001328
instance lo 0.0001328
exportable lo 0.0001328
All lo 0.0015938
people lo 0.0021251
Curiosity lo 0.0002656
Coming lo 0.0001328
Forty-eight lo 0.0002656
Marriage lo 0.0001328
Crows lo 0.0001328
above lo 0.0002656
bake lo 0.0002656
Human lo 0.0001328
Fish lo 0.0001328
Sentences lo 0.0003985
Half lo 0.0001328
somewhere lo 0.0005313
Little lo 0.0002656
Buffalo lo 0.0001328
Language lo 0.0001328
Policemen lo 0.0001328
This lo 0.0050472
Whose lo 0.0007969
Lawyers lo 0.0005313
Japanese lo 0.0001328
Gold lo 0.0003985
Parallel lo 0.0001328
My lo 0.0171337
today lo 0.0001328
Love lo 0.0001328
Rice lo 0.0001328
pens lo 0.0001328
Taro lo 0.0001328
Oranges lo 0.0001328
Nonon lo 0.0001328
Meat lo 0.0001328
Today lo 0.0013282
Computers lo 0.0001328
Colorless lo 0.0002656
English lo 0.0047815
Father lo 0.0001328
That lo 0.0034533
Dinner lo 0.0001328
on lo 0.0005313
Words lo 0.0005313
didn na’e 0.2500000
not na’e 0.2500000
’ na’e 0.2500000
t na’e 0.2500000
as fange 0.0454545
foreigner fange 0.0454545
were fange 0.0454545
foreign fange 0.2272727
languages fange 0.0909091
who fange 0.0454545
guests fange 0.0454545
&apos;t fange 0.0909091
foreigners fange 0.0454545
He fange 0.0454545
doesn fange 0.0454545
Foreigners fange 0.0454545
know fange 0.0454545
unidentified fange 0.0909091
Traveling fange 0.0454545
256 re 0.0068966
smaller re 0.0068966
of re 0.0275862
second re 0.0068966
two re 0.5379310
Tuesday re 0.0068966
25 re 0.0206897
holes re 0.0068966
blew re 0.0068966
both re 0.0482759
NULL re 0.0551724
12 re 0.0137931
eight-thirty re 0.0068966
other re 0.0137931
Two re 0.0413793
2 re 0.0827586
Both re 0.0344828
half re 0.0551724
twice re 0.0068966
twenty re 0.0068966
pronounce re 0.0068966
a mabru 0.1111111
them mabru 0.1111111
expect mabru 0.1111111
mammals mabru 0.2222222
mammal mabru 0.1111111
Mammal mabru 0.1111111
be mabru 0.1111111
to mabru 0.1111111
Venezuela benesuel 1.0000000
revived bajeri'a 0.5000000
after bajeri'a 0.5000000
boil febvi 0.2000000
point febvi 0.2000000
boiling febvi 0.2000000
Boiling febvi 0.2000000
is febvi 0.2000000
pound brityrupnu 0.3333333
was brityrupnu 0.3333333
A brityrupnu 0.3333333
Lumpur kualalumpur 0.5000000
Kuala kualalumpur 0.5000000
to nalgundei 0.1428571
expectations nalgundei 0.1428571
vacation nalgundei 0.1428571
&apos;t nalgundei 0.1428571
up nalgundei 0.1428571
come nalgundei 0.1428571
didn nalgundei 0.1428571
I [pu 1.0000000
cannot batci 0.1000000
bite batci 0.3000000
anymore batci 0.1000000
me batci 0.1000000
in batci 0.1000000
fingernails batci 0.1000000
bites batci 0.1000000
bit batci 0.1000000
as labno 0.1000000
of labno 0.1000000
younger labno 0.1000000
wolves labno 0.2000000
sign labno 0.1000000
they labno 0.1000000
wolf labno 0.2000000
began labno 0.1000000
flat plita 1.0000000
and bazigi 0.1250000
of bazigi 0.1250000
out bazigi 0.1250000
sight bazigi 0.1250000
soon bazigi 0.1250000
was bazigi 0.1250000
left bazigi 0.1250000
train bazigi 0.1250000
computer skami 0.8636364
Computers skami 0.0227273
does skami 0.0227273
computers skami 0.0681818
Computer skami 0.0227273
Cicero kikeron 0.5000000
Tully kikeron 0.5000000
Zirconium jinmrzirkoni 1.0000000
work briju 0.3333333
office briju 0.5000000
factory briju 0.0555556
secretary briju 0.1111111
South ketytu'a 0.5000000
America ketytu'a 0.5000000
Persian kulnr,farsi 1.0000000
in xano 0.1428571
sixty xano 0.1428571
There xano 0.1428571
minute xano 0.1428571
a xano 0.1428571
seconds xano 0.1428571
are xano 0.1428571
you jaginai 0.2857143
can jaginai 0.1428571
are jaginai 0.1428571
If jaginai 0.4285714
when me'au 0.1428571
it me'au 0.1428571
have me'au 0.1428571
something me'au 0.1428571
said me'au 0.1428571
originally me'au 0.1428571
happened me'au 0.1428571
scholarly nunfanva 0.1666667
at nunfanva 0.1666667
Translation nunfanva 0.1666667
discipline nunfanva 0.1666667
exercises nunfanva 0.1666667
translation nunfanva 0.1666667
Lots le'e 0.1250000
users le'e 0.1250000
The le'e 0.1250000
do le'e 0.1250000
Teenagers le'e 0.1250000
Americans le'e 0.1250000
Teenage le'e 0.1250000
aimed le'e 0.1250000
February relma'i 1.0000000
talks meg 0.2000000
Meg meg 0.4000000
looks meg 0.2000000
just meg 0.2000000
pass nagi'a 0.1250000
the nagi'a 0.1250000
who nagi'a 0.2500000
ones nagi'a 0.1250000
are nagi'a 0.1250000
only nagi'a 0.1250000
students nagi'a 0.1250000
! nik 0.1666667
hurried nik 0.1666667
Nick nik 0.5000000
his nik 0.1666667
Laurie Laurie 1.0000000
bug samcfi 0.5000000
or samcfi 0.5000000
Ecuador ekuador 1.0000000
Davis deivis 0.5000000
Mr deivis 0.5000000
Link Link 0.3333333
the Link 0.3333333
mends Link 0.3333333
the influ,enzas 0.3333333
catch influ,enzas 0.3333333
flu influ,enzas 0.3333333
swollen punli 0.3333333
a punli 0.3333333
little punli 0.3333333
scream cmoni 0.1538462
going cmoni 0.1538462
hems cmoni 0.0769231
&apos;m cmoni 0.1538462
to cmoni 0.2307692
neighing cmoni 0.0769231
hedge-pig cmoni 0.0769231
bark cmoni 0.0769231
US 2011 0.2000000
till 2011 0.2000000
2011 2011 0.2000000
from 2011 0.2000000
2008 2011 0.2000000
Have pacna 0.0270270
dies pacna 0.0810811
she pacna 0.0540541
dream pacna 0.0270270
for pacna 0.0540541
becoming pacna 0.0270270
hoping pacna 0.0270270
hopes pacna 0.0270270
Dream pacna 0.0270270
needed pacna 0.0270270
hoped pacna 0.1891892
hope pacna 0.4324324
he xokaidon 0.1666667
year xokaidon 0.1666667
in xokaidon 0.1666667
Was xokaidon 0.1666667
Hokkaido xokaidon 0.1666667
last xokaidon 0.1666667
the zgitigni 0.3333333
concert zgitigni 0.3333333
at zgitigni 0.3333333
think sangu'e 0.2000000
Spain sangu'e 0.4000000
I sangu'e 0.2000000
, sangu'e 0.2000000
great du'o 0.1111111
&apos;s du'o 0.1111111
According du'o 0.1111111
that du'o 0.1111111
! du'o 0.1111111
Data du'o 0.1111111
Under du'o 0.1111111
think du'o 0.1111111
Christianity du'o 0.1111111
and pavo 0.1111111
primes pavo 0.1111111
exactly pavo 0.0555556
10 pavo 0.1111111
two pavo 0.1111111
are pavo 0.1111111
14 pavo 0.1111111
between pavo 0.1111111
There pavo 0.1111111
only pavo 0.0555556
silver rijno 0.7142857
a rijno 0.1428571
Silver rijno 0.1428571
from ru 0.1428571
about ru 0.1428571
away ru 0.1428571
anybody ru 0.1428571
there ru 0.1428571
it ru 0.2857143
making xamgau 0.2500000
fun xamgau 0.2500000
joke xamgau 0.2500000
of xamgau 0.2500000
United ritygu'e 0.3333333
Kingdom ritygu'e 0.3333333
Britain ritygu'e 0.3333333
Jesus iesos 1.0000000
a ckafrspreso 0.3333333
have ckafrspreso 0.3333333
maker ckafrspreso 0.3333333
is ca'a 0.1875000
which ca'a 0.0625000
in ca'a 0.1875000
online ca'a 0.0625000
snowing ca'a 0.1250000
shock ca'a 0.0625000
one ca'a 0.0625000
NULL ca'a 0.0625000
am ca'a 0.0625000
&apos;m ca'a 0.0625000
dream ca'a 0.0625000
Mongolia mongolo 1.0000000
Maize zumri 0.2000000
Corn zumri 0.2000000
... zumri 0.4000000
ah zumri 0.2000000
and kalri 0.1111111
Open kalri 0.1111111
open kalri 0.3333333
up kalri 0.1111111
opened kalri 0.2222222
opening kalri 0.1111111
Happy miuri'el 0.2000000
, miuri'el 0.2000000
Muiriel miuri'el 0.4000000
birthday miuri'el 0.2000000
cannibal vo'a 0.0109890
busies vo'a 0.0109890
astronaut vo'a 0.0109890
yawning vo'a 0.0109890
bag vo'a 0.0109890
Dad vo'a 0.0109890
tooth vo'a 0.0109890
father vo'a 0.0109890
feeds vo'a 0.0109890
toy vo'a 0.0109890
hates vo'a 0.0109890
pigs vo'a 0.0109890
ears vo'a 0.0109890
myself vo'a 0.0219780
earth vo'a 0.0109890
home vo'a 0.0219780
fed vo'a 0.0109890
breast-pocket vo'a 0.0109890
choice vo'a 0.0109890
itself vo'a 0.0549451
their vo'a 0.0329670
his vo'a 0.1538462
brother vo'a 0.0219780
NULL vo'a 0.1978022
herself vo'a 0.0439560
nipples vo'a 0.0109890
themselves vo'a 0.0109890
invitation vo'a 0.0109890
thinks vo'a 0.0109890
him vo'a 0.0219780
craft vo'a 0.0109890
he vo'a 0.0549451
own vo'a 0.0109890
hid vo'a 0.0109890
her vo'a 0.0879121
zoo vo'a 0.0109890
of vo'a 0.0109890
come eidai 0.2000000
You eidai 0.2000000
should eidai 0.2000000
must eidai 0.2000000
month eidai 0.2000000
about brito 0.1250000
life brito 0.1250000
Britain brito 0.1250000
school brito 0.1250000
surrender brito 0.1250000
hear brito 0.1250000
English brito 0.1250000
in brito 0.1250000
relatively terselmlu 1.0000000
life lepu'u 0.2500000
To lepu'u 0.2500000
to lepu'u 0.2500000
love lepu'u 0.2500000
XXX by.XXX.by 0.5000000
say by.XXX.by 0.5000000
leg tuple 0.3333333
are tuple 0.0666667
legs tuple 0.6000000
Indonesia bidgu'e 1.0000000
been xauaiis 0.3333333
Hawaii xauaiis 0.3333333
to xauaiis 0.3333333
speaking ogauas 0.2500000
. ogauas 0.2500000
is ogauas 0.2500000
Ogawa ogauas 0.2500000
Serbia serbias 1.0000000
an Steve 0.2500000
Steve Steve 0.2500000
American Steve 0.2500000
is Steve 0.2500000
which ke'a 0.0227273
white ke'a 0.0113636
Allan ke'a 0.0113636
version ke'a 0.0113636
Vulcan ke'a 0.0454545
whose ke'a 0.0340909
grandfather ke'a 0.0113636
plastic ke'a 0.0113636
herself ke'a 0.0227273
shot ke'a 0.0340909
going ke'a 0.0113636
actually ke'a 0.0113636
NULL ke'a 0.1931818
failed ke'a 0.0227273
guy ke'a 0.0113636
looking ke'a 0.0227273
respects ke'a 0.0909091
sets ke'a 0.0227273
dreaming ke'a 0.0113636
aced ke'a 0.0227273
to ke'a 0.0340909
Dumpty ke'a 0.0227273
busies ke'a 0.0113636
Tea ke'a 0.0113636
read ke'a 0.0454545
examples ke'a 0.0113636
built ke'a 0.0227273
put ke'a 0.0227273
red ke'a 0.0113636
passed ke'a 0.0227273
whom ke'a 0.0113636
anywhere ke'a 0.0113636
smarter ke'a 0.0227273
folly ke'a 0.0113636
do ke'a 0.0227273
who ke'a 0.0454545
overhead ke'a 0.0113636
play ke'a 0.0113636
once kafke 0.1666667
have kafke 0.1666667
coughed kafke 0.1666667
Someone kafke 0.1666667
a kafke 0.1666667
cough kafke 0.1666667
me ta'a 0.2857143
tell ta'a 0.0714286
someone ta'a 0.0714286
Excuse ta'a 0.2142857
but ta'a 0.0714286
, ta'a 0.1428571
could ta'a 0.0714286
where ta'a 0.0714286
thanked ckire 0.0172414
you ckire 0.0517241
in ckire 0.1034483
thank-you ckire 0.0172414
thanks ckire 0.0344828
Thanks ckire 0.1206897
NULL ckire 0.0172414
advance ckire 0.0689655
for ckire 0.2758621
thankful ckire 0.0344828
Thank ckire 0.1724138
&apos;m ckire 0.0172414
am ckire 0.0172414
grateful ckire 0.0344828
thank ckire 0.0172414
Maltese bangrmalti 0.5000000
language bangrmalti 0.5000000
home lazyzda 1.0000000
won jinga 0.0535714
winning jinga 0.0178571
defeat jinga 0.0535714
amount jinga 0.0178571
Very jinga 0.0178571
. jinga 0.3035714
and jinga 0.0178571
wins jinga 0.0357143
NULL jinga 0.0178571
win jinga 0.1964286
defeated jinga 0.0714286
can jinga 0.0178571
Checkmate jinga 0.0357143
sizeable jinga 0.0178571
triumphs jinga 0.0178571
beat jinga 0.0178571
will jinga 0.0178571
! jinga 0.0178571
lottery jinga 0.0178571
lost jinga 0.0357143
Windows98.png File:Windows98.png 0.3333333
File File:Windows98.png 0.3333333
: File:Windows98.png 0.3333333
It nau'u 1.0000000
Sweden sferies 1.0000000
southwest nanstici 0.2500000
the nanstici 0.2500000
from nanstici 0.2500000
blowing nanstici 0.2500000
show zganygau 1.0000000
, naja 0.1428571
do naja 0.1428571
fear naja 0.1428571
death naja 0.1428571
not naja 0.1428571
but naja 0.1428571
dying naja 0.1428571
He fo'a 0.2500000
and fo'a 0.2500000
hems fo'a 0.2500000
haws fo'a 0.2500000
arrival nu 0.0007047
change nu 0.0021142
who nu 0.0028189
heard nu 0.0014094
affects nu 0.0007047
writing nu 0.0007047
climbing nu 0.0014094
being nu 0.0063425
to nu 0.2995067
curse nu 0.0007047
Because nu 0.0007047
whole nu 0.0007047
try nu 0.0035236
approach nu 0.0007047
doesn nu 0.0007047
farts nu 0.0007047
can nu 0.0021142
meeting nu 0.0028189
pheasant nu 0.0007047
necessary nu 0.0007047
programming nu 0.0007047
standing nu 0.0014094
Castro nu 0.0014094
without nu 0.0021142
impact nu 0.0007047
dies nu 0.0014094
Painting nu 0.0007047
Before nu 0.0007047
some nu 0.0007047
NULL nu 0.2064834
allow nu 0.0021142
activity nu 0.0007047
light nu 0.0007047
stages nu 0.0007047
handspring nu 0.0007047
using nu 0.0007047
Dancing nu 0.0014094
lose nu 0.0007047
if nu 0.0070472
avoided nu 0.0014094
wish nu 0.0035236
games nu 0.0028189
intense nu 0.0007047
sting nu 0.0007047
collecting nu 0.0007047
anonymous nu 0.0007047
better nu 0.0042283
guide nu 0.0007047
help nu 0.0007047
that nu 0.0401691
experiment nu 0.0007047
ride nu 0.0014094
shines nu 0.0007047
therefore nu 0.0007047
because nu 0.0126850
success nu 0.0014094
trick nu 0.0007047
could nu 0.0007047
time nu 0.0007047
motivated nu 0.0007047
her nu 0.0007047
interrupted nu 0.0007047
probably nu 0.0014094
watching nu 0.0021142
jogging nu 0.0007047
down nu 0.0014094
mystery nu 0.0007047
swim nu 0.0028189
bath nu 0.0014094
plays nu 0.0007047
walk nu 0.0007047
arriving nu 0.0007047
you nu 0.0035236
it nu 0.0049331
Being nu 0.0021142
upside nu 0.0007047
multitasking nu 0.0007047
Learning nu 0.0007047
hoping nu 0.0007047
relaxing nu 0.0014094
send nu 0.0007047
fishing nu 0.0007047
businessman nu 0.0007047
date nu 0.0007047
kiss nu 0.0021142
afford nu 0.0007047
cared nu 0.0007047
invention nu 0.0007047
took nu 0.0007047
galxe nu 0.0007047
well nu 0.0021142
joy nu 0.0007047
murders nu 0.0007047
worst nu 0.0007047
early nu 0.0007047
tell nu 0.0007047
about nu 0.0021142
leave nu 0.0007047
high nu 0.0007047
revise nu 0.0007047
fly nu 0.0007047
There nu 0.0014094
succeed nu 0.0007047
powers nu 0.0007047
pain nu 0.0007047
studying nu 0.0035236
prove nu 0.0021142
succeeding nu 0.0007047
case nu 0.0007047
dream nu 0.0021142
rudeness nu 0.0014094
Marcus nu 0.0007047
Jaani nu 0.0007047
bedroom nu 0.0007047
Waiting nu 0.0007047
Shopping nu 0.0007047
must nu 0.0042283
Unless nu 0.0007047
lengthy nu 0.0007047
translating nu 0.0007047
after nu 0.0028189
let nu 0.0042283
taken nu 0.0007047
interrogation nu 0.0007047
Eating nu 0.0007047
Finding nu 0.0007047
for nu 0.0218464
work nu 0.0007047
wanting nu 0.0014094
Seeing nu 0.0014094
saplings nu 0.0007047
pay nu 0.0007047
cook nu 0.0007047
when nu 0.0288936
sleeping nu 0.0014094
leaving nu 0.0028189
complaints nu 0.0007047
wine nu 0.0007047
information nu 0.0007047
rinse nu 0.0007047
needed nu 0.0007047
he nu 0.0084567
share nu 0.0007047
comprehend nu 0.0007047
know nu 0.0021142
art nu 0.0007047
halt nu 0.0014094
had nu 0.0042283
discussion nu 0.0014094
run nu 0.0014094
strong nu 0.0007047
running nu 0.0007047
clearly nu 0.0007047
decisions nu 0.0007047
memories nu 0.0007047
clean nu 0.0007047
Prevention nu 0.0007047
heating nu 0.0007047
thought nu 0.0028189
long nu 0.0014094
traffic nu 0.0007047
discovering nu 0.0007047
shout nu 0.0007047
asking nu 0.0007047
If nu 0.0049331
so nu 0.0021142
death nu 0.0021142
shouting nu 0.0007047
contribute nu 0.0021142
exhausting nu 0.0007047
melting nu 0.0007047
air nu 0.0007047
drive nu 0.0007047
astronaut nu 0.0007047
hopes nu 0.0007047
sore nu 0.0007047
between nu 0.0007047
silence nu 0.0014094
oneself nu 0.0007047
tame nu 0.0007047
distance nu 0.0007047
celebrate nu 0.0007047
raise nu 0.0007047
divorce nu 0.0007047
of nu 0.0021142
houses nu 0.0007047
detailed nu 0.0007047
eating nu 0.0021142
drumming nu 0.0007047
well-knownness nu 0.0007047
make nu 0.0007047
memory nu 0.0014094
destruction nu 0.0007047
cleaned nu 0.0007047
Curiosity nu 0.0007047
translate nu 0.0007047
return nu 0.0014094
stopped nu 0.0014094
requires nu 0.0007047
robbery nu 0.0007047
Lock nu 0.0007047
stronger nu 0.0007047
Coming nu 0.0007047
war nu 0.0021142
future nu 0.0014094
while nu 0.0084567
permanent nu 0.0014094
skills nu 0.0007047
poorly nu 0.0007047
correctly nu 0.0007047
something nu 0.0007047
foot nu 0.0007047
sees nu 0.0007047
President nu 0.0007047
saw nu 0.0007047
somewhere nu 0.0007047
online nu 0.0007047
party nu 0.0014094
glad nu 0.0042283
progress nu 0.0007047
permission nu 0.0028189
go nu 0.0007047
follow nu 0.0007047
concert nu 0.0007047
accepting nu 0.0007047
speeches nu 0.0007047
Necessity nu 0.0007047
should nu 0.0007047
travelling nu 0.0007047
voyage nu 0.0007047
Love nu 0.0014094
Their nu 0.0007047
stop nu 0.0014094
point nu 0.0014094
scream nu 0.0021142
does nu 0.0014094
pool nu 0.0007047
be nu 0.0007047
learning nu 0.0021142
someone nu 0.0007047
footsteps nu 0.0007047
possible nu 0.0007047
prevented nu 0.0007047
dancing nu 0.0021142
initial nu 0.0007047
see nu 0.0035236
discussing nu 0.0007047
temporary nu 0.0007047
game nu 0.0014094
presence nu 0.0007047
lock nu 0.0007047
before nu 0.0049331
Music nu 0.0007047
hide nu 0.0007047
performance nu 0.0007047
Bridge nu 0.0007047
bugging nu 0.0007047
extent nu 0.0007047
beauty nu 0.0007047
persuade nu 0.0014094
guess nu 0.0007047
forgotten nu 0.0007047
whenever nu 0.0014094
Believe nu 0.0007047
chess nu 0.0007047
drinking nu 0.0028189
trust nu 0.0007047
finished nu 0.0014094
lucky nu 0.0007047
replies nu 0.0007047
fogey nu 0.0007047
Drinking nu 0.0014094
made nu 0.0028189
irony nu 0.0007047
Life nu 0.0014094
write nu 0.0007047
smoking nu 0.0007047
invitation nu 0.0028189
Starcraft nu 0.0007047
Trying nu 0.0007047
presidential nu 0.0007047
adjustments nu 0.0007047
childhood nu 0.0007047
seeing nu 0.0021142
offending nu 0.0007047
Skateboarding nu 0.0007047
what nu 0.0056378
risk nu 0.0007047
falling nu 0.0007047
gunshot nu 0.0007047
traveling nu 0.0014094
snacking nu 0.0007047
believing nu 0.0021142
happiness nu 0.0007047
first nu 0.0007047
War nu 0.0007047
wasn nu 0.0007047
greeting nu 0.0007047
ignorance nu 0.0007047
vegetables nu 0.0007047
reason nu 0.0007047
is nu 0.0007047
peace nu 0.0028189
hereby nu 0.0007047
trips nu 0.0007047
washing-up nu 0.0007047
preventing nu 0.0007047
will nu 0.0021142
until nu 0.0049331
Clarke nu 0.0007047
Enough nu 0.0007047
Not nu 0.0007047
Valsi nu 0.0007047
When nu 0.0035236
they nu 0.0021142
hook genxu 1.0000000
hiding vobmipri 0.4545455
&apos;s vobmipri 0.1818182
They vobmipri 0.0909091
He vobmipri 0.0909091
&apos;re vobmipri 0.0909091
She vobmipri 0.0909091
conquer trubasti 1.0000000
let e'anmo 1.0000000
rods grana 0.4000000
stick grana 0.1000000
processed grana 0.1000000
and grana 0.2000000
melting grana 0.1000000
cane grana 0.1000000
adjacent lamji 0.0666667
next lamji 0.3333333
door lamji 0.2000000
last lamji 0.0666667
to lamji 0.2666667
person lamji 0.0666667
fresh norvifne 0.5000000
not norvifne 0.5000000
rights selcru 0.1250000
hardware selcru 0.1250000
available selcru 0.1250000
here selcru 0.1250000
required selcru 0.1250000
list selcru 0.1250000
of selcru 0.1250000
A selcru 0.1250000
NULL selsanga 0.2500000
about selsanga 0.2500000
songs selsanga 0.2500000
song selsanga 0.2500000
each ficysi'u 0.1666667
from ficysi'u 0.1666667
other ficysi'u 0.1666667
taste ficysi'u 0.1666667
distinct ficysi'u 0.1666667
in ficysi'u 0.1666667
want po'edji 0.5000000
a po'edji 0.5000000
Kyoto la.kioton 0.4285714
in la.kioton 0.5714286
Ahmad axmed 0.3333333
name axmed 0.3333333
is axmed 0.3333333
difficulties zgagau 0.3333333
what zgagau 0.3333333
show zgagau 0.3333333
file sfaile 1.0000000
turn seldji 1.0000000
has pujeca 0.2000000
robber pujeca 0.2000000
solved pujeca 0.2000000
still pujeca 0.2000000
been pujeca 0.2000000
notice notci 0.1666667
texted notci 0.1666667
message notci 0.3333333
note notci 0.1666667
thank-you notci 0.1666667
bits djaspi 0.5000000
are djaspi 0.5000000
week prulamji 1.0000000
wisdom prije 0.0555556
wise prije 0.2222222
NULL prije 0.0555556
so prije 0.1666667
thinks prije 0.1111111
as prije 0.1666667
he prije 0.1666667
not prije 0.0555556
&apos;m nintadni 0.2500000
a nintadni 0.2500000
beginner nintadni 0.2500000
in nintadni 0.2500000
Neptunium jinmrneptuni 1.0000000
Oradea oradeas 1.0000000
who jetyja'o 0.2000000
the jetyja'o 0.2000000
murderer jetyja'o 0.2000000
prove jetyja'o 0.2000000
is jetyja'o 0.2000000
some titla 0.0666667
Sweet titla 0.0666667
sweet titla 0.6000000
NULL titla 0.0666667
candy titla 0.0666667
dreams titla 0.0666667
have titla 0.0666667
different datsi'u 0.5000000
are datsi'u 0.5000000
and gice'o 0.6666667
conquer gice'o 0.3333333
is la.uan 0.2857143
Wang la.uan 0.2857143
Mr la.uan 0.1428571
from la.uan 0.1428571
Mr. la.uan 0.1428571
for cidjrsatsuma 0.5000000
dessert cidjrsatsuma 0.5000000
some vanju 0.0714286
cider vanju 0.0714286
wine vanju 0.7142857
wines vanju 0.0714286
, vanju 0.0714286
A cribe 0.2222222
Bear cribe 0.0555556
bear cribe 0.5000000
a cribe 0.0555556
anymore cribe 0.0555556
bears cribe 0.1111111
NULL fancu 0.1250000
Function fancu 0.1250000
mathematics fancu 0.1250000
decay fancu 0.1250000
function fancu 0.1250000
cessation fancu 0.1250000
( fancu 0.1250000
) fancu 0.1250000
common tcesmisi'u 0.2500000
in tcesmisi'u 0.2500000
much tcesmisi'u 0.2500000
had tcesmisi'u 0.2500000
is mokau 0.0869565
it mokau 0.0869565
easiest mokau 0.0434783
throw mokau 0.0434783
what mokau 0.0869565
kind mokau 0.1739130
was mokau 0.0434783
he mokau 0.0434783
NULL mokau 0.0434783
of mokau 0.1304348
are mokau 0.0869565
ain mokau 0.0869565
am mokau 0.0434783
it zu'ucu'i 0.1666667
points zu'ucu'i 0.1666667
of zu'ucu'i 0.1666667
From zu'ucu'i 0.1666667
both zu'ucu'i 0.1666667
view zu'ucu'i 0.1666667
some zmudu'a 0.3333333
more zmudu'a 0.3333333
me zmudu'a 0.3333333
for nunda'a 0.5000000
battle nunda'a 0.5000000
reading lisxracku 0.2500000
always lisxracku 0.2500000
comics lisxracku 0.2500000
&apos;s lisxracku 0.2500000
screams kentykis 0.5000000
Kentucky kentykis 0.5000000
thick rotsu 1.0000000
eldest tolci'orai 0.3333333
is tolci'orai 0.3333333
the tolci'orai 0.3333333
Berkelium jinmrberkeli 1.0000000
together lu'o 0.2500000
the lu'o 0.2500000
hunting lu'o 0.2500000
other lu'o 0.2500000
important vajmau 0.2500000
than vajmau 0.2500000
intelligence vajmau 0.2500000
more vajmau 0.2500000
of mujyfa'o 0.5000000
end mujyfa'o 0.5000000
prohibited tolselcurmi 1.0000000
with norsau 0.5000000
familiar norsau 0.5000000
spicy crovu'i 1.0000000
backed ti'a 0.2000000
behind ti'a 0.8000000
by jvinu 0.1111111
spectacular jvinu 0.1111111
the jvinu 0.2222222
sight jvinu 0.1111111
from jvinu 0.1111111
view jvinu 0.2222222
a jvinu 0.1111111
Nice cecla 0.2000000
! cecla 0.2000000
shoot cecla 0.2000000
Cannon cecla 0.2000000
shot cecla 0.2000000
! birje 0.0400000
Beer birje 0.0800000
beer birje 0.8000000
got birje 0.0400000
&apos;ve birje 0.0400000
David deivid.pekinpas 0.5000000
Peckinpah deivid.pekinpas 0.5000000
on jursa 0.2000000
his jursa 0.2000000
expression jursa 0.2000000
harsh jursa 0.2000000
face jursa 0.2000000
in jenmi 0.2500000
the jenmi 0.2500000
&apos;m jenmi 0.2500000
army jenmi 0.2500000
Libya libgu'e 1.0000000
time krefu 0.1250000
first krefu 0.1250000
NULL krefu 0.1250000
! krefu 0.1250000
again krefu 0.3750000
that krefu 0.1250000
Pinocchio gy.Pinocchio.gy 0.3333333
: gy.Pinocchio.gy 0.3333333
says gy.Pinocchio.gy 0.3333333
closes ze 0.0500000
17 ze 0.0500000
store ze 0.0500000
7 ze 0.2000000
Jump ze 0.0500000
at ze 0.0500000
NULL ze 0.0500000
seven ze 0.5000000
didn u'unai 0.5000000
&apos;t u'unai 0.5000000
picture larxra 1.0000000
Android gy.Android.gy 0.5000000
device gy.Android.gy 0.5000000
animals iseni'inai 1.0000000
Moscow moskovas 1.0000000
shock jenca 0.1111111
&apos;re jenca 0.1111111
&apos;s jenca 0.1111111
shocked jenca 0.1111111
situation jenca 0.1111111
a jenca 0.1111111
NULL jenca 0.1111111
shocking jenca 0.1111111
almost jenca 0.1111111
Curitiba kuritcibas 1.0000000
be sorbaucre 0.3333333
polyglot sorbaucre 0.3333333
a sorbaucre 0.3333333
Sarkozy sarkozis 1.0000000
experienced tolci'o 0.0526316
in tolci'o 0.0526316
an tolci'o 0.1052632
tiredness tolci'o 0.0526316
old tolci'o 0.5789474
An tolci'o 0.1052632
fogey tolci'o 0.0526316
Arsenic arseniko 1.0000000
Lingua nalseljunbau 0.5000000
Ignota nalseljunbau 0.5000000
enchiladas enchiladas 1.0000000
Hi co'oi 0.5000000
George co'oi 0.5000000
was fudzi 0.1428571
Mt fudzi 0.1428571
with fudzi 0.1428571
. fudzi 0.1428571
covered fudzi 0.1428571
Fuji fudzi 0.2857143
did gajanai 0.1000000
NULL gajanai 0.1000000
&quot; gajanai 0.2000000
If gajanai 0.6000000
broccoli rulstani 1.0000000
a xalbo 0.1000000
joking xalbo 0.3000000
of xalbo 0.1000000
it xalbo 0.1000000
way xalbo 0.1000000
joke xalbo 0.1000000
by xalbo 0.1000000
Xalbo xalbo 0.1000000
Luc luk.besyn 0.5000000
Besson luk.besyn 0.5000000
back volve 0.3809524
while volve 0.0476190
soon volve 0.1428571
is volve 0.0476190
in volve 0.0476190
be volve 0.2380952
&apos;ll volve 0.0476190
return volve 0.0476190
help djudji 0.3333333
cry djudji 0.3333333
for djudji 0.3333333
vacuum kunti 0.1250000
unless kunti 0.2500000
, kunti 0.2500000
empty kunti 0.3750000
told minde 0.3333333
commanding minde 0.0555556
dismiss minde 0.0555556
were minde 0.1666667
tells minde 0.0555556
command minde 0.1666667
tell minde 0.0555556
commanded minde 0.0555556
NULL minde 0.0555556
liquids litki 1.0000000
to la.okinauan 0.3333333
Okinawa la.okinauan 0.3333333
been la.okinauan 0.3333333
doubt zernalfu'e 0.1111111
&apos;re zernalfu'e 0.1111111
, zernalfu'e 0.1111111
innocence zernalfu'e 0.1111111
innocent zernalfu'e 0.3333333
was zernalfu'e 0.1111111
that zernalfu'e 0.1111111
&apos;ll selsaubi'o 0.3333333
used selsaubi'o 0.3333333
get selsaubi'o 0.3333333
NULL jdini 0.0149254
does jdini 0.0149254
money jdini 0.7761194
Money jdini 0.0597015
cost jdini 0.0149254
is jdini 0.0149254
it jdini 0.0298507
much jdini 0.0298507
wallet jdini 0.0149254
financial jdini 0.0149254
any jdini 0.0149254
Toshio la.toci,on 0.3333333
does la.toci,on 0.3333333
Who la.toci,on 0.3333333
in jufpau 0.5000000
phrase jufpau 0.5000000
be mroxadni 0.2500000
body mroxadni 0.2500000
dead mroxadni 0.2500000
a mroxadni 0.2500000
any ma'urni'u 0.2500000
with ma'urni'u 0.2500000
woman ma'urni'u 0.2500000
kissed ma'urni'u 0.2500000
university balcu'e 0.3750000
a balcu'e 0.2500000
is balcu'e 0.1250000
He balcu'e 0.1250000
Plymouth balcu'e 0.1250000
changes nuncenba 0.2500000
in nuncenba 0.2500000
to nuncenba 0.2500000
temperature nuncenba 0.2500000
than lankyboiterjvi 0.5000000
basketball lankyboiterjvi 0.5000000
ten 10 0.3333333
minutes 10 0.3333333
fast 10 0.3333333
exponential cibjgacmaci 1.0000000
Tom la.tam 0.7500000
speaks la.tam 0.1250000
shorter la.tam 0.1250000
the mu'ima 0.0625000
to mu'ima 0.0625000
is mu'ima 0.0625000
? mu'ima 0.2500000
Why mu'ima 0.2500000
motivation mu'ima 0.0625000
What mu'ima 0.0625000
these mu'ima 0.0625000
for mu'ima 0.0625000
are mu'ima 0.0625000
the di'e 0.1666667
sentence di'e 0.1666667
false di'e 0.1666667
following di'e 0.1666667
express di'e 0.1666667
next di'e 0.1666667
ate selcti 1.0000000
studies banzuxe'o 0.2000000
as banzuxe'o 0.2000000
well banzuxe'o 0.4000000
Chinese banzuxe'o 0.2000000
for seldei 0.5000000
river seldei 0.5000000
right-handed prityxanpre 0.3333333
is prityxanpre 0.1111111
&apos;m prityxanpre 0.1111111
am prityxanpre 0.1111111
. prityxanpre 0.3333333
Where bu'u 0.0403226
in bu'u 0.3467742
crossroad bu'u 0.0080645
shone bu'u 0.0080645
Oxford bu'u 0.0080645
trout bu'u 0.0080645
sleeps bu'u 0.0080645
&apos;m bu'u 0.0080645
somewhere bu'u 0.0241935
at bu'u 0.2177419
play bu'u 0.0080645
work bu'u 0.0080645
whistling bu'u 0.0080645
Far bu'u 0.0080645
this bu'u 0.0080645
At bu'u 0.0080645
where bu'u 0.0080645
stayed bu'u 0.0080645
owner bu'u 0.0080645
Gotham bu'u 0.0161290
works bu'u 0.0241935
outside bu'u 0.0080645
laid bu'u 0.0080645
studying bu'u 0.0161290
twinkling bu'u 0.0080645
tree bu'u 0.0080645
Kazan bu'u 0.0080645
earthquake bu'u 0.0080645
In bu'u 0.0322581
the bu'u 0.0080645
prophet bu'u 0.0080645
blocked bu'u 0.0080645
died bu'u 0.0080645
restaurant bu'u 0.0080645
on bu'u 0.0403226
NULL bu'u 0.0241935
Juliet bu'u 0.0080645
when skot 0.1666667
her skot 0.3333333
Scott skot 0.1666667
resumed skot 0.1666667
career skot 0.1666667
scared blutu'u 0.3333333
practicing blutu'u 0.3333333
herself blutu'u 0.3333333
Where gusta 0.0416667
restaurant gusta 0.7083333
is gusta 0.0833333
there gusta 0.0416667
restaurants gusta 0.0416667
a gusta 0.0833333
visit nunpe'i 0.1000000
next nunpe'i 0.1000000
During nunpe'i 0.1000000
you nunpe'i 0.1000000
time nunpe'i 0.1000000
meeting nunpe'i 0.2000000
was nunpe'i 0.1000000
will nunpe'i 0.1000000
posted nunpe'i 0.1000000
&apos;s tam 0.0486486
is tam 0.0324324
looked tam 0.0162162
with tam 0.0054054
Tom tam 0.8756757
for tam 0.0054054
says tam 0.0054054
residence tam 0.0054054
wouldn tam 0.0054054
Countless du'e 0.0454545
quit du'e 0.0454545
! du'e 0.0454545
&apos;s du'e 0.0454545
much du'e 0.0909091
too du'e 0.3636364
many du'e 0.1363636
needy du'e 0.0454545
Too du'e 0.0454545
expensive du'e 0.1363636
Sliders sliders 1.0000000
parents rirni 0.6250000
NULL rirni 0.0250000
Parent rirni 0.0250000
my rirni 0.0250000
My rirni 0.0500000
by rirni 0.0250000
lot rirni 0.0250000
raised rirni 0.0250000
Your rirni 0.0250000
have rirni 0.0250000
&apos; rirni 0.0750000
their rirni 0.0250000
his rirni 0.0250000
IBM ibubymys 1.0000000
to amerikas 0.5000000
America amerikas 0.5000000
mean skudji 0.5000000
Robert skudji 0.5000000
done nunselnandu 0.2000000
ever nunselnandu 0.2000000
&apos;ve nunselnandu 0.2000000
thing nunselnandu 0.2000000
hardest nunselnandu 0.2000000
Count kancu 0.5000000
from kancu 0.5000000
trip xabju 0.0069444
live xabju 0.3125000
in xabju 0.3055556
Richmonder xabju 0.0138889
resided xabju 0.0069444
inhabits xabju 0.0069444
lives xabju 0.1111111
own xabju 0.0069444
UT xabju 0.0069444
staying xabju 0.0138889
Quezon xabju 0.0069444
from xabju 0.0277778
Kyoto xabju 0.0069444
remote xabju 0.0069444
where xabju 0.0069444
near xabju 0.0069444
Korea xabju 0.0069444
NULL xabju 0.0347222
living xabju 0.0069444
inhabitants xabju 0.0069444
lived xabju 0.0902778
stale tolvifne 0.5000000
hard tolvifne 0.5000000
s selpe'o 0.0769231
lovers selpe'o 0.0769231
have selpe'o 0.2307692
lover selpe'o 0.1538462
( selpe'o 0.1538462
a selpe'o 0.1538462
) selpe'o 0.1538462
Sam e'unai 0.0769231
not e'unai 0.1538462
Proceed e'unai 0.0769231
It e'unai 0.0769231
. e'unai 0.0769231
&apos;s e'unai 0.0769231
Forget e'unai 0.0769231
them e'unai 0.0769231
advise e'unai 0.0769231
NULL e'unai 0.1538462
I e'unai 0.0769231
cows звати 1.0000000
virtuous vrude 0.1000000
are vrude 0.1000000
a vrude 0.1000000
They vrude 0.1000000
nice vrude 0.1000000
basically vrude 0.1000000
good vrude 0.2000000
man vrude 0.1000000
is vrude 0.1000000
on mipyzga 0.1428571
is mipyzga 0.1428571
that mipyzga 0.1428571
spying mipyzga 0.1428571
me mipyzga 0.2857143
someone mipyzga 0.1428571
Walrus odbenu 1.0000000
000 panoki'o 0.5000000
10 panoki'o 0.5000000
shades gradu 0.2000000
SI gradu 0.2000000
many gradu 0.2000000
are gradu 0.2000000
of gradu 0.2000000
go basti 0.0769231
&apos;t basti 0.0769231
substitute basti 0.0769231
in basti 0.0769231
replacing basti 0.0769231
&apos;s basti 0.0769231
trains basti 0.1538462
place basti 0.0769231
my basti 0.0769231
moving basti 0.0769231
don basti 0.0769231
NULL basti 0.0769231
the sorpeka 0.2000000
catch sorpeka 0.2000000
bus sorpeka 0.6000000
to u.01.u 0.5000000
Unicode u.01.u 0.5000000
Africa nanfi'ogu'e 0.5000000
South nanfi'ogu'e 0.5000000
ugh selplicru 0.1111111
, selplicru 0.1111111
permitted selplicru 0.1111111
Yay selplicru 0.1111111
use selplicru 0.1111111
but selplicru 0.1111111
caffeine selplicru 0.1111111
for selplicru 0.2222222
Descartes dekart 0.5000000
are dekart 0.5000000
fall critu 0.2500000
Fall critu 0.2500000
autumn critu 0.5000000
Antarctic tuks 0.2500000
is tuks 0.2500000
Tux tuks 0.2500000
an tuks 0.2500000
the jaigau 0.3333333
preserve jaigau 0.1666667
should jaigau 0.1666667
beauties jaigau 0.1666667
of jaigau 0.1666667
Pakistan pAkistan 1.0000000
poet terpemci 1.0000000
are ti'e 0.0256410
NULL ti'e 0.0256410
I ti'e 0.1794872
heard ti'e 0.0512821
They ti'e 0.1282051
classes ti'e 0.0256410
hear ti'e 0.1282051
said ti'e 0.0512821
It ti'e 0.0512821
that ti'e 0.2307692
say ti'e 0.1025641
collar karli 0.3333333
necklace karli 0.3333333
belt karli 0.3333333
Kazakhstan kazaksTAN 1.0000000
shore minli 0.3333333
miles minli 0.3333333
mile minli 0.3333333
be torsku 0.1666667
Professors torsku 0.1666667
explain torsku 0.1666667
should torsku 0.1666667
everything torsku 0.1666667
succinct torsku 0.1666667
Indeed ia 0.0454545
that ia 0.0909091
Hmm ia 0.0454545
&apos;s ia 0.0909091
think ia 0.1363636
... ia 0.0454545
I ia 0.3181818
believe ia 0.1818182
owner ia 0.0454545
She speni 0.0303030
is speni 0.0151515
married speni 0.3333333
wife speni 0.2424242
marrying speni 0.0151515
His speni 0.0151515
NULL speni 0.0303030
unmarried speni 0.0151515
spouses speni 0.0151515
spouse speni 0.0757576
husband speni 0.0303030
My speni 0.0151515
relationship speni 0.0151515
marry speni 0.1212121
&apos;m speni 0.0303030
She ko'e 0.0212766
death ko'e 0.0212766
lips ko'e 0.0212766
to ko'e 0.1063830
drunk ko'e 0.0212766
present ko'e 0.0212766
why ko'e 0.0212766
NULL ko'e 0.0851064
difficulty ko'e 0.0212766
arrival ko'e 0.0212766
. ko'e 0.0851064
shoulders ko'e 0.0212766
hid ko'e 0.0212766
study ko'e 0.0212766
sight ko'e 0.0212766
him ko'e 0.2127660
of ko'e 0.0425532
forget ko'e 0.0212766
tall ko'e 0.0212766
jealous ko'e 0.0212766
putting ko'e 0.0212766
her ko'e 0.1063830
claim ko'e 0.0212766
orange narju 0.4000000
be narju 0.2000000
to narju 0.2000000
my narju 0.2000000
was mrori'i 0.5000000
funeral mrori'i 0.5000000
One zdadei 0.5000000
day zdadei 0.5000000
Saturday tedycte 0.3333333
night tedycte 0.3333333
! tedycte 0.3333333
meet ninpe'i 0.5000000
to ninpe'i 0.5000000
outdoors roldzadijbartu 1.0000000
filled clugau 0.5000000
made clugau 0.5000000
&apos;t kamfe'u 0.2500000
my kamfe'u 0.2500000
control kamfe'u 0.2500000
couldn kamfe'u 0.2500000
Saturday selta'i 0.3333333
exhausting selta'i 0.6666667
for cnemu 0.1111111
her cnemu 0.1111111
kindness cnemu 0.1111111
in cnemu 0.1111111
reward cnemu 0.2222222
nothing cnemu 0.1111111
She cnemu 0.1111111
got cnemu 0.1111111
affects tankyva'u 0.3333333
our tankyva'u 0.3333333
Smoking tankyva'u 0.3333333
! ge'orge 0.1428571
George ge'orge 0.1428571
going ge'orge 0.1428571
How ge'orge 0.1428571
it ge'orge 0.1428571
, ge'orge 0.1428571
&apos;s ge'orge 0.1428571
to baze'e 0.2500000
going baze'e 0.2500000
never baze'e 0.2500000
was baze'e 0.2500000
speech voksa 0.1250000
Slow voksa 0.1250000
voice voksa 0.2500000
characteristic voksa 0.1250000
of voksa 0.1250000
yours voksa 0.1250000
sounds voksa 0.1250000
helmet mapku 0.0714286
hat mapku 0.6428571
cap mapku 0.0714286
caps mapku 0.0714286
my mapku 0.0714286
do mapku 0.0714286
. u'usai 0.1111111
&apos;m u'usai 0.2222222
very u'usai 0.1111111
sorry u'usai 0.2222222
I u'usai 0.2222222
truly u'usai 0.1111111
vitamin mivytcuxu'i 0.1666667
Vitamin mivytcuxu'i 0.1666667
C mivytcuxu'i 0.1666667
B3 mivytcuxu'i 0.1666667
A mivytcuxu'i 0.3333333
case ganai 0.0384615
If ganai 0.6923077
medication ganai 0.0384615
if ganai 0.0769231
Call ganai 0.0384615
Love ganai 0.0384615
gave ganai 0.0384615
explodes ganai 0.0384615
been la.osakan 0.1428571
Osaka la.osakan 0.4285714
staying la.osakan 0.1428571
in la.osakan 0.2857143
Chen tcyn 0.5000000
is tcyn 0.5000000
19th 18xyxymoi 0.5000000
century 18xyxymoi 0.5000000
Logic logji 0.3333333
logical logji 0.6666667
&apos;s brauzero 0.2000000
browser brauzero 0.2000000
your brauzero 0.2000000
favorite brauzero 0.2000000
web brauzero 0.2000000
monkeys smani 0.1818182
kind smani 0.0909091
What smani 0.0909091
&apos;s smani 0.0909091
those smani 0.0909091
are smani 0.0909091
of smani 0.0909091
meat smani 0.0909091
monkey smani 0.1818182
gripping zu'u 0.0500000
the zu'u 0.2500000
On zu'u 0.2500000
other zu'u 0.1000000
hand zu'u 0.2500000
one zu'u 0.1000000
I ba'anai 0.3333333
yeah ba'anai 0.1666667
recall ba'anai 0.1666667
remember ba'anai 0.1666667
now ba'anai 0.1666667
waving fa 0.0087719
happen fa 0.0087719
trust fa 0.0087719
happiness fa 0.0087719
certain fa 0.0087719
passes fa 0.0087719
Compared fa 0.0087719
of fa 0.0087719
are fa 0.0175439
difficult fa 0.0350877
wrong fa 0.0087719
dream fa 0.0087719
hard fa 0.0087719
surprise fa 0.0087719
claws fa 0.0087719
necessary fa 0.0263158
matter fa 0.0087719
sat fa 0.0087719
sport fa 0.0087719
NULL fa 0.2017544
warm fa 0.0087719
Sarah fa 0.0087719
Enough fa 0.0087719
is fa 0.1578947
how fa 0.0087719
thing fa 0.0087719
economy fa 0.0087719
kids fa 0.0087719
hide fa 0.0087719
problems fa 0.0087719
comparison fa 0.0087719
avoided fa 0.0175439
labor fa 0.0087719
even fa 0.0087719
else fa 0.0087719
better fa 0.0087719
Obviously fa 0.0087719
life fa 0.0087719
impossible fa 0.0175439
&apos;s fa 0.0263158
require fa 0.0087719
do fa 0.0087719
Zurich fa 0.0087719
Foolish fa 0.0087719
true fa 0.0175439
worth fa 0.0438596
pictures fa 0.0087719
under fa 0.0087719
hungry fa 0.0087719
dreams fa 0.0087719
Yoda fa 0.0087719
guess fa 0.0087719
shopkeeper fa 0.0087719
Above fa 0.0087719
much fa 0.0087719
wicked fa 0.0087719
what fa 0.0175439
password fa 0.0087719
bicycle fa 0.0087719
partner kamxada 0.5000000
&apos;s kamxada 0.5000000
and ije 0.2500000
NULL ije 0.0178571
come ije 0.0178571
professors ije 0.0357143
dj ije 0.0178571
moo ije 0.0178571
; ije 0.0535714
but ije 0.0178571
it ije 0.0178571
others ije 0.0178571
, ije 0.3750000
sushi ije 0.0714286
happening ije 0.0357143
divine ije 0.0357143
everyone ije 0.0178571
understand ca 0.0016234
looked ca 0.0016234
am ca 0.0081169
&apos;m ca 0.0129870
at ca 0.0129870
Now ca 0.0048701
year ca 0.0016234
was ca 0.0016234
pillows ca 0.0016234
cared ca 0.0016234
snowing ca 0.0032468
whenever ca 0.0032468
woods ca 0.0016234
drunk ca 0.0016234
midday ca 0.0016234
eats ca 0.0032468
UFO ca 0.0016234
kicking ca 0.0016234
March ca 0.0016234
While ca 0.0016234
Liz ca 0.0032468
dream ca 0.0016234
working ca 0.0032468
Sunday ca 0.0032468
damned ca 0.0016234
studying ca 0.0113636
longer ca 0.0016234
tomorrow ca 0.0503247
During ca 0.0016234
As ca 0.0016234
goes ca 0.0016234
Khalifa ca 0.0016234
doing ca 0.0113636
bike ca 0.0016234
next ca 0.0032468
going ca 0.0016234
June ca 0.0016234
soldiers ca 0.0016234
summer ca 0.0016234
seems ca 0.0016234
lies ca 0.0016234
current ca 0.0032468
often ca 0.0032468
taking ca 0.0032468
work ca 0.0081169
Yoko ca 0.0016234
now ca 0.0649351
sleeps ca 0.0016234
Paris ca 0.0016234
afternoon ca 0.0064935
break ca 0.0032468
cookies ca 0.0032468
wears ca 0.0016234
salty ca 0.0016234
when ca 0.0633117
last ca 0.0129870
sister ca 0.0016234
Taral ca 0.0016234
mission ca 0.0016234
Mom ca 0.0016234
Cthulhu ca 0.0016234
are ca 0.0032468
I ca 0.0048701
up ca 0.0064935
running ca 0.0064935
will ca 0.0081169
It ca 0.0097403
is ca 0.0194805
When ca 0.0698052
engaged ca 0.0016234
morning ca 0.0129870
00 ca 0.0016234
rich ca 0.0016234
Bush ca 0.0016234
tonight ca 0.0113636
13 ca 0.0016234
change ca 0.0016234
paints ca 0.0016234
already ca 0.0032468
once ca 0.0032468
lying ca 0.0032468
shaving ca 0.0016234
If ca 0.0016234
night ca 0.0032468
whistling ca 0.0016234
cry ca 0.0032468
eat ca 0.0016234
someday ca 0.0016234
week ca 0.0016234
writing ca 0.0016234
has ca 0.0032468
1920 ca 0.0016234
Arafat ca 0.0016234
October ca 0.0016234
smiling ca 0.0016234
driven ca 0.0016234
fifteenth ca 0.0016234
postulate ca 0.0016234
mountains ca 0.0016234
drinks ca 0.0016234
Friday ca 0.0016234
asleep ca 0.0016234
boiling ca 0.0016234
men ca 0.0016234
yesterday ca 0.0681818
( ca 0.0016234
Tomorrow ca 0.0032468
25th ca 0.0016234
midnight ca 0.0016234
month ca 0.0016234
NULL ca 0.1428571
lose ca 0.0016234
during ca 0.0064935
, ca 0.0048701
buys ca 0.0016234
permanent ca 0.0016234
while ca 0.0178571
handspring ca 0.0016234
anytime ca 0.0016234
Dict ca 0.0016234
open ca 0.0016234
1977 ca 0.0016234
bird ca 0.0016234
beach ca 0.0016234
pubs ca 0.0016234
Someday ca 0.0032468
looking ca 0.0016234
alive ca 0.0032468
today ca 0.0746753
parking ca 0.0016234
day ca 0.0194805
ago ca 0.0016234
time ca 0.0178571
does ca 0.0032468
wet ca 0.0016234
Today ca 0.0048701
possible ca 0.0032468
someone ca 0.0048701
on ca 0.0016234
glasses ca 0.0016234
bath ca 0.0032468
trying ca 0.0016234
tea tcati 0.8510638
some tcati 0.0425532
teas tcati 0.0212766
; tcati 0.0212766
! tcati 0.0212766
Tea tcati 0.0425532
It tabno 0.2000000
Carbon tabno 0.2000000
&apos;s tabno 0.2000000
carbon tabno 0.4000000
wasting malxaksu 0.5000000
their malxaksu 0.5000000
impossible ju'onai 0.2500000
, ju'onai 0.2500000
which ju'onai 0.2500000
is ju'onai 0.2500000
&apos;s romi'a 0.5000000
Everyone romi'a 0.5000000
worried xanla 0.3333333
are xanla 0.3333333
about xanla 0.3333333
tied rinju 0.3333333
up rinju 0.3333333
until rinju 0.3333333
are xai 0.2500000
they xai 0.2500000
Both xai 0.2500000
aren xai 0.2500000
landed volkla 0.3333333
on volkla 0.3333333
a volkla 0.3333333
drowned jaurvasmro 0.6666667
in jaurvasmro 0.3333333
Can cticpe 1.0000000
suits pastu 0.0714286
suit pastu 0.0714286
dress pastu 0.5714286
dresses pastu 0.0714286
the pastu 0.0714286
with pastu 0.0714286
Nice pastu 0.0714286
pierced nazbi 0.1666667
Nose nazbi 0.0833333
nose nazbi 0.7500000
&apos;t inajanai 0.2500000
Klingon inajanai 0.2500000
, inajanai 0.2500000
won inajanai 0.2500000
a selctu 0.2500000
&apos;m selctu 0.2500000
not selctu 0.2500000
student selctu 0.2500000
have toltatpi 0.2000000
I. toltatpi 0.2000000
energy toltatpi 0.2000000
than toltatpi 0.2000000
more toltatpi 0.2000000
Prolog prolog 1.0000000
I ienaisai 0.1111111
at ienaisai 0.1111111
agree ienaisai 0.1111111
you ienaisai 0.1111111
do ienaisai 0.1111111
all ienaisai 0.1111111
with ienaisai 0.1111111
. ienaisai 0.1111111
not ienaisai 0.1111111
in Aachen 0.5000000
Aachen Aachen 0.5000000
bananas ki'ogra 0.1428571
kilos ki'ogra 0.1428571
more ki'ogra 0.1428571
of ki'ogra 0.1428571
me ki'ogra 0.1428571
kilo ki'ogra 0.1428571
than ki'ogra 0.1428571
Carbon tabrelkijno 0.5000000
dioxide tabrelkijno 0.5000000
fishing kalte 0.1000000
hunting kalte 0.1000000
likes kalte 0.1000000
hunters kalte 0.1000000
NULL kalte 0.1000000
hunter kalte 0.2000000
by kalte 0.1000000
stalked kalte 0.2000000
impersonated imposta 1.0000000
stream jai 0.0077519
understood jai 0.0077519
defend jai 0.0077519
go jai 0.0077519
break jai 0.0077519
late jai 0.0930233
feeds jai 0.0077519
Change jai 0.0077519
boring jai 0.0077519
Should jai 0.0077519
start jai 0.0232558
turn jai 0.0077519
crazies jai 0.0077519
, jai 0.0077519
frighten jai 0.0077519
25 jai 0.0077519
rational jai 0.0077519
fashionable jai 0.0077519
cause jai 0.0077519
age jai 0.0077519
Time jai 0.0077519
About jai 0.0077519
be jai 0.0232558
hurt jai 0.0077519
is jai 0.0077519
emotions jai 0.0077519
motivate jai 0.0077519
Lojban jai 0.0077519
possible jai 0.0077519
warn jai 0.0155039
happens jai 0.0077519
previously jai 0.0155039
meal jai 0.0077519
fix jai 0.0077519
ruin jai 0.0077519
tear jai 0.0155039
difficult jai 0.0232558
thief jai 0.0077519
starts jai 0.0077519
clumsy jai 0.0077519
fortune jai 0.0077519
was jai 0.0155039
cheap jai 0.0077519
were jai 0.0310078
Turn jai 0.0077519
early jai 0.0077519
allowed jai 0.0155039
fooled jai 0.0077519
likely jai 0.0077519
nice jai 0.0077519
Portugal jai 0.0077519
&apos;m jai 0.0077519
saying jai 0.0077519
bouquet jai 0.0155039
Leave jai 0.0077519
makes jai 0.0232558
easy jai 0.0077519
rage jai 0.0077519
doing jai 0.0232558
supposed jai 0.0077519
make jai 0.0155039
justified jai 0.0077519
stronger jai 0.0077519
a jai 0.0232558
NULL jai 0.1705426
month jai 0.0077519
stamps jai 0.0077519
opening jai 0.0077519
hard jai 0.0155039
obviously jai 0.0077519
project jai 0.0155039
Madrid jai 0.0077519
playthings jai 0.0077519
in gy.Auckland.gy 0.5000000
Auckland gy.Auckland.gy 0.5000000
NULL purmo 0.2000000
flour purmo 0.2000000
Flour purmo 0.2000000
from purmo 0.2000000
powder purmo 0.2000000
bad tolvu'e 0.1666667
He tolvu'e 0.1666667
is tolvu'e 0.1666667
boy tolvu'e 0.1666667
. tolvu'e 0.1666667
a tolvu'e 0.1666667
pretending selxarkei 0.2500000
was selxarkei 0.2500000
he selxarkei 0.2500000
just selxarkei 0.2500000
Africa friko 0.5000000
African friko 0.5000000
rabbit ractyrectu 0.2500000
meat ractyrectu 0.2500000
( ractyrectu 0.2500000
) ractyrectu 0.2500000
Trotsky trotskis 1.0000000
by xansli 0.2500000
waving xansli 0.2500000
hand xansli 0.2500000
his xansli 0.2500000
puppy cifyge'u 0.3333333
a cifyge'u 0.3333333
us cifyge'u 0.3333333
other zu'ai 0.2500000
in zu'ai 0.2500000
together zu'ai 0.2500000
love zu'ai 0.2500000
Yang ian 0.2500000
Yan ian 0.2500000
or ian 0.2500000
Ian ian 0.2500000
quite so'ida 0.2500000
lot so'ida 0.2500000
&apos;s so'ida 0.2500000
There so'ida 0.2500000
&quot; fy.Aix-la-Chapelle.fy 0.6666667
Aix-la-Chapelle fy.Aix-la-Chapelle.fy 0.3333333
They mo'ifli 0.5000000
We mo'ifli 0.5000000
house mulis 0.0625000
... mulis 0.0625000
pretending mulis 0.0625000
brought mulis 0.0625000
Mooli mulis 0.5000000
, mulis 0.1250000
&apos;s mulis 0.1250000
the cmana 0.1538462
Mountain cmana 0.0384615
hill cmana 0.0769231
mountain cmana 0.2692308
in cmana 0.0384615
NULL cmana 0.0769231
mountains cmana 0.2307692
necessarily cmana 0.0384615
each cmana 0.0384615
other cmana 0.0384615
they mikce 0.0116279
a mikce 0.3255814
Mortimer mikce 0.0116279
&apos;s mikce 0.0465116
see mikce 0.0348837
Doctor mikce 0.0232558
is mikce 0.0232558
Isn mikce 0.0116279
treating mikce 0.0116279
doctors mikce 0.0116279
knowing mikce 0.0116279
treatment mikce 0.0116279
doctor mikce 0.4651163
meet rakau 1.0000000
peanuts derdembi 1.0000000
the zei.kongos 0.2500000
Republic zei.kongos 0.2500000
Congo zei.kongos 0.2500000
of zei.kongos 0.2500000
world linkon 0.1250000
over linkon 0.1250000
read linkon 0.1250000
Lincoln linkon 0.1250000
all linkon 0.1250000
the linkon 0.1250000
by linkon 0.1250000
children linkon 0.1250000
are Gizmo 1.0000000
no ckiku 0.0384615
my ckiku 0.0769231
have ckiku 0.0384615
key ckiku 0.3846154
keys ckiku 0.3846154
left ckiku 0.0384615
idea ckiku 0.0384615
them na.anai 0.1428571
Either na.anai 0.1428571
of na.anai 0.1428571
or na.anai 0.1428571
, na.anai 0.2857143
neither na.anai 0.1428571
people bei 0.0400000
what bei 0.0400000
Latter-day bei 0.0400000
Socrates bei 0.0400000
Haskell bei 0.0400000
has bei 0.0400000
oil bei 0.0800000
other bei 0.0400000
and bei 0.0800000
pack bei 0.0400000
NULL bei 0.1600000
&apos;ve bei 0.0400000
elders bei 0.0400000
Delphi bei 0.0400000
no bei 0.0400000
Elves bei 0.0400000
evil bei 0.0400000
knowledge bei 0.0400000
sheds bei 0.0400000
care bei 0.0400000
bike relxilma'ekla 0.5000000
to relxilma'ekla 0.5000000
non-B Livgyterbilma 0.5000000
hepatitis Livgyterbilma 0.5000000
NULL mitsmu 1.0000000
inside nerkla 0.0740741
enter nerkla 0.0740741
entered nerkla 0.1111111
Keep nerkla 0.0740741
into nerkla 0.0740741
in nerkla 0.1111111
out nerkla 0.0740741
it nerkla 0.0370370
Go nerkla 0.0370370
now nerkla 0.0370370
not nerkla 0.0370370
must nerkla 0.0370370
go nerkla 0.0740741
NULL nerkla 0.0370370
going nerkla 0.0740741
on nerkla 0.0370370
blood ciblu 0.2500000
. ciblu 0.1666667
It ciblu 0.0833333
beet ciblu 0.0833333
our ciblu 0.0833333
&apos;re ciblu 0.1666667
bleeding ciblu 0.1666667
at nabo 0.3333333
look nabo 0.3333333
&apos;t nabo 0.3333333
your mu'ei 0.1250000
never mu'ei 0.1250000
husband mu'ei 0.1250000
wife mu'ei 0.1250000
would mu'ei 0.1250000
be mu'ei 0.1250000
NULL mu'ei 0.2500000
had berger 0.5000000
Berger berger 0.5000000
resentment skatygug 0.1428571
that skatygug 0.1428571
Well skatygug 0.1428571
&apos;s skatygug 0.1428571
unheard skatygug 0.1428571
Hatred skatygug 0.1428571
and skatygug 0.1428571
I iu 0.1724138
NULL iu 0.0689655
internet iu 0.0344828
you iu 0.1724138
to iu 0.0344828
Love iu 0.0689655
love iu 0.2758621
&apos;re iu 0.0344828
romantic iu 0.0344828
dad iu 0.0344828
. iu 0.0344828
mommy iu 0.0344828
This mi'e 0.0515464
Ichiro mi'e 0.0103093
Ricardo mi'e 0.0103093
My mi'e 0.1443299
Jon mi'e 0.0103093
Adam mi'e 0.0103093
Yamada mi'e 0.0103093
&apos;s mi'e 0.0103093
calling mi'e 0.0206186
Farshad mi'e 0.0206186
Ahmad mi'e 0.0103093
. mi'e 0.2680412
am mi'e 0.0206186
&apos;m mi'e 0.0515464
Lin mi'e 0.0103093
Hashimoto mi'e 0.0103093
Mike mi'e 0.0103093
is mi'e 0.0515464
John mi'e 0.0103093
Greene mi'e 0.0103093
Hase mi'e 0.0103093
It mi'e 0.0103093
Hisashi mi'e 0.0103093
Ivan mi'e 0.0103093
Nonong mi'e 0.0103093
Sara mi'e 0.0103093
loving mi'e 0.0103093
name mi'e 0.0309278
Nancy mi'e 0.0103093
I mi'e 0.1134021
Sasha mi'e 0.0103093
m mi'e 0.0103093
am tcaudjo'us 0.5000000
Teochew tcaudjo'us 0.5000000
a paso 0.2500000
seven paso 0.2500000
quarter paso 0.2500000
past paso 0.2500000
Fukushima fukucimas 0.3333333
to fukucimas 0.3333333
help fukucimas 0.3333333
once zilkancu 0.1666667
for zilkancu 0.1666667
NULL zilkancu 0.3333333
Jump zilkancu 0.1666667
each zilkancu 0.1666667
month seljibyfa'o 1.0000000
coffees ckafi 0.0208333
coffee ckafi 0.8958333
like ckafi 0.0208333
some ckafi 0.0208333
Coffee ckafi 0.0208333
! ckafi 0.0208333
Kittens gy.US 1.0000000
prefer nelzma 1.0000000
do panra 0.2500000
parallels panra 0.2500000
Parallel panra 0.2500000
lines panra 0.2500000
Neurodiversity benficysi'a 1.0000000
Indo-European xindo 0.2500000
an xindo 0.2500000
Indian xindo 0.5000000
Tully tulius 1.0000000
Fred Fred 1.0000000
Molybdenum mlibdena 1.0000000
hundreds tu 0.0384615
lemon tu 0.0384615
described tu 0.0384615
over tu 0.0384615
&apos;s tu 0.0769231
Who tu 0.0384615
NULL tu 0.0384615
Seine tu 0.0384615
almost tu 0.0384615
there tu 0.0384615
Feed tu 0.0384615
give tu 0.0384615
fuck tu 0.0384615
fountain tu 0.0384615
That tu 0.1923077
one tu 0.0384615
yonder tu 0.0384615
that tu 0.1538462
is reda 0.5000000
bilingual reda 0.5000000
Boston bastyn 0.3333333
in bastyn 0.1666667
isn bastyn 0.1666667
now bastyn 0.1666667
&apos;t bastyn 0.1666667
release zifygau 1.0000000
going uitki 0.1250000
explain uitki 0.1250000
on uitki 0.1250000
am uitki 0.1250000
wiki uitki 0.1250000
completely uitki 0.1250000
it uitki 0.1250000
to uitki 0.1250000
children panzi 0.3684211
have panzi 0.0526316
got panzi 0.0526316
kids panzi 0.1052632
any panzi 0.0526316
child panzi 0.2105263
Is panzi 0.0526316
Jacob panzi 0.1052632
Mr. gugde'usu 0.1428571
United gugde'usu 0.4285714
States gugde'usu 0.4285714
field foldi 0.2500000
be foldi 0.0833333
to foldi 0.0833333
those foldi 0.0833333
a foldi 0.1666667
used foldi 0.0833333
woods foldi 0.0833333
place foldi 0.0833333
from foldi 0.0833333
weight planyjdika 0.5000000
lose planyjdika 0.5000000
NULL soi 0.1111111
stories soi 0.0370370
right soi 0.0370370
and soi 0.0740741
such soi 0.0370370
hates soi 0.0370370
quite soi 0.0370370
commanding soi 0.0370370
knowing soi 0.0740741
for soi 0.0370370
me soi 0.0740741
stages soi 0.0370370
, soi 0.1851852
everyone soi 0.0740741
cares soi 0.0370370
&apos;ll soi 0.0370370
earth soi 0.0370370
to ta'e 0.0312500
classical ta'e 0.0312500
Sundays ta'e 0.0312500
Our ta'e 0.0312500
bike ta'e 0.0312500
drink ta'e 0.0625000
swim ta'e 0.0312500
tends ta'e 0.0625000
He ta'e 0.0937500
sometimes ta'e 0.0312500
NULL ta'e 0.0625000
habitually ta'e 0.1250000
used ta'e 0.0312500
helps ta'e 0.0312500
, ta'e 0.0312500
those ta'e 0.0312500
often ta'e 0.0312500
) ta'e 0.0312500
kind ta'e 0.0312500
does ta'e 0.0312500
heaven ta'e 0.0312500
changes ta'e 0.0312500
always ta'e 0.0625000
a blacykabri 0.1250000
of blacykabri 0.3750000
have blacykabri 0.1250000
glass blacykabri 0.3750000
Apparently bai 0.1000000
it bai 0.1000000
to bai 0.1000000
, bai 0.2000000
forced bai 0.1000000
am bai 0.1000000
upright bai 0.1000000
forcing bai 0.1000000
NULL bai 0.1000000
letters lerfyliste 0.3333333
of lerfyliste 0.3333333
list lerfyliste 0.3333333
has tordu 0.0500000
shorter tordu 0.1000000
&apos;s tordu 0.0500000
Short tordu 0.0500000
is tordu 0.0500000
with tordu 0.1000000
He tordu 0.0500000
short tordu 0.5000000
&apos;m tordu 0.0500000
&apos; plini 0.2000000
Planet plini 0.2000000
planet plini 0.6000000
should terbi'e 0.3333333
receive terbi'e 0.3333333
it terbi'e 0.3333333
a Lincoln.gy 0.5000000
Abraham Lincoln.gy 0.5000000
Smile sega'a 0.0909091
smiled sega'a 0.2727273
smiling sega'a 0.0909091
stood sega'a 0.0909091
at sega'a 0.4545455
shirt narpanra 0.1666667
stands narpanra 0.1666667
colorful narpanra 0.1666667
Your narpanra 0.1666667
out narpanra 0.1666667
really narpanra 0.1666667
here mrotolkakpa 0.5000000
buried mrotolkakpa 0.5000000
Ocean braxamsi 1.0000000
Integer mulna'u 0.0909091
positive mulna'u 0.3636364
integer mulna'u 0.5454545
The cidjrpitsa 0.2000000
word cidjrpitsa 0.2000000
cidjrpitsa cidjrpitsa 0.2000000
&quot; cidjrpitsa 0.4000000
Pardon nolni'u 0.2500000
lady nolni'u 0.2500000
noblewomen nolni'u 0.2500000
noblewoman nolni'u 0.2500000
? na'ipei 0.3333333
not na'ipei 0.3333333
Why na'ipei 0.3333333
. nonkansa 0.1940299
&apos;t nonkansa 0.0597015
is nonkansa 0.0298507
travelling nonkansa 0.0149254
anymore nonkansa 0.0597015
&apos;m nonkansa 0.0746269
isn nonkansa 0.0597015
lonely nonkansa 0.0746269
alone nonkansa 0.4029851
aren nonkansa 0.0298507
name xisacis 0.3333333
Hisashi xisacis 0.3333333
is xisacis 0.3333333
to dracybende 0.2500000
drama dracybende 0.2500000
club dracybende 0.2500000
belong dracybende 0.2500000
still flOridas 0.3333333
Florida flOridas 0.3333333
in flOridas 0.3333333
some preti 0.0212766
asked preti 0.1063830
Ask preti 0.0212766
the preti 0.0212766
good preti 0.0212766
mind preti 0.0212766
shopkeeper preti 0.0212766
a preti 0.0425532
NULL preti 0.0638298
ask preti 0.0851064
question preti 0.3617021
matter preti 0.0212766
Answer preti 0.0851064
in preti 0.0212766
&apos;s preti 0.0212766
questions preti 0.0425532
I preti 0.0212766
Men da'arsi'u 0.5000000
fight da'arsi'u 0.5000000
by gy.Visa.gy 0.5000000
Visa gy.Visa.gy 0.5000000
Bunyan banian 1.0000000
a jdali'u 0.2000000
am jdali'u 0.2000000
in jdali'u 0.2000000
on jdali'u 0.2000000
mission jdali'u 0.2000000
passion cinydjica 1.0000000
Yuelami Yuelami 1.0000000
most nunselpluka 0.1666667
thing nunselpluka 0.1666667
enjoyable nunselpluka 0.1666667
&apos;ve nunselpluka 0.1666667
ever nunselpluka 0.1666667
done nunselpluka 0.1666667
on pavdei 0.2500000
show pavdei 0.1250000
! pavdei 0.1250000
Monday pavdei 0.5000000
are la'aru'e 0.1428571
more la'aru'e 0.1428571
than la'aru'e 0.1428571
feelings la'aru'e 0.1428571
thoughts la'aru'e 0.1428571
Maybe la'aru'e 0.1428571
intense la'aru'e 0.1428571
London lundyn 0.3333333
here lundyn 0.3333333
from lundyn 0.3333333
My banzuni 0.5000000
fluency banzuni 0.5000000
guilty zerfu'e 0.5000000
&apos;re zerfu'e 0.5000000
his la.yLIzabet 0.5000000
Elizabeth la.yLIzabet 0.5000000
painted cintypu'i 0.6666667
paints cintypu'i 0.1666667
paint cintypu'i 0.1666667
&apos;s rikardos 0.3333333
Ricardo rikardos 0.1666667
What rikardos 0.1666667
yours rikardos 0.1666667
name rikardos 0.1666667
skill te'irselstati 0.1666667
a te'irselstati 0.1666667
kind te'irselstati 0.1666667
Translation te'irselstati 0.1666667
of te'irselstati 0.1666667
special te'irselstati 0.1666667
concert tigzgi 0.3333333
lasted tigzgi 0.3333333
The tigzgi 0.3333333
Electrical dikca 1.0000000
Boil febgau 0.5000000
the febgau 0.2500000
some febgau 0.2500000
Perhaps ze'e 0.0400000
always ze'e 0.2800000
heart ze'e 0.0400000
travels ze'e 0.0400000
quiet ze'e 0.0400000
dig ze'e 0.0400000
NULL ze'e 0.0800000
&apos;ve ze'e 0.0400000
ever ze'e 0.0400000
intend ze'e 0.0400000
was ze'e 0.0800000
will ze'e 0.0400000
all ze'e 0.0400000
She ze'e 0.0800000
nomad ze'e 0.0400000
sea ze'e 0.0400000
Shakespeare bevrlis 1.0000000
wrote ciksa 1.0000000
feel tolnurcni 0.1666667
threatened tolnurcni 0.1666667
&apos;t tolnurcni 0.1666667
to tolnurcni 0.1666667
have tolnurcni 0.1666667
don tolnurcni 0.1666667
judges tertigni 0.2500000
complaints tertigni 0.2500000
audience tertigni 0.2500000
&apos;s tertigni 0.2500000
Ostrich strutione 1.0000000
Thallium jinmrtali 1.0000000
his jikfanza 0.3333333
rudeness jikfanza 0.3333333
bear jikfanza 0.3333333
&apos;t toljunri 0.2000000
Not toljunri 0.2000000
what toljunri 0.2000000
care toljunri 0.2000000
don toljunri 0.2000000
12 me'i 0.0769231
50,000 me'i 0.0769231
hour me'i 0.0769231
enough me'i 0.0769231
Less me'i 0.0769231
Fewer me'i 0.3076923
less me'i 0.0769231
than me'i 0.1538462
bit me'i 0.0769231
Atom ratni 0.5000000
? ratni 0.5000000
soot tarla 1.0000000
this bi'ucu'i 0.5000000
It bi'ucu'i 0.1666667
. bi'ucu'i 0.1666667
of bi'ucu'i 0.1666667
Olive alzaitu 1.0000000
rub termosygau 0.3333333
your termosygau 0.3333333
Never termosygau 0.3333333
along jarki 0.2500000
a jarki 0.2500000
narrow jarki 0.2500000
path jarki 0.2500000
paper aucu'i 1.0000000
on xaskoi 0.1666667
shore xaskoi 0.0833333
seaside xaskoi 0.0833333
is xaskoi 0.0833333
beach xaskoi 0.3333333
the xaskoi 0.2500000
at fe'u 1.0000000
Horses xasli 0.1666667
and xasli 0.1666667
donkeys xasli 0.3333333
are xasli 0.1666667
different xasli 0.1666667
turtles cakyrespa 0.5000000
. cakyrespa 0.5000000
letter to'a 0.1666667
a to'a 0.1666667
lower-case to'a 0.1666667
n to'a 0.1666667
&quot; to'a 0.3333333
Um ".i 0.2500000
? ".i 0.2500000
&quot; ".i 0.5000000
Enthalpy manri 1.0000000
in xalifas 0.1428571
is xalifas 0.1428571
currently xalifas 0.1428571
tallest xalifas 0.1428571
Khalifa xalifas 0.1428571
the xalifas 0.1428571
skyscraper xalifas 0.1428571
sleepy tatpi 0.0121951
&apos;re tatpi 0.0121951
tired tatpi 0.5975610
am tatpi 0.0121951
Aren tatpi 0.0243902
So tatpi 0.0121951
&apos;m tatpi 0.1585366
very tatpi 0.0121951
bookstore tatpi 0.0365854
she tatpi 0.0121951
of tatpi 0.0609756
exhausted tatpi 0.0121951
NULL tatpi 0.0121951
I tatpi 0.0243902
swimmer limne 0.2500000
I. limne 0.2500000
than limne 0.2500000
better limne 0.2500000
&apos;s xerbert 0.3333333
Herbert xerbert 0.3333333
daughters xerbert 0.3333333
they narviska'e 0.1428571
clearly narviska'e 0.1428571
happened narviska'e 0.1428571
because narviska'e 0.1428571
not narviska'e 0.1428571
see narviska'e 0.1428571
could narviska'e 0.1428571
Smile cisma 0.1250000
smile cisma 0.3750000
smiled cisma 0.3125000
smiling cisma 0.1875000
A krokodilo 0.3333333
Crocodiles krokodilo 0.1666667
have krokodilo 0.1666667
crocodile krokodilo 0.3333333
Mac ze'oi 0.3333333
have ze'oi 0.3333333
am ze'oi 0.3333333
only punaijeba 0.5000000
in punaijeba 0.5000000
is xuaKIN 0.5000000
Joaquín xuaKIN 0.5000000
Newton niut,n 1.0000000
of la'asai 0.1250000
postman la'asai 0.1250000
precipitation la'asai 0.1250000
a la'asai 0.1250000
It la'asai 0.1250000
high la'asai 0.1250000
chance la'asai 0.1250000
There la'asai 0.1250000
This i'unai 0.0714286
hotel i'unai 0.0714286
one i'unai 0.0714286
some i'unai 0.0714286
. i'unai 0.2142857
is i'unai 0.1428571
weird i'unai 0.0714286
of i'unai 0.0714286
also i'unai 0.0714286
know i'unai 0.0714286
I i'unai 0.0714286
negative dunku 0.5000000
enormous dunku 0.5000000
some sraku 0.3333333
cigarettes sraku 0.3333333
buy sraku 0.3333333
dearly loni 0.1000000
as loni 0.2000000
Love loni 0.1000000
am loni 0.1000000
your loni 0.2000000
grateful loni 0.1000000
NULL loni 0.1000000
parents loni 0.1000000
, sadyka'e 0.3333333
help sadyka'e 0.3333333
your sadyka'e 0.3333333
CEO kagytrujalju 0.5000000
of kagytrujalju 0.5000000
likely eksameno 0.1666667
exam eksameno 0.1666667
to eksameno 0.1666667
is eksameno 0.1666667
&apos;s eksameno 0.1666667
pass eksameno 0.1666667
is iciros.tanakas 0.2500000
Ichiro iciros.tanakas 0.2500000
name iciros.tanakas 0.2500000
Tanaka iciros.tanakas 0.2500000
Somebody fonjorne 0.0666667
call fonjorne 0.0666667
Call fonjorne 0.4000000
Someone fonjorne 0.0666667
called fonjorne 0.4000000
like peidzu 0.1111111
around peidzu 0.1111111
please peidzu 0.1111111
Would peidzu 0.1111111
you peidzu 0.1111111
just peidzu 0.1111111
stop peidzu 0.1111111
that peidzu 0.1111111
pacing peidzu 0.1111111
Saturn saturn 1.0000000
Gadolinium jinmrgadolini 1.0000000
very selzdifri 0.2000000
&apos;ll selzdifri 0.2000000
a selzdifri 0.2000000
spend selzdifri 0.1000000
pass selzdifri 0.1000000
fun selzdifri 0.2000000
song melselsa'a 0.3333333
a melselsa'a 0.3333333
beautiful melselsa'a 0.3333333
a sonci 0.2142857
are sonci 0.0714286
13th sonci 0.0714286
soldiers sonci 0.2142857
soldier sonci 0.2857143
The sonci 0.1428571
Almazán almaZAN 1.0000000
Slavery selbaise'u 1.0000000
Porsche porc 0.5000000
a porc 0.5000000
account facebook 0.3333333
my facebook 0.3333333
Facebook facebook 0.3333333
, selsne 0.1666667
epistemology selsne 0.1666667
clearly selsne 0.1666667
your selsne 0.1666667
dream selsne 0.1666667
of selsne 0.1666667
increased sicpi 0.3333333
rain sicpi 0.3333333
the sicpi 0.3333333
jaw xedja 0.2500000
a xedja 0.2500000
square xedja 0.2500000
has xedja 0.2500000
night bavlamcte 0.2500000
a bavlamcte 0.2500000
movie bavlamcte 0.2500000
tomorrow bavlamcte 0.2500000
English glipre 1.0000000
Lollipop zoi 0.0212766
Lucifera zoi 0.0212766
XXX zoi 0.0212766
equivalents zoi 0.0212766
Russell zoi 0.0425532
DeVito zoi 0.0851064
NNC zoi 0.0425532
bo zoi 0.0212766
mean zoi 0.0851064
&quot; zoi 0.0425532
http zoi 0.0212766
rlpowell zoi 0.0212766
PTA zoi 0.0212766
password zoi 0.0212766
Deutschland zoi 0.0212766
gerund zoi 0.0212766
Willis zoi 0.0851064
is zoi 0.0212766
precise zoi 0.0212766
Steve zoi 0.0212766
means zoi 0.0212766
kaisha zoi 0.1063830
underline zoi 0.0212766
Eyjafjallajökull zoi 0.0212766
Mathematica zoi 0.0851064
Akiko zoi 0.0425532
encoded zoi 0.0212766
string cinlysko 0.5000000
The cinlysko 0.5000000
ears kerlo 0.4117647
pierced kerlo 0.2352941
Ear kerlo 0.0588235
ear kerlo 0.1764706
two kerlo 0.1176471
for pifygau 0.1250000
prison pifygau 0.2500000
in pifygau 0.2500000
He pifygau 0.1250000
thrown pifygau 0.1250000
was pifygau 0.1250000
worlds drata 0.0166667
but drata 0.0166667
other drata 0.1833333
equal drata 0.0166667
NULL drata 0.1000000
otherwise drata 0.0166667
anything drata 0.0666667
engage drata 0.0166667
This drata 0.0333333
different drata 0.0500000
be drata 0.0166667
is drata 0.0166667
else drata 0.1333333
another drata 0.0833333
abroad drata 0.0833333
&apos;ll drata 0.0166667
any drata 0.0333333
taller drata 0.0166667
in drata 0.0166667
foreigner drata 0.0166667
something drata 0.0166667
things drata 0.0166667
an drata 0.0166667
painting cintyxra 0.5000000
a cintyxra 0.5000000
sport terai 0.5000000
favorite terai 0.5000000
of jmisre 0.2500000
misunderstood jmisre 0.2500000
a jmisre 0.2500000
misunderstanding jmisre 0.2500000
is dunra 0.3333333
winter dunra 0.1666667
coming dunra 0.1666667
Winter dunra 0.3333333
is cirla 0.1111111
like cirla 0.1111111
Cheese cirla 0.2222222
cheese cirla 0.5555556
NULL io 0.1111111
&apos;am io 0.1111111
your io 0.1111111
over io 0.1111111
Sir io 0.1111111
Now io 0.1111111
ass io 0.1111111
fair io 0.1111111
Get io 0.1111111
those taiku 0.2000000
Russians taiku 0.2000000
, taiku 0.2000000
! taiku 0.2000000
Ah taiku 0.2000000
am cfipu 0.0500000
confused cfipu 0.2500000
&apos;m cfipu 0.0500000
at cfipu 0.0500000
about cfipu 0.0500000
confusedly cfipu 0.0500000
NULL cfipu 0.1000000
buffalo cfipu 0.0500000
sense cfipu 0.0500000
when cfipu 0.0500000
makes cfipu 0.0500000
rather cfipu 0.0500000
all cfipu 0.0500000
puzzled cfipu 0.0500000
no cfipu 0.0500000
books munoki'o 0.1428571
than munoki'o 0.1428571
more munoki'o 0.1428571
are munoki'o 0.1428571
in munoki'o 0.1428571
50,000 munoki'o 0.1428571
There munoki'o 0.1428571
Where karcyckiku 0.2500000
keys karcyckiku 0.2500000
car karcyckiku 0.2500000
are karcyckiku 0.2500000
atoms metxani 0.2500000
methane metxani 0.2500000
does metxani 0.2500000
have metxani 0.2500000
is jifxu'a 0.5000000
wrong jifxu'a 0.5000000
, solvre 0.3333333
on solvre 0.3333333
sunbathe solvre 0.3333333
Luis xorxes.luis.borxes 0.3333333
Jorge xorxes.luis.borxes 0.3333333
Borges xorxes.luis.borxes 0.3333333
see visysanji 0.3333333
can visysanji 0.3333333
that visysanji 0.3333333
in dotygu'e 0.1000000
shares dotygu'e 0.1000000
made dotygu'e 0.1000000
Germany dotygu'e 0.6000000
was dotygu'e 0.1000000
great kamvli 0.2500000
NULL kamvli 0.5000000
power kamvli 0.2500000
height no'o 1.0000000
mountains faxixo'e 1.0000000
Kurt kurt.gedyl 0.5000000
Gödel kurt.gedyl 0.5000000
Brass lastu 1.0000000
Liechtenstein lictenctain 1.0000000
It fasnu 0.0144928
happening fasnu 0.0579710
what fasnu 0.0724638
Something fasnu 0.0434783
has fasnu 0.0144928
to fasnu 0.0144928
OK fasnu 0.0144928
event fasnu 0.0144928
about fasnu 0.0144928
That fasnu 0.0144928
next fasnu 0.0289855
going fasnu 0.0144928
NULL fasnu 0.0579710
happens fasnu 0.0869565
crime fasnu 0.0434783
last fasnu 0.0144928
on fasnu 0.0289855
Whatever fasnu 0.0434783
Revolutionary fasnu 0.0144928
ago fasnu 0.0144928
shall fasnu 0.0144928
things fasnu 0.0144928
scene fasnu 0.0144928
&apos;s fasnu 0.0434783
happened fasnu 0.2173913
funeral fasnu 0.0144928
Things fasnu 0.0144928
happen fasnu 0.0434783
secretive mipri 0.0500000
kept mipri 0.0250000
hiding mipri 0.0500000
a mipri 0.0250000
NULL mipri 0.0250000
keep mipri 0.0250000
not mipri 0.0250000
hidden mipri 0.0250000
She mipri 0.0250000
the mipri 0.0250000
secret mipri 0.1250000
would mipri 0.0250000
hide mipri 0.0500000
hides mipri 0.0500000
. mipri 0.2000000
disclose mipri 0.0250000
hid mipri 0.1000000
things mipri 0.0250000
it mipri 0.1000000
Kangaroo kanguru 1.0000000
Toyota toiotas 1.0000000
food no'ebo 0.5000000
lukewarm no'ebo 0.5000000
Let xa'e 0.5000000
&apos;s xa'e 0.5000000
one ca'aku 0.3333333
helps ca'aku 0.3333333
no ca'aku 0.3333333
are jitseldejykarda 0.3333333
credit jitseldejykarda 0.3333333
cards jitseldejykarda 0.3333333
&apos;s fetsi 0.0289855
queen fetsi 0.0144928
mare fetsi 0.0144928
wife fetsi 0.0144928
girlfriend fetsi 0.0579710
female fetsi 0.0434783
baked fetsi 0.0144928
became fetsi 0.0144928
her fetsi 0.0869565
knows fetsi 0.0144928
type fetsi 0.0144928
camel fetsi 0.0144928
dialed fetsi 0.0144928
Females fetsi 0.0144928
wore fetsi 0.0144928
She fetsi 0.4057971
return fetsi 0.0144928
His fetsi 0.0144928
Certainly fetsi 0.0144928
fifty fetsi 0.0144928
sent fetsi 0.0144928
doesn fetsi 0.0289855
NULL fetsi 0.0434783
admitted fetsi 0.0144928
she fetsi 0.0579710
&apos;t nalcumki 0.1666667
impossible nalcumki 0.1666667
It nalcumki 0.1666667
&apos;m nalcumki 0.1666667
incredibly nalcumki 0.1666667
can nalcumki 0.1666667
? farna 0.1875000
One farna 0.1875000
trip farna 0.2500000
way farna 0.3750000
used selzda 0.1000000
woods selzda 0.1000000
living selzda 0.1000000
&apos;ll selzda 0.1000000
get selzda 0.1000000
yourself selzda 0.2000000
to selzda 0.1000000
by selzda 0.2000000
sporks paltylumca'a 1.0000000
brandy vanjyjikru 0.5000000
to vanjyjikru 0.5000000
NULL derni'agau 1.0000000
Empire sosygugje'a 1.0000000
margarine spamatne 1.0000000
Russian banru'usu 0.1666667
in banru'usu 0.1666667
language banru'usu 0.1666667
liberty banru'usu 0.1666667
for banru'usu 0.1666667
the banru'usu 0.1666667
&apos;m zifre 0.0937500
can zifre 0.0625000
NULL zifre 0.2187500
freely zifre 0.0312500
anger zifre 0.0312500
liberty zifre 0.0312500
bring zifre 0.0312500
spare zifre 0.0312500
vacancies zifre 0.0312500
free zifre 0.2500000
be zifre 0.0312500
in zifre 0.0312500
we zifre 0.0312500
as zifre 0.0625000
, zifre 0.0312500
Botswana botsuanas 1.0000000
Aesthetics mleske 1.0000000
Sudan sudan 1.0000000
beverage xalka 0.0769231
to xalka 0.0769231
have xalka 0.2307692
Alcohol xalka 0.0769231
don xalka 0.0769231
liver xalka 0.0769231
alcohol xalka 0.1538462
slave xalka 0.0769231
at xalka 0.0769231
a xalka 0.0769231
Gumby gymbis 1.0000000
handwriting morna 0.3333333
NULL morna 0.3333333
Your morna 0.3333333
Khan xan 1.0000000
marriage nunspe 0.2222222
happiness nunspe 0.1111111
Marriage nunspe 0.1111111
Her nunspe 0.1111111
to nunspe 0.1111111
we nunspe 0.1111111
brought nunspe 0.1111111
married nunspe 0.1111111
to mulci 0.3333333
clean mulci 0.3333333
don mulci 0.3333333
to 01 0.3333333
NULL 01 0.3333333
Unicode 01 0.3333333
without ai.e'e 0.1428571
fail ai.e'e 0.1428571
I ai.e'e 0.1428571
do ai.e'e 0.1428571
that ai.e'e 0.1428571
&apos;ll ai.e'e 0.1428571
. ai.e'e 0.1428571
defend badgau 1.0000000
flower xrula 0.3846154
cauliflower xrula 0.0384615
flowers xrula 0.5384615
revived xrula 0.0384615
research nunli'u 0.5000000
purposes nunli'u 0.5000000
did mau 0.0909091
swords mau 0.0909091
than mau 0.2727273
more mau 0.3636364
jog mau 0.0909091
worked mau 0.0909091
bitter kurki 1.0000000
Clusivity ma'a 0.0175439
duty ma'a 0.0175439
of ma'a 0.0175439
our ma'a 0.0526316
ears ma'a 0.0175439
provide ma'a 0.0350877
us ma'a 0.0701754
thankful ma'a 0.0175439
approach ma'a 0.0175439
mammals ma'a 0.0175439
neighbors ma'a 0.0175439
We ma'a 0.4561404
have ma'a 0.0175439
we ma'a 0.1578947
Our ma'a 0.0175439
greed ma'a 0.0175439
argue ma'a 0.0175439
all ma'a 0.0175439
secret zilmipri 0.2500000
It zilmipri 0.2500000
isn zilmipri 0.2500000
a zilmipri 0.2500000
proposal selti'i 0.1250000
they selti'i 0.1250000
end selti'i 0.1250000
, selti'i 0.1250000
the selti'i 0.2500000
In selti'i 0.1250000
approved selti'i 0.1250000
just menli 0.0833333
what menli 0.0833333
NULL menli 0.0833333
Artificial menli 0.0833333
my menli 0.1666667
mind menli 0.3333333
clear menli 0.0833333
head menli 0.0833333
to zgatirna 0.6000000
listen zgatirna 0.2000000
After zgatirna 0.2000000
present ctufau 0.2000000
the ctufau 0.2000000
class ctufau 0.4000000
in ctufau 0.2000000
... suzyn.grin 0.1428571
&apos;m suzyn.grin 0.1428571
Greene suzyn.grin 0.2857143
are suzyn.grin 0.1428571
Susan suzyn.grin 0.2857143
to nagoias 0.5000000
Nagoya nagoias 0.5000000
sustainable daurbandu 1.0000000
favorite rairnei 0.5000000
actor rairnei 0.5000000
traditional toknyjukpa 0.5000000
bake toknyjukpa 0.5000000
Sato satos 0.5000000
&apos;m satos 0.5000000
Meliaceae spatrmeliace 1.0000000
just puziki 0.5000000
We puziki 0.1250000
She puziki 0.1250000
I puziki 0.1250000
He puziki 0.1250000
Skateboarding tumskiji 1.0000000
only balpre 0.5000000
heros balpre 0.2500000
heroes balpre 0.2500000
father po 0.0344828
NULL po 0.1034483
Kurosawa po 0.0344828
socks po 0.0344828
library po 0.0344828
shirt po 0.0344828
soul po 0.0344828
is po 0.0689655
Whose po 0.0344828
books po 0.0344828
money po 0.1034483
friend po 0.0689655
boss po 0.0344828
sack po 0.0689655
sits po 0.0344828
room po 0.0344828
toothbrush po 0.0344828
businessperson po 0.0344828
&apos;s po 0.0689655
business po 0.0344828
shoes po 0.0344828
than rajyclazma 0.2500000
his rajyclazma 0.2500000
taller rajyclazma 0.2500000
is rajyclazma 0.2500000
body cmima 0.0344828
army cmima 0.0344828
U.N. cmima 0.0689655
club cmima 0.0344828
&apos;s cmima 0.0689655
user cmima 0.0344828
users cmima 0.0344828
blood cmima 0.0689655
a cmima 0.1724138
&apos;m cmima 0.0689655
contain cmima 0.0689655
country cmima 0.0689655
NULL cmima 0.1034483
member cmima 0.1379310
11 papa 0.1666667
· papa 0.5000000
7 papa 0.1666667
2 papa 0.1666667
enables cumri'a 0.2500000
me cumri'a 0.2500000
enabled cumri'a 0.2500000
impact cumri'a 0.2500000
Elephant xanto 0.0833333
has xanto 0.0833333
elephants xanto 0.0833333
way xanto 0.0833333
blocking xanto 0.0833333
are xanto 0.0833333
An xanto 0.1666667
mice xanto 0.0833333
elephant xanto 0.1666667
my xanto 0.0833333
India indias 0.3333333
is indias 0.3333333
in indias 0.3333333
Colorless skacau 1.0000000
schooner blotrskunri 0.3333333
is blotrskunri 0.3333333
a blotrskunri 0.3333333
meaning gy.precise.gy 0.1428571
precise gy.precise.gy 0.2857143
the gy.precise.gy 0.1428571
&quot; gy.precise.gy 0.2857143
of gy.precise.gy 0.1428571
three pinxa 0.6666667
Take pinxa 0.3333333
author Principia 0.1428571
Mathematica Principia 0.2857143
only Principia 0.2857143
of Principia 0.1428571
Principia Principia 0.1428571
Chemical xukmi 0.5000000
chemistry xukmi 0.5000000
is soltolfa'u 0.1666667
it soltolfa'u 0.1666667
sunrise soltolfa'u 0.3333333
a soltolfa'u 0.3333333
not cupra 0.2000000
Products cupra 0.2000000
make cupra 0.2000000
NULL cupra 0.2000000
clicked cupra 0.2000000
Lake baikal 0.5000000
Baikal baikal 0.5000000
Frédéric frederik 1.0000000
, teris 0.2000000
Terry teris 0.8000000
Internet internet 0.3333333
is internet 0.3333333
The internet 0.3333333
living civla 0.3333333
fleas civla 0.3333333
on civla 0.3333333
IBM IBM 1.0000000
Arabia djogu'e 0.5000000
Saudi djogu'e 0.5000000
looked vaujebabo 0.5000000
and vaujebabo 0.5000000
Chrysler kraislr 0.3333333
a kraislr 0.3333333
is kraislr 0.3333333
&quot; pamei 0.3333333
member pamei 0.0833333
my pamei 0.0833333
set pamei 0.0833333
own pamei 0.0833333
with pamei 0.0833333
One pamei 0.0833333
one pamei 0.0833333
have pamei 0.0833333
Korea xanguk 0.5000000
South xanguk 0.5000000
that patpei 0.1428571
been patpei 0.1428571
so patpei 0.1428571
bothering patpei 0.1428571
much patpei 0.1428571
him patpei 0.1428571
has patpei 0.1428571
Berber imazixen 0.5000000
people imazixen 0.5000000
are lanjo 0.5000000
glasses lanjo 0.5000000
Sarah saras 0.5000000
sings saras 0.5000000
International sornai 1.0000000
costs rupnu 0.0769231
&apos;s rupnu 0.0769231
the rupnu 0.0769231
What rupnu 0.0769231
yen rupnu 0.0384615
bag rupnu 0.0384615
this rupnu 0.0769231
$ rupnu 0.0769231
money rupnu 0.0384615
dollars rupnu 0.0769231
bet rupnu 0.0384615
NULL rupnu 0.0769231
price rupnu 0.0769231
enough rupnu 0.0769231
of rupnu 0.0769231
CIA cy'ibu'abus 0.3333333
the cy'ibu'abus 0.3333333
for cy'ibu'abus 0.3333333
cloned fukpi 0.0769231
her fukpi 0.0769231
try fukpi 0.0769231
NULL fukpi 0.0769231
That fukpi 0.0769231
a fukpi 0.1538462
imitate fukpi 0.0769231
to fukpi 0.1538462
forgery fukpi 0.0769231
&apos;s fukpi 0.0769231
copy fukpi 0.0769231
turned pu 0.0022918
interrupted pu 0.0007639
hath pu 0.0007639
fixed pu 0.0007639
bought pu 0.0106952
football pu 0.0007639
could pu 0.0068755
did pu 0.0397250
clicked pu 0.0015279
crime pu 0.0022918
drew pu 0.0015279
caught pu 0.0015279
call pu 0.0007639
offered pu 0.0007639
used pu 0.0038197
wore pu 0.0045837
fucked pu 0.0007639
pushed pu 0.0015279
door pu 0.0007639
became pu 0.0045837
Was pu 0.0030558
lay pu 0.0007639
riot pu 0.0007639
having pu 0.0015279
wondered pu 0.0015279
attacked pu 0.0007639
says pu 0.0007639
built pu 0.0007639
weren pu 0.0007639
stayed pu 0.0030558
rescued pu 0.0007639
done pu 0.0007639
stepped pu 0.0022918
wounded pu 0.0007639
ex-wife pu 0.0007639
stood pu 0.0061115
baked pu 0.0015279
close pu 0.0007639
NULL pu 0.0389610
Wasn pu 0.0015279
went pu 0.0190985
demanded pu 0.0015279
kept pu 0.0015279
dreamed pu 0.0007639
waited pu 0.0045837
drove pu 0.0022918
heard pu 0.0030558
cried pu 0.0022918
ate pu 0.0168067
haven pu 0.0007639
invited pu 0.0007639
laughed pu 0.0022918
Uri pu 0.0007639
raised pu 0.0007639
already pu 0.0022918
filled pu 0.0022918
wanted pu 0.0183346
found pu 0.0053476
saved pu 0.0007639
neglected pu 0.0007639
lasted pu 0.0007639
week pu 0.0022918
strolled pu 0.0007639
to pu 0.0007639
showered pu 0.0007639
asked pu 0.0091673
managed pu 0.0007639
told pu 0.0106952
melted pu 0.0015279
always pu 0.0022918
flew pu 0.0007639
created pu 0.0015279
crossposted pu 0.0007639
needed pu 0.0015279
actually pu 0.0015279
had pu 0.0259740
started pu 0.0015279
continued pu 0.0015279
nearly pu 0.0007639
clouds pu 0.0007639
sick pu 0.0015279
kissed pu 0.0015279
smelled pu 0.0007639
bowed pu 0.0007639
moved pu 0.0045837
listened pu 0.0015279
said pu 0.0122231
committed pu 0.0007639
learned pu 0.0007639
fed pu 0.0007639
loved pu 0.0061115
arrived pu 0.0030558
shopkeeper pu 0.0007639
erased pu 0.0007639
camel pu 0.0007639
dialed pu 0.0007639
cook pu 0.0007639
Parker pu 0.0015279
painted pu 0.0015279
walked pu 0.0045837
impersonated pu 0.0015279
enabled pu 0.0007639
entertained pu 0.0007639
Frank pu 0.0007639
surprised pu 0.0038197
lied pu 0.0022918
sharpened pu 0.0007639
Long pu 0.0007639
She pu 0.0007639
giggled pu 0.0007639
hit pu 0.0015279
decided pu 0.0007639
stank pu 0.0007639
stole pu 0.0030558
elected pu 0.0007639
would pu 0.0007639
persuaded pu 0.0007639
looked pu 0.0068755
requested pu 0.0007639
helped pu 0.0030558
talked pu 0.0030558
drank pu 0.0038197
handed pu 0.0007639
cut pu 0.0022918
danced pu 0.0015279
needn pu 0.0007639
swam pu 0.0015279
took pu 0.0091673
rained pu 0.0015279
lost pu 0.0137510
Settlers pu 0.0007639
informed pu 0.0007639
implored pu 0.0007639
happened pu 0.0091673
fell pu 0.0038197
