zanfri leaders 0.2000000
banzuxe'o Chinese 0.0277778
banzuxe'o well 0.0350877
banzuxe'o as 0.0068027
gugyka'i demanded 0.2000000
gugyka'i ambassador 0.5000000
to'e is 0.0003654
to'e no 0.0062500
to'e piece 0.1000000
to'e moon 0.0714286
to'e away 0.0217391
to'e Despite 0.2500000
to'e &apos;t 0.0083857
to'e jogging 0.1666667
to'e calm 0.1000000
to'e haven 0.0526316
to'e Although 0.2500000
to'e quiet 0.0769231
to'e upset 0.1428571
to'e dirty 0.1764706
to'e boring 0.0769231
to'e off 0.0535714
to'e rid 0.1250000
to'e remorse 0.5000000
to'e electronic 0.5000000
to'e threat 0.2500000
to'e of 0.0007530
to'e lost 0.0140845
to'e don 0.0125786
to'e impossible 0.0454545
to'e ugly 0.1000000
to'e exactly 0.0454545
to'e NULL 0.0011827
to'e pears 0.1000000
to'e seldom 0.1666667
to'e doesn 0.0094340
to'e rudeness 0.1428571
to'e deliberate 0.2500000
to'e a 0.0004098
to'e have 0.0021552
to'e dislike 0.3333333
to'e not 0.0018587
to'e prohibited 0.1250000
to'e far 0.0416667
gudjanas Guyana 1.0000000
berger had 0.0066667
berger Berger 0.5000000
nanstici southwest 1.0000000
nanstici from 0.0029499
nanstici blowing 0.3333333
nanstici the 0.0003098
emilis is 0.0003654
emilis Emily 0.1250000
pajni deciding 0.3333333
pajni &apos;s 0.0029211
pajni decision 0.1000000
pajni whether 0.0434783
pajni It 0.0022124
pajni judges 0.2000000
pajni up 0.0085470
pajni judge 0.2500000
pajni to 0.0004073
de purpose 0.1666667
de target 0.1250000
de to 0.0020367
de solutions 0.3333333
de unhappy 0.0384615
de anything 0.0574713
de about 0.0119522
de that 0.0011751
de reach 0.1111111
de it 0.0015129
de everyone 0.0967742
de NULL 0.0010512
de things 0.0161290
de exception 0.1250000
de identical 0.5000000
de &quot; 0.0013736
de Other 0.2000000
de ( 0.0065789
de believing 0.1818182
de speaker 0.1111111
de anybody 0.0344828
de level 0.2500000
de native 0.2500000
de ) 0.0065359
de de 0.1250000
de I 0.0002511
de in 0.0009042
de someone 0.0133333
de something 0.0170940
daspo during 0.0588235
daspo who 0.0133333
daspo very 0.0043478
daspo destroyed 0.6000000
daspo those 0.0740741
daspo his 0.0029851
daspo ruin 0.2500000
daspo break 0.2000000
daspo destroy 0.5714286
daspo near 0.0312500
daspo To 0.0277778
daspo burnt 0.2000000
daspo NULL 0.0003942
daspo Ring 1.0000000
daspo tear 0.1666667
daspo would 0.0232558
daspo ruined 0.3333333
jiros Jiro 0.1666667
nuzba about 0.0039841
nuzba News 0.5000000
nuzba is 0.0003654
nuzba heard 0.0512821
nuzba sick 0.0454545
nuzba news 0.5789474
nuzba since 0.0357143
nuzba &apos;s 0.0038948
nuzba the 0.0015489
nuzba from 0.0058997
nuzba this 0.0021645
nuzba been 0.0101010
nuzba up 0.0256410
nuzba new 0.0119048
nuzba are 0.0024600
nuzba then 0.0250000
nuzba hear 0.0500000
santa are 0.0012300
santa with 0.0049140
santa took 0.0232558
santa umbrellas 1.0000000
santa umbrella 0.5714286
santa they 0.0114943
santa an 0.0038023
ca'i based 0.2500000
ca'i , 0.0005945
ca'i permitted 0.2500000
ca'i on 0.0028571
ca'i NULL 0.0001314
ca'i authority 0.2000000
ca'i Lojban-enthusiast 0.2500000
rau ! 0.0015175
rau transmitters 1.0000000
rau had 0.0133333
rau that 0.0011751
rau enough 0.1086957
rau are 0.0036900
rau plenty 1.0000000
rau studied 0.0909091
rau much 0.0106383
rau rather 0.0909091
rau There 0.0132743
kamjikyzi'e rights 0.1666667
kamjikyzi'e Animal 0.3333333
Astn near 0.0312500
a'ucu'i . 0.0002687
a'ucu'i right 0.0125000
a'ucu'i out 0.0083333
a'ucu'i everything 0.0178571
a'ucu'i not 0.0037175
a'ucu'i &apos;s 0.0019474
a'ucu'i interesting 0.0689655
a'ucu'i turns 0.1428571
a'ucu'i That 0.0078125
jan looks 0.0142857
jan Zhang 1.0000000
jan confusedly 0.2500000
varkiclaflo'i My 0.0020121
varkiclaflo'i is 0.0003654
varkiclaflo'i hovercraft 0.5000000
nunspesti Marriage 0.2500000
la.braun Ms. 0.5000000
la.braun Brown 0.1666667
cancmu Silicon 1.0000000
mi'ecpe demand 0.2500000
mi'ecpe demanded 0.2000000
mi'ecpe a 0.0004098
mi'ecpe raise 0.2000000
kluce'u modern 0.5000000
kluce'u society 0.3333333
jerna 100 0.0588235
jerna earn 0.3333333
jerna what 0.0032468
jerna for 0.0016529
jerna he 0.0034843
jerna worth 0.0400000
jerna pay 0.0370370
jerna deserve 0.2000000
jerna salary 0.2000000
jerna are 0.0012300
jerna it 0.0015129
jerna earned 0.7500000
cinfo lions 0.3333333
cinfo lion 0.8750000
cinfo a 0.0004098
cinfo NULL 0.0003942
la.kastros Castro 1.0000000
la.kastros dies 0.1111111
klark by 0.0037594
klark Clarke 0.2500000
klark time 0.0075758
klark the 0.0003098
nalzvati from 0.0029499
nalzvati away 0.0217391
nalzvati were 0.0072993
nalzvati absent 0.3333333
nalzvati out 0.0083333
sorbaucre be 0.0025773
sorbaucre polyglot 1.0000000
sorbaucre a 0.0004098
sorbaucre to 0.0004073
lenjo lenses 0.5000000
lenjo glasses 0.4250000
lenjo NULL 0.0001314
lenjo lens 1.0000000
iicai Aiee 1.0000000
iicai A 0.0172414
iicai protect 0.1666667
iicai Aaaah 0.5000000
iicai shaking 0.1666667
iicai Ah 0.0666667
iicai ! 0.0106222
nibli that 0.0011751
nibli it 0.0030257
nibli doesn 0.0094340
nibli whole 0.1111111
nibli Wanting 1.0000000
nibli implies 0.5000000
nibli day 0.0113636
nibli something 0.0085470
nibli lacking 0.3333333
nibli imply 0.5000000
natmi nation 0.3333333
natmi by 0.0037594
natmi United 0.0625000
natmi Nations 1.0000000
natmi People 0.0400000
natmi live 0.0105263
natmi what 0.0032468
natmi peoples 0.5000000
natmi nationality 0.4285714
ly.Schlumbergera truncata 0.5000000
ly.Schlumbergera the 0.0003098
kampu for 0.0016529
kampu Wearing 1.0000000
kampu common 0.0769231
kampu disappearance 0.2500000
kampu same 0.0294118
kampu the 0.0006196
kampu uniform 0.2500000
lu'orgu'e Lebanon 1.0000000
sapselga'e , 0.0005945
sapselga'e this 0.0021645
sapselga'e cannot 0.0222222
sapselga'e the 0.0003098
sapselga'e work 0.0088496
sapselga'e Obviously 0.5000000
sapselga'e be 0.0025773
runjinme Technetium 1.0000000
xamsi ocean 0.6250000
xamsi Sea 1.0000000
xamsi shoreline 0.1666667
xamsi NULL 0.0001314
xamsi seafood 0.5000000
xamsi the 0.0003098
xamsi sea 1.0000000
xamsi oceans 0.3333333
xamsi cyclone 0.3333333
xamsi Gulf 0.5000000
mensi we 0.0075758
mensi do 0.0026525
mensi sisters 0.5000000
mensi from 0.0029499
mensi His 0.0277778
mensi brother 0.0151515
mensi not 0.0018587
mensi born 0.0277778
mensi my 0.0030257
mensi Her 0.0204082
mensi sister 0.7058824
mensi since 0.0357143
mensi is 0.0003654
mensi My 0.0060362
mensi are 0.0036900
sa'irbi'o before 0.0136986
sa'irbi'o stop 0.0277778
sa'irbi'o standing 0.0500000
sa'irbi'o up 0.0170940
sa'irbi'o again 0.0178571
sa'irbi'o complete 0.1666667
xabju inhabits 0.5000000
xabju intestines 0.3333333
xabju in 0.0443038
xabju lives 0.4324324
xabju resided 0.5000000
xabju living 0.0833333
xabju staying 0.1428571
xabju lived 0.4333333
xabju inhabit 0.1250000
xabju Kyoto 0.0769231
xabju trip 0.0526316
xabju dwelt 0.5000000
xabju near 0.0312500
xabju Richmonder 0.2500000
xabju live 0.5473684
xabju from 0.0117994
xabju NULL 0.0011827
xabju own 0.0192308
xabju Korea 0.1000000
nilce furnishes 1.0000000
nilce that 0.0011751
nilce one 0.0040486
nilce can 0.0031447
nilce room 0.0114943
nilce on 0.0028571
nilce furniture 0.4000000
nilce for 0.0016529
nilce something 0.0085470
nilce write 0.0500000
farna my 0.0015129
farna trends 1.0000000
farna trip 0.2105263
farna ? 0.0015008
farna our 0.0172414
farna way 0.0357143
farna viewpoint 0.5000000
farna From 0.2500000
farna woods 0.1250000
ji'esle biology 0.2500000
ji'esle Cell 1.0000000
ji'esle ) 0.0065359
ji'esle ( 0.0065789
rukygu'e Russia 0.1250000
ju'e languages 0.0294118
ju'e discussed 0.0476190
ju'e particular 0.1666667
ri'e Mmm 0.1428571
ri'e it 0.0015129
ri'e ... 0.0196078
ri'e , 0.0017836
ri'e Ah 0.0666667
ri'e Corn 0.3333333
sy.parte.sy &quot; 0.0027473
sy.parte.sy parte 0.2500000
sy.parte.sy means 0.0625000
stanruasabi wasabi 1.0000000
proga program 0.4285714
proga computer 0.0192308
proga agent 0.2500000
proga develops 0.5000000
proga programming 0.2000000
proga as 0.0068027
spusku replies 0.4000000
spusku replying 0.5000000
spusku Reply 0.3333333
spusku Answer 0.0769231
spusku me 0.0014728
spusku answers 0.5000000
spusku responds 0.2500000
spusku by 0.0037594
je'ugo'i , 0.0005945
je'ugo'i right 0.0125000
je'ugo'i That 0.0039062
je'ugo'i ! 0.0015175
je'ugo'i folks 0.3333333
je'ugo'i &apos;s 0.0009737
reki'o 2000 0.3333333
reki'o memorized 0.2500000
temvai urgent 0.5000000
nalprali was 0.0016611
nalprali waste 0.2000000
nalprali a 0.0004098
cfatadni course 0.1000000
cfatadni every 0.0250000
cfatadni aced 0.2500000
cfatadni freshman 1.0000000
cfatadni who 0.0133333
cfatadni in 0.0018083
sedyta'u hat 0.4615385
sedyta'u a 0.0028689
sedyta'u wear 0.0833333
sedyta'u does 0.0140845
sedyta'u He 0.0015015
snurygau save 0.0833333
gy.Boston.gy Chicago 0.1666667
tolxajmi had 0.0066667
tolxajmi was 0.0016611
tolxajmi of 0.0007530
tolxajmi as 0.0068027
tolxajmi out 0.0083333
tolxajmi he 0.0034843
tolxajmi humor 0.5000000
tolprali disadvantage 0.3333333
tolprali clumsy 0.3333333
tolprali loss 0.2500000
tolprali a 0.0004098
tolprali , 0.0005945
tolprali which 0.0217391
tolprali is 0.0003654
frasybau French 0.0563380
frasybau speak 0.0056180
cu'upre am 0.0039683
cu'upre a 0.0020492
cu'upre businessperson 0.6000000
cu'upre businessman 0.5000000
cabra an 0.0038023
cabra device 0.2000000
cabra air-cleaner 0.2500000
cabra dying 0.0625000
cabra and 0.0018315
cabra for 0.0016529
cabra using 0.0416667
cabra without 0.0512821
cabra hand-controlled 0.5000000
cabra machine 0.0454545
cabra available 0.3333333
fu'o unheard 0.2000000
fu'o ) 0.0130719
fu'o a 0.0004098
fu'o to 0.0004073
mleca no 0.0062500
mleca numbers 0.1000000
mleca than 0.0071942
mleca folly 0.0909091
mleca Drink 0.2000000
mleca NULL 0.0001314
mleca smart 0.0400000
mleca faster 0.0714286
mleca much 0.0106383
mleca less 0.2222222
mleca something 0.0170940
mleca third 0.0714286
citsi it 0.0015129
citsi of 0.0015060
citsi season 0.4285714
citsi for 0.0016529
citsi rains 0.1428571
citsi Now 0.0370370
citsi As 0.0500000
citsi year 0.0333333
citsi seasons 0.5000000
citsi &apos;s 0.0009737
xusra say 0.0108696
xusra asserting 1.0000000
xusra claim 0.2500000
xusra said 0.0179641
xusra less 0.0370370
xusra his 0.0029851
xusra claims 0.6000000
xusra Obama 0.2000000
xusra are 0.0012300
pendji wanted 0.0133333
pendji to 0.0004073
pendji see 0.0067568
pendji me 0.0014728
ru'u and 0.0018315
ru'u some 0.0071942
ru'u around 0.0800000
ru'u more 0.0076923
tabra instrument 0.3333333
tabra Brass 0.2500000
tabra to 0.0004073
tabra trumpet 0.2500000
tabra horn 0.2500000
stika it 0.0015129
stika GMO 0.2500000
stika changed 0.3333333
stika length 0.0370370
stika be 0.0025773
stika its 0.0256410
stika change 0.0666667
stika in 0.0009042
na.u &apos;t 0.0010482
na.u doesn 0.0094340
na.u , 0.0005945
na.u if 0.0111111
na.u no 0.0062500
na.u matter 0.0588235
granate granate 0.4000000
selcti ate 0.0114943
makintoc Mac 0.3333333
makintoc your 0.0022075
makintoc infected 0.5000000
kumyzda my 0.0015129
kumyzda flat 0.5000000
kumyzda get 0.0081967
kumyzda into 0.0093458
ri'a makes 0.0344828
ri'a why 0.0263158
ri'a NULL 0.0005256
ri'a from 0.0029499
ri'a accident 0.0625000
ri'a due 0.1428571
ri'a expert 0.0769231
ri'a Despite 0.2500000
ri'a numb 0.2500000
ri'a that 0.0023502
ri'a because 0.1182796
ri'a traffic 0.0909091
ri'a of 0.0022590
ri'a earthquake 0.2500000
ri'a Why 0.0197368
ri'a dazzled 0.3333333
ri'a saved 0.1666667
ri'a skiing 0.1111111
ri'a noise 0.2222222
uo ! 0.0015175
uo Finally 0.3333333
uo Voila 1.0000000
uo voilà 1.0000000
uo did 0.0054945
uo Phew 0.2000000
uo was 0.0016611
uo official 0.1000000
uo , 0.0023781
uo Oh 0.0540541
barda BIG 0.5000000
barda big 0.8307692
barda raindrops 0.3333333
barda &apos;s 0.0019474
barda Big 0.5000000
barda items 0.2000000
barda ship 0.0384615
barda NULL 0.0003942
barda one 0.0040486
barda mice 0.1250000
barda territory 0.3333333
barda pitch 0.1250000
barda Giant 0.2500000
barda abyss 0.5000000
barda degree 0.0666667
barda sizes 0.2000000
barda she 0.0068027
barda life 0.0250000
barda large 0.7000000
barda consume 0.5000000
barda Galaxy 0.2500000
barda high 0.0384615
barda bigger 0.2857143
barda lot 0.0114943
barda It 0.0022124
barda are 0.0012300
barda a 0.0061475
2 : 0.0222222
2 about 0.0039841
2 2 0.0138889
2 30 0.0909091
fu'au Unluckily 0.5000000
fu'au lucky 0.0625000
fu'au Luckily 1.0000000
fu'au , 0.0017836
fu'au she 0.0068027
fu'au no 0.0062500
fu'au noticed 0.5000000
fu'au that 0.0011751
fu'au one 0.0040486
xu A 0.0114943
xu wonder 0.0909091
xu Wasn 0.2500000
xu Erm 0.3333333
xu Germans 0.2000000
xu you 0.0010695
xu By 0.1739130
xu Can 0.4929577
xu * 0.0909091
xu Celsius 0.1428571
xu Dutch 0.1000000
xu Red 0.1250000
xu Aren 0.2000000
xu finished 0.0500000
xu Peter 0.1111111
xu Pshaw 0.2500000
xu does 0.0140845
xu Tommy 0.2500000
xu Do 0.7524752
xu Could 0.1739130
xu To 0.0277778
xu beverage 0.5000000
xu Hungry 0.4000000
xu Won 0.5000000
xu Did 0.7076923
xu Really 0.1333333
xu BIG 0.5000000
xu Has 0.5000000
xu Is 0.7711864
xu Isn 0.2500000
xu NULL 0.0009198
xu yes 0.0714286
xu wine 0.0555556
xu Have 0.6727273
xu For 0.0476190
xu Would 0.3513514
xu Was 0.1333333
xu Does 0.9302326
xu Am 1.0000000
xu Are 0.7928571
xu drives 0.1666667
xu Doesn 0.5000000
xu Were 0.4166667
xu special 0.2500000
xu Must 0.5000000
xu Very 0.1000000
xu Impossible 0.2000000
xu Didn 0.6000000
xu Excuse 0.1000000
xu ? 0.0485243
xu May 0.1052632
xu Will 0.4230769
vacri getting 0.0303030
vacri air 0.6363636
vacri It 0.0110619
vacri neither 0.1428571
vacri Air 0.5000000
vacri cold 0.0192308
vacri &apos;s 0.0019474
vacri NULL 0.0001314
vacri air-cleaner 0.2500000
jinmrfermi Fermium 1.0000000
enai not 0.0037175
enai &apos;t 0.0020964
enai , 0.0017836
enai herself 0.1481481
enai cement 0.2000000
enai but 0.0547945
enai except 0.2727273
enai doesn 0.0094340
enai mine 0.0172414
enai problem 0.0303030
enai won 0.0142857
zumri Maize 1.0000000
zumri ... 0.0196078
zumri maize 0.4000000
zumri ah 1.0000000
zumri Corn 0.3333333
barkla eject 0.3333333
barkla came 0.0166667
barkla go 0.0035088
barkla out 0.0083333
barkla went 0.0111111
barkla on 0.0028571
barkla That 0.0039062
barkla outside 0.0952381
barkla of 0.0007530
gi'onai or 0.0180723
gi'onai they 0.0114943
gi'onai to 0.0004073
gi'onai leave 0.0166667
e'unaire'e repeat 0.0714286
ra'urselja'edji want 0.0030864
ra'urselja'edji trouble 0.0833333
ra'urselja'edji cause 0.0833333
ra'urselja'edji any 0.0166667
ra'urselja'edji to 0.0004073
crino green 1.0000000
crino both 0.0232558
crino necessarily 0.1666667
crino , 0.0005945
crino greenery 0.5000000
crino are 0.0012300
crino is 0.0003654
selma'i haven 0.0526316
jaumoi The 0.0009506
jaumoi Warrior 1.0000000
jaumoi 13th 0.3333333
seltadni Which 0.0322581
seltadni subject 0.0714286
kufra comfortable 0.4545455
kufra felt 0.0833333
kufra , 0.0005945
kufra make 0.0117647
kufra NULL 0.0002628
kufra part 0.0555556
kufra good 0.0162602
kufra For 0.0476190
kufra feel 0.0208333
kufra Make 0.2000000
kufra home 0.0067114
kufra yourself 0.0555556
kufra at 0.0028329
kufra having 0.0400000
dekpu one 0.0040486
dekpu of 0.0015060
dekpu size 0.0769231
dekpu the 0.0003098
dekpu hole 0.0666667
zgizu'e guitar 0.0833333
zgizu'e play 0.0232558
zgizu'e now 0.0075188
zgizu'e the 0.0003098
selspe His 0.0138889
veltivni television 0.5000000
veltivni TV 0.1875000
jbedetnunsla Happy 0.1875000
jbedetnunsla to 0.0004073
jbedetnunsla party 0.0370370
jbedetnunsla birthday 0.2173913
la.bacos Basho 0.5000000
gadganzu] NULL 0.0001314
jamna halt 0.2500000
jamna should 0.0121951
jamna War 0.1428571
jamna at 0.0028329
jamna brought 0.0454545
jamna over 0.0136986
jamna be 0.0025773
jamna the 0.0003098
jamna war 0.5625000
jamna with 0.0024570
jamna Jihad 0.4000000
namcu based 0.2500000
namcu number 0.0175439
namcu is 0.0003654
namcu on 0.0028571
namcu how 0.0070423
namcu a 0.0004098
namcu numbers 0.2000000
namcu their 0.0140845
namcu Development 0.5000000
namcu Number 0.5000000
namcu where 0.0099010
namcu analysis 0.2000000
sudga running 0.0344828
sudga dry 1.0000000
sudga its 0.0256410
zifre'a ; 0.0212766
zifre'a me 0.0014728
zifre'a am 0.0039683
nilxa'ugri Auckland 0.3333333
ciplanli look 0.0158730
ciplanli like 0.0022779
ciplanli experimental 0.2500000
ciplanli set-up 0.5000000
intele intellect 1.0000000
intele sign 0.0833333
intele of 0.0015060
intele high 0.0384615
jalna starch 1.0000000
jalna without 0.0256410
nunlitru experience 0.0434783
nunlitru had 0.0066667
nunlitru travel 0.0588235
nunlitru you 0.0005348
nunlitru random 0.1428571
ipad iPad 0.2000000
ipad generation 0.2500000
lecydo'i to 0.0004073
lecydo'i rain 0.0227273
lecydo'i going 0.0116959
lecydo'i afternoon 0.3750000
lecydo'i am 0.0039683
lecydo'i rained 0.1111111
lecydo'i this 0.0108225
lecydo'i out 0.0083333
Laurie Laurie 0.0833333
nakla A 0.0057471
nakla boy 0.0270270
muxa Fifty-six 0.1428571
bangrgogurio Korean 0.2222222
bangrgogurio studies 0.0909091
islenska . 0.0000896
islenska &apos;m 0.0017452
islenska Icelandic 0.3333333
radji'i admitted 0.0833333
radji'i he 0.0034843
radji'i that 0.0011751
sinso radians 0.2500000
sinso pi 0.1111111
sinso is 0.0003654
sinso of 0.0007530
sinso the 0.0003098
sinso sine 1.0000000
sinso 0 0.0909091
sinso &quot; 0.0027473
galxe ache 0.2000000
galxe galxe 1.0000000
galxe my 0.0015129
galxe doesn 0.0094340
galxe &apos;t 0.0010482
galxe throat 0.5000000
galxe that 0.0011751
semu'i Mom 0.1666667
semu'i he 0.0034843
semu'i intending 1.0000000
semu'i because 0.0107527
semu'i NULL 0.0001314
pesxu marmalade 0.5000000
pesxu dough 1.0000000
pesxu potatoes 0.2500000
pesxu goo 1.0000000
pesxu some 0.0359712
pesxu jam 0.7142857
va'e has 0.0035461
va'e care 0.0370370
va'e at 0.0028329
va'e That 0.0039062
va'e agree 0.0294118
va'e nothing 0.0192308
va'e all 0.0059172
va'e degree 0.0666667
va'e rather 0.0909091
va'e not 0.0018587
va'e do 0.0053050
va'e full 0.0500000
bavlamna'a next 0.0588235
bavlamna'a year 0.0666667
boi pair 0.1428571
boi last 0.0227273
boi betting 0.1666667
boi NULL 0.0005256
fi'o top 0.1428571
fi'o sandwich 0.0769231
fi'o labourer 0.2500000
fi'o park 0.0434783
fi'o drive 0.0714286
fi'o according 0.1111111
fi'o , 0.0011891
fi'o Policemen 0.5000000
fi'o along 0.0833333
fi'o NULL 0.0003942
fi'o the 0.0009294
fi'o breed 0.2500000
fi'o came 0.0166667
fi'o impossible 0.0454545
fi'o Tokyo 0.0196078
fi'o surprise 0.0769231
fi'o To 0.0138889
fi'o bees 0.2500000
fi'o secretary 0.0909091
fi'o flowers 0.0333333
fi'o south 0.1111111
fi'o Suddenly 0.1111111
fi'o quickly 0.0434783
fi'o very 0.0043478
fi'o How 0.0043668
fi'o lying 0.0909091
fi'o sleeping 0.0526316
fi'o movies 0.1428571
fi'o Learn 0.2500000
fi'o singing 0.1111111
fi'o arrived 0.0156250
fi'o for 0.0016529
fi'o forgives 0.5000000
relcimdyna'u number 0.0175439
relcimdyna'u Complex 1.0000000
kicne with 0.0049140
kicne pillows 0.5555556
kicne cushion 1.0000000
ca'u ahead 0.2000000
ca'u of 0.0030120
ca'u thick 0.0714286
ca'u front 0.4444444
ca'u NULL 0.0001314
ca'u in 0.0018083
livla oil 0.0769231
livla with 0.0024570
livla There 0.0044248
livla stoked 0.5000000
livla isn 0.0120482
livla by 0.0037594
livla powered 0.5000000
livla up 0.0085470
livla fuel 0.8571429
xa'urjudri his 0.0029851
xa'urjudri address 0.0769231
xa'urjudri new 0.0119048
tsapi spices 0.2500000
tsapi seasoned 1.0000000
terzba Ingredients 0.5000000
terzba been 0.0101010
terzba listed 0.5000000
terzba have 0.0021552
ni'a text 0.1428571
ni'a NULL 0.0001314
ni'a straight 0.0769231
ni'a the 0.0003098
ni'a below 0.3333333
ni'a under 0.2333333
ni'a papers 0.3333333
puziki just 0.0392157
puziki He 0.0015015
puziki I 0.0002511
puziki We 0.0037313
puziki She 0.0026110
xanla about 0.0039841
xanla worried 0.2500000
xanla are 0.0012300
likydekpu Five 0.1250000
likydekpu of 0.0007530
likydekpu gallons 1.0000000
likydekpu regular 0.2500000
cradi transmitter 1.0000000
cradi radiophone 0.2000000
cradi sending 0.5000000
cradi radio 0.8000000
cordri me 0.0014728
cordri state 0.0909091
cordri distraught 0.1666667
cordri poor 0.0384615
cordri mind 0.0476190
cordri of 0.0007530
cordri made 0.0081301
karlas Carla 0.5000000
rokci NULL 0.0001314
rokci Stone 0.5000000
rokci rock 0.4615385
rokci stone 0.8750000
rokci Rock-paper-scissors 0.3333333
rokci Rock 0.3333333
rokci at 0.0084986
rokci of 0.0022590
rokci stones 0.6250000
rokci rocky 1.0000000
preti Ask 0.0625000
preti a 0.0008197
preti matter 0.0588235
preti shopkeeper 0.2000000
preti mind 0.0476190
preti Answer 0.3076923
preti time 0.0075758
preti good 0.0081301
preti I 0.0002511
preti asked 0.0526316
preti ask 0.0851064
preti about 0.0079681
preti question 0.4500000
preti questions 0.1764706
preti all 0.0059172
preti NULL 0.0002628
preti &apos;s 0.0009737
preti the 0.0009294
preti some 0.0071942
ienai I 0.0002511
ienai Why 0.0065789
ienai from 0.0029499
ienai told 0.0123457
ienai NULL 0.0001314
ienai People 0.0400000
ienai disagree 0.1666667
ienai quit 0.0625000
ienai you 0.0005348
lei researches 0.5000000
lei Latter-day 0.1428571
lei entertained 0.1666667
lei his 0.0029851
lei among 0.0526316
lei explorers 0.3333333
lei lights 0.1666667
lei plastic 0.1428571
lei T-shirts 0.2500000
lei the 0.0021685
lei NULL 0.0001314
lei smaller 0.2000000
lei planes 0.5000000
lei children 0.0217391
lei direction 0.1428571
lei Children 0.0555556
lei The 0.0123574
lei of 0.0007530
lidycevjinme Thorium 1.0000000
pilka peeled 0.4000000
pilka rind 1.0000000
pilka off 0.0178571
pilka has 0.0035461
pilka been 0.0101010
pilka peel 1.0000000
venfu revenge 0.3000000
venfu vengeance 1.0000000
prulamkemyzeldei last 0.0227273
prulamkemyzeldei pandas 1.0000000
prulamkemyzeldei Sunday 0.0555556
kensa , 0.0017836
kensa space 0.3333333
kensa near 0.0312500
kensa outer 0.3333333
kensa In 0.0350877
farvi formed 0.1111111
farvi agent 0.2500000
farvi , 0.0005945
farvi rid 0.2500000
farvi got 0.0111111
farvi cannot 0.0222222
farvi develops 0.5000000
farvi of 0.0037651
farvi once 0.0344828
farvi progress 0.4000000
farvi In 0.0175439
farvi development 0.2857143
farvi developing 0.2500000
farvi be 0.0025773
farvi the 0.0003098
farvi develop 0.2000000
farvi NULL 0.0003942
farvi easily 0.1666667
gasmlu did 0.0054945
gasmlu feel 0.0208333
gasmlu not 0.0018587
gasmlu poor 0.0384615
nobli , 0.0011891
nobli dressed 0.2000000
nobli Madam 0.3333333
nobli aristocrat 1.0000000
nobli sir 0.4000000
nobli Bible 0.3333333
nobli aristocratic 1.0000000
nobli well 0.0175439
nobli interrupting 0.1428571
nobli an 0.0038023
nobli lord 1.0000000
nobli Lord 0.1666667
nobli am 0.0039683
nobli is 0.0003654
nobli lady 0.1111111
nobli noble 0.5000000
nobli ! 0.0015175
konstantius.xlorus Constantius 0.3333333
konstantius.xlorus Chlorus 1.0000000
nonydjuno you 0.0005348
nonydjuno true 0.0263158
nonydjuno knowledge 0.0714286
iinai not 0.0018587
iinai . 0.0000896
iinai afraid 0.0232558
iinai &apos;m 0.0017452
iinai I 0.0002511
jimpe understood 0.3333333
jimpe out 0.0083333
jimpe Understanding 0.3333333
jimpe understand 0.6132075
jimpe NULL 0.0005256
jimpe will 0.0035211
jimpe joke 0.1111111
jimpe can 0.0062893
jimpe comprehend 0.5000000
jimpe figure 0.3333333
jimpe knowledge 0.0714286
jimpe understanding 0.5000000
jimpe understands 0.3750000
sicpi the 0.0003098
sicpi increased 0.1428571
sicpi rain 0.0227273
zauron hobbit 0.5000000
patlu potatoes 0.7500000
patlu like 0.0022779
patlu plant 0.0909091
patlu of 0.0007530
patlu potato 0.6666667
clsn quickly 0.0434783
clsn exceeded 1.0000000
clsn Shoulsen 0.3333333
zanselfu'a lucky 0.1250000
zanselfu'a makes 0.0344828
zanselfu'a it 0.0015129
plana be 0.0025773
plana fat 0.7000000
plana cheeks 1.0000000
plana &apos;m 0.0017452
plana all 0.0059172
plana are 0.0012300
detri Calendar 1.0000000
detri day 0.0113636
detri when 0.0060606
detri October 0.2000000
detri NULL 0.0002628
detri Sunday 0.0555556
detri it 0.0015129
detri is 0.0007307
detri 2015 0.1000000
detri 18th 0.1428571
detri date 0.5000000
serbias Serbia 1.0000000
polje wrinkled 0.5000000
skusno slowly 0.0769231
skusno you 0.0005348
skusno talk 0.0222222
skusno please 0.0135135
skusno ? 0.0005003
skusno more 0.0153846
dukti opposite 0.2000000
dukti the 0.0003098
dukti in 0.0009042
dukti directions 0.2500000
delfis Delphi 0.2500000
delfis at 0.0028329
anai if 0.0111111
anai goes 0.0178571
pelxu it 0.0015129
pelxu yellow 0.8571429
pelxu It 0.0022124
pelxu turning 0.5000000
pelxu &apos;s 0.0009737
gy.US non-profit 0.3333333
gy.US ) 0.0065359
jdima does 0.0140845
jdima want 0.0061728
jdima money 0.0114943
jdima euros 0.1111111
jdima expensive 0.1142857
jdima How 0.0305677
jdima discount 0.2500000
jdima much 0.1063830
jdima fixed 0.0833333
jdima is 0.0032883
jdima it 0.0015129
jdima of 0.0030120
jdima enough 0.0217391
jdima to 0.0008147
jdima price 0.5294118
jdima free 0.0416667
jdima cost 0.1500000
jdima spent 0.2000000
jdima the 0.0018587
jdima so 0.0074627
jdima sell 0.1333333
jdima &apos;s 0.0019474
jdima this 0.0021645
jdima NULL 0.0003942
jdima goods 0.1428571
catra &apos;m 0.0017452
catra been 0.0101010
catra murdered 0.5000000
catra Die 0.2000000
catra murderer 0.5000000
catra kill 0.8750000
catra got 0.0111111
catra killed 0.5135135
catra killing 0.3333333
catra Kill 0.3333333
catra killer 0.6666667
catra JFK 1.0000000
catra the 0.0003098
catra committed 0.5000000
catra NULL 0.0002628
catra &apos;d 0.0147059
tcana NULL 0.0001314
tcana network 0.3333333
tcana private 0.5000000
tcana airport 0.1428571
tcana the 0.0003098
tcana bumped 0.2000000
tcana stop 0.0833333
tcana Kazan 0.2000000
tcana into 0.0093458
tcana police 0.1666667
tcana nodes 0.2000000
tcana stations 0.5000000
tcana station 0.5405405
tcana at 0.0028329
tolvri cowardly 1.0000000
tolvri beast 0.5000000
tolvri coward 0.3333333
sa ... 0.0196078
sa ! 0.0015175
sa No 0.0095238
bedja'a is 0.0003654
bedja'a &apos;s 0.0009737
bedja'a the 0.0006196
bedja'a group 0.1666667
bedja'a leader 0.3333333
aristoteles Aristotle 0.3333333
Millie Millie 0.2500000
mapti culture 0.2000000
mapti drinkable 0.2500000
mapti place 0.0444444
mapti fitted 0.5000000
mapti tie 0.3333333
mapti suits 0.3333333
mapti becomes 0.1666667
mapti express 0.2500000
mapti well 0.0175439
mapti with 0.0024570
mapti for 0.0033058
mapti inconsistent 0.1666667
mapti valid 1.0000000
mapti NULL 0.0002628
mapti fit 0.5000000
mapti suitable 1.0000000
fu'e what 0.0064935
fu'e ( 0.0131579
fu'e owner 0.2222222
fu'e of 0.0015060
fu'e Scatland 1.0000000
account Facebook 0.0833333
memkai increases 0.3333333
ju'opei Are 0.0071429
ju'opei are 0.0012300
ju'opei you 0.0010695
ju'opei certain 0.1250000
ju'opei How 0.0043668
ju'opei ? 0.0010005
la'orxi'o He 0.0015015
la'orxi'o devout 0.5000000
la'orxi'o Catholic 1.0000000
la'orxi'o She 0.0026110
la'orxi'o a 0.0008197
la'orxi'o &apos;s 0.0019474
xenru this 0.0064935
xenru regret 0.7000000
xenru happened 0.0172414
xenru had 0.0066667
xenru what 0.0032468
xenru regretted 0.5000000
mo'u came 0.0166667
mo'u he 0.0069686
mo'u undone 0.1666667
mo'u back 0.0545455
mo'u survived 0.2000000
mo'u broken 0.0384615
mo'u Turn 0.0256410
mo'u fell 0.0512821
mo'u incorporated 0.3333333
mo'u they 0.0229885
mo'u lost 0.0140845
mo'u redeemed 0.5000000
mo'u she 0.0136054
mo'u passed 0.0666667
mo'u drunk 0.1333333
mo'u Two 0.0526316
mo'u finally 0.1111111
mo'u faster 0.0714286
mo'u knees 0.4000000
mo'u did 0.0054945
mo'u buttocks 0.2000000
mo'u shoreline 0.1666667
mo'u arrived 0.1093750
mo'u crocodile 0.3333333
mo'u myself 0.0204082
mo'u has 0.0460993
mo'u birth 0.1428571
mo'u Yesterday 0.0555556
mo'u finished 0.1000000
mo'u persuaded 0.1428571
mo'u left 0.0434783
mo'u ankle 0.2000000
mo'u finish 0.2500000
mo'u rotten 0.1428571
mo'u memorized 0.2500000
mo'u NULL 0.0015769
mo'u am 0.0039683
mo'u fixed 0.0833333
mo'u rolled 0.1250000
mo'u promoted 0.3333333
mo'u Have 0.0181818
mo'u landed 0.5000000
mo'u walked 0.0384615
mo'u ran 0.0500000
mo'u memorize 0.5000000
mo'u gone 0.0800000
mo'u regret 0.1000000
mo'u have 0.0215517
mo'u yet 0.0294118
mo'u decided 0.0416667
mo'u done 0.2372881
mo'u gave 0.0169492
mo'u frozen 0.1666667
mo'u plate 0.1250000
mo'u over 0.0410959
mo'u completes 0.1428571
mo'u widened 0.2500000
mo'u work 0.0088496
mo'u arm 0.0769231
mo'u climbed 0.2000000
mo'u candle 0.2500000
mo'u removed 0.1000000
mo'u grasped 0.2500000
mo'u froze 0.3333333
mo'u faded 1.0000000
mo'u told 0.0123457
mo'u got 0.0222222
mo'u already 0.0384615
mo'u get 0.0163934
mo'u sown 0.5000000
mo'u erupted 1.0000000
mo'u &apos;ve 0.1046512
mo'u caught 0.1000000
elkotero helicopter 0.3333333
elkotero hovering 1.0000000
elkotero overhead 0.2500000
elkotero is 0.0003654
volkla on 0.0028571
volkla a 0.0004098
volkla landed 0.5000000
gatyboi ball 0.0666667
gatyboi steel 0.5000000
gatyboi onto 0.1428571
suksa Suddenly 0.4444444
suksa suddenly 0.6000000
suksa put 0.0175439
suksa very 0.0043478
suksa quickly 0.0434783
suksa He 0.0015015
suksa , 0.0005945
suksa waked 0.3333333
suksa taking 0.0666667
suksa sudden 0.2857143
suksa a 0.0016393
suksa end 0.0370370
inaja George 0.1333333
inaja if 0.0444444
inaja only 0.0377358
inaja property 0.3333333
pilda pale 0.6666667
dotco Germans 0.4000000
dotco &apos;t 0.0010482
dotco Germany 0.1176471
dotco &apos;re 0.0126582
dotco , 0.0011891
dotco German 0.2692308
dotco aren 0.1111111
cikybi'o an 0.0038023
cikybi'o &apos;ll 0.0064935
cikybi'o effort 0.2000000
cikybi'o make 0.0117647
cikybi'o Waking 0.5000000
cikybi'o to 0.0004073
cikybi'o Wake 0.1176471
cikybi'o up 0.0598291
cikybi'o get 0.0163934
cikybi'o morning 0.0263158
tadjycolnunte'a Terrorism 1.0000000
iuro'o unhappy 0.0384615
xelga Helga 0.5000000
la.iokon Yoko 0.2500000
vono forty 0.1666667
vono . 0.0001792
vono attended 0.0909091
vono Forty 1.0000000
DJUpitr Jupiter 0.2000000
jinmrgadolini Gadolinium 1.0000000
gapnitfa'egau turned 0.0434783
mu'onai ... 0.0196078
traduki translating 0.2000000
traduki translated 0.2857143
traduki To 0.0138889
traduki to 0.0004073
traduki &apos;m 0.0017452
traduki NULL 0.0001314
traduki from 0.0029499
traduki translate 0.2142857
xalni panic 1.0000000
xalni an 0.0038023
xalni unfamiliar 0.2000000
susyn Susan 0.1250000
vidru is 0.0003654
vidru viral 1.0000000
vidru a 0.0004098
vidru Rotavirus 0.5000000
vidru virus 1.0000000
vidru from 0.0029499
vidru diseases 0.3333333
vidru outer 0.3333333
jenai way 0.0357143
jenai know 0.0030960
jenai , 0.0005945
jenai not 0.0018587
panka there 0.0063291
panka in 0.0027125
panka parks 1.0000000
panka to 0.0004073
panka park 0.7826087
betfu his 0.0029851
betfu stomach 0.4000000
betfu with 0.0024570
betfu belly 0.3333333
betfu ache 0.4000000
betfu a 0.0008197
janli bumped 0.2000000
janli whipped 0.2000000
janli whose 0.0588235
janli hit 0.1111111
janli into 0.0093458
janli me 0.0014728
janli in 0.0018083
janli her 0.0040000
janli crashed 0.1666667
janli by 0.0075188
janli a 0.0008197
janli airplane 0.2500000
napoleon Napoleonic 0.3333333
napoleon Napoleon 1.0000000
napoleon Wars 0.5000000
gy.Steve.gy is 0.0003654
gy.Steve.gy Steve 0.1666667
gy.Steve.gy an 0.0038023
namibias Namibia 1.0000000
frati regarded 0.1666667
frati questions 0.0588235
frati ask 0.0212766
frati answer 0.0454545
frati responding 0.5000000
gradu are 0.0012300
gradu of 0.0007530
gradu SI 0.3333333
gradu many 0.0102041
gradu shades 1.0000000
gradu NULL 0.0001314
milxe a 0.0036885
milxe have 0.0021552
milxe accurate 0.2500000
milxe tender 0.2500000
milxe construed 0.3333333
milxe users 0.1250000
milxe greasy 0.2500000
milxe &apos;m 0.0017452
milxe somewhat 0.2500000
milxe slightly 0.5000000
milxe mildly 0.1428571
milxe side 0.1000000
milxe This 0.0017361
milxe not 0.0018587
milxe There 0.0044248
milxe hearing 0.1666667
milxe degree 0.0666667
milxe light 0.0277778
milxe little 0.0491803
milxe moderate 1.0000000
milxe was 0.0016611
milxe seemed 0.1250000
milxe crooked 0.1666667
milxe bad 0.0333333
milxe NULL 0.0003942
milxe warm 0.2142857
milxe pretty 0.0277778
milxe ( 0.0065789
milxe bit 0.1904762
milxe doubts 0.3333333
pa'u bouquet 0.3333333
pa'u NULL 0.0001314
pa'u Can 0.0140845
pa'u pass 0.0416667
pa'u with 0.0024570
pa'u of 0.0015060
pa'u you 0.0005348
jinmrzirkoni Zirconium 1.0000000
proletari nothing 0.0192308
proletari proletarians 0.3333333
proletari have 0.0021552
mudri floats 0.3333333
mudri wood 0.9090909
mudri a 0.0020492
mudri out 0.0083333
mudri wooden 0.8888889
mudri stove 1.0000000
mudri from 0.0029499
mudri NULL 0.0001314
mudri burning 0.0526316
mavji long 0.0129870
mavji been 0.0101010
mavji Oats 0.5000000
mavji have 0.0021552
tcesmisi'u had 0.0066667
tcesmisi'u common 0.0769231
tcesmisi'u in 0.0009042
tcesmisi'u much 0.0106383
remoi Ferdinand 1.0000000
remoi already 0.0384615
remoi second 0.0526316
selcilre is 0.0003654
selcilre soon 0.0188679
selcilre learned 0.1428571
kenra became 0.0370370
kenra cancer 0.3333333
kenra ill 0.0384615
kenra Breast 0.3333333
kenra with 0.0024570
djirafa Giraffe 1.0000000
tamkai Form 1.0000000
tamkai emptiness 0.2000000
tamkai is 0.0007307
tamkai form 0.0714286
cilra is 0.0003654
cilra cheese 0.1111111
li'orkliru Fluorine 1.0000000
keskla astronaut 0.2500000
keskla an 0.0038023
keskla of 0.0007530
keskla becoming 0.1250000
farna" trip 0.0526316
farna" ? 0.0005003
farna" Um 0.1000000
ta'o NULL 0.0001314
ta'o the 0.0046468
ta'o where 0.0297030
ta'o way 0.1666667
ta'o , 0.0095125
ta'o how 0.0070423
ta'o Tuesday 0.0714286
ta'o By 0.5652174
ta'o milk 0.0188679
ta'o are 0.0024600
ko'e of 0.0015060
ko'e tall 0.0454545
ko'e arrival 0.0769231
ko'e by 0.0037594
ko'e sight 0.1428571
ko'e finding 0.1250000
ko'e lips 0.3333333
ko'e to 0.0020367
ko'e hated 0.1000000
ko'e respectively 0.0909091
ko'e &apos;o 0.5000000
ko'e He 0.0015015
ko'e NULL 0.0005256
ko'e why 0.0263158
ko'e death 0.0666667
ko'e jealous 0.2500000
ko'e present 0.0303030
ko'e &apos;i 0.3333333
ko'e together 0.0555556
ko'e further 0.3333333
ko'e drunk 0.0666667
ko'e forget 0.0500000
ko'e She 0.0026110
ko'e claim 0.2500000
ko'e shoulders 0.3333333
ko'e ko 0.0500000
ko'e her 0.0160000
ko'e him 0.0625000
trina in 0.0009042
trina find 0.0294118
trina attractive 0.3333333
trina nothing 0.0192308
trina to 0.0008147
trina attracts 0.5000000
trina appealing 0.5000000
trina drawn 0.5000000
samci'e when 0.0060606
samci'e network 0.1666667
samci'e , 0.0005945
samci'e lose 0.0588235
la.kentaron Kentaro 1.0000000
cmana other 0.0113636
cmana hill 0.3529412
cmana Fuji 0.3333333
cmana necessarily 0.1666667
cmana Mountain 0.5000000
cmana mountains 0.8125000
cmana the 0.0012392
cmana each 0.0158730
cmana springheads 0.1000000
cmana NULL 0.0001314
cmana in 0.0009042
cmana mountain 0.8181818
betis &apos;s 0.0019474
betis Betty 0.2000000
bakni cow 0.6666667
bakni beef 0.3333333
bakni cows 0.6250000
bakni real 0.0500000
bakni forward 0.3333333
bakni Cattle 1.0000000
bakni cattle 0.5000000
bakni moo 0.2500000
bakni bull 0.5000000
bakni Cows 0.3571429
bakni NULL 0.0005256
nova'e in 0.0009042
nova'e have 0.0021552
nova'e no 0.0125000
nova'e &apos;re 0.0063291
oire'e why 0.0263158
cemtrusi'o Socialism 1.0000000
panamas Panama 1.0000000
laznynavni Argon 0.3333333
jipno tip 0.2500000
jipno of 0.0007530
jipno mountain 0.0454545
jipno sharp 0.0833333
jipno end 0.0370370
jipno the 0.0006196
gabon Gabon 1.0000000
samcfi or 0.0060241
samcfi bug 0.2500000
mikelAnjelos a 0.0004098
mikelAnjelos like 0.0022779
mikelAnjelos painting 0.1111111
mikelAnjelos Michelangelo 0.2500000
bavla'ima'i job 0.0204082
bavla'ima'i her 0.0040000
bavla'ima'i next 0.0294118
bavla'ima'i quit 0.0625000
bavla'ima'i month 0.0833333
xalpinxe drank 0.0357143
xalpinxe a 0.0004098
xalpinxe drinks 0.0500000
xalpinxe drink 0.0266667
xalpinxe , 0.0005945
xalpinxe He 0.0015015
xalpinxe who 0.0066667
xalpinxe lot 0.0114943
xukau if 0.0444444
xukau whether 0.0869565
xukau NULL 0.0002628
xukau they 0.0114943
xukau you 0.0005348
xukau could 0.0175439
xukau decide 0.1000000
zbiseljirna Rhinoceros 0.5000000
zbiseljirna is 0.0003654
broselcru ) 0.0065359
broselcru ( 0.0065789
broselcru kosher 0.2000000
broselcru food 0.0192308
basna emphasized 0.5000000
basna importance 0.1250000
basna emphasizes 1.0000000
basna continuing 1.0000000
basna of 0.0007530
basna it 0.0015129
banke'u'e Quechua 0.5000000
banke'u'e flag 0.1250000
cai What 0.0024155
cai much 0.0106383
cai agreeable 0.5000000
cai sate 0.2000000
cai , 0.0005945
cai have 0.0021552
cai a 0.0004098
cai going 0.0058480
cai pain 0.0666667
cai agreement 0.1428571
cai NULL 0.0001314
cai really 0.0129870
cai consciousness 0.5000000
cai the 0.0003098
cai Yes 0.0232558
cai impossible 0.0454545
cai to 0.0004073
cai Fucking 1.0000000
cai idea 0.0400000
cai already 0.0384615
cai in 0.0009042
cai very 0.0086957
cai saying 0.0370370
cai surprise 0.0769231
cai feeling 0.1538462
cai &apos;m 0.0052356
cai done 0.0169492
cai Light 0.1428571
cai rag-store 0.3333333
cai arsenic 0.3333333
cai dead 0.0312500
cai hell 0.2500000
cai lose 0.0588235
cai awful 0.2000000
cai ! 0.0106222
cai my 0.0015129
cai Exactly 0.2000000
cutyti'e back 0.0181818
cutyti'e his 0.0029851
itku'ile It 0.0066372
itku'ile all 0.0177515
itku'ile Greek 0.3157895
itku'ile That 0.0078125
itku'ile &apos;s 0.0019474
cu'e Have 0.0181818
cu'e did 0.0054945
cu'e been 0.0101010
cu'e pen 0.0454545
cu'e Or 0.2500000
cu'e bite 0.1428571
cu'e how 0.0070423
cu'e sowed 0.2500000
cu'e maybe 0.1111111
dizlo private 0.5000000
dizlo compared 0.2000000
dizlo local 0.3333333
dizlo office 0.0454545
dizlo foot 0.0769231
dizlo low 0.2500000
dizlo stands 0.1111111
dizlo to 0.0004073
dizlo via 0.0769231
dizlo post 0.0909091
la.rab,rt reply 1.0000000
la.rab,rt the 0.0003098
la.rab,rt &apos;s 0.0029211
la.rab,rt NULL 0.0001314
la.rab,rt Robert 0.1111111
sunla Lamb 1.0000000
sunla woolen 1.0000000
sunla fleece 0.5000000
sunla fur 1.0000000
kamerun Cameroon 1.0000000
batman Batman 0.2000000
nunjamna Anglo-Zanzibar 0.2000000
nunjamna war 0.1250000
nunjamna Wars 0.5000000
nunjamna War 0.1428571
nunjamna detests 1.0000000
djon John 0.1123596
djon taller 0.1176471
niu,iork York 0.1000000
zirpu purple 1.0000000
dacti asserts 1.0000000
dacti real 0.1000000
dacti It 0.0022124
dacti thing 0.0571429
dacti that 0.0023502
dacti object 0.6363636
dacti NULL 0.0001314
dacti wouldn 0.0909091
turk Turkey 1.0000000
lasna fastening 0.1666667
lasna tied 0.1666667
lasna fit 0.5000000
lasna to 0.0004073
lasna horseshoes 0.2500000
lasna nailed 0.5000000
karce Car 0.6666667
karce NULL 0.0005256
karce own 0.0192308
karce drove 0.0909091
karce cars 0.5555556
karce trash 0.5000000
karce ! 0.0015175
karce car 0.9259259
karce streets 0.1111111
karce traffic 0.0909091
si'o color 0.0434783
si'o soccer 0.0588235
si'o idea 0.0400000
si'o concept 0.2500000
si'o into 0.0093458
si'o meaningless 0.3333333
si'o accept 0.2000000
cabvanci evening 0.0526316
cabvanci this 0.0021645
cabvanci tonight 0.0526316
crepu reaping 0.5000000
crepu is 0.0007307
crepu not 0.0037175
crepu bridge 0.0833333
crepu pick 0.5000000
crepu harvesting 1.0000000
crepu plucked 0.3333333
argon Argon 0.3333333
co'urtavla they 0.0114943
co'urtavla talking 0.0181818
co'urtavla suddenly 0.2000000
co'urtavla me 0.0014728
co'urtavla Seeing 0.1111111
co'urtavla , 0.0005945
co'urtavla stopped 0.0384615
a'ei Come 0.0256410
jborupnu rupnu 0.6666667
cipa 3031 0.2500000
cipa &quot; 0.0054945
selji'i for 0.0016529
selji'i asks 0.1428571
selji'i opinion 0.0344828
selji'i your 0.0022075
iupiter Jupiter 0.2000000
la.gizmos Gizmo 0.5000000
la.gizmos are 0.0012300
i loses 0.2000000
i thoughts 0.1666667
i nor 0.0909091
i shop 0.1000000
i healthy 0.1500000
i , 0.1200951
i untrue 0.2500000
i such 0.0357143
i minute 0.1176471
i Police 0.5000000
i alone 0.0204082
i set-up 0.5000000
i purr 0.3333333
i foolish 0.1250000
i answer 0.0454545
i cats 0.0217391
i unheard 0.2000000
i But 0.1764706
i nearer 1.0000000
i recall 0.5000000
i trip 0.0526316
i program 0.1428571
i bored 0.1538462
i ay 0.5000000
i Yeah 0.1428571
i Doris 0.0666667
i meeting 0.0425532
i pelmeni 0.2857143
i Argentinian 0.2500000
i &quot; 0.0178571
i rag-store 0.3333333
i expressions 0.2500000
i Noelia 0.2500000
i — 0.1250000
i &apos;Twas 0.5000000
i lengthy 0.2500000
i time 0.0075758
i much 0.0106383
i Jacques 0.2000000
i 6 0.1250000
i knowledge 0.0714286
i Sentences 0.2000000
i model 0.1000000
i Mimi 0.5000000
i Yes 0.0232558
i Someone 0.0416667
i smart 0.0400000
i From 0.2500000
i &apos;m 0.0017452
i rabbit 0.0769231
i quotations 0.2500000
i How 0.0087336
i female 0.0833333
i serious 0.0714286
i Aha 0.1000000
i when 0.0060606
i And 0.2307692
i colored 0.2500000
i Ricardo 0.3333333
i Judith 0.1428571
i revenge 0.2000000
i than 0.0071942
i Celsius 0.1428571
i since 0.0357143
i : 0.0888889
i fork 0.0833333
i store 0.0294118
i bark 0.2000000
i warmly 0.2000000
i complete 0.1666667
i ? 0.0015008
i Goodbye 0.1428571
i Guess 0.0909091
i diet 0.1666667
i 16 0.4285714
i academies 0.2000000
i tired 0.0149254
i spaghetti 0.2000000
i Umm 0.2000000
i Start 0.4285714
i ery 0.3333333
i No 0.0571429
i 18th 0.1428571
i so 0.0522388
i NULL 0.0049934
i &apos;d 0.0147059
i derped 0.2500000
i yeah 0.5000000
i crazy 0.0370370
i medication 0.2000000
i silly 0.1052632
i However 0.1333333
i busy 0.0285714
i Agree 0.2500000
i . 0.0207829
i - 0.2941176
i Adam 0.1666667
i alive 0.0454545
i I 0.0007534
i hard 0.0259740
i shrine 0.3333333
i black 0.0833333
i fine 0.1000000
i ; 0.3404255
i howl 0.3333333
i cat 0.0190476
i speaking 0.0555556
i Okay 0.2727273
i Impossible 0.4000000
i separates 0.3333333
i helps 0.1000000
i passed 0.0666667
i danced 0.1428571
i reptiles 0.3333333
i Look 0.0227273
i opened 0.0769231
i question 0.0750000
i Either 0.0666667
i Nonong 0.2500000
i they 0.0114943
i Honesty 0.1666667
i Moon 0.0909091
i &apos;s 0.0009737
i Susan 0.1250000
i also 0.0526316
i thumb 0.1250000
i executed 0.5000000
i Hi 0.0357143
i cigarettes 0.1428571
i are 0.0036900
i worry 0.0666667
i ski 0.1428571
i preceding 0.5000000
i provided 0.3333333
i oranges 0.1666667
i metallic 0.2000000
i chalk 0.2000000
i it 0.0030257
i Dutch 0.1000000
i annoying 0.1666667
i seriously 0.2500000
i ! 0.0500759
i Friend 0.1428571
i and 0.0183150
i ( 0.0197368
i arsenic 0.3333333
i velocity 0.3333333
i account 0.1250000
i invention 0.1250000
i interesting 0.0344828
uecai big 0.0153846
uecai What 0.0024155
uecai never 0.0131579
uecai I 0.0002511
uecai that 0.0011751
uecai surprise 0.0769231
uecai ! 0.0015175
uecai happen 0.0500000
uecai to 0.0004073
uecai a 0.0004098
uecai expected 0.1000000
perus Peru 1.0000000
tolvai Little 0.5000000
tolvai mistakes 0.2000000
nicte long 0.0259740
nicte all 0.0118343
nicte NULL 0.0003942
nicte Good 0.0277778
nicte At 0.1071429
nicte night 0.7205882
nicte it 0.0015129
nicte greetings 0.5000000
nicte about 0.0039841
nicte nocturnal 0.5000000
nicte Goodnight 0.4000000
nicte tonight 0.1578947
nicte at 0.0028329
nicte Nightly 1.0000000
ckaku'a bedroom 1.0000000
ckaku'a immediately 0.0769231
tcexau very 0.0043478
tcexau are 0.0012300
tcexau wonderful 0.0666667
tcexau nice 0.0250000
zgica'a play 0.0697674
zgica'a player 0.2500000
mujyfa'o world 0.0204082
mujyfa'o will 0.0035211
mujyfa'o end 0.0370370
mujyfa'o the 0.0003098
mujyfa'o of 0.0007530
sobde a 0.0004098
sobde soya 1.0000000
centero in 0.0018083
centero center 0.6666667
centero the 0.0009294
centero of 0.0022590
violni violin 1.0000000
fai hard 0.0649351
fai allowed 0.1666667
fai preferences 0.2500000
fai TV 0.0625000
fai move 0.1428571
fai something 0.0085470
fai Open 0.0476190
fai coconut 0.1111111
fai dropped 0.1000000
fai likely 0.1000000
fai convince 1.0000000
fai responsible 0.0909091
fai persuaded 0.1428571
fai machine 0.0454545
fai wherever 0.3333333
fai develop 0.2000000
fai shelter 0.1428571
fai risk 0.1666667
fai Leave 0.0555556
fai moving 0.0833333
fai compelled 0.3333333
fai pleasant 0.0454545
fai any 0.0166667
fai happens 0.0454545
fai Return 0.2000000
fai your 0.0022075
fai plate 0.2500000
fai opening 0.1818182
fai asked 0.0131579
fai repeat 0.0714286
fai cleared 0.2000000
fai turn 0.0588235
fai stain 0.5000000
fai supposed 0.1538462
fai spotted 0.2000000
fai match 0.2000000
fai have 0.0043103
fai gem 0.2500000
fai NULL 0.0017083
fai makes 0.0344828
fai fed 0.1111111
fai finish 0.1250000
fai waving 0.1000000
fai late 0.0735294
fai feed 0.0769231
fai gloves 0.2000000
fai Wake 0.0588235
fai changing 0.1666667
bemtu'a America 0.0256410
bemtu'a North 0.2500000
lo Others 0.5000000
lo Birds 0.1250000
lo Practice 0.2500000
lo Too 0.1666667
lo owned 0.6666667
lo Understanding 0.3333333
lo Five 0.1250000
lo She 0.0026110
lo Who 0.0264901
lo Tourists 0.4000000
lo Father 0.2500000
lo Physics 0.2500000
lo Skateboarding 0.2500000
lo Chinese 0.1111111
lo Tea 0.1666667
lo better 0.0526316
lo Her 0.2040816
lo without 0.0256410
lo Today 0.2631579
lo War 0.1428571
lo produces 0.1111111
lo chopsticks 0.3333333
lo Milk 0.3333333
lo Nickel 0.2500000
lo Time 0.3750000
lo copper 0.2500000
lo That 0.1250000
lo Snow 0.5000000
lo poems 0.4285714
lo Red 0.2500000
lo French 0.2253521
lo books 0.0333333
lo Chocolate 0.5000000
lo in 0.0976492
lo Use 0.0833333
lo Lemon 0.5000000
lo Breast 0.6666667
lo Bronze 0.3333333
lo out 0.1416667
lo for 0.1471074
lo Trickery 0.5000000
lo this 0.0021645
lo Intense 0.2500000
lo My 0.3440644
lo 25 0.0952381
lo Females 0.5000000
lo God 0.1267606
lo Where 0.0235294
lo Spiders 0.5000000
lo beans 0.5000000
lo Slow 0.2500000
lo Eating 0.2500000
lo News 0.5000000
lo tomato 0.3333333
lo Fertile 0.5000000
lo Children 0.3888889
lo Centimeter 0.3333333
lo Proton 0.5000000
lo having 0.0400000
lo Rabbits 0.2000000
lo Playing 1.0000000
lo NULL 0.2537451
lo Reptiles 0.5000000
lo energy 0.1428571
lo Soccer 0.4285714
lo Nature 0.2857143
lo Using 0.2000000
lo Guns 0.5000000
lo Fishing 0.3333333
lo math 0.2222222
lo . 0.2957986
lo Logic 0.3333333
lo Elephants 0.5000000
lo her 0.0880000
lo Raccoons 0.5000000
lo Barley 0.5000000
lo Silly 0.1666667
lo Metric 0.5000000
lo your 0.2560706
lo Education 0.6666667
lo Ankle 0.5000000
lo Money 0.3636364
lo Determination 0.1666667
lo Bacteria 0.5000000
lo precede 0.3333333
lo symbols 0.3333333
lo a 0.4352459
lo brewed 0.5000000
lo Bread 0.3333333
lo Jaded 0.5000000
lo With 0.2222222
lo Those 0.1724138
lo what 0.0974026
lo Every 0.0416667
lo Potential 0.3333333
lo Old 0.2857143
lo Hydrogen 0.3333333
lo babbling 0.2000000
lo on 0.0657143
lo Gasoline 0.5000000
lo An 0.4545455
lo Ripe 0.5000000
lo Bears 0.2500000
lo the 0.5359356
lo Ciao 0.5000000
lo According 0.2857143
lo as 0.0544218
lo Mathematics 0.3333333
lo Blind 1.0000000
lo Translation 0.5000000
lo home 0.0067114
lo Wood 0.5000000
lo Trolling 0.2000000
lo keep 0.0869565
lo computers 0.4000000
lo Pastafarians 0.3333333
lo Traveling 0.2000000
lo Baseball 0.5000000
lo Which 0.0967742
lo than 0.0071942
lo serving 0.3333333
lo many 0.0102041
lo substance 0.5000000
lo Foxes 1.0000000
lo bananas 0.2352941
lo arithmetic 1.0000000
lo Weather 0.1428571
lo Cockroaches 0.6000000
lo globalisation 0.5000000
lo music 0.0500000
lo Enough 0.2222222
lo People 0.4800000
lo Car 0.3333333
lo Half 0.1428571
lo Humans 1.0000000
lo They 0.0059172
lo at 0.0538244
lo Little 0.5000000
lo Water 0.4285714
lo Japanese 0.0181818
lo trips 0.2500000
lo science 0.2500000
lo Oxygen 0.5000000
lo Curiosity 0.3000000
lo 1 0.0392157
lo Products 0.2000000
lo Madam 0.3333333
lo Wet 0.5000000
lo Electrical 0.3333333
lo these 0.1403509
lo Garlic 0.5000000
lo Air 0.5000000
lo Cherry 0.5000000
lo Fish 0.3333333
lo Giving 0.6666667
lo Doing 1.0000000
lo leaves 0.0666667
lo how 0.0281690
lo my 0.1301059
lo Branches 0.6666667
lo Meat 0.5000000
lo Spider 0.3333333
lo Dinner 0.5000000
lo Butterflies 0.5000000
lo It 0.0265487
lo Jumping 0.2500000
lo Speaking 0.1111111
lo people 0.1073446
lo Strawberries 0.5000000
lo Two 0.1052632
lo hunter 0.2500000
lo As 0.1000000
lo Three 0.1818182
lo Wind 0.5000000
lo Dayxa 0.5000000
lo Leaves 0.5000000
lo today 0.0083333
lo against 0.3666667
lo like 0.0136674
lo Cats 0.4857143
lo Life 0.2666667
lo above 0.0909091
lo Dictionary 0.5000000
lo Bottles 0.6666667
lo Formerly 1.0000000
lo pumpkin 0.6666667
lo Learning 0.2000000
lo they 0.0459770
lo Chickens 0.5000000
lo all 0.0118343
lo Being 0.3333333
lo &apos;s 0.0155794
lo Male 0.5000000
lo producing 0.2941176
lo shit 0.0833333
lo Workers 0.2000000
lo trousers 0.3333333
lo To 0.2222222
lo Words 0.5000000
lo beings 0.3333333
lo Lojbanists 0.3636364
lo School 0.4000000
lo Dogs 0.2500000
lo The 0.5000000
lo Clouds 0.5000000
lo Forty-eight 0.4000000
lo about 0.0199203
lo butter 0.2631579
lo Apples 0.2500000
lo Paper 0.2500000
lo Pessimists 0.2500000
lo Mathematic 0.5000000
lo Your 0.3698630
lo into 0.3364486
lo Mold 0.5000000
lo noblemen 0.5000000
lo Drivers 0.2500000
lo Pizza 0.3333333
lo Flour 0.4000000
lo ? 0.1485743
lo Grandma 0.5000000
lo Rice 0.1428571
lo What 0.0338164
lo Aluminum 0.5000000
lo of 0.0609940
lo One 0.1132075
lo Portugal 0.3333333
lo testicles 0.3333333
lo instance 0.5000000
lo These 0.2421053
lo Dust 0.5000000
lo Oranges 0.5000000
lo spiders 0.2500000
lo Beetroot 0.2500000
lo Heart 0.3333333
lo Hens 1.0000000
lo Both 0.2307692
lo fastening 0.3333333
lo Young 0.3333333
lo Baby 0.4444444
lo Rhinoceros 0.5000000
lo Donkeys 0.2500000
lo More 0.2857143
lo making 0.1176471
lo his 0.3671642
lo electrical 0.5000000
lo Short 0.5000000
lo Seen 0.2000000
lo watch 0.0333333
lo our 0.1724138
lo Loving 0.2500000
lo Nerves 0.3333333
lo Buffalo 0.1666667
lo Hawks 1.0000000
lo with 0.0417690
lo Although 0.1250000
lo Winter 0.2500000
lo Pee 0.0833333
lo Hope 0.0909091
lo Fruit 1.0000000
lo Drinking 0.3750000
lo Monitoring 0.3333333
lo Mom 0.1666667
lo Crows 0.2500000
lo tasty 0.0555556
lo Illness 0.2500000
lo Rats 0.1666667
lo fruit 0.1578947
lo Marriage 0.5000000
lo This 0.1805556
lo to 0.0549898
lo Sentences 0.6000000
lo Music 0.2500000
lo English 0.2322581
lo Monday 0.2500000
lo He 0.0060060
lo goat 0.2500000
lo their 0.2535211
lo Someone 0.0833333
lo Sulfur 0.3333333
lo Gold 0.4545455
lo space 0.1666667
lo Stars 0.3333333
lo Bees 0.5000000
lo Brass 0.2500000
lo All 0.1451613
lo Their 0.2500000
lo Russian 0.1578947
lo cutting 0.2500000
lo His 0.2500000
lo There 0.0575221
lo through 0.0714286
lo when 0.0909091
lo Lawyers 0.5000000
lo pearls 0.6666667
lo Perhaps 0.1428571
lo focusing 1.0000000
lo Coal 0.5000000
lo Maybe 0.0833333
lo A 0.5459770
lo Aardvarks 0.5000000
lo Death 0.2500000
lo bullshit 0.4000000
lo from 0.0914454
lo some 0.3741007
lo Bananas 0.5000000
lo Bats 0.5000000
lo meal 0.0833333
lo after 0.0238095
lo Spanish 0.1176471
lo Arabic 0.4000000
lo Italian 0.3333333
lo Math 0.3333333
lo Cows 0.2857143
lo For 0.0952381
lo Dolphins 0.2500000
lo Dry 1.0000000
lo by 0.0789474
lo air 0.0454545
lo Parallel 0.5000000
lo Is 0.0254237
lo Not 0.1363636
lo an 0.3688213
lo its 0.3333333
lo Insects 0.5000000
lo Dancing 0.3333333
lo needless 0.3333333
lo Shopping 0.1666667
lo words 0.2545455
lo 256 0.2500000
lo contains 0.1250000
lo Our 0.2857143
lo eater 0.3333333
lo pens 0.3333333
lo Fewer 0.4285714
lo Real 0.3333333
lo Whales 0.5000000
lo Such 0.1250000
lo Finding 0.3333333
lo Science 0.2000000
lo objects 0.3333333
lo Pieces 0.3333333
lo retains 1.0000000
lo that 0.0564042
lo exasecond 0.4000000
lo any 0.0166667
lo Smart 0.5000000
lo Computers 0.5000000
lo Colorless 0.5000000
lo Language 0.3333333
lo Sugar 0.3333333
la.iodas Yoda 0.3333333
tom Tom 0.3868876
tom has 0.0070922
tom hadn 0.3333333
tom upset 0.1428571
kani left 0.0108696
kani before 0.0136986
kani he 0.0034843
kani day 0.0113636
pat Pat 1.0000000
mai Finally 0.3333333
mai Lastly 0.2500000
mai Muslim 0.1666667
mai Secondly 0.2500000
mai First 0.2000000
mai she 0.0136054
mai , 0.0023781
cacra Forty-eight 0.2000000
cacra hours 0.4634146
cacra without 0.0512821
cacra ceasing 0.2000000
cacra lasted 0.1250000
cacra long 0.0129870
cacra for 0.0066116
cacra hour 0.3600000
cacra an 0.0114068
cacra fox 0.2000000
e'u Jihad 0.2000000
e'u Please 0.0384615
e'u &apos;t 0.0010482
e'u Leave 0.0555556
e'u You 0.0119048
e'u ought 0.0769231
e'u drop 0.2000000
e'u Come 0.0256410
e'u should 0.0365854
e'u since 0.0357143
e'u ! 0.0015175
e'u How 0.0043668
e'u I 0.0010045
e'u recommend 0.1666667
e'u dessert 0.5000000
e'u Let 0.3118280
e'u worry 0.0666667
e'u Go 0.0270270
e'u hesitate 0.2000000
e'u don 0.0031447
e'u Always 0.2000000
e'u suggest 0.4000000
e'u case 0.1666667
e'u &apos;s 0.0223953
e'u NULL 0.0006570
e'u running 0.0344828
e'u Would 0.0810811
e'u better 0.0263158
e'u on 0.0028571
e'u windows 0.1666667
e'u by 0.0037594
e'u Why 0.0197368
e'u cinema 0.1666667
e'u ? 0.0005003
oinai I 0.0002511
oinai pleased 0.1000000
oinai &apos;m 0.0017452
oinai with 0.0024570
oinai their 0.0140845
oinai performance 0.0833333
oinai Nice 0.1428571
tedjicmu Tellurium 1.0000000
lenu to 0.0004073
lenu Have 0.0181818
lenu of 0.0007530
lenu Traveling 0.2000000
lenu classes 0.1428571
lenu Thanks 0.0454545
lenu the 0.0006196
lenu NULL 0.0006570
lenu prices 0.2000000
lenu Waking 0.5000000
lenu concert 0.1428571
nuncenba in 0.0009042
nuncenba to 0.0004073
nuncenba changes 0.2000000
nuncenba temperature 0.3333333
cnebo neck 0.5000000
cnebo necklace 0.5000000
cnebo necks 0.5000000
frili to 0.0004073
frili finding 0.1250000
frili learned 0.1428571
frili Postscript 0.2500000
frili piece 0.1000000
frili was 0.0033223
frili NULL 0.0006570
frili easily 0.1666667
frili but 0.0068493
frili &apos;s 0.0038948
frili for 0.0115702
frili sells 0.0833333
frili easy 0.7419355
frili It 0.0110619
frili cake 0.0270270
frili writes 0.1250000
frili . 0.0010750
derpi &quot; 0.0027473
derpi derped 0.2500000
tcica trick 0.2500000
tcica swindlers 1.0000000
tcica loyal 0.5000000
tcica lying 0.0909091
tcica let 0.0357143
tcica to 0.0004073
tcica a 0.0012295
tcica Trickery 0.5000000
tcica misled 0.2500000
tcica deceiving 0.5000000
tcica fooled 0.2000000
tcica tricked 1.0000000
tcica cheated 0.5000000
tcica lie 0.1250000
sfofa adds 0.3333333
sfofa to 0.0004073
sfofa next 0.0294118
sfofa on 0.0028571
sfofa sofa 1.0000000
sfofa couch 1.0000000
sfofa comfort 1.0000000
uedai night 0.0147059
uedai o 0.0526316
uedai &apos;clock 0.0400000
uedai ten 0.0370370
uedai already 0.0384615
uedai at 0.0028329
jinru in 0.0009042
jinru plunging 0.3333333
jinru immersed 1.0000000
jinru into 0.0093458
jinmrlantano Lanthanum 1.0000000
me'i There 0.0088496
me'i hour 0.0400000
me'i bit 0.0476190
me'i less 0.0740741
me'i 50,000 0.3333333
me'i Fewer 0.5714286
me'i than 0.0215827
me'i are 0.0012300
me'i 12 0.1000000
me'i enough 0.0217391
me'i Less 1.0000000
vanci this 0.0021645
vanci Good 0.1111111
vanci &apos;s 0.0009737
vanci dinner 0.0909091
vanci evening 0.4736842
vanci . 0.0002687
vanci It 0.0022124
jufpau in 0.0009042
jufpau phrase 0.1000000
tolmelbi &apos;s 0.0009737
tolmelbi ugly 0.2000000
tolmelbi grotesque 1.0000000
tolmelbi It 0.0022124
tolmelbi . 0.0002687
tolmelbi are 0.0012300
uenci containing 0.2000000
uenci documents 1.0000000
blotrskunri a 0.0004098
blotrskunri schooner 1.0000000
blotrskunri is 0.0003654
iesos Jesus 0.1000000
18xyxymoi century 0.1666667
18xyxymoi 19th 1.0000000
la.tokion comparison 0.2500000
la.tokion Tokyo 0.2745098
la.tokion Compared 0.2500000
truci'e who 0.0066667
truci'e desire 0.1428571
truci'e bad 0.0333333
truci'e leaders 0.2000000
truci'e power 0.0500000
truci'e make 0.0117647
mijypau core 0.5000000
dasri ribbon 0.5000000
dasri a 0.0016393
dasri into 0.0093458
dasri tied 0.1666667
dasri bundle 1.0000000
dasri with 0.0049140
dasri packed 1.0000000
dasri gift 0.0833333
la.djan John 0.0112360
la.djan did 0.0054945
jbonei Lojban-enthusiast 0.2500000
jbonei describe 0.1666667
jbonei the 0.0003098
jbonei typical 0.0909091
Teddy Bear 0.2000000
Teddy was 0.0016611
Teddy hamster 1.0000000
Teddy , 0.0005945
Teddy blond 0.2500000
Teddy Teddy 1.0000000
fa'i one 0.0040486
fa'i bit 0.0476190
tolnurcni to 0.0004073
tolnurcni have 0.0021552
tolnurcni threatened 1.0000000
tolnurcni &apos;t 0.0010482
tolnurcni feel 0.0208333
tolnurcni don 0.0031447
jetyja'o who 0.0066667
jetyja'o the 0.0003098
jetyja'o prove 0.1428571
jetyja'o murderer 0.5000000
jetyja'o is 0.0003654
dicnunskezu'e engineering 0.3333333
dicnunskezu'e electrical 0.5000000
gugdegulu is 0.0003654
tolracli demands 0.1428571
tolracli are 0.0012300
tolracli Your 0.0136986
tolracli unreasonable 1.0000000
bajykla into 0.0093458
bajykla burst 0.3333333
gy.yay, hello 0.1250000
flapaizda court 0.2500000
alyn to 0.0004073
alyn talking 0.0181818
alyn is 0.0003654
alyn Allan 0.2500000
vietnam Vietnam 1.0000000
nau NULL 0.0001314
nau now 0.0751880
nau &apos;re 0.0063291
nau &apos;m 0.0034904
nau Now 0.0370370
betri a 0.0004098
betri tragedy 0.2500000
betri for 0.0016529
betri It 0.0022124
dicmakseldi'e radiation 0.5000000
dicmakseldi'e Electromagnetic 1.0000000
stapa &apos;d 0.0147059
stapa footsteps 0.3333333
stapa carefully 0.2000000
stapa on 0.0085714
stapa stepped 0.2142857
stapa onto 0.1428571
stapa outside 0.0476190
li'i ! 0.0015175
li'i sweat 0.2500000
li'i meal 0.0833333
li'i a 0.0012295
li'i poverty 0.1111111
li'i New 0.1428571
li'i Have 0.0545455
li'i looping 0.3333333
li'i did 0.0164835
li'i Year 0.0555556
li'i nice 0.0750000
li'i NULL 0.0002628
li'i Happy 0.0625000
li'i like 0.0068337
li'i wealth 0.1250000
jipci chickens 0.6666667
jipci chicken 0.5000000
jipci millet 0.3333333
jipci killed 0.0270270
jipci hen 0.2857143
jipci NULL 0.0001314
jipci hens 0.3333333
jipci were 0.0072993
jipci Chickens 0.2500000
jipci by 0.0037594
jipci egg 0.1666667
prubi'o dragging 0.3333333
prubi'o slowly 0.0769231
prubi'o by 0.0075188
ze seven 0.5263158
ze 7-stringed 0.1666667
ze NULL 0.0006570
ze closes 0.2000000
ze fail 0.0588235
ze Sunday 0.1111111
ze store 0.0294118
ze 7 0.6250000
ze Jump 0.3333333
ze 2015 0.1000000
ze 17 0.1666667
ze at 0.0028329
tolplixau to 0.0004073
tolplixau useless 0.2500000
tolplixau is 0.0003654
tolplixau pointless 1.0000000
gunta crazy 0.0370370
gunta &apos;re 0.0063291
gunta attacked 0.5000000
gunta attacking 1.0000000
gunta ! 0.0015175
gunta attack 0.5714286
gunta Charge 0.2500000
gunta were 0.0072993
gunta under 0.0333333
gunta infected 0.5000000
gunta NULL 0.0001314
kunti empty 0.8000000
kunti vacuum 0.3333333
kunti a 0.0004098
kunti free 0.0416667
stalman Stallman 0.5000000
mongolo Mongolia 1.0000000
parbi the 0.0009294
parbi ratio 0.3333333
parbi rate 1.0000000
parbi fraction 0.3333333
parbi of 0.0007530
tolmakcu She 0.0026110
tolmakcu immature 0.3333333
tolmakcu is 0.0007307
tolmakcu He 0.0015015
tolmakcu young 0.0800000
fu'inai lack 0.1666667
fu'inai startling 0.5000000
fonta'a Somebody 0.1538462
fonta'a call 0.1000000
fonta'a telephoned 0.5000000
fonta'a ring 0.1666667
fonta'a called 0.1041667
fonta'a Call 0.0344828
fonta'a NULL 0.0001314
fonta'a again 0.0357143
fonta'a calling 0.2500000
pesku'i of 0.0015060
pesku'i How 0.0087336
pesku'i ! 0.0030349
pesku'i considerate 1.0000000
seltcu need 0.0113636
seltcu which 0.0217391
seltcu bleeding 0.0909091
seltcu the 0.0003098
dumdu'o what 0.0032468
baklanme Muskox 1.0000000
toljitro yet 0.0294118
toljitro it 0.0015129
toljitro &apos;m 0.0017452
toljitro drawn 0.5000000
toljitro uncontrollably 0.3333333
seri'i With 0.1111111
tcomolunmas Everest 1.0000000
tcomolunmas as 0.0068027
tcomolunmas Mount 0.3333333
zilmipri It 0.0022124
zilmipri isn 0.0120482
zilmipri secret 0.0769231
zilmipri a 0.0004098
gy.Russell.gy Russell 0.1250000
jyfykys worked 0.0833333
befsri belt 0.5000000
befsri buckle 0.5000000
ma deal 0.0909091
ma chocolates 0.3333333
ma is 0.0065765
ma Which 0.3548387
ma jumps 0.1000000
ma why 0.1315789
ma do 0.1273210
ma gonads 0.3333333
ma doing 0.0434783
ma hello 0.0625000
ma Says 0.2500000
ma responsible 0.0909091
ma determine 0.2500000
ma does 0.0140845
ma are 0.0369004
ma contraption 0.1666667
ma British 0.2000000
ma who 0.0333333
ma suggesting 0.2500000
ma How 0.2751092
ma Lojbanists 0.0909091
ma scientist 0.5000000
ma saying 0.0370370
ma extent 0.2500000
ma dogs 0.0312500
ma limit 0.1666667
ma noble 0.2500000
ma celebrating 0.5000000
ma selling 0.5000000
ma conclusions 0.5000000
ma subjects 0.1428571
ma vary 0.3333333
ma nationality 0.1428571
ma cost 0.2500000
ma taxi 0.1250000
ma choosing 0.2500000
ma did 0.2417582
ma directions 0.2500000
ma Who 0.8145695
ma elaborate 0.2500000
ma conduct 0.2500000
ma where 0.0990099
ma Only 0.0625000
ma what 0.0941558
ma paying 0.1000000
ma how 0.0915493
ma Exactly 0.1000000
ma restaurant 0.0303030
ma experienced 0.2000000
ma location 0.5000000
ma cares 0.0769231
ma When 0.3461538
ma unpredictable 0.1428571
ma units 0.1666667
ma subject 0.0714286
ma headed 0.3333333
ma Such 0.1250000
ma pronunciation 0.1428571
ma worn 0.2000000
ma smell 0.0500000
ma scale 0.1111111
ma NULL 0.0060447
ma relevant 0.2000000
ma nearest 0.1538462
ma Xalbo 0.1666667
ma nearby 0.0769231
ma ? 0.1655828
ma Whose 0.4545455
ma color 0.1304348
ma What 0.4685990
ma Why 0.4407895
ma born 0.0277778
ma Where 0.5450980
mispre celebrity 1.0000000
mispre who 0.0066667
mispre person 0.0126582
mispre a 0.0004098
cu'o discussion 0.0526316
cu'o Had 0.3333333
postskript than 0.0071942
postskript Postscript 0.2500000
lijdrdjaina Jainism 1.0000000
go'e do 0.0026525
go'e Why 0.0065789
go'e ! 0.0015175
go'e No 0.0095238
zu'i Chicago 0.1666667
zu'i logic 0.1111111
zu'i at 0.0056657
zu'i people 0.0112994
zu'i usual 0.7142857
zu'i NULL 0.0001314
zu'i place 0.0444444
zu'i the 0.0012392
la.tonis playing 0.0312500
la.tonis then 0.0250000
la.tonis or 0.0060241
la.tonis Tony 0.1250000
la.tonis was 0.0016611
parpika one 0.0040486
parpika Add 1.0000000
parpika teaspoon 0.3333333
jundi Listen 0.1428571
jundi listening 0.0909091
jundi &apos;t 0.0010482
jundi attentive 1.0000000
jundi out 0.0083333
jundi be 0.0051546
jundi focus 0.5000000
jundi me 0.0014728
jundi NULL 0.0002628
jundi was 0.0033223
jundi carefully 0.4000000
jundi fires 0.3333333
jundi no 0.0062500
jundi at 0.0028329
jundi Watch 0.2857143
jundi paying 0.3000000
jundi pay 0.1851852
jundi to 0.0032587
jundi listened 0.1111111
jundi attention 0.8571429
jundi careful 0.3125000
jundi There 0.0044248
jundi Look 0.0227273
jundi ignore 0.0909091
jundi now 0.0075188
jundi paid 0.0666667
basygau Change 0.1250000
bu'o Enough 0.1111111
bu'o on 0.0028571
bu'o now 0.0150376
bu'o laughing 0.1250000
bu'o that 0.0011751
bu'o going 0.0058480
bu'o I 0.0002511
bu'o Oh 0.0270270
bu'o and 0.0018315
bu'o happy 0.0084034
zoi.Eyjafjallajökull.zoi &quot; 0.0027473
zoi.Eyjafjallajökull.zoi Eyjafjallajökull 0.1666667
kreka'astu barbershop 0.5000000
noltrunau the 0.0006196
noltrunau king 0.0500000
noltrunau of 0.0007530
jinmrneptuni Neptunium 1.0000000
ravysirji its 0.0512821
ravysirji diameter 0.4000000
ravysirji by 0.0075188
ravysirji circle 0.5000000
lo'u translation 0.0625000
lo'u vau 0.3333333
lo'u la 0.0909091
miptera &apos;re 0.0063291
miptera a 0.0004098
miptera bug 0.2500000
soltolfa'u it 0.0015129
soltolfa'u is 0.0003654
soltolfa'u sunrise 1.0000000
soltolfa'u a 0.0008197
ugandas Uganda 1.0000000
blucri bleeding 0.3636364
blucri badly 0.3333333
blucri . 0.0003583
blucri &apos;re 0.0063291
rectu inside 0.0588235
rectu meat 0.6875000
rectu Meat 0.5000000
rectu is 0.0003654
rectu beef 0.3333333
rectu Get 0.0476190
rectu butchery 0.2500000
cukla dividing 1.0000000
cukla round 0.1666667
ridrxobi Sauron 0.3333333
arco buys 0.1111111
arco spectator 0.2500000
zeldei Sundays 0.5000000
zeldei without 0.0256410
zeldei on 0.0028571
zeldei fail 0.0588235
zeldei Sunday 0.0555556
vau order 0.0454545
vau famous 0.0666667
vau dunda 1.0000000
vau pudding 0.2500000
vau vau 0.3333333
vau students 0.0357143
vau studs 0.5000000
vau 5 0.0333333
vau comfortable 0.0909091
vau architecture 0.3333333
vau arrive 0.1000000
vau decisions 0.2500000
vau tax 0.2000000
vau that 0.0011751
vau scents 0.5000000
vau Sit 0.1428571
vau 0.1 1.0000000
vau help 0.0277778
vau our 0.0344828
vau usage 0.0666667
vau preparing 0.5000000
vau failure 0.2500000
vau 10th 0.1666667
vau living 0.0416667
vau Okinawa 0.1428571
vau curious 0.1250000
vau so 0.0074627
vau please 0.0270270
vau intermittent 0.2500000
vau NULL 0.0074901
vau Flying 0.3333333
vau works 0.0454545
vau height 0.1000000
vau by 0.0300752
vau verb 0.0769231
vau feel 0.0208333
vau wine 0.0555556
vau laying 0.5000000
vau irritating 0.2500000
vau land 0.0769231
vau maggot 0.3333333
vau tines 0.5000000
vau , 0.0219976
vau right 0.0250000
vau teeth 0.0769231
vau respect 0.0714286
vau funny 0.0588235
vau digging 0.2500000
vau metric 1.0000000
vau eff 0.2500000
vau sport 0.0666667
vau newborns 0.1666667
vau observe 0.1666667
vau P 0.1428571
vau do 0.0026525
vau Hokkaido 0.0625000
vau : 0.0222222
vau process 0.1666667
vau since 0.0714286
vau respected 0.0416667
vau mood 0.1250000
vau skirt 0.1666667
vau trees 0.0416667
vau rods 0.1250000
vau Germans 0.2000000
vau rain 0.0227273
vau it 0.0015129
vau is 0.0003654
vau confusion 0.2500000
vau in 0.0009042
vau encoded 0.2000000
vau rational 0.1818182
vau woman 0.0151515
vau poems 0.1428571
vau hill 0.0588235
vau among 0.0526316
vau surprise 0.0769231
vau polity 0.5000000
vau Go 0.0270270
vau startling 0.5000000
vau motive 0.2000000
vau home 0.0134228
vau ) 0.0065359
vau demands 0.1428571
vau feminine 0.3333333
vau courage 0.2500000
vau eh 0.2500000
vau kitchen 0.0909091
vau plunging 0.3333333
vau course 0.0500000
vau arrival 0.0769231
vau located 0.2500000
vau holes 0.3333333
vau health 0.0740741
vau awesome 0.2222222
vau conduct 0.2500000
vau official 0.1000000
vau cake 0.0270270
vau against 0.0333333
vau fulfilling 1.0000000
vau opened 0.0769231
vau escape 0.3333333
vau tasty 0.1111111
vau standard 0.5000000
vau return 0.0370370
vau OK 0.1111111
vau numbers 0.1000000
vau constant 0.3333333
vau till 0.0909091
vau weren 0.1111111
nononono it 0.0015129
nononono you 0.0005348
nononono than 0.0071942
nononono yen 0.3333333
nononono 10,000 0.3333333
nononono cost 0.0500000
nononono more 0.0076923
nononono think 0.0073529
nononono will 0.0035211
kulmu'o graduates 1.0000000
kulmu'o from 0.0029499
kulmu'o graduated 1.0000000
caba'o &apos;ve 0.0116279
caba'o been 0.0101010
smani those 0.0370370
smani of 0.0007530
smani are 0.0024600
smani monkey 1.0000000
smani monkeys 1.0000000
smani &apos;s 0.0009737
smani kind 0.0128205
internet internet 0.2727273
internet Internet 0.1250000
internet is 0.0007307
internet The 0.0009506
internet via 0.0769231
internet streaming 0.3333333
internet video 0.2000000
internet the 0.0006196
tcesno very 0.0043478
tcesno slow 0.1111111
ba'u understood 0.1111111
ba'u explanations 0.1666667
ba'u exaggerate 0.3333333
ba'u mildly 0.2857143
ba'u pile 0.5000000
ba'u NULL 0.0001314
ba'u never 0.0131579
ba'u put 0.0350877
ba'u it 0.0030257
ba'u To 0.0138889
ba'u to 0.0004073
ctona'a Century 1.0000000
ctona'a century 0.1666667
dikni channel 0.1666667
dikni table 0.0285714
dikni Periodic 0.3333333
dikni regular 0.2500000
dikni am 0.0039683
dikni in 0.0009042
dikni cleaning 0.2500000
cabytcika &apos;clock 0.0400000
cabytcika o 0.0526316
cabytcika until 0.0384615
cabytcika six 0.0714286
sakcpu suckling 0.5000000
sakcpu is 0.0003654
co'arsau with 0.0024570
co'arsau acquainted 0.5000000
co'arsau became 0.0370370
fange stranger 1.0000000
fange see 0.0067568
fange know 0.0030960
fange alien 1.0000000
fange unidentified 0.4285714
fange avoid 0.1666667
fange unfamiliar 0.2000000
fange when 0.0060606
fange foreign 0.6250000
fange foreigners 0.5000000
fange strangers 1.0000000
fange topic 0.2500000
fange we 0.0075758
fange an 0.0114068
fange NULL 0.0001314
fange this 0.0021645
fange &apos;d 0.0147059
fange Foreigners 0.5000000
fange abroad 0.0952381
fange were 0.0072993
jgena a 0.0004098
jgena knot 1.0000000
jgena of 0.0007530
jgena ropes 1.0000000
poi any 0.0833333
poi marry 0.0588235
poi access 1.0000000
poi Boston 0.0652174
poi belongs 0.0303030
poi become 0.0833333
poi breaking 0.1250000
poi that 0.0975323
poi standing 0.0500000
poi liter 0.1666667
poi giving 0.0769231
poi 2012 0.3333333
poi fool 0.0833333
poi kinds 0.1666667
poi penny 0.5000000
poi Products 0.2000000
poi lucid 0.2000000
poi relations 0.1666667
poi terrorists 0.2500000
poi guitar 0.0833333
poi issued 0.2000000
poi Thames 0.2000000
poi these 0.0526316
poi million 0.2000000
poi kilo 0.2222222
poi different 0.0400000
poi surprised 0.0238095
poi scene 0.2000000
poi rubber 0.3333333
poi section 0.1666667
poi random 0.1428571
poi Polish 0.1428571
poi reflective 0.2500000
poi babe 0.2500000
poi book 0.0691824
poi Simon 0.3333333
poi sells 0.0833333
poi whatever 0.2142857
poi buffalo 0.1250000
poi boy 0.0270270
poi Ocean 0.1250000
poi walking 0.0714286
poi de 0.1250000
poi paintings 0.1666667
poi such 0.0357143
poi type 0.0476190
poi expensive 0.0285714
poi town 0.0555556
poi difficulties 0.1250000
poi organisation 0.2500000
poi Which 0.0967742
poi phrase 0.1000000
poi consisting 0.5000000
poi injured 0.1666667
poi Evans 0.1666667
poi Voodoo 0.5000000
poi grams 0.1666667
poi money 0.0114943
poi creeping 0.1666667
poi fear 0.0769231
poi expressed 0.1666667
poi else 0.0800000
poi compared 0.2000000
poi who 0.2466667
poi sword 0.1666667
poi wearing 0.1052632
poi sets 0.3333333
poi Argyle 0.5000000
poi which 0.1304348
poi flower 0.1200000
poi apple 0.0338983
poi honest 0.0555556
poi teaspoon 0.3333333
poi to 0.0012220
poi Mt 0.3333333
poi unhappy 0.1538462
poi rode 0.3333333
poi Bruce 1.0000000
poi streetlight 0.3333333
poi the 0.0037175
poi countries 0.5000000
poi Mike 0.0769231
poi ship 0.0769231
poi model 0.1000000
poi library 0.0400000
poi hola 0.2000000
poi a 0.0008197
poi girl 0.0113636
poi companion 0.5000000
poi what 0.0259740
poi platform 0.5000000
poi honor 0.3333333
poi nodes 0.2000000
poi village 0.1111111
poi banana 0.0833333
poi expecting 0.1250000
poi traditionally 0.5000000
poi job 0.0408163
poi fond 0.1000000
poi furst 0.3333333
poi hoped 0.1333333
poi persons 0.2500000
poi language 0.0312500
poi white 0.0285714
poi formed 0.1111111
poi policemen 0.5000000
poi sand 0.1666667
poi rule 0.0714286
poi something 0.0170940
poi C 0.2500000
poi USA 0.1666667
poi anyone 0.0540541
poi anything 0.0344828
poi OpenBSD 0.1666667
poi of 0.0030120
poi waters 0.5000000
poi rotten 0.1428571
poi admired 1.0000000
poi NULL 0.0090670
poi named 0.1250000
poi nearest 0.0769231
poi These 0.0315789
poi Mortimer 0.3333333
poi whom 0.0833333
poi conjectures 0.2500000
poi beer 0.0303030
poi ? 0.0005003
poi class 0.0833333
poi doesn 0.0283019
poi Western 0.3333333
poi same 0.0294118
poi places 0.1250000
poi stars 0.1250000
poi right 0.0125000
poi desk 0.1000000
poi pajamas 0.3333333
poi squatting 0.2000000
poi happens 0.0454545
poi doorway 0.1666667
poi 18 0.1428571
poi trees 0.0416667
poi whichever 0.3333333
poi takes 0.1000000
poi animals 0.0526316
poi noodles 0.1111111
poi pupil 0.2500000
poi shirt 0.1250000
poi Lake 0.0909091
poi whose 0.1176471
poi man 0.0180180
poi policeman 0.1666667
poi Prefecture 0.2500000
poi cigarettes 0.1428571
poi exhibition 0.5000000
poi woman 0.0303030
poi cubes 0.5000000
poi Akasaka 0.2000000
poi pay 0.0370370
poi coming 0.0294118
poi &apos;s 0.0009737
poi melted 0.2500000
poi items 0.2000000
poi value 0.2000000
poi guy 0.1000000
poi website 0.2000000
poi Whoever 0.2000000
poi plastic 0.1428571
poi pharmacy 0.0909091
poi bowls 0.5000000
poi new 0.0357143
poi picture 0.0769231
poi candy 0.2727273
poi favorite 0.0882353
poi Tea 0.1666667
poi where 0.0396040
poi him 0.0062500
poi someone 0.0533333
poi Who 0.0198675
poi anywhere 0.1428571
poi everything 0.0178571
ze'a couldn 0.0500000
ze'a a 0.0045082
ze'a dancing 0.0769231
ze'a tonight 0.0526316
ze'a sang 0.1666667
ze'a stay 0.0263158
ze'a wait 0.1363636
ze'a &apos;ve 0.0116279
ze'a been 0.0202020
ze'a living 0.0416667
ze'a faster 0.0714286
ze'a I 0.0002511
ze'a lessons 0.1666667
ze'a long 0.0129870
ze'a entertained 0.1666667
ze'a spending 1.0000000
ze'a worn 0.2000000
ze'a straight 0.0769231
ze'a work 0.0088496
ze'a For 0.0476190
ze'a slept 0.1363636
ze'a NULL 0.0005256
ze'a continued 0.1666667
ze'a while 0.1379310
ze'a built 0.0357143
ze'a drove 0.0909091
ze'a for 0.0479339
ze'a hour 0.0400000
ze'a cried 0.0625000
ze'a taxi 0.1250000
taxfu dressed 0.2000000
taxfu out 0.0166667
taxfu clothes 0.3333333
taxfu badly 0.3333333
taxfu all 0.0059172
taxfu well 0.0175439
taxfu NULL 0.0003942
taxfu really 0.0129870
taxfu in 0.0009042
taxfu business 0.0666667
taxfu dress 0.2500000
taxfu clothing 0.2500000
taxfu Emperor 0.5000000
taxfu of 0.0007530
taxfu pack 0.2500000
dcosyn/xanguk Korea 0.1000000
mivyfu'i Cloning 1.0000000
vobi do 0.0026525
vobi How 0.0043668
vobi if 0.0111111
vobi change 0.0666667
vobi Forty-eight 0.2000000
vobi get 0.0081967
vobi you 0.0010695
vobi many 0.0204082
vobi how 0.0070423
vobi 48 0.5000000
toljundi , 0.0005945
toljundi &apos;d 0.0294118
toljundi ignore 0.1818182
toljundi I 0.0005023
kinrxanime Gate 0.5000000
kinrxanime ; 0.0212766
mi'i and 0.0018315
mi'i three 0.0140845
nutli language 0.0104167
nutli culturally 1.0000000
nutli neutral 0.2500000
ckudi'u library 0.1600000
la.sasa,iaman Sasayama 1.0000000
la.keit Kate 0.1111111
la.keit talked 0.0357143
la.keit over 0.0136986
siptcu sleepy 0.1111111
siptcu &apos;re 0.0063291
siptcu . 0.0000896
boljinterjvi holds 0.3333333
boljinterjvi same 0.0294118
e'icu'i . 0.0000896
e'icu'i Feel 0.2000000
e'icu'i Help 0.0909091
e'icu'i free 0.0416667
e'icu'i yourself 0.0277778
e'icu'i NULL 0.0001314
e'icu'i to 0.0004073
selxau go 0.0035088
selxau should 0.0121951
selyli'i experience 0.0434783
selyli'i him 0.0062500
selyli'i the 0.0003098
selyli'i gave 0.0169492
vaxydicra harp 0.3333333
pengau introduced 0.3333333
pengau introduce 1.0000000
pengau them 0.0144928
dinju house 0.2536232
dinju houses 0.4375000
dinju . 0.0000896
dinju building 0.7666667
dinju from 0.0088496
dinju cinema 0.1666667
dinju buildings 1.0000000
dinju NULL 0.0003942
dinju bathhouse 0.3333333
dinju where 0.0297030
jbesla bу 0.5000000
jbesla birthday 0.0869565
jbesla present 0.0606061
jbesla post 0.1818182
dikca Electrical 0.3333333
gy.Abraham Abraham 0.3333333
gy.Abraham Lincoln 0.1666667
afyganisTAN Afghanistan 1.0000000
mo'icli have 0.0021552
mo'icli I 0.0002511
tepygau &apos;t 0.0010482
tepygau it 0.0015129
tepygau wasn 0.0263158
tepygau craft 1.0000000
tepygau , 0.0005945
tepygau Scary 0.5000000
tepygau scared 0.2222222
selpu'a a 0.0004098
selpu'a enjoyed 0.1111111
bu WWW 0.3750000
bu possible 0.0416667
bu willing 0.3333333
bu A 0.0057471
bu difficult 0.0263158
bu positive 0.1052632
bu lateral 0.2500000
bu is 0.0003654
bu it 0.0015129
bu absence 0.2000000
gacri covered 0.3636364
gacri covers 0.3333333
gacri with 0.0049140
gacri lid 1.0000000
gacri Snow 0.5000000
gy.drip fry 0.5000000
gy.drip drip 0.5000000
go'inai No 0.0095238
mirlyxarju Babirusa 1.0000000
pauerpoint , 0.0005945
nu'e anything 0.0229885
nu'e you 0.0005348
nu'e my 0.0030257
nu'e give 0.0212766
nu'e promise 0.1428571
nu'e . 0.0000896
nu'e take 0.0181818
nu'e don 0.0062893
nu'e &apos;t 0.0020964
nu'e word 0.0294118
nu'e back 0.0181818
nu'e I 0.0017579
nu'e but 0.0136986
nu'e Umm 0.2000000
brafi'a of 0.0007530
brafi'a out 0.0333333
brafi'a novel 0.5000000
brafi'a come 0.0384615
brafi'a novels 0.3333333
brafi'a the 0.0006196
brafi'a author 0.0833333
laktergu'i candle 0.2500000
laktergu'i candles 0.2500000
laktergu'i Fifty-six 0.1428571
xy.Vabungula.xy Vabungula 0.1428571
cnidu'e O 0.2500000
cnidu'e ! 0.0015175
cnidu'e joy 0.2000000
cnidu'e , 0.0005945
xrakarni magazine 0.1666667
xrakarni magazines 0.3333333
xrakarni ? 0.0005003
xrakarni a 0.0008197
sezypi'i square 0.1538462
sezypi'i squares 0.3333333
sezypi'i of 0.0015060
visygau showed 0.1250000
se.unai , 0.0005945
se.unai matter 0.0588235
se.unai no 0.0062500
se.unai if 0.0111111
pamsi'u other 0.0227273
pamsi'u each 0.0317460
pamsi'u love 0.0111732
xeis name 0.0099010
xeis Hase 0.5000000
xeis is 0.0003654
xeis My 0.0020121
djino she 0.0068027
djino does 0.0140845
djino But 0.0196078
cmalinsi range 0.3333333
bolci A 0.0114943
bolci Cannon 0.2500000
bolci with 0.0024570
bolci rubber 0.3333333
bolci round 0.0833333
bolci ball 0.7333333
denburcu toothbrush 0.3333333
шу five 0.0312500
festi pail 0.3333333
festi a 0.0004098
festi garbage 0.5000000
festi It 0.0022124
festi scraps 0.3333333
festi &apos;s 0.0009737
festi NULL 0.0002628
festi truck 0.2500000
festi trash 0.5000000
kristian.anasn fairy 0.1428571
kristian.anasn tale 0.2500000
nu,IOrk York 0.1000000
nu,IOrk she 0.0068027
purci known 0.0666667
purci as 0.0068027
purci over 0.0136986
purci is 0.0003654
purci mistake 0.0434783
purci than 0.0071942
purci only 0.0094340
purci past 0.1428571
purci be 0.0025773
purci before 0.0136986
purci the 0.0003098
purci earlier 0.0588235
batke button 0.6000000
batke the 0.0003098
batke &apos;s 0.0009737
batke eject 0.3333333
nunfli failures 1.0000000
marji of 0.0037651
marji substance 0.5000000
marji made 0.0243902
marji Matter 1.0000000
marji consists 0.1666667
marji material 0.5000000
karl.fridrix.gaus Gauss 1.0000000
karl.fridrix.gaus Friedrich 1.0000000
karl.fridrix.gaus Carl 0.1666667
kelvo ( 0.0131579
kelvo 0 0.0909091
kelvo Kelvin 0.6000000
kelvo around 0.0800000
kelvo 293.5 1.0000000
kelvo ) 0.0130719
kelvo 20.5 1.0000000
kelvo Celsius 0.2857143
kelvo too 0.0180180
kelvo degrees 0.3636364
kelvo 273 1.0000000
rango an 0.0038023
rango organ 0.5000000
al Ali 0.5000000
al Al 0.5000000
cnici shining 0.2500000
cnici into 0.0093458
cnici neat 1.0000000
cnici being 0.0128205
cnici part 0.0555556
cnici in 0.0018083
cnici NULL 0.0001314
cnici organized 0.2500000
pare'u time 0.0075758
pare'u NULL 0.0003942
pare'u first 0.0322581
pare'u the 0.0003098
pare'u This 0.0017361
pare'u noodles 0.1111111
pare'u sold 0.2500000
pare'u excited 0.2000000
planeta planet 0.2727273
planeta planets 1.0000000
planeta this 0.0021645
cabo when 0.0060606
zdilisri joke 0.1111111
zdilisri get 0.0081967
3 20 0.0625000
3 &quot; 0.0027473
ra'unai &apos;s 0.0009737
ra'unai an 0.0038023
ra'unai elk 0.2500000
ra'unai only 0.0094340
dronalclu unsaturated 1.0000000
su'a generally 0.3333333
su'a little 0.0163934
su'a , 0.0005945
su'a general 0.3333333
su'a in 0.0009042
su'a hates 0.0333333
su'a particular 0.1666667
su'a are 0.0012300
su'a In 0.0175439
ma'a provide 0.2000000
ma'a exhausted 0.1666667
ma'a greed 0.2500000
ma'a argue 0.3333333
ma'a have 0.0021552
ma'a us 0.0705882
ma'a Our 0.0714286
ma'a our 0.0862069
ma'a We 0.1082090
ma'a neighbors 0.2500000
ma'a objected 0.2500000
ma'a of 0.0007530
ma'a all 0.0059172
ma'a approach 0.5000000
ma'a thankful 0.2000000
ma'a we 0.0606061
ma'a Clusivity 0.3333333
ma'a actually 0.0500000
ma'a ears 0.0769231
terdju succeed 0.0833333
cintypu'i paints 0.3333333
cintypu'i at 0.0028329
cintypu'i painted 0.6666667
cintypu'i paint 0.2500000
kamcnici of 0.0007530
kamcnici balance 0.5000000
kamcnici left 0.0108696
kamcnici the 0.0009294
kamcnici on 0.0028571
kamcnici ruins 1.0000000
skot Scott 0.3333333
skot resumed 1.0000000
skot her 0.0080000
skot when 0.0060606
skot career 0.1250000
mivdalmuzga zoo 0.6250000
zanbebna innocent 0.2000000
zanbebna &apos;s 0.0009737
zanbebna She 0.0026110
anolulus of 0.0007530
anolulus Honolulu 0.3333333
anolulus by 0.0037594
anolulus way 0.0119048
va'u it 0.0015129
va'u my 0.0015129
va'u to 0.0004073
va'u for 0.0066116
va'u instead 0.0909091
va'u discount 0.2500000
va'u do 0.0026525
va'u best 0.0243902
va'u &apos;ll 0.0064935
mulgauka'e manage 1.0000000
djunko a 0.0004098
djunko is 0.0003654
djunko Junko 0.2500000
xa'emi'o a 0.0004098
xa'emi'o go 0.0035088
xa'emi'o cup 0.0588235
xa'emi'o Let 0.0215054
da'i have 0.0021552
da'i Suppose 1.0000000
da'i sense 0.1428571
da'i If 0.0246914
da'i wish 0.0750000
da'i Or 0.2500000
da'i knew 0.0357143
da'i bend 0.1428571
da'i STD 0.2500000
da'i if 0.0222222
da'i I 0.0007534
da'i unfamiliar 0.2000000
da'i could 0.0350877
da'i love 0.0111732
da'i would 0.2093023
da'i honest 0.0555556
da'i sleeping 0.0526316
da'i keeping 0.0909091
da'i that 0.0011751
da'i NULL 0.0014455
da'i &apos;d 0.1323529
da'i touch 0.0476190
da'i be 0.0154639
da'i Bangu 0.5000000
da'i for 0.0016529
da'i wouldn 0.1818182
clabajykla in 0.0009042
clabajykla participate 0.5000000
clabajykla the 0.0003098
clabajykla marathon 1.0000000
ckusro to 0.0004073
ckusro library 0.5200000
ckusro in 0.0009042
ckusro the 0.0012392
ckusro at 0.0028329
ckusro now 0.0075188
seja'e NULL 0.0002628
seja'e am 0.0039683
seja'e Why 0.0526316
seja'e &apos;s 0.0009737
seja'e do 0.0026525
beijin Beijing 0.1428571
nunkarcyjanli accident 0.0625000
nunkarcyjanli traffic 0.0909091
nunkarcyjanli a 0.0004098
bemjoitco from 0.0088496
bemjoitco &apos;m 0.0052356
bemjoitco America 0.1282051
nu'o have 0.0043103
nu'o can 0.0125786
nu'o &apos;m 0.0017452
nu'o &apos;ve 0.0116279
nu'o nothing 0.0192308
nu'o There 0.0044248
nu'o could 0.0175439
nu'o not 0.0055762
nu'o ain 0.3333333
nu'o snack 0.3333333
nu'o on 0.0028571
nu'o anything 0.0114943
nu'o didn 0.0081967
nu'o has 0.0070922
nu'o we 0.0151515
nu'o never 0.0526316
nu'o NULL 0.0001314
nu'o tear 0.1666667
nu'o &apos;t 0.0010482
nu'o there 0.0063291
dyjy &apos;s 0.0009737
dyjy the 0.0006196
dyjy D. 0.3333333
dyjy J. 0.3333333
secau with 0.0024570
secau , 0.0011891
secau and 0.0018315
secau effort 0.2000000
secau place 0.0222222
secau world 0.0204082
secau be 0.0025773
secau tea 0.0161290
secau would 0.0116279
secau Without 0.1666667
secau without 0.2051282
re'e no 0.0125000
re'e shitty 0.1250000
re'e ( 0.0065789
re'e fair 0.2000000
re'e fairy 0.1428571
re'e respect 0.0714286
re'e well 0.0175439
re'e religious 0.1111111
re'e temple 0.1250000
re'e religion 0.1250000
sucysmadi of 0.0007530
sucysmadi full 0.0500000
sucysmadi conjectures 0.2500000
kilgau sharpened 0.5000000
kilgau a 0.0004098
lobypli a 0.0004098
lobypli am 0.0039683
lobypli Lojban 0.0055249
lobypli typical 0.0909091
lobypli user 0.1250000
minji fridge 0.2500000
minji apparatus 1.0000000
minji wonderful 0.0666667
minji works 0.0454545
minji machine 0.8636364
minji machines 0.5714286
minji hand-controlled 0.5000000
minji contraption 0.1666667
gugdeburu It 0.0022124
gugdeburu a.m. 0.3333333
gugdeburu &apos;s 0.0009737
gugdeburu 00 0.2000000
gugdeburu here 0.0043478
gugdeburu in 0.0009042
gugdeburu Brazil 0.1666667
gugdeburu 5 0.0333333
gugdeburu : 0.0222222
taske thirsty 0.8750000
taske am 0.0158730
taske for 0.0033058
taske are 0.0012300
taske dying 0.1250000
taske &apos;m 0.0069808
tomokos &apos;m 0.0017452
tomokos Tomoko 1.0000000
tomokos Sato 0.3333333
jbopli , 0.0005945
jbopli Lojbanist 0.2500000
jbopli Attention 1.0000000
bazi end 0.0370370
bazi English 0.0064516
bazi going 0.0058480
bazi will 0.0105634
bazi NULL 0.0001314
bazi step 0.1666667
bazi &apos;ll 0.0064935
bazi am 0.0039683
bazi set 0.0769231
bazi Winter 0.2500000
bazi soon 0.0943396
bazi Fresh 0.1000000
bazi Spring 0.3333333
farcad Farshad 0.4000000
farcad is 0.0007307
farcad My 0.0040241
farcad name 0.0198020
zbani a 0.0004098
zbani of 0.0007530
zbani made 0.0081301
zbani when 0.0060606
zbani I 0.0002511
zbani coast 0.6666667
zbani the 0.0003098
zbani Japanese 0.0181818
nalreldilcymu'o are 0.0012300
nalreldilcymu'o odd 0.5000000
nalreldilcymu'o numbers 0.1000000
kokso and 0.0018315
kokso with 0.0024570
kokso there 0.0063291
kokso coconuts 0.2500000
kokso coconut 0.3333333
kokso here 0.0043478
tixa Tychy 1.0000000
terkagni urgent 0.5000000
terkagni business 0.0666667
terkagni on 0.0028571
noltrusi'o Monarchism 1.0000000
zengau some 0.0071942
zengau give 0.0212766
zengau more 0.0153846
zengau me 0.0014728
zengau coffee 0.0322581
zengau add 0.1666667
vobmipri He 0.0015015
vobmipri &apos;re 0.0063291
vobmipri They 0.0059172
vobmipri hiding 0.4166667
vobmipri &apos;s 0.0019474
vobmipri She 0.0026110
mroxadni body 0.0909091
mroxadni a 0.0004098
mroxadni be 0.0025773
mroxadni dead 0.0312500
selvi'a meets 1.0000000
selvi'a in 0.0009042
selvi'a than 0.0071942
selvi'a life 0.0250000
selvi'a eye 0.1000000
je'u lecture 0.2000000
je'u Truly 1.0000000
je'u it 0.0060514
je'u is 0.0018268
je'u isn 0.0361446
je'u No 0.0285714
je'u eh 0.2500000
je'u task 0.2500000
je'u fact 0.0454545
je'u Yes 0.1627907
je'u &apos;t 0.0020964
je'u Hokkaido 0.0625000
je'u actually 0.3000000
je'u really 0.0129870
je'u NULL 0.0002628
je'u Okinawa 0.1428571
je'u It 0.0044248
je'u truly 0.5000000
je'u sail-powered 0.3333333
je'u false 0.0625000
je'u real 0.0500000
je'u surprise 0.0769231
je'u have 0.0086207
je'u . 0.0008958
je'u quite 0.0526316
je'u , 0.0023781
je'u owed 0.2500000
je'u innit 0.5000000
korcu leaned 0.3333333
korcu buckled 1.0000000
korcu knees 0.4000000
korcu &apos;s 0.0019474
korcu crooked 0.3333333
xotli quite 0.0526316
xotli hotel 0.8846154
xotli at 0.0056657
xotli close 0.0588235
xotli via 0.0769231
ki'otre one 0.0040486
ki'otre long 0.0129870
ki'otre it 0.0015129
ki'otre 133 0.1666667
ki'otre around 0.0400000
ki'otre kilometer 0.5000000
ki'otre kilometers 0.2000000
punai &apos;t 0.0010482
punai didn 0.0081967
seldjudji ; 0.0212766
seldjudji help 0.0092593
seldjudji do 0.0053050
seldjudji want 0.0030864
seldjudji some 0.0071942
nalci using 0.0416667
nalci wings 1.0000000
nalci NULL 0.0001314
nalci its 0.0256410
nalci wing 0.5000000
kafyzarci shop 0.1000000
kafyzarci coffee 0.0161290
kafyzarci over 0.0136986
kafyzarci there 0.0063291
cladu you 0.0010695
cladu louder 0.2000000
cladu isn 0.0120482
cladu loud 0.7692308
cladu Don 0.0088496
cladu NULL 0.0002628
cladu the 0.0006196
cladu be 0.0025773
cladu loudly 0.2500000
cladu quiet 0.0384615
cladu noisy 0.1111111
cladu birds 0.0555556
cladu sound 0.0800000
cladu hear 0.0500000
cladu when 0.0060606
cladu even 0.0526316
uris.avneris Uri 0.5000000
uris.avneris Avnery 0.5000000
selratni ) 0.0065359
selratni ( 0.0065789
selratni Periodic 0.3333333
selratni chemical 0.3333333
selratni element 0.4000000
selratni Symbol 0.3333333
selratni Chemical 0.3333333
lu “ 0.3333333
lu stands 0.1111111
lu Fifty-six 0.1428571
lu along 0.0833333
lu says 0.0303030
lu le 0.2500000
lu Ten 0.2500000
lu explodes 0.1666667
lu NULL 0.0015769
lu goodbye 0.1250000
lu Friend 0.2857143
lu : 0.0444444
lu granate 0.2000000
lu &quot; 0.1964286
lu thanks 0.0666667
lu responds 0.2500000
lu Thirteen 0.2500000
lu plays 0.1000000
lu Aaaah 0.5000000
lu I 0.0005023
lu where 0.0099010
lu say 0.0326087
lu &apos;The 0.3333333
lu told 0.0123457
lu , 0.0029727
lu Neither 0.1666667
lu More 0.0714286
nalseljmi mystery 0.2000000
nalseljmi her 0.0040000
nalseljmi of 0.0007530
piso'uroi seldom 0.1666667
piso'uroi never 0.0131579
piso'uroi almost 0.0357143
piso'uroi wears 0.0555556
piso'uroi watches 0.5000000
farlu on 0.0028571
farlu to 0.0004073
farlu fall 0.5454545
farlu drop 0.2000000
farlu fell 0.3076923
farlu roll 0.3333333
farlu NULL 0.0001314
farlu from 0.0058997
farlu into 0.0280374
farlu toppled 0.5000000
farlu heels 0.5000000
farlu ) 0.0065359
farlu might 0.1000000
farlu down 0.0666667
farlu falling 0.4000000
farlu fallen 0.2500000
farlu off 0.0357143
farlu dropped 0.1000000
ckilu scale 0.2222222
ckilu between 0.0416667
ckilu two 0.0070922
ckilu measures 0.3333333
ckilu distance 0.1000000
ckilu points 0.3333333
ckilu Metric 0.5000000
incipe of 0.0007530
incipe the 0.0006196
incipe part 0.0555556
incipe NULL 0.0001314
incipe initial 0.5000000
gy.precise.gy precise 0.1000000
gy.precise.gy &quot; 0.0027473
gy.precise.gy of 0.0007530
pasobiremoi in 0.0009042
pasobiremoi first 0.0322581
pasobiremoi time 0.0075758
pasobiremoi 1982 0.2500000
pasobiremoi Arafat 0.2500000
xai aren 0.0555556
xai Both 0.0769231
xai they 0.0114943
xai deceiving 0.5000000
xai are 0.0012300
uinaisai upset 0.1428571
uinaisai looks 0.0142857
uinaisai very 0.0043478
bastiat Bastiat 1.0000000
ji'e such 0.0357143
ji'e How 0.0043668
ji'e owns 0.0625000
ji'e several 0.0714286
ji'e degree 0.1333333
ji'e he 0.0034843
ji'e moral 0.5000000
ji'e rich 0.0400000
ji'e to 0.0008147
ji'e &apos;m 0.0017452
ji'e that 0.0011751
veronik Véronique 0.5000000
veronik loves 0.0370370
zanfu'a lucky 0.0625000
zanfu'a &apos;re 0.0063291
xrisrbiblia Bible 0.3333333
jdaca'i priest 0.5000000
jdaca'i a 0.0004098
jdaca'i become 0.0416667
jdaca'i has 0.0035461
kokakolas Coke 0.1000000
cecla Cannon 0.2500000
cecla gun 0.0588235
cecla Nice 0.0714286
cecla shot 0.2000000
cecla ! 0.0015175
cecla NULL 0.0001314
cecla shoot 0.1666667
critu of 0.0007530
critu it 0.0015129
critu fall 0.0909091
critu at 0.0028329
critu Fall 0.5000000
critu autumn 1.0000000
critu year 0.0333333
critu 2005 0.0909091
jugypre Many 0.1250000
bagi after 0.0238095
vimcu erased 0.3333333
vimcu freedom 0.1666667
vimcu disappearance 0.2500000
vimcu remove 1.0000000
vimcu peeled 0.2000000
vimcu left 0.0108696
vimcu my 0.0015129
vimcu delete 0.6000000
vimcu removed 0.4000000
vimcu away 0.0217391
vimcu take 0.0363636
vimcu NULL 0.0001314
vimcu Remove 0.5000000
vimcu visitors 0.1250000
glazenca'a on 0.0028571
glazenca'a device 0.2000000
glazenca'a runs 0.0555556
glazenca'a heating 0.2000000
glazenca'a uses 0.1666667
glazenca'a heater 0.5000000
morgu'e Morocco 1.0000000
be'ucu'i , 0.0005945
be'ucu'i Ahh 1.0000000
xavax Eve 0.5000000
xavax plucked 0.3333333
skatygug unheard 0.2000000
jbibi'o near 0.0312500
jbibi'o drew 0.1428571
jbibi'o approached 1.0000000
e'unai I 0.0002511
e'unai NULL 0.0001314
e'unai Don 0.0088496
e'unai not 0.0018587
e'unai Proceed 0.3333333
e'unai Sam 0.2000000
e'unai Forget 0.2000000
e'unai houses 0.0625000
e'unai should 0.0121951
e'unai advise 0.5000000
e'unai Be 0.0357143
plixau for 0.0016529
plixau best 0.0243902
plixau be 0.0025773
plixau &apos;re 0.0063291
plixau of 0.0015060
plixau is 0.0003654
plixau would 0.0116279
plixau Talking 0.2500000
plixau They 0.0059172
plixau useful 0.8571429
plixau use 0.0263158
plixau great 0.0192308
romas many 0.0102041
romas times 0.0322581
romas in 0.0009042
romas Roman 0.1111111
romas , 0.0005945
romas Rome 0.2142857
nadmau harder 0.1428571
nadmau than 0.0143885
198xymoi 1980s 1.0000000
pandi underline 0.3333333
pandi an 0.0038023
poxiol Pohjola 1.0000000
genxu with 0.0024570
genxu hook 0.6666667
genxu a 0.0004098
kids!.gy , 0.0017836
kids!.gy no 0.0062500
kids!.gy ehm 0.1111111
ka'a stepped 0.0714286
ka'a New 0.0714286
ka'a London 0.0322581
ka'a by 0.0037594
ka'a to 0.0020367
ka'a and 0.0018315
ka'a away 0.0217391
ka'a walked 0.0384615
ka'a for 0.0049587
ka'a from 0.0029499
ka'a fro 0.4000000
ka'a NULL 0.0001314
kambebna What 0.0024155
kambebna ? 0.0005003
kambebna kind 0.0128205
kambebna of 0.0007530
kambebna is 0.0003654
kambebna that 0.0011751
an Ann 0.4444444
an has 0.0035461
an is 0.0003654
an &apos; 0.0232558
an no 0.0062500
ze'aba for 0.0066116
ze'aba next 0.1176471
lojbangug Esperantujo 0.2500000
truncata.ly of 0.0007530
truncata.ly Schlumbergera 0.5000000
truncata.ly truncata 0.5000000
truncata.ly species 0.1666667
tricu trees 0.5833333
tricu are 0.0012300
tricu of 0.0007530
tricu a 0.0008197
tricu tree 0.8947368
tricu woods 0.1250000
tricu those 0.0370370
tricu kind 0.0128205
tricu stump 0.5000000
tricu tress 0.5000000
tricu from 0.0058997
tricu NULL 0.0001314
tricu branch 0.1428571
ka ability 0.2307692
ka neutral 0.1250000
ka strained 0.5000000
ka omnipresent 1.0000000
ka completes 0.1428571
ka lonely 0.1333333
ka awareness 0.3333333
ka untidy 0.3333333
ka meet 0.0333333
ka deteriorating 0.3333333
ka hard 0.0779221
ka rule 0.0714286
ka screen 0.2000000
ka speech 0.1666667
ka silly 0.0526316
ka clause 0.1428571
ka gonna 0.1538462
ka runs 0.1111111
ka be 0.0283505
ka Faster 0.1428571
ka hobby 0.2500000
ka imply 0.5000000
ka smooth 0.3333333
ka feel 0.0833333
ka heavier 0.1666667
ka heros 0.5000000
ka keeping 0.1818182
ka right 0.0125000
ka swimming 0.1304348
ka respect 0.1428571
ka lessons 0.1666667
ka tired 0.0597015
ka winning 0.5000000
ka wade 0.5000000
ka ridiculous 0.3333333
ka fuel 0.1428571
ka example 0.0800000
ka enormous 0.5000000
ka overworked 0.2500000
ka yourself 0.0277778
ka lose 0.1176471
ka apology 0.5000000
ka respectively 0.0909091
ka universal 0.5000000
ka You 0.0019841
ka more 0.0307692
ka metallic 0.2000000
ka triforce 0.3333333
ka helping 0.3333333
ka madness 0.3333333
ka increased 0.1428571
ka sciences 0.1666667
ka traveling 0.1250000
ka stone 0.0625000
ka imagination 0.2000000
ka writing 0.0384615
ka laughter 0.1428571
ka narrow 0.1250000
ka beings 0.1666667
ka fingernail 0.5000000
ka conception 0.3333333
ka frustrated 0.2000000
ka omnivores 0.3333333
ka also 0.0526316
ka To 0.0694444
ka revived 0.1111111
ka dares 0.3333333
ka courage 0.2500000
ka producing 0.2352941
ka ugly 0.3000000
ka study 0.0200000
ka tallest 0.0588235
ka fast 0.0425532
ka luck 0.0666667
ka bicycle 0.0714286
ka drinkable 0.2500000
ka unfamiliar 0.2000000
ka being 0.2435897
ka Megabyte 0.1666667
ka Jumping 0.2500000
ka volume 0.2000000
ka belly 0.1111111
ka pain 0.0666667
ka accurate 0.2500000
ka Speaking 0.1111111
ka prose 0.2500000
ka intentionally 0.2000000
ka thin 0.2500000
ka constant 0.3333333
ka passion 0.5000000
ka comfortable 0.0909091
ka highly 0.4000000
ka thick 0.0714286
ka best 0.0243902
ka breaking 0.1250000
ka that 0.0082256
ka beauties 0.3333333
ka young 0.0800000
ka lightning 0.1666667
ka Postscript 0.2500000
ka visiting 0.2000000
ka kilometers 0.1000000
ka brighter 0.3333333
ka harder 0.2142857
ka disconcerted 0.5000000
ka compete 0.5000000
ka felt 0.0833333
ka help 0.0648148
ka middle 0.2000000
ka bleeding 0.0909091
ka high 0.0769231
ka working 0.0769231
ka excitement 0.5000000
ka metamorphoses 0.2500000
ka conditions 0.2000000
ka clever 0.5000000
ka poor 0.1153846
ka electrified 1.0000000
ka collected 0.6666667
ka scale 0.2222222
ka prefix 0.2500000
ka ruined 0.3333333
ka opposite 0.2000000
ka centimeter 0.5000000
ka tiny 0.1666667
ka surprised 0.0238095
ka swim 0.0750000
ka by 0.0714286
ka conviction 0.3333333
ka bringing 0.4000000
ka needy 0.2500000
ka grinding 0.5000000
ka color 0.0869565
ka matches 0.2000000
ka most 0.1219512
ka enthusiastic 0.5000000
ka performing 0.1666667
ka bullshit 0.2000000
ka promise 0.0714286
ka dreamt 0.1666667
ka happy 0.0084034
ka developing 0.2500000
ka bark 0.1000000
ka shelter 0.1428571
ka socks 0.1666667
ka manually 0.3333333
ka put 0.0175439
ka expenses 0.1666667
ka mice 0.1250000
ka reach 0.1111111
ka phenomenon 0.3333333
ka waked 0.3333333
ka waiting 0.0909091
ka centimeters 0.3333333
ka further 0.3333333
ka speak 0.0224719
ka move 0.0714286
ka exhausted 0.1666667
ka easiest 0.1666667
ka demands 0.1428571
ka others 0.2500000
ka coward 0.3333333
ka infinitely 0.5000000
ka safe 0.1428571
ka flirting 0.3333333
ka Stop 0.0645161
ka allowing 0.1666667
ka space 0.0555556
ka decision 0.1000000
ka risks 0.4000000
ka desire 0.1428571
ka camel 0.1111111
ka logical 0.2857143
ka frowned 0.2500000
ka honest 0.1111111
ka knowledge 0.0714286
ka to 0.1397149
ka hearing 0.1666667
ka duration 0.5000000
ka loving 0.1818182
ka favor 0.3333333
ka winner 0.3333333
ka Lojban 0.0055249
ka triumphs 0.2000000
ka playing 0.1562500
ka escape 0.3333333
ka waste 0.2000000
ka relationship 0.2500000
ka biting 0.5000000
ka spotted 0.2000000
ka riding 0.5000000
ka programmer 0.2500000
ka 7-stringed 0.1666667
ka Determination 0.1666667
ka advice 0.0454545
ka job 0.0204082
ka frozen 0.1666667
ka gotta 0.3333333
ka you 0.0005348
ka rhythmic 0.5000000
ka automatically 0.1666667
ka explain 0.1000000
ka illness 0.2500000
ka coconut 0.1111111
ka I 0.0002511
ka sensation 0.3333333
ka games 0.0714286
ka movements 0.3333333
ka energy 0.1428571
ka environment 0.2500000
ka rough 0.2500000
ka owning 0.4000000
ka confused 0.1500000
ka Using 0.2000000
ka recovery 0.5000000
ka busy 0.0571429
ka Competition 0.5000000
ka somewhere 0.1250000
ka NULL 0.0349540
ka smiling 0.1250000
ka heroes 0.5000000
ka verb 0.0769231
ka having 0.0800000
ka looks 0.2428571
ka must 0.0579710
ka pushing 0.5000000
ka omnipotent 0.3333333
ka elastic 0.4000000
ka together 0.0555556
ka completely 0.1000000
ka look 0.0952381
ka length 0.2592593
ka deep 0.0833333
ka for 0.0016529
ka behavior 0.5000000
ka micrometers 0.5000000
ka intent 0.3333333
ka ointment 0.1666667
ka importance 0.2500000
ka attogram 0.2500000
ka old 0.0537634
ka amount 0.1250000
ka could 0.0350877
ka possess 0.2500000
ka knowledgeable 0.3333333
ka suggesting 0.2500000
ka in 0.0804702
ka eating 0.0740741
ka happiest 0.2500000
ka delicate 0.5000000
ka climb 0.1764706
ka responsible 0.0909091
ka superb 0.3333333
ka warm 0.0714286
ka gold 0.1111111
ka laziness 0.5000000
ka subjects 0.1428571
ka talent 0.1250000
ka weight 0.2222222
ka without 0.0512821
ka sexuality 0.4000000
ka limit 0.1666667
ka whipped 0.2000000
ka childish 0.3333333
ka seem 0.2000000
ka relatively 0.5000000
ka favorite 0.0882353
ka solar 0.1666667
ka alike 0.5000000
ka if 0.0111111
ka meters 0.1724138
ka lever 0.2000000
ka someone 0.0800000
ka noisy 0.1111111
ka new 0.0238095
ka sleeves 0.2000000
ka ill 0.1538462
ka fishing 0.1111111
ka Practice 0.2500000
ka vanity 0.2500000
ka seeing 0.1176471
ka order 0.1818182
ka remembering 0.5000000
ka pudding 0.2500000
ka unnecessary 0.3333333
ka happiness 0.1875000
ka persuade 0.1666667
ka important 0.0222222
ka bound 0.2000000
ka boring 0.0769231
ka intermittent 0.2500000
ka Curiosity 0.2000000
ka tall 0.0454545
ka height 0.2000000
ka mess 0.2000000
ka imagine 0.2000000
ka expensive 0.0285714
ka nailing 0.3333333
ka walking 0.1428571
ka turns 0.1428571
ka emotions 0.1428571
ka smarter 0.3333333
ka bright 0.1250000
ka seems 0.0740741
ka enjoyable 0.5000000
ka do 0.0026525
ka looked 0.0909091
ka err 0.3000000
ka impersonated 0.2000000
ka balloon 0.2000000
ka is 0.0003654
ka explanation 0.1666667
ka nail 0.3333333
ka since 0.0714286
ka than 0.0143885
ka long 0.0129870
ka catching 0.3333333
ka pilot 0.1428571
ka cool 0.0833333
ka serious 0.0714286
ka freedom 0.1666667
ka as 0.0612245
ka lift 0.1428571
ka differ 0.2000000
ka among 0.1578947
ka delicious 0.0555556
ka feminine 0.3333333
ka doubts 0.3333333
ka versa 0.3333333
ka Autism 0.3333333
ka pride 0.2500000
ka divine 0.0500000
ka stand 0.0909091
ka amphibians 0.1250000
ka burning 0.0526316
ka involves 0.2000000
ka changing 0.1666667
ka babbling 0.2000000
ka other 0.0681818
ka resist 0.3333333
ka horn 0.2500000
ka millimeters 0.5000000
ka opinion 0.0344828
ka return 0.0370370
ka strength 0.3333333
ka way 0.0238095
ka wealth 0.2500000
ka fertile 0.2000000
ka earlier 0.0588235
ka come 0.0096154
ka can 0.0314465
ka sleep 0.0416667
ka criminal 0.2857143
ka numbers 0.1000000
ka characteristics 0.1428571
cintura waist 0.4000000
cintura her 0.0040000
cintura around 0.0400000
bi,uas Biwa 0.3333333
bi,uas in 0.0009042
bi,uas sight 0.1428571
bi,uas Lake 0.0909091
bi,uas came 0.0166667
xunai it 0.0015129
xunai &apos;t 0.0073375
xunai &quot; 0.0041209
xunai Doesn 0.5000000
xunai Don 0.0353982
xunai Isn 0.2500000
zerxe'u repent 1.0000000
zerxe'u who 0.0066667
panonomei ... 0.0196078
panonomei Years 1.0000000
panonomei 100 0.1176471
panonomei Movie 0.2000000
panonomei &apos;s 0.0009737
stani up 0.0085470
stani trunk 1.0000000
stani a 0.0008197
natri'um Sodium 0.3333333
natri'um ) 0.0065359
natri'um ( 0.0065789
natri'um Na 0.3333333
e’osai support 0.3333333
e’osai Please 0.0048077
ckaji did 0.0054945
ckaji greasy 0.2500000
ckaji common 0.0769231
ckaji characteristics 0.2857143
ckaji helpful 0.5000000
ckaji childish 0.3333333
ckaji , 0.0005945
ckaji what 0.0032468
ckaji way 0.0238095
ckaji each 0.0158730
ckaji characteristic 0.5000000
ckaji of 0.0015060
ckaji Be 0.0357143
ckaji anything 0.0114943
ckaji has 0.0035461
ckaji than 0.0071942
ckaji Other 0.2000000
ckaji workaholic 0.5000000
ckaji NULL 0.0002628
ckaji the 0.0003098
toki Pona 0.5000000
toki Toki 0.3333333
mrori'i was 0.0016611
mrori'i funeral 0.2500000
juxre movements 0.3333333
juxre in 0.0009042
juxre clumsy 0.6666667
juxre my 0.0015129
juxre her 0.0040000
juxre disadvantage 0.3333333
vo'i me 0.0014728
vo'i something 0.0085470
janco joint 1.0000000
janco between 0.0416667
janco a 0.0004098
zmarai greatest 0.2500000
zmarai is 0.0007307
zmarai Nothing 0.1739130
zmarai the 0.0006196
zmarai NULL 0.0001314
ctesai NULL 0.0001314
ctesai have 0.0021552
ctesai supper 0.1666667
ctesai quarter 0.1250000
ibabo he 0.0034843
ibabo days 0.0217391
ibabo and 0.0018315
ibabo , 0.0005945
ibabo would 0.0116279
ibabo then 0.0250000
gombesa coelacanth 0.5000000
gombesa inhabits 0.5000000
gombesa Latimeria 1.0000000
molmla cheek 0.6666667
piso'i plus 0.2500000
piso'i often 0.0833333
piso'i drives 0.3333333
piso'i A 0.0057471
piso'i they 0.0114943
piso'i lot 0.0114943
brife blew 1.0000000
brife is 0.0007307
brife The 0.0009506
brife It 0.0022124
brife cyclone 0.3333333
brife wind 1.0000000
brife windy 1.0000000
brife becomes 0.1666667
brife no 0.0062500
brife There 0.0044248
brife dust 0.5000000
brife breeze 0.3333333
brife Wind 0.5000000
brife the 0.0003098
xy ( 0.0065789
xy Argentinian 0.2500000
