jitro handle 0.1428571
jitro bartender 0.3333333
jitro manager 0.3333333
jitro control 0.5555556
jitro administrators 0.5000000
jitro have 0.0021552
jitro take 0.0185185
jitro controls 0.5000000
jitro under 0.0357143
jitro everything 0.0185185
jitro in 0.0009124
jitro spending 1.0000000
jitro administrator 0.3333333
pau do 0.0053763
pau What 0.0024213
pau asking 0.0769231
pau You 0.0019841
pau so 0.0145985
pau NULL 0.0003994
pau stupid 0.0500000
pau ! 0.0015244
pau Huh 0.1000000
pau are 0.0012422
pau that 0.0011655
galfi changed 0.2500000
galfi affects 0.2500000
galfi adjust 1.0000000
galfi has 0.0035461
galfi Change 0.1250000
galfi We 0.0037313
galfi make 0.0227273
galfi Milk 0.1666667
galfi made 0.0081301
galfi change 0.0666667
galfi changes 0.1666667
galfi cured 0.1666667
galfi turned 0.1071429
la'asai of 0.0007485
la'asai chance 0.2000000
la'asai There 0.0045045
la'asai precipitation 0.5000000
la'asai is 0.0003648
la'asai postman 0.5000000
la'asai high 0.0384615
la'asai a 0.0004085
labno as 0.0068966
labno began 0.0526316
labno they 0.0123457
labno wolves 1.0000000
labno younger 0.2500000
labno wolf 0.5000000
fu'o a 0.0008170
fu'o unheard 0.1666667
fu'o ) 0.0131579
taxfu out 0.0178571
taxfu had 0.0067114
taxfu pack 0.2500000
taxfu dress 0.2500000
taxfu Emperor 0.5000000
taxfu dressed 0.2000000
taxfu clothing 0.2500000
taxfu in 0.0009124
taxfu really 0.0125000
taxfu of 0.0007485
taxfu badly 0.3333333
taxfu my 0.0015674
taxfu NULL 0.0003994
taxfu business 0.0555556
taxfu clothes 0.4166667
taxfu all 0.0119760
taxfu well 0.0172414
cipa 3031 0.2500000
cipa &quot; 0.0054496
xokaidos Hokaido 0.5000000
xokaidos lies 0.1000000
xokaidos in 0.0009124
xokaidos Hokkaido 0.0588235
ti'e NULL 0.0001331
ti'e say 0.0879121
ti'e I 0.0017592
ti'e that 0.0104895
ti'e said 0.0175439
ti'e classes 0.1428571
ti'e hear 0.1250000
ti'e They 0.0473373
ti'e heard 0.0526316
cintura around 0.0370370
cintura her 0.0038760
cintura waist 0.4000000
alex for 0.0016694
alex Alex 0.3333333
vreji agreement 0.2500000
vreji stream 0.1250000
vreji NULL 0.0001331
vreji get 0.0091743
vreji files 0.5000000
vreji file 0.5000000
vreji really 0.0125000
vreji should 0.0119048
vreji recorded 0.5000000
vreji guest-book 0.2500000
vreji in 0.0018248
vreji down 0.0327869
vreji this 0.0042827
vreji being 0.0128205
vreji writing 0.0800000
likydekpu regular 0.2000000
likydekpu gallons 0.5000000
likydekpu of 0.0007485
likydekpu Five 0.1428571
selba'e was 0.0016694
selba'e Fred 0.1666667
selba'e &apos;s 0.0009852
selba'e axe 1.0000000
selba'e and 0.0018450
krasi mother 0.0076336
krasi originate 0.3333333
krasi springheads 0.3333333
krasi something 0.0086207
krasi big 0.0153846
krasi start 0.0370370
krasi Could 0.0344828
krasi origin 1.0000000
krasi source 0.5000000
krasi is 0.0007297
krasi the 0.0006171
krasi Argentina 0.1666667
krasi babies 1.0000000
krasi Russia 0.1250000
krasi NULL 0.0001331
krasi be 0.0026525
krasi of 0.0022455
krasi from 0.0273556
krasi come 0.0297030
gugdenulu Netherlands 0.2500000
gugdenulu Dutch 0.1111111
gugdenulu Amsterdam 0.5000000
gugdenulu is 0.0003648
jinmrgadolini Gadolinium 1.0000000
kuckla across 0.0666667
kordobas authorization 0.5000000
kordobas with 0.0024213
kordobas &apos;s 0.0009852
kordobas Kordobas 1.0000000
xairi'a hurtful 0.1250000
veldetri calendar 1.0000000
smusku told 0.0370370
smusku poor 0.0434783
smusku lie 0.0625000
smusku lied 0.2000000
smusku says 0.0294118
smusku intuitively 0.2000000
smusku said 0.0175439
smusku telling 0.4000000
smusku unintentionally 0.2500000
smusku yet 0.0294118
rubnstain Rubinstein 1.0000000
rubnstain by 0.0039841
rubnstain Arthur 0.5000000
a'onaicai hopeless 0.3333333
a'onaicai no 0.0063291
a'onaicai hope 0.0250000
a'onaicai . 0.0001792
a'onaicai There 0.0045045
a'onaicai &apos;s 0.0019704
a'onaicai It 0.0022222
sokrates was 0.0016694
sokrates Socrates 0.5000000
sokrates which 0.0208333
sokrates , 0.0005938
sarxe other 0.0109890
sarxe with 0.0048426
sarxe each 0.0153846
sarxe in 0.0018248
sarxe interacting 0.5000000
sarxe harmony 1.0000000
sarxe nature 0.3333333
konsepSION , 0.0005938
konsepSION Concepción 1.0000000
konsepSION Chile 0.5000000
o'e me 0.0014793
o'e Leave 0.0555556
o'e , 0.0005938
o'e alone 0.0200000
o'e &apos;ll 0.0127389
o'e Frankly 0.1428571
o'e dear 0.2857143
o'e my 0.0031348
o'e Dear 0.2500000
kruca by 0.0039841
kruca cross 0.1428571
kruca intersect 1.0000000
kruca intersected 0.3333333
kruca NULL 0.0001331
kruca each 0.0153846
kruca other 0.0109890
kruca crossroad 0.2857143
lacri rely 1.0000000
lacri having 0.0400000
lacri depends 0.1000000
lacri &apos;t 0.0010493
lacri on 0.0116279
lacri NULL 0.0002663
lacri anyone 0.0250000
lacri can 0.0094937
lacri count 0.2500000
lacri trust 1.0000000
lacri upon 0.1250000
lacri dependable 1.0000000
gugde'aru is 0.0003648
gugde'aru He 0.0015083
gugde'aru Argentina 0.1666667
gugja'a directly 0.5000000
gugja'a president 0.0625000
gugja'a body 0.0833333
gugja'a President 0.5000000
gugja'a &apos;s 0.0009852
gugja'a lay 0.1111111
taiku ! 0.0015244
taiku Ah 0.0666667
taiku , 0.0005938
taiku Russians 0.1666667
taiku those 0.0384615
tsiju seeds 1.0000000
tsiju in 0.0018248
tsiju pine 1.0000000
tsiju ant 1.0000000
tsiju producing 0.0588235
tsiju cell 0.1666667
tsiju fertilized 0.5000000
tsiju queen 0.3333333
jetce runny 0.1428571
jetce a 0.0004085
jetce nose 0.0666667
kagytrujalju of 0.0014970
kagytrujalju CEO 0.5000000
xismalsi is 0.0003648
xismalsi church 0.2727273
xismalsi this 0.0021413
kolorados Colorado 1.0000000
co'urdu'u They 0.0059172
co'urdu'u looked 0.0217391
co'urdu'u relieved 0.3333333
co'urdu'u . 0.0000896
rliex &apos;lyeh 0.1250000
pacruxydinj Castlevania 1.0000000
pacruxydinj ) 0.0065789
pacruxydinj video 0.2000000
pacruxydinj game 0.0454545
pacruxydinj ( 0.0064935
nunjamna detests 1.0000000
nunjamna Anglo-Zanzibar 0.2500000
nunjamna war 0.1250000
nunjamna War 0.1428571
nunjamna Wars 0.3333333
selgungunma that 0.0011655
selgungunma project 0.0909091
selgungunma task 0.2500000
selgungunma &apos;s 0.0009852
selgungunma true 0.0263158
di,orsais Musée 0.5000000
di,orsais &apos;Orsay 0.3333333
di,orsais d 0.3333333
nu'ospe single 0.1428571
favmapti ( 0.0064935
favmapti ) 0.0065789
favmapti Homology 1.0000000
favmapti biology 0.2500000
leva those 0.0384615
cu'e pen 0.0454545
cu'e bite 0.1428571
cu'e been 0.0102041
cu'e Huh 0.1000000
cu'e Have 0.0181818
cu'e sowed 0.2500000
ua Damn 0.1111111
ua others 0.1250000
ua What 0.0024213
ua Wow 0.3333333
ua , 0.0053444
ua Ah 0.1333333
ua Eureka 0.3333333
ua good 0.0084034
ua okay 0.0769231
ua I 0.0007540
ua idea 0.0400000
ua Oh 0.1081081
ua ua 0.3333333
ua ! 0.0060976
ua Huh 0.2000000
konstantinupolis Constantinople 1.0000000
sinso radians 0.5000000
sinso the 0.0003085
sinso pi 0.1250000
sinso 0 0.0909091
sinso is 0.0003648
sinso sine 1.0000000
sinso of 0.0007485
sinso &quot; 0.0027248
zo,is Zoe 0.3333333
nunselnandu done 0.0163934
nunselnandu &apos;ve 0.0116279
nunselnandu hardest 0.5000000
nunselnandu ever 0.0322581
nunselnandu thing 0.0270270
rosi,ias ruler 0.3333333
rosi,ias Russia 0.2500000
rosi,ias of 0.0014970
vitno nothing 0.0192308
vitno permanent 0.2500000
vitno is 0.0003648
vitno frozen 0.5000000
vitno in 0.0009124
vitno Absolutely 0.3333333
vitno permanently 0.5000000
pe rural 0.2500000
pe heart 0.0833333
pe about 0.0354331
pe NULL 0.0046598
pe computer 0.0576923
pe Buffalo 0.1666667
pe chains 0.3333333
pe tale 0.2500000
pe state 0.0909091
pe named 0.0833333
pe pizza 0.1111111
pe with 0.0024213
pe stabbed 0.3333333
pe coat 0.0769231
pe monitor 0.2500000
pe socks 0.1666667
pe walks 0.1000000
pe key 0.0714286
pe bicycle 0.0714286
pe Titan 0.3333333
pe gave 0.0161290
pe agonies 0.5000000
pe ship 0.0400000
pe in 0.0063869
pe next 0.0882353
pe Facebook 0.0909091
pe machines 0.1428571
pe students 0.0370370
pe camp 0.2500000
pe clean 0.0625000
pe fixing 0.1428571
pe classmates 0.2000000
pe mobile 0.2000000
pe movement 0.3333333
pe horse 0.1153846
pe waves 0.2000000
pe dj 1.0000000
pe among 0.0526316
pe abstinence 0.5000000
pe place 0.0222222
pe hides 0.2500000
pe Fucking 1.0000000
pe tire 0.3333333
pe fork 0.0909091
pe &apos;s 0.0197044
pe just 0.0098039
pe repair 0.2500000
pe striking 0.5000000
pe happiest 0.1250000
pe Roman 0.1111111
pe smell 0.0476190
pe guest-book 0.2500000
pe problem 0.0303030
pe hat 0.0384615
pe triforce 0.3333333
pe good 0.0084034
pe pipe 0.2500000
pe pictures 0.0714286
pe melody 0.3333333
pe ντ 0.2500000
pe language 0.0322581
pe knowledge 0.1111111
pe Roses 1.0000000
pe squares 0.2500000
pe exercises 0.2500000
pe Wall 0.2222222
pe worker 0.1428571
pe gun 0.0588235
pe Madrid 0.2000000
pe II 0.1666667
pe GPS 0.2000000
pe bus 0.0227273
pe belonged 1.0000000
pe eyebrows 0.3333333
pe springheads 0.2222222
pe woman 0.0312500
pe pink 0.2000000
pe Appassionata 0.2000000
pe greed 0.2500000
pe cloned 0.3333333
pe controlling 1.0000000
pe my 0.0078370
pe coworkers 0.5000000
pe number 0.0172414
pe entailing 0.3333333
pe spoon 0.3333333
pe butter 0.0476190
pe buffalo 0.0588235
pe from 0.0060790
pe of 0.0112275
pe coworker 0.5000000
pe left 0.0108696
pe cities 0.2000000
pe appointment 0.5000000
pe erased 0.3333333
pe watch 0.0689655
pe discussion 0.0588235
pe friend 0.0089286
pe goal 0.3333333
pe mouthful 0.5000000
pe dog 0.0068493
pe word 0.0303030
pe keys 0.0909091
pe Join 0.2000000
pe money 0.0227273
pe doll 0.1428571
pe solar 0.3333333
pe People 0.0384615
pe traffic 0.1250000
pe phone 0.0384615
pe leg 0.0769231
pe f 0.1666667
pe sunshine 0.3333333
ku'i where 0.0105263
ku'i strong 0.0952381
ku'i Yet 0.2000000
ku'i couldn 0.0434783
ku'i , 0.0112827
ku'i laugh 0.2000000
ku'i However 0.6428571
ku'i fail 0.0588235
ku'i But 0.7234043
ku'i it 0.0015015
ku'i rugged 0.1666667
ku'i though 0.2000000
ku'i she 0.0134228
ku'i Although 0.1250000
ku'i however 0.5000000
ku'i but 0.3904110
ku'i whereas 1.0000000
ku'i he 0.0103093
viba'oku There 0.0045045
viba'oku bridge 0.1000000
bavlamdei tomorrow 0.4404762
bavlamdei holiday 0.3333333
bavlamdei Tomorrow 0.2500000
bavlamdei following 0.1111111
bavlamdei NULL 0.0006657
iku'i something 0.0086207
iku'i am 0.0039683
iku'i very 0.0043103
iku'i but 0.0068493
iku'i NULL 0.0001331
nimrnsinensi orange 0.0500000
nimrnsinensi of 0.0007485
lozu'o play 0.0232558
lozu'o He 0.0015083
lozu'o to 0.0004062
lozu'o sport 0.1250000
lozu'o plays 0.1000000
gunkansa coworkers 0.5000000
gunkansa coworker 0.5000000
nowy.sontc Sącz 1.0000000
nowy.sontc Nowy 1.0000000
kosmu useless 0.2500000
kosmu purpose 0.3333333
kosmu used 0.0370370
kosmu &apos;s 0.0009852
kosmu a 0.0008170
kosmu for 0.0050083
canti tract 1.0000000
canti gastrointestinal 1.0000000
canti intestines 1.0000000
canti Human 0.1111111
xandegji using 0.0344828
xandegji all 0.0059880
xandegji fingers 0.0769231
xandegji type 0.0555556
xandegji can 0.0031646
piso'u an 0.0038610
piso'u very 0.0043103
piso'u probability 0.2500000
piso'u being 0.0128205
piso'u reached 0.1428571
piso'u agreement 0.1250000
piso'u There 0.0045045
nunbebna done 0.0163934
nunbebna &apos;ve 0.0116279
nunbebna stupid 0.0500000
nunbebna stupidest 0.5000000
nunbebna was 0.0016694
nunbebna ever 0.0322581
nunbebna thing 0.0270270
la.rosi,os happy 0.0083333
la.rosi,os very 0.0043103
la.rosi,os that 0.0011655
la.rosi,os Rocío 0.2000000
la.rosi,os sure 0.0238095
la.rosi,os will 0.0035336
tigbe'e circus 1.0000000
tigbe'e the 0.0003085
tu'urki Turkish 0.5000000
tu'urki tradition 0.3333333
tu'urki a 0.0004085
tolcliva NULL 0.0001331
tolcliva . 0.0000896
tolcliva in 0.0009124
tolcliva arrived 0.0606061
tolcliva David 0.0833333
tolcliva came 0.0163934
e'unaire'e repeat 0.0714286
intele sign 0.0909091
intele intellect 1.0000000
intele high 0.0384615
intele of 0.0014970
nalble quite 0.0476190
djonz ’ 0.0666667
djonz Jones 0.5000000
djonz Joneses 0.1428571
djonz t 0.1111111
djonz isn 0.0117647
nikolas and 0.0018450
nikolas Nicholas 0.5000000
dn.mifr Lojban 0.0054054
dn.mifr phrase 0.0833333
dn.mifr dn 0.5000000
sigja reasons 0.2000000
sigja cigarette 1.0000000
sigja smoke 0.0714286
xrisrbiblia , 0.0005938
xrisrbiblia Bible 0.2500000
la'orxi'o &apos;s 0.0019704
la'orxi'o a 0.0008170
la'orxi'o Catholic 1.0000000
la'orxi'o She 0.0025840
la'orxi'o devout 0.5000000
la'orxi'o He 0.0015083
teris Terry 0.4210526
teris , 0.0005938
purci be 0.0026525
purci past 0.1428571
purci known 0.0769231
purci before 0.0142857
purci mistake 0.0434783
purci only 0.0093458
purci earlier 0.0555556
purci the 0.0003085
purci over 0.0135135
purci than 0.0070922
purci as 0.0068966
purci is 0.0003648
ja'asai really 0.0125000
ja'asai are 0.0012422
ja'asai NULL 0.0001331
la.kastros Castro 0.5000000
tolkargu cheap 0.6666667
nuntumcrepu agriculture 1.0000000
nuntumcrepu for 0.0016694
cinki are 0.0012422
cinki even 0.0526316
cinki insects 0.2307692
cinki arthropods 1.0000000
selfuzme power 0.0952381
selfuzme comes 0.1111111
selfuzme responsibility 0.1764706
selfuzme With 0.2500000
selfuzme great 0.0943396
jdaca'i has 0.0035461
jdaca'i become 0.0454545
jdaca'i a 0.0004085
jdaca'i priest 0.5000000
gusydi'e all 0.0059880
gusydi'e burning 0.0625000
gusydi'e been 0.0102041
gusydi'e lights 0.1428571
gusydi'e have 0.0021552
mitsmu multilingual 1.0000000
teri'a vehicle 0.1428571
iesai yes 0.0714286
iesai Oh 0.0270270
iesai what 0.0032468
iesai ! 0.0015244
panci stank 0.2000000
panci NULL 0.0003994
panci stinks 0.2500000
panci smells 0.2352941
panci smell 0.3333333
panci can 0.0031646
panci scents 0.5000000
panci shitty 0.1428571
panci perfume 1.0000000
panci scent 0.8333333
brogovzi were 0.0075188
brogovzi All 0.0151515
brogovzi the 0.0003085
brogovzi ; 0.0222222
brogovzi mimsy 1.0000000
brogovzi wabe 1.0000000
brogovzi borogoves 1.0000000
seba'i mum 0.3333333
seba'i NULL 0.0001331
seba'i tobacco 0.2500000
seba'i for 0.0016694
rikteropu Aardvark 1.0000000
tcikycartu the 0.0003085
tcikycartu me 0.0014793
tcikycartu schedule 1.0000000
bangepu'o learning 0.0312500
bangepu'o ve 0.5000000
bangepu'o started 0.0333333
bangepu'o ’ 0.0666667
bangepu'o Esperanto 0.1428571
perli hate 0.0192308
perli and 0.0018450
perli pear 1.0000000
perli pears 0.7000000
burna disconcerted 1.0000000
burna embarrassed 1.0000000
burna of 0.0007485
xrvatsk so 0.0072993
xrvatsk was 0.0016694
xrvatsk Croatia 0.3333333
cnigau emotion 0.3333333
cnigau art 0.1250000
cnigau producing 0.0588235
cnigau by 0.0039841
cnigau of 0.0007485
daplu Island 1.0000000
daplu island 1.0000000
daplu on 0.0029070
daplu live 0.0104167
daplu do 0.0026882
daplu an 0.0077220
fragari Strawberries 0.5000000
fragari with 0.0024213
fragari strawberries 0.7142857
curnu a 0.0004085
curnu worm 0.7500000
tedycte Saturday 0.2222222
tedycte ! 0.0030488
tedycte night 0.0294118
Kittens Funny 0.3333333
Kittens Kittens 0.3333333
karlos Carlos 0.2500000
karlos turned 0.0357143
dotco German 0.2692308
dotco Germans 0.4000000
dotco Germany 0.1176471
dotco &apos;t 0.0010493
dotco aren 0.0555556
dotco &apos;re 0.0130719
zi return 0.0370370
zi immediately 0.1538462
zi year 0.0333333
zi just 0.1176471
zi last 0.0222222
zi chat 0.2500000
zi bу 0.2500000
zi newborns 0.1666667
zi now 0.0152672
zi have 0.0043103
zi . 0.0000896
zi as 0.0206897
zi afternoon 0.3333333
zi toward 0.3333333
zi Soon 0.1666667
zi NULL 0.0006657
zi week 0.1000000
zi sunny 0.2500000
zi , 0.0005938
zi recent 0.1250000
zi As 0.0500000
zi dies 0.0526316
zi soon 0.4259259
zi this 0.0021413
pitnanba very 0.0043103
pitnanba much 0.0104167
pitnanba pizza 0.1111111
prolog Prolog 1.0000000
bai forcing 0.5000000
bai am 0.0039683
bai Apparently 0.0769231
bai upright 0.1666667
bai , 0.0005938
bai by 0.0039841
bai forced 0.3333333
bai my 0.0015674
bai NULL 0.0001331
von von 0.5000000
von Clausewitz 1.0000000
barkulselgu'a homework 0.1428571
barkulselgu'a has 0.0035461
barkulselgu'a her 0.0038760
barkulselgu'a done 0.0163934
caxno shallow 1.0000000
caxno reaching 0.2500000
caxno in 0.0009124
jinmrbismu Bismuth 1.0000000
romeon was 0.0016694
romeon who 0.0061350
markos geologist 0.3333333
markos a 0.0004085
markos is 0.0003648
markos Marcos 0.5000000
papa 11 0.1250000
papa 7 0.1250000
papa · 0.5000000
xisyjbenunsla lot 0.0114943
xisyjbenunsla of 0.0007485
xisyjbenunsla since 0.0357143
xisyjbenunsla weight 0.1000000
xisyjbenunsla Christmas 0.2000000
ki'ubo a 0.0004085
ki'ubo bark 0.1111111
ki'ubo &apos;m 0.0017452
prucitri Prehistory 1.0000000
merjinme Americium 1.0000000
sauron every 0.0120482
sauron hobbit 0.2000000
sauron wants 0.0227273
sauron Sauron 0.3333333
terdyske geologist 0.3333333
ruskypre Russians 0.1666667
lo'i nuclear 0.2500000
lo'i possession 0.1666667
lo'i massive 0.2500000
lo'i Kiev 0.1250000
lo'i rooms 0.1250000
lo'i atoms 0.2000000
lo'i translations 0.2222222
lo'i men 0.0476190
lo'i these 0.0200000
lo'i ordinary 0.1428571
lo'i divine 0.0555556
lo'i rats 0.2500000
lo'i other 0.0109890
lo'i place 0.0222222
lo'i brand 0.2500000
lo'i The 0.0009497
lo'i of 0.0029940
lo'i user 0.1111111
lo'i subject 0.1538462
lo'i These 0.0106383
lo'i NULL 0.0011982
lo'i leading 0.4000000
ranji live 0.0104167
ranji will 0.0035336
ranji continue 0.1666667
ranji forever 0.2000000
ranji point 0.0666667
ranji further 0.3333333
ranji covered 0.0909091
ranji burning 0.0625000
ranji through 0.0625000
ranji this 0.0021413
ranji His 0.0142857
ranji memory 0.1250000
ranji on 0.0029070
ranji continuously 0.2500000
ranji in 0.0018248
ranji field 0.0625000
ranji Go 0.0270270
lai Bible 0.2500000
lai Borg 0.2500000
lai Joneses 0.1428571
lai Johnsons 0.2500000
lai The 0.0018993
lai Klingons 0.5000000
lai NULL 0.0001331
lai Chrysler 0.2500000
roltrusi'o Democracy 0.5000000
roltrusi'o Democratic 0.3333333
rebla its 0.0789474
rebla wagging 1.0000000
rebla tail 0.5555556
rebla , 0.0005938
remu years 0.0100000
remu 25th 0.1250000
remu old 0.0108696
remu 25 0.0952381
remu &apos;m 0.0017452
198xymoi 1980s 1.0000000
makintoc your 0.0040816
makintoc Mac 0.3333333
makintoc infected 1.0000000
makintoc have 0.0043103
pa'enai fair 0.2000000
pa'enai not 0.0018519
pa'enai &apos;s 0.0009852
pa'enai It 0.0022222
pa'enai . 0.0000896
tcesk.zei Republic 0.2000000
tcesk.zei Czech 0.3333333
xamsku is 0.0003648
xamsku entertained 0.1666667
xamsku joking 0.2000000
a'ei Come 0.0256410
ba'acu'i pauses 0.3333333
ba'acu'i with 0.0024213
tolkanro ill 0.0384615
tolkanro fell 0.0270270
tolkanro he 0.0034364
fulta in 0.0009124
fulta float 0.5000000
fulta Dry 1.0000000
fulta NULL 0.0001331
fulta on 0.0058140
fulta leaves 0.1428571
fulta Dead 1.0000000
fulta floats 0.3333333
fulta Wood 0.5000000
zgagau difficulties 0.1111111
zgagau what 0.0032468
zgagau show 0.0416667
zgagau that 0.0011655
cukta books 0.7666667
cukta guest-book 0.2500000
cukta belong 0.1250000
cukta author 0.0833333
cukta NULL 0.0002663
cukta ! 0.0045732
cukta book 0.8827160
cukta times 0.0263158
cukta bookstore 0.3333333
xamgau of 0.0007485
xamgau joke 0.1111111
xamgau making 0.0588235
xamgau fun 0.0370370
seljibyfa'o month 0.0833333
jalra it 0.0030030
jalra roach 0.2500000
jalra Cockroaches 0.2500000
jalra in 0.0018248
jalra one 0.0082988
fu'e what 0.0064935
fu'e ( 0.0129870
fu'e of 0.0014970
fu'e Hatred 1.0000000
fu'e owner 0.2222222
tolsre that 0.0011655
tolsre mistake 0.0434783
tolsre amending 1.0000000
tolsre Thank 0.0250000
tolsre for 0.0016694
y particular 0.1666667
y , 0.0041568
y uh 1.0000000
y ... 0.0384615
y umm 1.0000000
y frogs 0.5000000
y Broadly 1.0000000
y Um 0.1666667
y it 0.0015015
y slightly 0.5000000
y me 0.0014793
y construed 0.3333333
y Uhhh 0.5000000
y &apos;s 0.0009852
y Err 1.0000000
y let 0.0333333
dimna fate 0.5000000
Astn near 0.0333333
zicai away 0.0222222
zicai right 0.0125000
"lu Zhuangzi 0.2000000
tinsa in 0.0009124
tinsa rigid 1.0000000
flecu of 0.0007485
flecu brought 0.0434783
flecu something 0.0086207
flecu stream 0.1250000
flecu which 0.0208333
flecu was 0.0016694
flecu current 0.1428571
flecu a 0.0008170
tcemi compared 0.2000000
tcemi to 0.0004062
influ'enza the 0.0003085
influ'enza and 0.0018450
influ'enza ve 0.5000000
influ'enza hurt 0.0526316
influ'enza flu 0.2500000
influ'enza &apos; 0.0238095
influ'enza teeth 0.0909091
influ'enza got 0.0109890
influ'enza my 0.0015674
ny melted 0.1250000
ny Akiko 0.3636364
ny she 0.0067114
ny lower-case 0.5000000
ny likes 0.0166667
ny January 0.1250000
ny he 0.0068729
ny his 0.0029762
ny made 0.0081301
ny parents 0.0196078
ny poor 0.0434783
xo How 0.0967742
xo there 0.0063694
xo numbers 0.2000000
xo 2 0.0140845
xo Do 0.0049505
xo earn 0.3333333
xo many 0.2783505
xo ? 0.0055165
xo 16 0.1428571
xo NULL 0.0007988
xo performance 0.0833333
xo number 0.0172414
xo how 0.0416667
xo do 0.0107527
xo price 0.1176471
xo sincerity 0.1111111
ve'e It 0.0022222
ve'e all 0.0119760
ve'e Doctor 0.1428571
ve'e through 0.0625000
ve'e travels 0.2500000
ve'e dirty 0.0588235
ve'e time 0.0074627
ve'e &apos;s 0.0009852
ve'e space 0.0555556
litki liquid 1.0000000
litki liquids 1.0000000
litki with 0.0024213
selbau can 0.0031646
selbau speak 0.0113636
judri is 0.0010945
judri , 0.0005938
judri e-mail 0.2000000
judri please 0.0131579
judri address 0.6153846
makfartci Compass 1.0000000
xiuston had 0.0067114
xiuston Houston 0.5000000
xiuston &apos;ve 0.0116279
jicla Stir 0.3333333
jicla the 0.0003085
ne'aunai intuitive 0.2500000
ne'aunai How 0.0040323
ne'aunai ! 0.0015244
patagonias Araucanía 0.2500000
afyganisTAN Afghanistan 1.0000000
iumis about 0.0039370
iumis in 0.0009124
iumis dreamed 0.1666667
iumis Yumi 0.2857143
island Iceland 0.1428571
xenru had 0.0067114
xenru what 0.0032468
xenru this 0.0064240
xenru happened 0.0166667
xenru regret 0.7000000
xenru regretted 0.5000000
jinmrskandi Scandium 1.0000000
pamu to 0.0008123
pamu Yet 0.2000000
pamu Up 0.2500000
pamu 15 0.2500000
pamu Only 0.0625000
pamu fifteen 0.5000000
pamu past 0.0714286
pamu only 0.0093458
gy.The Machines 0.2500000
gy.The Spiritual 0.5000000
ji'asai even 0.1052632
ji'asai I 0.0002513
nilsau elders 0.5000000
so working 0.0384615
so nine 0.4444444
so 20.5 0.2000000
so 911 0.2000000
so There 0.0045045
so NULL 0.0002663
so was 0.0016694
so 9 0.3529412
so o 0.0370370
so at 0.0028490
so 3.14159 0.1333333
so Shops 1.0000000
so are 0.0012422
so start 0.0370370
cusku) stay 0.0250000
cusku) was 0.0016694
bancuvysi'o Linguistic 1.0000000
bancuvysi'o purism 1.0000000
xirma a 0.0008170
xirma while 0.0181818
xirma living 0.0454545
xirma pony 1.0000000
xirma horses 1.0000000
xirma Horses 0.3333333
xirma NULL 0.0002663
xirma mare 0.5000000
xirma horse 0.7692308
nuncizra done 0.0163934
nuncizra &apos;ve 0.0116279
nuncizra strangest 0.5000000
nuncizra ever 0.0322581
nuncizra thing 0.0270270
setca hammered 0.5000000
setca into 0.0091743
setca wedge 0.5000000
setca put 0.0169492
setca injected 1.0000000
setca shit 0.0833333
setca Place 0.5000000
setca inserted 1.0000000
setca nailing 0.5000000
kumfa room 0.9540230
kumfa classroom 0.2500000
kumfa chat 0.2500000
kumfa kitchen 0.2727273
kumfa toilet 0.3333333
kumfa the 0.0006171
kumfa bathroom 0.2727273
kumfa vacancies 0.2000000
kumfa in 0.0009124
kumfa rooms 0.3750000
smaji court 0.2500000
smaji &apos;re 0.0065359
smaji silent 0.6666667
smaji Keep 0.0769231
smaji silently 0.5000000
smaji surprised 0.0454545
smaji a 0.0004085
smaji Just 0.0625000
smaji me 0.0029586
smaji while 0.0363636
smaji be 0.0132626
smaji quite 0.0476190
smaji from 0.0030395
smaji quietly 0.3333333
smaji sound 0.0400000
smaji silence 0.7857143
smaji His 0.0285714
smaji quiet 0.6296296
vlaste Dictionary 0.5000000
vlaste dictionary 0.1176471
vlaste a 0.0008170
vlaste typical 0.0769231
Taral present 0.0285714
Taral Taral 0.5000000
vijytcana airport 0.7142857
vijytcana the 0.0006171
vijytcana now 0.0076336
vijytcana at 0.0028490
ranti when 0.0061350
ranti soft 0.5555556
ranti being 0.0256410
ranti it 0.0015015
ranti is 0.0003648
pamoi colour 0.1250000
pamoi speaker 0.3333333
pamoi the 0.0021598
pamoi first 0.3000000
pamoi leading 0.4000000
pamoi Fall 0.5000000
pamoi NULL 0.0002663
pamoi furst 0.3333333
pamoi hen 0.1666667
pamoi opening 0.1000000
tsali . 0.0003585
tsali , 0.0005938
tsali is 0.0018242
tsali strong 0.6666667
tsali blows 0.5000000
tsali stronger 0.6000000
tsali am 0.0039683
tsali NULL 0.0002663
tsali &apos;s 0.0019704
tsali He 0.0015083
tsali tough 1.0000000
tsali he 0.0171821
tsali are 0.0037267
cu'upre businessperson 1.0000000
cu'upre a 0.0020425
cu'upre businessman 0.5000000
cu'upre am 0.0039683
tcilokoiotli pumpkin 0.4000000
dcosyn/xanguk Korea 0.1000000
funca depends 0.1000000
funca that 0.0011655
funca everybody 0.0625000
funca was 0.0016694
funca on 0.0029070
funca NULL 0.0002663
funca &apos;m 0.0017452
funca listens 0.3333333
funca lottery 0.2000000
funca in 0.0009124
funca lucky 0.2500000
funca luck 0.0714286
sapcki language 0.0107527
sapcki it 0.0015015
sapcki put 0.0169492
sapcki in 0.0009124
sapcki plain 1.0000000
xumjimcelxa'i gun 0.0588235
tedyske Earth 0.0434783
tedyske science 0.0625000
clita rudeness 0.1250000
sidbo ideas 1.0000000
sidbo have 0.0043103
sidbo of 0.0007485
sidbo ! 0.0015244
sidbo much 0.0104167
sidbo idea 0.3600000
sidbo mine 0.0178571
sidbo an 0.0038610
sidbo His 0.0142857
sidbo theory 0.1818182
sidbo how 0.0138889
sidbo no 0.0063291
sampu correct 0.0454545
sampu less 0.0384615
sampu respectively 0.0666667
sampu easy 0.0937500
purdi grown 0.2500000
purdi NULL 0.0001331
purdi She 0.0025840
purdi needs 0.0243902
purdi pencils 0.1428571
purdi ) 0.0065789
purdi Garden 1.0000000
purdi watering 0.2000000
purdi garden 0.8437500
purdi field 0.0625000
audaipei want 0.0030864
audaipei Do 0.0049505
audaipei ? 0.0005015
audaipei you 0.0005342
tolprali loss 0.2500000
tolprali clumsy 0.3333333
tolprali which 0.0208333
tolprali disadvantage 0.3333333
tolprali a 0.0004085
tolprali , 0.0005938
tolprali is 0.0003648
saturn Saturn 1.0000000
ruble since 0.0357143
ruble have 0.0021552
ruble able 0.0357143
ruble it 0.0030030
ruble breaks 0.2500000
ruble easily 0.1666667
ruble being 0.0128205
ruble weakly 1.0000000
ruble weak 1.0000000
ruble in 0.0009124
ruble is 0.0003648
tolstace insincere 1.0000000
dakfu for 0.0016694
dakfu a 0.0004085
dakfu that 0.0011655
dakfu knife 0.8125000
dakfu with 0.0024213
dakfu cutting 0.1666667
vukrygu'e happening 0.0588235
vukrygu'e Ukraine 0.1666667
jinmrtitri Yttrium 1.0000000
micel Michelle 0.5000000
djino does 0.0138889
djino she 0.0067114
tolckape be 0.0053050
tolckape to 0.0008123
tolckape supposed 0.0769231
tolckape safe 0.2857143
tolckape a 0.0008170
falcru dropped 0.1000000
falcru Drop 0.5000000
jamna war 0.5000000
jamna Jihad 0.5000000
jamna War 0.1428571
jamna halt 0.2500000
jamna with 0.0024213
jamna at 0.0028490
jamna over 0.0135135
pruce occurs 0.3333333
pruce process 0.2857143
pruce for 0.0016694
pruce stages 1.0000000
pruce stories 0.2000000
zgiterca'a plays 0.1000000
zgiterca'a do 0.0026882
zgiterca'a play 0.0232558
zmarai is 0.0007297
zmarai the 0.0009256
zmarai greatest 0.2500000
zmarai Nothing 0.1739130
brodu that 0.0011655
brodu food 0.0192308
brodu NULL 0.0001331
brodu serves 0.2000000
plipe out 0.0089286
plipe jumped 0.3500000
plipe Jumping 0.2500000
plipe of 0.0014970
plipe handspring 0.2000000
plipe He 0.0030166
plipe jump 0.6666667
plipe ants 0.2000000
plipe NULL 0.0002663
plipe bounces 0.5000000
plipe jumping 1.0000000
plipe jumps 1.0000000
plipe ( 0.0129870
plipe high 0.0769231
plipe joy 0.2000000
turni mistress 0.3333333
turni He 0.0015083
turni French 0.0158730
turni manager 0.3333333
turni government 0.5714286
turni by 0.0079681
turni of 0.0007485
turni governs 1.0000000
turni governor 0.6000000
turni leaders 0.2000000
turni NULL 0.0001331
turni governed 0.5000000
turni the 0.0012342
turni management 0.1111111
turni king 0.0500000
turni prevail 1.0000000
lonu Talking 0.2500000
lonu with 0.0048426
lonu skiing 0.1111111
lonu To 0.0140845
lonu turn 0.0526316
lonu , 0.0005938
lonu why 0.0263158
lonu Won 0.5000000
lonu you 0.0005342
lonu long 0.0131579
lonu NULL 0.0023965
lonu true 0.0263158
lonu responsible 0.1111111
lonu surprised 0.0227273
lonu liberty 0.1666667
lonu to 0.0085297
lonu oughta 0.3333333
lonu help 0.0093458
lonu thought 0.0142857
lonu suggested 0.1666667
lonu less 0.1153846
lonu pillows 0.1111111
lonu breakfast 0.2000000
lonu life 0.0250000
lonu before 0.0142857
lonu till 0.1428571
lonu want 0.0154321
lonu Love 0.0526316
lonu kept 0.0454545
lonu suggest 0.2000000
lonu it 0.0015015
lonu change 0.0666667
lonu Come 0.0256410
lonu ceasing 0.1111111
lonu Watching 0.5000000
lonu extremely 0.2000000
lonu sight 0.1428571
lonu smile 0.0909091
lonu dance 0.0555556
lonu being 0.0128205
lonu prompted 0.2000000
lonu happen 0.0526316
lonu exercise 0.2500000
lonu when 0.0122699
lonu may 0.0227273
lonu as 0.0137931
lonu slut 0.0909091
lonu No 0.0095238
lonu rid 0.1250000
lonu loss 0.2500000
lonu Speaking 0.1111111
lonu She 0.0051680
lonu intend 0.2500000
lonu sure 0.0238095
cecmu society 0.3333333
cecmu A 0.0057143
cecmu detail 0.1000000
cecmu colony 0.6666667
cecmu entire 0.3333333
mencre smart 0.0400000
mencre is 0.0010945
mencre also 0.0526316
mencre clever 0.5000000
mencre a 0.0004085
mencre an 0.0038610
mencre NULL 0.0001331
mencre intelligent 0.8333333
mencre He 0.0015083
mencre genius 0.5000000
gekygau up 0.0084746
gekygau was 0.0016694
gekygau me 0.0014793
gekygau cheered 1.0000000
gekygau when 0.0061350
gekygau feeling 0.0769231
gekygau blue 0.0344828
cmacmana hill 0.1176471
cmacmana on 0.0029070
rigypanci really 0.0125000
rigypanci stink 1.0000000
rigypanci . 0.0000896
zgirjazu Jazz 1.0000000
tsani skies 0.3333333
tsani sky 0.9736842
tsani The 0.0018993
tsani is 0.0003648
tsani skyful 0.3333333
kumyzda get 0.0091743
kumyzda into 0.0091743
kumyzda flat 0.5000000
kumyzda my 0.0015674
kalvi'u gouge 1.0000000
kalvi'u out 0.0089286
kalvi'u eyes 0.0196078
kalvi'u &apos;ll 0.0063694
kalvi'u your 0.0020408
djaks Jacques 0.2000000
djaks goes 0.0188679
djaks How 0.0040323
djaks it 0.0015015
tcelenku really 0.0125000
tcelenku cold 0.0192308
tcelenku It 0.0022222
tcelenku &apos;s 0.0009852
ba'e dead 0.0303030
ba'e responsible 0.1111111
ba'e NULL 0.0007988
ba'e * 0.3636364
ba'e someone 0.0263158
ba'e ) 0.0065789
ba'e depends 0.1000000
ba'e flies 0.2500000
ba'e really 0.0250000
ba'e &apos; 0.0238095
ba'e precedes 1.0000000
ba'e interesting 0.0370370
ba'e at 0.0028490
ba'e CAN 0.5000000
ba'e It 0.0044444
ba'e s 0.1000000
ba'e fool 0.0769231
ba'e Susan 0.1250000
ba'e so 0.0072993
ba'e up 0.0084746
ba'e for 0.0016694
ba'e not 0.0055556
ba'e else 0.0769231
ba'e to 0.0008123
ba'e Monday 0.1428571
ba'e equal 0.0666667
ba'e &apos;m 0.0017452
ba'e YOU 0.5000000
ba'e ; 0.0222222
ba'e nuts 0.2500000
ba'e ME 0.5000000
ba'e all 0.0059880
ba'e ALICE 0.3333333
ba'e hit 0.0277778
ba'e ( 0.0194805
ba'e &apos;s 0.0019704
ba'e emphasizes 0.3333333
aidji going 0.0114943
aidji am 0.0039683
kijytcini Oxidation 1.0000000
kijytcini number 0.0172414
za'umei them 0.0147059
za'umei skies 0.3333333
za'umei They 0.0355030
za'umei more 0.0078740
rais to 0.0004062
rais Rice 0.2000000
sabji hand 0.0285714
sabji NULL 0.0003994
sabji feeds 0.1250000
sabji provide 0.1666667
sabji you 0.0005342
sabji that 0.0011655
racli It 0.0044444
racli logical 0.1428571
racli makes 0.0588235
racli . 0.0006273
racli sense 0.2857143
racli intuitive 0.5000000
racli This 0.0017606
racli rational 0.5000000
racli make 0.0227273
kensa , 0.0017815
kensa In 0.0172414
kensa space 0.3333333
kensa near 0.0333333
kikeron Cicero 0.3333333
kikeron Tully 0.0833333
muspre Muslim 0.1666667
muspre a 0.0004085
muspre am 0.0039683
vitci is 0.0003648
vitci This 0.0017606
vitci irregular 0.5000000
vitci gives 0.1111111
vitci intermittent 0.2500000
vitci highly 0.2000000
vitci an 0.0038610
cikna , 0.0005938
cikna Wake 0.1875000
cikna up 0.1525424
cikna awake 1.0000000
cikna &apos;m 0.0034904
cikna wake 0.6666667
cikna NULL 0.0001331
cikna on 0.0029070
cikna was 0.0033389
cikna stay 0.0500000
cikna early 0.0952381
cikna &apos;s 0.0009852
cikna conscious 1.0000000
cikna He 0.0030166
cikna wide 0.3846154
trixexo Manatee 1.0000000
snanilsutra sound 0.0400000
snanilsutra Speed 0.5000000
snanilsutra of 0.0007485
fonpli call 0.0344828
fonpli phone 0.0384615
fonpli make 0.0113636
fonpli we 0.0075758
fonpli a 0.0004085
pedbi'o make 0.0454545
pedbi'o friends 0.0615385
cteki everyone 0.0172414
cteki certificates 0.5000000
cteki Interest 1.0000000
cteki taxes 1.0000000
cteki for 0.0016694
cteki against 0.0370370
cteki cows 0.1250000
cteki levied 1.0000000
cteki tax 0.6000000
cteki on 0.0058140
cteki keeping 0.2222222
Klabaster Klabaster 0.2500000
toljisyzma dirty 0.1176471
toljisyzma yours 0.0689655
toljisyzma as 0.0275862
toljisyzma is 0.0003648
dasni wear 0.6666667
dasni guy 0.1000000
dasni uniform 0.1428571
dasni clothes 0.0833333
dasni In 0.0172414
dasni Get 0.0555556
dasni wearing 0.7777778
dasni shoes 0.0769231
dasni wore 0.3333333
dasni shirt 0.0625000
dasni NULL 0.0001331
dasni to 0.0004062
dasni wears 0.2777778
dasni sweater 0.1666667
dasni dressed 0.4000000
dasni in 0.0036496
dasni pajamas 0.3333333
dasni put 0.0677966
dasni off 0.0535714
dasni &apos;s 0.0019704
dasni dress 0.0625000
dasni coat 0.0769231
dasni worn 0.2000000
paki'oki'o for 0.0016694
paki'oki'o Only 0.0625000
paki'oki'o $ 0.0625000
paki'oki'o 1,000,000 0.2000000
slamrsalike aspirin 1.0000000
radytu'i admitted 0.2857143
jungu'e from 0.0030395
jungu'e China 0.0357143
jungu'e back 0.0181818
pesku'i How 0.0080645
pesku'i of 0.0014970
pesku'i ! 0.0030488
pesku'i considerate 1.0000000
plipybanfi frog 1.0000000
seltcu which 0.0208333
seltcu the 0.0006171
seltcu need 0.0113636
cibyselmla equal 0.1333333
cibyselmla triangle 0.2857143
nom.tcomskis Noam 1.0000000
nom.tcomskis Chomsky 1.0000000
kernelo core 0.5000000
cajapu read 0.0129870
italias Italy 0.3846154
benesuel Venezuela 1.0000000
lo'u vau 0.3333333
lo'u had 0.0067114
lo'u been 0.0102041
lo'u tcu 0.5000000
lo'u &quot; 0.0013624
lo'u translation 0.0714286
sorbaucre to 0.0004062
sorbaucre be 0.0026525
sorbaucre a 0.0004085
sorbaucre polyglot 1.0000000
selvau There 0.0045045
la.dik Dick 0.5000000
be'o by 0.0039841
be'o inch 0.1111111
be'o NULL 0.0001331
be'o four 0.0370370
be'o long-haired 1.0000000
be'o Throw 0.3333333
be'o formed 0.1666667
be'o whore 0.2500000
be'o net 0.2000000
ce'oi more 0.0078740
ce'oi like 0.0045455
clika rocks 0.3333333
clika on 0.0029070
clika is 0.0003648
clika moss 1.0000000
clika growing 0.2000000
skami computers 0.4000000
skami computer 0.8846154
skami Computer 0.3333333
skami Computers 0.5000000
skami does 0.0138889
gy.Tatoeba.gy of 0.0007485
gy.Tatoeba.gy URL 1.0000000
gy.Tatoeba.gy the 0.0003085
gy.Tatoeba.gy Tatoeba 0.0500000
sloska Jabberwocky 1.0000000
devoncir Devonshire 0.1250000
pu'o ripe 0.1428571
pu'o don 0.0062696
pu'o haven 0.0526316
pu'o meaning 0.0285714
pu'o NULL 0.0002663
pu'o &apos;m 0.0017452
pu'o &apos;t 0.0073452
pu'o about 0.0157480
pu'o not 0.0055556
pu'o hasn 0.5000000
pu'o to 0.0024370
pu'o yet 0.2941176
pu'o rescue 0.1250000
pu'o been 0.0102041
pu'o going 0.0114943
pu'o Mother 0.0833333
pu'o are 0.0024845
pu'o could 0.0181818
pu'o &quot; 0.0013624
pu'o Mooli 0.0434783
pu'o Didn 0.1666667
pu'o verge 1.0000000
nalterlejgu'a Others 0.5000000
nalterlejgu'a in 0.0009124
nalterlejgu'a work 0.0088496
nalterlejgu'a engage 0.3333333
nalterlejgu'a volunteer 1.0000000
la'edi'u a 0.0004085
la'edi'u thing 0.0270270
la'edi'u that 0.0011655
la'edi'u brought 0.0434783
la'edi'u such 0.0357143
la'edi'u Isn 0.1111111
la'edi'u before 0.0142857
la'edi'u NULL 0.0002663
ku'o buffalo 0.0588235
ku'o be 0.0026525
ku'o inch 0.1111111
ku'o NULL 0.0003994
ku'o stick 0.1666667
ku'o with 0.0048426
ku'o can 0.0031646
ku'o no 0.0063291
ku'o answered 0.1666667
ku'o belong 0.1250000
ku'o widower 0.5000000
ku'o yes 0.0714286
ku'o tastes 0.0833333
ku'o or 0.0060606
ku'o to 0.0004062
ku'o metro 0.1111111
ibabo days 0.0217391
puziku &apos;m 0.0017452
puziku this 0.0021413
puziku at 0.0028490
la.mari,as María 1.0000000
la.mari,as were 0.0075188
bradi not 0.0018519
bradi an 0.0038610
bradi is 0.0007297
bradi doesn 0.0097087
bradi enemies 0.3333333
bradi enemy 1.0000000
bradi have 0.0043103
bradi or 0.0060606
bradi &apos;t 0.0010493
bradi any 0.0312500
cevni in 0.0045620
cevni for 0.0016694
cevni exact 0.1428571
cevni Lord 0.1666667
cevni believe 0.0208333
cevni NULL 0.0001331
cevni omniscient 0.2500000
cevni Deity 1.0000000
cevni are 0.0012422
cevni Gods 0.3333333
cevni God 0.3750000
cevni god 0.6250000
smugau calling 0.2500000
nova'e in 0.0009124
nova'e no 0.0126582
nova'e have 0.0021552
nova'e &apos;re 0.0065359
di'ai &quot; 0.0040872
di'ai ! 0.0228659
di'ai Happy 0.1875000
di'ai I 0.0005026
di'ai damn 0.1666667
di'ai good 0.0084034
di'ai to 0.0008123
di'ai Halloween 0.1250000
di'ai . 0.0005377
di'ai a 0.0004085
di'ai luck 0.3571429
di'ai Goodnight 0.2000000
di'ai Merry 0.3333333
di'ai ) 0.0065789
di'ai same 0.0294118
di'ai Good 0.2432432
di'ai wish 0.0512821
di'ai well-wish 1.0000000
di'ai ( 0.0064935
di'ai Year 0.1666667
di'ai the 0.0003085
di'ai weekend 0.3333333
di'ai di 0.5000000
di'ai Pleasant 0.5000000
di'ai voyage 0.2000000
di'ai New 0.2000000
di'ai Bon 0.1666667
ke'e capricious 0.2000000
bimoi ninth 1.0000000
besna Brain 1.0000000
besna have 0.0021552
besna brains 0.3333333
co'u could 0.0181818
co'u forgot 0.1250000
co'u till 0.2857143
co'u off 0.0535714
co'u lost 0.0422535
co'u argue 0.3333333
co'u finally 0.1111111
co'u fixed 0.0714286
co'u until 0.1851852
co'u up 0.0508475
co'u died 0.0181818
co'u don 0.0094044
co'u bored 0.0833333
co'u withhold 0.5000000
co'u Hope 0.2727273
co'u NULL 0.0007988
co'u property 0.3333333
co'u 2011 0.2000000
co'u fashionable 0.2500000
co'u quits 1.0000000
co'u stops 0.2727273
co'u stop 0.0571429
co'u dancing 0.0833333
co'u Wake 0.0625000
co'u It 0.0022222
co'u quarrel 0.3333333
co'u order 0.0434783
co'u anymore 0.0322581
co'u &apos;mon 0.5000000
co'u butchery 0.2500000
co'u non-magnetic 0.5000000
co'u &apos;t 0.0031480
co'u stopped 0.2692308
co'u Instead 0.1428571
co'u race 0.1428571
co'u disappointed 0.2500000
co'u quit 0.2666667
co'u tied 0.1666667
cancmu Silicon 1.0000000
stizu bench 1.0000000
stizu chairs 1.0000000
stizu seat 0.1666667
stizu Blue 0.5000000
stizu chair 0.7857143
stizu so 0.0072993
tolpo'u functional 1.0000000
su'ai each 0.0153846
su'ai known 0.0769231
su'ai other 0.0109890
su'ai &apos;ve 0.0116279
ua.uicai doughnuts 0.5000000
plana all 0.0059880
plana &apos;m 0.0017452
plana cheeks 1.0000000
plana are 0.0012422
plana be 0.0026525
plana fat 0.8750000
cmoni expressing 0.3333333
cmoni howl 0.3333333
cmoni neighing 1.0000000
cmoni bark 0.1111111
cmoni A 0.0057143
cmoni his 0.0029762
cmoni ! 0.0015244
cmoni howling 0.5000000
cmoni scream 0.2222222
cmoni NULL 0.0001331
cmoni uttered 0.3333333
cmoni whined 0.3333333
gombesa coelacanth 0.5000000
gombesa Latimeria 1.0000000
gombesa inhabits 0.5000000
palku wear 0.0833333
palku pants 0.8000000
palku My 0.0020534
palku trousers 0.3333333
selcuxna choice 0.1250000
gitsko harp 0.5000000
gitsko a 0.0004085
gitsko string 0.3333333
u'u Excuse 0.2000000
u'u for 0.0016694
u'u me 0.0014793
u'u . 0.0002688
u'u Sorry 0.5000000
u'u ! 0.0045732
u'u apologise 1.0000000
u'u I 0.0015079
u'u regret 0.1000000
u'u we 0.0075758
u'u any 0.0156250
u'u but 0.0068493
u'u Yeah 0.1000000
u'u ... 0.0192308
u'u afraid 0.0227273
u'u sorry 0.3529412
u'u , 0.0023753
u'u ) 0.0065789
u'u &apos;m 0.0104712
febybi'o vaporization 0.5000000
bakfu pack 0.2500000
bakfu ribbon 0.2500000
bakfu NULL 0.0001331
bakfu for 0.0016694
jyfykys shot 0.2000000
lardai in 0.0009124
lardai deeply 0.5000000
lardai art 0.1250000
lardai am 0.0039683
lardai interested 0.0416667
sakcpu is 0.0003648
sakcpu suckling 0.5000000
parji parasite 1.0000000
parji a 0.0004085
parji in 0.0009124
pinocchio : 0.0200000
pinocchio says 0.0294118
pinocchio Pinocchio 0.2500000
ra'urselja'edji cause 0.0769231
ra'urselja'edji any 0.0156250
ra'urselja'edji trouble 0.0714286
ra'urselja'edji want 0.0030864
ra'urselja'edji don 0.0031348
ra'urselja'edji We 0.0037313
ra'urselja'edji to 0.0004062
lev Leon 1.0000000
gubni public 0.5000000
gubni and 0.0018450
gubni OpenBSD 0.1666667
gubni in 0.0009124
gubni a 0.0004085
gubni ready 0.0344828
gubni minute 0.0625000
gubni be 0.0026525
gubni open 0.0370370
gubni NULL 0.0001331
euklidi Euclidean 1.0000000
ko'e jealous 0.2500000
ko'e homework 0.1428571
ko'e &apos;i 0.3333333
ko'e why 0.0263158
ko'e arrival 0.0769231
ko'e ko 0.0500000
ko'e shoulders 0.3333333
ko'e finding 0.1428571
ko'e her 0.0232558
ko'e hated 0.1000000
ko'e NULL 0.0005326
ko'e &apos;o 0.5000000
ko'e claim 0.2500000
ko'e lips 0.3333333
ko'e of 0.0014970
ko'e tall 0.0526316
ko'e further 0.3333333
ko'e him 0.0679012
ko'e present 0.0285714
ko'e sight 0.1428571
ko'e to 0.0012185
ko'e forget 0.0526316
ko'e She 0.0025840
ko'e drunk 0.0666667
ko'e death 0.0714286
ko'e He 0.0015083
muvysutra velocity 0.2500000
muvysutra Its 1.0000000
muvysutra symbol 0.2000000
onkle uncle 0.0588235
tanbo blackboard 0.3333333
tanbo cheeky 1.0000000
tanbo face 0.0526316
tanbo on 0.0029070
tanbo her 0.0038760
tanbo smile 0.0909091
miraris.uos Mirari 1.0000000
miraris.uos Vos 1.0000000
ciksa wrote 0.0294118
ge treat 0.1250000
ge fluency 0.2500000
ge Both 0.1538462
ge Although 0.1250000
ge do 0.0026882
ge both 0.0750000
ge intended 0.5000000
ge NULL 0.0003994
ge addition 0.1111111
ge I 0.0002513
prali profit 0.3333333
prali use 0.0263158
prali does 0.0138889
prali the 0.0006171
prali NULL 0.0001331
prali treason 0.2000000
prali prosper 0.3333333
prali gain 1.0000000
prali benefits 0.5000000
prali of 0.0014970
prali Honesty 0.2000000
prali advantage 0.2500000
alzaitu Olive 1.0000000
na'ipei Why 0.0064935
na'ipei not 0.0018519
na'ipei ? 0.0005015
temu'i because 0.0103093
temu'i leave 0.0166667
temu'i of 0.0007485
temu'i You 0.0019841
bastiat Bastiat 1.0000000
tivnuzba news 0.0476190
tivnuzba after 0.0232558
tivnuzba on 0.0029070
tivnuzba watched 0.1250000
tivnuzba TV 0.0625000
su'epa more 0.0157480
su'epa one 0.0082988
su'epa No 0.0190476
su'epa professor 0.1666667
su'epa than 0.0141844
braxamsi Ocean 0.8750000
gyky γκ 1.0000000
gyky &quot; 0.0027248
gyky d 0.3333333
metu dictionary 0.0588235
metu bought 0.0105263
metu that 0.0011655
tsaprpiperi white 0.0303030
tsaprpiperi black 0.0400000
tsaprpiperi ) 0.0065789
tsaprpiperi pepper 1.0000000
tsaprpiperi ( 0.0064935
tsaprpiperi / 0.0384615
xokaidon in 0.0009124
xokaidon Hokkaido 0.0588235
xokaidon last 0.0222222
xokaidon Was 0.0666667
xokaidon he 0.0034364
selda'i have 0.0021552
Visa by 0.0039841
Visa Visa 0.1250000
pevysmacu Huh 0.1000000
pevysmacu ? 0.0005015
pevysmacu on 0.0029070
pevysmacu mouse 0.1052632
pevysmacu sits 0.5000000
pevysmacu A 0.0057143
belrus Belarus 1.0000000
manci It 0.0022222
manci is 0.0003648
manci wonderful 0.2000000
manci amazing 1.0000000
manci fantastic 0.1666667
manci these 0.0200000
manci are 0.0024845
manci find 0.0294118
manci it 0.0015015
manci of 0.0007485
no'a thigh 0.2000000
no'a words 0.0196078
no'a do 0.0026882
no'a an 0.0038610
no'a word 0.0303030
no'a I 0.0002513
no'a NULL 0.0002663
no'a before 0.0142857
no'a you 0.0005342
no'a Studying 1.0000000
no'a such 0.0357143
no'a extent 0.1666667
nakpinji has 0.0035461
nakpinji a 0.0004085
nakpinji experiences 0.5000000
nakpinji and 0.0018450
nakpinji girl 0.0112360
nakpinji penis 1.0000000
nakpinji since 0.0357143
nakpinji it 0.0015015
nakpinji his 0.0029762
murse all 0.0059880
murse evening 0.0555556
murse jokes 0.5000000
murse with 0.0024213
tirna Listen 0.1428571
tirna listened 0.2222222
tirna to 0.0036556
tirna heard 0.3947368
tirna we 0.0075758
tirna I 0.0002513
tirna Eh 0.0769231
tirna hearing 0.2500000
tirna could 0.0181818
tirna Finkelstein 0.2500000
tirna that 0.0011655
tirna can 0.0126582
tirna listening 0.3181818
tirna hear 0.5000000
tirna listen 0.3333333
tirna sound 0.0400000
tirna you 0.0005342
mi'au mew 1.0000000
mi'au &apos;d 0.0149254
snage'a Phonology 1.0000000
snura rescue 0.1250000
snura safe 0.5714286
snura threat 0.2000000
snura by 0.0039841
snura from 0.0030395
snura now 0.0076336
snura beauty 0.1111111
snura are 0.0012422
snura be 0.0053050
snura &apos;m 0.0017452
snura saved 0.1666667
ле ! 0.0015244
ле Soviet 0.1000000
ctebi lips 0.6666667
ctebi would 0.0116279
ctebi how 0.0069444
ctebi vagina 0.1428571
ctebi taste 0.0555556
ctebi his 0.0029762
tutske Geography 1.0000000
cinba tender 0.2500000
cinba with 0.0024213
cinba kiss 0.4210526
cinba all 0.0059880
cinba Kiss 0.5000000
cinba kissed 0.5384615
cinba two 0.0071942
cinba but 0.0136986
cinba NULL 0.0001331
cinba kisses 0.5000000
nalzi'e hereby 0.2000000
nalzi'e officially 0.5000000
nalzi'e prohibited 0.2000000
nalzi'e is 0.0003648
di'irvau wallet 0.2000000
zvafa'i found 0.0243902
zvafa'i find 0.0294118
xuaKIN Argentina 0.1666667
lobjan Lobjan 0.2500000
lobjan &quot; 0.0027248
tolcre beginner 0.5000000
tolcre is 0.0003648
tolcre a 0.0004085
lu'omi'a move 0.0714286
nicygau &apos;m 0.0017452
nicygau off 0.0178571
nicygau room 0.0114943
nicygau Clear 0.1666667
nicygau have 0.0021552
nicygau ) 0.0065789
nicygau telling 0.2000000
nicygau who 0.0061350
nicygau up 0.0169492
nicygau straightening 0.5000000
nicygau cleaned 0.3333333
nicygau not 0.0037037
jdenoi warnings 0.5000000
columbos Columbus 0.1250000
crakla Proceed 0.3333333
crakla with 0.0024213
crakla caution 0.3333333
dinvau supermarket 1.0000000
dinvau in 0.0009124
dinvau wallet 0.4000000
dinvau purse 1.0000000
gunka Work 0.3333333
gunka done 0.0163934
gunka workers 0.8333333
gunka . 0.0006273
gunka workaholic 0.5000000
gunka overworked 0.2500000
gunka on 0.0087209
gunka properly 0.3333333
gunka hard 0.0259740
gunka working 0.5769231
gunka worked 0.2222222
gunka it 0.0015015
gunka at 0.0028490
gunka geologist 0.3333333
gunka clerk 0.5000000
gunka worker 0.8571429
gunka historian 0.5000000
gunka flourishing 0.3333333
gunka works 0.2962963
gunka labourer 0.2500000
gunka NULL 0.0006657
gunka work 0.5486726
gotam Gotham 0.5000000
paRIS Paris 0.0322581
io'an.zebastian.bax Johann 1.0000000
io'an.zebastian.bax Bach 1.0000000
io'an.zebastian.bax Sebastian 1.0000000
la.sauakon Sawako 1.0000000
tersla party 0.1785714
jugypre Many 0.1250000
jugypre people 0.0056180
jugypre to 0.0004062
jugypre Chinese 0.0294118
jugypre consider 0.1250000
jugypre red 0.0217391
morna handwriting 0.1428571
morna pattern 0.2500000
morna follow 0.1000000
morna this 0.0021413
morna patterns 1.0000000
kinzbapre director 1.0000000
kinzbapre Film 0.5000000
Eimis Eimi 0.3333333
pluka fantastic 0.1666667
pluka liked 0.0833333
pluka &apos;s 0.0029557
pluka nice 0.2000000
pluka pleasure 0.5000000
pluka travel 0.0588235
pluka Would 0.0731707
pluka savoured 0.5000000
pluka fiction 0.1250000
pluka . 0.0013442
pluka a 0.0004085
pluka beautiful 0.0084034
pluka Life 0.0714286
pluka NULL 0.0007988
pluka Eating 0.1000000
pluka enjoyed 0.2222222
pluka pleasant 0.6363636
pluka it 0.0045045
pluka ) 0.0131579
pluka Good 0.0540541
pluka suit 0.1666667
pluka Pleasant 0.5000000
pluka lovely 0.3333333
pluka pleased 0.4000000
pluka It 0.0066667
pluka ( 0.0064935
pluka am 0.0079365
pluka pleases 0.6250000
pluka the 0.0003085
pluka enjoy 0.2222222
mokca had 0.0067114
mokca point 0.2000000
mokca together 0.0588235
mokca just 0.0196078
mokca points 0.3333333
mokca roll 0.1250000
mokca a 0.0008170
mokca in 0.0018248
fukucimas to 0.0008123
fukucimas Fukushima 0.3333333
fukucimas help 0.0093458
la.bil with 0.0024213
la.bil Bill 0.1200000
dertu soil 0.8333333
dertu dirt 1.0000000
dertu loams 0.5000000
dertu over 0.0135135
dertu dirty 0.0588235
dertu ground 0.9000000
jungau US 0.2000000
jungau information 0.1666667
jungau tell 0.1923077
jungau inform 0.5000000
jungau informed 0.5000000
jungau know 0.0094937
jungau NULL 0.0001331
jungau Tell 0.1250000
jungau me 0.0029586
jungau anybody 0.0689655
jungau him 0.0061728
jungau what 0.0032468
jungau immediately 0.1538462
jungau made 0.0081301
jungau told 0.0617284
jungau anyone 0.0500000
jungau let 0.0333333
jungau Let 0.0107527
jungau something 0.0086207
jungau wouldn 0.0909091
pambe pump 1.0000000
pambe NULL 0.0001331
pambe filling 0.5000000
pambe up 0.0084746
pambe for 0.0016694
zengau give 0.0208333
zengau coffee 0.0327869
zengau some 0.0072993
zengau me 0.0014793
zengau add 0.2000000
zengau more 0.0157480
figre figs 1.0000000
panzi Is 0.0086207
panzi breed 0.3333333
panzi got 0.0109890
panzi any 0.0156250
panzi NULL 0.0001331
panzi kids 0.2000000
panzi children 0.1489362
panzi Jacob 0.2222222
panzi has 0.0035461
panzi child 0.1230769
kansa am 0.0039683
kansa s 0.1000000
kansa with 0.0992736
kansa lot 0.0114943
kansa go 0.0107143
kansa be 0.0132626
kansa classmates 0.2000000
kansa come 0.0198020
kansa by 0.0039841
kansa together 0.0588235
kansa responsibility 0.0588235
kansa NULL 0.0007988
kansa &apos;t 0.0010493
kansa accompanied 0.5000000
kansa assistant 0.2000000
kansa &apos;ll 0.0063694
kansa been 0.0102041
kansa me 0.0014793
kansa oceans 0.2000000
kansa partner 0.1428571
kansa Getter 0.5000000
kansa rhymes 0.2000000
kansa are 0.0012422
kansa &apos;re 0.0261438
kansa join 0.5000000
kansa accompany 0.8000000
kunti free 0.0416667
kunti there 0.0063694
kunti empty 0.8000000
kunti vacuum 0.5000000
kunti a 0.0004085
slari sour 0.4000000
slari to 0.0004062
djogu'e Arabia 1.0000000
djogu'e Saudi 1.0000000
titnanba cake 0.5945946
titnanba cakes 0.5000000
titnanba cookies 1.0000000
titnanba some 0.0072993
narpanra colorful 0.2500000
narpanra Your 0.0138889
se'ixru come 0.0396040
se'ixru will 0.0035336
se'ixru return 0.0370370
se'ixru back 0.1272727
se'ixru your 0.0020408
se'ixru to 0.0012185
se'ixru see 0.0068966
se'ixru returned 0.1428571
se'ixru Sydney 0.3333333
puba'o &apos;t 0.0010493
puba'o anymore 0.0322581
puba'o isn 0.0117647
puba'o a 0.0004085
puba'o have 0.0021552
cmecau anonymous 0.3333333
cmecau in 0.0009124
cmecau remain 0.2500000
jinsru encircled 0.5000000
jinsru with 0.0024213
fi refuse 0.5000000
fi believe 0.0625000
fi names 0.5000000
fi giving 0.0769231
fi idea 0.0400000
fi louses 0.2500000
fi image 1.0000000
fi common 0.0769231
fi take 0.0185185
fi promise 0.0750000
fi possibilities 0.1111111
fi implored 0.2500000
fi paid 0.1333333
fi respectively 0.0666667
fi rock 0.0769231
fi defend 0.2500000
fi tunnel 0.3333333
fi τζ 1.0000000
fi obstinate 0.2500000
fi felt 0.0416667
fi motive 0.2500000
fi told 0.1604938
fi area 0.0714286
fi inviting 0.3333333
fi me 0.0014793
fi translate 0.0714286
fi toupee 0.2000000
fi Obey 0.3333333
fi Compared 0.2500000
fi Thanks 0.2272727
fi used 0.0185185
fi ripped 0.3333333
fi NULL 0.0098522
fi make 0.0113636
fi database 0.2500000
fi dilapidated 1.0000000
fi wipe 0.2500000
fi happens 0.0500000
fi at 0.0028490
fi where 0.0631579
fi 1982 0.2500000
fi US 0.2000000
fi posted 0.1428571
fi earlier 0.0555556
fi May 0.0454545
fi Faster 0.2000000
fi with 0.0024213
fi ask 0.1739130
fi into 0.0366972
fi explained 0.1250000
fi great 0.0377358
fi knows 0.0784314
fi flew 0.1000000
fi foot 0.0714286
fi gave 0.0967742
fi feeds 0.1250000
fi read 0.0779221
fi years 0.0100000
fi Robert 0.0666667
fi putting 0.1428571
fi rotating 0.2000000
fi threaten 0.5000000
fi in 0.0009124
fi sequence 0.2000000
fi Kiev 0.1250000
fi Correct 0.3333333
fi organ 0.2500000
fi law 0.0909091
fi Buddha 0.1428571
fi remember 0.0465116
fi grammar 0.1250000
fi defeat 0.4285714
fi letters 0.0588235
fi Believe 0.1000000
fi alkali 0.2500000
fi texted 0.2500000
fi sentences 0.1111111
fi brightly 0.5000000
fi reading 0.1212121
fi away 0.0222222
fi brought 0.0869565
fi rare 0.5000000
fi goat 0.1250000
fi reader 0.5000000
fi it 0.0105105
fi from 0.1033435
fi answered 0.1666667
fi protects 0.3333333
fi motivate 0.1250000
fi am 0.0039683
fi tell 0.1282051
fi irrelevant 0.2500000
fi ... 0.0576923
fi experimental 0.1666667
fi pays 0.5000000
fi Eyjafjallajökull 0.1666667
fi birthday 0.1200000
fi Learning 0.2000000
fi audience 0.1250000
fi objective 0.3333333
fi offered 0.2222222
fi understand 0.1619048
fi do 0.0026882
fi matches 0.2222222
fi Change 0.1250000
fi crossroad 0.1428571
fi learning 0.1562500
fi handed 0.1666667
fi ritual 0.3333333
fi coi 0.1000000
fi ribbon 0.2500000
fi Karen 0.2000000
fi report 0.2500000
fi Columbia 0.3333333
fi orders 0.3333333
fi Humpty 0.2500000
fi relevant 0.2000000
fi quoted 0.3333333
fi off 0.0357143
fi teaching 0.2500000
fi project 0.0909091
fi Ask 0.1875000
fi jumped 0.0500000
fi objected 0.2000000
fi thankful 0.1666667
fi Shakespeare 0.2222222
fi Sydney 0.3333333
fi footprints 0.1666667
fi sizes 0.2000000
fi to 0.0138099
fi growing 0.2000000
fi Among 0.6666667
fi vice 0.2500000
fi drove 0.0833333
fi Beware 0.3333333
fi learn 0.1777778
fi greeting 0.1428571
fi times 0.0263158
fi exception 0.1250000
fi bedtime 0.2500000
fi cardboard 0.2500000
fi interpretation 0.5000000
fi understands 0.3750000
fi lot 0.0114943
fi regarded 0.1666667
fi owe 0.5000000
fi pattern 0.2500000
fi are 0.0012422
fi roll 0.1250000
fi email 0.3333333
fi CIA 0.2000000
fi how 0.0625000
fi mailed 0.2000000
fi admit 0.3333333
fi net 0.2000000
fi statement 0.1000000
fi wish 0.0256410
fi rights 0.2000000
fi about 0.0669291
fi wild 0.1666667
fi save 0.0714286
fi born 0.0555556
fi yelled 0.3333333
fi darkness 0.5000000
fi also 0.0526316
fi give 0.0625000
fi slope 0.1666667
fi spent 0.1666667
fi For 0.1428571
fi tip 0.1250000
fi obey 0.3333333
fi misunderstood 0.1666667
fi commented 0.2500000
fi pass 0.0416667
fi To 0.0281690
fi curse 0.1666667
fi Turn 0.0526316
fi Carlos 0.2500000
fi asked 0.1578947
fi show 0.0833333
fi organized 0.2500000
fi help 0.0186916
fi primary 0.5000000
fi dirty 0.0588235
fi tubes 0.5000000
fi 2000 0.2000000
fi typical 0.0769231
fi string 0.3333333
fi buy 0.0153846
fi work 0.0265487
fi sunlight 0.2000000
fi Welcome 0.1578947
fi lied 0.2000000
fi attend 0.2857143
fi provide 0.1666667
fi benefits 0.5000000
fi find 0.1176471
fi fastest 0.3333333
fi younger 0.2500000
fi best 0.0697674
fi teaches 0.0769231
fi mom 0.1428571
fi grapes 0.1428571
fi theory 0.3636364
fi lessons 0.1666667
fi wrote 0.0294118
fi Symbol 0.3333333
fi objection 0.3333333
fi mean 0.0810811
fi promised 0.1111111
fi word 0.0303030
fi pretty 0.0263158
fi meant 0.0714286
fi wheat 0.4285714
fi prepare 0.1250000
fi according 0.1111111
fi harder 0.0714286
fi Bring 0.1428571
fi refused 0.3333333
fi something 0.0344828
fi old 0.0108696
fi continued 0.1666667
fi slut 0.0909091
fi ill 0.0769231
fi Tell 0.1250000
fi What 0.0024213
fi isn 0.0117647
fi oneself 0.0625000
fi commercial 0.5000000
fi know 0.0094937
fi comics 0.2500000
fi shit 0.0833333
fi taken 0.1250000
fi heir 0.5000000
fi Tatoeba.org. 1.0000000
fi understanding 0.3750000
fi sore 0.3333333
fi behind 0.0526316
fi received 0.0769231
fi mystery 0.2000000
fi cause 0.2307692
fi advance 0.3076923
fi Follow 0.5000000
fi forgot 0.0937500
fi novel 0.1333333
fi talking 0.0181818
fi comparison 0.2500000
fi catch 0.1333333
fi heard 0.0263158
fi ink 0.1428571
li'anpi cheek 0.3333333
li'anpi chubby 0.5000000
ija , 0.0011876
ija unless 0.6666667
skutadji blunt 0.2500000
nunpe'i meeting 0.0454545
nunpe'i During 0.2500000
nunpe'i posted 0.1428571
nunpe'i time 0.0074627
nunpe'i was 0.0016694
nunpe'i next 0.0294118
nalpo'i could 0.0181818
bu'i an 0.0154440
hello!.gy Yay 0.0833333
hello!.gy as 0.0068966
hello!.gy , 0.0011876
hello!.gy to 0.0004062
hello!.gy hello 0.1250000
hello!.gy ! 0.0030488
hello!.gy &quot; 0.0054496
zanru my 0.0047022
zanru excuse 1.0000000
zanru favored 0.5000000
zanru welcome 0.1000000
zanru high 0.0384615
zanru approve 1.0000000
zanru approved 0.1250000
zanru being 0.0384615
zanru accept 0.5000000
zanru proposal 0.0909091
zanru praising 0.3333333
jetyja'o the 0.0003085
jetyja'o murderer 0.2000000
jetyja'o who 0.0061350
jetyja'o prove 0.1428571
jetyja'o is 0.0003648
teodoros the 0.0003085
teodoros owns 0.0625000
teodoros Theodore 0.1428571
teodoros rose 0.1111111
Mathematica Mathematica 0.2000000
nuzba from 0.0060790
nuzba new 0.0123457
nuzba news 0.5238095
nuzba about 0.0039370
nuzba sick 0.0454545
nuzba this 0.0021413
nuzba the 0.0015427
nuzba is 0.0003648
nuzba hear 0.0500000
nuzba then 0.0256410
nuzba are 0.0024845
nuzba since 0.0357143
nuzba News 0.5000000
nuzba &apos;s 0.0039409
nuzba been 0.0102041
nuzba heard 0.0526316
nuzba up 0.0254237
cnicro Sometimes 0.2500000
cnicro telling 0.2000000
ga'icu'i peers 0.3333333
ga'icu'i my 0.0015674
ga'icu'i , 0.0005938
ransu composed 0.5000000
ransu bronze 0.3333333
ransu made 0.0081301
ransu of 0.0014970
ransu Bronze 0.6666667
jitfa lies 0.3000000
jitfa to 0.0020309
jitfa tends 0.1538462
jitfa tell 0.0384615
jitfa wrong 0.0312500
jitfa thing 0.0270270
jitfa false 0.4666667
jitfa was 0.0016694
jitfa lie 0.1875000
jitfa untrue 0.5000000
pimuji'i age 0.0588235
pimuji'i &apos;s 0.0009852
ludvix.fan.beitoven Ludwig 0.5000000
ludvix.fan.beitoven Beethoven 0.5000000
ludvix.fan.beitoven van 0.5000000
vartisyboi craft 1.0000000
vartisyboi on 0.0029070
vartisyboi a 0.0004085
vartisyboi balloon 0.3333333
tokios from 0.0091185
tokios differs 0.3333333
tokios &apos;m 0.0034904
tokios , 0.0011876
tokios Tokyo 0.3061224
tokios Japan 0.0322581
vei ( 0.0324675
vei other 0.0109890
vei ^ 0.2857143
vei love 0.0055249
vei each 0.0153846
vei bottles 0.1428571
gekrai like 0.0022727
gekrai happiest 0.1250000
gekrai the 0.0003085
delfinu A 0.0057143
delfinu dolphin 1.0000000
delfinu generally 0.2000000
delfinu There 0.0045045
delfinu dolphins 0.6666667
delfinu are 0.0037267
delfinu Dolphins 0.5000000
precitri of 0.0007485
precitri a 0.0004085
precitri biography 1.0000000
rinci through 0.0625000
rinci from 0.0030395
rinci being 0.0128205
rinci drains 0.5000000
rinci holes 0.3333333
rinci tube 0.2500000
rinci under 0.0357143
ge'u buffalo 0.0588235
ge'u Elephant 0.5000000
ge'u lived 0.0303030
lerci lateness 0.5000000
lerci being 0.0128205
lerci again 0.0178571
lerci . 0.0005377
lerci It 0.0022222
lerci for 0.0033389
lerci late 0.6567164
lerci be 0.0318302
lerci fast 0.0227273
lerci NULL 0.0001331
lerci was 0.0083472
lerci &apos;s 0.0009852
zanfu'a lucky 0.0625000
zanfu'a &apos;re 0.0065359
sirji from 0.0030395
sirji straight 0.1111111
sirji NULL 0.0001331
caku now 0.0076336
caku come 0.0099010
caku Muiriel 0.1111111
caku tis 1.0000000
caku NULL 0.0002663
caku Right 0.2500000
caku , 0.0005938
tcaci custom 1.0000000
tcaci have 0.0021552
tcaci of 0.0022455
tcaci Honesty 0.2000000
tcaci his 0.0029762
tcaci used 0.0185185
tcaci making 0.0588235
tcaci habit 0.5714286
tcaci tradition 0.6666667
tcaci NULL 0.0002663
tcaci the 0.0006171
tcaci bad 0.0714286
tcaci speeches 1.0000000
tcaci a 0.0008170
tcaci rage 0.3333333
voikla planes 0.5000000
voikla overhead 0.2500000
voikla to 0.0004062
voikla flew 0.1000000
kelvo Kelvin 0.6000000
kelvo degrees 0.3333333
kelvo too 0.0180180
kelvo 293.5 1.0000000
kelvo ) 0.0131579
kelvo 273 1.0000000
kelvo 0 0.0909091
kelvo around 0.0740741
kelvo ( 0.0129870
kelvo 20.5 0.2000000
kelvo Celsius 0.3333333
di'a play 0.0232558
di'a Aha 0.1000000
di'a back 0.0363636
di'a NULL 0.0001331
di'a &apos;m 0.0034904
di'a I 0.0002513
di'a resumes 0.5000000
di'a will 0.0035336
di'a again 0.0178571
di'a to 0.0008123
di'a listening 0.0454545
di'a go 0.0035714
kongos of 0.0007485
kongos Republic 0.2000000
kongos the 0.0003085
kongos Congo 0.5000000
marna stupidity 1.0000000
marna hemp 1.0000000
marna Cannabis 0.5000000
marna users 0.1250000
marna of 0.0007485
marna temporary 0.5000000
marna causes 0.2500000
marna non-pot 1.0000000
marna marijuana 0.5000000
marna made 0.0081301
be'a north 0.1111111
be'a of 0.0007485
be'a to 0.0004062
bolci ball 0.6875000
bolci rubber 0.3333333
bolci with 0.0024213
bolci A 0.0114286
bolci round 0.0833333
bolci Cannon 0.2500000
vofli Spaghetti 0.2500000
vofli flight 0.2500000
vofli flights 0.3333333
vofli fly 0.5000000
vofli flew 0.1000000
vofli flying 0.6400000
sezu'e up 0.0084746
sezu'e stand 0.1000000
nalvajni matter 0.0588235
nalvajni No 0.0095238
nalvajni what 0.0032468
labybi'o turned 0.0357143
labybi'o pale 0.3333333
ry.привет.ry привет 0.2500000
ry.привет.ry &quot; 0.0013624
ry.привет.ry is 0.0003648
zdosible'u characters 1.0000000
zdosible'u Chinese 0.0294118
snuji it 0.0015015
snuji any 0.0312500
snuji sandwiches 0.5714286
snuji with 0.0048426
snuji sandwich 0.6923077
snuji do 0.0026882
snuji is 0.0003648
snuji getting 0.0303030
snuji a 0.0012255
node exception 0.1250000
node anything 0.0117647
node which 0.0208333
node nothing 0.0192308
node to 0.0004062
node results 0.2000000
node anybody 0.0344828
node languages 0.0285714
node in 0.0009124
ba'unai &apos;s 0.0009852
ba'unai that 0.0011655
ba'unai It 0.0022222
ba'unai exaggeration 1.0000000
ba'unai state 0.0909091
ba'unai an 0.0038610
ba'unai not 0.0018519
ba'unai to 0.0004062
senelci whatever 0.0588235
senelci whichever 0.3333333
cilre learns 0.5000000
cilre hard 0.0129870
cilre studied 0.0909091
cilre to 0.0004062
cilre order 0.0434783
cilre learned 0.2500000
cilre how 0.0138889
cilre learnt 0.5000000
cilre study 0.0800000
cilre Learning 0.2000000
cilre NULL 0.0003994
cilre One 0.0188679
cilre learn 0.5111111
cilre learning 0.3125000
cilre will 0.0035336
gy.Steins;Gate.gy Steins 0.5000000
gy.Steins;Gate.gy a 0.0004085
gy.Steins;Gate.gy is 0.0003648
tciles Chile 0.5000000
ibubymys IBM 0.1428571
la.paRIZ Paris 0.0322581
la.paRIZ to 0.0004062
la.paRIZ far 0.0416667
poi'i lives 0.0263158
poi'i folly 0.0625000
poi'i that 0.0011655
poi'i without 0.0277778
poi'i not 0.0018519
poi'i what 0.0064935
greku The 0.0009497
greku frame 0.5000000
deivid.pekinpas Peckinpah 1.0000000
deivid.pekinpas David 0.0833333
la'u To 0.0140845
la'u , 0.0005938
la'u completely 0.0909091
la'u almost 0.0357143
la'u it 0.0015015
la'u large 0.0476190
la'u jungle 0.1666667
la'u NULL 0.0006657
la'u not 0.0018519
la'u very 0.0043103
la'u a 0.0008170
la'u too 0.0360360
la'u real 0.0476190
la'u degree 0.1428571
la'u flashes 0.1666667
la'u sincerity 0.1111111
jbirai the 0.0003085
jbirai nearest 0.2500000
katnymruli an 0.0038610
katnymruli axes 1.0000000
katnymruli using 0.0344828
katnymruli in 0.0009124
katnymruli expert 0.0833333
katnymruli become 0.0454545
cmacyje'u theorem 1.0000000
piso'eroi frequently 0.3333333
banku'anu Kannada 1.0000000
zoi Steve 0.1666667
zoi coi 0.2000000
zoi NNC 0.5000000
zoi Unicode 0.2500000
zoi Akiko 0.1818182
zoi PTA 0.1666667
zoi bo 0.2000000
zoi Lucifera 0.1428571
zoi DeVito 0.5000000
zoi Deutschland 0.2000000
zoi &quot; 0.0095368
zoi Willis 0.5000000
zoi Lollipop 0.2500000
zoi rlpowell 0.2500000
zoi привет 0.2500000
zoi equivalents 0.1111111
zoi sla 0.5000000
zoi precise 0.1000000
zoi underline 0.5000000
zoi drip 0.5000000
zoi &amp; 0.2500000
zoi translated 0.1250000
zoi parte 0.3333333
zoi mean 0.0270270
zoi kaisha 0.4285714
zoi http 0.5000000
zoi Mathematica 0.4000000
zoi д 0.5000000
zoi hola 0.2000000
zoi Danny 0.2500000
zoi TATOEBA 0.1428571
zoi hello 0.1250000
zoi Eyjafjallajökull 0.1666667
zoi ehm 0.1818182
zoi y 0.2500000
zoi gerund 0.3333333
zoi Russell 0.2500000
zoi Tatoeba 0.0750000
zoi XXX 0.2500000
zoi cni 0.5000000
tenis playing 0.0277778
tenis tennis 0.5000000
klasti &apos;s 0.0009852
klasti a 0.0008170
klasti Stop 0.0344828
ni'u 2 0.0140845
ni'u virtually 0.2000000
ni'u &apos;-3 0.3333333
ni'u = 0.0270270
ni'u ago 0.0277778
ni'u ³ 0.2000000
ni'u NULL 0.0002663
ni'u -1 0.5000000
ni'u -3 0.3333333
boltipterjvi soccer 0.0588235
gurni Cereal 1.0000000
gurni grain 0.8571429
gurni from 0.0030395
gurni flour 0.1250000
gurni evenly 0.2500000
skapi on 0.0029070
skapi skin 0.5833333
skapi Her 0.0434783
karcru left 0.0108696
karcru open 0.0370370
mi'o us 0.0547945
mi'o shines 0.5000000
mi'o cinema 0.1666667
mi'o know 0.0031646
mi'o Come 0.0256410
mi'o NULL 0.0010651
mi'o you 0.0005342
mi'o puppy 0.2222222
mi'o party 0.0357143
mi'o Our 0.0714286
mi'o our 0.0169492
mi'o movie 0.0500000
mi'o over 0.0135135
mi'o we 0.3106061
mi'o are 0.0074534
mi'o have 0.0021552
mi'o Let 0.1612903
mi'o &apos;re 0.0130719
mi'o oceans 0.2000000
mi'o We 0.1455224
mi'o &apos;ll 0.0254777
vau rains 0.1250000
vau our 0.0338983
vau verb 0.0909091
vau comfortable 0.0909091
vau surprise 0.0769231
vau architecture 0.3333333
vau curious 0.1250000
vau ... 0.0192308
vau rational 0.1666667
vau respected 0.0322581
vau works 0.0370370
vau tines 0.5000000
vau fingernail 1.0000000
vau away 0.0222222
vau it 0.0015015
vau wine 0.0555556
vau conduct 0.2500000
vau do 0.0026882
vau Sit 0.1428571
vau order 0.0434783
vau scents 0.5000000
vau bottom 0.2500000
vau return 0.0370370
vau Flying 0.3333333
vau Germans 0.2000000
vau rain 0.0227273
vau OK 0.1000000
vau feel 0.0217391
vau escape 0.3333333
vau respect 0.0714286
vau holes 0.3333333
vau , 0.0237530
vau polity 0.5000000
vau maggot 0.2500000
vau living 0.0454545
vau famous 0.0666667
vau please 0.0394737
vau land 0.0769231
vau ritual 0.3333333
vau kitchen 0.0909091
vau decisions 0.2500000
vau by 0.0278884
vau confusion 0.2000000
vau for 0.0016694
vau 5 0.0333333
vau height 0.1250000
vau health 0.0689655
vau 10th 0.1666667
vau course 0.0526316
vau sir 0.2000000
vau till 0.1428571
vau mood 0.1250000
vau before 0.0285714
vau woman 0.0156250
vau Hokkaido 0.0588235
vau sport 0.0625000
vau heads 1.0000000
vau eff 0.2500000
vau arrive 0.1000000
vau process 0.1428571
vau tax 0.2000000
vau courage 0.2500000
vau furniture 0.1250000
vau among 0.0526316
vau arrival 0.0769231
vau management 0.1111111
vau right 0.0250000
vau Link 1.0000000
vau preparing 0.5000000
vau affixes 1.0000000
vau irritating 0.2500000
vau startling 0.5000000
vau digging 0.2500000
vau plate 0.1250000
vau encoded 0.1666667
vau trees 0.0454545
vau pudding 0.2500000
vau hill 0.0588235
vau funny 0.0588235
vau awesome 0.2222222
vau usage 0.0588235
vau poems 0.1428571
vau flight 0.2500000
vau located 0.2500000
vau intermittent 0.2500000
vau weren 0.1111111
vau fulfilling 1.0000000
vau studs 0.3333333
vau NULL 0.0071895
vau feminine 0.3333333
vau ) 0.0131579
vau 0.1 0.5000000
vau laying 0.5000000
vau against 0.0370370
vau skirt 0.1250000
vau home 0.0136054
vau help 0.0186916
vau observe 0.1666667
vau Okinawa 0.1666667
vau tasty 0.1052632
vau constant 0.3333333
vau plunging 0.5000000
vau eh 0.2500000
vau vau 0.3333333
vau so 0.0072993
vau official 0.1000000
vau since 0.0714286
vau newborns 0.1666667
vau cake 0.0270270
vau analysis 0.1428571
vau Robert 0.0666667
galtu above 0.2727273
galtu from 0.0121581
galtu faced 0.5000000
galtu higher 0.1666667
galtu fence 0.0833333
galtu to 0.0004062
galtu over 0.0135135
galtu compared 0.2000000
galtu high 0.2307692
snime snow 0.6944444
snime snowing 0.2500000
snime NULL 0.0001331
snime There 0.0045045
snime snows 0.2500000
snime covers 0.3333333
snime &apos;ll 0.0063694
snime lot 0.0114943
snime snowball 0.5000000
snime fell 0.0540541
snime It 0.0022222
nalju'o don 0.0062696
nalju'o money 0.0113636
nalju'o &apos;ve 0.0116279
nalju'o much 0.0104167
nalju'o we 0.0075758
nalju'o know 0.0063291
nalju'o got 0.0109890
nalju'o &apos;t 0.0020986
nalju'o ignorance 0.1666667
nalju'o how 0.0069444
ctino to 0.0004062
ctino people 0.0056180
ctino tend 0.1666667
ctino shadows 0.5000000
ctino Young 0.3333333
tabrelkijno Carbon 0.2500000
tabrelkijno dioxide 1.0000000
dis de 0.3333333
pamoiroi Jack 0.0454545
pano &apos;clock 0.1333333
pano kilos 0.2500000
pano ten 0.5600000
pano 10 0.1818182
pano o 0.0740741
pano top 0.0714286
pano favorite 0.0294118
City Austin 0.5000000
karlas Carla 0.5000000
kaurselju'o common 0.0769231
kaurselju'o doubt 0.0909091
kaurselju'o sense 0.0714286
kaurselju'o should 0.0119048
kaurselju'o you 0.0005342
gy.Laurie.gy is 0.0003648
gy.Laurie.gy Laurie 0.0909091
nuzykarni newspaper 0.6666667
nuzykarni Is 0.0086207
ci'a her 0.0038760
ci'a friend 0.0089286
vudypai a 0.0004085
vudypai got 0.0109890
vudypai deal 0.1000000
vudypai raw 0.0769231
cfaga'e do 0.0026882
cfaga'e notice 0.1666667
cfaga'e it 0.0015015
za Terry 0.0263158
za regular 0.2000000
za back 0.0363636
za accruing 1.0000000
za return 0.0740741
za been 0.0102041
za ago 0.2500000
za than 0.0141844
za a 0.0008170
za in 0.0054745
za previously 0.2500000
za only 0.0093458
za later 0.1250000
za NULL 0.0003994
za will 0.0035336
za other 0.0109890
za earlier 0.0555556
za the 0.0006171
za living 0.0454545
za See 0.1111111
cinfo lion 0.8750000
cinfo a 0.0004085
cinfo lions 0.3333333
cinfo NULL 0.0003994
ie virtue 0.1666667
ie agreeable 0.5000000
ie No 0.0095238
ie . 0.0008961
ie ll 0.5000000
ie that 0.0034965
ie might 0.1000000
ie Yep 1.0000000
ie ! 0.0015244
ie I 0.0022619
ie think 0.0073529
ie This 0.0017606
ie yes 0.0714286
ie Yeah 0.2000000
ie ’ 0.0666667
ie Exactly 0.2000000
ie with 0.0048426
ie cannot 0.0204082
ie is 0.0003648
ie , 0.0053444
ie agree 0.2258065
ie feeling 0.0769231
ie Yes 0.2325581
ie idea 0.0400000
ie true 0.0263158
ie say 0.0219780
ie disagree 0.1666667
renvi are 0.0024845
renvi that 0.0011655
renvi old 0.0326087
renvi I 0.0002513
renvi survive 1.0000000
renvi survivors 0.2500000
renvi You 0.0019841
renvi &apos;ll 0.0063694
renvi stand 0.1000000
renvi survived 0.4000000
renvi bear 0.0400000
renvi rudeness 0.1250000
renvi NULL 0.0003994
renvi and 0.0018450
renvi am 0.0039683
renvi this 0.0021413
toltelgau Unlock 0.5000000
spamatne NULL 0.0001331
ci'i is 0.0007297
ci'i many 0.0103093
ci'i as 0.0068966
ci'i for 0.0033389
ci'i an 0.0077220
ci'i There 0.0090090
ci'i number 0.0344828
ci'i twice 0.0909091
ci'i possibilities 0.2222222
ci'i of 0.0014970
ci'i infinite 0.4000000
ci'i bit 0.0500000
ci'i Infinity 1.0000000
palta plates 0.5000000
palta plate 0.6250000
palta breaking 0.1250000
palta of 0.0007485
palta dishes 0.8571429
lutsiferas Her 0.0217391
lutsiferas Lucifera 0.1428571
simta'a about 0.0039370
simta'a or 0.0060606
simta'a talk 0.0111111
simta'a future 0.0909091
simta'a two 0.0071942
tarti manners 0.6666667
tarti very 0.0086207
tarti enter 0.0500000
tarti friendly 0.2857143
tarti conduct 0.2500000
tarti thy 0.2857143
tarti strained 0.5000000
tarti into 0.0091743
tarti behaves 0.2000000
tarti her 0.0038760
tarti people 0.0056180
tarti behaviour 0.2500000
tarti well 0.0172414
tarti understanding 0.1250000
tarti best 0.0232558
tarti has 0.0035461
tarti behavior 0.5000000
tarti NULL 0.0001331
tarti acting 0.5000000
bongu leg 0.0769231
bongu bone 0.3333333
benji send 0.6000000
benji to 0.0004062
benji sent 0.2857143
benji continuously 0.2500000
benji out 0.0089286
benji sending 0.5000000
benji crossposted 0.3333333
benji messenger 0.5000000
benji website 0.2000000
benji Pass 0.5000000
benji and 0.0018450
benji received 0.0769231
benji pass 0.0416667
benji them 0.0147059
benji receipt 0.3333333
benji got 0.0109890
benji NULL 0.0005326
ledu'u because 0.0103093
ledu'u What 0.0024213
linuks Linux 0.5000000
naokos Naoko 0.2000000
naokos is 0.0003648
naokos a 0.0004085
vaizma above 0.0909091
vaizma wealth 0.1666667
vaizma more 0.0078740
vaizma important 0.0227273
jorne anytime 0.1666667
jorne NULL 0.0002663
jorne call 0.0344828
jorne &apos;m 0.0017452
jorne online 0.5000000
jorne connected 0.3333333
jorne Call 0.1034483
jorne it 0.0015015
jorne tied 0.1666667
gi'a or 0.0484848
gi'a , 0.0005938
gi'a unjust 0.5000000
gi'a drink 0.0136986
frili easily 0.1666667
frili piece 0.1000000
frili was 0.0033389
frili anything 0.0117647
frili NULL 0.0006657
frili writes 0.1666667
frili easy 0.7187500
frili It 0.0111111
frili finding 0.1428571
frili learned 0.1250000
frili &apos;s 0.0039409
frili but 0.0068493
frili cake 0.0270270
frili for 0.0116861
frili . 0.0012546
frili to 0.0004062
frili Postscript 0.2500000
zu'a to 0.0008123
zu'a the 0.0006171
zu'a of 0.0007485
zu'a it 0.0015015
zu'a Push 0.2500000
zu'a left 0.0217391
zu'a NULL 0.0001331
nelzma prefer 0.0454545
truci'e make 0.0113636
truci'e who 0.0061350
truci'e desire 0.1428571
truci'e power 0.0476190
truci'e bad 0.0357143
truci'e leaders 0.2000000
to'ebo cold 0.0192308
to'ebo food 0.0192308
sputu spit 0.5000000
sputu some 0.0072993
terbi'e receive 1.0000000
terbi'e it 0.0015015
terbi'e should 0.0119048
tikygau it 0.0015015
tikygau Women 0.1250000
tikygau change 0.2000000
tikygau adjustments 0.5000000
tikygau adjusts 0.2000000
tikygau last 0.0222222
xampo of 0.0007485
xampo amperes 1.0000000
xampo a 0.0004085
xampo current 0.1428571
xampo 2 0.0140845
xlura just 0.0098039
xlura me 0.0014793
xlura persuaded 0.1428571
xlura NULL 0.0001331
xlura lured 0.3333333
xlura buying 0.5000000
xlura into 0.0091743
samselpla software 0.3333333
samselpla means 0.0714286
puzico'aku new 0.0123457
pamcni in 0.0009124
pamcni is 0.0003648
pamcni love 0.0055249
rozgu a 0.0012255
rozgu NULL 0.0002663
rozgu rose 0.5555556
rozgu have 0.0021552
rozgu roses 1.0000000
rozgu grew 0.2000000
robin aren 0.0555556
robin Robin 0.7500000
robin are 0.0012422
robin well 0.0172414
robin as 0.0068966
do'e his 0.0029762
do'e generation 0.2000000
do'e having 0.0400000
do'e Believe 0.2000000
do'e with 0.0072639
do'e poetry 0.5000000
do'e Haskell 0.1428571
do'e trouble 0.0714286
do'e in 0.0018248
do'e card 0.1428571
zmadu'a more 0.0078740
zmadu'a some 0.0072993
ry r 0.6666667
ry it 0.0030030
ry succeed 0.0833333
ry NULL 0.0002663
ry well 0.0172414
ry they 0.0123457
sralo Australian 0.1250000
peizo'onai Are 0.0070423
peizo'onai ? 0.0005015
peizo'onai you 0.0005342
peizo'onai serious 0.0769231
bislunsa this 0.0021413
bislunsa with 0.0024213
bislunsa frost 0.2500000
jetfu last 0.0222222
jetfu away 0.0222222
jetfu week 0.0666667
jetfu passed 0.0666667
ritcard.dokinz Dawkins 1.0000000
ritcard.dokinz Richard 0.2500000
cmaci Math 0.5000000
cmaci about 0.0039370
cmaci Mathematics 0.6666667
cmaci math 0.5555556
cmaci Mathematic 0.5000000
cmaci ( 0.0064935
cmaci mathematics 0.5555556
slovensk Slovakia 1.0000000
sobde soya 1.0000000
sobde a 0.0004085
u'inai This 0.0017606
u'inai funny 0.0588235
u'inai &apos;t 0.0010493
u'inai . 0.0000896
u'inai isn 0.0117647
cnita &apos;s 0.0009852
cnita is 0.0003648
cnita Kazan 0.1428571
cnita below 0.3333333
cnita &apos;m 0.0034904
cnita down 0.0327869
cnita under 0.2857143
drata engage 0.3333333
drata is 0.0003648
drata go 0.0035714
drata Only 0.0625000
drata others 0.2500000
drata time 0.0074627
drata other 0.1758242
drata abroad 0.2380952
drata different 0.2692308
drata an 0.0038610
drata UFO 0.0833333
drata only 0.0186916
drata taller 0.0666667
drata anything 0.0352941
drata NULL 0.0002663
drata &apos;t 0.0010493
drata things 0.0156250
drata Lojbanic 0.1428571
drata somewhere 0.0833333
drata be 0.0053050
drata isn 0.0117647
drata &apos;ll 0.0063694
drata else 0.4230769
drata worlds 0.5000000
drata Someone 0.0416667
drata but 0.0136986
drata foreigner 0.1428571
drata This 0.0035211
drata another 0.7142857
drata otherwise 0.3333333
drata that 0.0011655
bridi main 0.1428571
bridi with 0.0048426
bridi a 0.0012255
bridi clause 0.3000000
bridi is 0.0010945
bridi verb 0.1818182
bridi whole 0.1111111
bridi predicate 1.0000000
jamkarce tank 0.5000000
ravysirji diameter 0.4000000
ravysirji by 0.0079681
ravysirji its 0.0526316
ravysirji circle 0.5000000
peterburg Petersburg 1.0000000
peterburg Saint 0.3333333
xanla about 0.0039370
xanla worried 0.2500000
xanla are 0.0012422
mi'i and 0.0018450
muplis Muplis 0.5000000
seme'a as 0.0137931
seme'a wise 0.0555556
prane expected 0.2000000
prane visit 0.0740741
prane , 0.0011876
prane makes 0.0294118
prane It 0.0022222
prane at 0.0028490
prane be 0.0026525
prane perfect 0.9166667
prane my 0.0047022
prane . 0.0004481
prane as 0.0137931
prane in 0.0018248
prane a 0.0004085
prane were 0.0075188
prane &apos;re 0.0065359
prane beauty 0.1111111
prane perfection 1.0000000
prane just 0.0196078
prane Perfect 0.5000000
prane I 0.0005026
prane &apos;s 0.0009852
tamis Tommy 0.2500000
tamis discovered 0.1111111
tamis Tamy 0.5000000
tamis in 0.0009124
tamis a 0.0004085
tamis mistake 0.0434783
tamis can 0.0031646
CIA the 0.0006171
CIA JFK 0.6666667
CIA for 0.0033389
CIA CIA 0.1333333
CIA worked 0.2222222
prami withhold 0.5000000
prami Loving 0.2500000
prami myself 0.0204082
prami NULL 0.0002663
prami love 0.6685083
prami versa 0.3333333
prami lovers 0.5000000
prami loves 0.6296296
prami lover 0.5714286
prami loved 0.5135135
prami Love 0.4210526
prami her 0.0038760
prami beloved 0.3333333
prami girlfriend 0.0400000
prami trick 0.2500000
prami ex 0.5000000
prami with 0.0024213
prami cherish 0.5000000
prami aficionado 0.2500000
prami Someone 0.0416667
prami in 0.0018248
prami . 0.0000896
prami me 0.0014793
prami loving 0.4545455
prami Thomas 0.4000000
midju center 0.3333333
midju lines 0.1428571
midju middle 0.7500000
midju NULL 0.0001331
midju Middle-earth 0.2500000
midju midday 0.3333333
midju fulcrum 1.0000000
midju of 0.0007485
midju in 0.0027372
midju between 0.0434783
midju the 0.0015427
iunai chocolate 0.0500000
iunai like 0.0022727
iunai . 0.0001792
iunai don 0.0031348
iunai Language 0.3333333
iunai suck 0.2500000
iunai schools 0.5000000
iunai &apos;t 0.0010493
le'ocu'i , 0.0011876
le'ocu'i No 0.0095238
le'ocu'i Hey 0.0384615
le'ocu'i worries 0.5000000
le'ocu'i aren 0.0555556
jitseldejykarda cards 0.5000000
jitseldejykarda credit 0.5000000
jitseldejykarda are 0.0012422
niuiork York 0.0833333
niuiork City 0.0833333
niuiork New 0.0666667
prim Preem 0.5000000
prim Palver 0.5000000
uinai am 0.0079365
uinai Regrettably 1.0000000
uinai and 0.0036900
uinai How 0.0040323
uinai sad 0.0714286
uinai , 0.0047506
uinai unhappy 0.0769231
uinai Unfortunately 1.0000000
uinai it 0.0045045
uinai Aw 1.0000000
uinai Sadly 1.0000000
uinai about 0.0078740
uinai I 0.0005026
jinmrdarmctati Darmstadtium 1.0000000
malvi'i shit 0.0833333
sene'i footsteps 0.5000000
remoi second 0.0526316
remoi already 0.0384615
remoi Ferdinand 0.5000000
emilin Emily 0.1250000
emilin Who 0.0066225
emilin &apos;s 0.0009852
ro'i from 0.0030395
ro'i interested 0.0416667
ro'i NULL 0.0001331
ro'i Feelings 0.5000000
ro'i with 0.0024213
ro'i How 0.0040323
ro'i rejoicing 0.3333333
ro'i feel 0.0217391
ro'i just 0.0098039
ro'i emotions 0.1111111
ro'i overwhelmed 0.3333333
ro'i do 0.0026882
ro'i me 0.0014793
ro'i opinion 0.0322581
ro'i No 0.0095238
ro'i apart 0.5000000
vikmi toilet 0.1111111
vikmi excretes 0.5000000
selponse Brown 0.1666667
ari'anas Arianna 0.1666667
oradeas Oradea 1.0000000
smudu'a beholder 0.5000000
smudu'a eye 0.1000000
smudu'a of 0.0007485
smudu'a the 0.0006171
tolna'e the 0.0003085
tolna'e evidence 0.3333333
tolna'e clear 0.0833333
tolna'e &apos;s 0.0009852
tolna'e It 0.0022222
xo'e 29 1.0000000
xo'e 20 0.0588235
xo'e , 0.0011876
xo'e eighteen 0.1250000
xo'e grammar 0.1250000
xo'e I 0.0002513
xo'e maybe 0.2222222
xo'e NULL 0.0001331
xo'e - 0.0303030
gudjanas Guyana 1.0000000
djulIEt love 0.0055249
djulIEt in 0.0009124
djulIEt with 0.0024213
djulIEt Juliet 0.2000000
o'i Warning 1.0000000
o'i , 0.0023753
o'i Be 0.0689655
o'i pickpockets 0.5000000
o'i Go 0.0270270
o'i Careful 0.5000000
o'i Charge 0.2500000
o'i Beware 0.3333333
o'i out 0.0267857
o'i ! 0.0076220
o'i ahead 0.2000000
o'i careful 0.1250000
o'i Watch 0.1428571
pinta in 0.0018248
pinta was 0.0016694
pinta horizontal 1.0000000
pinta position 0.1428571
pinta surface 0.1000000
pinta direction 0.2857143
ja'aru'e can 0.0063291
ja'aru'e hardly 0.2857143
catni authority 0.2000000
catni here 0.0043478
catni in 0.0018248
catni The 0.0009497
catni official 0.1000000
catni avoided 0.0714286
catni officially 0.2500000
catni charge 0.5000000
catni &apos;s 0.0009852
catni priest 0.5000000
о'и Soviet 0.1000000
rajycla taller 0.0666667
rajycla NULL 0.0001331
rajycla tall 0.1578947
gy.Principia Mathematica 0.1000000
gy.Principia Principia 0.1666667
kuarizmis Mūsā 1.0000000
kuarizmis ibn 1.0000000
kuarizmis Muḥammad 1.0000000
kuarizmis al-Khwārizmī 1.0000000
501(c)(3) organisation 1.0000000
501(c)(3) c 0.2500000
poxiol Pohjola 1.0000000
rirxe Nile 0.2500000
rirxe beside 0.3333333
rirxe in 0.0027372
rirxe a 0.0016340
rirxe is 0.0003648
rirxe River 0.5714286
rirxe rivers 1.0000000
rirxe river 0.9000000
rirxe any 0.0312500
sudgaubu'u you 0.0005342
sudgaubu'u don 0.0031348
sudgaubu'u towel 1.0000000
sudgaubu'u , 0.0005938
sudgaubu'u &apos;t 0.0010493
maik,l Jackson 0.3333333
maik,l Michael 0.2000000
nu'i the 0.0003085
no NULL 0.0049261
no Lojbanic 0.1428571
no unmarried 0.3333333
no ) 0.0065789
no don 0.0376176
no no 0.2405063
no January 0.1250000
no 60 0.2500000
no 0 0.2727273
no enemies 0.1666667
no fifty 0.1111111
no Nothing 0.3478261
no twenty 0.1250000
no Celsius 0.1666667
no nobody 0.2000000
no one 0.0788382
no bite 0.1428571
no tonight 0.0500000
no Nobody 0.3793103
no anyone 0.0750000
no years 0.0100000
no Ten 0.2500000
no conjectures 0.1428571
no 100 0.3750000
no zmol 1.0000000
no 1010 0.4000000
no 10th 0.1666667
no ink 0.1428571
no 2005 0.4285714
no nothing 0.2692308
no 50 0.2727273
no expressed 0.1666667
no anything 0.0470588
no impossible 0.0454545
no There 0.0270270
no &apos;t 0.0209864
no debt 0.3333333
no letters 0.0588235
no 9 0.1176471
no warm 0.0714286
no free 0.0833333
no lose 0.0588235
no useless 0.2500000
no Only 0.0625000
no 10 0.1818182
no &gt; 0.5000000
no idle 0.1428571
no alone 0.0200000
no pi 0.1250000
no irrelevant 0.2500000
no sandwiches 0.1428571
no own 0.0204082
no 2006 0.1428571
no 20 0.0588235
no do 0.0026882
no anybody 0.0689655
no kilograms 0.0714286
no . 0.0002688
no No 0.2285714
no Absolutely 0.3333333
no doesn 0.0097087
no ‘ 1.0000000
no never 0.2400000
evans Evans 1.0000000
evans called 0.0204082
incipe the 0.0006171
incipe part 0.0500000
incipe of 0.0007485
incipe initial 0.3333333
incipe NULL 0.0001331
lisri a 0.0012255
lisri tell 0.0128205
lisri to 0.0004062
lisri this 0.0021413
lisri story 0.7812500
lisri Andersen 1.0000000
lisri about 0.0078740
lisri stories 0.6000000
lisri NULL 0.0001331
lisri that 0.0011655
lisri it 0.0015015
mindju contribute 0.3333333
lanzu families 0.8000000
lanzu NULL 0.0001331
lanzu so 0.0072993
lanzu resemble 0.1250000
lanzu much 0.0104167
lanzu family 0.7083333
lanzu Family 1.0000000
lanzu relative 0.5000000
ogauas is 0.0003648
ogauas speaking 0.0526316
ogauas Ogawa 1.0000000
ogauas This 0.0017606
cunmi millet 0.3333333
jemna gem 0.5000000
jemna was 0.0016694
jemna later 0.0625000
jemna that 0.0011655
jemna out 0.0089286
jemna turned 0.0357143
jemna pearls 0.3333333
iki'ubo Chinese 0.0294118
iki'ubo . 0.0004481
iki'ubo pretending 0.1250000
skicu explain 0.0500000
skicu spoke 0.0833333
skicu describe 0.1666667
skicu me 0.0029586
skicu Call 0.0344828
skicu Hehe 0.2500000
skicu wise 0.0555556
skicu of 0.0007485
skicu explained 0.0625000
skicu told 0.0493827
skicu described 0.6666667
skicu I 0.0002513
skicu about 0.0039370
skicu NULL 0.0002663
tulcti swallowed 0.5000000
selsanga songs 0.2500000
selsanga song 0.0526316
selsanga internally 0.1428571
tcenelci of 0.0007485
tcenelci bouquets 0.3333333
la.djudis Judy 0.3333333
nansin has 0.0035461
nansin Nancy 0.1111111
le'o sake 0.1428571
le'o ! 0.0106707
le'o follow 0.1000000
le'o Die 0.2000000
le'o lost 0.0140845
le'o &apos;s 0.0009852
le'o okay 0.0769231
le'o Go 0.0270270
le'o dare 0.3333333
le'o Everybody 0.1111111
le'o Hey 0.0384615
le'o Okay 0.1111111
le'o Send 1.0000000
le'o Christ 0.3333333
le'o Bugger 0.2500000
le'o HEY 1.0000000
le'o For 0.0476190
le'o Grr 0.5000000
le'o Get 0.0555556
le'o , 0.0005938
le'o Piss 0.2500000
fartra treat 0.1250000
vobi if 0.0109890
vobi get 0.0091743
vobi you 0.0010684
vobi change 0.0666667
vobi Forty-eight 0.2000000
vobi how 0.0069444
vobi many 0.0206186
vobi do 0.0026882
vobi How 0.0040323
vobi 48 0.5000000
badrygau boring 0.0714286
jinmlruterfordi Rutherfordium 1.0000000
argail Argyle 0.3333333
argail hoped 0.1333333
mortimer of 0.0007485
mortimer it 0.0015015
mortimer Mortimer 0.1666667
mortimer out 0.0089286
mortimer pulled 0.2500000
mortimer Doctor 0.1428571
derdembi peanuts 1.0000000
pimu is 0.0003648
pimu always 0.0128205
pimu not 0.0018519
pimu half 0.0625000
tankomo Who 0.0066225
merkyrupnu five 0.0333333
baze'e was 0.0016694
baze'e going 0.0057471
baze'e never 0.0133333
baze'e to 0.0004062
joi NULL 0.0005326
joi alkali 0.2500000
joi Patagonia 1.0000000
joi &apos;s 0.0009852
joi conjectures 0.1428571
joi &apos;re 0.0065359
joi Pablo 0.5000000
joi coming 0.0285714
joi turkey 0.2500000
joi Anyi 0.2500000
joi Bancus 0.1666667
joi with 0.0121065
joi and 0.0553506
tcad Chad 1.0000000
saras sings 0.2857143
saras Sarah 0.4000000
farna" trip 0.0500000
farna" &quot; 0.0013624
farna" ? 0.0005015
ci'apre writer 0.2000000
ci'apre prolific 1.0000000
ci'apre a 0.0004085
kurt.gedyl Gödel 1.0000000
kurt.gedyl Kurt 1.0000000
selci in 0.0018248
selci NULL 0.0001331
selci cell 0.3333333
selci cells 0.5000000
selci from 0.0060790
kib equivalents 0.2222222
xa'urjudri new 0.0123457
xa'urjudri address 0.0769231
simsa type 0.0555556
simsa also 0.0526316
simsa like 0.0568182
simsa lot 0.0114943
simsa bees 0.2500000
simsa NULL 0.0003994
simsa things 0.0468750
simsa such 0.1071429
simsa be 0.0053050
simsa as 0.0413793
simsa native 0.2500000
simsa very 0.0043103
simsa dearly 0.2500000
simsa to 0.0012185
simsa colorful 0.2500000
simsa similar 0.9000000
simsa that 0.0011655
simsa amphibians 0.1250000
simsa something 0.0258621
brama'a mountain 0.0909091
jaurvasmro in 0.0009124
jaurvasmro drowned 1.0000000
losedu'u asked 0.0263158
losedu'u extremely 0.1000000
losedu'u he 0.0103093
losedu'u lived 0.0303030
losedu'u said 0.0175439
losedu'u NULL 0.0001331
losedu'u was 0.0066778
anci that 0.0011655
anci saying 0.0344828
uenzi a 0.0004085
uenzi text 0.5000000
uenzi about 0.0039370
pinbol involves 0.2000000
po'onai only 0.0093458
po'onai do 0.0026882
po'onai that 0.0011655
po'onai not 0.0018519
po'onai to 0.0004062
cintyxra painting 0.1111111
smit Smith 0.4000000
smit Mrs. 0.0909091
smit goes 0.0188679
mlatu cat 0.8867925
mlatu Cat 1.0000000
mlatu kittens 0.3333333
mlatu both 0.0250000
mlatu &apos;m 0.0034904
mlatu cats 0.8750000
mlatu dog 0.0068493
mlatu mlatu 1.0000000
mlatu kitten 0.4000000
mlatu Cats 0.5000000
mlatu a 0.0020425
klirlxastati Astatine 1.0000000
ji'isre for 0.0016694
ji'isre a 0.0004085
ji'isre moment 0.0526316
redo between 0.0434783
rusko Russians 0.1666667
rusko Russian 0.3888889
rusko text 0.1250000
rusko a 0.0008170
sorzu'e at 0.0028490
sorzu'e good 0.0084034
sorzu'e multitasking 0.3333333
friko Africa 0.1428571
friko African 1.0000000
spebi'osi'u married 0.0217391
spebi'osi'u get 0.0091743
kraislr a 0.0004085
kraislr Chrysler 0.2500000
vipygu'e state 0.0909091
vipygu'e U.S. 0.5000000
gy.Steve.gy is 0.0003648
gy.Steve.gy Steve 0.1666667
gy.Steve.gy an 0.0038610
seldantypre The 0.0009497
seldantypre archer 1.0000000
tolxagji . 0.0000896
tolxagji full 0.0500000
tolxagji am 0.0039683
tcebilma seriously 0.2000000
tcebilma ill 0.0384615
tcebilma was 0.0016694
tcebilma and 0.0018450
grana by 0.0039841
grana against 0.0370370
grana another 0.0357143
grana one 0.0041494
grana stick 0.6666667
grana cane 0.5000000
grana giving 0.0769231
grana rod 1.0000000
grana rods 1.0000000
xrugau return 0.1111111
cfika fiction 0.1250000
cfika about 0.0039370
cfika &apos; 0.0238095
cfika mistress 0.3333333
o'u NULL 0.0003994
o'u know 0.0031646
o'u was 0.0016694
o'u relieved 0.3333333
o'u son 0.0227273
o'u that 0.0011655
o'u comfortable 0.0909091
o'u , 0.0017815
o'u Fine 1.0000000
o'u Phew 0.4000000
o'u the 0.0006171
o'u to 0.0004062
o'u Ah 0.0666667
jinmrnobeli Nobelium 1.0000000
lu goodbye 0.1250000
lu plays 0.1000000
lu granate 0.2000000
lu stands 0.1000000
lu &quot; 0.1920981
lu Ten 0.2500000
lu Robert 0.0666667
lu More 0.0714286
lu : 0.0800000
lu le 0.2000000
lu &apos;The 0.3333333
lu , 0.0029691
lu where 0.0105263
lu responds 0.2500000
lu explodes 0.1428571
lu Aaaah 0.5000000
lu thanks 0.0714286
lu study 0.0200000
lu depends 0.1000000
lu along 0.0833333
lu says 0.0294118
lu NULL 0.0009320
lu say 0.0439560
lu “ 0.4000000
zu'ai deciding 0.3333333
zu'ai in 0.0018248
zu'ai other 0.0549451
zu'ai love 0.0055249
zu'ai NULL 0.0001331
zu'ai about 0.0039370
zu'ai socialize 0.5000000
zu'ai each 0.0769231
zu'ai together 0.0588235
zu'ai royale 0.2000000
je'erse'a three 0.0142857
je'erse'a times 0.0526316
loza'i state 0.0909091
loza'i in 0.0009124
loza'i vehicle 0.1428571
loza'i darkness 0.5000000
loza'i follow 0.1000000
loza'i of 0.0014970
loza'i the 0.0009256
sambau code 1.0000000
sambau Machine 1.0000000
runme melting 0.3333333
ticta'u camouflage 0.5000000
ticta'u clothing 0.2500000
condi river 0.0333333
condi bed 0.1034483
condi deep 0.8333333
condi running 0.0689655
condi current 0.1428571
condi towards 0.3000000
condi in 0.0009124
lauras Laura 0.5000000
lauras is 0.0003648
cikyjunla clock 0.0333333
cikyjunla alarm 0.3333333
citmle &apos;s 0.0009852
citmle so 0.0072993
citmle cute 0.3750000
jesni needle 1.0000000
jesni and 0.0018450
jesni into 0.0091743
kixta'a talk 0.0111111
kixta'a cry-out 1.0000000
veronik loves 0.0370370
veronik bouquets 0.3333333
veronik Véronique 0.5000000
nancyprali annual 1.0000000
nancyprali profit 0.3333333
Yuelami Yuelami 0.1250000
dy.Aachen.gy Aachen 0.1250000
dy.Aachen.gy in 0.0009124
pruni is 0.0007297
pruni it 0.0030030
pruni elastic 0.4000000
karen Karen 0.2000000
karen from 0.0030395
pidjni Pidgin 1.0000000
bajykla burst 0.2500000
bajykla into 0.0091743
selyli'i him 0.0061728
selyli'i experience 0.0416667
selyli'i gave 0.0161290
selyli'i the 0.0003085
gapci NULL 0.0001331
gapci Turn 0.0526316
gapci Gas 1.0000000
gapci gases 1.0000000
gapci gas 0.5555556
gapci off 0.0357143
aftobuso that 0.0011655
aftobuso the 0.0003085
aftobuso bus 0.3409091
aftobuso &apos; 0.0238095
aftobuso Tourists 0.2000000
aftobuso number 0.0172414
aftobuso hadn 0.3333333
cortu agonizing 0.5000000
cortu That 0.0077821
cortu have 0.0107759
cortu headache 0.2500000
cortu . 0.0026884
cortu in 0.0045620
cortu pain 0.5333333
cortu &apos;m 0.0017452
cortu NULL 0.0001331
cortu my 0.0015674
cortu hurting 0.2500000
cortu hurts 0.4375000
cortu The 0.0009497
cortu sore 0.3333333
cortu It 0.0044444
cortu hurt 0.3157895
la.linuks Linux 0.5000000
la.linuks ! 0.0015244
zdizma NULL 0.0001331
zdizma &apos;s 0.0029557
zdizma This 0.0017606
zdizma fun 0.1851852
zdizma more 0.0393701
zdizma than 0.0283688
zdizma It 0.0066667
zdizma lot 0.0114943
xagycai It 0.0022222
xagycai a 0.0004085
xagycai &apos;s 0.0009852
xagycai great 0.0188679
googol googol 0.1111111
googol A 0.0057143
nolraitru does 0.0277778
nolraitru king 0.9000000
nolraitru Queen 0.1666667
nolraitru the 0.0009256
nolraitru sake 0.1428571
nolraitru of 0.0014970
nolraitru admires 0.3333333
nolraitru King 0.3333333
nolraitru he 0.0034364
kostarikas Costa 1.0000000
kostarikas Rica 1.0000000
menske Psychology 1.0000000
jetnu truth 0.6562500
jetnu . 0.0017923
jetnu That 0.0038911
jetnu &apos;s 0.0049261
jetnu real 0.0952381
jetnu the 0.0006171
jetnu honest 0.0526316
jetnu It 0.0044444
jetnu is 0.0018242
jetnu Really 0.0666667
jetnu , 0.0011876
jetnu really 0.0125000
jetnu confused 0.0526316
jetnu it 0.0075075
jetnu NULL 0.0002663
jetnu true 0.3947368
jetnu proves 0.1666667
bisyladru please 0.0131579
bisyladru , 0.0005938
bisyladru Two 0.0454545
bisyladru creams 0.6666667
bisyladru ice 0.1176471
emaks ( 0.0064935
emaks Emacs 0.2500000
emaks which 0.0208333
tavla fast-talker 0.5000000
tavla say 0.0109890
tavla &apos;m 0.0122164
tavla call 0.0689655
tavla babbling 0.2000000
tavla yell 0.2000000
tavla whom 0.1666667
tavla hesitate 0.2000000
tavla wrote 0.0294118
tavla audience 0.1250000
tavla Speaking 0.2222222
tavla foreigner 0.1428571
tavla listener 0.3333333
tavla speak 0.1931818
tavla speaking 0.2631579
tavla Shut 0.1428571
tavla talks 0.5000000
tavla spoken 0.1666667
tavla about 0.1259843
tavla NULL 0.0026628
tavla talk 0.8111111
tavla with 0.0121065
tavla spoke 0.0833333
tavla talked 0.4285714
tavla Talk 0.5000000
tavla speech 0.2000000
tavla chat 0.2500000
tavla speaks 0.2083333
tavla chatter 0.5000000
tavla talker 0.7777778
tavla what 0.0064935
tavla / 0.1153846
tavla are-talking 1.0000000
tavla to 0.0414297
tavla who 0.0061350
tavla talking 0.7454545
lu'orgu'e Lebanon 1.0000000
ku] it 0.0015015
ku] finished 0.0555556
zanzibar Anglo-Zanzibar 0.2500000
zanzibar War 0.1428571
mlana of 0.0007485
mlana at 0.0056980
mlana &apos;s 0.0009852
mlana sides 0.2857143
mlana her 0.0077519
mlana the 0.0003085
mlana to 0.0004062
mlana side 0.3000000
mlana is 0.0003648
aisak.niuton Newton 0.3333333
aisak.niuton Isaac 1.0000000
lumku'a bathroom 0.0909091
julne colander 0.5000000
julne net 0.4000000
julne a 0.0008170
julne is 0.0007297
julne that 0.0011655
julne fishing 0.1250000
julne NULL 0.0001331
julne lets 1.0000000
selmansa satisfied 0.1000000
selmansa is 0.0003648
selmansa with 0.0024213
ainai can 0.0031646
ainai going 0.0057471
ainai game 0.0454545
ainai not 0.0018519
ainai &apos;m 0.0017452
ainai &apos;t 0.0010493
ainai prison 0.2500000
ainai I 0.0005026
senta layer 0.7500000
senta Pycnocline 0.2000000
senta a 0.0008170
senta of 0.0014970
seksi its 0.0263158
seksi female 0.1666667
seksi NULL 0.0001331
seksi sexes 0.5000000
seksi be 0.0026525
seksi sexuality 0.7500000
seksi his 0.0029762
seksi laying 0.5000000
seksi by 0.0079681
seksi in 0.0009124
seksi her 0.0038760
seksi mature 1.0000000
kibjo'e Internet 0.1000000
seni'i P 0.1333333
Nepal called 0.0204082
Nepal &quot; 0.0027248
Nepal Nepal 0.2500000
entuzi am 0.0039683
entuzi about 0.0039370
entuzi enthusiastic 0.5000000
jdika decreased 0.3333333
jdika NULL 0.0007988
jdika narrow 0.2500000
jdika on 0.0029070
jdika numb 0.2500000
jdika approaches 1.0000000
jdika reduce 0.5000000
jdika $ 0.0625000
jdika discount 0.2500000
jdika bleeding 0.1111111
jdika The 0.0009497
jdika a 0.0008170
jdika getting 0.0303030
mrilu Reply 0.2000000
mrilu a 0.0004085
mrilu mail 0.3333333
mrilu mailed 0.4000000
mrilu sent 0.2142857
mrilu posted 0.1428571
mrilu system 0.0909091
mrilu to 0.0008123
mrilu wrong 0.0312500
mrilu address 0.0769231
mrilu messages 0.2000000
mrilu NULL 0.0001331
mrilu e-mail 0.2000000
ritcmond Richmonder 0.2500000
lajdictergu'i streetlight 0.3333333
lajdictergu'i The 0.0009497
lajdictergu'i there 0.0063694
lajdictergu'i over 0.0135135
elis his 0.0029762
elis Elly 0.5000000
elis with 0.0024213
elis friends 0.0153846
vimcu left 0.0108696
vimcu erased 0.3333333
vimcu visitors 0.1250000
vimcu removed 0.4000000
vimcu delete 0.6000000
vimcu my 0.0015674
vimcu disappearance 0.2000000
vimcu freedom 0.5000000
vimcu NULL 0.0002663
vimcu Remove 0.5000000
vimcu away 0.0222222
vimcu take 0.0185185
vimcu remove 1.0000000
vimcu peeled 0.2000000
iinai not 0.0018519
iinai afraid 0.0227273
iinai I 0.0002513
iinai &apos;m 0.0017452
iinai . 0.0000896
halloween Halloween 0.1250000
halloween for 0.0016694
betfu a 0.0008170
betfu stomach 0.4000000
betfu with 0.0024213
betfu ache 0.4000000
betfu belly 0.3333333
betfu his 0.0029762
jisygau cleans 0.2500000
jisygau NULL 0.0001331
jisygau up 0.0084746
jisygau their 0.0156250
jisygau clean 0.0625000
jisygau rooms 0.1250000
jisygau own 0.0204082
firsku faces 0.3333333
firsku make 0.0113636
kobes Kobe 0.3333333
kobes Yokohama 0.2000000
no'oi am 0.0039683
no'oi eating 0.0185185
no'oi is 0.0003648
no'oi , 0.0005938
no'oi which 0.0208333
zatsi'o Existentialism 1.0000000
re'o belly 0.1111111
re'o dragging 0.1666667
re'o the 0.0009256
re'o kissing 1.0000000
re'o near 0.0333333
re'o in 0.0027372
re'o it 0.0015015
re'o ear 0.1428571
re'o adjacent 0.2500000
re'o on 0.0087209
re'o upstairs 0.5000000
re'o into 0.0091743
re'o touching 0.3333333
precise &quot; 0.0027248
precise of 0.0007485
precise meaning 0.0285714
precise the 0.0003085
precise precise 0.2000000
klasazri a 0.0008170
klasazri how 0.0069444
klasazri drive 0.1428571
maik this 0.0021413
maik By 0.0434783
maik Mike 0.4117647
maik up 0.0084746
maik has 0.0035461
maik saying 0.0344828
kanjunla my 0.0031348
kanjunla Something 0.0909091
kanjunla watch 0.2068966
kanjunla wrong 0.0312500
kanjunla had 0.0067114
kanjunla with 0.0024213
coi how 0.0208333
coi . 0.0003585
coi who 0.0061350
coi ! 0.0487805
coi &quot; 0.0027248
coi everybody 0.0625000
coi Again 0.5000000
coi Hello 0.7962963
coi greetings 0.5000000
coi Day 0.5000000
coi this 0.0021413
coi hi 0.5000000
coi evening 0.1111111
coi , 0.0261283
coi Good 0.1891892
coi vocative 1.0000000
coi Hey 0.0384615
coi Hi 0.7878788
coi Jacques 0.2000000
coi Greetings 0.5000000
coi NULL 0.0002663
coi coi 0.5000000
selcti ate 0.0114943
taibo her 0.0038760
selnunji'e her 0.0038760
selnunji'e life 0.0250000
selnunji'e own 0.0204082
jinmrdisprosi Dysprosium 1.0000000
gercmo bark 0.2222222
gercmo like 0.0022727
nerklastu entrance 0.2500000
naxle to 0.0004062
naxle channel 0.1666667
ke foreigner 0.1428571
ke red 0.0217391
ke cold-hearted 0.2500000
ke requires 0.1250000
ke elephant 0.2500000
ke a 0.0024510
ke candies 0.1250000
ke sports 0.0909091
ke antique 0.5000000
ke Nomenclature 0.5000000
ke Spaghetti 0.2500000
ke only 0.0093458
ke capricious 0.2000000
ke necklace 0.5000000
ke little 0.0983607
ke duckling 0.2857143
ke pupils 0.2500000
ke Crocodiles 0.2500000
ke lady 0.1111111
ke obliged 0.2000000
ke either 0.1538462
ke snows 0.2500000
ke nice 0.0250000
ke have 0.0064655
ke exact 0.1428571
ke next 0.0588235
ke brothers 0.0714286
ke # 0.3333333
ke natural 0.0769231
ke even 0.1052632
ke kids 0.1000000
ke NULL 0.0007988
ke Polish 0.2500000
ke stank 0.2000000
ke you 0.0005342
ke popsicle 1.0000000
ke risky 0.3333333
ke suit 0.1666667
ke intense 0.1428571
ke unidentified 0.4285714
ke browser 0.1428571
ke louder 0.2000000
ke greasy 0.2500000
ke girlfriend 0.0800000
ke Year 0.1666667
cidjrpitsa cidjrpitsa 0.5000000
cidjrpitsa &quot; 0.0027248
cidjrpitsa word 0.0303030
cidjrpitsa The 0.0009497
tedydesku collapsed 0.5000000
jebo dying 0.0625000
jebo sick 0.0454545
jebo , 0.0011876
jebo not 0.0018519
jebo Not 0.0476190
slovo Slavic 0.5000000
jinru plunging 0.5000000
jinru in 0.0009124
jinru into 0.0091743
jinru immersed 1.0000000
pinonopa 0.001 1.0000000
pinonopa % 0.2500000
cire sake 0.1428571
cire Fahrenheit 0.3333333
cire &apos;s 0.0009852
ra'e 0 0.0909091
ra'e ( 0.0064935
ra'e &quot; 0.0013624
ra'e ) 0.0065789
e'unai advise 0.5000000
e'unai I 0.0002513
e'unai Proceed 0.3333333
e'unai Don 0.0175439
e'unai NULL 0.0001331
e'unai houses 0.0588235
e'unai you 0.0005342
e'unai should 0.0119048
e'unai Forget 0.2000000
e'unai Sam 0.2000000
e'unai not 0.0018519
selpluka &apos;t 0.0010493
selpluka ? 0.0005015
selpluka cute 0.1250000
selpluka it 0.0015015
ma'urcu'e at 0.0056980
ma'urcu'e University 0.2000000
ma'urcu'e college 0.6250000
ma'urcu'e himself 0.0666667
ma'urcu'e away 0.0222222
ma'urcu'e was 0.0016694
pu'u process 0.1428571
pu'u of 0.0007485
pu'u putting 0.1428571
pu'u There 0.0045045
pu'u them 0.0147059
pu'u together 0.0588235
fatri out 0.0178571
fatri scattered 0.6666667
fatri lay 0.1111111
fatri giving 0.0769231
fatri handed 0.0833333
Council.gy City 0.0833333
Council.gy Council 1.0000000
cortygau hurt 0.0526316
ze'u been 0.0102041
ze'u until 0.0370370
ze'u Long 0.3333333
ze'u a 0.0020425
ze'u Absolutely 0.3333333
ze'u for 0.0066778
ze'u have 0.0064655
ze'u time 0.0522388
ze'u How 0.0040323
ze'u , 0.0005938
ze'u no 0.0063291
ze'u spent 0.1666667
ze'u haven 0.0526316
ze'u long 0.1447368
ze'u waited 0.1176471
ze'u NULL 0.0003994
nolnau please 0.0131579
nolnau noblemen 1.0000000
nolnau you 0.0005342
nolnau Sir 0.0833333
nolnau nobleman 1.0000000
nolnau gentleman 1.0000000
nolnau if 0.0109890
vono Forty 1.0000000
vono attended 0.0909091
vono . 0.0001792
vono forty 0.1666667
tigni time 0.0074627
tigni what 0.0032468
tigni over 0.0135135
tigni the 0.0003085
tigni begin 0.1111111
tigni does 0.0138889
tigni is 0.0003648
tigni The 0.0009497
tigni circuses 0.5000000
tigni performing 0.1666667
tigni concert 0.1666667
tigni show 0.0416667
tigni performance 0.2500000
tigni actor 0.3333333
velskina movie 0.0500000
speni spouses 1.0000000
speni unmarried 0.3333333
speni My 0.0020534
speni married 0.5652174
speni marrying 1.0000000
speni marry 0.5000000
speni wife 0.5135135
speni NULL 0.0002663
speni She 0.0051680
speni relationship 0.2500000
speni &apos;s 0.0009852
speni spouse 0.7500000
speni His 0.0142857
speni is 0.0003648
speni husband 0.2500000
cabo when 0.0061350
spoja into 0.0091743
spoja pieces 0.0833333
spoja explodes 0.1428571
spoja exploded 0.3333333
spoja it 0.0015015
je'urja'o It 0.0022222
je'urja'o prove 0.4285714
je'urja'o it 0.0045045
u'ibe'u . 0.0000896
u'ibe'u enough 0.0208333
u'ibe'u , 0.0005938
u'ibe'u Heh 0.2000000
u'ibe'u heh 0.5000000
u'ibe'u not 0.0018519
tokiponas Toki 0.3333333
tokiponas Pona 0.3333333
krilysu'a Crystal 1.0000000
krilysu'a structure 0.3333333
zumri maize 0.4000000
zumri Maize 1.0000000
zumri ... 0.0384615
zumri Corn 0.5000000
zumri ah 1.0000000
la'anai . 0.0000896
la'anai Probably 0.2000000
la'anai unlikely 0.2500000
la'anai It 0.0022222
